{"learner":{"attributes":{"scikit_learn":"{\"_estimator_type\": \"ranker\"}"},"feature_names":["bm25_score","dense_score","price_log","quality","first_observed_age","zero_history","sparse_history"],"feature_types":["float","float","float","float","int","int","int"],"gradient_booster":{"model":{"cats":{"enc":[],"feature_segments":[],"sorted_idx":[]},"gbtree_model_param":{"num_parallel_tree":"1","num_trees":"45"},"iteration_indptr":[0,1,2,3,4,5,6,7,8,9,10,11,12,13,14,15,16,17,18,19,20,21,22,23,24,25,26,27,28,29,30,31,32,33,34,35,36,37,38,39,40,41,42,43,44,45],"tree_info":[0,0,0,0,0,0,0,0,0,0,0,0,0,0,0,0,0,0,0,0,0,0,0,0,0,0,0,0,0,0,0,0,0,0,0,0,0,0,0,0,0,0,0,0,0],"trees":[{"base_weights":[-1.7768441E-3,-7.970967E-1,7.711509E-1,-2.736814E-1,-8.2998276E-1,4.4042578E-1,7.232114E-2,-5.017308E-1,3.884135E-2,-3.0254757E-2,-6.7442246E-2,5.960252E-2,5.183026E-1,-1.272618E-2,-4.5757383E-2,1.4496813E-2,-1.3290124E-2,3.605368E-2,-1.3880455E-2,1.8651235E-3,4.3401703E-2],"categories":[],"categories_nodes":[],"categories_segments":[],"categories_sizes":[],"default_left":[0,0,0,0,0,0,0,0,0,0,0,0,0,0,0,0,0,0,0,0,0],"id":0,"left_children":[1,3,5,7,9,11,-1,13,15,-1,-1,17,19,-1,-1,-1,-1,-1,-1,-1,-1],"loss_changes":[1.07462845E2,1.2558937E0,3.4975243E0,4.8882195E-1,1.5606308E-1,7.804961E-1,0E0,2.3679733E-3,1.3825576E-1,0E0,0E0,6.0463536E-1,2.5808668E-1,0E0,0E0,0E0,0E0,0E0,0E0,0E0,0E0],"parents":[2147483647,0,0,1,1,2,2,3,3,4,4,5,5,7,7,8,8,11,11,12,12],"right_children":[2,4,6,8,10,12,-1,14,16,-1,-1,18,20,-1,-1,-1,-1,-1,-1,-1,-1],"split_conditions":[3.3353064E-2,4.4144768E-1,3.9594913E-1,4.094415E-1,-1.9850945E-2,1.2494702E-1,7.232114E-2,-3.1862864E-3,4.1653492E-4,-3.0254757E-2,-6.7442246E-2,4.6429515E-1,2.6159348E0,-1.272618E-2,-4.5757383E-2,1.4496813E-2,-1.3290124E-2,3.605368E-2,-1.3880455E-2,1.8651235E-3,4.3401703E-2],"split_indices":[1,3,1,3,1,1,0,1,1,0,0,3,2,0,0,0,0,0,0,0,0],"split_type":[0,0,0,0,0,0,0,0,0,0,0,0,0,0,0,0,0,0,0,0,0],"sum_hessian":[1.7281464E2,8.515814E1,8.7656494E1,5.585239E0,7.95729E1,2.6358778E1,6.1297714E1,2.878998E0,2.706241E0,3.0747733E0,7.649813E1,4.774835E0,2.1583942E1,1.045132E0,1.8338659E0,1.6653876E0,1.0408533E0,1.4346746E0,3.3401606E0,1.0983437E0,2.04856E1],"tree_param":{"num_deleted":"0","num_feature":"7","num_nodes":"21","size_leaf_vector":"1"}},{"base_weights":[7.596576E-3,-7.386909E-1,4.270953E-1,-7.8920746E-1,-4.0358308E-1,-5.382351E-3,5.898224E-1,-2.1991665E-3,-7.9840255E-1,-9.850252E-2,-3.757206E-2,1.5713626E-1,-1.5691248E-1,1.9814038E-1,6.1393356E-1,-4.345654E-2,-6.568644E-2,-2.2804653E-2,1.0983401E-2,1.925769E-2,-1.7762154E-2,-2.0892445E-2,3.5138726E-2,3.9035846E-2,-1.1546384E-2,2.737654E-2,5.2329566E-2],"categories":[],"categories_nodes":[],"categories_segments":[],"categories_sizes":[],"default_left":[0,0,0,0,0,0,0,0,0,0,0,0,0,0,0,0,0,0,0,0,0,0,0,0,0,0,0],"id":1,"left_children":[1,3,5,7,9,11,13,-1,15,17,-1,19,21,23,25,-1,-1,-1,-1,-1,-1,-1,-1,-1,-1,-1,-1],"loss_changes":[1.1412956E2,1.9022675E0,1.642612E1,7.691803E-1,3.4137344E-1,1.6202298E0,1.4797478E0,0E0,1.9968414E-1,2.4539268E-1,0E0,1.0600456E0,2.229434E0,1.192907E0,1.5152168E0,0E0,0E0,0E0,0E0,0E0,0E0,0E0,0E0,0E0,0E0,0E0,0E0],"parents":[2147483647,0,0,1,1,2,2,3,3,4,4,5,5,6,6,8,8,9,9,11,11,12,12,13,13,14,14],"right_children":[2,4,6,8,10,12,14,-1,16,18,-1,20,22,24,26,-1,-1,-1,-1,-1,-1,-1,-1,-1,-1,-1,-1],"split_conditions":[1.6749547E-1,3.868546E-2,4.429171E-1,3.215369E-1,8.564894E-2,6.5016085E-1,2.9439125E0,-2.1991665E-3,4.6429515E-1,1E0,-3.757206E-2,3.8983297E0,4.2057366E0,2.5748997E0,4.3315536E-1,-4.345654E-2,-6.568644E-2,-2.2804653E-2,1.0983401E-2,1.925769E-2,-1.7762154E-2,-2.0892445E-2,3.5138726E-2,3.9035846E-2,-1.1546384E-2,2.737654E-2,5.2329566E-2],"split_indices":[1,1,1,3,1,3,2,0,3,6,0,2,2,2,3,0,0,0,0,0,0,0,0,0,0,0,0],"split_type":[0,0,0,0,0,0,0,0,0,0,0,0,0,0,0,0,0,0,0,0,0,0,0,0,0,0,0],"sum_hessian":[3.6254587E2,1.301854E2,2.3236049E2,1.11953606E2,1.8231789E1,6.3790985E1,1.6856949E2,1.3829119E0,1.10570694E2,3.688827E0,1.4542961E1,3.0761627E1,3.3029358E1,1.0309583E1,1.5825992E2,1.1060465E1,9.951023E1,1.9428025E0,1.7460246E0,2.5504416E1,5.2572117E0,2.85917E1,4.4376597E0,5.3540497E0,4.9555335E0,2.1615768E1,1.3664415E2],"tree_param":{"num_deleted":"0","num_feature":"7","num_nodes":"27","size_leaf_vector":"1"}},{"base_weights":[-5.087496E-3,-6.9174623E-1,4.0907037E-1,-7.4580085E-1,-2.3366736E-1,7.896056E-2,4.8790568E-1,-9.7717075E-3,-7.54627E-1,-3.3794437E-2,-2.6992522E-2,1.5497665E-1,-3.876348E-1,3.9631283E-1,6.0765666E-1,-3.9031386E-2,-6.2212165E-2,-2.0581398E-2,1.474166E-2,2.6150808E-2,-2.6713752E-3,-4.712015E-3,-4.1457634E-2,1.0582398E-2,3.6569107E-2,5.2864805E-2,1.741077E-2],"categories":[],"categories_nodes":[],"categories_segments":[],"categories_sizes":[],"default_left":[0,0,0,0,0,0,0,0,0,0,0,0,0,0,0,0,0,0,0,0,0,0,0,0,0,0,0],"id":2,"left_children":[1,3,5,7,9,11,13,-1,15,17,-1,19,21,23,25,-1,-1,-1,-1,-1,-1,-1,-1,-1,-1,-1,-1],"loss_changes":[9.413948E1,2.9094887E0,5.335331E0,5.184784E-1,2.9134685E-1,1.5143075E0,1.5853348E0,0E0,2.9122925E-1,3.4468326E-1,0E0,1.1757324E0,2.283104E-1,1.5001411E0,1.31316E0,0E0,0E0,0E0,0E0,0E0,0E0,0E0,0E0,0E0,0E0,0E0,0E0],"parents":[2147483647,0,0,1,1,2,2,3,3,4,4,5,5,6,6,8,8,9,9,11,11,12,12,13,13,14,14],"right_children":[2,4,6,8,10,12,14,-1,16,18,-1,20,22,24,26,-1,-1,-1,-1,-1,-1,-1,-1,-1,-1,-1,-1],"split_conditions":[1.6749547E-1,3.868546E-2,4.476544E-1,3.215369E-1,1.4435066E0,2.1967304E0,4.1905727E0,-9.7717075E-3,-1.377345E-2,1E0,-2.6992522E-2,6.490671E-1,3.4962044E0,5.454491E-1,7.4446E0,-3.9031386E-2,-6.2212165E-2,-2.0581398E-2,1.474166E-2,2.6150808E-2,-2.6713752E-3,-4.712015E-3,-4.1457634E-2,1.0582398E-2,3.6569107E-2,5.2864805E-2,1.741077E-2],"split_indices":[1,1,1,3,0,0,0,0,1,6,0,3,2,3,0,0,0,0,0,0,0,0,0,0,0,0,0],"split_type":[0,0,0,0,0,0,0,0,0,0,0,0,0,0,0,0,0,0,0,0,0,0,0,0,0,0,0],"sum_hessian":[3.290331E2,1.2353926E2,2.0549385E2,1.0993813E2,1.3601122E1,4.0000393E1,1.6549347E2,1.7412416E0,1.0819689E2,5.100268E0,8.5008545E0,3.497091E1,5.0294824E0,9.621321E1,6.928025E1,1.0360858E1,9.783604E1,2.430115E0,2.6701531E0,1.7899862E1,1.7071049E1,1.8424265E0,3.187056E0,1.8603174E1,7.761004E1,6.0359936E1,8.920318E0],"tree_param":{"num_deleted":"0","num_feature":"7","num_nodes":"27","size_leaf_vector":"1"}},{"base_weights":[3.2781835E-3,-6.895886E-1,3.791552E-1,-3.3508688E-1,-7.3805153E-1,4.4374343E-2,4.699419E-1,-4.6799916E-1,1.7647462E-1,-6.0384188E-2,-2.715354E-1,2.2070229E-1,-1.9321963E-1,5.4221505E-1,2.916515E-1,4.6161115E-3,-4.155606E-2,-1.5875436E-2,3.675778E-2,-8.610878E-3,-2.8013078E-2,1.038658E-2,4.724019E-2,-2.0228822E-2,1.2129275E-2,3.9830737E-2,6.064958E-2,-4.3886015E-5,3.110222E-2],"categories":[],"categories_nodes":[],"categories_segments":[],"categories_sizes":[],"default_left":[0,0,0,0,0,0,0,0,0,0,0,0,0,0,0,0,0,0,0,0,0,0,0,0,0,0,0,0,0],"id":3,"left_children":[1,3,5,7,9,11,13,15,17,-1,19,21,23,25,27,-1,-1,-1,-1,-1,-1,-1,-1,-1,-1,-1,-1,-1,-1],"loss_changes":[8.339093E1,1.687458E0,6.288288E0,1.1280113E0,5.627556E-1,1.9441378E0,1.9447098E0,3.6748958E-1,5.04666E-1,0E0,2.6320845E-2,8.1449366E-1,4.469484E-1,7.228279E-1,1.3975415E0,0E0,0E0,0E0,0E0,0E0,0E0,0E0,0E0,0E0,0E0,0E0,0E0,0E0,0E0],"parents":[2147483647,0,0,1,1,2,2,3,3,4,4,5,5,6,6,7,7,8,8,10,10,11,11,12,12,13,13,14,14],"right_children":[2,4,6,8,10,12,14,16,18,-1,20,22,24,26,28,-1,-1,-1,-1,-1,-1,-1,-1,-1,-1,-1,-1,-1,-1],"split_conditions":[1.2494702E-1,4.737448E-1,4.429171E-1,1.3653767E-2,4.997669E-2,6.5016085E-1,7.3286474E-1,3.2116112E-1,3.9910322E-1,-6.0384188E-2,3.4753768E0,6.400308E-1,4.2057366E0,6.8648404E-1,4.9696037E-1,4.6161115E-3,-4.155606E-2,-1.5875436E-2,3.675778E-2,-8.610878E-3,-2.8013078E-2,1.038658E-2,4.724019E-2,-2.0228822E-2,1.2129275E-2,3.9830737E-2,6.064958E-2,-4.3886015E-5,3.110222E-2],"split_indices":[1,3,1,1,1,3,3,3,3,0,2,3,2,3,1,0,0,0,0,0,0,0,0,0,0,0,0,0,0],"split_type":[0,0,0,0,0,0,0,0,0,0,0,0,0,0,0,0,0,0,0,0,0,0,0,0,0,0,0,0,0],"sum_hessian":[3.1819748E2,1.1161647E2,2.0658102E2,1.4375474E1,9.7241E1,4.4387714E1,1.6219331E2,1.1478359E1,2.8971148E0,9.3273926E1,3.9670649E0,2.5519657E1,1.8868057E1,1.13957466E2,4.8235847E1,1.0124373E0,1.0465922E1,1.3746928E0,1.522422E0,2.054145E0,1.9129196E0,2.1570324E1,3.9493334E0,1.6313328E1,2.5547304E0,9.7287796E1,1.6669668E1,1.2281589E1,3.5954258E1],"tree_param":{"num_deleted":"0","num_feature":"7","num_nodes":"29","size_leaf_vector":"1"}},{"base_weights":[9.124609E-3,-6.2131363E-1,3.7683073E-1,-2.4367206E-1,-6.7687327E-1,2.6698253E-1,6.189565E-1,-4.9856737E-1,6.2872425E-2,-5.4721937E-2,-1.4109599E-2,3.0862704E-1,-1.2214575E-1,7.546175E-2,6.3872695E-1,9.154154E-3,-4.876084E-2,-1.5245329E-2,1.5070826E-2,9.189933E-3,2.834712E-2,-1.7510619E-2,1.9282846E-2,-1.725726E-2,2.5607927E-2,6.1785955E-2,3.9861068E-2],"categories":[],"categories_nodes":[],"categories_segments":[],"categories_sizes":[],"default_left":[0,0,0,0,0,0,0,0,0,0,0,0,0,0,0,0,0,0,0,0,0,0,0,0,0,0,0],"id":4,"left_children":[1,3,5,7,9,11,13,15,17,-1,-1,19,21,23,25,-1,-1,-1,-1,-1,-1,-1,-1,-1,-1,-1,-1],"loss_changes":[7.149894E1,2.2191658E0,5.015646E0,1.292136E0,2.3186493E-1,2.2376556E0,5.9687996E-1,6.7650867E-1,2.971755E-1,0E0,0E0,1.0479479E0,5.3902364E-1,2.9992747E-1,6.997032E-1,0E0,0E0,0E0,0E0,0E0,0E0,0E0,0E0,0E0,0E0,0E0,0E0],"parents":[2147483647,0,0,1,1,2,2,3,3,4,4,5,5,6,6,7,7,8,8,11,11,12,12,13,13,14,14],"right_children":[2,4,6,8,10,12,14,16,18,-1,-1,20,22,24,26,-1,-1,-1,-1,-1,-1,-1,-1,-1,-1,-1,-1],"split_conditions":[1.6977925E0,4.737448E-1,5.091668E0,4.094415E-1,1.4435066E0,8.0208033E-1,2.9301264E0,3.2116112E-1,1E0,-5.4721937E-2,-1.4109599E-2,3.2910104E0,4.1093974E0,6.5016085E-1,3.54933E0,9.154154E-3,-4.876084E-2,-1.5245329E-2,1.5070826E-2,9.189933E-3,2.834712E-2,-1.7510619E-2,1.9282846E-2,-1.725726E-2,2.5607927E-2,6.1785955E-2,3.9861068E-2],"split_indices":[0,3,0,3,0,3,2,3,4,0,0,2,2,3,2,0,0,0,0,0,0,0,0,0,0,0,0],"split_type":[0,0,0,0,0,0,0,0,0,0,0,0,0,0,0,0,0,0,0,0,0,0,0,0,0,0,0],"sum_hessian":[3.0641974E2,1.1262781E2,1.9379195E2,1.5135683E1,9.749213E1,1.3475752E2,5.903443E1,7.92202E0,7.213663E0,9.5757324E1,1.7348022E0,1.2191685E2,1.2840667E1,2.2411585E0,5.679327E1,1.2092341E0,6.7127857E0,2.2175741E0,4.996089E0,2.3943577E1,9.7973274E1,1.0453571E1,2.3870955E0,1.0772239E0,1.1639346E0,2.6802513E1,2.9990759E1],"tree_param":{"num_deleted":"0","num_feature":"7","num_nodes":"27","size_leaf_vector":"1"}},{"base_weights":[1.219174E-2,-6.03291E-1,3.766074E-1,-6.5339464E-1,-1.8664238E-1,2.5011988E-2,4.5909843E-1,9.188927E-3,-6.625818E-1,5.1843416E-2,-2.8304912E-2,1.5778115E-1,-3.114568E-1,3.8983527E-1,6.3939077E-1,-3.692757E-2,-5.5784814E-2,1.5378795E-2,-1.8358031E-2,1.747696E-2,-1.8127212E-2,-3.195272E-2,1.237129E-2,3.6768757E-2,1.8391956E-2,5.6015775E-2,2.8089752E-2],"categories":[],"categories_nodes":[],"categories_segments":[],"categories_sizes":[],"default_left":[0,0,0,0,0,0,0,0,0,0,0,0,0,0,0,0,0,0,0,0,0,0,0,0,0,0,0],"id":5,"left_children":[1,3,5,7,9,11,13,-1,15,17,-1,19,21,23,25,-1,-1,-1,-1,-1,-1,-1,-1,-1,-1,-1,-1],"loss_changes":[6.822416E1,2.2396698E0,5.5292034E0,7.8603745E-1,5.5829316E-1,1.7181466E0,1.6822548E0,0E0,3.7293625E-1,2.9899228E-1,0E0,6.89824E-1,5.089041E-1,1.1699352E0,4.7925568E-1,0E0,0E0,0E0,0E0,0E0,0E0,0E0,0E0,0E0,0E0,0E0,0E0],"parents":[2147483647,0,0,1,1,2,2,3,3,4,4,5,5,6,6,8,8,9,9,11,11,12,12,13,13,14,14],"right_children":[2,4,6,8,10,12,14,-1,16,18,-1,20,22,24,26,-1,-1,-1,-1,-1,-1,-1,-1,-1,-1,-1,-1],"split_conditions":[1.5984099E-1,3.868546E-2,4.476544E-1,3.2116112E-1,1.4435066E0,6.8834937E-1,5.5982876E0,9.188927E-3,5.36537E-1,7.325612E-1,-2.8304912E-2,2.1478047E0,4.2057366E0,3.829076E0,7.4277763E0,-3.692757E-2,-5.5784814E-2,1.5378795E-2,-1.8358031E-2,1.747696E-2,-1.8127212E-2,-3.195272E-2,1.237129E-2,3.6768757E-2,1.8391956E-2,5.6015775E-2,2.8089752E-2],"split_indices":[1,1,1,3,0,3,0,0,3,3,0,0,2,2,0,0,0,0,0,0,0,0,0,0,0,0,0],"split_type":[0,0,0,0,0,0,0,0,0,0,0,0,0,0,0,0,0,0,0,0,0,0,0,0,0,0,0],"sum_hessian":[3.0216327E2,1.12128105E2,1.9003517E2,9.9584465E1,1.2543643E1,3.636074E1,1.5367442E2,1.0408779E0,9.854359E1,5.4534893E0,7.0901537E0,2.6453405E1,9.907335E0,1.1330726E2,4.0367172E1,1.6624214E1,8.191937E1,3.8492134E0,1.6042761E0,2.321939E1,3.2340164E0,8.45497E0,1.4523649E0,7.758573E1,3.5721527E1,3.2155437E1,8.211732E0],"tree_param":{"num_deleted":"0","num_feature":"7","num_nodes":"27","size_leaf_vector":"1"}},{"base_weights":[1.7409671E-2,-5.7357615E-1,3.6456847E-1,-6.299832E-1,-1.2144928E-1,2.3468675E-3,4.476525E-1,-3.9249507E-1,-5.2776154E-2,8.127426E-2,-2.3639122E-2,-1.4715238E-1,1.15813844E-1,5.153636E-1,3.1519505E-1,-3.553186E-2,7.846949E-3,-1.4011926E-2,2.1273283E-2,-4.7411743E-4,-3.9082266E-2,-2.2249625E-3,2.2825193E-2,2.2514509E-2,4.711007E-2,3.7143372E-2,1.751726E-2],"categories":[],"categories_nodes":[],"categories_segments":[],"categories_sizes":[],"default_left":[0,0,0,0,0,0,0,0,0,0,0,0,0,0,0,0,0,0,0,0,0,0,0,0,0,0,0],"id":6,"left_children":[1,3,5,7,9,11,13,15,-1,17,-1,19,21,23,25,-1,-1,-1,-1,-1,-1,-1,-1,-1,-1,-1,-1],"loss_changes":[6.060636E1,2.711605E0,5.598341E0,4.2538834E-1,4.95565E-1,6.2296104E-1,1.1948891E0,3.7938952E-1,0E0,3.7601683E-1,0E0,7.613955E-1,5.159258E-1,1.5293827E0,6.697726E-1,0E0,0E0,0E0,0E0,0E0,0E0,0E0,0E0,0E0,0E0,0E0,0E0],"parents":[2147483647,0,0,1,1,2,2,3,3,4,4,5,5,6,6,7,7,9,9,11,11,12,12,13,13,14,14],"right_children":[2,4,6,8,10,12,14,16,-1,18,-1,20,22,24,26,-1,-1,-1,-1,-1,-1,-1,-1,-1,-1,-1,-1],"split_conditions":[1.5586592E-1,3.868546E-2,4.429171E-1,-1.1161645E-2,1.4435066E0,1E0,2E0,4.2580214E0,-5.2776154E-2,1E0,-2.3639122E-2,2.1006577E0,1E0,5.053602E-1,3.4101572E0,-3.553186E-2,7.846949E-3,-1.4011926E-2,2.1273283E-2,-4.7411743E-4,-3.9082266E-2,-2.2249625E-3,2.2825193E-2,2.2514509E-2,4.711007E-2,3.7143372E-2,1.751726E-2],"split_indices":[1,1,1,1,0,6,4,2,0,6,0,0,4,1,2,0,0,0,0,0,0,0,0,0,0,0,0],"split_type":[0,0,0,0,0,0,0,0,0,0,0,0,0,0,0,0,0,0,0,0,0,0,0,0,0,0,0],"sum_hessian":[2.9338248E2,1.0832433E2,1.8505815E2,9.595916E1,1.236517E1,3.4719543E1,1.503386E2,1.2252681E1,8.370648E1,5.958109E0,6.4070606E0,1.4852996E1,1.9866549E1,9.7570595E1,5.2768E1,1.1171127E1,1.081554E0,2.5157478E0,3.442361E0,1.1226144E1,3.6268518E0,1.1206606E1,8.659943E0,2.4484375E1,7.308622E1,1.9197956E1,3.3570045E1],"tree_param":{"num_deleted":"0","num_feature":"7","num_nodes":"27","size_leaf_vector":"1"}},{"base_weights":[1.2563549E-2,-6.130828E-1,3.1014082E-1,-2.9318047E-1,-6.549915E-1,8.955417E-2,4.808895E-1,-4.0985128E-1,1.2580074E-1,-4.1212434E-1,-5.405754E-2,1.6312739E-1,-2.2109115E-1,-2.489417E-1,5.0942105E-1,-7.690426E-3,-4.153169E-2,-2.0599997E-2,3.0409014E-2,-2.4819123E-3,-4.0480502E-2,-4.0884567E-3,1.7654927E-2,-2.6919581E-2,-5.8800094E-3,-3.2947117E-3,-2.9875258E-2,4.6647284E-2,2.9126061E-2],"categories":[],"categories_nodes":[],"categories_segments":[],"categories_sizes":[],"default_left":[0,0,0,0,0,0,0,0,0,0,0,0,0,0,0,0,0,0,0,0,0,0,0,0,0,0,0,0,0],"id":7,"left_children":[1,3,5,7,9,11,13,15,17,19,-1,21,23,25,27,-1,-1,-1,-1,-1,-1,-1,-1,-1,-1,-1,-1,-1,-1],"loss_changes":[5.4371223E1,1.0700455E0,7.4100437E0,6.730728E-1,1.3645172E-1,2.037455E0,2.4446754E0,2.9914284E-1,4.424114E-1,3.0791223E-1,0E0,8.914149E-1,2.6810533E-1,1.1031574E-1,9.3826294E-1,0E0,0E0,0E0,0E0,0E0,0E0,0E0,0E0,0E0,0E0,0E0,0E0,0E0,0E0],"parents":[2147483647,0,0,1,1,2,2,3,3,4,4,5,5,6,6,7,7,8,8,9,9,11,11,12,12,13,13,14,14],"right_children":[2,4,6,8,10,12,14,16,18,20,-1,22,24,26,28,-1,-1,-1,-1,-1,-1,-1,-1,-1,-1,-1,-1,-1,-1],"split_conditions":[4.997669E-2,4.737448E-1,5.053602E-1,4.37563E-3,-1.4825482E-2,7.3286474E-1,3.6325148E-1,-7.4210893E-3,3.9910322E-1,5.961995E-1,-5.405754E-2,3.2741213E0,1E0,3.547655E-1,3.698087E0,-7.690426E-3,-4.153169E-2,-2.0599997E-2,3.0409014E-2,-2.4819123E-3,-4.0480502E-2,-4.0884567E-3,1.7654927E-2,-2.6919581E-2,-5.8800094E-3,-3.2947117E-3,-2.9875258E-2,4.6647284E-2,2.9126061E-2],"split_indices":[1,3,1,1,1,3,3,1,3,3,0,2,6,3,2,0,0,0,0,0,0,0,0,0,0,0,0,0,0],"split_type":[0,0,0,0,0,0,0,0,0,0,0,0,0,0,0,0,0,0,0,0,0,0,0,0,0,0,0,0,0],"sum_hessian":[2.9001746E2,9.3137886E1,1.9687956E2,1.171434E1,8.1423546E1,8.656829E1,1.1031128E2,9.179875E0,2.534465E0,8.044841E0,7.33787E1,7.037544E1,1.6192844E1,3.8595529E0,1.0645173E2,2.8574305E0,6.3224444E0,1.005872E0,1.5285932E0,1.853061E0,6.1917796E0,1.4927602E1,5.544784E1,8.369047E0,7.8237963E0,1.9448617E0,1.9146912E0,6.864592E1,3.7805805E1],"tree_param":{"num_deleted":"0","num_feature":"7","num_nodes":"29","size_leaf_vector":"1"}},{"base_weights":[-2.2572365E-3,-6.1172515E-1,2.9377693E-1,-3.7598905E-1,-6.404147E-1,6.2933095E-2,4.6164575E-1,-4.390397E-1,-6.2623285E-2,-2.5642227E-2,-5.1917713E-2,1.3719544E-1,-2.4442461E-1,-1.5838663E-1,4.7773626E-1,-8.151114E-3,-4.4083223E-2,-2.3835467E-2,1.5421766E-2,-7.916395E-3,1.5789503E-2,-3.0456424E-2,-6.8132784E-3,-4.7273858E-4,-2.0306591E-2,1.701592E-3,3.952514E-2],"categories":[],"categories_nodes":[],"categories_segments":[],"categories_sizes":[],"default_left":[0,0,0,0,0,0,0,0,0,0,0,0,0,0,0,0,0,0,0,0,0,0,0,0,0,0,0],"id":8,"left_children":[1,3,5,7,9,11,13,15,17,-1,-1,19,21,23,25,-1,-1,-1,-1,-1,-1,-1,-1,-1,-1,-1,-1],"loss_changes":[5.0694904E1,3.8046265E-1,7.2997494E0,2.1727312E-1,1.2252808E-2,1.8774334E0,1.1665077E0,3.270123E-1,2.522445E-1,0E0,0E0,9.531816E-1,3.1657195E-1,4.967992E-2,7.856579E-1,0E0,0E0,0E0,0E0,0E0,0E0,0E0,0E0,0E0,0E0,0E0,0E0],"parents":[2147483647,0,0,1,1,2,2,3,3,4,4,5,5,6,6,7,7,8,8,11,11,12,12,13,13,14,14],"right_children":[2,4,6,8,10,12,14,16,18,-1,-1,20,22,24,26,-1,-1,-1,-1,-1,-1,-1,-1,-1,-1,-1,-1],"split_conditions":[3.868546E-2,4.737448E-1,5.053602E-1,4.37563E-3,2.5510066E0,7.3286474E-1,3.6325148E-1,-7.964989E-3,3.9910322E-1,-2.5642227E-2,-5.1917713E-2,3.2741213E0,1E0,3.547655E-1,2.9301264E0,-8.151114E-3,-4.4083223E-2,-2.3835467E-2,1.5421766E-2,-7.916395E-3,1.5789503E-2,-3.0456424E-2,-6.8132784E-3,-4.7273858E-4,-2.0306591E-2,1.701592E-3,3.952514E-2],"split_indices":[1,3,1,1,2,3,3,1,3,0,0,2,6,3,2,0,0,0,0,0,0,0,0,0,0,0,0],"split_type":[0,0,0,0,0,0,0,0,0,0,0,0,0,0,0,0,0,0,0,0,0,0,0,0,0,0,0],"sum_hessian":[2.789815E2,9.085828E1,1.8812321E2,1.1388309E1,7.946997E1,7.978384E1,1.0833938E2,9.14687E0,2.2414389E0,3.0723295E0,7.639764E1,6.470399E1,1.5079848E1,2.5167139E0,1.0582266E2,2.7570758E0,6.389794E0,1.0798624E0,1.1615766E0,1.3008324E1,5.1695667E1,7.3768506E0,7.7029977E0,1.3777037E0,1.1390102E0,3.7341096E0,1.02088554E2],"tree_param":{"num_deleted":"0","num_feature":"7","num_nodes":"27","size_leaf_vector":"1"}},{"base_weights":[-1.5574135E-5,-5.2941906E-1,3.1695235E-1,-5.890863E-1,-1.4320846E-1,-2.2545613E-2,3.9960983E-1,-1.2447936E-1,-6.062669E-1,1.6937791E-1,-2.1920525E-1,1.3322555E-1,-2.5393292E-1,3.238277E-1,5.7157046E-1,-2.243054E-2,1.2933336E-2,-3.2540295E-2,-5.165072E-2,2.4175774E-2,-4.9360255E-3,-2.7525362E-2,-8.571789E-3,-1.38034355E-2,2.2778668E-2,-2.4237124E-2,-1.5171889E-3,2.838461E-2,-1.272678E-2,-1.7591978E-3,4.755787E-2],"categories":[],"categories_nodes":[],"categories_segments":[],"categories_sizes":[],"default_left":[0,0,0,0,0,0,0,0,0,0,0,0,0,0,0,0,0,0,0,0,0,0,0,0,0,0,0,0,0,0,0],"id":9,"left_children":[1,3,5,7,9,11,13,15,17,19,21,23,25,27,29,-1,-1,-1,-1,-1,-1,-1,-1,-1,-1,-1,-1,-1,-1,-1,-1],"loss_changes":[4.6177605E1,2.2905273E0,4.8393135E0,6.345234E-1,3.9613268E-1,1.2827117E0,1.6195202E0,2.4296314E-1,4.0904808E-1,1.2667145E-1,1.3932824E-1,1.0388551E0,1.5882927E-1,1.5289764E0,5.711527E-1,0E0,0E0,0E0,0E0,0E0,0E0,0E0,0E0,0E0,0E0,0E0,0E0,0E0,0E0,0E0,0E0],"parents":[2147483647,0,0,1,1,2,2,3,3,4,4,5,5,6,6,7,7,8,8,9,9,10,10,11,11,12,12,13,13,14,14],"right_children":[2,4,6,8,10,12,14,16,18,20,22,24,26,28,30,-1,-1,-1,-1,-1,-1,-1,-1,-1,-1,-1,-1,-1,-1,-1,-1],"split_conditions":[1.6749547E-1,3.868546E-2,4.429171E-1,2.5510066E0,4.8730305E-1,6.4616054E-1,5.5982876E0,1.1086072E-3,5.36537E-1,8.564894E-2,1.2494702E-1,1E0,4.2057366E0,8.0208033E-1,2.9301264E0,-2.243054E-2,1.2933336E-2,-3.2540295E-2,-5.165072E-2,2.4175774E-2,-4.9360255E-3,-2.7525362E-2,-8.571789E-3,-1.38034355E-2,2.2778668E-2,-2.4237124E-2,-1.5171889E-3,2.838461E-2,-1.272678E-2,-1.7591978E-3,4.755787E-2],"split_indices":[1,1,1,2,3,3,0,1,3,1,1,4,2,3,2,0,0,0,0,0,0,0,0,0,0,0,0,0,0,0,0],"split_type":[0,0,0,0,0,0,0,0,0,0,0,0,0,0,0,0,0,0,0,0,0,0,0,0,0,0,0,0,0,0,0],"sum_hessian":[2.731879E2,1.0205844E2,1.7112946E2,8.7946014E1,1.4112429E1,3.3649315E1,1.3748013E2,3.4301946E0,8.4515816E1,2.5197132E0,1.1592716E1,2.0364237E1,1.328508E1,9.742751E1,4.005262E1,2.233468E0,1.1967266E0,1.5795633E1,6.8720184E1,1.404604E0,1.1151091E0,4.50383E0,7.088886E0,6.701213E0,1.3663023E1,1.07520485E1,2.533031E0,9.18034E1,5.6241126E0,1.4895235E0,3.85631E1],"tree_param":{"num_deleted":"0","num_feature":"7","num_nodes":"31","size_leaf_vector":"1"}},{"base_weights":[1.2081098E-2,-5.002535E-1,2.9257095E-1,-1.5685204E-1,-5.628831E-1,1.6912961E-1,4.9208805E-1,-4.584985E-1,1.15466185E-1,-2.0828106E-2,-4.573049E-2,2.8229374E-1,-1.3914984E-2,-1.0418168E-2,5.093858E-1,-2.3828822E-3,-4.134059E-2,-9.363574E-3,2.146918E-2,5.155062E-3,2.9842975E-2,3.91857E-3,-2.381688E-2,5.316534E-2,3.0495975E-2],"categories":[],"categories_nodes":[],"categories_segments":[],"categories_sizes":[],"default_left":[0,0,0,0,0,0,0,0,0,0,0,0,0,0,0,0,0,0,0,0,0,0,0,0,0],"id":10,"left_children":[1,3,5,7,9,11,13,15,17,-1,-1,19,21,-1,23,-1,-1,-1,-1,-1,-1,-1,-1,-1,-1],"loss_changes":[3.9498196E1,2.003254E0,4.290557E0,1.3990152E0,6.782532E-2,2.3080516E0,7.9138565E-1,1.8381667E-1,3.6597323E-1,0E0,0E0,1.3357768E0,7.9015064E-1,0E0,1.0543022E0,0E0,0E0,0E0,0E0,0E0,0E0,0E0,0E0,0E0,0E0],"parents":[2147483647,0,0,1,1,2,2,3,3,4,4,5,5,6,6,7,7,8,8,11,11,12,12,14,14],"right_children":[2,4,6,8,10,12,14,16,18,-1,-1,20,22,-1,24,-1,-1,-1,-1,-1,-1,-1,-1,-1,-1],"split_conditions":[1.6661838E0,4.737448E-1,4.1905727E0,4.094415E-1,2.5510066E0,6.4616054E-1,3.6325148E-1,3.2116112E-1,2E0,-2.0828106E-2,-4.573049E-2,5.454491E-1,8.1660914E-1,-1.0418168E-2,5.5065227E-1,-2.3828822E-3,-4.134059E-2,-9.363574E-3,2.146918E-2,5.155062E-3,2.9842975E-2,3.91857E-3,-2.381688E-2,5.316534E-2,3.0495975E-2],"split_indices":[0,3,0,3,2,3,3,3,4,0,0,3,3,0,3,0,0,0,0,0,0,0,0,0,0],"split_type":[0,0,0,0,0,0,0,0,0,0,0,0,0,0,0,0,0,0,0,0,0,0,0,0,0],"sum_hessian":[2.7283826E2,9.624905E1,1.7658922E2,1.5386797E1,8.086225E1,1.1023467E2,6.6354546E1,6.9759083E0,8.410889E0,3.1370058E0,7.772525E1,6.7785355E1,4.2449318E1,1.6179419E0,6.47366E1,1.0153649E0,5.960543E0,3.4297729E0,4.981116E0,2.0435131E1,4.7350224E1,3.5425453E1,7.023864E0,2.7391874E1,3.734473E1],"tree_param":{"num_deleted":"0","num_feature":"7","num_nodes":"25","size_leaf_vector":"1"}},{"base_weights":[-1.24042705E-2,-5.5748624E-1,2.5540003E-1,1.1135541E-2,-5.6780696E-1,-4.6219196E-2,3.568312E-1,-3.7068468E-1,-5.904998E-1,8.475034E-2,-2.0708676E-1,2.9417065E-1,5.1006275E-1,-3.686752E-2,-4.4051098E-4,-1.9886963E-2,-4.8080947E-2,-1.49045335E-2,1.4663088E-2,4.6891705E-3,-2.1493426E-2,-1.5901732E-3,2.6106285E-2,9.4868556E-5,4.253858E-2],"categories":[],"categories_nodes":[],"categories_segments":[],"categories_sizes":[],"default_left":[0,0,0,0,0,0,0,0,0,0,0,0,0,0,0,0,0,0,0,0,0,0,0,0,0],"id":11,"left_children":[1,3,5,-1,7,9,11,13,15,17,19,21,23,-1,-1,-1,-1,-1,-1,-1,-1,-1,-1,-1,-1],"loss_changes":[3.835295E1,7.013588E-1,5.407379E0,0E0,1.6350365E-1,9.704912E-1,1.1171665E0,3.764665E-1,1.2006378E-1,7.190185E-1,3.5262144E-1,9.763708E-1,4.0674686E-1,0E0,0E0,0E0,0E0,0E0,0E0,0E0,0E0,0E0,0E0,0E0,0E0],"parents":[2147483647,0,0,1,1,2,2,4,4,5,5,6,6,7,7,8,8,9,9,10,10,11,11,12,12],"right_children":[2,4,6,-1,8,10,12,14,16,18,20,22,24,-1,-1,-1,-1,-1,-1,-1,-1,-1,-1,-1,-1],"split_conditions":[3.868546E-2,3.2116112E-1,4.429171E-1,1.1135541E-2,4.737448E-1,6.4616054E-1,5.5982876E0,2.7874974E-3,2.5510066E0,1E0,1.4435066E0,3.1432898E0,2.9301264E0,-3.686752E-2,-4.4051098E-4,-1.9886963E-2,-4.8080947E-2,-1.49045335E-2,1.4663088E-2,4.6891705E-3,-2.1493426E-2,-1.5901732E-3,2.6106285E-2,9.4868556E-5,4.253858E-2],"split_indices":[1,3,1,0,3,3,0,1,2,4,0,2,2,0,0,0,0,0,0,0,0,0,0,0,0],"split_type":[0,0,0,0,0,0,0,0,0,0,0,0,0,0,0,0,0,0,0,0,0,0,0,0,0],"sum_hessian":[2.6076053E2,8.555084E1,1.7520969E2,1.066579E0,8.448426E1,4.423004E1,1.3097964E2,1.0511406E1,7.3972855E1,2.4641472E1,1.9588568E1,9.503645E1,3.5943195E1,8.219992E0,2.2914145E0,2.941639E0,7.103122E1,6.332223E0,1.830925E1,3.694825E0,1.58937435E1,8.863092E0,8.6173355E1,1.5111336E0,3.443206E1],"tree_param":{"num_deleted":"0","num_feature":"7","num_nodes":"25","size_leaf_vector":"1"}},{"base_weights":[-2.0680209E-3,-5.434292E-1,2.4623473E-1,-3.374553E-1,-5.696326E-1,-3.78439E-2,3.4361255E-1,-3.0316586E-2,-2.39126E-3,-1.7730261E-1,-4.6565287E-2,2.0423414E-1,-1.00267015E-1,2.6048464E-1,4.704921E-1,-2.6322374E-2,8.332465E-3,1.7295411E-3,3.664869E-2,-2.2777596E-2,-3.0461764E-3,2.3700846E-2,-7.6807663E-3,4.4794295E-2,2.6246618E-2],"categories":[],"categories_nodes":[],"categories_segments":[],"categories_sizes":[],"default_left":[0,0,0,0,0,0,0,0,0,0,0,0,0,0,0,0,0,0,0,0,0,0,0,0,0],"id":12,"left_children":[1,3,5,7,9,11,13,-1,-1,15,-1,17,19,21,23,-1,-1,-1,-1,-1,-1,-1,-1,-1,-1],"loss_changes":[3.532914E1,2.5380898E-1,4.997504E0,1.3904274E-1,2.4733925E-1,7.291768E-1,1.2938137E0,0E0,0E0,1.8994978E-1,0E0,4.5109275E-1,4.2454562E-1,1.091774E0,4.775219E-1,0E0,0E0,0E0,0E0,0E0,0E0,0E0,0E0,0E0,0E0],"parents":[2147483647,0,0,1,1,2,2,3,3,4,4,5,5,6,6,9,9,11,11,12,12,13,13,14,14],"right_children":[2,4,6,8,10,12,14,-1,-1,16,-1,18,20,22,24,-1,-1,-1,-1,-1,-1,-1,-1,-1,-1],"split_conditions":[3.868546E-2,-1.1161645E-2,4.429171E-1,1E0,2.5510066E0,1.4435066E0,4.4003124E0,-3.0316586E-2,-2.39126E-3,2.4173947E-4,-4.6565287E-2,1.1305692E-1,1.6749547E-1,6.36642E-1,3.54933E0,-2.6322374E-2,8.332465E-3,1.7295411E-3,3.664869E-2,-2.2777596E-2,-3.0461764E-3,2.3700846E-2,-7.6807663E-3,4.4794295E-2,2.6246618E-2],"split_indices":[1,1,1,5,2,0,0,0,0,1,0,1,1,1,2,0,0,0,0,0,0,0,0,0,0],"split_type":[0,0,0,0,0,0,0,0,0,0,0,0,0,0,0,0,0,0,0,0,0,0,0,0,0],"sum_hessian":[2.608282E2,8.164135E1,1.7918684E2,1.0780286E1,7.086106E1,4.5898712E1,1.3328813E2,9.294046E0,1.4862394E0,2.6454723E0,6.821559E1,8.943577E0,3.6955135E1,8.237279E1,5.091534E1,1.6090548E0,1.0364176E0,5.832994E0,3.1105833E0,8.415827E0,2.8539309E1,7.501375E1,7.359038E0,2.947345E1,2.144189E1],"tree_param":{"num_deleted":"0","num_feature":"7","num_nodes":"25","size_leaf_vector":"1"}},{"base_weights":[-4.8494427E-3,-3.892069E-1,3.35847E-1,-5.4136354E-1,-8.9042544E-2,2.6309296E-1,4.6791616E-1,-3.3604616E-1,-5.6666154E-1,4.8737247E-2,-2.617809E-1,3.7136155E-1,1.473336E-1,-5.0591677E-3,4.809416E-1,-3.2417603E-2,-3.8824003E-4,-2.0848226E-2,-4.615028E-2,-1.4354696E-2,1.0949512E-2,-2.7517721E-2,-1.0963693E-2,1.9725777E-2,5.4714765E-2,4.1412648E-2,7.3048323E-3,4.9063005E-2,2.9252972E-2],"categories":[],"categories_nodes":[],"categories_segments":[],"categories_sizes":[],"default_left":[0,0,0,0,0,0,0,0,0,0,0,0,0,0,0,0,0,0,0,0,0,0,0,0,0,0,0,0,0],"id":13,"left_children":[1,3,5,7,9,11,13,15,17,19,21,23,25,-1,27,-1,-1,-1,-1,-1,-1,-1,-1,-1,-1,-1,-1,-1,-1],"loss_changes":[3.3437565E1,5.431511E0,1.1776018E0,2.2210312E-1,1.0018078E0,1.0678792E0,3.5419655E-1,2.539295E-1,6.621933E-2,5.0638837E-1,1.435082E-1,1.6109972E0,8.852026E-1,0E0,4.744339E-1,0E0,0E0,0E0,0E0,0E0,0E0,0E0,0E0,0E0,0E0,0E0,0E0,0E0,0E0],"parents":[2147483647,0,0,1,1,2,2,3,3,4,4,5,5,6,6,7,7,8,8,9,9,10,10,11,11,12,12,14,14],"right_children":[2,4,6,8,10,12,14,16,18,20,22,24,26,-1,28,-1,-1,-1,-1,-1,-1,-1,-1,-1,-1,-1,-1,-1,-1],"split_conditions":[4.248715E-1,3.868546E-2,7.1410227E-1,4.737448E-1,6.4616054E-1,6.109126E-1,3.6325148E-1,4.37563E-3,2.5510066E0,1E0,1E0,6.057098E-1,4.5029706E-1,-5.0591677E-3,5.5065227E-1,-3.2417603E-2,-3.8824003E-4,-2.0848226E-2,-4.615028E-2,-1.4354696E-2,1.0949512E-2,-2.7517721E-2,-1.0963693E-2,1.9725777E-2,5.4714765E-2,4.1412648E-2,7.3048323E-3,4.9063005E-2,2.9252972E-2],"split_indices":[1,1,1,3,3,3,3,1,2,4,6,3,1,0,3,0,0,0,0,0,0,0,0,0,0,0,0,0,0],"split_type":[0,0,0,0,0,0,0,0,0,0,0,0,0,0,0,0,0,0,0,0,0,0,0,0,0,0,0,0,0],"sum_hessian":[2.5334937E2,1.1897973E2,1.3436963E2,7.842278E1,4.0556946E1,8.857028E1,4.579935E1,1.0169665E1,6.825312E1,2.2960787E1,1.7596157E1,4.4624954E1,4.394533E1,1.0039706E0,4.4795383E1,8.227693E0,1.9419732E0,3.0611255E0,6.519199E1,6.108929E0,1.6851858E1,9.547478E0,8.04868E0,3.31709E1,1.1454056E1,4.6917644E0,3.9253567E1,1.8842888E1,2.5952494E1],"tree_param":{"num_deleted":"0","num_feature":"7","num_nodes":"29","size_leaf_vector":"1"}},{"base_weights":[-2.0892548E-3,-5.174776E-1,2.4105872E-1,1.1375325E-2,-5.282231E-1,-5.7055563E-2,3.4729275E-1,-3.532202E-1,-5.591629E-1,3.3505704E-2,-2.649574E-1,3.7614763E-1,-6.0071416E-2,-3.2836374E-2,-6.735143E-3,-1.7497944E-2,-4.5832973E-2,2.0790491E-2,-2.6051807E-3,-1.3372125E-2,-2.6663058E-2,1.678506E-2,3.4672484E-2,-2.4995817E-2,3.918266E-2],"categories":[],"categories_nodes":[],"categories_segments":[],"categories_sizes":[],"default_left":[0,0,0,0,0,0,0,0,0,0,0,0,0,0,0,0,0,0,0,0,0,0,0,0,0],"id":14,"left_children":[1,3,5,-1,7,9,11,13,15,17,19,21,23,-1,-1,-1,-1,-1,-1,-1,-1,-1,-1,-1,-1],"loss_changes":[3.1481405E1,6.45916E-1,5.42572E0,0E0,2.3266411E-1,8.6941504E-1,1.5035372E0,1.9103706E-1,1.826706E-1,4.9792308E-1,3.7724018E-2,1.0309372E0,1.4291947E0,0E0,0E0,0E0,0E0,0E0,0E0,0E0,0E0,0E0,0E0,0E0,0E0],"parents":[2147483647,0,0,1,1,2,2,4,4,5,5,6,6,7,7,8,8,9,9,10,10,11,11,12,12],"right_children":[2,4,6,-1,8,10,12,14,16,18,20,22,24,-1,-1,-1,-1,-1,-1,-1,-1,-1,-1,-1,-1],"split_conditions":[3.868546E-2,3.2116112E-1,4.476544E-1,1.1375325E-2,5.36537E-1,6.91699E-1,8.0208033E-1,4.37563E-3,2.5510066E0,1.4435066E0,2E0,5.053602E-1,4.1093974E0,-3.2836374E-2,-6.735143E-3,-1.7497944E-2,-4.5832973E-2,2.0790491E-2,-2.6051807E-3,-1.3372125E-2,-2.6663058E-2,1.678506E-2,3.4672484E-2,-2.4995817E-2,3.918266E-2],"split_indices":[1,3,1,0,3,3,3,1,2,0,4,1,2,0,0,0,0,0,0,0,0,0,0,0,0],"split_type":[0,0,0,0,0,0,0,0,0,0,0,0,0,0,0,0,0,0,0,0,0,0,0,0,0],"sum_hessian":[2.492215E2,7.952602E1,1.6969547E2,1.0785896E0,7.8447426E1,4.470555E1,1.2498992E2,1.36509285E1,6.47965E1,3.1725067E1,1.2980483E1,1.1679369E2,8.196226E0,1.0822778E1,2.8281507E0,3.1716974E0,6.16248E1,6.5047216E0,2.5220345E1,6.7561827E0,6.2243004E0,3.1103405E1,8.569029E1,5.9136834E0,2.2825425E0],"tree_param":{"num_deleted":"0","num_feature":"7","num_nodes":"25","size_leaf_vector":"1"}},{"base_weights":[1.6304871E-2,-4.5340917E-1,2.8672764E-1,-5.120276E-1,-1.3420314E-1,-2.2064708E-2,3.5751376E-1,1.0802125E-2,-5.224649E-1,-3.087968E-1,1.7852284E-2,9.593404E-2,-2.1284743E-1,4.3523067E-1,2.0665275E-1,-2.6494153E-2,-4.365235E-2,-3.1266835E-2,-1.2975958E-2,1.6775863E-2,-9.876461E-3,-1.72851E-2,1.7281987E-2,-2.0673824E-2,1.3471155E-3,1.927182E-2,3.797129E-2,-1.0485161E-2,2.10304E-2],"categories":[],"categories_nodes":[],"categories_segments":[],"categories_sizes":[],"default_left":[0,0,0,0,0,0,0,0,0,0,0,0,0,0,0,0,0,0,0,0,0,0,0,0,0,0,0,0,0],"id":15,"left_children":[1,3,5,7,9,11,13,-1,15,17,19,21,23,25,27,-1,-1,-1,-1,-1,-1,-1,-1,-1,-1,-1,-1,-1,-1],"loss_changes":[3.1882814E1,1.6475334E0,3.4889784E0,5.91486E-1,4.192796E-1,7.102186E-1,1.4297409E0,0E0,1.5694046E-1,2.4518967E-2,2.7735162E-1,7.8184384E-1,1.301778E-1,5.3391457E-1,9.0744984E-1,0E0,0E0,0E0,0E0,0E0,0E0,0E0,0E0,0E0,0E0,0E0,0E0,0E0,0E0],"parents":[2147483647,0,0,1,1,2,2,3,3,4,4,5,5,6,6,8,8,9,9,10,10,11,11,12,12,13,13,14,14],"right_children":[2,4,6,8,10,12,14,-1,16,18,20,22,24,26,28,-1,-1,-1,-1,-1,-1,-1,-1,-1,-1,-1,-1,-1,-1],"split_conditions":[1.6749547E-1,3.868546E-2,4.476544E-1,3.2116112E-1,1E0,6.490671E-1,2E0,1.0802125E-2,-1.1161645E-2,1.2494702E-1,1.0417461E-1,1E0,4.2057366E0,5.053602E-1,4.3315536E-1,-2.6494153E-2,-4.365235E-2,-3.1266835E-2,-1.2975958E-2,1.6775863E-2,-9.876461E-3,-1.72851E-2,1.7281987E-2,-2.0673824E-2,1.3471155E-3,1.927182E-2,3.797129E-2,-1.0485161E-2,2.10304E-2],"split_indices":[1,1,1,3,6,3,4,0,1,1,1,4,2,1,3,0,0,0,0,0,0,0,0,0,0,0,0,0,0],"split_type":[0,0,0,0,0,0,0,0,0,0,0,0,0,0,0,0,0,0,0,0,0,0,0,0,0,0,0,0,0],"sum_hessian":[2.4898007E2,9.0722275E1,1.582578E2,7.613661E1,1.4585664E1,2.9641237E1,1.2861656E2,1.0191293E0,7.5117485E1,6.309792E0,8.275871E0,1.862121E1,1.1020027E1,8.364262E1,4.497395E1,9.773984E0,6.53435E1,2.9774866E0,3.3323054E0,3.3049483E0,4.9709234E0,4.953296E0,1.3667913E1,9.091033E0,1.9289947E0,1.530185E1,6.834077E1,6.2291117E0,3.8744835E1],"tree_param":{"num_deleted":"0","num_feature":"7","num_nodes":"29","size_leaf_vector":"1"}},{"base_weights":[-1.2056628E-2,-3.5888526E-1,3.1137657E-1,-5.066211E-1,-8.631689E-2,2.5091797E-1,4.6626267E-1,9.030905E-3,-5.169638E-1,-9.4278913E-4,-2.6881573E-1,4.312698E-2,2.993186E-1,5.148071E-1,2.2365113E-1,-2.7297447E-2,-4.3965016E-2,1.9473646E-2,-5.4530916E-3,-2.9748248E-2,-8.346101E-3,3.1776696E-2,-1.3953002E-2,2.6047872E-2,-1.4120345E-2,4.4955596E-2,1.5106842E-2,-4.955761E-3,4.3363027E-2],"categories":[],"categories_nodes":[],"categories_segments":[],"categories_sizes":[],"default_left":[0,0,0,0,0,0,0,0,0,0,0,0,0,0,0,0,0,0,0,0,0,0,0,0,0,0,0,0,0],"id":16,"left_children":[1,3,5,7,9,11,13,-1,15,17,19,21,23,25,27,-1,-1,-1,-1,-1,-1,-1,-1,-1,-1,-1,-1,-1,-1],"loss_changes":[2.6919317E1,4.6186266E0,1.0459929E0,5.3813934E-1,6.526192E-1,9.0724945E-1,2.8179693E-1,0E0,2.3546028E-1,5.020126E-1,1.8749225E-1,1.4906825E0,9.8329115E-1,3.1360435E-1,7.053225E-1,0E0,0E0,0E0,0E0,0E0,0E0,0E0,0E0,0E0,0E0,0E0,0E0,0E0,0E0],"parents":[2147483647,0,0,1,1,2,2,3,3,4,4,5,5,6,6,8,8,9,9,10,10,11,11,12,12,13,13,14,14],"right_children":[2,4,6,8,10,12,14,-1,16,18,20,22,24,26,28,-1,-1,-1,-1,-1,-1,-1,-1,-1,-1,-1,-1,-1,-1],"split_conditions":[4.248715E-1,3.868546E-2,5.5982876E0,3.2116112E-1,6.9425136E-1,5.289808E-1,7.4277763E0,9.030905E-3,5.36537E-1,1.4435066E0,1E0,3.7571225E-1,8.159769E-1,7.325612E-1,6.854654E-1,-2.7297447E-2,-4.3965016E-2,1.9473646E-2,-5.4530916E-3,-2.9748248E-2,-8.346101E-3,3.1776696E-2,-1.3953002E-2,2.6047872E-2,-1.4120345E-2,4.4955596E-2,1.5106842E-2,-4.955761E-3,4.3363027E-2],"split_indices":[1,1,0,3,3,3,0,0,3,0,6,3,3,3,3,0,0,0,0,0,0,0,0,0,0,0,0,0,0],"split_type":[0,0,0,0,0,0,0,0,0,0,0,0,0,0,0,0,0,0,0,0,0,0,0,0,0,0,0,0,0],"sum_hessian":[2.3797797E2,1.1478279E2,1.23195175E2,7.3880066E1,4.090272E1,9.049223E1,3.270294E1,1.0503683E0,7.2829704E1,2.8551374E1,1.2351347E1,1.7453382E1,7.303885E1,2.6315502E1,6.387441E0,1.3189611E1,5.964009E1,5.594147E0,2.2957228E1,6.819138E0,5.5322084E0,6.3278456E0,1.1125537E1,6.951522E1,3.5236273E0,2.2358406E1,3.9570956E0,3.791678E0,2.595763E0],"tree_param":{"num_deleted":"0","num_feature":"7","num_nodes":"29","size_leaf_vector":"1"}},{"base_weights":[4.6266974E-3,-4.4600525E-1,2.560502E-1,-4.9974984E-1,-1.15668155E-1,7.533682E-2,3.7150428E-1,-2.212775E-1,-5.1051915E-1,2.0514209E-2,-1.8396381E-2,1.2192663E-1,-2.688268E-1,4.5073318E-1,2.4014814E-1,-2.28028E-2,-7.6132244E-3,-1.9586673E-2,-4.144546E-2,-1.7133346E-2,1.6299682E-2,-9.660501E-3,1.4717479E-2,-3.683648E-2,-8.10709E-3,3.9930545E-2,8.859157E-4,-2.7003877E-2,2.5784515E-2],"categories":[],"categories_nodes":[],"categories_segments":[],"categories_sizes":[],"default_left":[0,0,0,0,0,0,0,0,0,0,0,0,0,0,0,0,0,0,0,0,0,0,0,0,0,0,0,0,0],"id":17,"left_children":[1,3,5,7,9,11,13,15,17,19,-1,21,23,25,27,-1,-1,-1,-1,-1,-1,-1,-1,-1,-1,-1,-1,-1,-1],"loss_changes":[2.7297693E1,1.4741421E0,3.198392E0,1.0869408E-1,2.1289073E-1,1.0194833E0,8.7108994E-1,9.194046E-3,1.4350891E-2,3.4555432E-1,0E0,8.4862643E-1,1.9883919E-1,1.219224E0,1.8907483E0,0E0,0E0,0E0,0E0,0E0,0E0,0E0,0E0,0E0,0E0,0E0,0E0,0E0,0E0],"parents":[2147483647,0,0,1,1,2,2,3,3,4,4,5,5,6,6,7,7,8,8,9,9,11,11,12,12,13,13,14,14],"right_children":[2,4,6,8,10,12,14,16,18,20,-1,22,24,26,28,-1,-1,-1,-1,-1,-1,-1,-1,-1,-1,-1,-1,-1,-1],"split_conditions":[1.5586592E-1,3.868546E-2,5.053602E-1,-2.394459E-2,1.4435066E0,2.1478047E0,3.698087E0,-4.048929E-2,2.5510066E0,1E0,-1.8396381E-2,3.2910104E0,1E0,7.137446E0,3.7968366E0,-2.28028E-2,-7.6132244E-3,-1.9586673E-2,-4.144546E-2,-1.7133346E-2,1.6299682E-2,-9.660501E-3,1.4717479E-2,-3.683648E-2,-8.10709E-3,3.9930545E-2,8.859157E-4,-2.7003877E-2,2.5784515E-2],"split_indices":[1,1,1,1,0,0,2,1,2,6,0,2,6,0,2,0,0,0,0,0,0,0,0,0,0,0,0,0,0],"split_type":[0,0,0,0,0,0,0,0,0,0,0,0,0,0,0,0,0,0,0,0,0,0,0,0,0,0,0,0,0],"sum_hessian":[2.3892606E2,8.52882E1,1.5363786E2,7.291273E1,1.2375467E1,6.053638E1,9.310148E1,3.51701E0,6.939572E1,6.021196E0,6.3542714E0,5.3887325E1,6.649055E0,5.6557068E1,3.654441E1,1.4990019E0,2.0180082E0,2.8409972E0,6.6554726E1,2.5659409E0,3.455255E0,1.0778765E1,4.3108562E1,2.2852428E0,4.3638124E0,5.0826687E1,5.7303805E0,4.1630917E0,3.238132E1],"tree_param":{"num_deleted":"0","num_feature":"7","num_nodes":"29","size_leaf_vector":"1"}},{"base_weights":[-1.4177963E-2,-4.3822542E-1,2.2392948E-1,-4.8132768E-1,-1.315315E-1,-1.250021E-2,2.914501E-1,-2.2294597E-1,-5.167594E-1,9.0214945E-2,-2.0439072E-1,8.6617276E-2,-2.211864E-1,3.4502932E-1,1.8328694E-1,-2.727347E-2,-1.3368691E-3,-1.2755046E-2,-4.251833E-2,-1.9574037E-3,1.4134576E-2,-1.1256612E-2,-2.6731057E-2,1.1901729E-2,-1.0897244E-2,-2.2716746E-2,4.6270303E-3,3.3008337E-2,1.7119197E-2,2.7504997E-2,7.832503E-3],"categories":[],"categories_nodes":[],"categories_segments":[],"categories_sizes":[],"default_left":[0,0,0,0,0,0,0,0,0,0,0,0,0,0,0,0,0,0,0,0,0,0,0,0,0,0,0,0,0,0,0],"id":18,"left_children":[1,3,5,7,9,11,13,15,17,19,21,23,25,27,29,-1,-1,-1,-1,-1,-1,-1,-1,-1,-1,-1,-1,-1,-1,-1,-1],"loss_changes":[2.3365063E1,1.0365553E0,2.3700447E0,5.4919434E-1,2.0630863E-1,7.201187E-1,6.052275E-1,2.5002772E-1,2.4695587E-1,3.9719895E-2,2.783361E-2,3.484321E-1,2.1248752E-1,5.8471394E-1,5.192729E-1,0E0,0E0,0E0,0E0,0E0,0E0,0E0,0E0,0E0,0E0,0E0,0E0,0E0,0E0,0E0,0E0],"parents":[2147483647,0,0,1,1,2,2,3,3,4,4,5,5,6,6,7,7,8,8,9,9,10,10,11,11,12,12,13,13,14,14],"right_children":[2,4,6,8,10,12,14,16,18,20,22,24,26,28,30,-1,-1,-1,-1,-1,-1,-1,-1,-1,-1,-1,-1,-1,-1,-1,-1],"split_conditions":[1.4780654E-1,3.868546E-2,4.429171E-1,4.7286063E-1,5.2584016E-1,6.787922E-1,2E0,4.094415E-1,2.5510066E0,2E0,4.161068E0,3.8983297E0,4.2057366E0,6.454969E-1,3.3261147E0,-2.727347E-2,-1.3368691E-3,-1.2755046E-2,-4.251833E-2,-1.9574037E-3,1.4134576E-2,-1.1256612E-2,-2.6731057E-2,1.1901729E-2,-1.0897244E-2,-2.2716746E-2,4.6270303E-3,3.3008337E-2,1.7119197E-2,2.7504997E-2,7.832503E-3],"split_indices":[1,1,1,3,3,3,4,3,2,4,2,2,2,3,2,0,0,0,0,0,0,0,0,0,0,0,0,0,0,0,0],"split_type":[0,0,0,0,0,0,0,0,0,0,0,0,0,0,0,0,0,0,0,0,0,0,0,0,0,0,0,0,0,0,0],"sum_hessian":[2.2943674E2,8.2202034E1,1.4723471E2,7.157376E1,1.0628271E1,3.2888268E1,1.14346436E2,9.510652E0,6.206311E1,2.5695763E0,8.058695E0,2.2694323E1,1.0193945E1,7.5003265E1,3.934317E1,5.634499E0,3.8761525E0,2.9236343E0,5.9139473E1,1.4127977E0,1.1567786E0,6.803737E0,1.2549579E0,1.8004675E1,4.689648E0,8.307332E0,1.8866127E0,4.8067112E1,2.6936152E1,1.2609336E1,2.6733835E1],"tree_param":{"num_deleted":"0","num_feature":"7","num_nodes":"31","size_leaf_vector":"1"}},{"base_weights":[-2.3833134E-3,-4.137865E-1,2.3052613E-1,-4.7210622E-1,-1.22249305E-1,3.510368E-2,3.510249E-1,-2.7618155E-1,-5.136944E-1,1.0749044E-1,-1.879259E-1,1.2742513E-1,-1.18463084E-1,-5.9790492E-2,3.890012E-1,6.79147E-4,-2.863128E-2,-1.3359317E-2,-4.2276166E-2,1.5357831E-2,-4.589176E-3,-2.1557383E-2,-7.956036E-3,3.9196187E-3,5.269192E-2,2.5244642E-3,-1.8495027E-2,-3.0257314E-2,3.2669015E-2,3.7210822E-2,1.9742098E-2],"categories":[],"categories_nodes":[],"categories_segments":[],"categories_sizes":[],"default_left":[0,0,0,0,0,0,0,0,0,0,0,0,0,0,0,0,0,0,0,0,0,0,0,0,0,0,0,0,0,0,0],"id":19,"left_children":[1,3,5,7,9,11,13,15,17,19,21,23,25,27,29,-1,-1,-1,-1,-1,-1,-1,-1,-1,-1,-1,-1,-1,-1,-1,-1],"loss_changes":[2.2090796E1,1.3592052E0,3.4542804E0,4.2112637E-1,2.5016916E-1,8.269169E-1,1.4422226E0,3.347608E-1,1.9743156E-1,6.706409E-2,6.1337918E-2,1.4777788E0,3.796314E-1,1.4309599E0,7.881651E-1,0E0,0E0,0E0,0E0,0E0,0E0,0E0,0E0,0E0,0E0,0E0,0E0,0E0,0E0,0E0,0E0],"parents":[2147483647,0,0,1,1,2,2,3,3,4,4,5,5,6,6,7,7,8,8,9,9,10,10,11,11,12,12,13,13,14,14],"right_children":[2,4,6,8,10,12,14,16,18,20,22,24,26,28,30,-1,-1,-1,-1,-1,-1,-1,-1,-1,-1,-1,-1,-1,-1,-1,-1],"split_conditions":[1.6749547E-1,3.868546E-2,5.053602E-1,5.36537E-1,5.2584016E-1,6.4616054E-1,4.3315536E-1,-7.4210893E-3,2.5510066E0,3.6054978E0,6.5831566E-1,6.449541E-1,3.2928696E0,3.7968366E0,3.6891294E0,6.79147E-4,-2.863128E-2,-1.3359317E-2,-4.2276166E-2,1.5357831E-2,-4.589176E-3,-2.1557383E-2,-7.956036E-3,3.9196187E-3,5.269192E-2,2.5244642E-3,-1.8495027E-2,-3.0257314E-2,3.2669015E-2,3.7210822E-2,1.9742098E-2],"split_indices":[1,1,1,3,3,3,3,1,2,2,3,3,2,2,2,0,0,0,0,0,0,0,0,0,0,0,0,0,0,0,0],"split_type":[0,0,0,0,0,0,0,0,0,0,0,0,0,0,0,0,0,0,0,0,0,0,0,0,0,0,0,0,0,0,0],"sum_hessian":[2.2854997E2,8.233669E1,1.4621329E2,6.809538E1,1.424131E1,5.6261246E1,8.9952034E1,1.3261315E1,5.483407E1,3.0245683E0,1.1216742E1,3.5243652E1,2.1017593E1,7.5630383E0,8.238899E1,3.157361E0,1.0103954E1,2.7415848E0,5.209248E1,1.8910022E0,1.1335663E0,4.772553E0,6.444189E0,3.1661396E1,3.5822575E0,9.326095E0,1.1691499E1,4.6156797E0,2.9473588E0,5.2184055E1,3.020494E1],"tree_param":{"num_deleted":"0","num_feature":"7","num_nodes":"31","size_leaf_vector":"1"}},{"base_weights":[9.4314996E-4,-4.4677114E-1,2.2196868E-1,-1.6198733E-1,-4.9745002E-1,4.0255688E-2,3.5525277E-1,-3.3921856E-1,4.7521137E-2,-5.1383275E-1,-1.8906654E-1,1.515383E-1,-1.5361345E-1,-9.8966256E-2,3.6946929E-1,5.5418806E-3,-3.526264E-2,-1.6398959E-2,2.6873002E-2,-1.6203832E-2,-4.211047E-2,-4.5590573E-3,-2.2429649E-2,6.868071E-3,5.1594988E-2,1.3087E-2,-1.4156644E-2,-1.8403532E-2,4.5121647E-3,-3.16922E-3,3.0771034E-2],"categories":[],"categories_nodes":[],"categories_segments":[],"categories_sizes":[],"default_left":[0,0,0,0,0,0,0,0,0,0,0,0,0,0,0,0,0,0,0,0,0,0,0,0,0,0,0,0,0,0,0],"id":20,"left_children":[1,3,5,7,9,11,13,15,17,19,21,23,25,27,29,-1,-1,-1,-1,-1,-1,-1,-1,-1,-1,-1,-1,-1,-1,-1,-1],"loss_changes":[2.2190254E1,9.890909E-1,3.6216555E0,4.8693183E-1,2.1828747E-1,1.4180565E0,5.949707E-1,3.2061207E-1,5.5587137E-1,1.2268448E-1,4.108332E-2,1.2921441E0,2.0720834E-1,8.248523E-2,5.368662E-1,0E0,0E0,0E0,0E0,0E0,0E0,0E0,0E0,0E0,0E0,0E0,0E0,0E0,0E0,0E0,0E0],"parents":[2147483647,0,0,1,1,2,2,3,3,4,4,5,5,6,6,7,7,8,8,9,9,10,10,11,11,12,12,13,13,14,14],"right_children":[2,4,6,8,10,12,14,16,18,20,22,24,26,28,30,-1,-1,-1,-1,-1,-1,-1,-1,-1,-1,-1,-1,-1,-1,-1,-1],"split_conditions":[1.2494702E-1,4.737448E-1,5.053602E-1,4.094415E-1,4.997669E-2,6.4616054E-1,3.6325148E-1,3.2116112E-1,4.37563E-3,2.5510066E0,3.6054978E0,6.449541E-1,1.6109908E0,2E0,2.9301264E0,5.5418806E-3,-3.526264E-2,-1.6398959E-2,2.6873002E-2,-1.6203832E-2,-4.211047E-2,-4.5590573E-3,-2.2429649E-2,6.868071E-3,5.1594988E-2,1.3087E-2,-1.4156644E-2,-1.8403532E-2,4.5121647E-3,-3.16922E-3,3.0771034E-2],"split_indices":[1,3,1,3,1,3,3,3,1,2,2,3,0,4,2,0,0,0,0,0,0,0,0,0,0,0,0,0,0,0,0],"split_type":[0,0,0,0,0,0,0,0,0,0,0,0,0,0,0,0,0,0,0,0,0,0,0,0,0,0,0,0,0,0,0],"sum_hessian":[2.2224083E2,7.311536E1,1.4912547E2,1.1679599E1,6.1435757E1,6.3650097E1,8.547538E1,5.9917946E0,5.687804E0,5.770404E1,3.731717E0,4.0576927E1,2.307317E1,2.4131627E0,8.306222E1,1.2564182E0,4.7353764E0,3.1867623E0,2.501042E0,2.9001813E0,5.4803856E1,2.1891305E0,1.5425866E0,3.6845585E1,3.7313433E0,1.169862E0,2.1903307E1,1.0482008E0,1.3649619E0,2.912161E0,8.0150055E1],"tree_param":{"num_deleted":"0","num_feature":"7","num_nodes":"31","size_leaf_vector":"1"}},{"base_weights":[-2.756466E-3,-4.735505E-1,1.998835E-1,-2.0917188E-1,-3.9274078E-2,-5.3427584E-2,2.899816E-1,-3.3807777E-2,-2.3972794E-2,2.0630519E-1,-1.0480983E-1,2.1563213E-1,3.9514E-1,-9.427926E-3,5.70488E-3,1.9738926E-3,3.0002326E-2,-2.6580079E-2,-6.321782E-3,-1.1678735E-2,2.1346789E-2,3.4328517E-2,-3.6016032E-3],"categories":[],"categories_nodes":[],"categories_segments":[],"categories_sizes":[],"default_left":[0,0,0,0,0,0,0,0,0,0,0,0,0,0,0,0,0,0,0,0,0,0,0],"id":21,"left_children":[1,3,5,7,-1,9,11,13,-1,15,17,19,21,-1,-1,-1,-1,-1,-1,-1,-1,-1,-1],"loss_changes":[2.1039457E1,2.0214272E-1,3.5344276E0,8.2455605E-2,0E0,5.727569E-1,8.052244E-1,3.5906132E-2,0E0,2.100856E-1,1.7984396E-1,1.3150296E0,7.0659256E-1,0E0,0E0,0E0,0E0,0E0,0E0,0E0,0E0,0E0,0E0],"parents":[2147483647,0,0,1,1,2,2,3,3,5,5,6,6,7,7,9,9,10,10,11,11,12,12],"right_children":[2,4,6,8,-1,10,12,14,-1,16,18,20,22,-1,-1,-1,-1,-1,-1,-1,-1,-1,-1],"split_conditions":[4.997669E-2,-1.9850945E-2,4.429171E-1,3.3593333E0,-3.9274078E-2,1.4435066E0,5.091668E0,3E0,-2.3972794E-2,1.1305692E-1,2.6159348E0,3.257712E0,4.2580214E0,-9.427926E-3,5.70488E-3,1.9738926E-3,3.0002326E-2,-2.6580079E-2,-6.321782E-3,-1.1678735E-2,2.1346789E-2,3.4328517E-2,-3.6016032E-3],"split_indices":[1,1,1,2,0,0,0,4,0,1,2,2,2,0,0,0,0,0,0,0,0,0,0],"split_type":[0,0,0,0,0,0,0,0,0,0,0,0,0,0,0,0,0,0,0,0,0,0,0],"sum_hessian":[2.185433E2,6.535859E1,1.5318471E2,4.834658E0,6.0523933E1,4.0296894E1,1.1288782E2,2.1131094E0,2.7215488E0,6.157279E0,3.4139618E1,6.791842E1,4.4969402E1,1.106984E0,1.0061253E0,3.5172215E0,2.6400576E0,2.2663856E0,3.187323E1,8.194454E0,5.972396E1,4.1771103E1,3.1983E0],"tree_param":{"num_deleted":"0","num_feature":"7","num_nodes":"23","size_leaf_vector":"1"}},{"base_weights":[9.205346E-3,-4.4323736E-1,2.0199996E-1,-1.9395071E-1,-4.8356658E-1,-3.767739E-2,2.9204822E-1,-3.3283782E-1,-7.562115E-3,-2.9326224E-1,-5.027058E-1,3.5031583E-2,-1.8946028E-1,2.2288065E-1,3.9389375E-1,-1.8926306E-3,-3.3304565E-2,-1.2450669E-2,1.7438646E-2,-3.019092E-2,4.08193E-4,-1.655337E-2,-4.1105747E-2,-2.7085822E-3,1.3658843E-2,-2.458431E-2,-3.3991486E-3,-1.05228E-2,2.1596465E-2,-6.7588096E-3,3.3136025E-2],"categories":[],"categories_nodes":[],"categories_segments":[],"categories_sizes":[],"default_left":[0,0,0,0,0,0,0,0,0,0,0,0,0,0,0,0,0,0,0,0,0,0,0,0,0,0,0,0,0,0,0],"id":22,"left_children":[1,3,5,7,9,11,13,15,17,19,21,23,25,27,29,-1,-1,-1,-1,-1,-1,-1,-1,-1,-1,-1,-1,-1,-1,-1,-1],"loss_changes":[1.9138588E1,5.653677E-1,3.330752E0,2.7705187E-1,5.5685997E-2,4.8000443E-1,7.006426E-1,1.4925402E-1,2.2209908E-1,1.9007462E-1,5.5678368E-2,2.8478387E-1,2.3025483E-1,1.1860228E0,4.6207952E-1,0E0,0E0,0E0,0E0,0E0,0E0,0E0,0E0,0E0,0E0,0E0,0E0,0E0,0E0,0E0,0E0],"parents":[2147483647,0,0,1,1,2,2,3,3,4,4,5,5,6,6,7,7,8,8,9,9,10,10,11,11,12,12,13,13,14,14],"right_children":[2,4,6,8,10,12,14,16,18,20,22,24,26,28,30,-1,-1,-1,-1,-1,-1,-1,-1,-1,-1,-1,-1,-1,-1,-1,-1],"split_conditions":[4.997669E-2,4.737448E-1,4.476544E-1,4.094415E-1,-1.1161645E-2,6.787922E-1,7.1410227E-1,3.215369E-1,2.0363047E-3,1E0,2.5510066E0,3E0,1E0,3.257712E0,2.9301264E0,-1.8926306E-3,-3.3304565E-2,-1.2450669E-2,1.7438646E-2,-3.019092E-2,4.08193E-4,-1.655337E-2,-4.1105747E-2,-2.7085822E-3,1.3658843E-2,-2.458431E-2,-3.3991486E-3,-1.05228E-2,2.1596465E-2,-6.7588096E-3,3.3136025E-2],"split_indices":[1,3,1,3,1,3,1,3,1,6,2,4,6,2,2,0,0,0,0,0,0,0,0,0,0,0,0,0,0,0,0],"split_type":[0,0,0,0,0,0,0,0,0,0,0,0,0,0,0,0,0,0,0,0,0,0,0,0,0,0,0,0,0,0,0],"sum_hessian":[2.1738103E2,6.456454E1,1.528165E2,9.799593E0,5.4764946E1,4.189311E1,1.10923386E2,5.165105E0,4.634488E0,6.4960628E0,4.8268883E1,2.8844734E1,1.3048373E1,6.79584E1,4.296499E1,1.370828E0,3.7942767E0,2.984875E0,1.6496131E0,4.8607254E0,1.6353375E0,2.4587197E0,4.581016E1,1.9630167E1,9.214568E0,6.6363373E0,6.4120364E0,7.7578197E0,6.0200577E1,1.6208451E0,4.1344143E1],"tree_param":{"num_deleted":"0","num_feature":"7","num_nodes":"31","size_leaf_vector":"1"}},{"base_weights":[1.2668773E-3,-3.743272E-1,2.0262533E-1,-9.9499196E-2,-4.3145087E-1,1.0433587E-1,3.667573E-1,-2.5229192E-1,5.4873586E-2,-3.531506E-2,-1.4437284E-1,1.9050212E-1,-4.755368E-2,5.184784E-1,2.606049E-1,7.857203E-3,-2.7055081E-2,-1.5425357E-2,1.3268425E-2,-1.00090714E-4,-1.6861517E-2,-5.313052E-3,2.358779E-2,-2.0548753E-2,2.252614E-3,4.3282405E-2,1.5212877E-2,3.7214935E-2,8.168165E-3],"categories":[],"categories_nodes":[],"categories_segments":[],"categories_sizes":[],"default_left":[0,0,0,0,0,0,0,0,0,0,0,0,0,0,0,0,0,0,0,0,0,0,0,0,0,0,0,0,0],"id":23,"left_children":[1,3,5,7,9,11,13,15,17,-1,19,21,23,25,27,-1,-1,-1,-1,-1,-1,-1,-1,-1,-1,-1,-1,-1,-1],"loss_changes":[1.6054436E1,1.1201782E0,2.1910543E0,3.4521803E-1,1.1127472E-1,1.158529E0,6.920743E-1,2.5117055E-1,2.466619E-1,0E0,3.3357985E-2,1.5271943E0,5.236849E-1,4.617548E-2,9.975836E-1,0E0,0E0,0E0,0E0,0E0,0E0,0E0,0E0,0E0,0E0,0E0,0E0,0E0,0E0],"parents":[2147483647,0,0,1,1,2,2,3,3,4,4,5,5,6,6,7,7,8,8,10,10,11,11,12,12,13,13,14,14],"right_children":[2,4,6,8,10,12,14,16,18,-1,20,22,24,26,28,-1,-1,-1,-1,-1,-1,-1,-1,-1,-1,-1,-1,-1,-1],"split_conditions":[1.8038374E0,4.737448E-1,4.1905727E0,4.094415E-1,1.6661838E0,6.4616054E-1,1E0,3.2116112E-1,1E0,-3.531506E-2,6.78728E-1,5.454491E-1,6.8648404E-1,7.512615E-1,3.4101572E0,7.857203E-3,-2.7055081E-2,-1.5425357E-2,1.3268425E-2,-1.00090714E-4,-1.6861517E-2,-5.313052E-3,2.358779E-2,-2.0548753E-2,2.252614E-3,4.3282405E-2,1.5212877E-2,3.7214935E-2,8.168165E-3],"split_indices":[0,3,0,3,0,3,4,3,4,0,3,3,3,3,2,0,0,0,0,0,0,0,0,0,0,0,0,0,0],"split_type":[0,0,0,0,0,0,0,0,0,0,0,0,0,0,0,0,0,0,0,0,0,0,0,0,0,0,0,0,0],"sum_hessian":[2.1027582E2,7.30872E1,1.3718861E2,1.3048984E1,6.0038216E1,8.682792E1,5.0360703E1,6.239271E0,6.8097124E0,5.7500103E1,2.5381103E0,5.5237637E1,3.159028E1,1.9131802E1,3.12289E1,1.1998386E0,5.0394325E0,1.8789253E0,4.930787E0,1.1271974E0,1.4109129E0,1.6059649E1,3.9177986E1,7.7560077E0,2.3834272E1,1.7295883E1,1.8359177E0,1.2788161E1,1.8440739E1],"tree_param":{"num_deleted":"0","num_feature":"7","num_nodes":"29","size_leaf_vector":"1"}},{"base_weights":[1.8489315E-3,-4.384324E-1,1.8518735E-1,-1.7967844E-1,-4.4726378E-1,-4.810533E-2,2.6922932E-1,-2.0783264E-2,1.0933339E-3,-3.9623827E-2,-3.5710993E-1,2.3664866E-1,-1.08715534E-1,2.1282047E-1,4.188423E-1,-3.2390032E-2,6.097185E-3,2.5588358E-3,3.1540804E-2,-1.5234211E-2,-2.6475936E-3,-1.3719755E-2,1.9628333E-2,-9.525469E-3,3.617042E-2],"categories":[],"categories_nodes":[],"categories_segments":[],"categories_sizes":[],"default_left":[0,0,0,0,0,0,0,0,0,0,0,0,0,0,0,0,0,0,0,0,0,0,0,0,0],"id":24,"left_children":[1,3,5,7,9,11,13,-1,-1,-1,15,17,19,21,23,-1,-1,-1,-1,-1,-1,-1,-1,-1,-1],"loss_changes":[1.70257E1,6.1338425E-2,2.9324498E0,6.114079E-2,7.988739E-2,7.209908E-1,8.360119E-1,0E0,0E0,0E0,5.3162813E-1,2.2559333E-1,2.0316765E-1,1.0628445E0,5.72773E-1,0E0,0E0,0E0,0E0,0E0,0E0,0E0,0E0,0E0,0E0],"parents":[2147483647,0,0,1,1,2,2,3,3,4,4,5,5,6,6,10,10,11,11,12,12,13,13,14,14],"right_children":[2,4,6,8,10,12,14,-1,-1,-1,16,18,20,22,24,-1,-1,-1,-1,-1,-1,-1,-1,-1,-1],"split_conditions":[4.997669E-2,2.5510066E0,4.429171E-1,1.4139677E-4,1E0,1.4435066E0,5.5982876E0,-2.0783264E-2,1.0933339E-3,-3.9623827E-2,2E0,1.0417461E-1,1E0,3.1432898E0,2.9301264E0,-3.2390032E-2,6.097185E-3,2.5588358E-3,3.1540804E-2,-1.5234211E-2,-2.6475936E-3,-1.3719755E-2,1.9628333E-2,-9.525469E-3,3.617042E-2],"split_indices":[1,2,1,1,6,0,0,0,0,0,4,1,6,2,2,0,0,0,0,0,0,0,0,0,0],"split_type":[0,0,0,0,0,0,0,0,0,0,0,0,0,0,0,0,0,0,0,0,0,0,0,0,0],"sum_hessian":[2.089158E2,6.1010258E1,1.4790555E2,2.7180624E0,5.8292194E1,3.9284115E1,1.0862144E2,1.6787926E0,1.0392698E0,3.5098007E1,2.3194187E1,6.3845057E0,3.289961E1,8.0640045E1,2.7981394E1,2.0950464E1,2.243722E0,3.3009975E0,3.0835083E0,1.5083203E1,1.7816404E1,5.960294E0,7.467975E1,1.4805056E0,2.6500889E1],"tree_param":{"num_deleted":"0","num_feature":"7","num_nodes":"25","size_leaf_vector":"1"}},{"base_weights":[-7.322188E-4,-4.2649883E-1,1.729688E-1,-1.6548818E-1,-4.731112E-1,2.3963725E-2,2.9890937E-1,-2.4379961E-1,1.00908935E-1,-2.746456E-1,-4.9633142E-1,1.1984932E-1,-1.4880922E-1,-1.8872047E-2,3.127575E-1,-4.6836073E-4,-2.7609095E-2,-8.115633E-3,1.9626493E-2,-2.8060496E-2,5.472815E-5,-1.4575117E-2,-4.0697385E-2,-8.757484E-3,1.718375E-2,1.5146194E-2,-1.5924057E-2,3.2524243E-2,1.9043166E-2],"categories":[],"categories_nodes":[],"categories_segments":[],"categories_sizes":[],"default_left":[0,0,0,0,0,0,0,0,0,0,0,0,0,0,0,0,0,0,0,0,0,0,0,0,0,0,0,0,0],"id":25,"left_children":[1,3,5,7,9,11,13,15,17,19,21,23,25,-1,27,-1,-1,-1,-1,-1,-1,-1,-1,-1,-1,-1,-1,-1,-1],"loss_changes":[1.53266945E1,6.522856E-1,2.7550426E0,2.4650747E-1,9.600544E-2,1.1528037E0,6.639242E-1,2.0320678E-1,1.1617811E-1,1.5781021E-1,7.810211E-2,9.948677E-1,4.6066034E-1,0E0,4.5058155E-1,0E0,0E0,0E0,0E0,0E0,0E0,0E0,0E0,0E0,0E0,0E0,0E0,0E0,0E0],"parents":[2147483647,0,0,1,1,2,2,3,3,4,4,5,5,6,6,7,7,8,8,9,9,10,10,11,11,12,12,14,14],"right_children":[2,4,6,8,10,12,14,16,18,20,22,24,26,-1,28,-1,-1,-1,-1,-1,-1,-1,-1,-1,-1,-1,-1,-1,-1],"split_conditions":[4.997669E-2,4.737448E-1,5.090581E-1,4.37563E-3,-1.1161645E-2,6.4616054E-1,3.6325148E-1,-7.4210893E-3,4.1836008E-1,1E0,2.5510066E0,3.4607234E0,1.4435066E0,-1.8872047E-2,3.504656E0,-4.6836073E-4,-2.7609095E-2,-8.115633E-3,1.9626493E-2,-2.8060496E-2,5.472815E-5,-1.4575117E-2,-4.0697385E-2,-8.757484E-3,1.718375E-2,1.5146194E-2,-1.5924057E-2,3.2524243E-2,1.9043166E-2],"split_indices":[1,3,1,1,1,3,3,1,3,6,2,2,0,0,2,0,0,0,0,0,0,0,0,0,0,0,0,0,0],"split_type":[0,0,0,0,0,0,0,0,0,0,0,0,0,0,0,0,0,0,0,0,0,0,0,0,0,0,0,0,0],"sum_hessian":[2.0524294E2,5.9049248E1,1.461937E2,9.636879E0,4.941237E1,6.751015E1,7.868355E1,7.5131125E0,2.123766E0,6.519277E0,4.289309E1,4.3612427E1,2.389772E1,1.5812505E0,7.71023E1,2.5595553E0,4.953557E0,1.0084182E0,1.1153477E0,4.8927917E0,1.6264852E0,2.222914E0,4.0670177E1,1.2725293E1,3.0887133E1,2.7333431E0,2.1164377E1,3.221753E1,4.488477E1],"tree_param":{"num_deleted":"0","num_feature":"7","num_nodes":"29","size_leaf_vector":"1"}},{"base_weights":[-6.728894E-3,-3.959267E-1,1.8442105E-1,-1.4186797E-1,-4.4366628E-1,-5.2950725E-2,2.5489625E-1,-3.3005887E-1,6.612692E-2,-4.7350147E-1,-1.7803949E-1,5.937295E-2,-2.1344207E-1,3.566895E-1,1.8733479E-1,-7.908225E-3,-3.1035267E-2,-1.1370672E-2,2.424487E-2,-1.9787049E-2,-3.958031E-2,-1.7189054E-2,-6.533555E-3,4.1784212E-4,2.9367482E-2,1.7346974E-4,-2.2982989E-2,1.0112244E-2,3.3068743E-2,1.7628195E-2,-1.9813576E-3],"categories":[],"categories_nodes":[],"categories_segments":[],"categories_sizes":[],"default_left":[0,0,0,0,0,0,0,0,0,0,0,0,0,0,0,0,0,0,0,0,0,0,0,0,0,0,0,0,0,0,0],"id":26,"left_children":[1,3,5,7,9,11,13,15,17,19,21,23,25,27,29,-1,-1,-1,-1,-1,-1,-1,-1,-1,-1,-1,-1,-1,-1,-1,-1],"loss_changes":[1.4953838E1,7.399759E-1,2.2689462E0,4.8926187E-1,3.5362053E-1,5.8400524E-1,6.493192E-1,4.77857E-2,3.6408415E-1,1.1351204E-1,7.9405755E-3,3.217925E-1,2.1184778E-1,4.7544193E-1,4.5852804E-1,0E0,0E0,0E0,0E0,0E0,0E0,0E0,0E0,0E0,0E0,0E0,0E0,0E0,0E0,0E0,0E0],"parents":[2147483647,0,0,1,1,2,2,3,3,4,4,5,5,6,6,7,7,8,8,9,9,10,10,11,11,12,12,13,13,14,14],"right_children":[2,4,6,8,10,12,14,16,18,20,22,24,26,28,30,-1,-1,-1,-1,-1,-1,-1,-1,-1,-1,-1,-1,-1,-1,-1,-1],"split_conditions":[1.4780654E-1,4.737448E-1,4.429171E-1,4.094415E-1,4.997669E-2,6.490671E-1,1E0,-7.964989E-3,4.37563E-3,-1.4825482E-2,1E0,6.400308E-1,2.3604693E-1,5.053602E-1,1E0,-7.908225E-3,-3.1035267E-2,-1.1370672E-2,2.424487E-2,-1.9787049E-2,-3.958031E-2,-1.7189054E-2,-6.533555E-3,4.1784212E-4,2.9367482E-2,1.7346974E-4,-2.2982989E-2,1.0112244E-2,3.3068743E-2,1.7628195E-2,-1.9813576E-3],"split_indices":[1,3,1,3,1,3,4,1,1,1,6,3,1,1,5,0,0,0,0,0,0,0,0,0,0,0,0,0,0,0,0],"split_type":[0,0,0,0,0,0,0,0,0,0,0,0,0,0,0,0,0,0,0,0,0,0,0,0,0,0,0,0,0,0,0],"sum_hessian":[1.9902411E2,6.52E1,1.3382411E2,1.09418335E1,5.425816E1,3.0693197E1,1.0313092E2,5.4362917E0,5.5055423E0,4.8075714E1,6.1824465E0,1.8426811E1,1.2266385E1,3.9435272E1,6.369565E1,1.6306386E0,3.805653E0,3.1430109E0,2.3625314E0,5.2151756E0,4.286054E1,3.5835726E0,2.5988739E0,1.6534237E1,1.8925741E0,3.3769987E0,8.889387E0,8.425889E0,3.1009382E1,5.508217E1,8.6134815E0],"tree_param":{"num_deleted":"0","num_feature":"7","num_nodes":"31","size_leaf_vector":"1"}},{"base_weights":[9.268333E-3,-4.2443162E-1,1.7801048E-1,-1.8161142E-1,-4.6576208E-1,8.549793E-3,3.1309703E-1,-2.57376E-1,6.7434534E-2,-4.7916833E-1,-1.8550044E-1,1.0069713E-1,-1.5551037E-1,3.9666998E-1,2.2755797E-1,4.626776E-3,-2.5385419E-2,1.5315717E-2,-6.692757E-3,-1.5735706E-2,-3.9256696E-2,4.7450596E-3,-2.4058415E-2,3.553852E-3,4.779317E-2,9.960353E-3,-1.5341646E-2,-2.5909673E-2,3.4945693E-2,6.650089E-4,3.0945156E-2],"categories":[],"categories_nodes":[],"categories_segments":[],"categories_sizes":[],"default_left":[0,0,0,0,0,0,0,0,0,0,0,0,0,0,0,0,0,0,0,0,0,0,0,0,0,0,0,0,0,0,0],"id":27,"left_children":[1,3,5,7,9,11,13,15,17,19,21,23,25,27,29,-1,-1,-1,-1,-1,-1,-1,-1,-1,-1,-1,-1,-1,-1,-1,-1],"loss_changes":[1.4850526E1,4.858923E-1,3.3405747E0,2.0429477E-1,9.122467E-2,1.0105366E0,4.904747E-1,1.6580164E-1,7.41649E-2,5.055332E-2,1.2559974E-1,1.1683365E0,2.6818466E-1,1.2913194E0,1.4804356E0,0E0,0E0,0E0,0E0,0E0,0E0,0E0,0E0,0E0,0E0,0E0,0E0,0E0,0E0,0E0,0E0],"parents":[2147483647,0,0,1,1,2,2,3,3,4,4,5,5,6,6,7,7,8,8,9,9,10,10,11,11,12,12,13,13,14,14],"right_children":[2,4,6,8,10,12,14,16,18,20,22,24,26,28,30,-1,-1,-1,-1,-1,-1,-1,-1,-1,-1,-1,-1,-1,-1,-1,-1],"split_conditions":[4.997669E-2,4.7286063E-1,5.053602E-1,4.37563E-3,4.3042E0,6.4616054E-1,3.54933E0,3.215369E-1,3.570096E0,2.5510066E0,-1.7994937E-3,6.449541E-1,1.4435066E0,4.3315536E-1,3.9921272E0,4.626776E-3,-2.5385419E-2,1.5315717E-2,-6.692757E-3,-1.5735706E-2,-3.9256696E-2,4.7450596E-3,-2.4058415E-2,3.553852E-3,4.779317E-2,9.960353E-3,-1.5341646E-2,-2.5909673E-2,3.4945693E-2,6.650089E-4,3.0945156E-2],"split_indices":[1,3,1,1,2,3,2,3,2,2,1,3,0,3,2,0,0,0,0,0,0,0,0,0,0,0,0,0,0,0,0],"split_type":[0,0,0,0,0,0,0,0,0,0,0,0,0,0,0,0,0,0,0,0,0,0,0,0,0,0,0,0,0,0,0],"sum_hessian":[2.0088951E2,5.58441E1,1.4504541E2,8.907262E0,4.693684E1,6.480873E1,8.023667E1,6.8039284E0,2.1033335E0,4.4116806E1,2.8200333E0,4.1746998E1,2.3061735E1,3.874497E1,4.1491707E1,1.0927467E0,5.7111816E0,1.0085155E0,1.094818E0,2.439901E0,4.1676903E1,1.0578398E0,1.7621936E0,3.8477272E1,3.2697232E0,2.3649657E0,2.069677E1,1.6720793E0,3.7072887E1,1.7900553E1,2.3591154E1],"tree_param":{"num_deleted":"0","num_feature":"7","num_nodes":"31","size_leaf_vector":"1"}},{"base_weights":[-1.8926958E-2,-3.8750786E-1,1.5370166E-1,-1.8076728E-1,-4.438186E-1,5.715449E-2,3.8687894E-1,-2.6001692E-1,3.5260748E-3,-4.6329775E-1,-1.6230723E-1,1.3586852E-1,-7.01425E-2,-9.459893E-3,4.1299078E-1,9.455907E-4,-3.0078508E-2,-1.8154701E-2,1.1479353E-2,-3.8178306E-2,-1.1878267E-2,-1.8625572E-2,-1.0124343E-4,1.2970628E-2,-2.424157E-2,-2.5437372E-2,1.0759352E-3,4.2292092E-2,2.128912E-2],"categories":[],"categories_nodes":[],"categories_segments":[],"categories_sizes":[],"default_left":[0,0,0,0,0,0,0,0,0,0,0,0,0,0,0,0,0,0,0,0,0,0,0,0,0,0,0,0,0],"id":28,"left_children":[1,3,5,7,9,11,13,15,17,19,21,23,25,-1,27,-1,-1,-1,-1,-1,-1,-1,-1,-1,-1,-1,-1,-1,-1],"loss_changes":[1.2289952E1,6.3685036E-1,2.9410605E0,2.1813673E-1,1.8649578E-1,9.539753E-1,5.5489254E-1,3.3272237E-1,2.086513E-1,1.22532845E-1,5.2255042E-2,7.244123E-1,7.640023E-1,0E0,4.828415E-1,0E0,0E0,0E0,0E0,0E0,0E0,0E0,0E0,0E0,0E0,0E0,0E0,0E0,0E0],"parents":[2147483647,0,0,1,1,2,2,3,3,4,4,5,5,6,6,7,7,8,8,9,9,10,10,11,11,12,12,14,14],"right_children":[2,4,6,8,10,12,14,16,18,20,22,24,26,-1,28,-1,-1,-1,-1,-1,-1,-1,-1,-1,-1,-1,-1,-1,-1],"split_conditions":[1.2494702E-1,5.36537E-1,4.4003124E0,4.37563E-3,4.997669E-2,6.4616054E-1,2.9301264E0,-7.4210893E-3,3.9910322E-1,4.3042E0,3E0,6.2316334E-1,6.8648404E-1,-9.459893E-3,3.504656E0,9.455907E-4,-3.0078508E-2,-1.8154701E-2,1.1479353E-2,-3.8178306E-2,-1.1878267E-2,-1.8625572E-2,-1.0124343E-4,1.2970628E-2,-2.424157E-2,-2.5437372E-2,1.0759352E-3,4.2292092E-2,2.128912E-2],"split_indices":[1,3,0,1,1,3,2,1,3,2,4,1,3,0,2,0,0,0,0,0,0,0,0,0,0,0,0,0,0],"split_type":[0,0,0,0,0,0,0,0,0,0,0,0,0,0,0,0,0,0,0,0,0,0,0,0,0,0,0,0,0],"sum_hessian":[1.912183E2,6.059552E1,1.3062279E2,1.3872791E1,4.672273E1,9.325544E1,3.7367348E1,9.4137945E0,4.458997E0,4.309502E1,3.6277082E0,5.7582184E1,3.5673252E1,1.6632663E0,3.5704082E1,3.083564E0,6.3302307E0,1.4500595E0,3.0089371E0,4.0774815E1,2.320205E0,2.2130218E0,1.4146866E0,5.4925846E1,2.6563375E0,8.290515E0,2.7382738E1,1.8520525E1,1.7183558E1],"tree_param":{"num_deleted":"0","num_feature":"7","num_nodes":"29","size_leaf_vector":"1"}},{"base_weights":[1.7688733E-2,-2.6888633E-1,2.6799494E-1,-4.044656E-1,-6.0082648E-2,1.5822135E-1,3.9528757E-1,-1.9876558E-1,-3.662024E-2,1.5794224E-1,-1.0875851E-1,2.3382103E-1,-1.5567696E-1,-1.1448682E-2,4.1388118E-1,2.206627E-3,-2.2034235E-2,-1.369401E-3,2.907421E-2,-5.2874647E-3,-2.8057702E-2,9.945439E-3,3.0946774E-2,-3.0447977E-2,-2.9597252E-3,4.608703E-2,2.6820812E-2],"categories":[],"categories_nodes":[],"categories_segments":[],"categories_sizes":[],"default_left":[0,0,0,0,0,0,0,0,0,0,0,0,0,0,0,0,0,0,0,0,0,0,0,0,0,0,0],"id":29,"left_children":[1,3,5,7,9,11,13,15,-1,17,19,21,23,-1,25,-1,-1,-1,-1,-1,-1,-1,-1,-1,-1,-1,-1],"loss_changes":[1.3877021E1,2.5299249E0,1.3799005E0,5.0673294E-1,4.066051E-1,1.3913156E0,5.310588E-1,2.3295665E-1,0E0,2.6180506E-1,2.9261184E-1,7.295861E-1,2.9776573E-1,0E0,3.911438E-1,0E0,0E0,0E0,0E0,0E0,0E0,0E0,0E0,0E0,0E0,0E0,0E0],"parents":[2147483647,0,0,1,1,2,2,3,3,4,4,5,5,6,6,7,7,9,9,10,10,11,11,12,12,14,14],"right_children":[2,4,6,8,10,12,14,16,-1,18,20,22,24,-1,26,-1,-1,-1,-1,-1,-1,-1,-1,-1,-1,-1,-1],"split_conditions":[4.248715E-1,4.997669E-2,4.1905727E0,5.36537E-1,1.4435066E0,3.9673083E0,3.6325148E-1,-7.4210893E-3,-3.662024E-2,1.1305692E-1,3.817681E-1,5.053602E-1,5.1970243E-1,-1.1448682E-2,4.786994E-1,2.206627E-3,-2.2034235E-2,-1.369401E-3,2.907421E-2,-5.2874647E-3,-2.8057702E-2,9.945439E-3,3.0946774E-2,-3.0447977E-2,-2.9597252E-3,4.608703E-2,2.6820812E-2],"split_indices":[1,1,0,3,0,0,3,1,0,1,1,1,3,0,3,0,0,0,0,0,0,0,0,0,0,0,0],"split_type":[0,0,0,0,0,0,0,0,0,0,0,0,0,0,0,0,0,0,0,0,0,0,0,0,0,0,0],"sum_hessian":[1.9145322E2,8.922522E1,1.02228E2,5.3530212E1,3.5695007E1,5.6095654E1,4.6132343E1,1.19872265E1,4.1542984E1,6.1050406E0,2.9589968E1,4.541335E1,1.0682305E1,1.3164544E0,4.4815887E1,3.194766E0,8.792461E0,3.7915728E0,2.313468E0,2.6236797E1,3.3531697E0,2.752661E1,1.7886742E1,2.9273915E0,7.754914E0,1.2565012E1,3.2250877E1],"tree_param":{"num_deleted":"0","num_feature":"7","num_nodes":"27","size_leaf_vector":"1"}},{"base_weights":[-1.5358435E-2,-2.7713662E-1,2.17453E-1,-4.0017375E-1,-8.7482534E-2,2.9515588E-1,7.921503E-2,-2.1676491E-1,-4.478439E-1,1.291496E-1,-1.336719E-1,3.1503814E-1,-1.6737802E-2,-2.5417176E-1,1.8196484E-1,1.1610358E-3,-2.3413325E-2,-1.26917325E-2,-3.661848E-2,-3.9249654E-3,2.699087E-2,-4.11204E-3,-1.8505894E-2,1.945165E-2,3.800473E-2,-2.2977866E-2,-5.874244E-4,3.1029979E-2,-2.9036967E-4],"categories":[],"categories_nodes":[],"categories_segments":[],"categories_sizes":[],"default_left":[0,0,0,0,0,0,0,0,0,0,0,0,0,0,0,0,0,0,0,0,0,0,0,0,0,0,0,0,0],"id":30,"left_children":[1,3,5,7,9,11,13,15,17,19,21,23,-1,25,27,-1,-1,-1,-1,-1,-1,-1,-1,-1,-1,-1,-1,-1,-1],"loss_changes":[1.1342755E1,2.0086617E0,1.0351329E0,3.6491108E-1,3.7489313E-1,6.9486E-1,1.3077574E0,2.2962236E-1,4.461956E-2,2.685271E-1,2.2873652E-1,5.8324623E-1,0E0,7.2074175E-2,1.0994713E0,0E0,0E0,0E0,0E0,0E0,0E0,0E0,0E0,0E0,0E0,0E0,0E0,0E0,0E0],"parents":[2147483647,0,0,1,1,2,2,3,3,4,4,5,5,6,6,7,7,8,8,9,9,10,10,11,11,13,13,14,14],"right_children":[2,4,6,8,10,12,14,16,18,20,22,24,-1,26,28,-1,-1,-1,-1,-1,-1,-1,-1,-1,-1,-1,-1,-1,-1],"split_conditions":[4.248715E-1,4.997669E-2,6.454969E-1,5.36537E-1,1.4435066E0,7.4277763E0,6.8648404E-1,-7.4210893E-3,-2.7138693E-2,1.1305692E-1,6.490671E-1,7.458811E-1,-1.6737802E-2,8.016501E-1,7.512615E-1,1.1610358E-3,-2.3413325E-2,-1.26917325E-2,-3.661848E-2,-3.9249654E-3,2.699087E-2,-4.11204E-3,-1.8505894E-2,1.945165E-2,3.800473E-2,-2.2977866E-2,-5.874244E-4,3.1029979E-2,-2.9036967E-4],"split_indices":[1,1,3,3,0,0,3,1,1,1,3,1,0,1,3,0,0,0,0,0,0,0,0,0,0,0,0,0,0],"split_type":[0,0,0,0,0,0,0,0,0,0,0,0,0,0,0,0,0,0,0,0,0,0,0,0,0,0,0,0,0],"sum_hessian":[1.841259E2,8.658146E1,9.754445E1,5.1840305E1,3.474115E1,6.1717964E1,3.5826485E1,1.1838679E1,4.000163E1,5.7899036E0,2.8951248E1,5.9738506E1,1.979458E0,8.0932045E0,2.773328E1,3.1250904E0,8.713589E0,1.8858675E0,3.811576E1,3.531762E0,2.2581418E0,1.6541468E1,1.2409781E1,4.295818E1,1.6780325E1,6.9931364E0,1.1000682E0,1.2630416E1,1.5102864E1],"tree_param":{"num_deleted":"0","num_feature":"7","num_nodes":"29","size_leaf_vector":"1"}},{"base_weights":[-9.523016E-3,-2.6719174E-1,2.2887681E-1,-3.9372152E-1,-8.707378E-2,1.495965E-1,3.5387376E-1,9.375332E-3,-4.0621212E-1,1.6363156E-1,-1.3960245E-1,-1.3888964E-2,2.3829523E-1,-8.736889E-3,3.790836E-1,-2.0220518E-2,-3.5317227E-2,6.298131E-4,2.6551124E-2,-7.8054606E-3,-2.307446E-2,1.5937282E-2,-2.2822492E-2,3.4233116E-2,5.434486E-3,4.288287E-2,2.117352E-2],"categories":[],"categories_nodes":[],"categories_segments":[],"categories_sizes":[],"default_left":[0,0,0,0,0,0,0,0,0,0,0,0,0,0,0,0,0,0,0,0,0,0,0,0,0,0,0],"id":31,"left_children":[1,3,5,7,9,11,13,-1,15,17,19,21,23,-1,25,-1,-1,-1,-1,-1,-1,-1,-1,-1,-1,-1,-1],"loss_changes":[1.1366041E1,1.9918709E0,8.996906E-1,3.7904167E-1,5.228503E-1,8.8140166E-1,4.6839714E-1,0E0,1.6388893E-1,1.818226E-1,1.7161077E-1,1.3432648E0,1.2408416E0,0E0,4.850502E-1,0E0,0E0,0E0,0E0,0E0,0E0,0E0,0E0,0E0,0E0,0E0,0E0],"parents":[2147483647,0,0,1,1,2,2,3,3,4,4,5,5,6,6,8,8,9,9,10,10,11,11,12,12,14,14],"right_children":[2,4,6,8,10,12,14,-1,16,18,20,22,24,-1,26,-1,-1,-1,-1,-1,-1,-1,-1,-1,-1,-1,-1],"split_conditions":[4.429171E-1,4.997669E-2,4.4003124E0,3.2116112E-1,1.4435066E0,3.5400894E0,2.9301264E0,9.375332E-3,5.36537E-1,1.1305692E-1,3.817681E-1,3.3228755E0,3.807551E0,-8.736889E-3,3.4011974E0,-2.0220518E-2,-3.5317227E-2,6.298131E-4,2.6551124E-2,-7.8054606E-3,-2.307446E-2,1.5937282E-2,-2.2822492E-2,3.4233116E-2,5.434486E-3,4.288287E-2,2.117352E-2],"split_indices":[1,1,0,3,0,2,2,0,3,1,1,2,2,0,2,0,0,0,0,0,0,0,0,0,0,0,0],"split_type":[0,0,0,0,0,0,0,0,0,0,0,0,0,0,0,0,0,0,0,0,0,0,0,0,0,0,0],"sum_hessian":[1.830342E2,8.790424E1,9.512996E1,5.093639E1,3.6967854E1,5.9554092E1,3.5575863E1,1.0155164E0,4.9920876E1,6.03748E0,3.0930374E1,2.1243134E1,3.831096E1,1.6646925E0,3.391117E1,1.0852072E1,3.90688E1,3.6787689E0,2.358711E0,2.5409452E1,5.5209203E0,1.2048361E1,9.194774E0,1.7415453E1,2.0895506E1,1.2744047E1,2.1167124E1],"tree_param":{"num_deleted":"0","num_feature":"7","num_nodes":"27","size_leaf_vector":"1"}},{"base_weights":[6.8673695E-4,-2.614877E-1,2.2160746E-1,-3.7902525E-1,-8.11516E-2,1.4547242E-1,3.172437E-1,-1.883594E-1,-4.055303E-1,1.5026598E-1,-1.3676135E-1,-1.8885608E-1,1.9703308E-1,2.4073158E-1,4.8980257E-1,-2.2516616E-2,3.1795213E-3,-1.0777654E-2,-3.324132E-2,-3.1501087E-3,2.943056E-2,-7.587504E-3,-3.938991E-2,-2.2484623E-3,-1.7568154E-2,1.9650761E-2,-1.1982306E-2,2.6224561E-2,-1.0184035E-2,4.9182277E-2,1.6640212E-2],"categories":[],"categories_nodes":[],"categories_segments":[],"categories_sizes":[],"default_left":[0,0,0,0,0,0,0,0,0,0,0,0,0,0,0,0,0,0,0,0,0,0,0,0,0,0,0,0,0,0,0],"id":32,"left_children":[1,3,5,7,9,11,13,15,17,19,21,23,25,27,29,-1,-1,-1,-1,-1,-1,-1,-1,-1,-1,-1,-1,-1,-1,-1,-1],"loss_changes":[1.0640173E1,1.7499428E0,6.797538E-1,1.7926788E-1,4.635285E-1,1.0258807E0,4.543171E-1,1.8195543E-1,6.1787605E-2,3.093751E-1,3.7480074E-1,3.4226507E-2,8.8259554E-1,1.0670204E0,3.069811E-1,0E0,0E0,0E0,0E0,0E0,0E0,0E0,0E0,0E0,0E0,0E0,0E0,0E0,0E0,0E0,0E0],"parents":[2147483647,0,0,1,1,2,2,3,3,4,4,5,5,6,6,7,7,8,8,9,9,10,10,11,11,12,12,13,13,14,14],"right_children":[2,4,6,8,10,12,14,16,18,20,22,24,26,28,30,-1,-1,-1,-1,-1,-1,-1,-1,-1,-1,-1,-1,-1,-1,-1,-1],"split_conditions":[4.0214196E-1,4.997669E-2,4.1905727E0,-1.1161645E-2,1.4435066E0,3.2910104E0,4.1524563E0,1E0,2.5510066E0,1.0417461E-1,3.817681E-1,2.9079933E0,4.116039E0,7.045354E0,4.2580214E0,-2.2516616E-2,3.1795213E-3,-1.0777654E-2,-3.324132E-2,-3.1501087E-3,2.943056E-2,-7.587504E-3,-3.938991E-2,-2.2484623E-3,-1.7568154E-2,1.9650761E-2,-1.1982306E-2,2.6224561E-2,-1.0184035E-2,4.9182277E-2,1.6640212E-2],"split_indices":[1,1,0,1,0,2,2,6,2,1,1,2,0,0,2,0,0,0,0,0,0,0,0,0,0,0,0,0,0,0,0],"split_type":[0,0,0,0,0,0,0,0,0,0,0,0,0,0,0,0,0,0,0,0,0,0,0,0,0,0,0,0,0,0,0],"sum_hessian":[1.817049E2,8.301016E1,9.8694725E1,4.9588272E1,3.3421894E1,5.6353436E1,4.234129E1,7.0414786E0,4.2546795E1,6.1455016E0,2.727639E1,7.173885E0,4.9179554E1,3.0993795E1,1.1347493E1,4.8344417E0,2.2070367E0,2.0284758E0,4.051832E1,3.7214692E0,2.4240327E0,2.5533371E1,1.7430204E0,1.4591357E0,5.7147493E0,4.339062E1,5.7889295E0,2.5152159E1,5.8416376E0,7.042562E0,4.3049307E0],"tree_param":{"num_deleted":"0","num_feature":"7","num_nodes":"31","size_leaf_vector":"1"}},{"base_weights":[6.3383533E-3,-2.5675392E-1,2.3106611E-1,-3.8521013E-1,-7.1683586E-2,3.0653083E-1,7.891667E-2,-1.2747067E-1,-3.9881706E-1,1.463585E-1,-1.1932011E-1,1.0291683E-1,3.6820343E-1,-4.6948396E-2,2.1392655E-1,4.0054764E-3,-1.8043378E-2,-3.560115E-2,-2.49104E-2,2.9803765E-5,2.506111E-2,-1.64802E-2,-3.2804837E-3,-2.097562E-2,2.0818347E-2,3.0857546E-2,-8.445522E-3,-1.7924268E-2,1.3359704E-2,2.2506172E-2,-3.560216E-3],"categories":[],"categories_nodes":[],"categories_segments":[],"categories_sizes":[],"default_left":[0,0,0,0,0,0,0,0,0,0,0,0,0,0,0,0,0,0,0,0,0,0,0,0,0,0,0,0,0,0,0],"id":33,"left_children":[1,3,5,7,9,11,13,15,17,19,21,23,25,27,29,-1,-1,-1,-1,-1,-1,-1,-1,-1,-1,-1,-1,-1,-1,-1,-1],"loss_changes":[1.0723515E1,1.9590335E0,1.0987825E0,1.2135553E-1,3.858481E-1,7.7871895E-1,5.839521E-1,7.97529E-2,4.791689E-2,1.6577439E-1,1.928871E-1,1.0162761E0,4.5170164E-1,7.307613E-1,2.9947942E-1,0E0,0E0,0E0,0E0,0E0,0E0,0E0,0E0,0E0,0E0,0E0,0E0,0E0,0E0,0E0,0E0],"parents":[2147483647,0,0,1,1,2,2,3,3,4,4,5,5,6,6,7,7,8,8,9,9,10,10,11,11,12,12,13,13,14,14],"right_children":[2,4,6,8,10,12,14,16,18,20,22,24,26,28,30,-1,-1,-1,-1,-1,-1,-1,-1,-1,-1,-1,-1,-1,-1,-1,-1],"split_conditions":[4.248715E-1,4.997669E-2,2E0,-2.394459E-2,1.4435066E0,5.053602E-1,3.7968366E0,3.3593333E0,1E0,1.1305692E-1,1E0,3.4800086E0,7.4446E0,4.3282022E0,4.2480664E0,4.0054764E-3,-1.8043378E-2,-3.560115E-2,-2.49104E-2,2.9803765E-5,2.506111E-2,-1.64802E-2,-3.2804837E-3,-2.097562E-2,2.0818347E-2,3.0857546E-2,-8.445522E-3,-1.7924268E-2,1.3359704E-2,2.2506172E-2,-3.560216E-3],"split_indices":[1,1,4,1,0,1,2,2,6,1,6,2,0,0,2,0,0,0,0,0,0,0,0,0,0,0,0,0,0,0,0],"split_type":[0,0,0,0,0,0,0,0,0,0,0,0,0,0,0,0,0,0,0,0,0,0,0,0,0,0,0,0,0,0,0],"sum_hessian":[1.7936943E2,8.256583E1,9.680361E1,4.8099102E1,3.4466724E1,6.4030426E1,3.2773182E1,2.9318955E0,4.5167206E1,5.8083444E0,2.8658379E1,1.5505915E1,4.8524513E1,1.7298576E1,1.5474607E1,1.2174371E0,1.7144583E0,2.687715E1,1.8290058E1,3.6329608E0,2.1753838E0,1.2828551E1,1.5829827E1,4.46838E0,1.1037535E1,4.6973698E1,1.550815E0,9.438264E0,7.8603115E0,1.220328E1,3.271327E0],"tree_param":{"num_deleted":"0","num_feature":"7","num_nodes":"31","size_leaf_vector":"1"}},{"base_weights":[7.1199783E-3,-2.345757E-1,2.263906E-1,-3.6575395E-1,-6.263513E-2,8.484195E-2,2.737799E-1,-1.4264452E-1,-4.1010064E-1,5.173126E-3,-2.2186519E-1,-1.8249615E-1,2.1206044E-1,-1.843378E-2,2.9028988E-1,-2.2286467E-2,2.7841309E-3,-1.6080158E-2,-3.4982845E-2,-2.073038E-2,2.7558901E-3,-2.4401987E-2,-6.9435416E-3,7.889571E-3,-2.7623331E-2,2.238667E-2,-1.0543917E-2,2.7397564E-2,1.1275287E-2],"categories":[],"categories_nodes":[],"categories_segments":[],"categories_sizes":[],"default_left":[0,0,0,0,0,0,0,0,0,0,0,0,0,0,0,0,0,0,0,0,0,0,0,0,0,0,0,0,0],"id":34,"left_children":[1,3,5,7,9,11,13,15,17,19,21,23,25,-1,27,-1,-1,-1,-1,-1,-1,-1,-1,-1,-1,-1,-1,-1,-1],"loss_changes":[9.583743E0,1.9175758E0,6.1268187E-1,4.2230892E-1,4.1617656E-1,8.966727E-1,6.543689E-1,2.4103981E-1,1.3950253E-1,2.2508243E-1,1.0273367E-1,4.3089598E-1,4.4599837E-1,0E0,4.8771954E-1,0E0,0E0,0E0,0E0,0E0,0E0,0E0,0E0,0E0,0E0,0E0,0E0,0E0,0E0],"parents":[2147483647,0,0,1,1,2,2,3,3,4,4,5,5,6,6,7,7,8,8,9,9,10,10,11,11,12,12,14,14],"right_children":[2,4,6,8,10,12,14,16,18,20,22,24,26,-1,28,-1,-1,-1,-1,-1,-1,-1,-1,-1,-1,-1,-1,-1,-1],"split_conditions":[4.429171E-1,4.997669E-2,5.090581E-1,4.7286063E-1,6.9425136E-1,3.4753768E0,3.6325148E-1,4.094415E-1,-1.1161645E-2,3.569801E-1,1E0,1E0,4.1571627E0,-1.843378E-2,2E0,-2.2286467E-2,2.7841309E-3,-1.6080158E-2,-3.4982845E-2,-2.073038E-2,2.7558901E-3,-2.4401987E-2,-6.9435416E-3,7.889571E-3,-2.7623331E-2,2.238667E-2,-1.0543917E-2,2.7397564E-2,1.1275287E-2],"split_indices":[1,1,1,3,3,2,3,3,1,3,6,6,2,0,4,0,0,0,0,0,0,0,0,0,0,0,0,0,0],"split_type":[0,0,0,0,0,0,0,0,0,0,0,0,0,0,0,0,0,0,0,0,0,0,0,0,0,0,0,0,0],"sum_hessian":[1.7883432E2,8.5034E1,9.3800316E1,4.7595127E1,3.7438866E1,2.4226809E1,6.957351E1,8.5908575E0,3.9004272E1,2.6935762E1,1.0503105E1,7.6714478E0,1.655536E1,1.7951264E0,6.777838E1,4.5416703E0,4.0491867E0,5.453258E0,3.3551014E1,1.903082E0,2.503268E1,5.721977E0,4.7811284E0,2.9579177E0,4.71353E0,1.3985155E1,2.5702047E0,4.9270958E1,1.850743E1],"tree_param":{"num_deleted":"0","num_feature":"7","num_nodes":"29","size_leaf_vector":"1"}},{"base_weights":[-4.0848535E-3,-3.5582587E-1,1.4779986E-1,-1.122709E-1,-4.075706E-1,-5.2240726E-2,2.2224392E-1,-2.646009E-1,7.919133E-2,-1.3552111E-1,-4.202179E-1,3.8513403E-2,-1.429696E-1,1.5680245E-1,3.5372558E-1,8.710702E-3,-2.964513E-2,-1.0868069E-2,2.355489E-2,-1.6116874E-2,5.09988E-4,-1.9034695E-2,-3.52715E-2,-3.2889496E-3,1.9380016E-2,-3.8890887E-2,-7.0362776E-3,1.4776054E-2,-1.859554E-2,-7.942808E-3,3.0356402E-2],"categories":[],"categories_nodes":[],"categories_segments":[],"categories_sizes":[],"default_left":[0,0,0,0,0,0,0,0,0,0,0,0,0,0,0,0,0,0,0,0,0,0,0,0,0,0,0,0,0,0,0],"id":35,"left_children":[1,3,5,7,9,11,13,15,17,19,21,23,25,27,29,-1,-1,-1,-1,-1,-1,-1,-1,-1,-1,-1,-1,-1,-1,-1,-1],"loss_changes":[9.303344E0,6.1606646E-1,1.8230879E0,3.2958898E-1,9.0768814E-2,2.838226E-1,7.089596E-1,2.8269818E-1,2.9265532E-1,3.2939833E-2,4.792118E-2,2.9686943E-1,2.803677E-1,7.0658827E-1,3.7251472E-1,0E0,0E0,0E0,0E0,0E0,0E0,0E0,0E0,0E0,0E0,0E0,0E0,0E0,0E0,0E0,0E0],"parents":[2147483647,0,0,1,1,2,2,3,3,4,4,5,5,6,6,7,7,8,8,9,9,10,10,11,11,12,12,13,13,14,14],"right_children":[2,4,6,8,10,12,14,16,18,20,22,24,26,28,30,-1,-1,-1,-1,-1,-1,-1,-1,-1,-1,-1,-1,-1,-1,-1,-1],"split_conditions":[1.2494702E-1,4.7286063E-1,4.476544E-1,4.094415E-1,2.5510066E0,6.36204E-1,7.458811E-1,3.2116112E-1,2.7874974E-3,1.4139677E-4,-1.1161645E-2,6.028114E-1,6.3909715E-1,8.0208033E-1,2.9242363E0,8.710702E-3,-2.964513E-2,-1.0868069E-2,2.355489E-2,-1.6116874E-2,5.09988E-4,-1.9034695E-2,-3.52715E-2,-3.2889496E-3,1.9380016E-2,-3.8890887E-2,-7.0362776E-3,1.4776054E-2,-1.859554E-2,-7.942808E-3,3.0356402E-2],"split_indices":[1,3,1,3,2,3,1,3,1,1,1,3,3,3,2,0,0,0,0,0,0,0,0,0,0,0,0,0,0,0,0],"split_type":[0,0,0,0,0,0,0,0,0,0,0,0,0,0,0,0,0,0,0,0,0,0,0,0,0,0,0,0,0,0,0],"sum_hessian":[1.7215697E2,5.1514587E1,1.2064239E2,9.582211E0,4.1932377E1,3.2800785E1,8.7841606E1,5.1237125E0,4.4584975E0,2.3832335E0,3.954914E1,1.6685825E1,1.611496E1,6.0114037E1,2.7727568E1,1.1263047E0,3.9974077E0,2.4148123E0,2.0436852E0,1.3405113E0,1.0427221E0,5.303122E0,3.424602E1,1.257099E1,4.1148357E0,1.1438538E0,1.4971107E1,5.6584015E1,3.530019E0,1.3365486E0,2.6391018E1],"tree_param":{"num_deleted":"0","num_feature":"7","num_nodes":"31","size_leaf_vector":"1"}},{"base_weights":[-8.372764E-3,-3.4835818E-1,1.339771E-1,-1.2815596E-1,-3.9126483E-1,-1.9040002E-2,2.5665346E-1,-2.8006914E-1,7.068722E-2,-4.099344E-1,-1.6995622E-1,1.5298385E-2,-4.2268187E-1,-1.06264435E-1,2.720746E-1,-4.0972745E-3,-2.8036706E-2,-1.1362342E-2,2.0717114E-2,-1.712897E-2,-3.4878444E-2,-2.2135267E-2,-3.1666055E-3,2.6549438E-2,-6.3430663E-4,-5.8736233E-3,-4.517004E-2,1.8600821E-3,-1.6815627E-2,2.5627209E-2,1.1502016E-2],"categories":[],"categories_nodes":[],"categories_segments":[],"categories_sizes":[],"default_left":[0,0,0,0,0,0,0,0,0,0,0,0,0,0,0,0,0,0,0,0,0,0,0,0,0,0,0,0,0,0,0],"id":36,"left_children":[1,3,5,7,9,11,13,15,17,19,21,23,25,27,29,-1,-1,-1,-1,-1,-1,-1,-1,-1,-1,-1,-1,-1,-1,-1,-1],"loss_changes":[8.372381E0,4.3216944E-1,2.2946734E0,3.1618208E-1,1.0483885E-1,7.716931E-1,4.082055E-1,7.49E-2,2.3895025E-1,1.0170269E-1,5.8542475E-2,3.8385722E-1,1.7486495E-1,5.175092E-2,3.5825062E-1,0E0,0E0,0E0,0E0,0E0,0E0,0E0,0E0,0E0,0E0,0E0,0E0,0E0,0E0,0E0,0E0],"parents":[2147483647,0,0,1,1,2,2,3,3,4,4,5,5,6,6,7,7,8,8,9,9,10,10,11,11,12,12,13,13,14,14],"right_children":[2,4,6,8,10,12,14,16,18,20,22,24,26,28,30,-1,-1,-1,-1,-1,-1,-1,-1,-1,-1,-1,-1,-1,-1,-1,-1],"split_conditions":[1.2494702E-1,4.6429515E-1,5.053602E-1,4.094415E-1,4.997669E-2,2.1967304E0,2.9301264E0,-7.4210893E-3,2.7874974E-3,-1.1161645E-2,6.49931E-1,1.4435066E0,3.501983E-1,6.260865E0,2E0,-4.0972745E-3,-2.8036706E-2,-1.1362342E-2,2.0717114E-2,-1.712897E-2,-3.4878444E-2,-2.2135267E-2,-3.1666055E-3,2.6549438E-2,-6.3430663E-4,-5.8736233E-3,-4.517004E-2,1.8600821E-3,-1.6815627E-2,2.5627209E-2,1.1502016E-2],"split_indices":[1,3,1,3,1,0,2,1,1,1,3,0,1,0,4,0,0,0,0,0,0,0,0,0,0,0,0,0,0,0,0],"split_type":[0,0,0,0,0,0,0,0,0,0,0,0,0,0,0,0,0,0,0,0,0,0,0,0,0,0,0,0,0,0,0],"sum_hessian":[1.7102989E2,5.004833E1,1.2098156E2,8.811823E0,4.1236504E1,5.4209534E1,6.677203E1,4.7638335E0,4.0479894E0,3.724242E1,3.9940856E0,5.0846085E1,3.3634496E0,2.4815273E0,6.4290504E1,1.526955E0,3.2368786E0,2.015968E0,2.032021E0,5.4544997E0,3.178792E1,1.579052E0,2.4150336E0,2.5673351E0,4.8278748E1,1.4103762E0,1.9530733E0,1.4503858E0,1.0311416E0,4.56285E1,1.8662E1],"tree_param":{"num_deleted":"0","num_feature":"7","num_nodes":"31","size_leaf_vector":"1"}},{"base_weights":[8.969601E-3,-2.3013334E-1,2.3037407E-1,-3.6843354E-1,-6.0092654E-2,1.7789567E-1,3.6351803E-1,-1.922215E-1,-4.187067E-1,-2.5628934E-2,-3.3046443E-2,-2.2780257E-1,2.1675473E-1,-9.374578E-3,3.9609027E-1,-2.0811804E-2,9.891379E-4,-9.245598E-3,-3.4890916E-2,-2.693358E-2,-1.7590319E-4,2.8466433E-3,-2.5741767E-2,1.9456517E-2,-1.5626779E-2,3.633096E-2,6.5559247E-3],"categories":[],"categories_nodes":[],"categories_segments":[],"categories_sizes":[],"default_left":[0,0,0,0,0,0,0,0,0,0,0,0,0,0,0,0,0,0,0,0,0,0,0,0,0,0,0],"id":37,"left_children":[1,3,5,7,9,11,13,15,17,19,-1,21,23,-1,25,-1,-1,-1,-1,-1,-1,-1,-1,-1,-1,-1,-1],"loss_changes":[8.977254E0,1.8956347E0,5.503988E-1,3.16185E-1,4.489243E-1,1.0756738E0,4.2107534E-1,1.6703042E-1,1.2918186E-1,2.578187E-1,0E0,1.6435558E-1,7.006793E-1,0E0,3.7559175E-1,0E0,0E0,0E0,0E0,0E0,0E0,0E0,0E0,0E0,0E0,0E0,0E0],"parents":[2147483647,0,0,1,1,2,2,3,3,4,4,5,5,6,6,7,7,8,8,9,9,11,11,12,12,14,14],"right_children":[2,4,6,8,10,12,14,16,18,20,-1,22,24,-1,26,-1,-1,-1,-1,-1,-1,-1,-1,-1,-1,-1,-1],"split_conditions":[4.476544E-1,4.997669E-2,5.5982876E0,5.405154E-1,2.2179015E0,3.1432898E0,2.9301264E0,4.37563E-3,2.5510066E0,2.5748997E0,-3.3046443E-2,2.881443E0,8.0208033E-1,-9.374578E-3,7.4446E0,-2.0811804E-2,9.891379E-4,-9.245598E-3,-3.4890916E-2,-2.693358E-2,-1.7590319E-4,2.8466433E-3,-2.5741767E-2,1.9456517E-2,-1.5626779E-2,3.633096E-2,6.5559247E-3],"split_indices":[1,1,0,3,0,2,2,1,2,2,0,2,3,0,0,0,0,0,0,0,0,0,0,0,0,0,0],"split_type":[0,0,0,0,0,0,0,0,0,0,0,0,0,0,0,0,0,0,0,0,0,0,0,0,0,0,0],"sum_hessian":[1.6757758E2,8.054962E1,8.702796E1,4.377726E1,3.6772358E1,6.409943E1,2.2928537E1,1.0787973E1,3.298929E1,3.4478664E1,2.2936943E0,5.177962E0,5.8921463E1,1.2901992E0,2.1638338E1,7.8950853E0,2.8928888E0,2.208573E0,3.0780714E1,1.4787545E0,3.299991E1,1.5249735E0,3.6529884E0,5.5752567E1,3.1688972E0,1.788746E1,3.7508762E0],"tree_param":{"num_deleted":"0","num_feature":"7","num_nodes":"27","size_leaf_vector":"1"}},{"base_weights":[-3.1649263E-4,-2.4439898E-1,2.0560604E-1,-3.6632973E-1,-8.140766E-2,1.3170269E-1,2.9043695E-1,-1.9925587E-1,-4.1541293E-1,-4.6867646E-2,-3.1254748E-1,1.9341964E-1,-1.8687259E-1,4.0210968E-1,1.9075765E-1,-6.156409E-3,-2.8454969E-2,-3.445926E-2,-9.381379E-3,-6.2946007E-3,1.4283063E-2,-3.6965385E-2,2.70949E-4,-1.3705499E-2,2.0355081E-2,-4.0762648E-2,6.812007E-3,3.919817E-2,-1.7364627E-3,-8.595913E-3,3.1801157E-2],"categories":[],"categories_nodes":[],"categories_segments":[],"categories_sizes":[],"default_left":[0,0,0,0,0,0,0,0,0,0,0,0,0,0,0,0,0,0,0,0,0,0,0,0,0,0,0,0,0,0,0],"id":38,"left_children":[1,3,5,7,9,11,13,15,17,19,21,23,25,27,29,-1,-1,-1,-1,-1,-1,-1,-1,-1,-1,-1,-1,-1,-1,-1,-1],"loss_changes":[8.435213E0,1.4963956E0,5.3243446E-1,2.7514553E-1,2.5799173E-1,1.0286059E0,3.8582206E-1,1.990048E-1,9.944296E-2,2.355452E-1,2.0295772E-1,9.956298E-1,8.0703795E-1,7.067995E-1,1.5136578E0,0E0,0E0,0E0,0E0,0E0,0E0,0E0,0E0,0E0,0E0,0E0,0E0,0E0,0E0,0E0,0E0],"parents":[2147483647,0,0,1,1,2,2,3,3,4,4,5,5,6,6,7,7,8,8,9,9,10,10,11,11,12,12,13,13,14,14],"right_children":[2,4,6,8,10,12,14,16,18,20,22,24,26,28,30,-1,-1,-1,-1,-1,-1,-1,-1,-1,-1,-1,-1,-1,-1,-1,-1],"split_conditions":[4.248715E-1,4.997669E-2,4.1905727E0,5.405154E-1,3.817681E-1,3.9673083E0,3.504656E0,3.7213466E0,4.3042E0,3.3314022E-1,2E0,3.2910104E0,3.9162142E0,6.9982824E0,3.982295E0,-6.156409E-3,-2.8454969E-2,-3.445926E-2,-9.381379E-3,-6.2946007E-3,1.4283063E-2,-3.6965385E-2,2.70949E-4,-1.3705499E-2,2.0355081E-2,-4.0762648E-2,6.812007E-3,3.919817E-2,-1.7364627E-3,-8.595913E-3,3.1801157E-2],"split_indices":[1,1,0,3,1,0,2,2,2,1,4,2,2,0,2,0,0,0,0,0,0,0,0,0,0,0,0,0,0,0,0],"split_type":[0,0,0,0,0,0,0,0,0,0,0,0,0,0,0,0,0,0,0,0,0,0,0,0,0,0,0,0,0,0,0],"sum_hessian":[1.6582483E2,7.579603E1,9.00288E1,4.2645893E1,3.3150135E1,4.9477398E1,4.05514E1,1.0832571E1,3.181332E1,2.9886812E1,3.2633214E0,4.1776905E1,7.700495E0,1.76942E1,2.2857199E1,6.9168196E0,3.9157515E0,2.9834768E1,1.9785528E0,2.676062E1,3.1261919E0,1.9010727E0,1.3622488E0,5.728336E0,3.604857E1,3.1230054E0,4.5774894E0,1.4526406E1,3.1677947E0,9.555524E0,1.3301674E1],"tree_param":{"num_deleted":"0","num_feature":"7","num_nodes":"31","size_leaf_vector":"1"}},{"base_weights":[8.475576E-3,-2.1729578E-1,2.1509887E-1,-3.5504198E-1,-6.256696E-2,2.6420063E-1,1.10737205E-1,-2.4678409E-1,-4.1547054E-1,-1.3526375E-3,-1.840212E-1,9.492679E-2,3.081268E-1,3.4567893E-2,7.017136E-2,3.4756912E-4,-2.3427464E-2,-3.4540534E-2,-1.1126484E-2,7.189008E-3,-8.459833E-3,-2.1922361E-2,-5.371478E-3,-2.3679651E-2,1.9972771E-2,3.7600573E-2,2.1085417E-2,-2.2831223E-4,1.9578613E-2],"categories":[],"categories_nodes":[],"categories_segments":[],"categories_sizes":[],"default_left":[0,0,0,0,0,0,0,0,0,0,0,0,0,0,0,0,0,0,0,0,0,0,0,0,0,0,0,0,0],"id":39,"left_children":[1,3,5,7,9,11,13,15,17,19,21,23,25,-1,27,-1,-1,-1,-1,-1,-1,-1,-1,-1,-1,-1,-1,-1,-1],"loss_changes":[7.724957E0,1.6647284E0,4.1370988E-1,1.6999531E-1,2.8592062E-1,4.0248632E-1,3.5268375E-1,2.0237756E-1,5.3709984E-2,2.627953E-1,1.17217034E-1,8.849451E-1,2.0544481E-1,0E0,3.4845695E-1,0E0,0E0,0E0,0E0,0E0,0E0,0E0,0E0,0E0,0E0,0E0,0E0,0E0,0E0],"parents":[2147483647,0,0,1,1,2,2,3,3,4,4,5,5,6,6,7,7,8,8,9,9,10,10,11,11,12,12,14,14],"right_children":[2,4,6,8,10,12,14,16,18,20,22,24,26,-1,28,-1,-1,-1,-1,-1,-1,-1,-1,-1,-1,-1,-1,-1,-1],"split_conditions":[4.476544E-1,3.3353064E-2,2E0,5.961995E-1,6.787922E-1,5.053602E-1,4.5150182E-1,-1.18608335E-2,4.2773604E0,3.6054978E0,1E0,3.4753768E0,5.3035575E-1,3.4567893E-2,4.1093974E0,3.4756912E-4,-2.3427464E-2,-3.4540534E-2,-1.1126484E-2,7.189008E-3,-8.459833E-3,-2.1922361E-2,-5.371478E-3,-2.3679651E-2,1.9972771E-2,3.7600573E-2,2.1085417E-2,-2.2831223E-4,1.9578613E-2],"split_indices":[1,1,4,3,3,1,1,1,2,2,6,2,1,0,2,0,0,0,0,0,0,0,0,0,0,0,0,0,0],"split_type":[0,0,0,0,0,0,0,0,0,0,0,0,0,0,0,0,0,0,0,0,0,0,0,0,0,0,0,0,0],"sum_hessian":[1.6359334E2,7.814972E1,8.544362E1,4.065886E1,3.749086E1,5.706375E1,2.8379868E1,1.638643E1,2.427243E1,2.5599539E1,1.1891322E1,1.2408274E1,4.4655476E1,2.0990965E0,2.6280771E1,2.6799903E0,1.370644E1,2.239092E1,1.8815092E0,1.37365E1,1.186304E1,5.9582505E0,5.9330716E0,3.259759E0,9.148515E0,7.577809E0,3.7077667E1,1.9222824E1,7.057947E0],"tree_param":{"num_deleted":"0","num_feature":"7","num_nodes":"29","size_leaf_vector":"1"}},{"base_weights":[2.2907588E-3,-2.2450207E-1,2.0789863E-1,-3.4944707E-1,-7.46658E-2,1.5073253E-1,3.4105512E-1,-1.3495548E-1,-3.944292E-1,-1.2455286E-2,-2.0259711E-1,2.530926E-1,4.3763466E-2,-8.452635E-3,3.683545E-1,-1.790776E-2,8.009661E-3,-8.569142E-3,-3.2716688E-2,1.6599481E-3,-1.8308798E-2,-2.4532134E-2,-5.134042E-3,1.1493168E-2,4.2882584E-2,3.8489357E-2,-1.0540545E-3,3.1997986E-2,3.5999843E-3],"categories":[],"categories_nodes":[],"categories_segments":[],"categories_sizes":[],"default_left":[0,0,0,0,0,0,0,0,0,0,0,0,0,0,0,0,0,0,0,0,0,0,0,0,0,0,0,0,0],"id":40,"left_children":[1,3,5,7,9,11,13,15,17,19,21,23,25,-1,27,-1,-1,-1,-1,-1,-1,-1,-1,-1,-1,-1,-1,-1,-1],"loss_changes":[7.659226E0,1.4361935E0,6.0433054E-1,3.5508633E-1,2.902606E-1,6.6846347E-1,3.4480453E-1,2.074835E-1,1.0006237E-1,1.902622E-1,1.527406E-1,8.984401E-1,7.921846E-1,0E0,2.2597194E-1,0E0,0E0,0E0,0E0,0E0,0E0,0E0,0E0,0E0,0E0,0E0,0E0,0E0,0E0],"parents":[2147483647,0,0,1,1,2,2,3,3,4,4,5,5,6,6,7,7,8,8,9,9,10,10,11,11,12,12,14,14],"right_children":[2,4,6,8,10,12,14,16,18,20,22,24,26,-1,28,-1,-1,-1,-1,-1,-1,-1,-1,-1,-1,-1,-1,-1,-1],"split_conditions":[4.429171E-1,4.997669E-2,5.5559974E0,4.7286063E-1,6.8834937E-1,6.109126E-1,2.9301264E0,4.37563E-3,2.5510066E0,2.1478047E0,1E0,6.057098E-1,4.5029706E-1,-8.452635E-3,8.832103E-1,-1.790776E-2,8.009661E-3,-8.569142E-3,-3.2716688E-2,1.6599481E-3,-1.8308798E-2,-2.4532134E-2,-5.134042E-3,1.1493168E-2,4.2882584E-2,3.8489357E-2,-1.0540545E-3,3.1997986E-2,3.5999843E-3],"split_indices":[1,1,0,3,3,3,2,1,2,0,6,3,1,0,1,0,0,0,0,0,0,0,0,0,0,0,0,0,0],"split_type":[0,0,0,0,0,0,0,0,0,0,0,0,0,0,0,0,0,0,0,0,0,0,0,0,0,0,0,0,0],"sum_hessian":[1.6225302E2,7.710812E1,8.5144905E1,4.1320076E1,3.5788048E1,6.1062042E1,2.408286E1,7.856684E0,3.346339E1,2.4817257E1,1.0970791E1,3.0505198E1,3.0556847E1,1.2216729E0,2.2861189E1,5.735599E0,2.1210852E0,2.0137758E0,3.1449614E1,2.2299751E1,2.517505E0,5.5690594E0,5.401732E0,2.3084816E1,7.420382E0,2.6617892E0,2.7895056E1,2.0608923E1,2.2522655E0],"tree_param":{"num_deleted":"0","num_feature":"7","num_nodes":"29","size_leaf_vector":"1"}},{"base_weights":[4.7806394E-3,-2.8644696E-1,1.3978481E-1,-9.258381E-2,-3.3097902E-1,4.2600438E-2,3.0154815E-1,-2.014636E-1,3.25596E-2,-2.525462E-1,-3.866226E-1,9.7270764E-2,-1.5879667E-1,-1.2390282E-2,3.1863606E-1,1.1962079E-2,-2.4284938E-2,-1.0771089E-2,1.3324474E-2,-2.3974568E-2,1.5776355E-2,-3.2170914E-2,-1.2753458E-2,-2.0933566E-3,1.5545544E-2,-1.6716287E-2,3.4750593E-3,-8.954371E-3,2.7083477E-2],"categories":[],"categories_nodes":[],"categories_segments":[],"categories_sizes":[],"default_left":[0,0,0,0,0,0,0,0,0,0,0,0,0,0,0,0,0,0,0,0,0,0,0,0,0,0,0,0,0],"id":41,"left_children":[1,3,5,7,9,11,13,15,17,19,21,23,25,-1,27,-1,-1,-1,-1,-1,-1,-1,-1,-1,-1,-1,-1,-1,-1],"loss_changes":[6.2756653E0,4.0586805E-1,1.701303E0,1.5417075E-1,8.011246E-2,7.782399E-1,3.6723328E-1,2.5797513E-1,1.5463333E-1,4.7856522E-1,1.3234615E-2,6.652502E-1,1.6296262E-1,0E0,3.774395E-1,0E0,0E0,0E0,0E0,0E0,0E0,0E0,0E0,0E0,0E0,0E0,0E0,0E0,0E0],"parents":[2147483647,0,0,1,1,2,2,3,3,4,4,5,5,6,6,7,7,8,8,9,9,10,10,11,11,12,12,14,14],"right_children":[2,4,6,8,10,12,14,16,18,20,22,24,26,-1,28,-1,-1,-1,-1,-1,-1,-1,-1,-1,-1,-1,-1,-1,-1],"split_conditions":[1.8038374E0,4.6429515E-1,4.1905727E0,4.094415E-1,6.627088E-1,7.3286474E-1,3.6325148E-1,3.2116112E-1,2E0,6.5831566E-1,4.2580214E0,6.057098E-1,4.2057366E0,-1.2390282E-2,2.9301264E0,1.1962079E-2,-2.4284938E-2,-1.0771089E-2,1.3324474E-2,-2.3974568E-2,1.5776355E-2,-3.2170914E-2,-1.2753458E-2,-2.0933566E-3,1.5545544E-2,-1.6716287E-2,3.4750593E-3,-8.954371E-3,2.7083477E-2],"split_indices":[0,3,0,3,3,3,3,3,4,3,2,3,2,0,2,0,0,0,0,0,0,0,0,0,0,0,0,0,0],"split_type":[0,0,0,0,0,0,0,0,0,0,0,0,0,0,0,0,0,0,0,0,0,0,0,0,0,0,0,0,0],"sum_hessian":[1.5759892E2,4.95624E1,1.0803653E2,9.833381E0,3.972902E1,6.827908E1,3.9757442E1,4.9322577E0,4.9011235E0,1.8786709E1,2.094231E1,5.4108154E1,1.417093E1,1.1437485E0,3.8613693E1,1.0067512E0,3.9255064E0,2.1782937E0,2.7228296E0,1.7306572E1,1.4801369E0,1.888302E1,2.0592897E0,2.4137554E1,2.9970602E1,1.1328172E1,2.8427582E0,1.5021459E0,3.711155E1],"tree_param":{"num_deleted":"0","num_feature":"7","num_nodes":"29","size_leaf_vector":"1"}},{"base_weights":[5.3369775E-3,-2.2151247E-1,1.9870873E-1,-3.4795845E-1,-8.185125E-2,1.2713698E-1,2.8256255E-1,3.056888E-3,-3.6199117E-1,9.777698E-2,-1.3207299E-1,-2.1995533E-1,1.789704E-1,2.051435E-1,4.3182048E-1,-2.1314837E-2,-3.266361E-2,-4.236386E-3,2.8466372E-2,-7.2495756E-3,-2.9738072E-2,-4.844712E-3,-2.4057733E-2,1.907744E-2,-1.40085155E-2,2.4518205E-2,-1.7629504E-2,4.475906E-2,1.2984609E-2],"categories":[],"categories_nodes":[],"categories_segments":[],"categories_sizes":[],"default_left":[0,0,0,0,0,0,0,0,0,0,0,0,0,0,0,0,0,0,0,0,0,0,0,0,0,0,0,0,0],"id":42,"left_children":[1,3,5,7,9,11,13,-1,15,17,19,21,23,25,27,-1,-1,-1,-1,-1,-1,-1,-1,-1,-1,-1,-1,-1,-1],"loss_changes":[6.984989E0,1.2657058E0,4.798808E-1,2.205925E-1,3.388552E-1,9.062853E-1,3.5928822E-1,0E0,5.453825E-2,3.482607E-1,2.5104833E-1,6.816721E-2,9.3660283E-1,1.2501228E0,3.3353353E-1,0E0,0E0,0E0,0E0,0E0,0E0,0E0,0E0,0E0,0E0,0E0,0E0,0E0,0E0],"parents":[2147483647,0,0,1,1,2,2,3,3,4,4,5,5,6,6,8,8,9,9,10,10,11,11,12,12,13,13,14,14],"right_children":[2,4,6,8,10,12,14,-1,16,18,20,22,24,26,28,-1,-1,-1,-1,-1,-1,-1,-1,-1,-1,-1,-1,-1,-1],"split_conditions":[4.248715E-1,2.6412562E-2,4.1905727E0,3.215369E-1,1.4435066E0,3.2910104E0,4.1524563E0,3.056888E-3,5.961995E-1,1.1305692E-1,3.817681E-1,2.9734867E0,4.1864676E0,7.045354E0,4.2580214E0,-2.1314837E-2,-3.266361E-2,-4.236386E-3,2.8466372E-2,-7.2495756E-3,-2.9738072E-2,-4.844712E-3,-2.4057733E-2,1.907744E-2,-1.40085155E-2,2.4518205E-2,-1.7629504E-2,4.475906E-2,1.2984609E-2],"split_indices":[1,1,0,3,0,2,2,0,3,1,1,2,2,0,2,0,0,0,0,0,0,0,0,0,0,0,0,0,0],"split_type":[0,0,0,0,0,0,0,0,0,0,0,0,0,0,0,0,0,0,0,0,0,0,0,0,0,0,0,0,0],"sum_hessian":[1.5723027E2,7.228515E1,8.494512E1,3.715471E1,3.5130444E1,4.7186344E1,3.7758778E1,1.2423815E0,3.5912327E1,7.469033E0,2.7661411E1,5.709604E0,4.147674E1,2.6426142E1,1.1332637E1,1.3926594E1,2.1985733E1,5.2166896E0,2.2523432E0,2.4757227E1,2.9041836E0,2.5085862E0,3.2010174E0,3.5789356E1,5.6873865E0,2.1569254E1,4.8568873E0,6.9598455E0,4.372791E0],"tree_param":{"num_deleted":"0","num_feature":"7","num_nodes":"29","size_leaf_vector":"1"}},{"base_weights":[-1.4086327E-2,-2.2861812E-1,1.8910058E-1,-3.4916764E-1,-8.925902E-2,1.3875869E-1,3.3179435E-1,-4.0457052E-1,-2.504953E-1,-5.3688176E-2,-3.7614456E-1,1.6068889E-1,-2.4413638E-2,-8.883693E-3,3.6200076E-1,-4.137451E-3,-3.3557344E-2,-2.3764554E-2,6.297636E-3,-1.6422214E-2,-1.3450359E-3,-5.2715717E-3,-3.8426083E-2,-1.1109469E-2,1.5094249E-2,3.1641643E-2,5.6275665E-3],"categories":[],"categories_nodes":[],"categories_segments":[],"categories_sizes":[],"default_left":[0,0,0,0,0,0,0,0,0,0,0,0,0,0,0,0,0,0,0,0,0,0,0,0,0,0,0],"id":43,"left_children":[1,3,5,7,9,11,13,15,17,19,21,23,-1,-1,25,-1,-1,-1,-1,-1,-1,-1,-1,-1,-1,-1,-1],"loss_changes":[6.6530967E0,1.2155714E0,5.17324E-1,1.1430836E-1,3.447694E-1,6.301594E-1,3.041687E-1,1.0254812E-1,2.8107178E-1,1.8093349E-1,9.048581E-2,5.0860834E-1,0E0,0E0,1.5507412E-1,0E0,0E0,0E0,0E0,0E0,0E0,0E0,0E0,0E0,0E0,0E0,0E0],"parents":[2147483647,0,0,1,1,2,2,3,3,4,4,5,5,6,6,7,7,8,8,9,9,10,10,11,11,14,14],"right_children":[2,4,6,8,10,12,14,16,18,20,22,24,-1,-1,26,-1,-1,-1,-1,-1,-1,-1,-1,-1,-1,-1,-1],"split_conditions":[4.476544E-1,4.997669E-2,5.843956E0,1E0,2.1967304E0,4.2773604E0,2.9301264E0,2.5510066E0,2E0,2.9734867E0,3.10761E-1,3.1432898E0,-2.4413638E-2,-8.883693E-3,4.2480664E0,-4.137451E-3,-3.3557344E-2,-2.3764554E-2,6.297636E-3,-1.6422214E-2,-1.3450359E-3,-5.2715717E-3,-3.8426083E-2,-1.1109469E-2,1.5094249E-2,3.1641643E-2,5.6275665E-3],"split_indices":[1,1,0,6,0,2,2,2,4,2,1,2,0,0,2,0,0,0,0,0,0,0,0,0,0,0,0],"split_type":[0,0,0,0,0,0,0,0,0,0,0,0,0,0,0,0,0,0,0,0,0,0,0,0,0,0,0],"sum_hessian":[1.50637E2,7.3212036E1,7.7424965E1,3.8447952E1,3.476408E1,5.8691296E1,1.8733671E1,2.2637325E1,1.5810628E1,3.1985365E1,2.7787132E0,5.6536415E1,2.1548812E0,1.0253465E0,1.7708324E1,1.0981052E0,2.153922E1,1.3937153E1,1.873475E0,5.364744E0,2.662062E1,1.1089089E0,1.6698045E0,4.4925866E0,5.2043827E1,1.5563506E1,2.1448183E0],"tree_param":{"num_deleted":"0","num_feature":"7","num_nodes":"27","size_leaf_vector":"1"}},{"base_weights":[-1.4028726E-2,-2.2643578E-1,1.6954412E-1,-3.3424404E-1,-9.236816E-2,9.25417E-2,2.6080972E-1,-2.6147538E-1,-4.2934877E-1,1.2930134E-1,-1.3799489E-1,1.5146331E-1,-1.8423335E-1,3.58876E-1,1.6950388E-1,-2.5994666E-2,-1.3375679E-2,-3.7206247E-2,-9.387803E-3,-5.392331E-3,2.8179727E-2,-8.249048E-3,-2.639836E-2,-1.4882041E-2,1.6616909E-2,-3.6911245E-2,3.6560094E-3,3.588462E-2,-7.255363E-3,-1.3886088E-2,2.3590922E-2],"categories":[],"categories_nodes":[],"categories_segments":[],"categories_sizes":[],"default_left":[0,0,0,0,0,0,0,0,0,0,0,0,0,0,0,0,0,0,0,0,0,0,0,0,0,0,0,0,0,0,0],"id":44,"left_children":[1,3,5,7,9,11,13,15,17,19,21,23,25,27,29,-1,-1,-1,-1,-1,-1,-1,-1,-1,-1,-1,-1,-1,-1,-1,-1],"loss_changes":[5.9559293E0,9.9220777E-1,5.5198216E-1,1.566186E-1,3.5091347E-1,7.7829623E-1,2.7015257E-1,9.266019E-2,1.15803E-1,2.929033E-1,1.521039E-1,7.6922464E-1,5.64525E-1,7.2316504E-1,9.561313E-1,0E0,0E0,0E0,0E0,0E0,0E0,0E0,0E0,0E0,0E0,0E0,0E0,0E0,0E0,0E0,0E0],"parents":[2147483647,0,0,1,1,2,2,3,3,4,4,5,5,6,6,7,7,8,8,9,9,10,10,11,11,12,12,13,13,14,14],"right_children":[2,4,6,8,10,12,14,16,18,20,22,24,26,28,30,-1,-1,-1,-1,-1,-1,-1,-1,-1,-1,-1,-1,-1,-1,-1,-1],"split_conditions":[4.248715E-1,4.997669E-2,4.1905727E0,3.7968366E0,1.4435066E0,3.9673083E0,3.504656E0,1E0,4.3042E0,1.1305692E-1,3.817681E-1,3.2910104E0,3.982295E0,7.045354E0,3.7968366E0,-2.5994666E-2,-1.3375679E-2,-3.7206247E-2,-9.387803E-3,-5.392331E-3,2.8179727E-2,-8.249048E-3,-2.639836E-2,-1.4882041E-2,1.6616909E-2,-3.6911245E-2,3.6560094E-3,3.588462E-2,-7.255363E-3,-1.3886088E-2,2.3590922E-2],"split_indices":[1,1,0,2,0,0,2,6,2,1,1,2,2,0,2,0,0,0,0,0,0,0,0,0,0,0,0,0,0,0,0],"split_type":[0,0,0,0,0,0,0,0,0,0,0,0,0,0,0,0,0,0,0,0,0,0,0,0,0,0,0,0,0,0,0],"sum_hessian":[1.5076224E2,6.978382E1,8.0978424E1,3.7852364E1,3.1931456E1,4.501362E1,3.59648E1,2.3568468E1,1.4283897E1,5.1375704E0,2.6793884E1,3.74861E1,7.5275197E0,1.5927513E1,2.003729E1,1.2624576E1,1.0943892E1,1.237601E1,1.9078876E0,3.1000495E0,2.037521E0,2.3974953E1,2.8189309E0,5.0255446E0,3.2460552E1,2.9568117E0,4.5707083E0,1.3280508E1,2.6470056E0,5.2600465E0,1.4777244E1],"tree_param":{"num_deleted":"0","num_feature":"7","num_nodes":"31","size_leaf_vector":"1"}}]},"name":"gbtree"},"learner_model_param":{"base_score":"[-5.5705446E-10]","boost_from_average":"1","num_class":"0","num_feature":"7","num_target":"1"},"objective":{"lambdarank_param":{"lambdarank_bias_norm":"1","lambdarank_normalization":"1","lambdarank_num_pair_per_sample":"4294967295","lambdarank_pair_method":"topk","lambdarank_score_normalization":"1","lambdarank_unbiased":"0","ndcg_exp_gain":"1"},"name":"rank:ndcg"}},"version":[3,2,0]}