{"learner":{"attributes":{"scikit_learn":"{\"_estimator_type\": \"ranker\"}"},"feature_names":["bm25_score","dense_score","price_log","quality","first_observed_age","zero_history","sparse_history"],"feature_types":["float","float","float","float","int","int","int"],"gradient_booster":{"model":{"cats":{"enc":[],"feature_segments":[],"sorted_idx":[]},"gbtree_model_param":{"num_parallel_tree":"1","num_trees":"45"},"iteration_indptr":[0,1,2,3,4,5,6,7,8,9,10,11,12,13,14,15,16,17,18,19,20,21,22,23,24,25,26,27,28,29,30,31,32,33,34,35,36,37,38,39,40,41,42,43,44,45],"tree_info":[0,0,0,0,0,0,0,0,0,0,0,0,0,0,0,0,0,0,0,0,0,0,0,0,0,0,0,0,0,0,0,0,0,0,0,0,0,0,0,0,0,0,0,0,0],"trees":[{"base_weights":[5.876757E-3,-8.298475E-1,7.51686E-1,-3.8595608E-1,-7.1195275E-2,3.3838946E-1,7.1448885E-2,-5.5722487E-1,2.158209E-1,-9.2816755E-2,4.061517E-1,-1.465118E-2,-4.7452435E-2,-4.269748E-3,3.0525848E-2,3.3366892E-3,-1.7619805E-2,1.7116077E-2,4.213385E-2],"categories":[],"categories_nodes":[],"categories_segments":[],"categories_sizes":[],"default_left":[0,0,0,0,0,0,0,0,0,0,0,0,0,0,0,0,0,0,0],"id":0,"left_children":[1,3,5,7,-1,9,-1,11,13,15,17,-1,-1,-1,-1,-1,-1,-1,-1],"loss_changes":[1.05850586E2,1.792881E0,4.942898E0,1.2864773E0,0E0,7.5322604E-1,0E0,1.3516426E-2,1.6438408E-1,8.014961E-2,3.8184023E-1,0E0,0E0,0E0,0E0,0E0,0E0,0E0,0E0],"parents":[2147483647,0,0,1,1,2,2,3,3,5,5,7,7,8,8,9,9,10,10],"right_children":[2,4,6,8,-1,10,-1,12,14,16,18,-1,-1,-1,-1,-1,-1,-1,-1],"split_conditions":[2.6074907E-2,-1.0389381E-2,3.8387245E-1,1E0,-7.1195275E-2,2.8964643E0,7.1448885E-2,-4.0674377E-2,6.5647095E-1,1.7461953E-1,1E0,-1.465118E-2,-4.7452435E-2,-4.269748E-3,3.0525848E-2,3.3366892E-3,-1.7619805E-2,1.7116077E-2,4.213385E-2],"split_indices":[1,1,1,5,0,2,0,1,3,1,6,0,0,0,0,0,0,0,0],"split_type":[0,0,0,0,0,0,0,0,0,0,0,0,0,0,0,0,0,0,0],"sum_hessian":[1.6782454E2,7.908846E1,8.873608E1,1.0315285E1,6.877318E1,2.348804E1,6.524804E1,8.087559E0,2.227726E0,3.139574E0,2.0348467E1,1.2430282E0,6.8445306E0,1.1073375E0,1.1203884E0,1.8545113E0,1.2850628E0,8.911741E0,1.1436727E1],"tree_param":{"num_deleted":"0","num_feature":"7","num_nodes":"19","size_leaf_vector":"1"}},{"base_weights":[-1.5278883E-2,-6.4584154E-1,5.234336E-1,-8.4133124E-1,-2.1791881E-1,2.0307548E-1,6.392558E-1,-8.623451E-1,-5.1271737E-1,2.9859498E-1,-4.9616474E-1,5.728926E-1,4.230823E-2,4.260092E-3,6.7862666E-1,-4.761215E-2,-7.1211316E-2,-1.4892838E-2,-5.0405372E-2,-5.1150094E-3,3.6113363E-2,-4.821779E-2,-1.6114224E-2,5.2826278E-2,-8.390553E-3,3.1828847E-2,-4.6787993E-3,4.6915963E-2,-1.8353118E-2,3.6524907E-2,5.65837E-2],"categories":[],"categories_nodes":[],"categories_segments":[],"categories_sizes":[],"default_left":[0,0,0,0,0,0,0,0,0,0,0,0,0,0,0,0,0,0,0,0,0,0,0,0,0,0,0,0,0,0,0],"id":1,"left_children":[1,3,5,7,9,11,13,15,17,19,21,23,25,27,29,-1,-1,-1,-1,-1,-1,-1,-1,-1,-1,-1,-1,-1,-1,-1,-1],"loss_changes":[1.1909408E2,1.3328209E1,6.8860283E0,3.2104492E-1,7.621165E0,3.048023E0,3.457367E0,2.308197E-1,2.3177624E-1,1.0720317E0,9.5172405E-1,9.9241066E-1,1.35271E0,1.3707439E0,5.067711E-1,0E0,0E0,0E0,0E0,0E0,0E0,0E0,0E0,0E0,0E0,0E0,0E0,0E0,0E0,0E0,0E0],"parents":[2147483647,0,0,1,1,2,2,3,3,4,4,5,5,6,6,7,7,8,8,9,9,10,10,11,11,12,12,13,13,14,14],"right_children":[2,4,6,8,10,12,14,16,18,20,22,24,26,28,30,-1,-1,-1,-1,-1,-1,-1,-1,-1,-1,-1,-1,-1,-1,-1,-1],"split_conditions":[4.1774765E-1,4.3994818E-2,4.927428E-1,2.6074907E-2,1.6138281E0,2.9569914E0,1.9281427E0,-1.3841515E-2,5.7661813E-1,7.373738E-2,2.1516597E0,4.8884338E-1,4.7535643E-1,2.843746E0,2.0908434E0,-4.761215E-2,-7.1211316E-2,-1.4892838E-2,-5.0405372E-2,-5.1150094E-3,3.6113363E-2,-4.821779E-2,-1.6114224E-2,5.2826278E-2,-8.390553E-3,3.1828847E-2,-4.6787993E-3,4.6915963E-2,-1.8353118E-2,3.6524907E-2,5.65837E-2],"split_indices":[1,1,1,1,0,2,0,1,3,1,0,1,3,2,0,0,0,0,0,0,0,0,0,0,0,0,0,0,0,0,0],"split_type":[0,0,0,0,0,0,0,0,0,0,0,0,0,0,0,0,0,0,0,0,0,0,0,0,0,0,0,0,0,0,0],"sum_hessian":[3.4859912E2,1.6051617E2,1.8808293E2,1.0951837E2,5.0997803E1,5.0674168E1,1.3740877E2,1.01409355E2,8.109011E0,1.7828762E1,3.3169044E1,1.4577552E1,3.6096615E1,8.08689E0,1.2932188E2,1.16673975E1,8.974196E1,2.827398E0,5.2816124E0,5.4593706E0,1.2369391E1,2.3594032E1,9.575011E0,1.2934664E1,1.6428877E0,7.3217025E0,2.8774912E1,1.8837967E0,6.203094E0,1.6722164E1,1.1259972E2],"tree_param":{"num_deleted":"0","num_feature":"7","num_nodes":"31","size_leaf_vector":"1"}},{"base_weights":[-8.061484E-3,-7.840289E-1,3.9348242E-1,-6.646369E-2,-3.4576842E-1,6.5417156E-2,5.3841156E-1,-3.8399547E-2,-1.3992524E-1,4.9323282E-1,-5.2292958E-2,4.4212544E-1,6.555012E-1,-2.1689994E-2,4.763129E-3,4.2611334E-2,9.595184E-3,-2.5212355E-2,1.3118604E-2,1.6925331E-2,4.6056513E-2,5.3805564E-2,-1.0433346E-2],"categories":[],"categories_nodes":[],"categories_segments":[],"categories_sizes":[],"default_left":[0,0,0,0,0,0,0,0,0,0,0,0,0,0,0,0,0,0,0,0,0,0,0],"id":2,"left_children":[1,3,5,-1,7,9,11,-1,13,15,17,19,21,-1,-1,-1,-1,-1,-1,-1,-1,-1,-1],"loss_changes":[1.01421295E2,1.9877319E0,1.01641655E1,0E0,2.7586508E-1,3.3931177E0,1.386055E0,0E0,1.8132025E-1,1.4977956E-1,3.0842748E0,2.4850368E0,9.597244E-1,0E0,0E0,0E0,0E0,0E0,0E0,0E0,0E0,0E0,0E0],"parents":[2147483647,0,0,1,1,2,2,4,4,5,5,6,6,8,8,9,9,10,10,11,11,12,12],"right_children":[2,4,6,-1,8,10,12,-1,14,16,18,20,22,-1,-1,-1,-1,-1,-1,-1,-1,-1,-1],"split_conditions":[7.373738E-2,2.6074907E-2,4.8334053E-1,-6.646369E-2,1E0,1.601891E0,6.626178E-1,-3.8399547E-2,4.3994818E-2,7.691951E-1,4.1774765E-1,5.7891774E-1,9.6880364E-1,-2.1689994E-2,4.763129E-3,4.2611334E-2,9.595184E-3,-2.5212355E-2,1.3118604E-2,1.6925331E-2,4.6056513E-2,5.3805564E-2,-1.0433346E-2],"split_indices":[1,1,1,0,6,0,3,0,1,3,1,1,3,0,0,0,0,0,0,0,0,0,0],"split_type":[0,0,0,0,0,0,0,0,0,0,0,0,0,0,0,0,0,0,0,0,0,0,0],"sum_hessian":[3.235111E2,1.0999591E2,2.135152E2,9.858062E1,1.1415295E1,6.586742E1,1.4764778E2,6.1034923E0,5.311802E0,1.3524087E1,5.234333E1,8.3642296E1,6.400549E1,2.9874873E0,2.3243146E0,1.1846561E1,1.6775258E0,2.3420654E1,2.8922676E1,3.1631176E1,5.201112E1,6.2786137E1,1.2193514E0],"tree_param":{"num_deleted":"0","num_feature":"7","num_nodes":"23","size_leaf_vector":"1"}},{"base_weights":[-7.717976E-3,-7.571074E-1,3.5357654E-1,-6.311584E-2,-3.2425392E-1,2.4918554E-2,4.8671708E-1,-4.390863E-1,6.8115285E-3,3.1386352E-1,-8.098931E-2,5.254126E-1,3.093271E-1,-2.1984805E-3,-4.3483086E-2,-2.3947277E-3,3.6823362E-2,4.146912E-2,-1.0949758E-2,3.5754226E-2,5.2812815E-2,5.870039E-3,4.7304828E-2],"categories":[],"categories_nodes":[],"categories_segments":[],"categories_sizes":[],"default_left":[0,0,0,0,0,0,0,0,0,0,0,0,0,0,0,0,0,0,0,0,0,0,0],"id":3,"left_children":[1,3,5,-1,7,9,11,13,-1,15,17,19,21,-1,-1,-1,-1,-1,-1,-1,-1,-1,-1],"loss_changes":[8.4676834E1,1.1462669E0,9.222025E0,0E0,4.4490272E-1,1.9195187E0,8.6802673E-1,2.8308952E-1,0E0,8.598629E-1,1.6146214E0,9.93248E-1,1.9071825E0,0E0,0E0,0E0,0E0,0E0,0E0,0E0,0E0,0E0,0E0],"parents":[2147483647,0,0,1,1,2,2,4,4,5,5,6,6,7,7,9,9,10,10,11,11,12,12],"right_children":[2,4,6,-1,8,10,12,14,-1,16,18,20,22,-1,-1,-1,-1,-1,-1,-1,-1,-1,-1],"split_conditions":[5.211194E-2,2.6074907E-2,4.8461077E-1,-6.311584E-2,3.854182E0,1.601891E0,3.830596E0,5.057631E-1,6.8115285E-3,9.322121E-2,2.3035846E0,5.1632323E0,4.213016E0,-2.1984805E-3,-4.3483086E-2,-2.3947277E-3,3.6823362E-2,4.146912E-2,-1.0949758E-2,3.5754226E-2,5.2812815E-2,5.870039E-3,4.7304828E-2],"split_indices":[1,1,1,0,2,0,2,3,0,1,2,0,2,0,0,0,0,0,0,0,0,0,0],"split_type":[0,0,0,0,0,0,0,0,0,0,0,0,0,0,0,0,0,0,0,0,0,0,0],"sum_hessian":[3.1076013E2,1.00730835E2,2.100293E2,9.30625E1,7.668338E0,6.0895546E1,1.4913376E2,5.931961E0,1.7363771E0,1.5806805E1,4.508874E1,1.2081703E2,2.8316717E1,1.4563103E0,4.4756503E0,4.959062E0,1.0847743E1,3.1396296E0,4.1949112E1,7.907562E1,4.1741417E1,1.6102795E1,1.2213922E1],"tree_param":{"num_deleted":"0","num_feature":"7","num_nodes":"23","size_leaf_vector":"1"}},{"base_weights":[1.6733097E-2,-7.1495163E-1,3.6338443E-1,-7.473895E-1,-2.47634E-1,-2.6732516E-3,4.923423E-1,-5.2790624E-1,-6.201203E-2,-3.278319E-2,1.8248795E-2,3.8745146E-2,-4.7718726E-2,-6.084238E-2,5.0554967E-1,-5.195024E-2,3.2685762E-3,-8.441866E-3,9.871531E-3,9.411826E-4,-3.3439238E-2,-1.6014412E-2,1.6172599E-2,3.1382907E-2,4.6756443E-2],"categories":[],"categories_nodes":[],"categories_segments":[],"categories_sizes":[],"default_left":[0,0,0,0,0,0,0,0,0,0,0,0,0,0,0,0,0,0,0,0,0,0,0,0,0],"id":4,"left_children":[1,3,5,7,9,11,13,15,-1,-1,17,-1,19,21,23,-1,-1,-1,-1,-1,-1,-1,-1,-1,-1],"loss_changes":[7.7656746E1,1.3070259E0,9.806654E0,1.485939E-1,3.474124E-1,1.2319636E0,1.1530342E0,9.5330286E-1,0E0,0E0,6.435197E-2,0E0,1.135933E0,2.0443818E-1,1.1124802E0,0E0,0E0,0E0,0E0,0E0,0E0,0E0,0E0,0E0,0E0],"parents":[2147483647,0,0,1,1,2,2,3,3,4,4,5,5,6,6,7,7,10,10,12,12,13,13,14,14],"right_children":[2,4,6,8,10,12,14,16,-1,-1,18,-1,20,22,24,-1,-1,-1,-1,-1,-1,-1,-1,-1,-1],"split_conditions":[5.211194E-2,2.6074907E-2,4.8461077E-1,-1.110196E-2,1E0,2.3035846E0,2.4630017E0,1E0,-6.201203E-2,-3.278319E-2,3.406185E0,3.8745146E-2,4.45647E-1,1E0,6.626178E-1,-5.195024E-2,3.2685762E-3,-8.441866E-3,9.871531E-3,9.411826E-4,-3.3439238E-2,-1.6014412E-2,1.6172599E-2,3.1382907E-2,4.6756443E-2],"split_indices":[1,1,1,1,6,2,2,5,0,0,2,0,1,5,3,0,0,0,0,0,0,0,0,0,0],"split_type":[0,0,0,0,0,0,0,0,0,0,0,0,0,0,0,0,0,0,0,0,0,0,0,0,0],"sum_hessian":[3.0414548E2,9.743172E1,2.0671376E2,9.054726E1,6.8844576E0,5.410669E1,1.5260709E2,1.2414223E1,7.813303E1,3.9401848E0,2.9442728E0,3.7553918E0,5.0351295E1,3.4744608E0,1.4913261E2,1.01126995E1,2.301523E0,1.350699E0,1.5935738E0,4.421626E1,6.135038E0,2.4273205E0,1.0471402E0,6.368675E1,8.544587E1],"tree_param":{"num_deleted":"0","num_feature":"7","num_nodes":"25","size_leaf_vector":"1"}},{"base_weights":[-1.8235147E-2,-7.0730394E-1,3.1133696E-1,-7.24233E-1,-3.848844E-1,-2.8609011E-2,4.435768E-1,-4.8884693E-1,-5.9795815E-2,2.0880757E-3,-3.7801027E-2,3.0032524E-1,-1.749104E-1,4.6412167E-1,7.66214E-2,-4.566895E-2,-5.1470026E-3,-4.094735E-3,3.672274E-2,-2.9122593E-2,-3.8144907E-3,3.1337477E-2,4.7647655E-2,-1.0601413E-2,1.6029252E-2],"categories":[],"categories_nodes":[],"categories_segments":[],"categories_sizes":[],"default_left":[0,0,0,0,0,0,0,0,0,0,0,0,0,0,0,0,0,0,0,0,0,0,0,0,0],"id":5,"left_children":[1,3,5,7,9,11,13,15,-1,-1,-1,17,19,21,23,-1,-1,-1,-1,-1,-1,-1,-1,-1,-1],"loss_changes":[6.556719E1,2.3108292E-1,8.794271E0,1.13349915E-1,2.5700593E-1,2.730474E0,1.025156E0,3.3772492E-1,0E0,0E0,0E0,9.9972856E-1,9.246206E-1,1.0331173E0,2.5060183E-1,0E0,0E0,0E0,0E0,0E0,0E0,0E0,0E0,0E0,0E0],"parents":[2147483647,0,0,1,1,2,2,3,3,4,4,5,5,6,6,7,7,11,11,12,12,13,13,14,14],"right_children":[2,4,6,8,10,12,14,16,-1,-1,-1,18,20,22,24,-1,-1,-1,-1,-1,-1,-1,-1,-1,-1],"split_conditions":[4.3994818E-2,2.6074907E-2,4.8461077E-1,-1.3841515E-2,5.057631E-1,1.601891E0,4E0,1E0,-5.9795815E-2,2.0880757E-3,-3.7801027E-2,9.322121E-2,1E0,5.325077E0,6.611187E-1,-4.566895E-2,-5.1470026E-3,-4.094735E-3,3.672274E-2,-2.9122593E-2,-3.8144907E-3,3.1337477E-2,4.7647655E-2,-1.0601413E-2,1.6029252E-2],"split_indices":[1,1,1,1,3,0,4,5,0,0,0,1,6,0,3,0,0,0,0,0,0,0,0,0,0],"split_type":[0,0,0,0,0,0,0,0,0,0,0,0,0,0,0,0,0,0,0,0,0,0,0,0,0],"sum_hessian":[2.8674814E2,9.240397E1,1.9434416E2,8.661014E1,5.793826E0,5.4647278E1,1.3969688E2,9.755165E0,7.685497E1,1.1416286E0,4.6521974E0,1.6499075E1,3.81482E1,1.3203955E2,7.6573396E0,7.886703E0,1.8684621E0,5.34296E0,1.1156116E1,1.4593792E1,2.355441E1,8.771437E1,4.4325176E1,2.8201423E0,4.8371973E0],"tree_param":{"num_deleted":"0","num_feature":"7","num_nodes":"25","size_leaf_vector":"1"}},{"base_weights":[1.6024437E-2,-5.1974845E-1,3.5174853E-1,-5.356485E-1,6.1803963E-2,2.5374216E-1,5.916211E-1,-5.5841845E-1,-1.5662628E-1,-2.3717082E-3,8.991958E-3,8.225013E-2,3.8016173E-1,1.154234E-1,6.420115E-1,-4.6793487E-2,-2.6939703E-2,4.8642145E-3,-1.8351885E-2,3.4788053E-2,-3.2513202E-4,-1.1082661E-2,3.4321487E-2,2.883041E-2,-1.9084677E-2,5.4461516E-2,2.8942186E-2],"categories":[],"categories_nodes":[],"categories_segments":[],"categories_sizes":[],"default_left":[0,0,0,0,0,0,0,0,0,0,0,0,0,0,0,0,0,0,0,0,0,0,0,0,0,0,0],"id":6,"left_children":[1,3,5,7,9,11,13,15,17,-1,-1,19,21,23,25,-1,-1,-1,-1,-1,-1,-1,-1,-1,-1,-1,-1],"loss_changes":[5.2276424E1,1.0684757E0,4.0496273E0,8.540573E-1,2.1268548E-2,2.7562714E0,1.1512909E0,4.0528297E-1,1.3376324E-1,0E0,0E0,1.7011669E0,1.9281092E0,6.154172E-1,2.529068E-1,0E0,0E0,0E0,0E0,0E0,0E0,0E0,0E0,0E0,0E0,0E0,0E0],"parents":[2147483647,0,0,1,1,2,2,3,3,4,4,5,5,6,6,7,7,8,8,11,11,12,12,13,13,14,14],"right_children":[2,4,6,8,10,12,14,16,18,-1,-1,20,22,24,26,-1,-1,-1,-1,-1,-1,-1,-1,-1,-1,-1,-1],"split_conditions":[1.7566986E0,4.3958063E0,5.1632323E0,1.601891E0,1E0,6.611187E-1,2.843746E0,4E0,2.6574583E0,-2.3717082E-3,8.991958E-3,4.2038172E-1,1.9630839E0,2.5733752E0,3.7509148E0,-4.6793487E-2,-2.6939703E-2,4.8642145E-3,-1.8351885E-2,3.4788053E-2,-3.2513202E-4,-1.1082661E-2,3.4321487E-2,2.883041E-2,-1.9084677E-2,5.4461516E-2,2.8942186E-2],"split_indices":[0,2,0,0,6,3,2,4,2,0,0,3,0,2,2,0,0,0,0,0,0,0,0,0,0,0,0],"split_type":[0,0,0,0,0,0,0,0,0,0,0,0,0,0,0,0,0,0,0,0,0,0,0,0,0,0,0],"sum_hessian":[2.8861508E2,1.10971146E2,1.7764394E2,1.0809467E2,2.8764663E0,1.27576836E2,5.0067104E1,1.0152237E2,6.5723104E0,1.1720544E0,1.704412E0,5.4838005E1,7.273883E1,5.1059155E0,4.496119E1,8.921799E1,1.23043785E1,1.6893505E0,4.88296E0,9.990017E0,4.484799E1,6.1036124E0,6.663522E1,3.0069916E0,2.0989242E0,3.824278E1,6.7184076E0],"tree_param":{"num_deleted":"0","num_feature":"7","num_nodes":"27","size_leaf_vector":"1"}},{"base_weights":[-8.249051E-3,-6.6445106E-1,3.0208167E-1,-6.851848E-1,-2.916895E-1,4.7511384E-2,4.6625793E-1,-1.8907709E-2,-5.526568E-2,2.674126E-3,-3.676065E-1,2.9269725E-1,-1.5821438E-2,4.3270346E-2,4.7777802E-1,-3.424275E-2,-7.084747E-3,-3.9617525E-4,3.706738E-2,-1.8592572E-2,1.2685397E-2,8.487969E-3,-5.6183003E-3,5.2029148E-2,3.5557933E-2],"categories":[],"categories_nodes":[],"categories_segments":[],"categories_sizes":[],"default_left":[0,0,0,0,0,0,0,0,0,0,0,0,0,0,0,0,0,0,0,0,0,0,0,0,0],"id":7,"left_children":[1,3,5,7,9,11,13,-1,-1,-1,15,17,19,21,23,-1,-1,-1,-1,-1,-1,-1,-1,-1,-1],"loss_changes":[5.6121487E1,4.8399353E-1,7.7985935E0,4.689026E-2,1.7033786E-1,1.1611567E0,5.3310585E-1,0E0,0E0,0E0,5.103588E-2,7.8146315E-1,2.3082829E0,3.6779027E-2,3.4625053E-1,0E0,0E0,0E0,0E0,0E0,0E0,0E0,0E0,0E0,0E0],"parents":[2147483647,0,0,1,1,2,2,3,3,4,4,5,5,6,6,10,10,11,11,12,12,13,13,14,14],"right_children":[2,4,6,8,10,12,14,-1,-1,-1,16,18,20,22,24,-1,-1,-1,-1,-1,-1,-1,-1,-1,-1],"split_conditions":[4.3994818E-2,2.6074907E-2,4.9881697E-1,-5.2285507E-2,5.057631E-1,1.601891E0,3.648205E-1,-1.8907709E-2,-5.526568E-2,2.674126E-3,3.854182E0,9.322121E-2,4.323998E-1,5.1084275E0,4.5175692E-1,-3.424275E-2,-7.084747E-3,-3.9617525E-4,3.706738E-2,-1.8592572E-2,1.2685397E-2,8.487969E-3,-5.6183003E-3,5.2029148E-2,3.5557933E-2],"split_indices":[1,1,1,1,3,0,3,0,0,0,2,1,1,0,3,0,0,0,0,0,0,0,0,0,0],"split_type":[0,0,0,0,0,0,0,0,0,0,0,0,0,0,0,0,0,0,0,0,0,0,0,0,0],"sum_hessian":[2.7360645E2,8.7482155E1,1.861243E2,8.207866E1,5.4034963E0,7.3478516E1,1.1264578E2,1.5503495E0,8.052831E1,1.1288536E0,4.274643E0,1.4340258E1,5.913826E1,3.1126785E0,1.09533104E2,3.074864E0,1.199779E0,5.579367E0,8.760891E0,2.6229422E1,3.2908836E1,2.0455341E0,1.0671443E0,1.4720545E1,9.481256E1],"tree_param":{"num_deleted":"0","num_feature":"7","num_nodes":"25","size_leaf_vector":"1"}},{"base_weights":[1.5662366E-3,-6.396991E-1,2.9379985E-1,-6.587044E-1,-2.933155E-1,-4.6036176E-2,4.1672918E-1,-4.4951525E-1,-5.4867163E-2,1.906817E-3,-2.8994767E-2,2.547268E-1,-1.8298875E-1,2.975807E-4,4.322556E-1,-4.489167E-2,2.5205861E-3,-2.9491005E-3,3.3550534E-2,-3.2795206E-2,-3.572853E-3,-1.4598432E-2,8.2176095E-3,2.7720599E-2,4.135032E-2],"categories":[],"categories_nodes":[],"categories_segments":[],"categories_sizes":[],"default_left":[0,0,0,0,0,0,0,0,0,0,0,0,0,0,0,0,0,0,0,0,0,0,0,0,0],"id":8,"left_children":[1,3,5,7,9,11,13,15,-1,-1,-1,17,19,21,23,-1,-1,-1,-1,-1,-1,-1,-1,-1,-1],"loss_changes":[5.1636883E1,3.7465668E-1,7.926565E0,1.5132904E-1,1.4651167E-1,2.154785E0,8.992481E-1,6.7274666E-1,0E0,0E0,0E0,8.043752E-1,1.1040074E0,1.3107802E-1,7.939644E-1,0E0,0E0,0E0,0E0,0E0,0E0,0E0,0E0,0E0,0E0],"parents":[2147483647,0,0,1,1,2,2,3,3,4,4,5,5,6,6,7,7,11,11,12,12,13,13,14,14],"right_children":[2,4,6,8,10,12,14,16,-1,-1,-1,18,20,22,24,-1,-1,-1,-1,-1,-1,-1,-1,-1,-1],"split_conditions":[4.3994818E-2,2.6074907E-2,4.8334053E-1,-1.110196E-2,5.057631E-1,1.601891E0,1.9281427E0,1E0,-5.4867163E-2,1.906817E-3,-2.8994767E-2,9.322121E-2,1E0,6.0258573E-1,1E0,-4.489167E-2,2.5205861E-3,-2.9491005E-3,3.3550534E-2,-3.2795206E-2,-3.572853E-3,-1.4598432E-2,8.2176095E-3,2.7720599E-2,4.135032E-2],"split_indices":[1,1,1,1,3,0,0,5,0,0,0,1,6,3,5,0,0,0,0,0,0,0,0,0,0],"split_type":[0,0,0,0,0,0,0,0,0,0,0,0,0,0,0,0,0,0,0,0,0,0,0,0,0],"sum_hessian":[2.7354184E2,8.526057E1,1.8828127E2,7.997108E1,5.2894926E0,5.018134E1,1.3809993E2,1.1199348E1,6.877173E1,1.0637355E0,4.2257576E0,1.5431687E1,3.4749653E1,5.0005393E0,1.330994E2,8.954674E0,2.2446747E0,5.8492503E0,9.582437E0,1.2415813E1,2.233384E1,1.5151095E0,3.4854298E0,6.86409E1,6.445849E1],"tree_param":{"num_deleted":"0","num_feature":"7","num_nodes":"25","size_leaf_vector":"1"}},{"base_weights":[-2.4816587E-3,-6.168784E-1,2.7626112E-1,-6.4148813E-1,-2.7813548E-1,9.370507E-3,4.1589922E-1,-4.193875E-1,-5.3270105E-2,-3.1604793E-2,-8.431469E-2,2.6964778E-1,-7.0533E-2,-1.2278358E-1,4.2699257E-1,-4.1205052E-2,-2.8581584E-5,5.252928E-3,-1.2661074E-2,2.5064605E-3,3.3488024E-2,-1.7381143E-2,7.692649E-3,-2.9726885E-3,-1.2150807E-2,3.5314407E-2,4.5038513E-3],"categories":[],"categories_nodes":[],"categories_segments":[],"categories_sizes":[],"default_left":[0,0,0,0,0,0,0,0,0,0,0,0,0,0,0,0,0,0,0,0,0,0,0,0,0,0,0],"id":9,"left_children":[1,3,5,7,9,11,13,15,-1,-1,17,19,21,23,25,-1,-1,-1,-1,-1,-1,-1,-1,-1,-1,-1,-1],"loss_changes":[4.620351E1,5.234833E-1,6.912877E0,1.4177132E-1,1.3593692E-1,1.3661053E0,7.804127E-1,4.164499E-1,0E0,0E0,5.5656634E-2,5.3431785E-1,1.2524251E0,2.4166554E-3,6.1517143E-1,0E0,0E0,0E0,0E0,0E0,0E0,0E0,0E0,0E0,0E0,0E0,0E0],"parents":[2147483647,0,0,1,1,2,2,3,3,4,4,5,5,6,6,7,7,10,10,11,11,12,12,13,13,14,14],"right_children":[2,4,6,8,10,12,14,16,-1,-1,18,20,22,24,26,-1,-1,-1,-1,-1,-1,-1,-1,-1,-1,-1,-1],"split_conditions":[5.211194E-2,2.6074907E-2,4.9881697E-1,-1.3841515E-2,1E0,1.601891E0,3.648205E-1,1E0,-5.3270105E-2,-3.1604793E-2,5.057631E-1,1.1678106E-1,4.400491E-1,4.0110955E0,4E0,-4.1205052E-2,-2.8581584E-5,5.252928E-3,-1.2661074E-2,2.5064605E-3,3.3488024E-2,-1.7381143E-2,7.692649E-3,-2.9726885E-3,-1.2150807E-2,3.5314407E-2,4.5038513E-3],"split_indices":[1,1,1,1,6,0,3,5,0,0,3,1,1,0,4,0,0,0,0,0,0,0,0,0,0,0,0],"split_type":[0,0,0,0,0,0,0,0,0,0,0,0,0,0,0,0,0,0,0,0,0,0,0,0,0,0,0],"sum_hessian":[2.677928E2,8.319772E1,1.8459508E2,7.672957E1,6.4681554E0,6.377289E1,1.2082218E2,9.392201E0,6.7337364E1,3.3867736E0,3.0813816E0,1.4421548E1,4.935134E1,2.2347863E0,1.18587395E2,7.459762E0,1.9324399E0,1.0546005E0,2.026781E0,6.0123725E0,8.409175E0,2.6085747E1,2.3265596E1,1.1444243E0,1.090362E0,1.13958206E2,4.629189E0],"tree_param":{"num_deleted":"0","num_feature":"7","num_nodes":"27","size_leaf_vector":"1"}},{"base_weights":[-1.2385799E-2,-6.050769E-1,2.519785E-1,-6.256139E-1,-2.5241464E-1,-2.7515728E-2,3.5902956E-1,-4.207233E-1,-5.1942483E-2,1.6049149E-3,-3.191009E-1,-1.8755479E-1,6.429023E-2,2.6174188E-1,4.6211794E-1,1.1475973E-4,-3.980187E-2,-2.8880142E-2,-9.198492E-3,-3.2225426E-2,2.7027726E-3,9.601063E-3,-3.8822696E-2,7.0950077E-3,2.8106881E-2,4.318103E-2,1.6375741E-2],"categories":[],"categories_nodes":[],"categories_segments":[],"categories_sizes":[],"default_left":[0,0,0,0,0,0,0,0,0,0,0,0,0,0,0,0,0,0,0,0,0,0,0,0,0,0,0],"id":10,"left_children":[1,3,5,7,9,11,13,15,-1,-1,17,19,21,23,25,-1,-1,-1,-1,-1,-1,-1,-1,-1,-1,-1,-1],"loss_changes":[4.092125E1,4.2550087E-1,5.414693E0,9.266853E-2,1.17406756E-1,7.6073337E-1,1.1897144E0,3.4609985E-1,0E0,0E0,9.741187E-4,9.1081125E-1,1.0726786E0,1.0470395E0,1.1316233E0,0E0,0E0,0E0,0E0,0E0,0E0,0E0,0E0,0E0,0E0,0E0,0E0],"parents":[2147483647,0,0,1,1,2,2,3,3,4,4,5,5,6,6,7,7,10,10,11,11,12,12,13,13,14,14],"right_children":[2,4,6,8,10,12,14,16,-1,-1,18,20,22,24,26,-1,-1,-1,-1,-1,-1,-1,-1,-1,-1,-1,-1],"split_conditions":[4.3994818E-2,2.6074907E-2,4.8334053E-1,-1.3841515E-2,5.057631E-1,3.1945832E0,6.035546E-1,1E0,-5.1942483E-2,1.6049149E-3,3.854182E0,2E0,4.5253128E-1,6.6861355E-1,3.5192766E0,1.1475973E-4,-3.980187E-2,-2.8880142E-2,-9.198492E-3,-3.2225426E-2,2.7027726E-3,9.601063E-3,-3.8822696E-2,7.0950077E-3,2.8106881E-2,4.318103E-2,1.6375741E-2],"split_indices":[1,1,1,1,3,2,1,4,0,0,2,4,1,3,2,0,0,0,0,0,0,0,0,0,0,0,0],"split_type":[0,0,0,0,0,0,0,0,0,0,0,0,0,0,0,0,0,0,0,0,0,0,0,0,0,0,0],"sum_hessian":[2.591936E2,7.955241E1,1.7964119E2,7.444328E1,5.1091194E0,4.995616E1,1.2968503E2,9.652917E0,6.479037E1,1.1420277E0,3.9670918E0,1.7830507E1,3.2125656E1,6.854037E1,6.114466E1,1.6368321E0,8.016085E0,2.65376E0,1.313332E0,8.623671E0,9.206836E0,2.9877867E1,2.2477875E0,2.4059145E1,4.4481224E1,4.6132957E1,1.5011704E1],"tree_param":{"num_deleted":"0","num_feature":"7","num_nodes":"27","size_leaf_vector":"1"}},{"base_weights":[6.8020313E-3,-5.940357E-1,2.6676297E-1,-6.154634E-1,-2.8323728E-1,-4.436489E-2,3.752631E-1,-1.6260598E-2,-4.9666855E-2,-2.6973917E-3,-2.7311971E-2,2.997051E-1,-8.944595E-2,4.367675E-1,2.3974386E-1,-4.9853954E-3,3.2039598E-2,3.3600334E-2,-9.825811E-3,9.248715E-3,3.8563713E-2,-3.0920908E-4,2.991352E-2],"categories":[],"categories_nodes":[],"categories_segments":[],"categories_sizes":[],"default_left":[0,0,0,0,0,0,0,0,0,0,0,0,0,0,0,0,0,0,0,0,0,0,0],"id":11,"left_children":[1,3,5,7,9,11,13,-1,-1,-1,-1,15,17,19,21,-1,-1,-1,-1,-1,-1,-1,-1],"loss_changes":[4.0658222E1,3.4923363E-1,6.1495314E0,3.479004E-2,8.896053E-2,7.693004E-1,1.0189018E0,0E0,0E0,0E0,0E0,2.3568374E-1,7.8433746E-1,1.2749462E0,1.4494157E0,0E0,0E0,0E0,0E0,0E0,0E0,0E0,0E0],"parents":[2147483647,0,0,1,1,2,2,3,3,4,4,5,5,6,6,11,11,12,12,13,13,14,14],"right_children":[2,4,6,8,10,12,14,-1,-1,-1,-1,16,18,20,22,-1,-1,-1,-1,-1,-1,-1,-1],"split_conditions":[5.211194E-2,2.6074907E-2,4.8334053E-1,-5.2285507E-2,5.057631E-1,4.2038172E-1,3.5192766E0,-1.6260598E-2,-4.9666855E-2,-2.6973917E-3,-2.7311971E-2,1.90026E-1,2.3035846E0,2.8160074E0,3.7196512E0,-4.9853954E-3,3.2039598E-2,3.3600334E-2,-9.825811E-3,9.248715E-3,3.8563713E-2,-3.0920908E-4,2.991352E-2],"split_indices":[1,1,1,1,3,3,2,0,0,0,0,1,2,2,2,0,0,0,0,0,0,0,0],"split_type":[0,0,0,0,0,0,0,0,0,0,0,0,0,0,0,0,0,0,0,0,0,0,0],"sum_hessian":[2.582908E2,7.761565E1,1.8067514E2,7.169261E1,5.923033E0,4.6868675E1,1.3380647E2,1.4219778E0,7.027064E1,1.4182725E0,4.5047607E0,4.7751784E0,4.20935E1,9.050743E1,4.3299038E1,1.1230513E0,3.6521273E0,1.8759464E0,4.0217552E1,1.1622631E1,7.8884796E1,1.5723172E1,2.7575865E1],"tree_param":{"num_deleted":"0","num_feature":"7","num_nodes":"23","size_leaf_vector":"1"}},{"base_weights":[1.0160961E-2,-5.6973475E-1,2.567676E-1,-5.9861153E-1,-2.2919215E-1,-3.7479305E-3,3.9805198E-1,-4.211429E-1,-4.972743E-2,-2.8873017E-1,-5.8716355E-4,2.6387772E-1,-7.945377E-2,4.3277612E-1,1.7095527E-1,-3.8842116E-2,-4.620373E-3,2.6932517E-5,-2.9736426E-2,3.4759345E-3,3.1739097E-2,-1.8726993E-2,7.1208994E-3,-1.3108331E-2,3.538948E-2,2.5292307E-3,3.2375887E-2],"categories":[],"categories_nodes":[],"categories_segments":[],"categories_sizes":[],"default_left":[0,0,0,0,0,0,0,0,0,0,0,0,0,0,0,0,0,0,0,0,0,0,0,0,0,0,0],"id":12,"left_children":[1,3,5,7,9,11,13,15,-1,17,-1,19,21,23,25,-1,-1,-1,-1,-1,-1,-1,-1,-1,-1,-1,-1],"loss_changes":[3.6379436E1,6.092739E-1,6.5699863E0,2.1083832E-2,9.7659945E-2,1.3124295E0,8.385258E-1,2.3054469E-1,0E0,1.4235005E-1,0E0,4.0116864E-1,1.3352115E0,6.431713E-1,5.408902E-1,0E0,0E0,0E0,0E0,0E0,0E0,0E0,0E0,0E0,0E0,0E0,0E0],"parents":[2147483647,0,0,1,1,2,2,3,3,4,4,5,5,6,6,7,7,9,9,11,11,12,12,13,13,14,14],"right_children":[2,4,6,8,10,12,14,16,-1,18,-1,20,22,24,26,-1,-1,-1,-1,-1,-1,-1,-1,-1,-1,-1,-1],"split_conditions":[5.211194E-2,2.6074907E-2,4.9881697E-1,-1.110196E-2,3.854182E0,1.601891E0,3E0,1E0,-4.972743E-2,5.057631E-1,-5.8716355E-4,1.1678106E-1,4.400491E-1,3.648205E-1,5.400319E0,-3.8842116E-2,-4.620373E-3,2.6932517E-5,-2.9736426E-2,3.4759345E-3,3.1739097E-2,-1.8726993E-2,7.1208994E-3,-1.3108331E-2,3.538948E-2,2.5292307E-3,3.2375887E-2],"split_indices":[1,1,1,1,2,0,4,5,0,3,0,1,1,3,0,0,0,0,0,0,0,0,0,0,0,0,0],"split_type":[0,0,0,0,0,0,0,0,0,0,0,0,0,0,0,0,0,0,0,0,0,0,0,0,0,0,0],"sum_hessian":[2.5236775E2,7.4908966E1,1.7745879E2,6.8354904E1,6.5540643E0,6.27419E1,1.1471688E2,1.0052453E1,5.830245E1,4.929655E0,1.6244093E0,1.328674E1,4.9455162E1,9.871692E1,1.5999963E1,8.253944E0,1.798508E0,1.3215643E0,3.6080906E0,5.495775E0,7.790965E0,2.5583029E1,2.3872135E1,1.3075508E0,9.740937E1,1.0735522E1,5.264441E0],"tree_param":{"num_deleted":"0","num_feature":"7","num_nodes":"27","size_leaf_vector":"1"}},{"base_weights":[9.067417E-3,-5.677158E-1,2.3966876E-1,-5.85004E-1,-2.4741234E-1,-1.9867467E-2,3.722462E-1,-3.842322E-1,-4.8729986E-2,-2.254862E-3,-2.779021E-2,1.92636E-1,-8.972126E-2,3.1412032E-1,5.2765965E-1,-3.6488168E-2,-3.634579E-3,-5.393521E-3,2.6931683E-2,-1.7366562E-2,5.7190172E-3,1.3315684E-2,3.278822E-2,4.899771E-3,4.4696704E-2],"categories":[],"categories_nodes":[],"categories_segments":[],"categories_sizes":[],"default_left":[0,0,0,0,0,0,0,0,0,0,0,0,0,0,0,0,0,0,0,0,0,0,0,0,0],"id":13,"left_children":[1,3,5,7,9,11,13,15,-1,-1,-1,17,19,21,23,-1,-1,-1,-1,-1,-1,-1,-1,-1,-1],"loss_changes":[3.3798847E1,2.571907E-1,6.2528095E0,9.590721E-2,1.096434E-1,9.42352E-1,9.199772E-1,2.2316706E-1,0E0,0E0,0E0,6.119835E-1,9.924897E-1,1.2033377E0,4.182539E-1,0E0,0E0,0E0,0E0,0E0,0E0,0E0,0E0,0E0,0E0],"parents":[2147483647,0,0,1,1,2,2,3,3,4,4,5,5,6,6,7,7,11,11,12,12,13,13,14,14],"right_children":[2,4,6,8,10,12,14,16,-1,-1,-1,18,20,22,24,-1,-1,-1,-1,-1,-1,-1,-1,-1,-1],"split_conditions":[4.3994818E-2,2.6074907E-2,4.9881697E-1,-1.3841515E-2,5.7661813E-1,1.601891E0,7.578212E-1,1E0,-4.8729986E-2,-2.254862E-3,-2.779021E-2,9.322121E-2,4.400491E-1,5.7891774E-1,5.022129E-1,-3.6488168E-2,-3.634579E-3,-5.393521E-3,2.6931683E-2,-1.7366562E-2,5.7190172E-3,1.3315684E-2,3.278822E-2,4.899771E-3,4.4696704E-2],"split_indices":[1,1,1,1,3,0,3,5,0,0,0,1,1,1,1,0,0,0,0,0,0,0,0,0,0],"split_type":[0,0,0,0,0,0,0,0,0,0,0,0,0,0,0,0,0,0,0,0,0,0,0,0,0],"sum_hessian":[2.5209035E2,7.1583305E1,1.8050703E2,6.7133415E1,4.4498863E0,6.1318626E1,1.1918841E2,9.01616E0,5.811726E1,1.7951126E0,2.654774E0,1.473508E1,4.658355E1,8.8943886E1,3.0244528E1,7.152637E0,1.8635229E0,5.44118E0,9.2939005E0,2.5830198E1,2.075335E1,3.6058968E1,5.288492E1,2.0732512E0,2.8171276E1],"tree_param":{"num_deleted":"0","num_feature":"7","num_nodes":"25","size_leaf_vector":"1"}},{"base_weights":[9.3942415E-3,-5.5307376E-1,2.3623766E-1,-5.7183605E-1,-2.5123185E-1,-2.8987888E-3,3.6145052E-1,-3.752638E-1,-4.809585E-2,-6.194268E-3,-2.7553058E-1,1.9224039E-1,-6.8768755E-2,3.760123E-1,-1.1962962E-1,-3.7565093E-2,-4.8569377E-4,-2.5125556E-2,-6.981506E-3,-4.243648E-3,2.6183115E-2,-1.630393E-2,7.077342E-3,2.5413651E-2,3.700506E-2,-1.8143628E-3,-1.443864E-2],"categories":[],"categories_nodes":[],"categories_segments":[],"categories_sizes":[],"default_left":[0,0,0,0,0,0,0,0,0,0,0,0,0,0,0,0,0,0,0,0,0,0,0,0,0,0,0],"id":14,"left_children":[1,3,5,7,9,11,13,15,-1,-1,17,19,21,23,25,-1,-1,-1,-1,-1,-1,-1,-1,-1,-1,-1,-1],"loss_changes":[3.1630138E1,2.5984383E-1,5.2897606E0,1.5704346E-1,3.8080812E-3,8.061934E-1,8.571472E-1,3.8974786E-1,0E0,0E0,7.6512396E-3,5.4181755E-1,1.0129263E0,4.2249107E-1,2.0477679E-2,0E0,0E0,0E0,0E0,0E0,0E0,0E0,0E0,0E0,0E0,0E0,0E0],"parents":[2147483647,0,0,1,1,2,2,3,3,4,4,5,5,6,6,7,7,10,10,11,11,12,12,13,13,14,14],"right_children":[2,4,6,8,10,12,14,16,-1,-1,18,20,22,24,26,-1,-1,-1,-1,-1,-1,-1,-1,-1,-1,-1,-1],"split_conditions":[4.3994818E-2,2.6074907E-2,4.9881697E-1,-1.110196E-2,2.8044023E-2,1.601891E0,4E0,1E0,-4.809585E-2,-6.194268E-3,3.7015488E0,9.322121E-2,4.400491E-1,5.325077E0,5.4075795E-1,-3.7565093E-2,-4.8569377E-4,-2.5125556E-2,-6.981506E-3,-4.243648E-3,2.6183115E-2,-1.630393E-2,7.077342E-3,2.5413651E-2,3.700506E-2,-1.8143628E-3,-1.443864E-2],"split_indices":[1,1,1,1,1,0,4,5,0,0,2,1,1,0,1,0,0,0,0,0,0,0,0,0,0,0,0],"split_type":[0,0,0,0,0,0,0,0,0,0,0,0,0,0,0,0,0,0,0,0,0,0,0,0,0,0,0],"sum_hessian":[2.4587631E2,7.0250084E1,1.7562624E2,6.529679E1,4.95329E0,6.0691692E1,1.1493454E2,1.0276768E1,5.5020023E1,1.1210663E0,3.8322237E0,1.4832389E1,4.5859303E1,1.1176979E2,3.1647499E0,7.9693537E0,2.307414E0,2.6263306E0,1.205893E0,5.4822683E0,9.3501215E0,2.4512432E1,2.1346872E1,6.9555E1,4.2214787E1,1.7497631E0,1.4149867E0],"tree_param":{"num_deleted":"0","num_feature":"7","num_nodes":"27","size_leaf_vector":"1"}},{"base_weights":[-2.245056E-3,-5.165688E-1,2.2417977E-1,-5.5910707E-1,-1.9408683E-1,-1.9871106E-2,3.4592667E-1,-3.6707053E-1,-4.7076233E-2,-3.0483273E-1,8.0842115E-2,2.4785861E-1,-8.467553E-2,2.7152482E-1,4.534011E-1,-3.6589995E-2,-1.1860741E-3,-3.247875E-2,1.4046078E-4,-5.4624993E-3,1.738354E-2,-4.840581E-3,2.3601262E-2,-1.676357E-2,6.0078767E-3,2.8244551E-2,5.071202E-3,9.078956E-3,3.971117E-2],"categories":[],"categories_nodes":[],"categories_segments":[],"categories_sizes":[],"default_left":[0,0,0,0,0,0,0,0,0,0,0,0,0,0,0,0,0,0,0,0,0,0,0,0,0,0,0,0,0],"id":15,"left_children":[1,3,5,7,9,11,13,15,-1,17,19,21,23,25,27,-1,-1,-1,-1,-1,-1,-1,-1,-1,-1,-1,-1,-1,-1],"loss_changes":[2.781862E1,8.9310837E-1,4.935173E0,1.4452744E-1,3.3035812E-1,9.9519974E-1,7.622099E-1,3.4752715E-1,0E0,2.2918445E-1,8.958803E-2,1.80677E-1,9.3253875E-1,1.1301546E0,5.836735E-1,0E0,0E0,0E0,0E0,0E0,0E0,0E0,0E0,0E0,0E0,0E0,0E0,0E0,0E0],"parents":[2147483647,0,0,1,1,2,2,3,3,4,4,5,5,6,6,7,7,9,9,10,10,11,11,12,12,13,13,14,14],"right_children":[2,4,6,8,10,12,14,16,-1,18,20,22,24,26,28,-1,-1,-1,-1,-1,-1,-1,-1,-1,-1,-1,-1,-1,-1],"split_conditions":[7.373738E-2,2.6074907E-2,4.9881697E-1,-1.110196E-2,3.7015488E0,1.601891E0,5.1632323E0,1E0,-4.7076233E-2,1E0,4.3994818E-2,2.9150643E0,4.400491E-1,2E0,2.8864753E0,-3.6589995E-2,-1.1860741E-3,-3.247875E-2,1.4046078E-4,-5.4624993E-3,1.738354E-2,-4.840581E-3,2.3601262E-2,-1.676357E-2,6.0078767E-3,2.8244551E-2,5.071202E-3,9.078956E-3,3.971117E-2],"split_indices":[1,1,1,1,2,0,0,5,0,5,1,2,1,4,2,0,0,0,0,0,0,0,0,0,0,0,0,0,0],"split_type":[0,0,0,0,0,0,0,0,0,0,0,0,0,0,0,0,0,0,0,0,0,0,0,0,0,0,0,0,0],"sum_hessian":[2.3688293E2,7.201638E1,1.6486655E2,6.2975582E1,9.040802E0,5.515033E1,1.09716225E2,1.0138524E1,5.283706E1,6.367214E0,2.6735876E0,1.0197241E1,4.4953087E1,6.691739E1,4.2798832E1,7.8321495E0,2.306375E0,4.543871E0,1.8233432E0,1.5161933E0,1.1573943E0,1.3150285E0,8.882213E0,2.5057919E1,1.9895168E1,4.758195E1,1.9335438E1,5.2136903E0,3.758514E1],"tree_param":{"num_deleted":"0","num_feature":"7","num_nodes":"29","size_leaf_vector":"1"}},{"base_weights":[-3.3629816E-3,-5.244099E-1,2.0673655E-1,-5.511535E-1,-2.2867306E-1,-1.9180715E-2,3.2411075E-1,-3.487891E-1,-4.6193082E-2,-2.951107E-1,5.466064E-3,1.8598373E-1,-8.1079915E-2,2.4349964E-1,4.6757153E-1,-3.429138E-2,-1.7118886E-3,-1.5327336E-3,-2.9329173E-2,-1.2531142E-2,1.9838525E-2,-2.0305118E-2,3.163869E-4,8.536138E-3,3.0463334E-2,3.950359E-2,-1.8835079E-2],"categories":[],"categories_nodes":[],"categories_segments":[],"categories_sizes":[],"default_left":[0,0,0,0,0,0,0,0,0,0,0,0,0,0,0,0,0,0,0,0,0,0,0,0,0,0,0],"id":16,"left_children":[1,3,5,7,9,11,13,15,-1,17,-1,19,21,23,25,-1,-1,-1,-1,-1,-1,-1,-1,-1,-1,-1,-1],"loss_changes":[2.5858896E1,4.1080093E-1,4.470299E0,1.256218E-1,1.6495916E-1,7.580519E-1,1.1680145E0,2.4164307E-1,0E0,1.1501008E-1,0E0,3.3332998E-1,6.7138994E-1,1.3314247E0,8.3136845E-1,0E0,0E0,0E0,0E0,0E0,0E0,0E0,0E0,0E0,0E0,0E0,0E0],"parents":[2147483647,0,0,1,1,2,2,3,3,4,4,5,5,6,6,7,7,9,9,11,11,12,12,13,13,14,14],"right_children":[2,4,6,8,10,12,14,16,-1,18,-1,20,22,24,26,-1,-1,-1,-1,-1,-1,-1,-1,-1,-1,-1,-1],"split_conditions":[5.211194E-2,2.6074907E-2,4.9881697E-1,-1.3841515E-2,3.9378858E0,1.601891E0,7.3413485E-1,1E0,-4.6193082E-2,5.057631E-1,5.466064E-3,2.9150643E0,2.795841E-1,7.025503E-1,7.978566E-1,-3.429138E-2,-1.7118886E-3,-1.5327336E-3,-2.9329173E-2,-1.2531142E-2,1.9838525E-2,-2.0305118E-2,3.163869E-4,8.536138E-3,3.0463334E-2,3.950359E-2,-1.8835079E-2],"split_indices":[1,1,1,1,2,0,3,5,0,3,0,2,1,1,1,0,0,0,0,0,0,0,0,0,0,0,0],"split_type":[0,0,0,0,0,0,0,0,0,0,0,0,0,0,0,0,0,0,0,0,0,0,0,0,0,0,0],"sum_hessian":[2.3422495E2,6.687612E1,1.6734882E2,6.0537987E1,6.338138E0,5.7503986E1,1.0984483E2,8.593923E0,5.1944065E1,5.1846967E0,1.1534415E0,1.2863474E1,4.4640514E1,7.205449E1,3.7790348E1,6.660182E0,1.9337406E0,1.3279096E0,3.856787E0,1.7370981E0,1.1126376E1,1.4071584E1,3.056893E1,3.698239E1,3.5072098E1,3.67183E1,1.0720478E0],"tree_param":{"num_deleted":"0","num_feature":"7","num_nodes":"27","size_leaf_vector":"1"}},{"base_weights":[-2.533932E-3,-5.2214473E-1,1.9782649E-1,-5.3864974E-1,-2.5768432E-1,-1.7879967E-2,3.1214166E-1,-3.5267225E-1,-4.559498E-2,-5.705221E-4,-2.5029412E-2,-1.2662491E-1,6.157192E-2,-2.0726973E-2,3.3101082E-1,-3.449536E-2,-2.3771422E-3,-2.053043E-2,1.0130412E-2,-5.5617676E-3,1.37135815E-2,2.1143472E-2,3.5559557E-2],"categories":[],"categories_nodes":[],"categories_segments":[],"categories_sizes":[],"default_left":[0,0,0,0,0,0,0,0,0,0,0,0,0,0,0,0,0,0,0,0,0,0,0],"id":17,"left_children":[1,3,5,7,9,11,13,15,-1,-1,-1,17,19,-1,21,-1,-1,-1,-1,-1,-1,-1,-1],"loss_changes":[2.4510931E1,1.4717865E-1,4.195668E0,1.5249825E-1,7.749009E-2,5.245153E-1,1.2834711E0,2.7556133E-1,0E0,0E0,0E0,8.7455887E-1,5.192428E-1,0E0,7.0026493E-1,0E0,0E0,0E0,0E0,0E0,0E0,0E0,0E0],"parents":[2147483647,0,0,1,1,2,2,3,3,4,4,5,5,6,6,7,7,11,11,12,12,14,14],"right_children":[2,4,6,8,10,12,14,16,-1,-1,-1,18,20,-1,22,-1,-1,-1,-1,-1,-1,-1,-1],"split_conditions":[4.3994818E-2,2.6074907E-2,4.9881697E-1,-1.0389381E-2,5.057631E-1,1E0,1.9281427E0,1E0,-4.559498E-2,-5.705221E-4,-2.5029412E-2,4.4177702E-1,1E0,-2.0726973E-2,7.3413485E-1,-3.449536E-2,-2.3771422E-3,-2.053043E-2,1.0130412E-2,-5.5617676E-3,1.37135815E-2,2.1143472E-2,3.5559557E-2],"split_indices":[1,1,1,1,3,6,0,5,0,0,0,1,4,0,3,0,0,0,0,0,0,0,0],"split_type":[0,0,0,0,0,0,0,0,0,0,0,0,0,0,0,0,0,0,0,0,0,0,0],"sum_hessian":[2.3344211E2,6.451755E1,1.6892456E2,5.975164E1,4.7659054E0,5.8805466E1,1.101191E2,1.0371842E1,4.93798E1,1.0640333E0,3.7018723E0,2.4575504E1,3.422996E1,3.1141224E0,1.07004974E2,8.07376E0,2.2980824E0,1.6230463E1,8.345041E0,1.5773155E1,1.8456808E1,6.9484E1,3.7520977E1],"tree_param":{"num_deleted":"0","num_feature":"7","num_nodes":"23","size_leaf_vector":"1"}},{"base_weights":[6.548361E-4,-5.173598E-1,2.0125033E-1,-5.35733E-1,-2.4290793E-1,-4.9477372E-2,3.3257374E-1,-3.3641815E-1,-4.5094848E-2,3.504104E-4,-3.028276E-1,1.4356582E-1,-1.1554692E-1,2.5663427E-1,4.4772464E-1,-3.4726296E-2,-7.5115096E-3,-2.7782457E-2,-8.625494E-3,-4.3255594E-3,2.3486998E-2,1.9153956E-2,-1.3058092E-2,2.741108E-2,6.9589075E-4,4.2286557E-3,3.956426E-2],"categories":[],"categories_nodes":[],"categories_segments":[],"categories_sizes":[],"default_left":[0,0,0,0,0,0,0,0,0,0,0,0,0,0,0,0,0,0,0,0,0,0,0,0,0,0,0],"id":18,"left_children":[1,3,5,7,9,11,13,15,-1,-1,17,19,21,23,25,-1,-1,-1,-1,-1,-1,-1,-1,-1,-1,-1,-1],"loss_changes":[2.3658157E1,1.9034386E-1,5.420322E0,1.376152E-1,8.75231E-2,7.4720085E-1,8.2806873E-1,1.8909788E-1,0E0,0E0,3.2727122E-3,4.6216992E-1,7.707611E-1,1.4326205E0,7.414408E-1,0E0,0E0,0E0,0E0,0E0,0E0,0E0,0E0,0E0,0E0,0E0,0E0],"parents":[2147483647,0,0,1,1,2,2,3,3,4,4,5,5,6,6,7,7,10,10,11,11,12,12,13,13,14,14],"right_children":[2,4,6,8,10,12,14,16,-1,-1,18,20,22,24,26,-1,-1,-1,-1,-1,-1,-1,-1,-1,-1,-1,-1],"split_conditions":[4.3994818E-2,2.6074907E-2,4.9881697E-1,-1.3841515E-2,5.057631E-1,1.601891E0,5.325077E0,1E0,-4.5094848E-2,3.504104E-4,3.854182E0,1.117608E-1,4.2038172E-1,2E0,2.8864753E0,-3.4726296E-2,-7.5115096E-3,-2.7782457E-2,-8.625494E-3,-4.3255594E-3,2.3486998E-2,1.9153956E-2,-1.3058092E-2,2.741108E-2,6.9589075E-4,4.2286557E-3,3.956426E-2],"split_indices":[1,1,1,1,3,0,0,6,0,0,2,1,3,4,2,0,0,0,0,0,0,0,0,0,0,0,0],"split_type":[0,0,0,0,0,0,0,0,0,0,0,0,0,0,0,0,0,0,0,0,0,0,0,0,0,0,0],"sum_hessian":[2.2567426E2,6.255475E1,1.631195E2,5.7737495E1,4.8172536E0,5.628371E1,1.0683579E2,8.704663E0,4.9032833E1,1.1203748E0,3.6968787E0,1.405235E1,4.223136E1,6.632477E1,4.051103E1,5.6426325E0,3.062031E0,2.3747084E0,1.3221703E0,6.3398957E0,7.712455E0,4.524553E0,3.7706806E1,4.895962E1,1.7365147E1,4.5206785E0,3.599035E1],"tree_param":{"num_deleted":"0","num_feature":"7","num_nodes":"27","size_leaf_vector":"1"}},{"base_weights":[-2.790465E-3,-4.980152E-1,1.9047444E-1,-5.190126E-1,-2.483889E-1,-8.883389E-3,2.9653937E-1,-3.3010176E-1,-4.4156928E-2,-7.019425E-2,-3.2459256E-1,-6.7602806E-2,2.1107541E-1,1.7723145E-1,3.904985E-1,-3.591103E-2,-6.3526947E-3,6.354947E-3,-1.3848851E-2,-2.9414155E-2,-7.931992E-3,7.6641305E-3,-9.073743E-3,2.3393253E-2,-9.0191495E-3,3.596058E-2,1.5230152E-3,-1.4356891E-2,3.2481324E-2],"categories":[],"categories_nodes":[],"categories_segments":[],"categories_sizes":[],"default_left":[0,0,0,0,0,0,0,0,0,0,0,0,0,0,0,0,0,0,0,0,0,0,0,0,0,0,0,0,0],"id":19,"left_children":[1,3,5,7,9,11,13,15,-1,17,19,21,23,25,27,-1,-1,-1,-1,-1,-1,-1,-1,-1,-1,-1,-1,-1,-1],"loss_changes":[2.1188759E1,1.9680786E-1,3.369988E0,1.688776E-1,6.873137E-2,7.4110365E-1,1.0963802E0,2.8788936E-1,0E0,6.448803E-2,6.7172945E-3,3.49089E-1,3.516717E-1,2.0434165E0,5.7998943E-1,0E0,0E0,0E0,0E0,0E0,0E0,0E0,0E0,0E0,0E0,0E0,0E0,0E0,0E0],"parents":[2147483647,0,0,1,1,2,2,3,3,4,4,5,5,6,6,7,7,9,9,10,10,11,11,12,12,13,13,14,14],"right_children":[2,4,6,8,10,12,14,16,-1,18,20,22,24,26,28,-1,-1,-1,-1,-1,-1,-1,-1,-1,-1,-1,-1,-1,-1],"split_conditions":[5.211194E-2,2.6074907E-2,4.9881697E-1,-1.0389381E-2,5.7661813E-1,3.8117607E0,6.626178E-1,1E0,-4.4156928E-2,3.1310037E-2,7.801525E-1,1.601891E0,2.1340868E0,4.5175692E-1,1.9281427E0,-3.591103E-2,-6.3526947E-3,6.354947E-3,-1.3848851E-2,-2.9414155E-2,-7.931992E-3,7.6641305E-3,-9.073743E-3,2.3393253E-2,-9.0191495E-3,3.596058E-2,1.5230152E-3,-1.4356891E-2,3.2481324E-2],"split_indices":[1,1,1,1,3,2,3,6,0,1,3,0,0,3,0,0,0,0,0,0,0,0,0,0,0,0,0,0,0],"split_type":[0,0,0,0,0,0,0,0,0,0,0,0,0,0,0,0,0,0,0,0,0,0,0,0,0,0,0,0,0],"sum_hessian":[2.1939493E2,6.1143387E1,1.5825154E2,5.5403908E1,5.739476E0,5.5274593E1,1.02976944E2,9.864577E0,4.5539333E1,2.2946968E0,3.4447796E0,4.4174564E1,1.1100028E1,4.664019E1,5.6336754E1,6.1567364E0,3.7078407E0,1.0280898E0,1.2666069E0,2.3623912E0,1.0823883E0,9.435132E0,3.4739433E1,8.949048E0,2.15098E0,1.6463123E1,3.0177067E1,1.213189E0,5.512356E1],"tree_param":{"num_deleted":"0","num_feature":"7","num_nodes":"29","size_leaf_vector":"1"}},{"base_weights":[-1.3815573E-2,-4.9783608E-1,1.7448814E-1,-5.0794E-1,-8.985062E-4,-6.606075E-2,2.709681E-1,-9.060403E-3,-5.155605E-1,-1.3063705E-1,1.4023268E-1,1.8229714E-1,3.6513826E-1,-2.7687084E-2,-4.279421E-2,3.0416084E-2,-1.3577506E-2,2.1292008E-2,3.2497468E-4,6.5432084E-3,3.4068823E-2,3.3061963E-2,3.8537916E-3],"categories":[],"categories_nodes":[],"categories_segments":[],"categories_sizes":[],"default_left":[0,0,0,0,0,0,0,0,0,0,0,0,0,0,0,0,0,0,0,0,0,0,0],"id":20,"left_children":[1,3,5,7,-1,9,11,-1,13,15,17,19,21,-1,-1,-1,-1,-1,-1,-1,-1,-1,-1],"loss_changes":[1.9493004E1,2.8876972E-1,3.5925617E0,1.18021965E-1,0E0,6.1641526E-1,8.530369E-1,0E0,2.8057098E-3,7.5750786E-1,1.9071263E-1,1.4025737E0,7.797651E-1,0E0,0E0,0E0,0E0,0E0,0E0,0E0,0E0,0E0,0E0],"parents":[2147483647,0,0,1,1,2,2,3,3,5,5,6,6,8,8,9,9,10,10,11,11,12,12],"right_children":[2,4,6,8,-1,10,12,-1,14,16,18,20,22,-1,-1,-1,-1,-1,-1,-1,-1,-1,-1],"split_conditions":[5.211194E-2,4.3958063E0,4.8334053E-1,4.0343413E-1,-8.985062E-4,3.7196512E0,6.035546E-1,-9.060403E-3,-1.3841515E-2,2.3035846E0,3.9388597E0,7.7608925E-1,3.7509148E0,-2.7687084E-2,-4.279421E-2,3.0416084E-2,-1.3577506E-2,2.1292008E-2,3.2497468E-4,6.5432084E-3,3.4068823E-2,3.3061963E-2,3.8537916E-3],"split_indices":[1,2,1,3,0,2,1,0,1,2,2,3,2,0,0,0,0,0,0,0,0,0,0],"split_type":[0,0,0,0,0,0,0,0,0,0,0,0,0,0,0,0,0,0,0,0,0,0,0],"sum_hessian":[2.1192E2,5.8893894E1,1.5302611E2,5.7652935E1,1.2409574E0,4.389646E1,1.0912965E2,1.3925247E0,5.626041E1,3.37107E1,1.0185762E1,5.7717983E1,5.141166E1,7.705278E0,4.8555134E1,1.7754492E0,3.1935251E1,4.7961793E0,5.3895826E0,4.180347E1,1.59145155E1,4.4369595E1,7.0420675E0],"tree_param":{"num_deleted":"0","num_feature":"7","num_nodes":"23","size_leaf_vector":"1"}},{"base_weights":[4.7605843E-3,-4.8944005E-1,1.8825783E-1,-2.7742538E-1,-5.176683E-1,-2.9047018E-2,3.0092734E-1,-3.1448822E-2,-4.625483E-2,-4.3025263E-2,-2.80694E-1,-1.0569779E-1,1.8881752E-1,3.6186743E-1,1.5232019E-1,3.9145774E-3,-1.1530823E-2,-7.0841475E-3,-2.8556164E-2,6.865441E-3,-1.3042395E-2,2.355663E-2,4.7035054E-3,-2.0655017E-2,3.0640477E-2,2.9288642E-2,1.8216526E-3],"categories":[],"categories_nodes":[],"categories_segments":[],"categories_sizes":[],"default_left":[0,0,0,0,0,0,0,0,0,0,0,0,0,0,0,0,0,0,0,0,0,0,0,0,0,0,0],"id":21,"left_children":[1,3,5,7,9,11,13,-1,15,-1,17,19,21,23,25,-1,-1,-1,-1,-1,-1,-1,-1,-1,-1,-1,-1],"loss_changes":[1.9375525E1,2.0263004E-1,3.8230104E0,2.212345E-1,8.7290764E-2,9.234977E-1,8.747883E-1,0E0,4.5431755E-2,0E0,5.6332767E-2,4.604969E-1,1.8103904E-1,1.0438261E0,8.665524E-1,0E0,0E0,0E0,0E0,0E0,0E0,0E0,0E0,0E0,0E0,0E0,0E0],"parents":[2147483647,0,0,1,1,2,2,3,3,4,4,5,5,6,6,8,8,10,10,11,11,12,12,13,13,14,14],"right_children":[2,4,6,8,10,12,14,-1,16,-1,18,20,22,24,26,-1,-1,-1,-1,-1,-1,-1,-1,-1,-1,-1,-1],"split_conditions":[5.211194E-2,-1.3841515E-2,4.9881697E-1,1E0,2.6074907E-2,3.7196512E0,3.5192766E0,-3.1448822E-2,3.440418E0,-4.3025263E-2,5.7661813E-1,1.601891E0,3.9793077E0,2.486572E0,5.112474E-1,3.9145774E-3,-1.1530823E-2,-7.0841475E-3,-2.8556164E-2,6.865441E-3,-1.3042395E-2,2.355663E-2,4.7035054E-3,-2.0655017E-2,3.0640477E-2,2.9288642E-2,1.8216526E-3],"split_indices":[1,1,1,6,1,2,2,0,2,0,3,0,2,2,1,0,0,0,0,0,0,0,0,0,0,0,0],"split_type":[0,0,0,0,0,0,0,0,0,0,0,0,0,0,0,0,0,0,0,0,0,0,0,0,0,0,0],"sum_hessian":[2.1164265E2,5.68541E1,1.5478856E2,7.9525537E0,4.8901546E1,5.3105865E1,1.0168269E2,4.8332996E0,3.1192544E0,4.3899693E1,5.0018535E0,3.9665348E1,1.344052E1,7.109383E1,3.058887E1,1.8349142E0,1.28434E0,2.0351753E0,2.9666781E0,9.024039E0,3.0641308E1,6.7178335E0,6.722687E0,1.9740838E0,6.911974E1,1.0852926E1,1.9735943E1],"tree_param":{"num_deleted":"0","num_feature":"7","num_nodes":"27","size_leaf_vector":"1"}},{"base_weights":[-2.8067157E-3,-3.3192033E-1,2.6445574E-1,-5.016443E-1,-1.1374367E-1,1.883551E-1,4.1213867E-1,-2.9519063E-1,-4.3113846E-2,-3.48824E-1,1.46737145E-2,3.5298908E-1,1.1725273E-1,5.543707E-1,3.0253604E-1,-3.2447815E-2,-5.720684E-3,-7.8124013E-3,-3.874717E-2,-1.2197341E-2,9.862939E-3,-4.895275E-3,4.215486E-2,8.2111155E-4,2.474487E-2,1.1431096E-2,4.914603E-2,-7.831156E-3,3.168598E-2],"categories":[],"categories_nodes":[],"categories_segments":[],"categories_sizes":[],"default_left":[0,0,0,0,0,0,0,0,0,0,0,0,0,0,0,0,0,0,0,0,0,0,0,0,0,0,0,0,0],"id":22,"left_children":[1,3,5,7,9,11,13,15,-1,17,19,21,23,25,27,-1,-1,-1,-1,-1,-1,-1,-1,-1,-1,-1,-1,-1,-1],"loss_changes":[1.8344141E1,3.4036512E0,1.21591E0,2.4321938E-1,1.2786176E0,8.6930275E-1,4.29317E-1,2.2304821E-1,0E0,4.6134198E-1,5.314818E-1,1.6869693E0,1.1440251E0,2.9378796E-1,9.3139124E-1,0E0,0E0,0E0,0E0,0E0,0E0,0E0,0E0,0E0,0E0,0E0,0E0,0E0,0E0],"parents":[2147483647,0,0,1,1,2,2,3,3,4,4,5,5,6,6,7,7,9,9,10,10,11,11,12,12,13,13,14,14],"right_children":[2,4,6,8,10,12,14,16,-1,18,20,22,24,26,28,-1,-1,-1,-1,-1,-1,-1,-1,-1,-1,-1,-1,-1,-1],"split_conditions":[4.400491E-1,2.6074907E-2,5.325077E0,-1.110196E-2,3.1945832E0,2.9263823E0,5.6269795E-1,1E0,-4.3113846E-2,1.601891E0,1E0,2.8160074E0,3.7196512E0,4.1290995E-1,6.493325E-1,-3.2447815E-2,-5.720684E-3,-7.8124013E-3,-3.874717E-2,-1.2197341E-2,9.862939E-3,-4.895275E-3,4.215486E-2,8.2111155E-4,2.474487E-2,1.1431096E-2,4.914603E-2,-7.831156E-3,3.168598E-2],"split_indices":[1,1,0,1,2,2,3,6,0,0,6,2,2,3,3,0,0,0,0,0,0,0,0,0,0,0,0,0,0],"split_type":[0,0,0,0,0,0,0,0,0,0,0,0,0,0,0,0,0,0,0,0,0,0,0,0,0,0,0,0,0],"sum_hessian":[2.0655365E2,9.245739E1,1.1409625E2,5.127235E1,4.1185043E1,7.679789E1,3.7298363E1,9.206151E0,4.20662E1,1.3943605E1,2.7241436E1,2.196787E1,5.483002E1,1.4466754E1,2.2831608E1,5.6192646E0,3.586887E0,5.4896083E0,8.453998E0,1.0570749E1,1.6670687E1,6.6890235E0,1.5278848E1,3.5890263E1,1.8939758E1,2.270067E0,1.2196687E1,4.314662E0,1.8516947E1],"tree_param":{"num_deleted":"0","num_feature":"7","num_nodes":"29","size_leaf_vector":"1"}},{"base_weights":[-1.4706583E-2,-3.2409242E-1,2.4166426E-1,-4.9584618E-1,-1.1302621E-1,3.0267298E-1,1.0731322E-1,-3.0033612E-1,-4.247567E-2,-3.1041858E-1,-9.976849E-3,6.0577836E-2,3.808635E-1,-3.1348214E-1,1.672553E-1,-3.0322498E-2,3.3949505E-4,-6.2262085E-3,-3.42054E-2,2.2533098E-2,-5.2002785E-3,2.4819318E-2,-1.9315938E-2,2.3348324E-2,4.391981E-2,-1.11477375E-2,-3.2203976E-2,2.5331786E-2,1.7540626E-3],"categories":[],"categories_nodes":[],"categories_segments":[],"categories_sizes":[],"default_left":[0,0,0,0,0,0,0,0,0,0,0,0,0,0,0,0,0,0,0,0,0,0,0,0,0,0,0,0,0],"id":23,"left_children":[1,3,5,7,9,11,13,15,-1,17,19,21,23,25,27,-1,-1,-1,-1,-1,-1,-1,-1,-1,-1,-1,-1,-1,-1],"loss_changes":[1.6119917E1,3.2817698E0,8.787446E-1,1.8687439E-1,8.635302E-1,1.4137645E0,9.6720403E-1,2.4091429E-1,0E0,3.6399245E-1,4.8409826E-1,1.5618594E0,6.9557476E-1,1.9438118E-2,6.964298E-1,0E0,0E0,0E0,0E0,0E0,0E0,0E0,0E0,0E0,0E0,0E0,0E0,0E0,0E0],"parents":[2147483647,0,0,1,1,2,2,3,3,4,4,5,5,6,6,7,7,9,9,10,10,11,11,12,12,13,13,14,14],"right_children":[2,4,6,8,10,12,14,16,-1,18,20,22,24,26,28,-1,-1,-1,-1,-1,-1,-1,-1,-1,-1,-1,-1,-1,-1],"split_conditions":[4.4297877E-1,2.6074907E-2,3.5192766E0,-1.110196E-2,3.1945832E0,5.140865E-1,3.6386383E0,1E0,-4.247567E-2,1.601891E0,3.2812872E0,2.9263823E0,7.478272E-1,2.2788577E0,5.112474E-1,-3.0322498E-2,3.3949505E-4,-6.2262085E-3,-3.42054E-2,2.2533098E-2,-5.2002785E-3,2.4819318E-2,-1.9315938E-2,2.3348324E-2,4.391981E-2,-1.11477375E-2,-3.2203976E-2,2.5331786E-2,1.7540626E-3],"split_indices":[1,1,2,1,2,1,2,5,0,0,2,2,3,0,1,0,0,0,0,0,0,0,0,0,0,0,0,0,0],"split_type":[0,0,0,0,0,0,0,0,0,0,0,0,0,0,0,0,0,0,0,0,0,0,0,0,0,0,0,0,0],"sum_hessian":[2.0124533E2,9.107398E1,1.1017134E2,4.946936E1,4.1604618E1,7.490444E1,3.5266903E1,8.983993E0,4.048537E1,1.3579872E1,2.8024746E1,1.871949E1,5.6184948E1,3.8699524E0,3.1396952E1,6.9451227E0,2.03887E0,5.106207E0,8.473665E0,3.7946196E0,2.4230125E1,1.0233231E1,8.486259E0,3.8525547E1,1.76594E1,2.1774127E0,1.6925398E0,1.4900796E1,1.6496157E1],"tree_param":{"num_deleted":"0","num_feature":"7","num_nodes":"29","size_leaf_vector":"1"}},{"base_weights":[7.4159843E-3,-3.2608292E-1,2.6458946E-1,-4.686938E-1,-9.997664E-2,1.8287884E-1,4.2494658E-1,-2.805348E-1,-4.9393043E-1,1.8014185E-1,-2.4345039E-1,3.6403206E-1,1.0116076E-1,9.054684E-2,4.5748636E-1,-3.0244688E-2,-6.5191034E-3,-4.1628994E-2,-2.0153683E-2,-4.257995E-3,2.3214096E-2,-3.7666798E-2,-8.3781015E-3,-5.798242E-3,4.132798E-2,-8.725902E-3,1.3324969E-2,-1.2211389E-2,2.3862533E-2,3.9167184E-2,9.073565E-3],"categories":[],"categories_nodes":[],"categories_segments":[],"categories_sizes":[],"default_left":[0,0,0,0,0,0,0,0,0,0,0,0,0,0,0,0,0,0,0,0,0,0,0,0,0,0,0,0,0,0,0],"id":24,"left_children":[1,3,5,7,9,11,13,15,17,19,21,23,25,27,29,-1,-1,-1,-1,-1,-1,-1,-1,-1,-1,-1,-1,-1,-1,-1,-1],"loss_changes":[1.7763384E1,2.861165E0,1.4542933E0,1.2275505E-1,1.4968076E0,1.1357551E0,3.798089E-1,1.4045954E-1,1.7089939E-1,3.4463632E-1,7.1823204E-1,1.651686E0,7.877454E-1,2.8194183E-1,3.3142424E-1,0E0,0E0,0E0,0E0,0E0,0E0,0E0,0E0,0E0,0E0,0E0,0E0,0E0,0E0,0E0,0E0],"parents":[2147483647,0,0,1,1,2,2,3,3,4,4,5,5,6,6,7,7,8,8,9,9,10,10,11,11,12,12,13,13,14,14],"right_children":[2,4,6,8,10,12,14,16,18,20,22,24,26,28,30,-1,-1,-1,-1,-1,-1,-1,-1,-1,-1,-1,-1,-1,-1,-1,-1],"split_conditions":[4.4297877E-1,5.211194E-2,5.325077E0,-1.3841515E-2,1.601891E0,2.9263823E0,2.865054E0,1E0,2.6074907E-2,9.322121E-2,3.1945832E0,2.8160074E0,1E0,7.077936E0,3.7509148E0,-3.0244688E-2,-6.5191034E-3,-4.1628994E-2,-2.0153683E-2,-4.257995E-3,2.3214096E-2,-3.7666798E-2,-8.3781015E-3,-5.798242E-3,4.132798E-2,-8.725902E-3,1.3324969E-2,-1.2211389E-2,2.3862533E-2,3.9167184E-2,9.073565E-3],"split_indices":[1,1,0,1,0,2,2,6,1,1,2,2,6,0,2,0,0,0,0,0,0,0,0,0,0,0,0,0,0,0,0],"split_type":[0,0,0,0,0,0,0,0,0,0,0,0,0,0,0,0,0,0,0,0,0,0,0,0,0,0,0,0,0,0,0],"sum_hessian":[2.0510599E2,8.9184654E1,1.15921326E2,5.403226E1,3.5152393E1,7.82097E1,3.7711628E1,7.822863E0,4.62094E1,1.1819804E1,2.3332588E1,2.3238869E1,5.497083E1,3.6796649E0,3.4031963E1,4.646787E0,3.176076E0,4.0622482E1,5.5869145E0,3.9527943E0,7.86701E0,7.9339323E0,1.5398656E1,6.1546893E0,1.708418E1,1.2884733E1,4.2086098E1,1.8173506E0,1.8623143E0,3.0740726E1,3.291239E0],"tree_param":{"num_deleted":"0","num_feature":"7","num_nodes":"31","size_leaf_vector":"1"}},{"base_weights":[1.164458E-2,-3.1263152E-1,2.610083E-1,-4.648148E-1,-8.332119E-2,-2.4807404E-1,2.810814E-1,-2.679187E-1,-4.93165E-1,-3.3613887E-1,3.5690658E-2,-2.496772E-2,-1.4229148E-6,5.450152E-1,2.318499E-1,-3.0365279E-2,-4.779971E-3,-4.1066855E-2,-2.1749904E-2,-2.6477245E-3,-3.6218964E-2,2.6203489E-2,-2.6348904E-3,-1.7090855E-2,4.8749346E-2,5.0879614E-3,2.7833296E-2],"categories":[],"categories_nodes":[],"categories_segments":[],"categories_sizes":[],"default_left":[0,0,0,0,0,0,0,0,0,0,0,0,0,0,0,0,0,0,0,0,0,0,0,0,0,0,0],"id":25,"left_children":[1,3,5,7,9,11,13,15,17,19,21,-1,-1,23,25,-1,-1,-1,-1,-1,-1,-1,-1,-1,-1,-1,-1],"loss_changes":[1.6448017E1,3.047515E0,1.2444844E0,1.6338634E-1,1.1101495E0,7.768655E-2,1.3168316E0,1.8307114E-1,6.1692238E-2,4.0117586E-1,5.259287E-1,0E0,0E0,9.464669E-1,1.8398337E0,0E0,0E0,0E0,0E0,0E0,0E0,0E0,0E0,0E0,0E0,0E0,0E0],"parents":[2147483647,0,0,1,1,2,2,3,3,4,4,5,5,6,6,7,7,8,8,9,9,10,10,13,13,14,14],"right_children":[2,4,6,8,10,12,14,16,18,20,22,-1,-1,24,26,-1,-1,-1,-1,-1,-1,-1,-1,-1,-1,-1,-1],"split_conditions":[4.4297877E-1,5.211194E-2,3.958283E-1,-1.3841515E-2,3.1945832E0,5.7891774E-1,4.5175692E-1,1E0,2.6074907E-2,1.601891E0,3.2812872E0,-2.496772E-2,-1.4229148E-6,2.8864753E0,6.626178E-1,-3.0365279E-2,-4.779971E-3,-4.1066855E-2,-2.1749904E-2,-2.6477245E-3,-3.6218964E-2,2.6203489E-2,-2.6348904E-3,-1.7090855E-2,4.8749346E-2,5.0879614E-3,2.7833296E-2],"split_indices":[1,1,3,1,2,1,3,6,1,0,2,0,0,2,3,0,0,0,0,0,0,0,0,0,0,0,0],"split_type":[0,0,0,0,0,0,0,0,0,0,0,0,0,0,0,0,0,0,0,0,0,0,0,0,0,0,0],"sum_hessian":[2.0139764E2,8.743814E1,1.139595E2,5.1940483E1,3.5497654E1,3.892089E0,1.1006741E2,7.8526983E0,4.4087784E1,1.0777827E1,2.4719828E1,2.8884277E0,1.0036612E0,1.5720135E1,9.434728E1,4.575413E0,3.277285E0,3.9195393E1,4.892391E0,3.3513682E0,7.4264593E0,3.9878125E0,2.0732016E1,1.0477885E0,1.4672346E1,3.9147217E1,5.520006E1],"tree_param":{"num_deleted":"0","num_feature":"7","num_nodes":"27","size_leaf_vector":"1"}},{"base_weights":[-8.894162E-3,-3.1698802E-1,2.3497915E-1,-4.7919798E-1,-1.2631185E-1,1.3298535E-1,3.3101186E-1,-2.6949105E-1,-4.1166473E-2,1.2412325E-2,-2.3012145E-1,1.740655E-1,-2.982212E-2,4.3017465E-1,8.564498E-2,-2.8843306E-2,-7.131387E-3,-1.5987907E-2,1.7632727E-2,-2.472218E-2,-4.494622E-4,5.837162E-3,3.0273579E-2,-1.6449548E-2,3.6678262E-2,2.6086062E-2,-2.522557E-3],"categories":[],"categories_nodes":[],"categories_segments":[],"categories_sizes":[],"default_left":[0,0,0,0,0,0,0,0,0,0,0,0,0,0,0,0,0,0,0,0,0,0,0,0,0,0,0],"id":26,"left_children":[1,3,5,7,9,11,13,15,-1,17,19,21,-1,23,25,-1,-1,-1,-1,-1,-1,-1,-1,-1,-1,-1,-1],"loss_changes":[1.4647134E1,2.6030684E0,1.021966E0,2.039423E-1,5.9248036E-1,1.196178E0,1.3106899E0,1.1179954E-1,0E0,8.5964817E-1,4.140259E-1,1.0269177E0,0E0,7.995782E-1,4.945436E-1,0E0,0E0,0E0,0E0,0E0,0E0,0E0,0E0,0E0,0E0,0E0,0E0],"parents":[2147483647,0,0,1,1,2,2,3,3,4,4,5,5,6,6,7,7,9,9,10,10,11,11,13,13,14,14],"right_children":[2,4,6,8,10,12,14,16,-1,18,20,22,-1,24,26,-1,-1,-1,-1,-1,-1,-1,-1,-1,-1,-1,-1],"split_conditions":[4.4297877E-1,2.6074907E-2,6.626178E-1,-1.3841515E-2,1.601891E0,6.5269035E-1,2E0,1E0,-4.1166473E-2,7.373738E-2,2.1516597E0,5.34389E0,-2.982212E-2,1.9281427E0,6.908325E-1,-2.8843306E-2,-7.131387E-3,-1.5987907E-2,1.7632727E-2,-2.472218E-2,-4.494622E-4,5.837162E-3,3.0273579E-2,-1.6449548E-2,3.6678262E-2,2.6086062E-2,-2.522557E-3],"split_indices":[1,1,3,1,0,3,4,6,0,1,0,0,0,0,3,0,0,0,0,0,0,0,0,0,0,0,0],"split_type":[0,0,0,0,0,0,0,0,0,0,0,0,0,0,0,0,0,0,0,0,0,0,0,0,0,0,0],"sum_hessian":[1.9295062E2,8.5118095E1,1.0783253E2,4.5174545E1,3.994355E1,5.3449757E1,5.4382774E1,7.7656503E0,3.7408894E1,1.747353E1,2.247002E1,5.0041042E1,3.4087136E0,3.8193882E1,1.6188894E1,4.4964514E0,3.2691991E0,8.6675005E0,8.80603E0,1.6347792E1,6.122229E0,3.4386112E1,1.5654927E1,1.3608102E0,3.683307E1,4.720441E0,1.1468452E1],"tree_param":{"num_deleted":"0","num_feature":"7","num_nodes":"27","size_leaf_vector":"1"}},{"base_weights":[-4.179217E-3,-3.0436176E-1,2.3081487E-1,-4.6341366E-1,-1.18082486E-1,3.7157083E-1,1.6662367E-1,-2.4534549E-1,-4.0088106E-2,-3.222251E-1,-2.160712E-2,1.180858E-1,3.7156496E-2,7.379538E-2,3.337489E-1,-2.978956E-2,-1.9510598E-3,-1.0629975E-2,-3.429582E-2,1.9934615E-2,-6.2363464E-3,2.2112817E-2,-1.6040627E-2,-2.7521001E-2,8.593409E-3,3.0202912E-2,-1.7317293E-2],"categories":[],"categories_nodes":[],"categories_segments":[],"categories_sizes":[],"default_left":[0,0,0,0,0,0,0,0,0,0,0,0,0,0,0,0,0,0,0,0,0,0,0,0,0,0,0],"id":27,"left_children":[1,3,5,7,9,11,13,15,-1,17,19,21,-1,23,25,-1,-1,-1,-1,-1,-1,-1,-1,-1,-1,-1,-1],"loss_changes":[1.3621904E1,2.457326E0,9.168267E-1,2.5012302E-1,7.8855765E-1,7.2484875E-1,1.1576722E0,2.3365206E-1,0E0,2.0292842E-1,4.543078E-1,5.709964E-1,0E0,7.432532E-1,7.30536E-1,0E0,0E0,0E0,0E0,0E0,0E0,0E0,0E0,0E0,0E0,0E0,0E0],"parents":[2147483647,0,0,1,1,2,2,3,3,4,4,5,5,6,6,7,7,9,9,10,10,11,11,13,13,14,14],"right_children":[2,4,6,8,10,12,14,16,-1,18,20,22,-1,24,26,-1,-1,-1,-1,-1,-1,-1,-1,-1,-1,-1,-1],"split_conditions":[4.4297877E-1,2.6074907E-2,3.0096352E0,-1.3841515E-2,3.1945832E0,2.8160074E0,5.1632323E0,1E0,-4.0088106E-2,1.601891E0,3.2812872E0,2.6390574E0,3.7156496E-2,3.1667402E0,8.344673E-1,-2.978956E-2,-1.9510598E-3,-1.0629975E-2,-3.429582E-2,1.9934615E-2,-6.2363464E-3,2.2112817E-2,-1.6040627E-2,-2.7521001E-2,8.593409E-3,3.0202912E-2,-1.7317293E-2],"split_indices":[1,1,2,1,2,2,0,6,0,0,2,2,0,2,1,0,0,0,0,0,0,0,0,0,0,0,0],"split_type":[0,0,0,0,0,0,0,0,0,0,0,0,0,0,0,0,0,0,0,0,0,0,0,0,0,0,0],"sum_hessian":[1.9110995E2,8.3786064E1,1.073239E2,4.439354E1,3.939253E1,3.2114967E1,7.520892E1,7.6483965E0,3.674514E1,1.1891035E1,2.7501493E1,9.221294E0,2.2893673E1,4.9278927E1,2.593E1,4.4213767E0,3.2270195E0,5.0889115E0,6.802124E0,4.147488E0,2.3354006E1,6.2485137E0,2.9727805E0,2.9826932E0,4.6296234E1,2.4309246E1,1.6207525E0],"tree_param":{"num_deleted":"0","num_feature":"7","num_nodes":"27","size_leaf_vector":"1"}},{"base_weights":[-9.374348E-3,-3.0407378E-1,2.1911791E-1,-4.6238887E-1,-1.2433233E-1,-2.3528669E-2,2.3296422E-1,-2.8019896E-1,-3.9938755E-2,-4.285729E-1,-4.809704E-2,1.7874674E-1,3.611221E-1,-2.9356312E-2,-8.935605E-4,-1.1398788E-2,-3.853067E-2,7.030582E-3,-1.2183931E-2,3.218773E-2,9.67152E-3,-2.5706317E-3,3.3960782E-2],"categories":[],"categories_nodes":[],"categories_segments":[],"categories_sizes":[],"default_left":[0,0,0,0,0,0,0,0,0,0,0,0,0,0,0,0,0,0,0,0,0,0,0],"id":28,"left_children":[1,3,5,7,9,-1,11,13,-1,15,17,19,21,-1,-1,-1,-1,-1,-1,-1,-1,-1,-1],"loss_changes":[1.2781258E1,2.301001E0,8.284583E-1,1.5346909E-1,9.11375E-1,0E0,6.628661E-1,2.206704E-1,0E0,5.1674247E-2,4.8462278E-1,9.28612E-1,7.650094E-1,0E0,0E0,0E0,0E0,0E0,0E0,0E0,0E0,0E0,0E0],"parents":[2147483647,0,0,1,1,2,2,3,3,4,4,6,6,7,7,9,9,10,10,11,11,12,12],"right_children":[2,4,6,8,10,-1,12,14,-1,16,18,20,22,-1,-1,-1,-1,-1,-1,-1,-1,-1,-1],"split_conditions":[4.4297877E-1,2.6074907E-2,3.648205E-1,-1.0389381E-2,2.9150643E0,-2.3528669E-2,7.478272E-1,1E0,-3.9938755E-2,2.4630017E0,1.601891E0,4.5175692E-1,5.033703E-1,-2.9356312E-2,-8.935605E-4,-1.1398788E-2,-3.853067E-2,7.030582E-3,-1.2183931E-2,3.218773E-2,9.67152E-3,-2.5706317E-3,3.3960782E-2],"split_indices":[1,1,3,1,2,0,3,5,0,2,0,3,1,0,0,0,0,0,0,0,0,0,0],"split_type":[0,0,0,0,0,0,0,0,0,0,0,0,0,0,0,0,0,0,0,0,0,0,0],"sum_hessian":[1.8782213E2,8.1882645E1,1.05939476E2,4.270013E1,3.9182518E1,2.2513173E0,1.0368816E2,8.6303625E0,3.4069767E1,6.9248886E0,3.225763E1,7.4546036E1,2.9142122E1,6.250688E0,2.3796742E0,1.6599902E0,5.2648983E0,1.40628395E1,1.8194792E1,1.4098991E1,6.044705E1,4.1137333E0,2.5028389E1],"tree_param":{"num_deleted":"0","num_feature":"7","num_nodes":"23","size_leaf_vector":"1"}},{"base_weights":[-2.6800681E-3,-3.219859E-1,1.62591E-1,-4.0062842E-1,-2.3325445E-1,6.422209E-2,3.1004766E-1,-3.5300665E-2,-1.1881249E-1,-2.7129528E-1,1.687098E-2,-8.089114E-2,2.1570732E-1,4.316566E-1,6.29193E-2,1.556649E-3,-1.4515473E-2,-2.5143461E-2,-1.2295196E-2,1.5000461E-2,-1.5191149E-2,2.5806457E-2,-1.0015998E-3,1.2056858E-2,4.0207434E-2,-2.4924818E-2,2.1392977E-2],"categories":[],"categories_nodes":[],"categories_segments":[],"categories_sizes":[],"default_left":[0,0,0,0,0,0,0,0,0,0,0,0,0,0,0,0,0,0,0,0,0,0,0,0,0,0,0],"id":29,"left_children":[1,3,5,7,9,11,13,-1,15,17,-1,19,21,23,25,-1,-1,-1,-1,-1,-1,-1,-1,-1,-1,-1,-1],"loss_changes":[9.78117E0,3.47651E-1,1.7517946E0,3.153262E-1,5.9946835E-1,1.6557615E0,1.433877E0,0E0,5.042865E-2,1.0339975E-1,0E0,1.1704524E0,9.000865E-1,5.701895E-1,1.4007604E0,0E0,0E0,0E0,0E0,0E0,0E0,0E0,0E0,0E0,0E0,0E0,0E0],"parents":[2147483647,0,0,1,1,2,2,3,3,4,4,5,5,6,6,8,8,9,9,11,11,12,12,13,13,14,14],"right_children":[2,4,6,8,10,12,14,-1,16,18,-1,20,22,24,26,-1,-1,-1,-1,-1,-1,-1,-1,-1,-1,-1,-1],"split_conditions":[1.7566986E0,1E0,3.9374425E0,3.854182E0,3E0,6.879918E-1,3.434632E0,-3.5300665E-2,3.9378858E0,1E0,1.687098E-2,2.8964643E0,2E0,2.865054E0,5.910424E0,1.556649E-3,-1.4515473E-2,-2.5143461E-2,-1.2295196E-2,1.5000461E-2,-1.5191149E-2,2.5806457E-2,-1.0015998E-3,1.2056858E-2,4.0207434E-2,-2.4924818E-2,2.1392977E-2],"split_indices":[0,6,0,2,4,3,2,0,2,4,0,2,4,2,0,0,0,0,0,0,0,0,0,0,0,0,0],"split_type":[0,0,0,0,0,0,0,0,0,0,0,0,0,0,0,0,0,0,0,0,0,0,0,0,0,0,0],"sum_hessian":[1.8335564E2,6.2212345E1,1.2114329E2,3.1117712E1,3.1094635E1,7.352801E1,4.7615284E1,2.6702236E1,4.4154763E0,2.8999952E1,2.0946827E0,3.779184E1,3.573617E1,3.1411407E1,1.6203875E1,1.5914173E0,2.824059E0,2.0011177E1,8.988775E0,1.070691E1,2.7084929E1,2.4057295E1,1.1678875E1,6.9621506E0,2.4449257E1,5.5382776E0,1.0665596E1],"tree_param":{"num_deleted":"0","num_feature":"7","num_nodes":"27","size_leaf_vector":"1"}},{"base_weights":[5.1771766E-3,-4.3246272E-1,1.5430827E-1,-2.1885552E-1,-4.5965645E-1,-2.7873905E-2,2.7334273E-1,-2.3814024E-2,-6.1382473E-2,-3.893532E-2,-1.9598041E-1,1.444142E-1,-8.5791156E-2,1.4186367E-1,3.6921248E-1,1.2538626E-3,-1.0071948E-2,-6.0338704E-3,-1.9115083E-2,-3.8881518E-3,2.141777E-2,-1.576694E-2,4.0307227E-3,2.931061E-3,2.2665355E-2,3.2825585E-2,-1.8864318E-3],"categories":[],"categories_nodes":[],"categories_segments":[],"categories_sizes":[],"default_left":[0,0,0,0,0,0,0,0,0,0,0,0,0,0,0,0,0,0,0,0,0,0,0,0,0,0,0],"id":30,"left_children":[1,3,5,7,9,11,13,-1,15,-1,17,19,21,23,25,-1,-1,-1,-1,-1,-1,-1,-1,-1,-1,-1,-1],"loss_changes":[1.1977164E1,1.7034721E-1,2.9752815E0,7.080144E-2,1.9309235E-1,5.6107056E-1,9.9206877E-1,0E0,2.0136723E-2,0E0,1.01386905E-2,3.511376E-1,6.4313304E-1,5.338727E-1,7.733402E-1,0E0,0E0,0E0,0E0,0E0,0E0,0E0,0E0,0E0,0E0,0E0,0E0],"parents":[2147483647,0,0,1,1,2,2,3,3,4,4,5,5,6,6,8,8,10,10,11,11,12,12,13,13,14,14],"right_children":[2,4,6,8,10,12,14,-1,16,-1,18,20,22,24,26,-1,-1,-1,-1,-1,-1,-1,-1,-1,-1,-1,-1],"split_conditions":[4.3994818E-2,-1.7463159E-2,4.9881697E-1,1E0,2.6074907E-2,1.601891E0,1E0,-2.3814024E-2,3.440418E0,-3.893532E-2,3.1310037E-2,9.322121E-2,4.4297877E-1,5.1632323E0,3.8115394E0,1.2538626E-3,-1.0071948E-2,-6.0338704E-3,-1.9115083E-2,-3.8881518E-3,2.141777E-2,-1.576694E-2,4.0307227E-3,2.931061E-3,2.2665355E-2,3.2825585E-2,-1.8864318E-3],"split_indices":[1,1,1,6,1,0,5,0,2,0,1,1,1,0,2,0,0,0,0,0,0,0,0,0,0,0,0],"split_type":[0,0,0,0,0,0,0,0,0,0,0,0,0,0,0,0,0,0,0,0,0,0,0,0,0,0,0],"sum_hessian":[1.8149138E2,4.5644173E1,1.358472E2,6.1764045E0,3.946777E1,5.3986584E1,8.186062E1,3.5228105E0,2.653594E0,3.5030277E1,4.437491E0,1.3206719E1,4.0779865E1,3.5565132E1,4.6295486E1,1.554292E0,1.099302E0,1.8897811E0,2.54771E0,5.38435E0,7.82237E0,2.219371E1,1.8586155E1,2.1116116E1,1.4449016E1,4.1869095E1,4.426389E0],"tree_param":{"num_deleted":"0","num_feature":"7","num_nodes":"27","size_leaf_vector":"1"}},{"base_weights":[-6.007516E-3,-2.8585637E-1,2.1558912E-1,-4.456758E-1,-1.1441418E-1,1.4776461E-1,3.7503678E-1,-2.4459825E-1,-3.917831E-2,-3.882787E-1,-4.4891134E-2,3.393666E-1,4.3677963E-2,-1.0449824E-1,4.238766E-1,-2.7056271E-2,-6.2045264E-3,-1.082538E-2,-3.5510022E-2,5.368977E-3,-9.975473E-3,6.5176026E-3,3.4953322E-2,-5.558472E-3,1.7493634E-2,7.2232746E-3,-2.2587165E-2,3.6421303E-2,1.1808495E-2],"categories":[],"categories_nodes":[],"categories_segments":[],"categories_sizes":[],"default_left":[0,0,0,0,0,0,0,0,0,0,0,0,0,0,0,0,0,0,0,0,0,0,0,0,0,0,0,0,0],"id":31,"left_children":[1,3,5,7,9,11,13,15,-1,17,19,21,23,25,27,-1,-1,-1,-1,-1,-1,-1,-1,-1,-1,-1,-1,-1,-1],"loss_changes":[1.10433035E1,2.1050043E0,1.0195236E0,2.3788929E-1,7.3099524E-1,1.4088286E0,7.2379494E-1,1.1847049E-1,0E0,5.0023317E-2,2.9868367E-1,5.928695E-1,9.538919E-1,1.4618507E-1,1.6286135E-1,0E0,0E0,0E0,0E0,0E0,0E0,0E0,0E0,0E0,0E0,0E0,0E0,0E0,0E0],"parents":[2147483647,0,0,1,1,2,2,3,3,4,4,5,5,6,6,7,7,9,9,10,10,11,11,12,12,13,13,14,14],"right_children":[2,4,6,8,10,12,14,16,-1,18,20,22,24,26,28,-1,-1,-1,-1,-1,-1,-1,-1,-1,-1,-1,-1,-1,-1],"split_conditions":[4.4297877E-1,2.6074907E-2,5.34389E0,-1.0389381E-2,2.9150643E0,2.9263823E0,2.8864753E0,1E0,-3.917831E-2,2.4630017E0,1.601891E0,2.8160074E0,3.7196512E0,2.6574583E0,3.7509148E0,-2.7056271E-2,-6.2045264E-3,-1.082538E-2,-3.5510022E-2,5.368977E-3,-9.975473E-3,6.5176026E-3,3.4953322E-2,-5.558472E-3,1.7493634E-2,7.2232746E-3,-2.2587165E-2,3.6421303E-2,1.1808495E-2],"split_indices":[1,1,0,1,2,2,2,6,0,2,0,2,2,2,2,0,0,0,0,0,0,0,0,0,0,0,0,0,0],"split_type":[0,0,0,0,0,0,0,0,0,0,0,0,0,0,0,0,0,0,0,0,0,0,0,0,0,0,0,0,0],"sum_hessian":[1.7608505E2,7.76866E1,9.839845E1,3.937833E1,3.8308273E1,7.038528E1,2.8013176E1,8.2543335E0,3.1123995E1,6.8277135E0,3.1480558E1,2.3980925E1,4.6404354E1,2.4840333E0,2.5529142E1,4.6333036E0,3.6210303E0,1.8489594E0,4.9787545E0,1.3163902E1,1.8316656E1,7.085052E0,1.6895872E1,2.8547234E1,1.7857119E1,1.4204801E0,1.0635532E0,2.234268E1,3.1864617E0],"tree_param":{"num_deleted":"0","num_feature":"7","num_nodes":"29","size_leaf_vector":"1"}},{"base_weights":[2.855182E-4,-2.8429565E-1,2.2285172E-1,-4.3308777E-1,-1.0023475E-1,2.1147106E-2,2.6748908E-1,-2.609604E-1,-4.6569788E-1,1.0288371E-1,-2.2088024E-1,2.3593663E-1,-1.5094677E-1,3.31498E-1,9.9143766E-2,-2.6851196E-2,-2.4653114E-3,-9.429096E-3,-3.7811816E-2,-5.386127E-3,2.2147728E-2,-3.6590066E-2,-8.119125E-3,2.9584242E-2,-2.4292504E-2,-3.5613373E-2,1.4534829E-2,2.7928326E-2,-7.5804708E-3,-1.6608743E-2,2.3484433E-2],"categories":[],"categories_nodes":[],"categories_segments":[],"categories_sizes":[],"default_left":[0,0,0,0,0,0,0,0,0,0,0,0,0,0,0,0,0,0,0,0,0,0,0,0,0,0,0,0,0,0,0],"id":32,"left_children":[1,3,5,7,9,11,13,15,17,19,21,23,25,27,29,-1,-1,-1,-1,-1,-1,-1,-1,-1,-1,-1,-1,-1,-1,-1,-1],"loss_changes":[1.1299254E1,2.1007304E0,8.956394E-1,1.1979008E-1,9.1223943E-1,7.4624026E-1,8.494353E-1,1.4644235E-1,2.858591E-2,4.393539E-1,6.055505E-1,7.581878E-1,1.1851223E0,4.7507954E-1,1.4911959E0,0E0,0E0,0E0,0E0,0E0,0E0,0E0,0E0,0E0,0E0,0E0,0E0,0E0,0E0,0E0,0E0],"parents":[2147483647,0,0,1,1,2,2,3,3,4,4,5,5,6,6,7,7,8,8,9,9,10,10,11,11,12,12,13,13,14,14],"right_children":[2,4,6,8,10,12,14,16,18,20,22,24,26,28,30,-1,-1,-1,-1,-1,-1,-1,-1,-1,-1,-1,-1,-1,-1,-1,-1],"split_conditions":[4.4297877E-1,4.3994818E-2,4.9881697E-1,-1.110196E-2,1.601891E0,2.8964643E0,3.5192766E0,1E0,4.1971007E-1,1.1678106E-1,3.1945832E0,4.8884338E-1,3.7713807E0,4E0,7.263284E-1,-2.6851196E-2,-2.4653114E-3,-9.429096E-3,-3.7811816E-2,-5.386127E-3,2.2147728E-2,-3.6590066E-2,-8.119125E-3,2.9584242E-2,-2.4292504E-2,-3.5613373E-2,1.4534829E-2,2.7928326E-2,-7.5804708E-3,-1.6608743E-2,2.3484433E-2],"split_indices":[1,1,1,1,0,2,2,5,3,1,2,1,2,4,3,0,0,0,0,0,0,0,0,0,0,0,0,0,0,0,0],"split_type":[0,0,0,0,0,0,0,0,0,0,0,0,0,0,0,0,0,0,0,0,0,0,0,0,0,0,0,0,0,0,0],"sum_hessian":[1.7639542E2,7.7291E1,9.9104416E1,4.1992184E1,3.529882E1,1.8224846E1,8.087957E1,8.122308E0,3.3869877E1,1.3208404E1,2.2090416E1,7.9417763E0,1.0283069E1,5.7896706E1,2.2982868E1,5.7863135E0,2.3359945E0,1.0152732E0,3.2854603E1,6.986042E0,6.2223616E0,6.4610877E0,1.5629328E1,6.615271E0,1.3265051E0,5.277069E0,5.006E0,5.5774E1,2.1227064E0,8.889173E0,1.4093696E1],"tree_param":{"num_deleted":"0","num_feature":"7","num_nodes":"31","size_leaf_vector":"1"}},{"base_weights":[-1.837938E-2,-2.1531148E-1,1.8714179E-1,-3.479634E-1,-1.0302785E-1,5.0545935E-2,3.085062E-1,9.120481E-3,-3.6580056E-1,-2.0857678E-1,7.2104625E-2,-8.152515E-2,2.3719327E-1,3.5577935E-1,-3.1024054E-2,-3.0254228E-2,3.2605922E-3,-2.047379E-2,8.997944E-3,2.6352027E-2,-3.8190044E-3,9.9904165E-3,-1.3739489E-2,2.8139712E-2,-2.1863477E-3,4.331437E-2,2.1317689E-2,-2.237669E-2,1.4609754E-2],"categories":[],"categories_nodes":[],"categories_segments":[],"categories_sizes":[],"default_left":[0,0,0,0,0,0,0,0,0,0,0,0,0,0,0,0,0,0,0,0,0,0,0,0,0,0,0,0,0],"id":33,"left_children":[1,3,5,7,9,11,13,-1,15,17,19,21,23,25,27,-1,-1,-1,-1,-1,-1,-1,-1,-1,-1,-1,-1,-1,-1],"loss_changes":[6.9460726E0,1.2688847E0,1.3773816E0,3.691368E-1,9.18249E-1,1.0233201E0,7.220473E-1,0E0,2.0913076E-1,4.961095E-1,6.0520446E-1,4.794538E-1,5.287715E-1,5.0175476E-1,3.8759065E-1,0E0,0E0,0E0,0E0,0E0,0E0,0E0,0E0,0E0,0E0,0E0,0E0,0E0,0E0],"parents":[2147483647,0,0,1,1,2,2,3,3,4,4,5,5,6,6,8,8,9,9,10,10,11,11,12,12,13,13,14,14],"right_children":[2,4,6,8,10,12,14,-1,16,18,20,22,24,26,28,-1,-1,-1,-1,-1,-1,-1,-1,-1,-1,-1,-1,-1,-1],"split_conditions":[2.0545778E0,1E0,3.9374425E0,2.3035846E0,1.7566986E0,7.3413485E-1,3.6522155E0,9.120481E-3,4.3605475E0,2E0,2.865054E0,3.0002222E0,2E0,4.5175692E-1,3.9178061E0,-3.0254228E-2,3.2605922E-3,-2.047379E-2,8.997944E-3,2.6352027E-2,-3.8190044E-3,9.9904165E-3,-1.3739489E-2,2.8139712E-2,-2.1863477E-3,4.331437E-2,2.1317689E-2,-2.237669E-2,1.4609754E-2],"split_indices":[0,6,0,2,0,3,2,0,2,4,2,2,4,3,2,0,0,0,0,0,0,0,0,0,0,0,0,0,0],"split_type":[0,0,0,0,0,0,0,0,0,0,0,0,0,0,0,0,0,0,0,0,0,0,0,0,0,0,0,0,0],"sum_hessian":[1.6962378E2,8.65976E1,8.302618E1,3.8735962E1,4.7861637E1,3.972834E1,4.3297836E1,1.2396066E0,3.7496357E1,2.9744337E1,1.81173E1,2.359547E1,1.613287E1,3.7964188E1,5.333649E0,3.6456284E1,1.0400734E0,2.6098444E1,3.6458921E0,5.2014356E0,1.2915864E1,7.059735E0,1.6535736E1,1.1027572E1,5.1052985E0,1.0686676E1,2.7277512E1,2.3218236E0,3.0118256E0],"tree_param":{"num_deleted":"0","num_feature":"7","num_nodes":"29","size_leaf_vector":"1"}},{"base_weights":[8.631435E-3,-4.085322E-1,1.4739719E-1,-4.3325782E-1,-1.8283212E-1,-2.8000792E-2,2.5497544E-1,-2.5246915E-1,-3.7971623E-2,-2.3528554E-2,-1.4859093E-2,-9.4069034E-2,1.3404785E-1,1.4484455E-1,3.2685375E-1,-2.8490886E-2,-5.655083E-3,6.496992E-3,-7.630778E-3,2.5215434E-2,-9.76344E-3,1.7801678E-2,-8.354798E-3,1.2939011E-3,2.5289556E-2,2.770458E-2,-1.1957576E-2],"categories":[],"categories_nodes":[],"categories_segments":[],"categories_sizes":[],"default_left":[0,0,0,0,0,0,0,0,0,0,0,0,0,0,0,0,0,0,0,0,0,0,0,0,0,0,0],"id":34,"left_children":[1,3,5,7,9,11,13,15,-1,-1,17,19,21,23,25,-1,-1,-1,-1,-1,-1,-1,-1,-1,-1,-1,-1],"loss_changes":[1.003175E1,1.6221285E-1,2.4599898E0,1.6644573E-1,1.0780528E-1,5.51353E-1,5.91269E-1,1.493941E-1,0E0,0E0,3.4395378E-2,4.54443E-1,3.394413E-1,7.3657805E-1,4.9670744E-1,0E0,0E0,0E0,0E0,0E0,0E0,0E0,0E0,0E0,0E0,0E0,0E0],"parents":[2147483647,0,0,1,1,2,2,3,3,4,4,5,5,6,6,7,7,10,10,11,11,12,12,13,13,14,14],"right_children":[2,4,6,8,10,12,14,16,-1,-1,18,20,22,24,26,-1,-1,-1,-1,-1,-1,-1,-1,-1,-1,-1,-1],"split_conditions":[5.211194E-2,2.6074907E-2,4.9881697E-1,-1.0389381E-2,1E0,3.7196512E0,1E0,1E0,-3.7971623E-2,-2.3528554E-2,5.7661813E-1,2.3035846E0,2.1340868E0,5.325077E0,8.419596E-1,-2.8490886E-2,-5.655083E-3,6.496992E-3,-7.630778E-3,2.5215434E-2,-9.76344E-3,1.7801678E-2,-8.354798E-3,1.2939011E-3,2.5289556E-2,2.770458E-2,-1.1957576E-2],"split_indices":[1,1,1,1,6,2,5,6,0,0,3,2,0,0,3,0,0,0,0,0,0,0,0,0,0,0,0],"split_type":[0,0,0,0,0,0,0,0,0,0,0,0,0,0,0,0,0,0,0,0,0,0,0,0,0,0,0],"sum_hessian":[1.7125554E2,4.226191E1,1.2899362E2,3.7260387E1,5.001524E0,4.9320343E1,7.967329E1,8.26358E0,2.8996807E1,2.5568228E0,2.4447012E0,3.5333965E1,1.3986377E1,3.265497E1,4.7018314E1,4.6516533E0,3.6119268E0,1.110858E0,1.3338431E0,1.6037387E0,3.373023E1,1.0250533E1,3.7358444E0,1.9271574E1,1.3383395E1,4.543564E1,1.5826755E0],"tree_param":{"num_deleted":"0","num_feature":"7","num_nodes":"27","size_leaf_vector":"1"}},{"base_weights":[9.202476E-3,-2.714578E-1,2.2680534E-1,-4.2904708E-1,-1.151778E-1,1.0785315E-1,3.457555E-1,-2.4984293E-1,-3.765379E-2,-3.360429E-1,-1.4769292E-2,1.5705314E-1,-3.0949354E-1,-2.0997029E-2,3.682198E-1,-2.8831579E-2,-4.6514133E-3,-1.0643842E-2,-3.8826678E-2,2.297037E-2,-6.212794E-3,3.2320314E-3,2.2704568E-2,-1.1017646E-2,-3.1426214E-2,3.450757E-2,1.3732716E-2],"categories":[],"categories_nodes":[],"categories_segments":[],"categories_sizes":[],"default_left":[0,0,0,0,0,0,0,0,0,0,0,0,0,0,0,0,0,0,0,0,0,0,0,0,0,0,0],"id":35,"left_children":[1,3,5,7,9,11,13,15,-1,17,19,21,23,-1,25,-1,-1,-1,-1,-1,-1,-1,-1,-1,-1,-1,-1],"loss_changes":[1.0456131E1,1.7924075E0,1.3269196E0,1.5743351E-1,8.5806096E-1,1.0683053E0,7.4912405E-1,1.7150134E-1,0E0,3.0261993E-1,5.501125E-1,6.5519583E-1,2.5682986E-2,0E0,5.025449E-1,0E0,0E0,0E0,0E0,0E0,0E0,0E0,0E0,0E0,0E0,0E0,0E0],"parents":[2147483647,0,0,1,1,2,2,3,3,4,4,5,5,6,6,7,7,9,9,10,10,11,11,12,12,14,14],"right_children":[2,4,6,8,10,12,14,16,-1,18,20,22,24,-1,26,-1,-1,-1,-1,-1,-1,-1,-1,-1,-1,-1,-1],"split_conditions":[4.4297877E-1,2.6074907E-2,6.626178E-1,-1.0389381E-2,3.1945832E0,6.288323E-1,2.4630017E0,1E0,-3.765379E-2,1.4734599E-1,3.2812872E0,5.7891774E-1,6.545243E-1,-2.0997029E-2,2E0,-2.8831579E-2,-4.6514133E-3,-1.0643842E-2,-3.8826678E-2,2.297037E-2,-6.212794E-3,3.2320314E-3,2.2704568E-2,-1.1017646E-2,-3.1426214E-2,3.450757E-2,1.3732716E-2],"split_indices":[1,1,3,1,2,3,2,6,0,1,2,1,3,0,4,0,0,0,0,0,0,0,0,0,0,0,0],"split_type":[0,0,0,0,0,0,0,0,0,0,0,0,0,0,0,0,0,0,0,0,0,0,0,0,0,0,0],"sum_hessian":[1.6920044E2,7.378561E1,9.541484E1,3.5869858E1,3.791575E1,4.866035E1,4.6754486E1,8.081176E0,2.7788683E1,1.1116473E1,2.6799274E1,4.4086758E1,4.5735936E0,1.2848126E0,4.5469673E1,4.567277E0,3.5138988E0,5.5123577E0,5.604115E0,4.0055547E0,2.279372E1,2.3644894E1,2.0441864E1,2.3605428E0,2.213051E0,3.3512722E1,1.195695E1],"tree_param":{"num_deleted":"0","num_feature":"7","num_nodes":"27","size_leaf_vector":"1"}},{"base_weights":[4.9200635E-3,-4.0465757E-1,1.3863823E-1,-4.1455296E-1,-1.0426589E-3,4.8666038E-2,3.1427425E-1,-3.7952296E-2,-3.202923E-1,-6.419776E-2,1.1819258E-1,3.4971356E-1,2.8982792E-2,-5.7457727E-3,-2.911572E-2,-2.4494847E-2,2.8427446E-3,2.3921553E-2,1.2591779E-3,6.743168E-3,3.1193143E-2,-1.3114547E-2,2.259786E-2],"categories":[],"categories_nodes":[],"categories_segments":[],"categories_sizes":[],"default_left":[0,0,0,0,0,0,0,0,0,0,0,0,0,0,0,0,0,0,0,0,0,0,0],"id":36,"left_children":[1,3,5,7,-1,9,11,-1,13,15,17,19,21,-1,-1,-1,-1,-1,-1,-1,-1,-1,-1],"loss_changes":[9.144349E0,1.5386009E-1,1.9733326E0,7.400799E-2,0E0,6.698661E-1,4.1900682E-1,0E0,1.7596722E-1,8.029675E-1,9.693679E-1,3.6902618E-1,3.289775E-1,0E0,0E0,0E0,0E0,0E0,0E0,0E0,0E0,0E0,0E0],"parents":[2147483647,0,0,1,1,2,2,3,3,5,5,6,6,8,8,9,9,10,10,11,11,12,12],"right_children":[2,4,6,8,-1,10,12,-1,14,16,18,20,22,-1,-1,-1,-1,-1,-1,-1,-1,-1,-1],"split_conditions":[5.211194E-2,4.3909864E0,5.7891774E-1,1E0,-1.0426589E-3,4.4297877E-1,3.7509148E0,-3.7952296E-2,-1.110196E-2,3.1945832E0,2.9263823E0,2.865054E0,6.5231385E0,-5.7457727E-3,-2.911572E-2,-2.4494847E-2,2.8427446E-3,2.3921553E-2,1.2591779E-3,6.743168E-3,3.1193143E-2,-1.3114547E-2,2.259786E-2],"split_indices":[1,2,1,6,0,1,2,0,1,2,2,2,0,0,0,0,0,0,0,0,0,0,0],"split_type":[0,0,0,0,0,0,0,0,0,0,0,0,0,0,0,0,0,0,0,0,0,0,0],"sum_hessian":[1.6494093E2,4.0097233E1,1.24843704E2,3.905194E1,1.0452937E0,8.3398605E1,4.14451E1,2.141904E1,1.7632898E1,3.1820465E1,5.1578136E1,3.666474E1,4.780357E0,3.0303068E0,1.46025915E1,8.682746E0,2.313772E1,1.7960205E1,3.361793E1,5.230077E0,3.1434664E1,2.9151404E0,1.8652165E0],"tree_param":{"num_deleted":"0","num_feature":"7","num_nodes":"23","size_leaf_vector":"1"}},{"base_weights":[1.192079E-2,-2.5427157E-1,2.1208593E-1,-4.2547196E-1,-9.200957E-2,1.1531712E-1,3.0910906E-1,-2.2762664E-1,-3.6589205E-2,-3.548951E-1,-3.1025147E-2,-2.9601008E-2,2.6796064E-1,3.8645154E-1,8.468092E-2,-9.761867E-3,-2.7650343E-2,-6.479464E-3,-3.4080084E-2,8.002027E-3,-1.090696E-2,1.5979782E-2,-1.4189124E-2,3.400714E-2,-1.0313141E-2,-1.6983794E-2,3.2890514E-2,1.9029506E-2,-1.8363712E-2],"categories":[],"categories_nodes":[],"categories_segments":[],"categories_sizes":[],"default_left":[0,0,0,0,0,0,0,0,0,0,0,0,0,0,0,0,0,0,0,0,0,0,0,0,0,0,0,0,0],"id":37,"left_children":[1,3,5,7,9,11,13,15,-1,17,19,21,23,25,27,-1,-1,-1,-1,-1,-1,-1,-1,-1,-1,-1,-1,-1,-1],"loss_changes":[8.946057E0,1.9633017E0,8.638263E-1,1.1547613E-1,6.027571E-1,1.1042216E0,7.8731775E-1,4.28358E-2,0E0,1.04031146E-1,4.5763507E-1,9.275088E-1,1.5661504E0,6.023278E-1,6.990867E-1,0E0,0E0,0E0,0E0,0E0,0E0,0E0,0E0,0E0,0E0,0E0,0E0,0E0,0E0],"parents":[2147483647,0,0,1,1,2,2,3,3,4,4,5,5,6,6,7,7,9,9,10,10,11,11,12,12,13,13,14,14],"right_children":[2,4,6,8,10,12,14,16,-1,18,20,22,24,26,28,-1,-1,-1,-1,-1,-1,-1,-1,-1,-1,-1,-1,-1,-1],"split_conditions":[4.4297877E-1,2.6074907E-2,6.626178E-1,-1.7463159E-2,2.9150643E0,4.0110955E0,2E0,3.6344233E0,-3.6589205E-2,2.4630017E0,1.601891E0,2.8964643E0,5.6269795E-1,1.9281427E0,3.4704125E0,-9.761867E-3,-2.7650343E-2,-6.479464E-3,-3.4080084E-2,8.002027E-3,-1.090696E-2,1.5979782E-2,-1.4189124E-2,3.400714E-2,-1.0313141E-2,-1.6983794E-2,3.2890514E-2,1.9029506E-2,-1.8363712E-2],"split_indices":[1,1,3,1,2,0,4,2,0,2,0,2,3,0,2,0,0,0,0,0,0,0,0,0,0,0,0,0,0],"split_type":[0,0,0,0,0,0,0,0,0,0,0,0,0,0,0,0,0,0,0,0,0,0,0,0,0,0,0,0,0],"sum_hessian":[1.658867E2,7.108416E1,9.480255E1,3.3800056E1,3.72841E1,4.8559193E1,4.624336E1,5.82188E0,2.7978178E1,6.1130657E0,3.1171034E1,2.5323452E1,2.3235739E1,3.3854477E1,1.2388881E1,4.14579E0,1.6760899E0,1.7007577E0,4.412308E0,1.3910702E1,1.7260332E1,9.784607E0,1.5538845E1,1.65946E1,6.641137E0,1.0392632E0,3.2815216E1,8.491985E0,3.8968952E0],"tree_param":{"num_deleted":"0","num_feature":"7","num_nodes":"29","size_leaf_vector":"1"}},{"base_weights":[9.936021E-3,-2.5154546E-1,2.0734733E-1,-3.9917666E-1,-7.767675E-2,1.322343E-1,3.441336E-1,-2.2998388E-1,-4.370621E-1,1.374807E-1,-1.9389908E-1,2.6725286E-1,6.362761E-2,-6.064092E-4,3.6252347E-1,-2.4177756E-2,-1.9838964E-3,-3.7294254E-2,-1.888281E-2,-6.6121095E-3,2.2803558E-2,-3.268429E-2,-7.4519757E-3,-7.4376836E-3,3.317219E-2,-4.798338E-3,1.8895686E-2,4.6566468E-2,2.3211787E-2],"categories":[],"categories_nodes":[],"categories_segments":[],"categories_sizes":[],"default_left":[0,0,0,0,0,0,0,0,0,0,0,0,0,0,0,0,0,0,0,0,0,0,0,0,0,0,0,0,0],"id":38,"left_children":[1,3,5,7,9,11,13,15,17,19,21,23,25,-1,27,-1,-1,-1,-1,-1,-1,-1,-1,-1,-1,-1,-1,-1,-1],"loss_changes":[8.323803E0,1.7500458E0,8.98263E-1,1.384654E-1,8.544519E-1,5.4730296E-1,2.0931315E-1,1.2489197E-1,6.1763287E-2,4.197068E-1,4.3574065E-1,1.1117916E0,9.0379465E-1,0E0,3.137157E-1,0E0,0E0,0E0,0E0,0E0,0E0,0E0,0E0,0E0,0E0,0E0,0E0,0E0,0E0],"parents":[2147483647,0,0,1,1,2,2,3,3,4,4,5,5,6,6,7,7,8,8,9,9,10,10,11,11,12,12,14,14],"right_children":[2,4,6,8,10,12,14,16,18,20,22,24,26,-1,28,-1,-1,-1,-1,-1,-1,-1,-1,-1,-1,-1,-1,-1,-1],"split_conditions":[4.4297877E-1,4.3994818E-2,5.0337667E0,-1.0389381E-2,1.601891E0,2.9263823E0,4.1290995E-1,1E0,1.6852785E-2,9.322121E-2,3.1945832E0,2.8160074E0,3.7196512E0,-6.064092E-4,4.5175692E-1,-2.4177756E-2,-1.9838964E-3,-3.7294254E-2,-1.888281E-2,-6.6121095E-3,2.2803558E-2,-3.268429E-2,-7.4519757E-3,-7.4376836E-3,3.317219E-2,-4.798338E-3,1.8895686E-2,4.6566468E-2,2.3211787E-2],"split_indices":[1,1,0,1,0,2,3,5,1,1,2,2,2,0,3,0,0,0,0,0,0,0,0,0,0,0,0,0,0],"split_type":[0,0,0,0,0,0,0,0,0,0,0,0,0,0,0,0,0,0,0,0,0,0,0,0,0,0,0,0,0],"sum_hessian":[1.5924297E2,6.838684E1,9.0856125E1,3.6283134E1,3.2103703E1,5.991946E1,3.0936666E1,7.9316545E0,2.835148E1,1.1195339E1,2.0908365E1,1.9212894E1,4.0706566E1,1.566402E0,2.9370264E1,5.5165567E0,2.4150975E0,2.3612537E1,4.7389436E0,4.669454E0,6.5258846E0,5.7028475E0,1.5205517E1,5.686105E0,1.3526789E1,2.409809E1,1.6608477E1,5.5355115E0,2.3834753E1],"tree_param":{"num_deleted":"0","num_feature":"7","num_nodes":"29","size_leaf_vector":"1"}},{"base_weights":[1.4409834E-2,-2.3719667E-1,1.7393948E-1,2.079264E-2,-2.5744614E-1,8.708494E-2,3.52171E-1,-3.520519E-1,-1.694472E-1,-1.1374794E-1,1.8019485E-1,1.3323778E-1,3.8548753E-1,-3.0874955E-2,-8.566006E-3,-1.588174E-2,1.6155941E-2,6.157739E-3,-2.0257307E-2,-1.9610774E-2,1.7213088E-2,2.9350473E-2,-1.8119633E-2,-1.8716925E-3,3.256069E-2],"categories":[],"categories_nodes":[],"categories_segments":[],"categories_sizes":[],"default_left":[0,0,0,0,0,0,0,0,0,0,0,0,0,0,0,0,0,0,0,0,0,0,0,0,0],"id":39,"left_children":[1,3,5,-1,7,9,11,13,15,17,19,21,23,-1,-1,-1,-1,-1,-1,-1,-1,-1,-1,-1,-1],"loss_changes":[6.411298E0,6.9103503E-1,1.4817231E0,0E0,4.4050717E-1,1.273671E0,1.7973018E-1,1.913054E-1,3.9701194E-1,6.004542E-1,7.39517E-1,5.632431E-1,2.4684286E-1,0E0,0E0,0E0,0E0,0E0,0E0,0E0,0E0,0E0,0E0,0E0,0E0],"parents":[2147483647,0,0,1,1,2,2,4,4,5,5,6,6,7,7,8,8,9,9,10,10,11,11,12,12],"right_children":[2,4,6,-1,8,10,12,14,16,18,20,22,24,-1,-1,-1,-1,-1,-1,-1,-1,-1,-1,-1,-1],"split_conditions":[1.8172302E0,2.3035846E0,5.0182676E0,2.079264E-2,1E0,1E0,2.9569914E0,3.8368683E0,3E0,2.9760396E0,2.825537E0,2.6390574E0,5.1632323E0,-3.0874955E-2,-8.566006E-3,-1.588174E-2,1.6155941E-2,6.157739E-3,-2.0257307E-2,-1.9610774E-2,1.7213088E-2,2.9350473E-2,-1.8119633E-2,-1.8716925E-3,3.256069E-2],"split_indices":[0,2,0,0,6,6,2,2,4,2,2,2,0,0,0,0,0,0,0,0,0,0,0,0,0],"split_type":[0,0,0,0,0,0,0,0,0,0,0,0,0,0,0,0,0,0,0,0,0,0,0,0,0],"sum_hessian":[1.5770073E2,6.1002357E1,9.669837E1,1.9244206E0,5.9077934E1,6.601635E1,3.0682018E1,2.702418E1,3.2053757E1,2.084126E1,4.517509E1,4.712681E0,2.5969337E1,2.3234938E1,3.789242E0,3.0158302E1,1.8954533E0,8.992433E0,1.1848828E1,2.9753535E0,4.2199738E1,2.8450074E0,1.8676736E0,1.2941636E0,2.4675173E1],"tree_param":{"num_deleted":"0","num_feature":"7","num_nodes":"25","size_leaf_vector":"1"}},{"base_weights":[9.11493E-3,-2.4903965E-1,2.0286545E-1,-3.9836103E-1,-1.12480275E-1,2.214701E-1,-2.0439868E-1,-1.8878518E-1,-3.5529736E-2,2.5508113E-2,-2.1557878E-1,-2.2081196E-1,2.3865715E-1,-2.4406735E-2,-5.692907E-2,9.527337E-4,-1.9336125E-2,-1.32714305E-2,2.1529607E-2,-2.3272261E-2,2.6707153E-4,-2.3953406E-2,-1.08657354E-4,4.502769E-2,1.584019E-2,3.7551837E-3,-1.0721138E-2],"categories":[],"categories_nodes":[],"categories_segments":[],"categories_sizes":[],"default_left":[0,0,0,0,0,0,0,0,0,0,0,0,0,0,0,0,0,0,0,0,0,0,0,0,0,0,0],"id":40,"left_children":[1,3,5,7,9,11,13,15,-1,17,19,21,23,-1,25,-1,-1,-1,-1,-1,-1,-1,-1,-1,-1,-1,-1],"loss_changes":[7.9357557E0,1.3426056E0,7.3181725E-1,2.2408056E-1,5.30908E-1,7.1502686E-1,4.912798E-2,8.246076E-2,0E0,8.22757E-1,3.5128385E-1,6.4776525E-2,1.0003061E0,0E0,3.0682957E-2,0E0,0E0,0E0,0E0,0E0,0E0,0E0,0E0,0E0,0E0,0E0,0E0],"parents":[2147483647,0,0,1,1,2,2,3,3,4,4,5,5,6,6,7,7,9,9,10,10,11,11,12,12,14,14],"right_children":[2,4,6,8,10,12,14,16,-1,18,20,22,24,-1,26,-1,-1,-1,-1,-1,-1,-1,-1,-1,-1,-1,-1],"split_conditions":[4.4297877E-1,2.6074907E-2,4E0,-1.3841515E-2,1.601891E0,3.958283E-1,2.1340868E0,1E0,-3.5529736E-2,9.322121E-2,2.1516597E0,7.408846E-1,4.3344367E-1,-2.4406735E-2,5.7891774E-1,9.527337E-4,-1.9336125E-2,-1.32714305E-2,2.1529607E-2,-2.3272261E-2,2.6707153E-4,-2.3953406E-2,-1.08657354E-4,4.502769E-2,1.584019E-2,3.7551837E-3,-1.0721138E-2],"split_indices":[1,1,4,1,0,3,0,4,0,1,0,1,3,0,1,0,0,0,0,0,0,0,0,0,0,0,0],"split_type":[0,0,0,0,0,0,0,0,0,0,0,0,0,0,0,0,0,0,0,0,0,0,0,0,0,0,0],"sum_hessian":[1.5664923E2,6.70397E1,8.9609535E1,3.1107718E1,3.593198E1,8.6131096E1,3.478442E0,6.4936132E0,2.4614105E1,1.5687804E1,2.0244177E1,2.77867E0,8.3352425E1,1.4319664E0,2.0464754E0,1.5165988E0,4.9770145E0,8.964E0,6.723805E0,1.4817114E1,5.427064E0,1.7775846E0,1.0010856E0,7.8567386E0,7.549568E1,1.0383755E0,1.0080999E0],"tree_param":{"num_deleted":"0","num_feature":"7","num_nodes":"27","size_leaf_vector":"1"}},{"base_weights":[1.7358536E-2,-2.161558E-1,2.3097213E-1,-3.956793E-1,-8.239006E-2,1.2322803E-1,3.2627597E-1,-2.2511236E-1,-3.528105E-2,2.0356639E-1,-1.1635329E-1,-3.9733827E-2,2.7010027E-1,-1.5393754E-2,3.47507E-1,-2.3759613E-2,-1.6823432E-3,-8.210144E-3,3.1882405E-2,2.383259E-3,-1.6331911E-2,2.314272E-2,-1.6581666E-2,3.3384163E-2,-6.7481985E-3,3.2743886E-2,1.2374719E-2],"categories":[],"categories_nodes":[],"categories_segments":[],"categories_sizes":[],"default_left":[0,0,0,0,0,0,0,0,0,0,0,0,0,0,0,0,0,0,0,0,0,0,0,0,0,0,0],"id":41,"left_children":[1,3,5,7,9,11,13,15,-1,17,19,21,23,-1,25,-1,-1,-1,-1,-1,-1,-1,-1,-1,-1,-1,-1],"loss_changes":[7.783637E0,1.7585301E0,7.9619837E-1,1.449399E-1,4.510449E-1,9.64253E-1,5.361695E-1,1.21008426E-1,0E0,3.4148115E-1,5.18904E-1,1.1490006E0,1.1351751E0,0E0,4.2872334E-1,0E0,0E0,0E0,0E0,0E0,0E0,0E0,0E0,0E0,0E0,0E0,0E0],"parents":[2147483647,0,0,1,1,2,2,3,3,4,4,5,5,6,6,7,7,9,9,10,10,11,11,12,12,14,14],"right_children":[2,4,6,8,10,12,14,16,-1,18,20,22,24,-1,26,-1,-1,-1,-1,-1,-1,-1,-1,-1,-1,-1,-1],"split_conditions":[4.8334053E-1,2.6074907E-2,6.626178E-1,-1.0389381E-2,4.2038172E-1,4.0110955E0,1.9281427E0,1E0,-3.528105E-2,3.958283E-1,1.601891E0,2.8825636E0,5.6269795E-1,-1.5393754E-2,2E0,-2.3759613E-2,-1.6823432E-3,-8.210144E-3,3.1882405E-2,2.383259E-3,-1.6331911E-2,2.314272E-2,-1.6581666E-2,3.3384163E-2,-6.7481985E-3,3.2743886E-2,1.2374719E-2],"split_indices":[1,1,3,1,3,0,0,5,0,3,0,2,3,0,4,0,0,0,0,0,0,0,0,0,0,0,0],"split_type":[0,0,0,0,0,0,0,0,0,0,0,0,0,0,0,0,0,0,0,0,0,0,0,0,0,0,0],"sum_hessian":[1.5404063E2,7.358662E1,8.045402E1,3.0583412E1,4.3003204E1,3.883865E1,4.1615368E1,7.6744003E0,2.2909012E1,4.035152E0,3.8968052E1,1.8756676E1,2.0081974E1,1.3193337E0,4.0296032E1,5.3387146E0,2.335686E0,1.7540319E0,2.28112E0,1.48723345E1,2.4095716E1,6.083297E0,1.2673379E1,1.4063984E1,6.0179896E0,2.9666508E1,1.0629524E1],"tree_param":{"num_deleted":"0","num_feature":"7","num_nodes":"27","size_leaf_vector":"1"}},{"base_weights":[-6.545279E-3,-2.4481319E-1,1.7233802E-1,-3.9143375E-1,-1.07839376E-1,9.804722E-2,3.266856E-1,-2.1456124E-1,-3.5221353E-2,-2.9696774E-1,-2.3533287E-2,2.3893328E-1,2.3747645E-2,-1.4643373E-2,3.6650798E-1,-2.1869654E-2,-4.1031437E-3,-1.1491074E-2,-3.2267235E-2,2.2667272E-2,-6.9150953E-3,-5.296767E-3,2.8279414E-2,-8.239461E-3,1.4390091E-2,1.1871157E-2,-1.5551424E-2,3.2376397E-2,3.6573138E-3],"categories":[],"categories_nodes":[],"categories_segments":[],"categories_sizes":[],"default_left":[0,0,0,0,0,0,0,0,0,0,0,0,0,0,0,0,0,0,0,0,0,0,0,0,0,0,0,0,0],"id":42,"left_children":[1,3,5,7,9,11,13,15,-1,17,19,21,23,25,27,-1,-1,-1,-1,-1,-1,-1,-1,-1,-1,-1,-1,-1,-1],"loss_changes":[6.3885593E0,1.2484117E0,9.499059E-1,1.7034197E-1,5.447804E-1,6.144193E-1,3.7774968E-1,6.840074E-2,0E0,1.14682496E-1,5.075117E-1,7.34553E-1,8.079591E-1,1.4090565E-1,2.82588E-1,0E0,0E0,0E0,0E0,0E0,0E0,0E0,0E0,0E0,0E0,0E0,0E0,0E0,0E0],"parents":[2147483647,0,0,1,1,2,2,3,3,4,4,5,5,6,6,7,7,9,9,10,10,11,11,12,12,13,13,14,14],"right_children":[2,4,6,8,10,12,14,16,-1,18,20,22,24,26,28,-1,-1,-1,-1,-1,-1,-1,-1,-1,-1,-1,-1,-1,-1],"split_conditions":[4.4297877E-1,2.6074907E-2,5.1632323E0,-1.0389381E-2,3.1945832E0,2.9263823E0,2.9569914E0,1E0,-3.5221353E-2,1.4734599E-1,3.2812872E0,2.8160074E0,7.263284E-1,2.6390574E0,3.7509148E0,-2.1869654E-2,-4.1031437E-3,-1.1491074E-2,-3.2267235E-2,2.2667272E-2,-6.9150953E-3,-5.296767E-3,2.8279414E-2,-8.239461E-3,1.4390091E-2,1.1871157E-2,-1.5551424E-2,3.2376397E-2,3.6573138E-3],"split_indices":[1,1,0,1,2,2,2,5,0,1,2,2,3,2,2,0,0,0,0,0,0,0,0,0,0,0,0,0,0],"split_type":[0,0,0,0,0,0,0,0,0,0,0,0,0,0,0,0,0,0,0,0,0,0,0,0,0,0,0,0,0],"sum_hessian":[1.4789836E2,6.3263916E1,8.463445E1,2.9658697E1,3.3605217E1,5.8238327E1,2.6396124E1,7.5838704E0,2.2074827E1,9.583513E0,2.4021704E1,1.9343529E1,3.88948E1,2.823906E0,2.3572218E1,5.0798254E0,2.5040452E0,4.888046E0,4.695468E0,3.490348E0,2.0531357E1,5.395093E0,1.3948436E1,2.1655653E1,1.7239145E1,1.5722967E0,1.2516093E0,2.0830345E1,2.7418733E0],"tree_param":{"num_deleted":"0","num_feature":"7","num_nodes":"29","size_leaf_vector":"1"}},{"base_weights":[-7.936005E-3,-2.3911546E-1,1.7360492E-1,-3.8757756E-1,-1.0588559E-1,8.0065176E-2,2.9842374E-1,-1.9429615E-1,-3.455199E-2,-3.3555186E-1,-5.1794033E-2,-6.830725E-2,2.2908543E-1,3.3212402E-1,1.5530428E-2,-2.4460626E-4,-1.9807477E-2,-3.4184274E-3,-3.3002295E-2,5.058304E-3,-1.08004175E-2,1.7865673E-2,-1.5899215E-2,2.6395814E-2,-1.4132213E-2,3.0228874E-2,1.2735587E-2,-1.3195023E-2,1.922239E-2],"categories":[],"categories_nodes":[],"categories_segments":[],"categories_sizes":[],"default_left":[0,0,0,0,0,0,0,0,0,0,0,0,0,0,0,0,0,0,0,0,0,0,0,0,0,0,0,0,0],"id":43,"left_children":[1,3,5,7,9,11,13,15,-1,17,19,21,23,25,27,-1,-1,-1,-1,-1,-1,-1,-1,-1,-1,-1,-1,-1,-1],"loss_changes":[6.1222153E0,1.2278483E0,9.3041563E-1,1.7278671E-1,4.1973653E-1,1.0789154E0,3.2515287E-1,7.474315E-2,0E0,1.2944531E-1,2.9242897E-1,9.902749E-1,1.0495269E0,1.8432093E-1,2.3176935E-1,0E0,0E0,0E0,0E0,0E0,0E0,0E0,0E0,0E0,0E0,0E0,0E0,0E0,0E0],"parents":[2147483647,0,0,1,1,2,2,3,3,4,4,5,5,6,6,7,7,9,9,10,10,11,11,12,12,13,13,14,14],"right_children":[2,4,6,8,10,12,14,16,-1,18,20,22,24,26,28,-1,-1,-1,-1,-1,-1,-1,-1,-1,-1,-1,-1,-1,-1],"split_conditions":[4.4297877E-1,2.6074907E-2,6.035546E-1,-1.3841515E-2,2.9150643E0,6.879918E-1,3.7509148E0,1E0,-3.455199E-2,2.4630017E0,1.601891E0,2.8825636E0,5.2229357E-1,7.978566E-1,6.5231385E0,-2.4460626E-4,-1.9807477E-2,-3.4184274E-3,-3.3002295E-2,5.058304E-3,-1.08004175E-2,1.7865673E-2,-1.5899215E-2,2.6395814E-2,-1.4132213E-2,3.0228874E-2,1.2735587E-2,-1.3195023E-2,1.922239E-2],"split_indices":[1,1,1,1,2,3,2,4,0,2,0,2,1,1,0,0,0,0,0,0,0,0,0,0,0,0,0,0,0],"split_type":[0,0,0,0,0,0,0,0,0,0,0,0,0,0,0,0,0,0,0,0,0,0,0,0,0,0,0,0,0],"sum_hessian":[1.4388722E2,6.3151337E1,8.073588E1,2.8965315E1,3.418602E1,4.708879E1,3.3647087E1,6.4074254E0,2.255789E1,5.524833E0,2.8661188E1,2.3867086E1,2.3221704E1,2.9909971E1,3.7371175E0,1.6269737E0,4.780452E0,1.4737531E0,4.05108E0,1.2131691E1,1.6529497E1,7.155755E0,1.671133E1,1.8747955E1,4.473748E0,2.2716715E1,7.1932564E0,2.220354E0,1.5167634E0],"tree_param":{"num_deleted":"0","num_feature":"7","num_nodes":"29","size_leaf_vector":"1"}},{"base_weights":[-1.0541305E-2,-3.4228653E-1,1.0308867E-1,1.886647E-3,-3.5337305E-1,-3.195292E-2,1.9763988E-1,-3.627103E-1,-1.975421E-3,2.0926537E-1,-7.902145E-2,2.6293343E-1,1.7063659E-2,-1.6729062E-2,-3.1449903E-2,5.051878E-3,2.0474983E-2,2.8548097E-2,-8.246272E-3,2.2682907E-2,-1.7939074E-2,1.8867219E-2,-8.899354E-3],"categories":[],"categories_nodes":[],"categories_segments":[],"categories_sizes":[],"default_left":[0,0,0,0,0,0,0,0,0,0,0,0,0,0,0,0,0,0,0,0,0,0,0],"id":44,"left_children":[1,3,5,-1,7,9,11,13,-1,15,17,19,21,-1,-1,-1,-1,-1,-1,-1,-1,-1,-1],"loss_changes":[5.5123935E0,1.596365E-1,1.3979977E0,0E0,1.0234451E-1,5.359403E-1,7.530215E-1,8.218908E-2,0E0,3.6643416E-2,4.457698E-1,5.364952E-1,5.3517926E-1,0E0,0E0,0E0,0E0,0E0,0E0,0E0,0E0,0E0,0E0],"parents":[2147483647,0,0,1,1,2,2,4,4,5,5,6,6,7,7,9,9,10,10,11,11,12,12],"right_children":[2,4,6,-1,8,10,12,14,-1,16,18,20,22,-1,-1,-1,-1,-1,-1,-1,-1,-1,-1],"split_conditions":[7.373738E-2,4.0343413E-1,4.9881697E-1,1.886647E-3,4.3605475E0,1.601891E0,3.5192766E0,-1.0389381E-2,-1.975421E-3,1.1678106E-1,2.3035846E0,4E0,5.112474E-1,-1.6729062E-2,-3.1449903E-2,5.051878E-3,2.0474983E-2,2.8548097E-2,-8.246272E-3,2.2682907E-2,-1.7939074E-2,1.8867219E-2,-8.899354E-3],"split_indices":[1,3,1,0,2,0,2,1,0,1,2,4,1,0,0,0,0,0,0,0,0,0,0],"split_type":[0,0,0,0,0,0,0,0,0,0,0,0,0,0,0,0,0,0,0,0,0,0,0],"sum_hessian":[1.4429602E2,3.6301292E1,1.0799472E2,1.0344925E0,3.52668E1,4.474718E1,6.3247543E1,3.4191933E1,1.0748683E0,6.743239E0,3.800394E1,4.6116467E1,1.7131075E1,6.952993E0,2.723894E1,2.2021012E0,4.5411377E0,1.2642468E0,3.6739697E1,4.464633E1,1.4701352E0,6.023006E0,1.1108068E1],"tree_param":{"num_deleted":"0","num_feature":"7","num_nodes":"23","size_leaf_vector":"1"}}]},"name":"gbtree"},"learner_model_param":{"base_score":"[-1.922743E-9]","boost_from_average":"1","num_class":"0","num_feature":"7","num_target":"1"},"objective":{"lambdarank_param":{"lambdarank_bias_norm":"1","lambdarank_normalization":"1","lambdarank_num_pair_per_sample":"4294967295","lambdarank_pair_method":"topk","lambdarank_score_normalization":"1","lambdarank_unbiased":"0","ndcg_exp_gain":"1"},"name":"rank:ndcg"}},"version":[3,2,0]}