{"learner":{"attributes":{"scikit_learn":"{\"_estimator_type\": \"ranker\"}"},"feature_names":["bm25_score","dense_score","price_log","quality","first_observed_age","zero_history","sparse_history"],"feature_types":["float","float","float","float","int","int","int"],"gradient_booster":{"model":{"cats":{"enc":[],"feature_segments":[],"sorted_idx":[]},"gbtree_model_param":{"num_parallel_tree":"1","num_trees":"45"},"iteration_indptr":[0,1,2,3,4,5,6,7,8,9,10,11,12,13,14,15,16,17,18,19,20,21,22,23,24,25,26,27,28,29,30,31,32,33,34,35,36,37,38,39,40,41,42,43,44,45],"tree_info":[0,0,0,0,0,0,0,0,0,0,0,0,0,0,0,0,0,0,0,0,0,0,0,0,0,0,0,0,0,0,0,0,0,0,0,0,0,0,0,0,0,0,0,0,0],"trees":[{"base_weights":[5.948315E-3,-8.453324E-1,7.828976E-1,-4.8706916E-1,-8.977356E-1,3.4019408E-1,8.879373E-1,-6.9236124E-1,2.9914854E-3,-5.333218E-1,-7.343835E-2,1.2343291E-2,3.9683512E-1,5.625087E-1,7.2803654E-2,-6.2020462E-2,-1.9571183E-2,2.375196E-2,-3.4191843E-2,-4.6925683E-2,-1.1030139E-2,-6.63628E-3,9.618282E-3,1.9810038E-2,4.0939245E-2,5.307857E-2,9.644909E-3],"categories":[],"categories_nodes":[],"categories_segments":[],"categories_sizes":[],"default_left":[0,0,0,0,0,0,0,0,0,0,0,0,0,0,0,0,0,0,0,0,0,0,0,0,0,0,0],"id":0,"left_children":[1,3,5,7,9,11,13,15,17,19,-1,21,23,25,-1,-1,-1,-1,-1,-1,-1,-1,-1,-1,-1,-1,-1],"loss_changes":[1.1318593E2,1.0958786E0,3.8582916E0,1.270365E0,2.7233124E-2,3.4380722E-1,3.8757324E-3,1.4024496E-1,7.236465E-1,4.701352E-2,0E0,4.9024936E-2,1.472516E-1,2.4037361E-1,0E0,0E0,0E0,0E0,0E0,0E0,0E0,0E0,0E0,0E0,0E0,0E0,0E0],"parents":[2147483647,0,0,1,1,2,2,3,3,4,4,5,5,6,6,7,7,8,8,9,9,11,11,12,12,13,13],"right_children":[2,4,6,8,10,12,14,16,18,20,-1,22,24,26,-1,-1,-1,-1,-1,-1,-1,-1,-1,-1,-1,-1,-1],"split_conditions":[3.2021362E-2,4.9795407E-1,2.8557742E-1,4.8113027E-1,-1.2976565E-2,1.06735505E-1,4.041169E-1,3.7067194E0,-2.5397524E-6,1E0,-7.343835E-2,7.221852E-1,1E0,2.2145452E0,7.2803654E-2,-6.2020462E-2,-1.9571183E-2,2.375196E-2,-3.4191843E-2,-4.6925683E-2,-1.1030139E-2,-6.63628E-3,9.618282E-3,1.9810038E-2,4.0939245E-2,5.307857E-2,9.644909E-3],"split_indices":[1,3,1,3,1,1,1,2,1,6,0,3,6,0,0,0,0,0,0,0,0,0,0,0,0,0,0],"split_type":[0,0,0,0,0,0,0,0,0,0,0,0,0,0,0,0,0,0,0,0,0,0,0,0,0,0,0],"sum_hessian":[1.6912971E2,8.066233E1,8.8467384E1,1.160659E1,6.905574E1,1.7778078E1,7.068931E1,7.8889923E0,3.717598E0,5.0733776E0,6.398236E1,2.7983766E0,1.4979701E1,6.179033E0,6.451027E1,6.039276E0,1.8497162E0,2.3933606E0,1.3242372E0,4.045329E0,1.0280483E0,1.6085836E0,1.1897931E0,7.889668E0,7.090033E0,4.621802E0,1.5572307E0],"tree_param":{"num_deleted":"0","num_feature":"7","num_nodes":"27","size_leaf_vector":"1"}},{"base_weights":[8.867947E-3,-7.2600377E-1,5.1696706E-1,-8.377221E-1,-4.4201574E-1,3.5106316E-1,6.958536E-1,-2.848103E-1,-6.835919E-2,-5.188456E-1,-1.898731E-1,3.7622097E-1,-3.2975185E-1,-3.4894752E-3,7.0491976E-1,-4.507007E-2,1.105501E-2,-1.4133322E-2,-4.987781E-2,3.7616594E-3,-3.613633E-2,-1.964503E-3,3.4116343E-2,-3.7155088E-2,1.3153475E-3,5.1740237E-2,6.9029234E-2],"categories":[],"categories_nodes":[],"categories_segments":[],"categories_sizes":[],"default_left":[0,0,0,0,0,0,0,0,0,0,0,0,0,0,0,0,0,0,0,0,0,0,0,0,0,0,0],"id":1,"left_children":[1,3,5,7,9,11,13,15,-1,17,19,21,23,-1,25,-1,-1,-1,-1,-1,-1,-1,-1,-1,-1,-1,-1],"loss_changes":[1.3451349E2,4.3020325E0,6.076481E0,7.2613525E-1,7.47942E-1,2.0512342E0,7.109566E-1,6.1728E-1,0E0,1.0681696E0,7.5202155E-1,2.2043877E0,2.1944425E-1,0E0,3.6332703E-1,0E0,0E0,0E0,0E0,0E0,0E0,0E0,0E0,0E0,0E0,0E0,0E0],"parents":[2147483647,0,0,1,1,2,2,3,3,4,4,5,5,6,6,7,7,9,9,10,10,11,11,12,12,14,14],"right_children":[2,4,6,8,10,12,14,16,-1,18,20,22,24,-1,26,-1,-1,-1,-1,-1,-1,-1,-1,-1,-1,-1,-1],"split_conditions":[3.5179722E-1,3.2021362E-2,5.474929E-1,-3.1975307E-2,2.8557742E-1,4.0342684E0,2.003573E0,1E0,-6.835919E-2,1.5800298E0,2.1096277E0,2.931727E0,2E0,-3.4894752E-3,5.8135834E0,-4.507007E-2,1.105501E-2,-1.4133322E-2,-4.987781E-2,3.7616594E-3,-3.613633E-2,-1.964503E-3,3.4116343E-2,-3.7155088E-2,1.3153475E-3,5.1740237E-2,6.9029234E-2],"split_indices":[1,1,1,1,1,0,0,6,0,0,0,2,4,0,0,0,0,0,0,0,0,0,0,0,0,0,0],"split_type":[0,0,0,0,0,0,0,0,0,0,0,0,0,0,0,0,0,0,0,0,0,0,0,0,0,0,0],"sum_hessian":[3.5824637E2,1.4626791E2,2.1197844E2,1.0357327E2,4.2694645E1,1.11517136E2,1.0046131E2,3.5779202E0,9.999535E1,3.1912807E1,1.07818365E1,1.07974594E2,3.5425353E0,1.1706045E0,9.929071E1,1.9571639E0,1.6207561E0,8.102472E0,2.3810335E1,6.0911937E0,4.6906433E0,1.2083079E1,9.589152E1,2.3044364E0,1.2380989E0,7.6290085E1,2.3000624E1],"tree_param":{"num_deleted":"0","num_feature":"7","num_nodes":"27","size_leaf_vector":"1"}},{"base_weights":[-8.934225E-3,-6.8681264E-1,4.1428608E-1,-7.951647E-1,-2.7052128E-1,2.3685253E-1,5.699002E-1,-3.0339834E-1,-8.154222E-1,-4.5326653E-1,-6.1515525E-2,4.845232E-1,6.124535E-2,4.1736844E-1,7.092292E-1,-4.5585122E-2,7.3214546E-3,-2.583681E-2,-6.613477E-2,-4.1315112E-2,1.1954143E-2,-1.6766159E-2,7.026258E-3,-9.550007E-3,4.048525E-2,3.8973168E-2,2.5456115E-3,2.6936527E-2,5.8571536E-2,5.962931E-2,2.7610635E-2],"categories":[],"categories_nodes":[],"categories_segments":[],"categories_sizes":[],"default_left":[0,0,0,0,0,0,0,0,0,0,0,0,0,0,0,0,0,0,0,0,0,0,0,0,0,0,0,0,0,0,0],"id":2,"left_children":[1,3,5,7,9,11,13,15,17,19,21,23,25,27,29,-1,-1,-1,-1,-1,-1,-1,-1,-1,-1,-1,-1,-1,-1,-1,-1],"loss_changes":[9.478735E1,5.512722E0,5.4815826E0,7.5123596E-1,1.0316947E0,4.1785083E0,1.991993E0,6.3697726E-1,2.6372147E-1,6.3469934E-1,3.3014083E-1,5.807495E-1,7.0837915E-1,1.1201239E0,4.6424103E-1,0E0,0E0,0E0,0E0,0E0,0E0,0E0,0E0,0E0,0E0,0E0,0E0,0E0,0E0,0E0,0E0],"parents":[2147483647,0,0,1,1,2,2,3,3,4,4,5,5,6,6,7,7,8,8,9,9,10,10,11,11,12,12,13,13,14,14],"right_children":[2,4,6,8,10,12,14,16,18,20,22,24,26,28,30,-1,-1,-1,-1,-1,-1,-1,-1,-1,-1,-1,-1,-1,-1,-1,-1],"split_conditions":[2.8557742E-1,3.2021362E-2,5.474929E-1,-3.1975307E-2,1E0,5.751367E-1,6.630135E-1,1E0,4.0408683E-1,9.49999E-1,1.8842018E-1,3.1117913E-1,1.6344416E0,5.8135834E0,8.6421895E-1,-4.5585122E-2,7.3214546E-3,-2.583681E-2,-6.613477E-2,-4.1315112E-2,1.1954143E-2,-1.6766159E-2,7.026258E-3,-9.550007E-3,4.048525E-2,3.8973168E-2,2.5456115E-3,2.6936527E-2,5.8571536E-2,5.962931E-2,2.7610635E-2],"split_indices":[1,1,1,1,6,3,3,6,3,3,1,3,0,0,3,0,0,0,0,0,0,0,0,0,0,0,0,0,0,0,0],"split_type":[0,0,0,0,0,0,0,0,0,0,0,0,0,0,0,0,0,0,0,0,0,0,0,0,0,0,0,0,0,0,0],"sum_hessian":[3.2840216E2,1.2598586E2,2.0241629E2,9.924445E1,2.6741404E1,9.575597E1,1.06660324E2,4.5585785E0,9.4685875E1,1.364348E1,1.3097924E1,3.8996887E1,5.675908E1,5.282509E1,5.383524E1,2.4577067E0,2.1008718E0,2.7805364E0,9.190534E1,1.2478625E1,1.1648543E0,6.3746696E0,6.723255E0,1.1867732E0,3.7810112E1,2.662617E0,5.4096462E1,4.3697258E1,9.127828E0,4.8021812E1,5.813424E0],"tree_param":{"num_deleted":"0","num_feature":"7","num_nodes":"31","size_leaf_vector":"1"}},{"base_weights":[6.2983828E-3,-6.6841674E-1,4.1859603E-1,-7.6316047E-1,-2.845878E-1,2.778418E-1,5.2194315E-1,-5.1219547E-1,-7.995384E-1,-4.5437914E-1,-1.0922093E-1,4.297659E-1,4.4557426E-2,1.8708281E-1,5.619723E-1,-5.1982336E-2,3.462766E-3,-2.8515564E-2,-6.477591E-2,-1.2966977E-2,-3.9598104E-2,3.0893486E-3,-1.6484434E-2,1.4927064E-3,4.2281035E-2,-2.383502E-2,1.2930155E-2,3.701562E-2,-3.022191E-2,3.7844695E-2,5.332685E-2],"categories":[],"categories_nodes":[],"categories_segments":[],"categories_sizes":[],"default_left":[0,0,0,0,0,0,0,0,0,0,0,0,0,0,0,0,0,0,0,0,0,0,0,0,0,0,0,0,0,0,0],"id":3,"left_children":[1,3,5,7,9,11,13,15,17,19,21,23,25,27,29,-1,-1,-1,-1,-1,-1,-1,-1,-1,-1,-1,-1,-1,-1,-1,-1],"loss_changes":[8.9184296E1,4.2049675E0,2.7495384E0,4.7545242E-1,7.1467686E-1,3.042449E0,1.4176044E0,1.1786716E0,8.451843E-2,7.077122E-2,2.0756891E-1,2.1091976E0,1.4589326E0,2.296569E0,6.2386894E-1,0E0,0E0,0E0,0E0,0E0,0E0,0E0,0E0,0E0,0E0,0E0,0E0,0E0,0E0,0E0,0E0],"parents":[2147483647,0,0,1,1,2,2,3,3,4,4,5,5,6,6,7,7,8,8,9,9,10,10,11,11,12,12,13,13,14,14],"right_children":[2,4,6,8,10,12,14,16,18,20,22,24,26,28,30,-1,-1,-1,-1,-1,-1,-1,-1,-1,-1,-1,-1,-1,-1,-1,-1],"split_conditions":[2.8557742E-1,3.2021362E-2,5.2635413E-1,4.9795407E-1,1E0,5.751367E-1,4.9795407E-1,4.855597E-1,-3.708147E-2,5.515839E-1,6.124565E-1,3.1809661E0,3.3375473E0,4.7536227E-1,7.334524E-1,-5.1982336E-2,3.462766E-3,-2.8515564E-2,-6.477591E-2,-1.2966977E-2,-3.9598104E-2,3.0893486E-3,-1.6484434E-2,1.4927064E-3,4.2281035E-2,-2.383502E-2,1.2930155E-2,3.701562E-2,-3.022191E-2,3.7844695E-2,5.332685E-2],"split_indices":[1,1,1,3,6,3,3,3,1,3,3,2,2,3,3,0,0,0,0,0,0,0,0,0,0,0,0,0,0,0,0],"split_type":[0,0,0,0,0,0,0,0,0,0,0,0,0,0,0,0,0,0,0,0,0,0,0,0,0,0,0,0,0,0,0],"sum_hessian":[3.1858945E2,1.20603516E2,1.9798595E2,9.593484E1,2.4668678E1,8.538447E1,1.1260148E2,1.4054573E1,8.1880264E1,1.1725224E1,1.2943456E1,5.1199234E1,3.418523E1,1.26289425E1,9.9972534E1,1.1128465E1,2.9261081E0,2.6443114E0,7.9235954E1,2.0388036E0,9.6864195E0,5.360602E0,7.582854E0,1.0146391E1,4.1052845E1,8.31478E0,2.587045E1,8.609125E0,4.019817E0,5.702633E1,4.2946205E1],"tree_param":{"num_deleted":"0","num_feature":"7","num_nodes":"31","size_leaf_vector":"1"}},{"base_weights":[2.4500163E-3,-6.6237515E-1,3.3872443E-1,-4.2346567E-1,-5.5959787E-2,1.9197911E-1,5.0245994E-1,-5.283322E-1,-7.915678E-3,3.7489942E-1,4.1529685E-4,5.8840674E-1,3.5364768E-1,-4.6985526E-2,-1.1572754E-2,-1.202469E-2,1.5772766E-2,3.433486E-2,-2.8217353E-2,-2.6323445E-2,7.7835354E-3,4.828811E-2,3.7499263E-3,2.0183723E-2,4.632996E-2],"categories":[],"categories_nodes":[],"categories_segments":[],"categories_sizes":[],"default_left":[0,0,0,0,0,0,0,0,0,0,0,0,0,0,0,0,0,0,0,0,0,0,0,0,0],"id":4,"left_children":[1,3,5,7,-1,9,11,13,15,17,19,21,23,-1,-1,-1,-1,-1,-1,-1,-1,-1,-1,-1,-1],"loss_changes":[6.894927E1,6.225815E-1,4.82456E0,7.133827E-1,0E0,3.8412561E0,1.0220757E0,2.1226478E-1,1.5617235E-1,2.3664117E0,1.7730914E0,4.609909E-1,7.158637E-1,0E0,0E0,0E0,0E0,0E0,0E0,0E0,0E0,0E0,0E0,0E0,0E0],"parents":[2147483647,0,0,1,1,2,2,3,3,5,5,6,6,7,7,8,8,9,9,10,10,11,11,12,12],"right_children":[2,4,6,8,-1,10,12,14,16,18,20,22,24,-1,-1,-1,-1,-1,-1,-1,-1,-1,-1,-1,-1],"split_conditions":[1.6336694E0,4.9795407E-1,3.7884562E0,4.8204476E-1,-5.5959787E-2,5.751367E-1,2E0,3E0,2.9770591E0,2.179609E0,3.3375473E0,8.6421895E-1,7.74314E-1,-4.6985526E-2,-1.1572754E-2,-1.202469E-2,1.5772766E-2,3.433486E-2,-2.8217353E-2,-2.6323445E-2,7.7835354E-3,4.828811E-2,3.7499263E-3,2.0183723E-2,4.632996E-2],"split_indices":[0,3,0,3,0,3,4,4,2,0,2,3,3,0,0,0,0,0,0,0,0,0,0,0,0],"split_type":[0,0,0,0,0,0,0,0,0,0,0,0,0,0,0,0,0,0,0,0,0,0,0,0,0],"sum_hessian":[3.064064E2,1.0259772E2,2.0380869E2,1.5466485E1,8.7131226E1,1.0862647E2,9.518221E1,1.2133196E1,3.3332896E0,5.507728E1,5.3549194E1,5.846287E1,3.671934E1,1.0056328E1,2.076868E0,2.124919E0,1.2083706E0,5.1635017E1,3.4422612E0,1.1623714E1,4.192548E1,5.6755768E1,1.7071034E0,2.6794323E1,9.925017E0],"tree_param":{"num_deleted":"0","num_feature":"7","num_nodes":"25","size_leaf_vector":"1"}},{"base_weights":[7.6780086E-3,-6.1664623E-1,3.9923853E-1,-7.03494E-1,-2.7952728E-1,2.6809117E-1,5.2046674E-1,-2.6181358E-1,-5.7878856E-2,-4.7001485E-2,-3.7126824E-1,3.4519214E-2,3.112642E-1,-2.3449749E-2,5.452496E-1,-3.7588224E-2,5.2370084E-3,-1.5183657E-2,2.5028188E-2,3.5043012E-3,-3.2720584E-2,1.1205816E-2,-4.4995792E-2,-1.8581143E-3,2.7135309E-2,3.9555192E-2,5.4678347E-2],"categories":[],"categories_nodes":[],"categories_segments":[],"categories_sizes":[],"default_left":[0,0,0,0,0,0,0,0,0,0,0,0,0,0,0,0,0,0,0,0,0,0,0,0,0,0,0],"id":5,"left_children":[1,3,5,7,9,11,13,15,-1,17,19,21,23,-1,25,-1,-1,-1,-1,-1,-1,-1,-1,-1,-1,-1,-1],"loss_changes":[7.357631E1,3.1999435E0,2.8010292E0,6.1930084E-1,5.248934E-1,9.059439E-1,2.0763245E0,4.074868E-1,0E0,4.8781636E-1,3.0122304E-1,1.0432577E0,7.2342014E-1,0E0,3.1235886E-1,0E0,0E0,0E0,0E0,0E0,0E0,0E0,0E0,0E0,0E0,0E0,0E0],"parents":[2147483647,0,0,1,1,2,2,3,3,4,4,5,5,6,6,7,7,9,9,10,10,11,11,12,12,14,14],"right_children":[2,4,6,8,10,12,14,16,-1,18,20,22,24,-1,26,-1,-1,-1,-1,-1,-1,-1,-1,-1,-1,-1,-1],"split_conditions":[2.8557742E-1,3.2021362E-2,3.7884562E0,-3.1975307E-2,1.5800298E0,3.277522E0,4.602388E-1,1E0,-5.7878856E-2,1.06735505E-1,1.3447645E-1,2.179609E0,3.5179722E-1,-2.3449749E-2,5.8135834E0,-3.7588224E-2,5.2370084E-3,-1.5183657E-2,2.5028188E-2,3.5043012E-3,-3.2720584E-2,1.1205816E-2,-4.4995792E-2,-1.8581143E-3,2.7135309E-2,3.9555192E-2,5.4678347E-2],"split_indices":[1,1,0,1,0,2,1,6,0,1,1,0,1,0,0,0,0,0,0,0,0,0,0,0,0,0,0],"split_type":[0,0,0,0,0,0,0,0,0,0,0,0,0,0,0,0,0,0,0,0,0,0,0,0,0,0,0],"sum_hessian":[2.9896692E2,1.1501162E2,1.8395529E2,9.058782E1,2.4423792E1,8.990524E1,9.405004E1,4.5331116E0,8.605471E1,7.3378E0,1.7085993E1,1.4306217E1,7.559903E1,2.4601178E0,9.158993E1,2.5050704E0,2.0280411E0,5.591573E0,1.7462268E0,1.4106202E0,1.5675372E1,1.28070755E1,1.4991417E0,5.8384814E0,6.9760544E1,7.031931E1,2.127061E1],"tree_param":{"num_deleted":"0","num_feature":"7","num_nodes":"27","size_leaf_vector":"1"}},{"base_weights":[1.2216621E-5,-5.988735E-1,3.6996573E-1,-6.863307E-1,-2.617341E-1,2.6530334E-1,4.701626E-1,-4.5037228E-1,-7.231972E-1,-3.8399526E-1,-1.1906215E-1,3.4763357E-1,1.1502911E-1,-1.6532306E-2,4.873517E-1,-4.4816595E-2,-2.5774399E-3,-2.090801E-2,-5.8826532E-2,-3.405591E-2,2.542475E-3,-1.5399801E-2,8.998924E-3,3.448015E-2,1.6288752E-2,2.6977074E-3,3.1790197E-2,3.005999E-2,4.7553334E-2],"categories":[],"categories_nodes":[],"categories_segments":[],"categories_sizes":[],"default_left":[0,0,0,0,0,0,0,0,0,0,0,0,0,0,0,0,0,0,0,0,0,0,0,0,0,0,0,0,0],"id":6,"left_children":[1,3,5,7,9,11,13,15,17,19,21,23,25,-1,27,-1,-1,-1,-1,-1,-1,-1,-1,-1,-1,-1,-1,-1,-1],"loss_changes":[6.501554E1,3.12426E0,1.7774963E0,4.428978E-1,3.850708E-1,1.0860481E0,1.1637897E0,6.5205026E-1,2.2682953E-1,2.3634493E-1,2.40092E-1,6.1231756E-1,7.604594E-1,0E0,8.4500504E-1,0E0,0E0,0E0,0E0,0E0,0E0,0E0,0E0,0E0,0E0,0E0,0E0,0E0,0E0],"parents":[2147483647,0,0,1,1,2,2,3,3,4,4,5,5,6,6,7,7,8,8,9,9,10,10,11,11,12,12,14,14],"right_children":[2,4,6,8,10,12,14,16,18,20,22,24,26,-1,28,-1,-1,-1,-1,-1,-1,-1,-1,-1,-1,-1,-1,-1,-1],"split_conditions":[2.8557742E-1,3.2021362E-2,3.7884562E0,4.9795407E-1,1E0,6.124565E-1,4.602388E-1,4.855597E-1,-3.708147E-2,9.0231794E-1,2E0,2.0188787E0,5.289299E-1,-1.6532306E-2,6.861885E-1,-4.4816595E-2,-2.5774399E-3,-2.090801E-2,-5.8826532E-2,-3.405591E-2,2.542475E-3,-1.5399801E-2,8.998924E-3,3.448015E-2,1.6288752E-2,2.6977074E-3,3.1790197E-2,3.005999E-2,4.7553334E-2],"split_indices":[1,1,0,3,6,3,1,3,1,3,4,0,1,0,3,0,0,0,0,0,0,0,0,0,0,0,0,0,0],"split_type":[0,0,0,0,0,0,0,0,0,0,0,0,0,0,0,0,0,0,0,0,0,0,0,0,0,0,0,0,0],"sum_hessian":[2.9144455E2,1.1105249E2,1.8039204E2,8.735581E1,2.3696682E1,9.001409E1,9.037795E1,1.3590192E1,7.376562E1,1.185027E1,1.1846412E1,5.730518E1,3.2708916E1,1.9654738E0,8.841248E1,1.0494042E1,3.096149E0,2.465477E0,7.130014E1,1.0748316E1,1.1019548E0,9.1220255E0,2.7243862E0,3.5033493E1,2.2271685E1,2.6264864E1,6.444052E0,4.5497063E1,4.291542E1],"tree_param":{"num_deleted":"0","num_feature":"7","num_nodes":"29","size_leaf_vector":"1"}},{"base_weights":[1.808562E-3,-5.83973E-1,3.5985675E-1,-6.663547E-1,-2.546687E-1,2.3652682E-1,4.7025555E-1,-2.7369252E-1,-6.831874E-1,1.060021E-2,-3.0525154E-1,3.4106323E-1,5.8304787E-2,-1.52328545E-2,4.901108E-1,-3.5612628E-2,1.491097E-3,-3.840279E-2,-5.707617E-2,1.5166847E-2,-1.0167324E-2,-2.6947409E-2,7.762E-3,4.5184072E-2,1.9787192E-2,-3.771385E-3,2.9394848E-2,2.9355079E-2,4.829812E-2],"categories":[],"categories_nodes":[],"categories_segments":[],"categories_sizes":[],"default_left":[0,0,0,0,0,0,0,0,0,0,0,0,0,0,0,0,0,0,0,0,0,0,0,0,0,0,0,0,0],"id":7,"left_children":[1,3,5,7,9,11,13,15,17,19,21,23,25,-1,27,-1,-1,-1,-1,-1,-1,-1,-1,-1,-1,-1,-1,-1,-1],"loss_changes":[5.9716854E1,2.7605247E0,2.2947235E0,3.7997818E-1,3.1497312E-1,1.5726161E0,1.3031654E0,2.6866558E-1,1.5913391E-1,1.3960725E-1,2.8107464E-1,9.857316E-1,1.0867416E0,0E0,1.0354195E0,0E0,0E0,0E0,0E0,0E0,0E0,0E0,0E0,0E0,0E0,0E0,0E0,0E0,0E0],"parents":[2147483647,0,0,1,1,2,2,3,3,4,4,5,5,6,6,7,7,8,8,9,9,10,10,11,11,12,12,14,14],"right_children":[2,4,6,8,10,12,14,16,18,20,22,24,26,-1,28,-1,-1,-1,-1,-1,-1,-1,-1,-1,-1,-1,-1,-1,-1],"split_conditions":[2.8557742E-1,3.2021362E-2,3.7884562E0,-3.1975307E-2,4.8983476E-1,6.124565E-1,4.602388E-1,1E0,4.9795407E-1,1.5800298E0,9.8E-1,1.9258189E0,5.289299E-1,-1.52328545E-2,6.939398E-1,-3.5612628E-2,1.491097E-3,-3.840279E-2,-5.707617E-2,1.5166847E-2,-1.0167324E-2,-2.6947409E-2,7.762E-3,4.5184072E-2,1.9787192E-2,-3.771385E-3,2.9394848E-2,2.9355079E-2,4.829812E-2],"split_indices":[1,1,0,1,3,3,1,6,3,0,3,0,1,0,3,0,0,0,0,0,0,0,0,0,0,0,0,0,0],"split_type":[0,0,0,0,0,0,0,0,0,0,0,0,0,0,0,0,0,0,0,0,0,0,0,0,0,0,0,0,0],"sum_hessian":[2.827192E2,1.0701208E2,1.7570714E2,8.477938E1,2.2232689E1,8.447735E1,9.12298E1,4.194417E0,8.058497E1,3.6870925E0,1.8545597E1,5.2669987E1,3.1807362E1,2.4111457E0,8.881865E1,2.3142312E0,1.8801858E0,1.2634813E1,6.795016E1,1.4392844E0,2.2478082E0,1.7346056E1,1.1995406E0,1.4065753E1,3.8604233E1,2.4349161E1,7.4582014E0,4.4646454E1,4.4172195E1],"tree_param":{"num_deleted":"0","num_feature":"7","num_nodes":"29","size_leaf_vector":"1"}},{"base_weights":[-7.3615424E-3,-5.667621E-1,3.4472835E-1,-6.5670943E-1,-2.2433427E-1,-3.875555E-2,3.6704063E-1,-4.4943908E-1,-5.5056002E-2,-5.064836E-2,-2.9700658E-1,1.5358736E-1,-3.4575275E-1,3.3452377E-1,4.7339067E-2,-4.373926E-2,-2.2127803E-3,-2.0509018E-2,2.8323893E-2,3.558806E-3,-2.6657967E-2,1.9950985E-3,2.0769497E-2,-4.3913308E-3,-3.4976337E-2,2.3756897E-2,3.9116517E-2],"categories":[],"categories_nodes":[],"categories_segments":[],"categories_sizes":[],"default_left":[0,0,0,0,0,0,0,0,0,0,0,0,0,0,0,0,0,0,0,0,0,0,0,0,0,0,0],"id":8,"left_children":[1,3,5,7,9,11,13,15,-1,17,19,21,23,25,-1,-1,-1,-1,-1,-1,-1,-1,-1,-1,-1,-1,-1],"loss_changes":[5.4399635E1,3.138607E0,1.464714E0,2.387886E-1,2.8425968E-1,6.569022E-1,9.732437E-1,5.5769444E-1,0E0,7.7346826E-1,2.1904695E-1,8.872555E-2,8.89529E-2,6.804495E-1,0E0,0E0,0E0,0E0,0E0,0E0,0E0,0E0,0E0,0E0,0E0,0E0,0E0],"parents":[2147483647,0,0,1,1,2,2,3,3,4,4,5,5,6,6,7,7,9,9,10,10,11,11,12,12,13,13],"right_children":[2,4,6,8,10,12,14,16,-1,18,20,22,24,26,-1,-1,-1,-1,-1,-1,-1,-1,-1,-1,-1,-1,-1],"split_conditions":[2.8557742E-1,3.2021362E-2,3.5179722E-1,4.9795407E-1,1.5800298E0,2.1547868E0,5.8135834E0,4.855597E-1,-5.5056002E-2,1.06735505E-1,1.3447645E-1,1E0,5.65132E-1,7.74314E-1,4.7339067E-2,-4.373926E-2,-2.2127803E-3,-2.0509018E-2,2.8323893E-2,3.558806E-3,-2.6657967E-2,1.9950985E-3,2.0769497E-2,-4.3913308E-3,-3.4976337E-2,2.3756897E-2,3.9116517E-2],"split_indices":[1,1,1,3,0,0,0,3,0,1,1,5,3,3,0,0,0,0,0,0,0,0,0,0,0,0,0],"split_type":[0,0,0,0,0,0,0,0,0,0,0,0,0,0,0,0,0,0,0,0,0,0,0,0,0,0,0],"sum_hessian":[2.742054E2,1.0568436E2,1.6852104E2,8.297188E1,2.271248E1,9.225434E0,1.5929561E2,1.2957579E1,7.00143E1,7.2004447E0,1.5512035E1,5.979076E0,3.2463586E0,1.4133173E2,1.796389E1,1.0287945E1,2.6696332E0,5.0168343E0,2.1836104E0,1.4655389E0,1.4046496E1,3.2595012E0,2.7195745E0,1.1593325E0,2.0870261E0,1.1603222E2,2.5299503E1],"tree_param":{"num_deleted":"0","num_feature":"7","num_nodes":"27","size_leaf_vector":"1"}},{"base_weights":[9.661501E-3,-5.7488424E-1,2.9147142E-1,-3.5584784E-1,-4.991419E-2,1.5502016E-1,4.4076908E-1,-4.6330664E-1,-1.8091081E-1,3.0423078E-1,-3.1693924E-2,3.6533508E-1,6.0475016E-1,-4.121397E-2,-9.027983E-3,-2.2042358E-2,1.7489908E-2,-1.6899868E-3,3.068268E-2,-1.4548413E-2,1.489662E-2,4.2573843E-2,2.2358397E-2,5.1860973E-2,1.1105869E-2],"categories":[],"categories_nodes":[],"categories_segments":[],"categories_sizes":[],"default_left":[0,0,0,0,0,0,0,0,0,0,0,0,0,0,0,0,0,0,0,0,0,0,0,0,0],"id":9,"left_children":[1,3,5,7,-1,9,11,13,15,17,19,21,23,-1,-1,-1,-1,-1,-1,-1,-1,-1,-1,-1,-1],"loss_changes":[4.5701794E1,7.474575E-1,3.7445993E0,2.7030683E-1,0E0,2.7770307E0,8.779106E-1,1.4234138E-1,3.9324465E-1,1.4350772E0,1.5071715E0,7.58975E-1,4.4651031E-1,0E0,0E0,0E0,0E0,0E0,0E0,0E0,0E0,0E0,0E0,0E0,0E0],"parents":[2147483647,0,0,1,1,2,2,3,3,5,5,6,6,7,7,8,8,9,9,10,10,11,11,12,12],"right_children":[2,4,6,8,-1,10,12,14,16,18,20,22,24,-1,-1,-1,-1,-1,-1,-1,-1,-1,-1,-1,-1],"split_conditions":[1.6336694E0,5.3679866E-1,3.7884562E0,4.786502E-1,-4.991419E-2,5.8979785E-1,7.823841E-1,3E0,3.6003215E0,3.277522E0,3.7966123E0,3.2382863E0,3.81903E0,-4.121397E-2,-9.027983E-3,-2.2042358E-2,1.7489908E-2,-1.6899868E-3,3.068268E-2,-1.4548413E-2,1.489662E-2,4.2573843E-2,2.2358397E-2,5.1860973E-2,1.1105869E-2],"split_indices":[0,3,0,3,0,3,3,4,2,2,2,2,2,0,0,0,0,0,0,0,0,0,0,0,0],"split_type":[0,0,0,0,0,0,0,0,0,0,0,0,0,0,0,0,0,0,0,0,0,0,0,0,0],"sum_hessian":[2.7541605E2,8.9249596E1,1.8616644E2,1.7837866E1,7.141173E1,9.833294E1,8.7833496E1,1.0028951E1,7.808916E0,5.4305706E1,4.4027237E1,6.237012E1,2.5463377E1,8.326597E0,1.7023532E0,6.564638E0,1.2442776E0,1.0786305E1,4.3519398E1,2.6163067E1,1.7864168E1,1.9424648E1,4.2945473E1,2.2930592E1,2.5327852E0],"tree_param":{"num_deleted":"0","num_feature":"7","num_nodes":"25","size_leaf_vector":"1"}},{"base_weights":[1.2583456E-2,-5.268346E-1,3.441653E-1,-6.2302655E-1,-2.3727602E-1,2.4106668E-1,4.3931338E-1,-2.2005469E-1,-6.4040285E-1,-3.8078362E-1,-5.9654083E-2,3.2732832E-1,2.8264353E-2,-1.6139582E-2,4.620451E-1,-3.1049287E-2,5.614812E-3,-3.6714315E-2,-5.3363632E-2,-3.3982776E-2,5.3714425E-3,9.780343E-3,-1.2620386E-2,-7.000575E-3,3.0331621E-2,-1.6397467E-2,1.2085631E-2,2.6938604E-2,4.4692367E-2],"categories":[],"categories_nodes":[],"categories_segments":[],"categories_sizes":[],"default_left":[0,0,0,0,0,0,0,0,0,0,0,0,0,0,0,0,0,0,0,0,0,0,0,0,0,0,0,0,0],"id":10,"left_children":[1,3,5,7,9,11,13,15,17,19,21,23,25,-1,27,-1,-1,-1,-1,-1,-1,-1,-1,-1,-1,-1,-1,-1,-1],"loss_changes":[4.8425262E1,2.7232323E0,1.5386829E0,3.9655685E-1,6.736492E-1,1.5084653E0,1.3460121E0,2.5632977E-1,4.712677E-2,3.226788E-1,2.583102E-1,1.2957568E0,7.4537504E-1,0E0,8.2071304E-1,0E0,0E0,0E0,0E0,0E0,0E0,0E0,0E0,0E0,0E0,0E0,0E0,0E0,0E0],"parents":[2147483647,0,0,1,1,2,2,3,3,4,4,5,5,6,6,7,7,8,8,9,9,10,10,11,11,12,12,14,14],"right_children":[2,4,6,8,10,12,14,16,18,20,22,24,26,-1,28,-1,-1,-1,-1,-1,-1,-1,-1,-1,-1,-1,-1,-1,-1],"split_conditions":[2.8557742E-1,1.5293077E-2,3.7884562E0,-3.1975307E-2,1E0,6.227712E-1,4.8117653E-1,1E0,4.9795407E-1,9.49999E-1,1.5800298E0,4.0757117E-1,7.334524E-1,-1.6139582E-2,6.7503023E-1,-3.1049287E-2,5.614812E-3,-3.6714315E-2,-5.3363632E-2,-3.3982776E-2,5.3714425E-3,9.780343E-3,-1.2620386E-2,-7.000575E-3,3.0331621E-2,-1.6397467E-2,1.2085631E-2,2.6938604E-2,4.4692367E-2],"split_indices":[1,1,0,1,6,3,1,6,3,3,0,3,3,0,3,0,0,0,0,0,0,0,0,0,0,0,0,0,0],"split_type":[0,0,0,0,0,0,0,0,0,0,0,0,0,0,0,0,0,0,0,0,0,0,0,0,0,0,0,0,0],"sum_hessian":[2.6872833E2,1.0207829E2,1.6665004E2,7.575927E1,2.6319023E1,8.1679276E1,8.4970764E1,3.6965697E0,7.2062706E1,1.39248295E1,1.2394194E1,5.773686E1,2.394242E1,2.6401703E0,8.23306E1,2.1274555E0,1.5691142E0,1.1558461E1,6.0504242E1,1.2726349E1,1.1984808E0,4.256026E0,8.138168E0,6.3346004E0,5.1402256E1,8.027529E0,1.5914889E1,3.7793716E1,4.453688E1],"tree_param":{"num_deleted":"0","num_feature":"7","num_nodes":"29","size_leaf_vector":"1"}},{"base_weights":[-5.9567476E-3,-5.2652353E-1,3.238188E-1,-6.163701E-1,-2.4347064E-1,2.1876928E-1,4.2156774E-1,-2.5517142E-1,-5.050642E-2,3.3479266E-2,-2.9949158E-1,3.267754E-1,7.0780036E-3,-1.4577349E-2,4.4423038E-1,-2.8469054E-2,1.0211844E-3,1.376119E-2,-9.916987E-3,-2.98531E-2,-9.215161E-3,2.0665242E-5,3.1510223E-2,-1.3405627E-2,1.70786E-2,2.9571228E-2,4.828082E-2],"categories":[],"categories_nodes":[],"categories_segments":[],"categories_sizes":[],"default_left":[0,0,0,0,0,0,0,0,0,0,0,0,0,0,0,0,0,0,0,0,0,0,0,0,0,0,0],"id":11,"left_children":[1,3,5,7,9,11,13,15,-1,17,19,21,23,-1,25,-1,-1,-1,-1,-1,-1,-1,-1,-1,-1,-1,-1],"loss_changes":[4.4532764E1,2.4082794E0,1.5385857E0,2.4799347E-1,4.117273E-1,1.7954526E0,1.1918802E0,1.310552E-1,0E0,1.35953E-1,2.5078154E-1,1.1401596E0,1.0301983E0,0E0,7.1005535E-1,0E0,0E0,0E0,0E0,0E0,0E0,0E0,0E0,0E0,0E0,0E0,0E0],"parents":[2147483647,0,0,1,1,2,2,3,3,4,4,5,5,6,6,7,7,9,9,10,10,11,11,12,12,14,14],"right_children":[2,4,6,8,10,12,14,16,-1,18,20,22,24,-1,26,-1,-1,-1,-1,-1,-1,-1,-1,-1,-1,-1,-1],"split_conditions":[2.8557742E-1,1.5293077E-2,3.7884562E0,-3.1975307E-2,4.9681282E-1,6.124565E-1,4.8117653E-1,3.806218E0,-5.050642E-2,1.5800298E0,1E0,3.277522E0,3.7966123E0,-1.4577349E-2,7.823841E-1,-2.8469054E-2,1.0211844E-3,1.376119E-2,-9.916987E-3,-2.98531E-2,-9.215161E-3,2.0665242E-5,3.1510223E-2,-1.3405627E-2,1.70786E-2,2.9571228E-2,4.828082E-2],"split_indices":[1,1,0,1,3,3,1,2,0,0,5,2,2,0,3,0,0,0,0,0,0,0,0,0,0,0,0],"split_type":[0,0,0,0,0,0,0,0,0,0,0,0,0,0,0,0,0,0,0,0,0,0,0,0,0,0,0],"sum_hessian":[2.5741568E2,9.95983E1,1.5781738E2,7.470719E1,2.4891102E1,7.762879E1,8.018859E1,3.6893053E0,7.101789E1,4.2555227E0,2.0635578E1,5.104281E1,2.6585978E1,2.6462407E0,7.754234E1,2.443036E0,1.2462691E0,2.2144375E0,2.0410852E0,1.4010385E1,6.625194E0,8.872667E0,4.2170143E1,1.4502712E1,1.2083265E1,5.507274E1,2.2469608E1],"tree_param":{"num_deleted":"0","num_feature":"7","num_nodes":"27","size_leaf_vector":"1"}},{"base_weights":[5.606835E-3,-5.06149E-1,3.2512733E-1,-6.035784E-1,-2.155614E-1,2.1681109E-1,4.2474476E-1,-2.6104683E-1,-6.1788964E-1,-3.320086E-1,-7.1447864E-2,-8.3754994E-2,2.7443913E-1,-1.2376369E-2,4.450013E-1,-3.432411E-2,2.6158094E-3,-2.0247E-2,-4.9968705E-2,-3.0281477E-2,4.8796064E-3,3.2786261E-3,-1.8256119E-2,4.385354E-3,-3.0717606E-2,2.963835E-2,6.151768E-3,2.9907547E-2,4.752381E-2],"categories":[],"categories_nodes":[],"categories_segments":[],"categories_sizes":[],"default_left":[0,0,0,0,0,0,0,0,0,0,0,0,0,0,0,0,0,0,0,0,0,0,0,0,0,0,0,0,0],"id":12,"left_children":[1,3,5,7,9,11,13,15,17,19,21,23,25,-1,27,-1,-1,-1,-1,-1,-1,-1,-1,-1,-1,-1,-1,-1,-1],"loss_changes":[4.202173E1,2.666628E0,1.6148949E0,1.9863129E-1,4.1863644E-1,1.3711259E0,1.023879E0,2.4480239E-1,1.2880325E-2,2.8456354E-1,2.3942575E-1,5.7385784E-1,1.2150168E0,0E0,6.144419E-1,0E0,0E0,0E0,0E0,0E0,0E0,0E0,0E0,0E0,0E0,0E0,0E0,0E0,0E0],"parents":[2147483647,0,0,1,1,2,2,3,3,4,4,5,5,6,6,7,7,8,8,9,9,10,10,11,11,12,12,14,14],"right_children":[2,4,6,8,10,12,14,16,18,20,22,24,26,-1,28,-1,-1,-1,-1,-1,-1,-1,-1,-1,-1,-1,-1,-1,-1],"split_conditions":[2.8557742E-1,1.5293077E-2,3.7884562E0,-3.1975307E-2,1E0,3.277522E0,4.8117653E-1,1E0,4.0408683E-1,9.49999E-1,6.630135E-1,2.111621E0,6.124565E-1,-1.2376369E-2,7.823841E-1,-3.432411E-2,2.6158094E-3,-2.0247E-2,-4.9968705E-2,-3.0281477E-2,4.8796064E-3,3.2786261E-3,-1.8256119E-2,4.385354E-3,-3.0717606E-2,2.963835E-2,6.151768E-3,2.9907547E-2,4.752381E-2],"split_indices":[1,1,0,1,6,2,1,6,3,3,3,0,3,0,3,0,0,0,0,0,0,0,0,0,0,0,0,0,0],"split_type":[0,0,0,0,0,0,0,0,0,0,0,0,0,0,0,0,0,0,0,0,0,0,0,0,0,0,0,0,0],"sum_hessian":[2.5498134E2,9.778354E1,1.571978E2,7.242387E1,2.5359673E1,7.6832535E1,8.036527E1,3.676221E0,6.874764E1,1.3305063E1,1.205461E1,1.2288257E1,6.454427E1,2.490344E0,7.787493E1,2.0456188E0,1.6306021E0,1.9426414E0,6.6805E1,1.1930062E1,1.3750004E0,7.4498196E0,4.60479E0,8.966806E0,3.32145E0,4.28407E1,2.1703575E1,5.5084843E1,2.2790085E1],"tree_param":{"num_deleted":"0","num_feature":"7","num_nodes":"29","size_leaf_vector":"1"}},{"base_weights":[9.7407633E-4,-4.5786947E-1,3.3122897E-1,-5.844716E-1,-1.5249527E-1,2.9822716E-1,5.6354666E-1,-3.8360664E-1,-4.9472358E-2,-2.8362042E-1,-1.3189718E-2,2.5533405E-1,4.5604172E-1,4.753535E-2,1.7389566E-2,-3.96982E-2,8.379273E-4,-2.5754856E-2,-5.220262E-3,1.4479543E-2,-6.4925216E-3,2.359477E-2,-3.1767807E-3,1.4795944E-3,4.5520637E-2],"categories":[],"categories_nodes":[],"categories_segments":[],"categories_sizes":[],"default_left":[0,0,0,0,0,0,0,0,0,0,0,0,0,0,0,0,0,0,0,0,0,0,0,0,0],"id":13,"left_children":[1,3,5,7,9,11,13,15,-1,17,19,21,23,-1,-1,-1,-1,-1,-1,-1,-1,-1,-1,-1,-1],"loss_changes":[3.7749405E1,3.9416714E0,9.4250107E-1,2.6272964E-1,5.791274E-1,7.564993E-1,5.0056934E-2,5.925633E-1,0E0,1.1611152E-1,2.3273088E-1,1.2229948E0,1.2888145E0,0E0,0E0,0E0,0E0,0E0,0E0,0E0,0E0,0E0,0E0,0E0,0E0],"parents":[2147483647,0,0,1,1,2,2,3,3,4,4,5,5,6,6,7,7,9,9,10,10,11,11,12,12],"right_children":[2,4,6,8,10,12,14,16,-1,18,20,22,24,-1,-1,-1,-1,-1,-1,-1,-1,-1,-1,-1,-1],"split_conditions":[3.5179722E-1,2.8714202E-2,5.8135834E0,4.9795407E-1,1E0,7.74314E-1,8.1476015E-1,4.8204476E-1,-4.9472358E-2,8.644192E-1,1.5800298E0,7.077825E-1,5.289299E-1,4.753535E-2,1.7389566E-2,-3.96982E-2,8.379273E-4,-2.5754856E-2,-5.220262E-3,1.4479543E-2,-6.4925216E-3,2.359477E-2,-3.1767807E-3,1.4795944E-3,4.5520637E-2],"split_indices":[1,1,0,3,6,3,3,3,0,3,0,3,1,0,0,0,0,0,0,0,0,0,0,0,0],"split_type":[0,0,0,0,0,0,0,0,0,0,0,0,0,0,0,0,0,0,0,0,0,0,0,0,0],"sum_hessian":[2.4711209E2,1.0326007E2,1.4385202E2,7.2350876E1,3.09092E1,1.2795861E2,1.5893409E1,1.2234414E1,6.011646E1,1.5388447E1,1.5520754E1,1.0267112E2,2.5287493E1,1.3942698E1,1.950712E0,9.313569E0,2.9208443E0,1.2687905E1,2.7005415E0,3.5928502E0,1.1927903E1,9.052173E1,1.2149394E1,5.4278355E0,1.9859657E1],"tree_param":{"num_deleted":"0","num_feature":"7","num_nodes":"25","size_leaf_vector":"1"}},{"base_weights":[4.939568E-3,-4.8312145E-1,3.0267993E-1,-5.818461E-1,-1.9437428E-1,-5.1994544E-2,3.2408088E-1,-2.2978939E-1,-4.7542844E-2,-2.4706224E-2,-5.898429E-2,1.3813448E-1,-2.7604163E-1,2.9072186E-1,5.4234606E-1,-2.9380068E-2,2.9773742E-3,8.22688E-3,-1.2309407E-2,-1.1073593E-3,1.4641802E-2,-2.7936963E-2,-3.0978402E-4,2.4124607E-2,-1.8812144E-2,1.4731535E-2,4.5617193E-2],"categories":[],"categories_nodes":[],"categories_segments":[],"categories_sizes":[],"default_left":[0,0,0,0,0,0,0,0,0,0,0,0,0,0,0,0,0,0,0,0,0,0,0,0,0,0,0],"id":14,"left_children":[1,3,5,7,9,11,13,15,-1,-1,17,19,21,23,25,-1,-1,-1,-1,-1,-1,-1,-1,-1,-1,-1,-1],"loss_changes":[3.543692E1,2.520996E0,1.1664324E0,1.6280556E-1,3.6988187E-1,4.419713E-1,8.833227E-1,1.5913454E-1,0E0,0E0,2.1096286E-1,4.2065233E-2,9.195793E-2,7.898741E-1,7.268143E-2,0E0,0E0,0E0,0E0,0E0,0E0,0E0,0E0,0E0,0E0,0E0,0E0],"parents":[2147483647,0,0,1,1,2,2,3,3,4,4,5,5,6,6,7,7,10,10,11,11,12,12,13,13,14,14],"right_children":[2,4,6,8,10,12,14,16,-1,-1,18,20,22,24,26,-1,-1,-1,-1,-1,-1,-1,-1,-1,-1,-1,-1],"split_conditions":[2.8557742E-1,1.5293077E-2,3.5179722E-1,-3.1975307E-2,1E0,2.1096277E0,5.8135834E0,1E0,-4.7542844E-2,-2.4706224E-2,1.5800298E0,3.0933125E0,3.7352858E0,4.6775837E0,2.8870327E0,-2.9380068E-2,2.9773742E-3,8.22688E-3,-1.2309407E-2,-1.1073593E-3,1.4641802E-2,-2.7936963E-2,-3.0978402E-4,2.4124607E-2,-1.8812144E-2,1.4731535E-2,4.5617193E-2],"split_indices":[1,1,1,1,6,0,0,6,0,0,0,2,2,2,2,0,0,0,0,0,0,0,0,0,0,0,0],"split_type":[0,0,0,0,0,0,0,0,0,0,0,0,0,0,0,0,0,0,0,0,0,0,0,0,0,0,0],"sum_hessian":[2.4185571E2,9.140328E1,1.5045244E2,6.7358025E1,2.4045256E1,8.4803E0,1.4197214E2,2.9633284E0,6.43947E1,1.2335917E1,1.1709339E1,4.7948184E0,3.6854818E0,1.2517303E2,1.6799109E1,1.708377E0,1.2549515E0,4.297049E0,7.4122896E0,1.2509929E0,3.5438254E0,2.6815112E0,1.0039707E0,1.2306383E2,2.109194E0,1.7618158E0,1.5037292E1],"tree_param":{"num_deleted":"0","num_feature":"7","num_nodes":"27","size_leaf_vector":"1"}},{"base_weights":[-1.6291697E-3,-4.746788E-1,2.8317073E-1,-5.7478565E-1,-2.0304553E-1,1.7713651E-1,3.8119772E-1,-3.9423096E-1,-4.815916E-2,-2.7418557E-1,-4.0028438E-2,3.3016458E-1,6.668779E-2,-1.2139492E-2,3.9897734E-1,-3.7448183E-2,-6.875032E-3,-2.8539118E-3,-2.7556328E-2,9.978937E-3,-1.0757521E-2,1.4267683E-2,4.9345583E-2,-6.707729E-3,2.0715283E-2,2.3694186E-2,3.954516E-2],"categories":[],"categories_nodes":[],"categories_segments":[],"categories_sizes":[],"default_left":[0,0,0,0,0,0,0,0,0,0,0,0,0,0,0,0,0,0,0,0,0,0,0,0,0,0,0],"id":15,"left_children":[1,3,5,7,9,11,13,15,-1,17,19,21,23,-1,25,-1,-1,-1,-1,-1,-1,-1,-1,-1,-1,-1,-1],"loss_changes":[3.2320843E1,2.3348026E0,1.4890213E0,8.3566666E-2,2.8850806E-1,1.2254257E0,7.896404E-1,2.205776E-1,0E0,2.861625E-1,1.5707697E-1,1.2254336E0,1.2985647E0,0E0,5.860672E-1,0E0,0E0,0E0,0E0,0E0,0E0,0E0,0E0,0E0,0E0,0E0,0E0],"parents":[2147483647,0,0,1,1,2,2,3,3,4,4,5,5,6,6,7,7,9,9,10,10,11,11,12,12,14,14],"right_children":[2,4,6,8,10,12,14,16,-1,18,20,22,24,-1,26,-1,-1,-1,-1,-1,-1,-1,-1,-1,-1,-1,-1],"split_conditions":[2.8557742E-1,1.5293077E-2,3.7884562E0,4.9795407E-1,1E0,4.9795407E-1,4.8117653E-1,4.855597E-1,-4.815916E-2,5.515839E-1,1.5800298E0,4.8204476E-1,3.7966123E0,-1.2139492E-2,6.939398E-1,-3.7448183E-2,-6.875032E-3,-2.8539118E-3,-2.7556328E-2,9.978937E-3,-1.0757521E-2,1.4267683E-2,4.9345583E-2,-6.707729E-3,2.0715283E-2,2.3694186E-2,3.954516E-2],"split_indices":[1,1,0,3,5,3,1,3,0,3,0,3,2,0,3,0,0,0,0,0,0,0,0,0,0,0,0],"split_type":[0,0,0,0,0,0,0,0,0,0,0,0,0,0,0,0,0,0,0,0,0,0,0,0,0,0,0],"sum_hessian":[2.3790555E2,8.915437E1,1.4875117E2,6.433027E1,2.4824102E1,7.280557E1,7.594561E1,1.0451883E1,5.3878384E1,1.6807451E1,8.01665E0,2.9685978E1,4.3119595E1,2.2085977E0,7.373701E1,8.013394E0,2.43849E0,4.1679406E0,1.2639511E1,2.8039541E0,5.212696E0,2.0467909E1,9.218068E0,2.4499977E1,1.861962E1,3.7455826E1,3.628118E1],"tree_param":{"num_deleted":"0","num_feature":"7","num_nodes":"27","size_leaf_vector":"1"}},{"base_weights":[1.11734085E-2,-4.6267465E-1,2.8800437E-1,-5.625847E-1,-1.8618865E-1,1.8676704E-1,3.789426E-1,-2.5385484E-1,-5.755919E-1,-3.0245867E-1,-5.5212352E-2,2.6964247E-1,-5.59928E-2,-1.1845218E-2,3.9751393E-1,-1.1872239E-3,-2.7683653E-2,-1.7158939E-2,-4.6645477E-2,-2.8437804E-2,8.742064E-3,8.101959E-3,-1.2291419E-2,-4.4282842E-3,2.398998E-2,-2.2263087E-2,7.071921E-3,2.5692038E-2,4.1793592E-2],"categories":[],"categories_nodes":[],"categories_segments":[],"categories_sizes":[],"default_left":[0,0,0,0,0,0,0,0,0,0,0,0,0,0,0,0,0,0,0,0,0,0,0,0,0,0,0,0,0],"id":16,"left_children":[1,3,5,7,9,11,13,15,17,19,21,23,25,-1,27,-1,-1,-1,-1,-1,-1,-1,-1,-1,-1,-1,-1,-1,-1],"loss_changes":[3.1160805E1,2.315403E0,1.3094664E0,1.1033249E-1,3.6021E-1,1.4820805E0,8.223295E-1,9.117511E-2,3.8251877E-2,3.201548E-1,2.136786E-1,5.52382E-1,6.46828E-1,0E0,5.535364E-1,0E0,0E0,0E0,0E0,0E0,0E0,0E0,0E0,0E0,0E0,0E0,0E0,0E0,0E0],"parents":[2147483647,0,0,1,1,2,2,3,3,4,4,5,5,6,6,7,7,8,8,9,9,10,10,11,11,12,12,14,14],"right_children":[2,4,6,8,10,12,14,16,18,20,22,24,26,-1,28,-1,-1,-1,-1,-1,-1,-1,-1,-1,-1,-1,-1,-1,-1],"split_conditions":[2.8557742E-1,1.5293077E-2,3.7884562E0,-3.1975307E-2,1E0,6.227712E-1,4.8117653E-1,6.12453E-1,4.0408683E-1,9.49999E-1,1.5800298E0,4.0757117E-1,7.334524E-1,-1.1845218E-2,7.334524E-1,-1.1872239E-3,-2.7683653E-2,-1.7158939E-2,-4.6645477E-2,-2.8437804E-2,8.742064E-3,8.101959E-3,-1.2291419E-2,-4.4282842E-3,2.398998E-2,-2.2263087E-2,7.071921E-3,2.5692038E-2,4.1793592E-2],"split_indices":[1,1,0,1,6,3,1,3,3,3,0,3,3,0,3,0,0,0,0,0,0,0,0,0,0,0,0,0,0],"split_type":[0,0,0,0,0,0,0,0,0,0,0,0,0,0,0,0,0,0,0,0,0,0,0,0,0,0,0,0,0],"sum_hessian":[2.3553409E2,8.66113E1,1.4892279E2,6.2861214E1,2.3750084E1,7.19159E1,7.700688E1,3.3708065E0,5.9490406E1,1.1887804E1,1.1862281E1,5.353047E1,1.8385427E1,2.3839374E0,7.462295E1,1.2614186E0,2.1093879E0,1.8089497E0,5.7681458E1,1.0652821E1,1.2349834E0,4.569188E0,7.2930923E0,4.4850802E0,4.904539E1,6.8745394E0,1.1510889E1,4.852654E1,2.6096409E1],"tree_param":{"num_deleted":"0","num_feature":"7","num_nodes":"29","size_leaf_vector":"1"}},{"base_weights":[1.2544717E-3,-4.2827213E-1,2.90312E-1,-5.539683E-1,-1.7426668E-1,1.9450617E-1,3.6783135E-1,-2.2853674E-1,-5.6828135E-1,-2.4784632E-1,-2.0636052E-2,2.7236336E-1,-6.0629174E-2,4.0051123E-1,9.530728E-2,1.016827E-3,-2.6726462E-2,-1.6702143E-2,-4.60288E-2,-4.4943905E-3,-2.556623E-2,-5.2479655E-3,1.6586782E-2,3.356338E-3,2.8006392E-2,-1.7239898E-2,9.684844E-3,2.253777E-2,4.3684978E-2,-3.0229315E-2,1.7219156E-2],"categories":[],"categories_nodes":[],"categories_segments":[],"categories_sizes":[],"default_left":[0,0,0,0,0,0,0,0,0,0,0,0,0,0,0,0,0,0,0,0,0,0,0,0,0,0,0,0,0,0,0],"id":17,"left_children":[1,3,5,7,9,11,13,15,17,19,21,23,25,27,29,-1,-1,-1,-1,-1,-1,-1,-1,-1,-1,-1,-1,-1,-1,-1,-1],"loss_changes":[2.8729485E1,2.8753376E0,9.5566463E-1,1.5802956E-1,3.5969937E-1,1.2874534E0,6.3271904E-1,1.13138616E-1,2.883339E-2,2.8081203E-1,1.3191098E-1,8.6639214E-1,4.700397E-1,1.0037422E0,6.135353E-1,0E0,0E0,0E0,0E0,0E0,0E0,0E0,0E0,0E0,0E0,0E0,0E0,0E0,0E0,0E0,0E0],"parents":[2147483647,0,0,1,1,2,2,3,3,4,4,5,5,6,6,7,7,8,8,9,9,10,10,11,11,12,12,13,13,14,14],"right_children":[2,4,6,8,10,12,14,16,18,20,22,24,26,28,30,-1,-1,-1,-1,-1,-1,-1,-1,-1,-1,-1,-1,-1,-1,-1,-1],"split_conditions":[3.5179722E-1,1.5293077E-2,3.7884562E0,-3.1975307E-2,1E0,6.227712E-1,3.8782594E0,6.12453E-1,4.0408683E-1,5.6466055E-1,2E0,3.3130946E0,7.702945E-1,3.4407384E0,3.93613E0,1.016827E-3,-2.6726462E-2,-1.6702143E-2,-4.60288E-2,-4.4943905E-3,-2.556623E-2,-5.2479655E-3,1.6586782E-2,3.356338E-3,2.8006392E-2,-1.7239898E-2,9.684844E-3,2.253777E-2,4.3684978E-2,-3.0229315E-2,1.7219156E-2],"split_indices":[1,1,0,1,5,3,2,3,3,3,4,2,3,2,2,0,0,0,0,0,0,0,0,0,0,0,0,0,0,0,0],"split_type":[0,0,0,0,0,0,0,0,0,0,0,0,0,0,0,0,0,0,0,0,0,0,0,0,0,0,0,0,0,0,0],"sum_hessian":[2.2939334E2,9.2081985E1,1.3731134E2,6.080923E1,3.1272758E1,6.2981686E1,7.432966E1,3.2766275E0,5.7532604E1,2.0730743E1,1.0542014E1,4.8204163E1,1.4777525E1,6.5951416E1,8.378241E0,1.2649177E0,2.0117097E0,1.6997694E0,5.5832832E1,6.131253E0,1.4599491E1,9.400221E0,1.1417937E0,1.2546602E1,3.565756E1,7.877113E0,6.9004126E0,3.793056E1,2.802086E1,1.25928E0,7.1189604E0],"tree_param":{"num_deleted":"0","num_feature":"7","num_nodes":"31","size_leaf_vector":"1"}},{"base_weights":[-6.1302455E-3,-4.166121E-1,2.738097E-1,-5.4761106E-1,-1.6147842E-1,2.4015447E-1,5.03698E-1,-2.3814893E-1,-4.4860166E-2,-2.6856533E-1,-4.767842E-2,1.332808E-1,3.1009838E-1,4.6704844E-2,2.940823E-1,-2.6871243E-2,2.4632353E-3,-2.3625895E-2,-9.371607E-3,6.61063E-3,-8.395112E-3,1.5879724E-2,-1.8155703E-2,2.6332147E-2,-9.834319E-3,2.846055E-2,3.111965E-3],"categories":[],"categories_nodes":[],"categories_segments":[],"categories_sizes":[],"default_left":[0,0,0,0,0,0,0,0,0,0,0,0,0,0,0,0,0,0,0,0,0,0,0,0,0,0,0],"id":18,"left_children":[1,3,5,7,9,11,13,15,-1,17,19,21,23,-1,25,-1,-1,-1,-1,-1,-1,-1,-1,-1,-1,-1,-1],"loss_changes":[2.5942469E1,2.9707918E0,9.176235E-1,1.10702515E-1,3.8290745E-1,8.482623E-1,1.008811E-1,1.2034497E-1,0E0,3.2312036E-2,1.3520756E-1,1.1921694E0,6.277218E-1,0E0,8.850926E-2,0E0,0E0,0E0,0E0,0E0,0E0,0E0,0E0,0E0,0E0,0E0,0E0],"parents":[2147483647,0,0,1,1,2,2,3,3,4,4,5,5,6,6,7,7,9,9,10,10,11,11,12,12,14,14],"right_children":[2,4,6,8,10,12,14,16,-1,18,20,22,24,-1,26,-1,-1,-1,-1,-1,-1,-1,-1,-1,-1,-1,-1],"split_conditions":[3.5179722E-1,1.5293077E-2,5.8135834E0,-3.1975307E-2,1E0,3.432696E0,2E0,3.806218E0,-4.4860166E-2,3.7966123E0,1.5800298E0,3.326474E0,4.4527183E0,4.6704844E-2,1E0,-2.6871243E-2,2.4632353E-3,-2.3625895E-2,-9.371607E-3,6.61063E-3,-8.395112E-3,1.5879724E-2,-1.8155703E-2,2.6332147E-2,-9.834319E-3,2.846055E-2,3.111965E-3],"split_indices":[1,1,0,1,6,2,4,2,0,2,0,2,2,0,6,0,0,0,0,0,0,0,0,0,0,0,0],"split_type":[0,0,0,0,0,0,0,0,0,0,0,0,0,0,0,0,0,0,0,0,0,0,0,0,0,0,0],"sum_hessian":[2.2377014E2,9.053238E1,1.3323776E2,5.9061E1,3.147138E1,1.180065E2,1.5231269E1,3.1847496E0,5.587625E1,1.5513268E1,1.5958112E1,4.7829292E1,7.017721E1,9.728144E0,5.503125E0,2.153243E0,1.0315065E0,1.2375893E1,3.137376E0,4.7363033E0,1.1221808E1,4.0877728E1,6.9515643E0,6.744928E1,2.7279232E0,4.11456E0,1.3885651E0],"tree_param":{"num_deleted":"0","num_feature":"7","num_nodes":"27","size_leaf_vector":"1"}},{"base_weights":[-8.393814E-3,-4.3189967E-1,2.365629E-1,-5.3479165E-1,-1.7430413E-1,1.3365152E-1,3.3786643E-1,-3.2703355E-1,-4.5536812E-2,2.5509583E-2,-2.3171929E-1,-1.3286524E-1,1.92016E-1,4.1790527E-1,1.7589462E-1,-3.424528E-2,3.3022496E-3,-7.985404E-3,1.0146299E-2,-2.2271916E-2,7.6823373E-4,-1.7961653E-2,1.920468E-2,-1.732594E-2,1.775104E-2,3.5837326E-2,5.8635953E-3,6.958968E-4,2.3770818E-2],"categories":[],"categories_nodes":[],"categories_segments":[],"categories_sizes":[],"default_left":[0,0,0,0,0,0,0,0,0,0,0,0,0,0,0,0,0,0,0,0,0,0,0,0,0,0,0,0,0],"id":19,"left_children":[1,3,5,7,9,11,13,15,-1,17,19,21,23,25,27,-1,-1,-1,-1,-1,-1,-1,-1,-1,-1,-1,-1,-1,-1],"loss_changes":[2.2914284E1,2.0519066E0,1.4139819E0,2.239418E-1,2.8794855E-1,1.1312354E0,8.323841E-1,4.084295E-1,0E0,9.3776956E-2,2.1891296E-1,5.1059115E-1,7.6479363E-1,4.4411945E-1,5.0088304E-1,0E0,0E0,0E0,0E0,0E0,0E0,0E0,0E0,0E0,0E0,0E0,0E0,0E0,0E0],"parents":[2147483647,0,0,1,1,2,2,3,3,4,4,5,5,6,6,7,7,9,9,10,10,11,11,12,12,13,13,14,14],"right_children":[2,4,6,8,10,12,14,16,-1,18,20,22,24,26,28,-1,-1,-1,-1,-1,-1,-1,-1,-1,-1,-1,-1,-1,-1],"split_conditions":[2.8557742E-1,1.5293077E-2,3.7884562E0,4.9795407E-1,5.515839E-1,3.277522E0,2E0,4.855597E-1,-4.5536812E-2,3.326474E0,8.644192E-1,5.2635413E-1,4.0757117E-1,3.8782594E0,3.4407384E0,-3.424528E-2,3.3022496E-3,-7.985404E-3,1.0146299E-2,-2.2271916E-2,7.6823373E-4,-1.7961653E-2,1.920468E-2,-1.732594E-2,1.775104E-2,3.5837326E-2,5.8635953E-3,6.958968E-4,2.3770818E-2],"split_indices":[1,1,0,3,3,2,4,3,0,2,3,1,3,2,2,0,0,0,0,0,0,0,0,0,0,0,0,0,0],"split_type":[0,0,0,0,0,0,0,0,0,0,0,0,0,0,0,0,0,0,0,0,0,0,0,0,0,0,0,0,0],"sum_hessian":[2.188957E2,7.993421E1,1.3896149E2,5.6350075E1,2.3584139E1,7.008423E1,6.887726E1,9.501069E0,4.6849007E1,5.3881693E0,1.819597E1,1.2361219E1,5.772301E1,4.5040333E1,2.3836927E1,7.3285255E0,2.1725435E0,2.4153335E0,2.9728355E0,1.5118009E1,3.077961E0,1.0241946E1,2.1192725E0,3.5068011E0,5.421621E1,4.1150715E1,3.8896186E0,1.0470044E1,1.3366883E1],"tree_param":{"num_deleted":"0","num_feature":"7","num_nodes":"29","size_leaf_vector":"1"}},{"base_weights":[6.919733E-3,-4.2917553E-1,2.5469574E-1,-5.312185E-1,-1.8466611E-1,1.5978453E-1,3.4759226E-1,-2.1358657E-1,-5.463646E-1,-2.770827E-1,-7.190553E-2,3.4168106E-1,3.8521327E-2,3.887539E-1,4.396218E-2,-2.4203533E-2,1.6932505E-3,-1.5492433E-2,-4.431837E-2,-2.6342442E-2,7.385542E-3,4.6600387E-3,-9.753202E-3,1.293146E-2,4.9065504E-2,-9.317422E-3,1.6721053E-2,4.0740095E-2,2.3725213E-2,-9.786505E-3,2.7942538E-2],"categories":[],"categories_nodes":[],"categories_segments":[],"categories_sizes":[],"default_left":[0,0,0,0,0,0,0,0,0,0,0,0,0,0,0,0,0,0,0,0,0,0,0,0,0,0,0,0,0,0,0],"id":20,"left_children":[1,3,5,7,9,11,13,15,17,19,21,23,25,27,29,-1,-1,-1,-1,-1,-1,-1,-1,-1,-1,-1,-1,-1,-1,-1,-1],"loss_changes":[2.3841652E1,1.8966665E0,1.1848717E0,1.52112E-1,2.4137098E-1,1.5625904E0,8.6084366E-1,9.379749E-2,3.423786E-2,2.893486E-1,8.9404225E-2,1.2921274E0,1.1867658E0,5.347338E-1,5.2575904E-1,0E0,0E0,0E0,0E0,0E0,0E0,0E0,0E0,0E0,0E0,0E0,0E0,0E0,0E0,0E0,0E0],"parents":[2147483647,0,0,1,1,2,2,3,3,4,4,5,5,6,6,7,7,8,8,9,9,10,10,11,11,12,12,13,13,14,14],"right_children":[2,4,6,8,10,12,14,16,18,20,22,24,26,28,30,-1,-1,-1,-1,-1,-1,-1,-1,-1,-1,-1,-1,-1,-1,-1,-1],"split_conditions":[2.8557742E-1,1.5293077E-2,3.7884562E0,-2.6678236E-2,1E0,4.9795407E-1,3.8571444E0,3.806218E0,4.0408683E-1,9.49999E-1,5.430328E-1,4.8204476E-1,3.7966123E0,1E0,5.8135834E0,-2.4203533E-2,1.6932505E-3,-1.5492433E-2,-4.431837E-2,-2.6342442E-2,7.385542E-3,4.6600387E-3,-9.753202E-3,1.293146E-2,4.9065504E-2,-9.317422E-3,1.6721053E-2,4.0740095E-2,2.3725213E-2,-9.786505E-3,2.7942538E-2],"split_indices":[1,1,0,1,6,3,2,2,3,3,3,3,2,4,0,0,0,0,0,0,0,0,0,0,0,0,0,0,0,0,0],"split_type":[0,0,0,0,0,0,0,0,0,0,0,0,0,0,0,0,0,0,0,0,0,0,0,0,0,0,0,0,0,0,0],"sum_hessian":[2.1863423E2,7.894895E1,1.3968529E2,5.487497E1,2.4073982E1,7.0438835E1,6.924645E1,3.184934E0,5.1690037E1,1.2429618E1,1.1644363E1,2.7448301E1,4.299053E1,6.0732845E1,8.513604E0,2.1002705E0,1.0846633E0,1.6509901E0,5.0039047E1,1.0985885E1,1.4437332E0,3.1864462E0,8.457917E0,1.7466686E1,9.981615E0,2.2685072E1,2.0305458E1,2.436371E1,3.6369133E1,5.8996625E0,2.6139414E0],"tree_param":{"num_deleted":"0","num_feature":"7","num_nodes":"31","size_leaf_vector":"1"}},{"base_weights":[2.8381278E-3,-3.947418E-1,2.714018E-1,-5.3202295E-1,-1.6385035E-1,1.6102575E-1,3.65968E-1,-3.4561393E-1,-4.495018E-2,3.667869E-2,-2.0297623E-1,2.6874012E-1,-7.141551E-2,4.021879E-1,6.362677E-2,-3.6044918E-2,1.1273157E-3,1.5591838E-2,-6.1025647E-3,-2.1908132E-2,-4.967076E-3,-9.945952E-3,2.6932435E-2,3.160288E-4,-3.1472147E-2,2.3863414E-2,4.0944714E-2,-8.766883E-3,2.6493553E-2],"categories":[],"categories_nodes":[],"categories_segments":[],"categories_sizes":[],"default_left":[0,0,0,0,0,0,0,0,0,0,0,0,0,0,0,0,0,0,0,0,0,0,0,0,0,0,0,0,0],"id":21,"left_children":[1,3,5,7,9,11,13,15,-1,17,19,21,23,25,27,-1,-1,-1,-1,-1,-1,-1,-1,-1,-1,-1,-1,-1,-1],"loss_changes":[2.2671352E1,2.626258E0,1.2637396E0,1.02095604E-1,2.6922053E-1,1.5278713E0,7.131643E-1,3.8187802E-1,0E0,1.273582E-1,2.632966E-1,1.1466599E0,4.8376554E-1,5.313177E-1,4.257982E-1,0E0,0E0,0E0,0E0,0E0,0E0,0E0,0E0,0E0,0E0,0E0,0E0,0E0,0E0],"parents":[2147483647,0,0,1,1,2,2,3,3,4,4,5,5,6,6,7,7,9,9,10,10,11,11,12,12,13,13,14,14],"right_children":[2,4,6,8,10,12,14,16,-1,18,20,22,24,26,28,-1,-1,-1,-1,-1,-1,-1,-1,-1,-1,-1,-1,-1,-1],"split_conditions":[3.7645674E-1,1.5293077E-2,3.7884562E0,4.9795407E-1,4.9681282E-1,6.124565E-1,3.85397E0,4.855597E-1,-4.495018E-2,1.5800298E0,1E0,3.277522E0,8.398047E-1,3.4407384E0,5.8135834E0,-3.6044918E-2,1.1273157E-3,1.5591838E-2,-6.1025647E-3,-2.1908132E-2,-4.967076E-3,-9.945952E-3,2.6932435E-2,3.160288E-4,-3.1472147E-2,2.3863414E-2,4.0944714E-2,-8.766883E-3,2.6493553E-2],"split_indices":[1,1,0,3,3,3,2,3,0,0,5,2,3,2,0,0,0,0,0,0,0,0,0,0,0,0,0,0,0],"split_type":[0,0,0,0,0,0,0,0,0,0,0,0,0,0,0,0,0,0,0,0,0,0,0,0,0,0,0,0,0],"sum_hessian":[2.1032385E2,8.460513E1,1.2571872E2,5.2240364E1,3.236477E1,5.925734E1,6.646138E1,8.94773E0,4.3292633E1,5.2940574E0,2.7070711E1,4.0386078E1,1.8871262E1,5.90563E1,7.405079E0,6.73124E0,2.21649E0,1.9031028E0,3.3909545E0,1.7382473E1,9.688238E0,5.8276396E0,3.455844E1,1.6092335E1,2.7789276E0,3.2230453E1,2.6825846E1,4.8533287E0,2.5517504E0],"tree_param":{"num_deleted":"0","num_feature":"7","num_nodes":"29","size_leaf_vector":"1"}},{"base_weights":[-4.8510227E-3,-3.9335287E-1,2.5708568E-1,-5.1734215E-1,-1.706122E-1,5.644331E-2,2.959326E-1,-3.007967E-1,-4.3095075E-2,-2.6060882E-1,-6.75645E-2,-2.5137234E-1,2.1723565E-1,4.9831834E-2,2.6174456E-1,-3.2107692E-2,-1.5413569E-3,-2.4096593E-2,-7.813509E-3,-1.85852E-2,-1.777779E-3,9.283574E-3,-2.7369423E-2,4.40717E-2,-8.431096E-3,7.622407E-3,2.5543656E-2],"categories":[],"categories_nodes":[],"categories_segments":[],"categories_sizes":[],"default_left":[0,0,0,0,0,0,0,0,0,0,0,0,0,0,0,0,0,0,0,0,0,0,0,0,0,0,0],"id":22,"left_children":[1,3,5,7,9,11,13,15,-1,17,19,21,23,-1,25,-1,-1,-1,-1,-1,-1,-1,-1,-1,-1,-1,-1],"loss_changes":[2.1181755E1,2.226572E0,9.5241547E-1,8.458614E-2,2.7419704E-1,1.1139829E0,9.987478E-1,1.9188863E-1,0E0,7.937491E-2,1.145011E-1,3.000263E-1,1.6292841E0,0E0,8.875413E-1,0E0,0E0,0E0,0E0,0E0,0E0,0E0,0E0,0E0,0E0,0E0,0E0],"parents":[2147483647,0,0,1,1,2,2,3,3,4,4,5,5,6,6,7,7,9,9,10,10,11,11,12,12,14,14],"right_children":[2,4,6,8,10,12,14,16,-1,18,20,22,24,-1,26,-1,-1,-1,-1,-1,-1,-1,-1,-1,-1,-1,-1],"split_conditions":[3.5179722E-1,1.5293077E-2,3.1880043E0,-1.2976565E-2,1E0,5.2635413E-1,3.2382863E0,1E0,-4.3095075E-2,3.7352858E0,3.0354335E0,1.8303721E0,4.376193E0,4.9831834E-2,3.4407384E0,-3.2107692E-2,-1.5413569E-3,-2.4096593E-2,-7.813509E-3,-1.85852E-2,-1.777779E-3,9.283574E-3,-2.7369423E-2,4.40717E-2,-8.431096E-3,7.622407E-3,2.5543656E-2],"split_indices":[1,1,2,1,6,1,2,6,0,2,2,0,0,0,2,0,0,0,0,0,0,0,0,0,0,0,0],"split_type":[0,0,0,0,0,0,0,0,0,0,0,0,0,0,0,0,0,0,0,0,0,0,0,0,0,0,0],"sum_hessian":[2.0615437E2,8.281794E1,1.2333643E2,5.2352913E1,3.046503E1,2.0403954E1,1.0293248E2,6.0518456E0,4.6301067E1,1.5446143E1,1.5018887E1,6.807864E0,1.359609E1,8.113856E0,9.481863E1,4.1456275E0,1.9062183E0,1.1685875E1,3.7602675E0,2.3514264E0,1.266746E1,1.2931734E0,5.514691E0,6.335902E0,7.2601876E0,2.504178E1,6.977684E1],"tree_param":{"num_deleted":"0","num_feature":"7","num_nodes":"27","size_leaf_vector":"1"}},{"base_weights":[9.719271E-3,-3.7901288E-1,2.66065E-1,-5.096142E-1,-1.6122225E-1,5.4445647E-2,3.004022E-1,-3.055435E-1,-5.4442656E-1,-2.5665724E-1,-5.3324312E-2,-2.4715719E-1,2.1756533E-1,3.6756575E-1,1.8028119E-1,-3.2289114E-2,8.989795E-5,-1.6902152E-2,-4.441395E-2,-2.4005689E-2,-7.0421314E-3,9.838254E-4,-1.31034665E-2,1.1632674E-2,-2.896102E-2,3.8488094E-2,-6.528882E-4,2.4093347E-2,4.1348886E-2,9.356771E-3,2.5434412E-2],"categories":[],"categories_nodes":[],"categories_segments":[],"categories_sizes":[],"default_left":[0,0,0,0,0,0,0,0,0,0,0,0,0,0,0,0,0,0,0,0,0,0,0,0,0,0,0,0,0,0,0],"id":23,"left_children":[1,3,5,7,9,11,13,15,17,19,21,23,25,27,29,-1,-1,-1,-1,-1,-1,-1,-1,-1,-1,-1,-1,-1,-1,-1,-1],"loss_changes":[2.0641005E1,2.2594213E0,8.9049244E-1,1.9596672E-1,3.1915373E-1,9.710227E-1,7.9824257E-1,2.9252005E-1,3.412628E-2,9.723544E-2,1.2114246E-1,3.6881676E-1,7.553603E-1,5.1609707E-1,3.1486535E-1,0E0,0E0,0E0,0E0,0E0,0E0,0E0,0E0,0E0,0E0,0E0,0E0,0E0,0E0,0E0,0E0],"parents":[2147483647,0,0,1,1,2,2,3,3,4,4,5,5,6,6,7,7,8,8,9,9,10,10,11,11,12,12,13,13,14,14],"right_children":[2,4,6,8,10,12,14,16,18,20,22,24,26,28,30,-1,-1,-1,-1,-1,-1,-1,-1,-1,-1,-1,-1,-1,-1,-1,-1],"split_conditions":[3.5179722E-1,1.5293077E-2,3.1880043E0,4.9795407E-1,1E0,5.2635413E-1,2E0,4.855597E-1,-3.708147E-2,3.7352858E0,6.759957E-1,1.8635154E0,6.5961814E-1,5.071029E0,7.5149024E-1,-3.2289114E-2,8.989795E-5,-1.6902152E-2,-4.441395E-2,-2.4005689E-2,-7.0421314E-3,9.838254E-4,-1.31034665E-2,1.1632674E-2,-2.896102E-2,3.8488094E-2,-6.528882E-4,2.4093347E-2,4.1348886E-2,9.356771E-3,2.5434412E-2],"split_indices":[1,1,2,3,6,1,4,3,1,2,3,0,1,0,3,0,0,0,0,0,0,0,0,0,0,0,0,0,0,0,0],"split_type":[0,0,0,0,0,0,0,0,0,0,0,0,0,0,0,0,0,0,0,0,0,0,0,0,0,0,0,0,0,0,0],"sum_hessian":[2.0512341E2,8.132327E1,1.2380014E2,5.0000072E1,3.1323202E1,1.7644293E1,1.06155846E2,8.711274E0,4.12888E1,1.5889946E1,1.5433256E1,6.0123916E0,1.1631901E1,6.676524E1,3.93906E1,6.3609486E0,2.350325E0,1.9360168E0,3.9352783E1,1.2016775E1,3.8731706E0,1.0239401E1,5.193855E0,1.3007019E0,4.71169E0,4.844544E0,6.787357E0,4.8300785E1,1.8464464E1,2.8246353E1,1.1144245E1],"tree_param":{"num_deleted":"0","num_feature":"7","num_nodes":"31","size_leaf_vector":"1"}},{"base_weights":[-5.2627977E-3,-4.008245E-1,2.2011916E-1,-5.0610596E-1,-1.7833667E-1,1.2736686E-1,3.1306544E-1,-3.1442627E-1,-5.376499E-1,2.3252299E-2,-2.1767E-1,2.2497308E-1,-6.452165E-2,4.5024285E-1,2.1586114E-1,-3.2409962E-2,-7.292475E-4,-1.6527768E-2,-4.3817867E-2,1.01950085E-2,-7.239081E-3,-2.0581746E-2,5.873939E-4,2.1306422E-2,-2.4226138E-2,-1.39195295E-2,1.1407401E-2,4.929605E-3,3.9822068E-2,1.0290646E-2,3.017822E-2],"categories":[],"categories_nodes":[],"categories_segments":[],"categories_sizes":[],"default_left":[0,0,0,0,0,0,0,0,0,0,0,0,0,0,0,0,0,0,0,0,0,0,0,0,0,0,0,0,0,0,0],"id":24,"left_children":[1,3,5,7,9,11,13,15,17,19,21,23,25,27,29,-1,-1,-1,-1,-1,-1,-1,-1,-1,-1,-1,-1,-1,-1,-1,-1],"loss_changes":[1.8097929E1,1.6355515E0,1.0751E0,1.300478E-1,2.0495361E-1,1.258525E0,7.550392E-1,2.5657392E-1,2.3799896E-2,7.1010545E-2,1.907152E-1,1.0465219E0,5.5017877E-1,4.4195032E-1,5.05038E-1,0E0,0E0,0E0,0E0,0E0,0E0,0E0,0E0,0E0,0E0,0E0,0E0,0E0,0E0,0E0,0E0],"parents":[2147483647,0,0,1,1,2,2,3,3,4,4,5,5,6,6,7,7,8,8,9,9,10,10,11,11,12,12,13,13,14,14],"right_children":[2,4,6,8,10,12,14,16,18,20,22,24,26,28,30,-1,-1,-1,-1,-1,-1,-1,-1,-1,-1,-1,-1,-1,-1,-1,-1],"split_conditions":[2.8557742E-1,1.5293077E-2,3.7884562E0,4.9795407E-1,4.9681282E-1,6.124565E-1,1E0,4.855597E-1,-3.708147E-2,1.5800298E0,8.644192E-1,2.179609E0,7.702945E-1,3.1380994E0,7.5149024E-1,-3.2409962E-2,-7.292475E-4,-1.6527768E-2,-4.3817867E-2,1.01950085E-2,-7.239081E-3,-2.0581746E-2,5.873939E-4,2.1306422E-2,-2.4226138E-2,-1.39195295E-2,1.1407401E-2,4.929605E-3,3.9822068E-2,1.0290646E-2,3.017822E-2],"split_indices":[1,1,0,3,3,3,4,3,1,0,3,0,3,2,3,0,0,0,0,0,0,0,0,0,0,0,0,0,0,0,0],"split_type":[0,0,0,0,0,0,0,0,0,0,0,0,0,0,0,0,0,0,0,0,0,0,0,0,0,0,0,0,0,0,0],"sum_hessian":[2.0101009E2,7.267746E1,1.2833263E2,4.8467724E1,2.4209734E1,6.541974E1,6.291289E1,8.398913E0,4.0068813E1,4.0192647E0,2.0190468E1,4.3248497E1,2.2171244E1,2.4585386E1,3.8327507E1,6.2232533E0,2.1756601E0,1.8183911E0,3.825042E1,2.0348988E0,1.9843657E0,1.7046877E1,3.1435916E0,4.056529E1,2.6832078E0,1.4609267E1,7.561977E0,2.9296188E0,2.1655767E1,2.6045528E1,1.2281977E1],"tree_param":{"num_deleted":"0","num_feature":"7","num_nodes":"31","size_leaf_vector":"1"}},{"base_weights":[-9.046447E-3,-3.7468514E-1,2.3783466E-1,-5.057145E-1,-1.7122945E-1,1.6392724E-1,3.2085624E-1,-3.360468E-1,-4.264204E-2,-2.663402E-1,-6.763419E-2,2.9625505E-1,-2.095768E-2,1.7985746E-1,4.1943285E-1,-3.3767216E-2,-7.66076E-3,-5.5733854E-3,-2.500358E-2,1.2722705E-2,-7.3586386E-3,-1.5812911E-2,2.532849E-2,-1.9124134E-2,6.810881E-3,2.9002402E-2,-3.6470417E-3,3.9773963E-2,7.752459E-3],"categories":[],"categories_nodes":[],"categories_segments":[],"categories_sizes":[],"default_left":[0,0,0,0,0,0,0,0,0,0,0,0,0,0,0,0,0,0,0,0,0,0,0,0,0,0,0,0,0],"id":25,"left_children":[1,3,5,7,9,11,13,15,-1,17,19,21,23,25,27,-1,-1,-1,-1,-1,-1,-1,-1,-1,-1,-1,-1,-1,-1],"loss_changes":[1.7715382E1,2.0218592E0,6.663637E-1,4.1430473E-2,3.021552E-1,1.5728133E0,6.770501E-1,1.5196753E-1,0E0,1.2907863E-1,1.0786727E-1,4.3838954E-1,6.6003567E-1,1.0060239E0,7.3191833E-1,0E0,0E0,0E0,0E0,0E0,0E0,0E0,0E0,0E0,0E0,0E0,0E0,0E0,0E0],"parents":[2147483647,0,0,1,1,2,2,3,3,4,4,5,5,6,6,7,7,9,9,10,10,11,11,12,12,13,13,14,14],"right_children":[2,4,6,8,10,12,14,16,-1,18,20,22,24,26,28,-1,-1,-1,-1,-1,-1,-1,-1,-1,-1,-1,-1,-1,-1],"split_conditions":[3.5179722E-1,1.5293077E-2,5.613246E-1,4.9795407E-1,1E0,5.751367E-1,3.4407384E0,4.786502E-1,-4.264204E-2,5.568654E-1,4.029899E-1,2.931727E0,3.5272424E0,3.2375014E0,3.85397E0,-3.3767216E-2,-7.66076E-3,-5.5733854E-3,-2.500358E-2,1.2722705E-2,-7.3586386E-3,-1.5812911E-2,2.532849E-2,-1.9124134E-2,6.810881E-3,2.9002402E-2,-3.6470417E-3,3.9773963E-2,7.752459E-3],"split_indices":[1,1,1,3,6,3,2,3,0,3,3,2,2,2,2,0,0,0,0,0,0,0,0,0,0,0,0,0,0],"split_type":[0,0,0,0,0,0,0,0,0,0,0,0,0,0,0,0,0,0,0,0,0,0,0,0,0,0,0,0,0],"sum_hessian":[1.942632E2,7.809072E1,1.16172485E2,4.6596233E1,3.1494486E1,6.3033424E1,5.3139057E1,8.30521E0,3.8291023E1,1.560061E1,1.5893876E1,3.638744E1,2.6645983E1,2.3026997E1,3.0112062E1,5.558267E0,2.7469425E0,3.4449112E0,1.2155698E1,1.0051585E0,1.4888718E1,1.095175E0,3.5292263E1,8.310041E0,1.8335943E1,1.2384279E1,1.0642717E1,2.382726E1,6.2848024E0],"tree_param":{"num_deleted":"0","num_feature":"7","num_nodes":"29","size_leaf_vector":"1"}},{"base_weights":[1.5583781E-2,-3.642422E-1,2.653749E-1,-5.006617E-1,-1.5202811E-1,1.8973906E-1,3.354452E-1,-3.2357305E-1,-4.242886E-2,-6.1520986E-2,-2.5343826E-1,2.8700465E-1,-7.411005E-3,-1.8233543E-2,3.5628623E-1,-3.5175886E-2,-3.4472544E-4,1.1938317E-2,-7.0359665E-3,-2.5947094E-2,-3.8247663E-3,-1.2027961E-2,2.8607668E-2,-6.801397E-3,2.3333056E-2,3.050555E-2,3.8326012E-3],"categories":[],"categories_nodes":[],"categories_segments":[],"categories_sizes":[],"default_left":[0,0,0,0,0,0,0,0,0,0,0,0,0,0,0,0,0,0,0,0,0,0,0,0,0,0,0],"id":26,"left_children":[1,3,5,7,9,11,13,15,-1,17,19,21,23,-1,25,-1,-1,-1,-1,-1,-1,-1,-1,-1,-1,-1,-1],"loss_changes":[1.8427094E1,2.1551123E0,5.571232E-1,7.283211E-2,2.7438784E-1,1.1264181E0,7.7979946E-1,3.4067208E-1,0E0,1.1346479E-1,1.9704235E-1,1.2666528E0,4.9699274E-1,0E0,4.2767906E-1,0E0,0E0,0E0,0E0,0E0,0E0,0E0,0E0,0E0,0E0,0E0,0E0],"parents":[2147483647,0,0,1,1,2,2,3,3,4,4,5,5,6,6,7,7,9,9,10,10,11,11,12,12,14,14],"right_children":[2,4,6,8,10,12,14,16,-1,18,20,22,24,-1,26,-1,-1,-1,-1,-1,-1,-1,-1,-1,-1,-1,-1],"split_conditions":[3.4105775E-1,1.5293077E-2,3.7884562E0,4.9795407E-1,6.630135E-1,6.124565E-1,4.602388E-1,4.855597E-1,-4.242886E-2,4.029899E-1,8.644192E-1,3.277522E0,5.289299E-1,-1.8233543E-2,3.8571444E0,-3.5175886E-2,-3.4472544E-4,1.1938317E-2,-7.0359665E-3,-2.5947094E-2,-3.8247663E-3,-1.2027961E-2,2.8607668E-2,-6.801397E-3,2.3333056E-2,3.050555E-2,3.8326012E-3],"split_indices":[1,1,0,3,3,3,1,3,0,3,3,2,1,0,2,0,0,0,0,0,0,0,0,0,0,0,0],"split_type":[0,0,0,0,0,0,0,0,0,0,0,0,0,0,0,0,0,0,0,0,0,0,0,0,0,0,0],"sum_hessian":[1.9220175E2,7.607138E1,1.1613038E2,4.5477467E1,3.059391E1,5.763037E1,5.8500004E1,8.239905E0,3.7237564E1,1.7014956E1,1.3578954E1,3.828593E1,1.9344439E1,1.7324761E0,5.676753E1,5.7655735E0,2.474332E0,1.3782067E0,1.5636749E1,9.668105E0,3.9108489E0,5.1637287E0,3.3122204E1,1.592723E1,3.4172094E0,5.2286556E1,4.4809737E0],"tree_param":{"num_deleted":"0","num_feature":"7","num_nodes":"27","size_leaf_vector":"1"}},{"base_weights":[8.911656E-3,-3.8216498E-1,2.2739397E-1,-4.910031E-1,-1.5813379E-1,1.2705079E-1,3.243895E-1,-1.9919266E-1,-4.0631928E-2,-2.3087499E-1,-6.945224E-2,-1.6846251E-1,1.6939628E-1,1.9066134E-1,4.0402204E-1,-2.2284016E-2,1.4836919E-3,-1.3093925E-2,-2.7259964E-2,-9.717501E-3,9.061641E-3,1.0821655E-2,-2.2068663E-2,3.706862E-2,1.1012281E-2,2.0622093E-2,-2.4670014E-2,3.6831044E-2,1.01223495E-2],"categories":[],"categories_nodes":[],"categories_segments":[],"categories_sizes":[],"default_left":[0,0,0,0,0,0,0,0,0,0,0,0,0,0,0,0,0,0,0,0,0,0,0,0,0,0,0,0,0],"id":27,"left_children":[1,3,5,7,9,11,13,15,-1,17,19,21,23,25,27,-1,-1,-1,-1,-1,-1,-1,-1,-1,-1,-1,-1,-1,-1],"loss_changes":[1.6125893E1,1.5719995E0,1.1370416E0,1.2099075E-1,1.3617975E-1,7.937082E-1,5.7163763E-1,7.620777E-2,0E0,3.6767066E-2,1.2841581E-1,3.0366227E-1,4.3992805E-1,9.0435535E-1,5.2492476E-1,0E0,0E0,0E0,0E0,0E0,0E0,0E0,0E0,0E0,0E0,0E0,0E0,0E0,0E0],"parents":[2147483647,0,0,1,1,2,2,3,3,4,4,5,5,6,6,7,7,9,9,10,10,11,11,12,12,13,13,14,14],"right_children":[2,4,6,8,10,12,14,16,-1,18,20,22,24,26,28,-1,-1,-1,-1,-1,-1,-1,-1,-1,-1,-1,-1,-1,-1],"split_conditions":[2.8557742E-1,1.5293077E-2,5.2635413E-1,-2.6678236E-2,1E0,3.1880043E0,3.4407384E0,3.806218E0,-4.0631928E-2,2.1225193E-1,2E0,1.864798E0,3.2382863E0,3.3991954E0,3.8571444E0,-2.2284016E-2,1.4836919E-3,-1.3093925E-2,-2.7259964E-2,-9.717501E-3,9.061641E-3,1.0821655E-2,-2.2068663E-2,3.706862E-2,1.1012281E-2,2.0622093E-2,-2.4670014E-2,3.6831044E-2,1.01223495E-2],"split_indices":[1,1,1,1,6,2,2,2,0,1,4,0,2,2,2,0,0,0,0,0,0,0,0,0,0,0,0,0,0],"split_type":[0,0,0,0,0,0,0,0,0,0,0,0,0,0,0,0,0,0,0,0,0,0,0,0,0,0,0,0,0],"sum_hessian":[1.8671494E2,6.665512E1,1.2005981E2,4.40589E1,2.2596226E1,6.014689E1,5.9912918E1,3.1113987E0,4.09475E1,1.1532916E1,1.106331E1,7.1652203E0,5.2981667E1,2.3628122E1,3.6284794E1,2.075626E0,1.0357729E0,8.700938E0,2.8319776E0,8.872705E0,2.190605E0,1.803909E0,5.361311E0,3.8383584E0,4.914331E1,2.125325E1,2.3748722E0,2.9610939E1,6.6738553E0],"tree_param":{"num_deleted":"0","num_feature":"7","num_nodes":"29","size_leaf_vector":"1"}},{"base_weights":[8.133452E-3,-3.4041104E-1,2.477208E-1,-4.851185E-1,-1.4250748E-1,2.841238E-1,5.3601414E-2,-2.8695527E-1,-4.161703E-2,-5.47797E-3,-2.0334736E-1,1.9323175E-1,3.623128E-1,-1.7057834E-2,1.0438209E-1,-1.3509066E-3,-2.8689295E-2,-1.4638796E-2,3.569534E-3,-2.1307718E-2,-4.1663754E-3,-2.3705177E-2,1.8520547E-2,3.20071E-2,-4.037948E-3,1.479606E-3,2.2509648E-2],"categories":[],"categories_nodes":[],"categories_segments":[],"categories_sizes":[],"default_left":[0,0,0,0,0,0,0,0,0,0,0,0,0,0,0,0,0,0,0,0,0,0,0,0,0,0,0],"id":28,"left_children":[1,3,5,7,9,11,13,15,-1,17,19,21,23,-1,25,-1,-1,-1,-1,-1,-1,-1,-1,-1,-1,-1,-1],"loss_changes":[1.5170734E1,2.0505753E0,7.454386E-1,1.4516258E-1,2.713201E-1,5.7253027E-1,2.692795E-1,1.603874E-1,0E0,1.0665393E-1,2.015276E-1,8.921615E-1,7.602558E-1,0E0,2.3782314E-1,0E0,0E0,0E0,0E0,0E0,0E0,0E0,0E0,0E0,0E0,0E0,0E0],"parents":[2147483647,0,0,1,1,2,2,3,3,4,4,5,5,6,6,7,7,9,9,10,10,11,11,12,12,14,14],"right_children":[2,4,6,8,10,12,14,16,-1,18,20,22,24,-1,26,-1,-1,-1,-1,-1,-1,-1,-1,-1,-1,-1,-1],"split_conditions":[3.7645674E-1,1.5293077E-2,3E0,4.9795407E-1,5.6518155E-1,3.7884562E0,4.4869927E-1,-8.554448E-3,-4.161703E-2,3.0568273E0,3.7966123E0,4.0757117E-1,3.8571444E0,-1.7057834E-2,7.500766E-1,-1.3509066E-3,-2.8689295E-2,-1.4638796E-2,3.569534E-3,-2.1307718E-2,-4.1663754E-3,-2.3705177E-2,1.8520547E-2,3.20071E-2,-4.037948E-3,1.479606E-3,2.2509648E-2],"split_indices":[1,1,4,3,3,0,1,1,0,2,2,3,2,0,3,0,0,0,0,0,0,0,0,0,0,0,0],"split_type":[0,0,0,0,0,0,0,0,0,0,0,0,0,0,0,0,0,0,0,0,0,0,0,0,0,0,0],"sum_hessian":[1.7966074E2,7.301698E1,1.06643745E2,4.133873E1,3.1678255E1,8.941263E1,1.7231113E1,7.6002083E0,3.3738525E1,1.0075428E1,2.1602825E1,4.2952797E1,4.6459835E1,2.2435582E0,1.49875555E1,1.8528823E0,5.747326E0,1.6338121E0,8.441616E0,1.471404E1,6.888786E0,2.6258543E0,4.0326942E1,4.2592747E1,3.8670855E0,1.0834438E1,4.1531167E0],"tree_param":{"num_deleted":"0","num_feature":"7","num_nodes":"27","size_leaf_vector":"1"}},{"base_weights":[-5.8401367E-3,-3.922999E-1,1.6334286E-1,-2.0579974E-1,-4.3252948E-1,7.216914E-2,2.908271E-1,-2.9875317E-1,-1.30310515E-2,-3.690729E-2,-2.83991E-1,1.6242937E-3,3.1419763E-1,3.2610318E-1,-3.634523E-2,-2.9108431E-2,3.6187525E-4,-8.097627E-3,1.1861074E-2,-8.352544E-3,-2.8735979E-2,1.30860275E-2,-9.640646E-3,3.60176E-2,3.3348377E-3,1.6709903E-2,3.6031347E-2,-1.434012E-2,1.833184E-2],"categories":[],"categories_nodes":[],"categories_segments":[],"categories_sizes":[],"default_left":[0,0,0,0,0,0,0,0,0,0,0,0,0,0,0,0,0,0,0,0,0,0,0,0,0,0,0,0,0],"id":29,"left_children":[1,3,5,7,9,11,13,15,17,-1,19,21,23,25,27,-1,-1,-1,-1,-1,-1,-1,-1,-1,-1,-1,-1,-1,-1],"loss_changes":[1.1420404E1,3.0998325E-1,1.3913617E0,1.9936663E-1,5.2306175E-2,1.2317919E0,5.92803E-1,1.5184975E-1,8.237407E-2,0E0,9.162134E-2,1.1449817E0,5.848423E-1,5.694208E-1,2.610864E-1,0E0,0E0,0E0,0E0,0E0,0E0,0E0,0E0,0E0,0E0,0E0,0E0,0E0,0E0],"parents":[2147483647,0,0,1,1,2,2,3,3,4,4,5,5,6,6,7,7,8,8,10,10,11,11,12,12,13,13,14,14],"right_children":[2,4,6,8,10,12,14,16,18,-1,20,22,24,26,28,-1,-1,-1,-1,-1,-1,-1,-1,-1,-1,-1,-1,-1,-1],"split_conditions":[1.6336694E0,4.9795407E-1,3.8735178E0,4.786502E-1,3.8782594E0,4.1493063E0,3.85397E0,3E0,3.6003215E0,-3.690729E-2,4.116269E0,5.284591E-1,6.4258915E-1,3.4407384E0,5.8135834E0,-2.9108431E-2,3.6187525E-4,-8.097627E-3,1.1861074E-2,-8.352544E-3,-2.8735979E-2,1.30860275E-2,-9.640646E-3,3.60176E-2,3.3348377E-3,1.6709903E-2,3.6031347E-2,-1.434012E-2,1.833184E-2],"split_indices":[0,3,0,3,2,2,2,4,2,0,2,3,3,2,0,0,0,0,0,0,0,0,0,0,0,0,0,0,0],"split_type":[0,0,0,0,0,0,0,0,0,0,0,0,0,0,0,0,0,0,0,0,0,0,0,0,0,0,0,0,0],"sum_hessian":[1.7269081E2,5.2179626E1,1.20511185E2,1.0343564E1,4.1836063E1,7.117477E1,4.933642E1,6.607577E0,3.7359874E0,3.3275764E1,8.560297E0,5.58908E1,1.5283966E1,4.453759E1,4.798827E0,5.2753973E0,1.3321793E0,2.6561577E0,1.0798296E0,3.2317398E0,5.328557E0,2.3882538E1,3.2008263E1,9.760152E0,5.5238147E0,2.4299137E1,2.0238453E1,3.330802E0,1.4680252E0],"tree_param":{"num_deleted":"0","num_feature":"7","num_nodes":"29","size_leaf_vector":"1"}},{"base_weights":[-6.63359E-3,-3.9407384E-1,1.5346798E-1,-2.1048395E-1,-4.337091E-1,3.460016E-2,3.0413458E-1,-2.9613164E-1,-2.9836452E-2,-4.5805568E-1,-2.955368E-1,-7.864436E-2,1.5782459E-1,3.285161E-1,-2.4086459E-2,-2.878868E-2,5.155659E-4,-1.068703E-2,1.2709764E-2,-2.2475319E-2,-3.8476996E-2,-2.77311E-2,-3.0088595E-3,1.8135322E-2,-1.3525407E-2,-1.7819654E-2,1.6826326E-2,1.7280335E-2,3.540134E-2,-1.3149489E-2,1.8972037E-2],"categories":[],"categories_nodes":[],"categories_segments":[],"categories_sizes":[],"default_left":[0,0,0,0,0,0,0,0,0,0,0,0,0,0,0,0,0,0,0,0,0,0,0,0,0,0,0,0,0,0,0],"id":30,"left_children":[1,3,5,7,9,11,13,15,17,19,21,23,25,27,29,-1,-1,-1,-1,-1,-1,-1,-1,-1,-1,-1,-1,-1,-1,-1,-1],"loss_changes":[1.110857E1,2.897129E-1,2.2594914E0,1.6506633E-1,6.319523E-3,1.016857E0,4.542122E-1,1.471808E-1,1.1377321E-1,2.7852058E-3,1.0727918E-1,1.0923553E0,7.422847E-1,5.711551E-1,2.1444614E-1,0E0,0E0,0E0,0E0,0E0,0E0,0E0,0E0,0E0,0E0,0E0,0E0,0E0,0E0,0E0,0E0],"parents":[2147483647,0,0,1,1,2,2,3,3,4,4,5,5,6,6,7,7,8,8,9,9,10,10,11,11,12,12,13,13,14,14],"right_children":[2,4,6,8,10,12,14,16,18,20,22,24,26,28,30,-1,-1,-1,-1,-1,-1,-1,-1,-1,-1,-1,-1,-1,-1,-1,-1],"split_conditions":[1.6336694E0,4.9795407E-1,3.7884562E0,4.786502E-1,3.8782594E0,3.626206E0,3.8571444E0,3E0,3.6003215E0,5.87199E-1,7.7870685E-1,4.7094372E-1,4.5783883E-1,3.4407384E0,7.08469E0,-2.878868E-2,5.155659E-4,-1.068703E-2,1.2709764E-2,-2.2475319E-2,-3.8476996E-2,-2.77311E-2,-3.0088595E-3,1.8135322E-2,-1.3525407E-2,-1.7819654E-2,1.6826326E-2,1.7280335E-2,3.540134E-2,-1.3149489E-2,1.8972037E-2],"split_indices":[0,3,0,3,2,2,2,4,2,3,3,3,3,2,0,0,0,0,0,0,0,0,0,0,0,0,0,0,0,0,0],"split_type":[0,0,0,0,0,0,0,0,0,0,0,0,0,0,0,0,0,0,0,0,0,0,0,0,0,0,0,0,0,0,0],"sum_hessian":[1.7710944E2,5.1359596E1,1.2574985E2,1.0239751E1,4.1119846E1,7.098006E1,5.4769794E1,6.5127025E0,3.7270489E0,3.2991497E1,8.128346E0,3.717637E1,3.3803684E1,5.0981773E1,3.7880213E0,5.2232885E0,1.2894139E0,2.5933344E0,1.1337144E0,5.297334E0,2.7694164E1,6.4971437E0,1.6312028E0,8.149753E0,2.9026617E1,3.7051415E0,3.0098541E1,2.7115322E1,2.386645E1,2.7058225E0,1.0821987E0],"tree_param":{"num_deleted":"0","num_feature":"7","num_nodes":"31","size_leaf_vector":"1"}},{"base_weights":[-9.0225495E-4,-3.6455193E-1,1.8603782E-1,-4.7359458E-1,-1.4851387E-1,7.353207E-2,3.0075437E-1,-2.753399E-1,-5.096916E-1,1.4342962E-2,-2.0656206E-1,2.4840641E-1,-7.2578E-2,6.283307E-2,3.346249E-1,1.6321389E-4,-2.8513296E-2,-4.1959874E-2,-1.4893755E-2,-4.396144E-3,1.3594952E-2,-2.0735683E-2,2.4441275E-4,1.2109137E-2,4.3368682E-2,1.0281825E-3,-2.1095604E-2,2.271231E-2,-2.7208611E-2,4.6955526E-2,2.4529435E-2],"categories":[],"categories_nodes":[],"categories_segments":[],"categories_sizes":[],"default_left":[0,0,0,0,0,0,0,0,0,0,0,0,0,0,0,0,0,0,0,0,0,0,0,0,0,0,0,0,0,0,0],"id":31,"left_children":[1,3,5,7,9,11,13,15,17,19,21,23,25,27,29,-1,-1,-1,-1,-1,-1,-1,-1,-1,-1,-1,-1,-1,-1,-1,-1],"loss_changes":[1.1964599E1,1.3373556E0,1.4781919E0,1.405859E-1,2.062226E-1,1.5513979E0,4.4019604E-1,1.8561572E-1,5.580616E-2,8.03364E-2,1.763925E-1,7.029706E-1,5.4984343E-1,8.4157884E-1,1.7245197E-1,0E0,0E0,0E0,0E0,0E0,0E0,0E0,0E0,0E0,0E0,0E0,0E0,0E0,0E0,0E0,0E0],"parents":[2147483647,0,0,1,1,2,2,3,3,4,4,5,5,6,6,7,7,8,8,9,9,10,10,11,11,12,12,13,13,14,14],"right_children":[2,4,6,8,10,12,14,16,18,20,22,24,26,28,30,-1,-1,-1,-1,-1,-1,-1,-1,-1,-1,-1,-1,-1,-1,-1,-1],"split_conditions":[2.6731881E-1,1.5293077E-2,5.2635413E-1,4.9795407E-1,5.6518155E-1,4.9795407E-1,4.9795407E-1,-8.554448E-3,4.3756313E0,3E0,8.644192E-1,4.8922822E-1,4.7345448E-1,4.6958438E-1,2.7880929E0,1.6321389E-4,-2.8513296E-2,-4.1959874E-2,-1.4893755E-2,-4.396144E-3,1.3594952E-2,-2.0735683E-2,2.4441275E-4,1.2109137E-2,4.3368682E-2,1.0281825E-3,-2.1095604E-2,2.271231E-2,-2.7208611E-2,4.6955526E-2,2.4529435E-2],"split_indices":[1,1,1,3,3,3,3,1,2,4,3,3,1,3,2,0,0,0,0,0,0,0,0,0,0,0,0,0,0,0,0],"split_type":[0,0,0,0,0,0,0,0,0,0,0,0,0,0,0,0,0,0,0,0,0,0,0,0,0,0,0,0,0,0,0],"sum_hessian":[1.7400229E2,5.875589E1,1.152464E2,3.8254967E1,2.0500923E1,5.901233E1,5.6234074E1,7.22131E0,3.1033655E1,5.584964E0,1.491596E1,2.654334E1,3.2468987E1,7.3636518E0,4.8870422E1,1.8538189E0,5.3674912E0,2.9081427E1,1.952228E0,4.3115935E0,1.2733703E0,1.1733267E1,3.1826935E0,2.1090267E1,5.4530745E0,2.3083363E1,9.385625E0,4.945665E0,2.4179869E0,2.8886843E0,4.5981735E1],"tree_param":{"num_deleted":"0","num_feature":"7","num_nodes":"31","size_leaf_vector":"1"}},{"base_weights":[2.2187975E-4,-3.656365E-1,1.4525239E-1,-2.0046383E-1,-4.196056E-1,4.589727E-2,2.761665E-1,-2.5920048E-1,9.9363625E-3,-3.6529668E-2,-2.516673E-1,1.1820056E-1,-1.00603834E-1,3.0250004E-1,-2.7023712E-2,-2.3654284E-2,-6.740203E-3,-1.7173102E-2,1.7190434E-2,-2.3766844E-2,-7.177431E-4,-9.091004E-3,1.3769074E-2,-2.478921E-2,2.1436915E-3,1.446923E-2,3.4292463E-2,-1.3273997E-2,1.8088186E-2],"categories":[],"categories_nodes":[],"categories_segments":[],"categories_sizes":[],"default_left":[0,0,0,0,0,0,0,0,0,0,0,0,0,0,0,0,0,0,0,0,0,0,0,0,0,0,0,0,0],"id":32,"left_children":[1,3,5,7,9,11,13,15,17,-1,19,21,23,25,27,-1,-1,-1,-1,-1,-1,-1,-1,-1,-1,-1,-1,-1,-1],"loss_changes":[9.166243E0,3.530407E-1,1.5964077E0,1.7549354E-1,1.0916853E-1,7.695867E-1,4.3275023E-1,4.5130968E-2,2.3101963E-1,0E0,9.3655646E-2,6.239343E-1,6.5287244E-1,6.745291E-1,2.1920794E-1,0E0,0E0,0E0,0E0,0E0,0E0,0E0,0E0,0E0,0E0,0E0,0E0,0E0,0E0],"parents":[2147483647,0,0,1,1,2,2,3,3,4,4,5,5,6,6,7,7,8,8,10,10,11,11,12,12,13,13,14,14],"right_children":[2,4,6,8,10,12,14,16,18,-1,20,22,24,26,28,-1,-1,-1,-1,-1,-1,-1,-1,-1,-1,-1,-1,-1,-1],"split_conditions":[1.6336694E0,5.653808E-1,3.7884562E0,3.7067194E0,3.8782594E0,6.255847E-1,3.8571444E0,3E0,1E0,-3.6529668E-2,7.7870685E-1,3.277522E0,7.334524E-1,3.4407384E0,5.8135834E0,-2.3654284E-2,-6.740203E-3,-1.7173102E-2,1.7190434E-2,-2.3766844E-2,-7.177431E-4,-9.091004E-3,1.3769074E-2,-2.478921E-2,2.1436915E-3,1.446923E-2,3.4292463E-2,-1.3273997E-2,1.8088186E-2],"split_indices":[0,3,0,2,2,3,2,4,4,0,3,2,3,2,0,0,0,0,0,0,0,0,0,0,0,0,0,0,0],"split_type":[0,0,0,0,0,0,0,0,0,0,0,0,0,0,0,0,0,0,0,0,0,0,0,0,0,0,0,0,0],"sum_hessian":[1.7074945E2,4.8040333E1,1.2270911E2,1.299217E1,3.5048164E1,7.0531204E1,5.2177906E1,9.975427E0,3.0167434E0,2.7309832E1,7.738333E0,4.7353706E1,2.3177494E1,4.801026E1,4.167645E0,7.6833014E0,2.2921255E0,1.4167202E0,1.6000234E0,6.329682E0,1.4086512E0,8.725252E0,3.8628456E1,8.228886E0,1.4948609E1,2.568216E1,2.2328104E1,2.913421E0,1.2542238E0],"tree_param":{"num_deleted":"0","num_feature":"7","num_nodes":"29","size_leaf_vector":"1"}},{"base_weights":[1.2399647E-2,-3.1718397E-1,2.1659356E-1,-4.6174088E-1,-1.2768774E-1,1.15333706E-1,3.0859706E-1,-2.5229818E-1,-3.8921952E-2,-2.202282E-1,-2.8042546E-2,-2.2893603E-1,1.5869398E-1,3.440695E-1,9.292949E-2,-2.9296394E-2,2.5320079E-3,-2.0069782E-2,-7.23946E-3,1.192524E-2,-7.856196E-3,9.216252E-3,-2.636094E-2,4.0882487E-2,9.265898E-3,-4.3129893E-3,2.8512409E-2,-2.0126055E-3,1.5891792E-2],"categories":[],"categories_nodes":[],"categories_segments":[],"categories_sizes":[],"default_left":[0,0,0,0,0,0,0,0,0,0,0,0,0,0,0,0,0,0,0,0,0,0,0,0,0,0,0,0,0],"id":33,"left_children":[1,3,5,7,9,11,13,15,-1,17,19,21,23,25,27,-1,-1,-1,-1,-1,-1,-1,-1,-1,-1,-1,-1,-1,-1],"loss_changes":[1.1565188E1,1.7422638E0,9.5260525E-1,6.888199E-2,2.6895514E-1,8.1395227E-1,3.8863373E-1,2.051175E-1,0E0,3.821987E-2,2.073986E-1,2.5381854E-1,6.48564E-1,2.4918747E-1,1.1904627E-1,0E0,0E0,0E0,0E0,0E0,0E0,0E0,0E0,0E0,0E0,0E0,0E0,0E0,0E0],"parents":[2147483647,0,0,1,1,2,2,3,3,4,4,5,5,6,6,7,7,9,9,10,10,11,11,12,12,13,13,14,14],"right_children":[2,4,6,8,10,12,14,16,-1,18,20,22,24,26,28,-1,-1,-1,-1,-1,-1,-1,-1,-1,-1,-1,-1,-1,-1],"split_conditions":[3.5179722E-1,1.5293077E-2,5.2635413E-1,-1.2976565E-2,1E0,3.1929424E0,3E0,1E0,-3.8921952E-2,3.7352858E0,1.5800298E0,1.8635154E0,3.2382863E0,2.6217659E0,3.4803166E0,-2.9296394E-2,2.5320079E-3,-2.0069782E-2,-7.23946E-3,1.192524E-2,-7.856196E-3,9.216252E-3,-2.636094E-2,4.0882487E-2,9.265898E-3,-4.3129893E-3,2.8512409E-2,-2.0126055E-3,1.5891792E-2],"split_indices":[1,1,1,1,6,2,4,6,0,2,0,0,2,2,2,0,0,0,0,0,0,0,0,0,0,0,0,0,0],"split_type":[0,0,0,0,0,0,0,0,0,0,0,0,0,0,0,0,0,0,0,0,0,0,0,0,0,0,0,0,0],"sum_hessian":[1.6982713E2,6.475484E1,1.0507229E2,3.5918095E1,2.883674E1,5.1092747E1,5.3979546E1,4.9834666E0,3.0934628E1,1.4323959E1,1.4512781E1,5.236489E0,4.585626E1,4.5843887E1,8.135655E0,3.3499389E0,1.633528E0,1.0831719E1,3.4922395E0,3.798752E0,1.0714029E1,1.1513811E0,4.085108E0,3.7896783E0,4.206658E1,1.2768991E0,4.456699E1,4.202967E0,3.9326887E0],"tree_param":{"num_deleted":"0","num_feature":"7","num_nodes":"29","size_leaf_vector":"1"}},{"base_weights":[-4.042861E-3,-3.1086534E-1,1.9149227E-1,-4.592695E-1,-1.2514631E-1,1.1280424E-1,2.6777202E-1,-2.4738912E-1,-4.999629E-1,-2.1465783E-1,-3.0228443E-2,-2.3854036E-2,1.4321817E-1,-1.7341316E-2,2.8828323E-1,-2.7314752E-2,3.7485256E-3,-1.2559129E-2,-4.0902358E-2,1.1173867E-3,-1.912659E-2,7.067313E-3,-6.1454717E-3,1.3738373E-2,-1.2673115E-2,3.570545E-2,1.6766163E-2],"categories":[],"categories_nodes":[],"categories_segments":[],"categories_sizes":[],"default_left":[0,0,0,0,0,0,0,0,0,0,0,0,0,0,0,0,0,0,0,0,0,0,0,0,0,0,0],"id":34,"left_children":[1,3,5,7,9,11,13,15,17,19,21,-1,23,-1,25,-1,-1,-1,-1,-1,-1,-1,-1,-1,-1,-1,-1],"loss_changes":[1.0060717E1,1.7413864E0,5.846355E-1,1.8588018E-1,2.514882E-1,6.945425E-1,5.7218766E-1,2.308493E-1,3.2834053E-2,8.968562E-2,9.462429E-2,0E0,4.5059323E-1,0E0,5.237956E-1,0E0,0E0,0E0,0E0,0E0,0E0,0E0,0E0,0E0,0E0,0E0,0E0],"parents":[2147483647,0,0,1,1,2,2,3,3,4,4,5,5,6,6,7,7,8,8,9,9,10,10,12,12,14,14],"right_children":[2,4,6,8,10,12,14,16,18,20,22,-1,24,-1,26,-1,-1,-1,-1,-1,-1,-1,-1,-1,-1,-1,-1],"split_conditions":[3.5179722E-1,1.5293077E-2,3.7884562E0,4.9795407E-1,1E0,4.0757117E-1,4.8117653E-1,4.855597E-1,-3.708147E-2,4.7536227E-1,1.5800298E0,-2.3854036E-2,2.179609E0,-1.7341316E-2,6.476596E-1,-2.7314752E-2,3.7485256E-3,-1.2559129E-2,-4.0902358E-2,1.1173867E-3,-1.912659E-2,7.067313E-3,-6.1454717E-3,1.3738373E-2,-1.2673115E-2,3.570545E-2,1.6766163E-2],"split_indices":[1,1,0,3,6,3,1,3,1,3,0,0,0,0,1,0,0,0,0,0,0,0,0,0,0,0,0],"split_type":[0,0,0,0,0,0,0,0,0,0,0,0,0,0,0,0,0,0,0,0,0,0,0,0,0,0,0],"sum_hessian":[1.6570155E2,6.426726E1,1.01434296E2,3.49036E1,2.9363659E1,5.1149124E1,5.0285175E1,6.764079E0,2.813952E1,1.4462966E1,1.4900693E1,2.9177685E0,4.8231358E1,1.6536115E0,4.863156E1,5.004269E0,1.7598103E0,1.3738673E0,2.6765652E1,1.4373015E0,1.3025664E1,3.9505444E0,1.0950149E1,4.4459526E1,3.7718303E0,1.4615095E1,3.4016468E1],"tree_param":{"num_deleted":"0","num_feature":"7","num_nodes":"27","size_leaf_vector":"1"}},{"base_weights":[8.335495E-3,-2.875033E-1,2.1324998E-1,-4.47112E-1,-1.1531505E-1,1.19489126E-1,2.8774917E-1,-2.4684052E-1,-4.89466E-1,-2.1958163E-1,-1.5546804E-2,2.3527592E-1,-8.221287E-2,1.5455562E-1,3.7969187E-1,-2.747629E-2,-1.5497615E-3,-4.0417656E-2,-1.2414121E-2,-1.9288113E-2,-1.1663358E-3,8.117723E-3,-6.151811E-3,3.6761485E-2,9.981904E-3,4.525457E-3,-2.629584E-2,1.785288E-2,-2.9307624E-2,3.5301454E-2,1.0940996E-2],"categories":[],"categories_nodes":[],"categories_segments":[],"categories_sizes":[],"default_left":[0,0,0,0,0,0,0,0,0,0,0,0,0,0,0,0,0,0,0,0,0,0,0,0,0,0,0,0,0,0,0],"id":35,"left_children":[1,3,5,7,9,11,13,15,17,19,21,23,25,27,29,-1,-1,-1,-1,-1,-1,-1,-1,-1,-1,-1,-1,-1,-1,-1,-1],"loss_changes":[1.0122165E1,1.8265944E0,6.5450335E-1,1.7705774E-1,3.525775E-1,1.0790799E0,6.056199E-1,1.724039E-1,6.890917E-2,6.9971085E-2,1.4107929E-1,6.634116E-1,6.1002696E-1,9.3370676E-1,4.094448E-1,0E0,0E0,0E0,0E0,0E0,0E0,0E0,0E0,0E0,0E0,0E0,0E0,0E0,0E0,0E0,0E0],"parents":[2147483647,0,0,1,1,2,2,3,3,4,4,5,5,6,6,7,7,8,8,9,9,10,10,11,11,12,12,13,13,14,14],"right_children":[2,4,6,8,10,12,14,16,18,20,22,24,26,28,30,-1,-1,-1,-1,-1,-1,-1,-1,-1,-1,-1,-1,-1,-1,-1,-1],"split_conditions":[4.041169E-1,1.5293077E-2,5.2635413E-1,4.9795407E-1,1E0,5.751367E-1,3.4407384E0,3.7067194E0,4.3756313E0,9.49999E-1,5.430328E-1,1.8975611E0,4.7345448E-1,3.3991954E0,3.85397E0,-2.747629E-2,-1.5497615E-3,-4.0417656E-2,-1.2414121E-2,-1.9288113E-2,-1.1663358E-3,8.117723E-3,-6.151811E-3,3.6761485E-2,9.981904E-3,4.525457E-3,-2.629584E-2,1.785288E-2,-2.9307624E-2,3.5301454E-2,1.0940996E-2],"split_indices":[1,1,1,3,6,3,2,2,2,3,3,0,1,2,2,0,0,0,0,0,0,0,0,0,0,0,0,0,0,0,0],"split_type":[0,0,0,0,0,0,0,0,0,0,0,0,0,0,0,0,0,0,0,0,0,0,0,0,0,0,0,0,0,0,0],"sum_hessian":[1.6496141E2,6.733934E1,9.762208E1,3.411761E1,3.322173E1,4.4376278E1,5.32458E1,7.1476936E0,2.6969917E1,1.5657425E1,1.7564304E1,2.808669E1,1.6289587E1,2.283977E1,3.0406029E1,4.658981E0,2.488713E0,2.5267748E1,1.70217E0,1.4010595E1,1.6468292E0,5.816386E0,1.1747917E1,8.229024E0,1.9857666E1,1.09146805E1,5.3749056E0,2.0686796E1,2.1529741E0,2.3606056E1,6.799972E0],"tree_param":{"num_deleted":"0","num_feature":"7","num_nodes":"31","size_leaf_vector":"1"}},{"base_weights":[-3.7767007E-3,-3.3615556E-1,1.6827019E-1,-4.4784817E-1,-1.5043758E-1,6.886007E-2,2.5921598E-1,-2.6070544E-1,-3.85555E-2,-2.2227985E-1,-6.860242E-2,1.6001505E-1,-9.659252E-2,1.3106062E-1,3.1667933E-1,-2.787444E-2,-6.9774274E-4,-1.1765851E-2,-2.7113039E-2,4.724182E-3,-1.0944921E-2,2.3888702E-2,2.9522374E-3,-1.7069956E-2,1.3723878E-2,2.2280626E-2,-2.410579E-2,-1.5119115E-2,2.6924253E-2],"categories":[],"categories_nodes":[],"categories_segments":[],"categories_sizes":[],"default_left":[0,0,0,0,0,0,0,0,0,0,0,0,0,0,0,0,0,0,0,0,0,0,0,0,0,0,0,0,0],"id":36,"left_children":[1,3,5,7,9,11,13,15,-1,17,19,21,23,25,27,-1,-1,-1,-1,-1,-1,-1,-1,-1,-1,-1,-1,-1,-1],"loss_changes":[9.156367E0,1.0653954E0,9.361596E-1,8.871269E-2,1.1417723E-1,7.963371E-1,3.6165E-1,1.5956178E-1,0E0,4.90672E-2,1.1028209E-1,5.650151E-1,6.3207525E-1,1.2731714E0,4.363532E-1,0E0,0E0,0E0,0E0,0E0,0E0,0E0,0E0,0E0,0E0,0E0,0E0,0E0,0E0],"parents":[2147483647,0,0,1,1,2,2,3,3,4,4,5,5,6,6,7,7,9,9,10,10,11,11,12,12,13,13,14,14],"right_children":[2,4,6,8,10,12,14,16,-1,18,20,22,24,26,28,-1,-1,-1,-1,-1,-1,-1,-1,-1,-1,-1,-1,-1,-1],"split_conditions":[2.8557742E-1,1.5293077E-2,5.167008E-1,-8.554448E-3,1E0,2.027102E0,3.3731408E0,1E0,-3.85555E-2,2.1225193E-1,1.5800298E0,4.4014087E-1,3.3524003E0,3.2375014E0,2.036172E0,-2.787444E-2,-6.9774274E-4,-1.1765851E-2,-2.7113039E-2,4.724182E-3,-1.0944921E-2,2.3888702E-2,2.9522374E-3,-1.7069956E-2,1.3723878E-2,2.2280626E-2,-2.410579E-2,-1.5119115E-2,2.6924253E-2],"split_indices":[1,1,1,1,6,0,2,6,0,1,0,1,0,2,0,0,0,0,0,0,0,0,0,0,0,0,0,0,0],"split_type":[0,0,0,0,0,0,0,0,0,0,0,0,0,0,0,0,0,0,0,0,0,0,0,0,0,0,0,0,0],"sum_hessian":[1.581299E2,5.360878E1,1.04521126E2,3.2594616E1,2.1014162E1,5.0776268E1,5.3744858E1,6.3557415E0,2.6238874E1,1.0276412E1,1.073775E1,3.2760147E1,1.8016117E1,1.7653843E1,3.6091015E1,4.430549E0,1.9251927E0,7.6223817E0,2.65403E0,3.7861469E0,6.951604E0,1.4740497E1,1.8019651E1,1.2692479E1,5.323639E0,1.342996E1,4.2238827E0,1.0430218E0,3.5047993E1],"tree_param":{"num_deleted":"0","num_feature":"7","num_nodes":"29","size_leaf_vector":"1"}},{"base_weights":[6.851309E-3,-3.008092E-1,1.9197969E-1,-4.4035605E-1,-1.2814403E-1,1.04283534E-1,2.7845848E-1,-2.4936415E-1,-4.787755E-1,-2.1718925E-1,-3.5496484E-2,2.548557E-1,7.7107403E-4,-1.8774888E-2,2.995071E-1,-2.6939446E-2,8.574662E-4,-1.0329093E-2,-3.9533757E-2,-3.2900372E-3,-2.1051299E-2,-7.053855E-3,1.0231819E-2,2.5123617E-2,-3.6774125E-2,-1.6045677E-2,7.576555E-3,2.9146094E-2,1.2659596E-2],"categories":[],"categories_nodes":[],"categories_segments":[],"categories_sizes":[],"default_left":[0,0,0,0,0,0,0,0,0,0,0,0,0,0,0,0,0,0,0,0,0,0,0,0,0,0,0,0,0],"id":37,"left_children":[1,3,5,7,9,11,13,15,17,19,21,23,25,-1,27,-1,-1,-1,-1,-1,-1,-1,-1,-1,-1,-1,-1,-1,-1],"loss_changes":[9.150113E0,1.3979616E0,7.3143625E-1,1.2254858E-1,2.2649875E-1,8.00711E-1,6.091454E-1,1.765225E-1,7.8121185E-2,1.0471678E-1,1.4131859E-1,1.0296036E0,6.13906E-1,0E0,3.8518238E-1,0E0,0E0,0E0,0E0,0E0,0E0,0E0,0E0,0E0,0E0,0E0,0E0,0E0,0E0],"parents":[2147483647,0,0,1,1,2,2,3,3,4,4,5,5,6,6,7,7,8,8,9,9,10,10,11,11,12,12,14,14],"right_children":[2,4,6,8,10,12,14,16,18,20,22,24,26,-1,28,-1,-1,-1,-1,-1,-1,-1,-1,-1,-1,-1,-1,-1,-1],"split_conditions":[3.5179722E-1,1.5293077E-2,3.7884562E0,4.9795407E-1,1E0,5.223135E-1,4.602388E-1,4.855597E-1,-3.708147E-2,5.568654E-1,2E0,2.179609E0,3.5272424E0,-1.8774888E-2,2E0,-2.6939446E-2,8.574662E-4,-1.0329093E-2,-3.9533757E-2,-3.2900372E-3,-2.1051299E-2,-7.053855E-3,1.0231819E-2,2.5123617E-2,-3.6774125E-2,-1.6045677E-2,7.576555E-3,2.9146094E-2,1.2659596E-2],"split_indices":[1,1,0,3,6,3,1,3,1,3,4,0,2,0,4,0,0,0,0,0,0,0,0,0,0,0,0,0,0],"split_type":[0,0,0,0,0,0,0,0,0,0,0,0,0,0,0,0,0,0,0,0,0,0,0,0,0,0,0,0,0],"sum_hessian":[1.5863643E2,5.9360966E1,9.927547E1,3.1971481E1,2.7389486E1,5.0386032E1,4.8889435E1,6.608695E0,2.5362785E1,1.3280808E1,1.4108677E1,1.9931309E1,3.0454723E1,1.5264492E0,4.7362988E1,4.7261224E0,1.8825728E0,1.4655417E0,2.3897243E1,3.1410239E0,1.0139785E1,1.1017203E1,3.0914738E0,1.892418E1,1.007129E0,9.327334E0,2.1127388E1,3.138342E1,1.5979565E1],"tree_param":{"num_deleted":"0","num_feature":"7","num_nodes":"29","size_leaf_vector":"1"}},{"base_weights":[-1.4275926E-2,-2.8489307E-1,1.7347978E-1,-4.400891E-1,-1.22624665E-1,1.2518367E-1,3.6396518E-1,-2.2004323E-1,-3.7315514E-2,-2.2069909E-1,-2.9126512E-2,2.4746424E-1,4.9255397E-2,5.382379E-1,2.0665048E-1,-2.54827E-2,6.773374E-4,-2.1028962E-2,-6.712433E-3,7.6361583E-3,-5.8410526E-3,2.3358816E-2,-5.2508772E-3,-1.1930992E-3,1.8841106E-2,1.9636834E-2,4.9401306E-2,-2.2915537E-3,3.2476626E-2],"categories":[],"categories_nodes":[],"categories_segments":[],"categories_sizes":[],"default_left":[0,0,0,0,0,0,0,0,0,0,0,0,0,0,0,0,0,0,0,0,0,0,0,0,0,0,0,0,0],"id":38,"left_children":[1,3,5,7,9,11,13,15,-1,17,19,21,23,25,27,-1,-1,-1,-1,-1,-1,-1,-1,-1,-1,-1,-1,-1,-1],"loss_changes":[7.747521E0,1.5184393E0,7.830517E-1,8.020306E-2,2.861779E-1,6.690781E-1,3.738463E-1,1.2119737E-1,0E0,6.689125E-2,1.0258243E-1,4.0751946E-1,5.59479E-1,2.8795958E-2,5.2384055E-1,0E0,0E0,0E0,0E0,0E0,0E0,0E0,0E0,0E0,0E0,0E0,0E0,0E0,0E0],"parents":[2147483647,0,0,1,1,2,2,3,3,4,4,5,5,6,6,7,7,9,9,10,10,11,11,12,12,13,13,14,14],"right_children":[2,4,6,8,10,12,14,16,-1,18,20,22,24,26,28,-1,-1,-1,-1,-1,-1,-1,-1,-1,-1,-1,-1,-1,-1],"split_conditions":[4.041169E-1,1.5293077E-2,7.865483E-1,-1.5381742E-2,1E0,5.247127E-1,6.1173326E-1,3.7352858E0,-3.7315514E-2,3.679334E0,1.5800298E0,6.681584E-1,4.116269E0,5.77366E-1,7.74314E-1,-2.54827E-2,6.773374E-4,-2.1028962E-2,-6.712433E-3,7.6361583E-3,-5.8410526E-3,2.3358816E-2,-5.2508772E-3,-1.1930992E-3,1.8841106E-2,1.9636834E-2,4.9401306E-2,-2.2915537E-3,3.2476626E-2],"split_indices":[1,1,1,1,6,3,3,2,0,2,0,1,2,3,3,0,0,0,0,0,0,0,0,0,0,0,0,0,0],"split_type":[0,0,0,0,0,0,0,0,0,0,0,0,0,0,0,0,0,0,0,0,0,0,0,0,0,0,0,0,0],"sum_hessian":[1.505078E2,6.143811E1,8.9069695E1,3.0528276E1,3.0909836E1,7.23764E1,1.669329E1,4.265268E0,2.6263008E1,1.4421749E1,1.6488087E1,2.6859951E1,4.5516453E1,6.7709947E0,9.922297E0,2.705294E0,1.559974E0,1.0319461E1,4.1022882E0,3.9892018E0,1.2498884E1,2.3575144E1,3.2848063E0,3.45376E1,1.0978849E1,2.3155987E0,4.455396E0,4.9430246E0,4.979272E0],"tree_param":{"num_deleted":"0","num_feature":"7","num_nodes":"29","size_leaf_vector":"1"}},{"base_weights":[1.1668747E-2,-3.1535766E-1,1.7563276E-1,-4.329222E-1,-1.3542621E-1,2.4217921E-1,4.8878174E-2,-1.9749764E-1,-3.692775E-2,5.143606E-3,-1.5710275E-1,-9.467137E-3,2.6719594E-1,-2.1240221E-2,1.9224614E-1,-2.4051575E-2,2.9742902E-3,-1.726032E-2,-6.846931E-3,1.448907E-2,-1.6238282E-2,1.8927893E-2,3.7208024E-2,2.944551E-3,-2.0850763E-2,2.0311035E-2,-1.2575924E-2],"categories":[],"categories_nodes":[],"categories_segments":[],"categories_sizes":[],"default_left":[0,0,0,0,0,0,0,0,0,0,0,0,0,0,0,0,0,0,0,0,0,0,0,0,0,0,0],"id":39,"left_children":[1,3,5,7,9,11,13,15,-1,-1,17,19,21,23,25,-1,-1,-1,-1,-1,-1,-1,-1,-1,-1,-1,-1],"loss_changes":[8.242244E0,1.0274992E0,8.51377E-1,1.1540222E-1,1.04243845E-1,4.233923E-1,3.7084234E-1,1.3390611E-1,0E0,0E0,6.503478E-2,2.9531753E-1,2.5837708E-1,3.625722E-1,3.001688E-1,0E0,0E0,0E0,0E0,0E0,0E0,0E0,0E0,0E0,0E0,0E0,0E0],"parents":[2147483647,0,0,1,1,2,2,3,3,4,4,5,5,6,6,7,7,10,10,11,11,12,12,13,13,14,14],"right_children":[2,4,6,8,10,12,14,16,-1,-1,18,20,22,24,26,-1,-1,-1,-1,-1,-1,-1,-1,-1,-1,-1,-1],"split_conditions":[2.8557742E-1,1.5293077E-2,2E0,-1.5381742E-2,2.310939E-2,4.041169E-1,3.7966123E0,1E0,-3.692775E-2,5.143606E-3,1E0,2.1096277E0,5.8135834E0,3.5992281E0,4.3904905E0,-2.4051575E-2,2.9742902E-3,-1.726032E-2,-6.846931E-3,1.448907E-2,-1.6238282E-2,1.8927893E-2,3.7208024E-2,2.944551E-3,-2.0850763E-2,2.0311035E-2,-1.2575924E-2],"split_indices":[1,1,4,1,1,1,2,6,0,0,6,0,0,2,2,0,0,0,0,0,0,0,0,0,0,0,0],"split_type":[0,0,0,0,0,0,0,0,0,0,0,0,0,0,0,0,0,0,0,0,0,0,0,0,0,0,0],"sum_hessian":[1.5168127E2,5.034493E1,1.0133635E2,2.9599205E1,2.0745722E1,6.5852844E1,3.548351E1,4.0701356E0,2.552907E1,1.8386664E0,1.8907057E1,6.0108175E0,5.9842022E1,2.4401215E1,1.1082296E1,2.6321325E0,1.4380031E0,9.279753E0,9.627303E0,3.0606208E0,2.9501967E0,5.3730476E1,6.111548E0,2.0320301E1,4.080913E0,9.652975E0,1.4293215E0],"tree_param":{"num_deleted":"0","num_feature":"7","num_nodes":"27","size_leaf_vector":"1"}},{"base_weights":[4.6901396E-4,-3.9129305E-1,1.277673E-1,-4.3476945E-1,-1.9608386E-1,3.633734E-2,2.6113397E-1,-2.5680128E-1,-3.7588935E-2,3.2463558E-3,-2.573784E-1,1.9569708E-1,-4.208664E-2,-1.7403461E-2,2.86677E-1,-2.6534116E-2,-1.6683734E-3,2.3104039E-3,-2.4944143E-2,4.331234E-3,3.5791647E-2,3.0189851E-2,-5.619099E-3,2.4232723E-2,-4.635032E-3],"categories":[],"categories_nodes":[],"categories_segments":[],"categories_sizes":[],"default_left":[0,0,0,0,0,0,0,0,0,0,0,0,0,0,0,0,0,0,0,0,0,0,0,0,0],"id":40,"left_children":[1,3,5,7,9,11,13,15,-1,-1,17,19,21,-1,23,-1,-1,-1,-1,-1,-1,-1,-1,-1,-1],"loss_changes":[7.656296E0,2.342968E-1,1.4033859E0,6.6521645E-2,1.3635358E-1,8.818723E-1,6.366E-1,1.1925417E-1,0E0,0E0,1.18531674E-1,8.0353343E-1,5.8944845E-1,0E0,2.6936698E-1,0E0,0E0,0E0,0E0,0E0,0E0,0E0,0E0,0E0,0E0],"parents":[2147483647,0,0,1,1,2,2,3,3,4,4,5,5,6,6,7,7,10,10,11,11,12,12,14,14],"right_children":[2,4,6,8,10,12,14,16,-1,-1,18,20,22,-1,24,-1,-1,-1,-1,-1,-1,-1,-1,-1,-1],"split_conditions":[1.06735505E-1,1.5293077E-2,3.8225505E0,4.9795407E-1,4.9681282E-1,4.9795407E-1,4.8117653E-1,4.855597E-1,-3.7588935E-2,3.2463558E-3,1.9850833E-2,4.8204476E-1,1.5800298E0,-1.7403461E-2,4E0,-2.6534116E-2,-1.6683734E-3,2.3104039E-3,-2.4944143E-2,4.331234E-3,3.5791647E-2,3.0189851E-2,-5.619099E-3,2.4232723E-2,-4.635032E-3],"split_indices":[1,1,0,3,3,3,1,3,0,0,1,3,0,0,4,0,0,0,0,0,0,0,0,0,0],"split_type":[0,0,0,0,0,0,0,0,0,0,0,0,0,0,0,0,0,0,0,0,0,0,0,0,0],"sum_hessian":[1.5152063E2,3.6651463E1,1.1486917E2,2.8971758E1,7.6797056E0,6.890417E1,4.5965004E1,6.1418138E0,2.2829945E1,1.6493579E0,6.0303473E0,2.2232244E1,4.667192E1,1.9477308E0,4.4017273E1,4.354297E0,1.7875166E0,1.0383157E0,4.9920316E0,1.5007208E1,7.225037E0,2.1551967E0,4.4516724E1,4.2152817E1,1.8644567E0],"tree_param":{"num_deleted":"0","num_feature":"7","num_nodes":"25","size_leaf_vector":"1"}},{"base_weights":[9.301194E-3,-2.790986E-1,1.7424236E-1,-4.2066348E-1,-1.1767693E-1,9.109524E-2,2.6114127E-1,-2.4594739E-1,-3.637341E-2,-1.8420897E-1,-4.5210067E-2,-1.8639372E-1,1.4072208E-1,2.9408514E-1,-8.750774E-2,-2.6818935E-2,-3.588916E-4,8.749704E-4,-1.6141111E-2,-7.912169E-3,1.2763719E-3,-5.1588775E-4,-3.48954E-2,2.713062E-2,4.8438665E-3,1.779861E-2,3.8405824E-2,-1.6104354E-2,1.3182104E-2],"categories":[],"categories_nodes":[],"categories_segments":[],"categories_sizes":[],"default_left":[0,0,0,0,0,0,0,0,0,0,0,0,0,0,0,0,0,0,0,0,0,0,0,0,0,0,0,0,0],"id":41,"left_children":[1,3,5,7,9,11,13,15,-1,17,19,21,23,25,27,-1,-1,-1,-1,-1,-1,-1,-1,-1,-1,-1,-1,-1,-1],"loss_changes":[7.204065E0,1.2099242E0,6.720822E-1,6.0313225E-2,1.22519046E-1,7.251399E-1,5.604744E-1,1.4723259E-1,0E0,4.956323E-2,4.8590504E-2,3.6262667E-1,6.733879E-1,4.6271968E-1,1.7068693E-1,0E0,0E0,0E0,0E0,0E0,0E0,0E0,0E0,0E0,0E0,0E0,0E0,0E0,0E0],"parents":[2147483647,0,0,1,1,2,2,3,3,4,4,5,5,6,6,7,7,9,9,10,10,11,11,12,12,13,13,14,14],"right_children":[2,4,6,8,10,12,14,16,-1,18,20,22,24,26,28,-1,-1,-1,-1,-1,-1,-1,-1,-1,-1,-1,-1,-1,-1],"split_conditions":[3.4105775E-1,1.5293077E-2,3.7884562E0,-8.554448E-3,1E0,3.277522E0,3.8571444E0,1E0,-3.637341E-2,2.310939E-2,2.2749674E-1,3.1152916E0,4.3680182E-1,3.6256733E0,7.08469E0,-2.6818935E-2,-3.588916E-4,8.749704E-4,-1.6141111E-2,-7.912169E-3,1.2763719E-3,-5.1588775E-4,-3.48954E-2,2.713062E-2,4.8438665E-3,1.779861E-2,3.8405824E-2,-1.6104354E-2,1.3182104E-2],"split_indices":[1,1,0,1,6,2,2,6,0,1,1,2,1,2,0,0,0,0,0,0,0,0,0,0,0,0,0,0,0],"split_type":[0,0,0,0,0,0,0,0,0,0,0,0,0,0,0,0,0,0,0,0,0,0,0,0,0,0,0,0,0],"sum_hessian":[1.4942223E2,5.411317E1,9.530905E1,2.7974169E1,2.6139002E1,4.975268E1,4.5556366E1,5.8987546E0,2.2075415E1,1.2823621E1,1.3315382E1,7.129897E0,4.2622784E1,4.1766357E1,3.7900076E0,4.022805E0,1.875949E0,1.0894876E0,1.1734133E1,6.7622848E0,6.5530972E0,4.7407002E0,2.3891966E0,1.133685E1,3.1285936E1,3.1742271E1,1.0024088E1,2.7511363E0,1.0388712E0],"tree_param":{"num_deleted":"0","num_feature":"7","num_nodes":"29","size_leaf_vector":"1"}},{"base_weights":[-5.650605E-3,-3.153156E-1,1.389766E-1,-4.2633125E-1,-1.4001057E-1,6.2337067E-2,2.2000335E-1,-2.391396E-1,-4.6303266E-1,7.682479E-4,-1.916613E-1,1.8508881E-1,-1.0386561E-1,1.2726574E-1,3.5230768E-1,-2.6892116E-2,1.9472439E-3,-3.8452957E-2,-1.0748167E-2,7.7211643E-3,-7.4610403E-3,-1.9414842E-2,2.2385165E-3,-1.1674295E-2,1.8777074E-2,-2.203855E-3,-2.5696479E-2,1.2740864E-2,-2.7283307E-2,3.7644424E-2,6.170926E-3],"categories":[],"categories_nodes":[],"categories_segments":[],"categories_sizes":[],"default_left":[0,0,0,0,0,0,0,0,0,0,0,0,0,0,0,0,0,0,0,0,0,0,0,0,0,0,0,0,0,0,0],"id":42,"left_children":[1,3,5,7,9,11,13,15,17,19,21,23,25,27,29,-1,-1,-1,-1,-1,-1,-1,-1,-1,-1,-1,-1,-1,-1,-1,-1],"loss_changes":[6.5130777E0,8.4122705E-1,6.0203075E-1,8.0634594E-2,1.4148667E-1,1.0873133E0,5.4168844E-1,1.7775315E-1,6.41737E-2,6.494145E-2,1.66206E-1,5.348065E-1,3.7067214E-1,4.9886736E-1,5.8628154E-1,0E0,0E0,0E0,0E0,0E0,0E0,0E0,0E0,0E0,0E0,0E0,0E0,0E0,0E0,0E0,0E0],"parents":[2147483647,0,0,1,1,2,2,3,3,4,4,5,5,6,6,7,7,8,8,9,9,10,10,11,11,12,12,13,13,14,14],"right_children":[2,4,6,8,10,12,14,16,18,20,22,24,26,28,30,-1,-1,-1,-1,-1,-1,-1,-1,-1,-1,-1,-1,-1,-1,-1,-1],"split_conditions":[2.6731881E-1,1.5293077E-2,5.2635413E-1,4.9795407E-1,5.6518155E-1,5.751367E-1,3.6256733E0,4.855597E-1,4.3756313E0,1.5800298E0,8.644192E-1,3.1809661E0,4.7345448E-1,8.6421895E-1,3.85397E0,-2.6892116E-2,1.9472439E-3,-3.8452957E-2,-1.0748167E-2,7.7211643E-3,-7.4610403E-3,-1.9414842E-2,2.2385165E-3,-1.1674295E-2,1.8777074E-2,-2.203855E-3,-2.5696479E-2,1.2740864E-2,-2.7283307E-2,3.7644424E-2,6.170926E-3],"split_indices":[1,1,1,3,3,3,2,3,2,0,3,2,1,3,2,0,0,0,0,0,0,0,0,0,0,0,0,0,0,0,0],"split_type":[0,0,0,0,0,0,0,0,0,0,0,0,0,0,0,0,0,0,0,0,0,0,0,0,0,0,0,0,0,0,0],"sum_hessian":[1.4344823E2,4.5292057E1,9.8156166E1,2.685415E1,1.8437904E1,5.1353016E1,4.6803154E1,5.6340566E0,2.1220095E1,5.2134085E0,1.3224496E1,2.9472198E1,2.1880816E1,2.8669455E1,1.81337E1,3.916289E0,1.7177676E0,1.9701004E1,1.5190912E0,2.5700617E0,2.6433468E0,1.0646375E1,2.578122E0,3.5893092E0,2.5882889E1,1.7028233E1,4.852583E0,2.7453718E1,1.2157351E0,1.2186726E1,5.946975E0],"tree_param":{"num_deleted":"0","num_feature":"7","num_nodes":"31","size_leaf_vector":"1"}},{"base_weights":[9.568164E-3,-2.7100483E-1,1.422867E-1,-7.5349525E-2,-3.5091087E-1,2.1089964E-1,2.8067341E-2,-1.604088E-1,2.658788E-1,-4.0840042E-1,-1.7554863E-1,1.0748065E-1,3.2115805E-1,-6.988194E-2,1.0595696E-1,-1.7210186E-2,2.708691E-3,2.8736174E-2,2.171218E-3,-1.2247696E-2,-3.357694E-2,-2.2125382E-2,-2.4265975E-3,1.0518325E-3,3.6810253E-2,2.8451182E-2,-5.564385E-3,5.193968E-3,-1.3849818E-2,3.4631904E-2,4.1542905E-3],"categories":[],"categories_nodes":[],"categories_segments":[],"categories_sizes":[],"default_left":[0,0,0,0,0,0,0,0,0,0,0,0,0,0,0,0,0,0,0,0,0,0,0,0,0,0,0,0,0,0,0],"id":43,"left_children":[1,3,5,7,9,11,13,15,17,19,21,23,25,27,29,-1,-1,-1,-1,-1,-1,-1,-1,-1,-1,-1,-1,-1,-1,-1,-1],"loss_changes":[5.3360667E0,6.9317484E-1,7.561028E-1,4.6700865E-1,2.5502825E-1,6.5639234E-1,2.9459637E-1,1.3832062E-1,6.36328E-2,4.0495396E-3,1.3471621E-1,1.0840286E0,4.1305208E-1,2.5169587E-1,3.549391E-1,0E0,0E0,0E0,0E0,0E0,0E0,0E0,0E0,0E0,0E0,0E0,0E0,0E0,0E0,0E0,0E0],"parents":[2147483647,0,0,1,1,2,2,3,3,4,4,5,5,6,6,7,7,8,8,9,9,10,10,11,11,12,12,13,13,14,14],"right_children":[2,4,6,8,10,12,14,16,18,20,22,24,26,28,30,-1,-1,-1,-1,-1,-1,-1,-1,-1,-1,-1,-1,-1,-1,-1,-1],"split_conditions":[1.8303721E0,5.653808E-1,2E0,1.7187309E0,3.8782594E0,3.8735178E0,3.5174978E0,3.7067194E0,4.189483E-1,2.6878474E0,1E0,4.1493063E0,3.8782594E0,5.3679866E-1,3.5550623E0,-1.7210186E-2,2.708691E-3,2.8736174E-2,2.171218E-3,-1.2247696E-2,-3.357694E-2,-2.2125382E-2,-2.4265975E-3,1.0518325E-3,3.6810253E-2,2.8451182E-2,-5.564385E-3,5.193968E-3,-1.3849818E-2,3.4631904E-2,4.1542905E-3],"split_indices":[0,3,4,0,2,0,2,2,3,2,5,2,2,3,2,0,0,0,0,0,0,0,0,0,0,0,0,0,0,0,0],"split_type":[0,0,0,0,0,0,0,0,0,0,0,0,0,0,0,0,0,0,0,0,0,0,0,0,0,0,0,0,0,0,0],"sum_hessian":[1.4126366E2,4.5028797E1,9.623486E1,1.3620663E1,3.1408136E1,5.959125E1,3.6643616E1,1.1327037E1,2.2936256E0,2.2652876E1,8.7552595E0,3.176834E1,2.7822912E1,1.6277199E1,2.0366415E1,8.753966E0,2.5730712E0,1.2862457E0,1.0073798E0,1.5777088E0,2.1075167E1,4.629946E0,4.1253133E0,2.5882175E1,5.8861647E0,2.5649061E1,2.1738508E0,7.2203584E0,9.056841E0,1.8938303E0,1.8472586E1],"tree_param":{"num_deleted":"0","num_feature":"7","num_nodes":"31","size_leaf_vector":"1"}},{"base_weights":[-1.4827347E-2,-2.5768197E-1,1.5970747E-1,-4.012331E-1,-1.3237576E-1,4.1925687E-2,2.616422E-1,-1.9580576E-1,-4.4911543E-1,-1.3477259E-2,-1.8878987E-1,3.3241698E-1,-1.2611726E-2,2.8607157E-1,-5.1628985E-2,-2.3808992E-2,3.1369686E-4,-3.7472416E-2,-7.956418E-3,-1.3951975E-2,2.5112352E-3,-1.7835993E-2,-2.405253E-3,3.4394607E-2,3.8669112E-3,-5.828951E-3,1.5165232E-2,3.3869706E-2,1.7303739E-2,-1.4132058E-2,1.2345468E-2],"categories":[],"categories_nodes":[],"categories_segments":[],"categories_sizes":[],"default_left":[0,0,0,0,0,0,0,0,0,0,0,0,0,0,0,0,0,0,0,0,0,0,0,0,0,0,0,0,0,0,0],"id":44,"left_children":[1,3,5,7,9,11,13,15,17,19,21,23,25,27,29,-1,-1,-1,-1,-1,-1,-1,-1,-1,-1,-1,-1,-1,-1,-1,-1],"loss_changes":[5.975095E0,1.0067844E0,9.743998E-1,1.773448E-1,2.184906E-1,6.262921E-1,3.500123E-1,1.4087898E-1,9.5724106E-2,8.981327E-2,1.1405742E-1,1.5217543E-1,4.2826557E-1,2.9919028E-1,1.3066415E-1,0E0,0E0,0E0,0E0,0E0,0E0,0E0,0E0,0E0,0E0,0E0,0E0,0E0,0E0,0E0,0E0],"parents":[2147483647,0,0,1,1,2,2,3,3,4,4,5,5,6,6,7,7,8,8,9,9,10,10,11,11,12,12,13,13,14,14],"right_children":[2,4,6,8,10,12,14,16,18,20,22,24,26,28,30,-1,-1,-1,-1,-1,-1,-1,-1,-1,-1,-1,-1,-1,-1,-1,-1],"split_conditions":[4.2271033E-1,1.5293077E-2,3.7884562E0,4.9795407E-1,5.6518155E-1,4.3680182E-1,3.8571444E0,4.786502E-1,4.3756313E0,3.0568273E0,8.644192E-1,3.5992281E0,4.116269E0,6.476596E-1,5.7207336E0,-2.3808992E-2,3.1369686E-4,-3.7472416E-2,-7.956418E-3,-1.3951975E-2,2.5112352E-3,-1.7835993E-2,-2.405253E-3,3.4394607E-2,3.8669112E-3,-5.828951E-3,1.5165232E-2,3.3869706E-2,1.7303739E-2,-1.4132058E-2,1.2345468E-2],"split_indices":[1,1,0,3,3,1,2,3,2,2,3,2,2,1,0,0,0,0,0,0,0,0,0,0,0,0,0,0,0,0,0],"split_type":[0,0,0,0,0,0,0,0,0,0,0,0,0,0,0,0,0,0,0,0,0,0,0,0,0,0,0,0,0,0,0],"sum_hessian":[1.3899571E2,5.792299E1,8.1072716E1,2.5969847E1,3.195314E1,3.826742E1,4.2805298E1,5.871014E0,2.0098833E1,1.0680919E1,2.1272223E1,5.243409E0,3.3024014E1,3.978929E1,3.0160062E0,3.5641613E0,2.3068528E0,1.872616E1,1.3726718E0,1.6992857E0,8.981632E0,1.717191E1,4.1003127E0,3.5212579E0,1.7221512E0,2.5934862E1,7.089152E0,1.1699619E1,2.8089672E1,1.9652442E0,1.0507622E0],"tree_param":{"num_deleted":"0","num_feature":"7","num_nodes":"31","size_leaf_vector":"1"}}]},"name":"gbtree"},"learner_model_param":{"base_score":"[-4.2806064E-10]","boost_from_average":"1","num_class":"0","num_feature":"7","num_target":"1"},"objective":{"lambdarank_param":{"lambdarank_bias_norm":"1","lambdarank_normalization":"1","lambdarank_num_pair_per_sample":"4294967295","lambdarank_pair_method":"topk","lambdarank_score_normalization":"1","lambdarank_unbiased":"0","ndcg_exp_gain":"1"},"name":"rank:ndcg"}},"version":[3,2,0]}