{"learner":{"attributes":{"scikit_learn":"{\"_estimator_type\": \"ranker\"}"},"feature_names":["bm25_score","dense_score","price_log","quality","first_observed_age","zero_history","sparse_history"],"feature_types":["float","float","float","float","int","int","int"],"gradient_booster":{"model":{"cats":{"enc":[],"feature_segments":[],"sorted_idx":[]},"gbtree_model_param":{"num_parallel_tree":"1","num_trees":"45"},"iteration_indptr":[0,1,2,3,4,5,6,7,8,9,10,11,12,13,14,15,16,17,18,19,20,21,22,23,24,25,26,27,28,29,30,31,32,33,34,35,36,37,38,39,40,41,42,43,44,45],"tree_info":[0,0,0,0,0,0,0,0,0,0,0,0,0,0,0,0,0,0,0,0,0,0,0,0,0,0,0,0,0,0,0,0,0,0,0,0,0,0,0,0,0,0,0,0,0],"trees":[{"base_weights":[2.560452E-3,-7.7126026E-1,8.301569E-1,-3.949696E-2,-8.263537E-1,4.8852912E-1,7.389596E-2,-2.7645834E-2,4.505839E-2,-6.9204636E-2,-2.3944573E-1,4.055573E-2,1.5204262E-2,-2.8278897E-2,8.7909E-3],"categories":[],"categories_nodes":[],"categories_segments":[],"categories_sizes":[],"default_left":[0,0,0,0,0,0,0,0,0,0,0,0,0,0,0],"id":0,"left_children":[1,3,5,7,9,11,-1,-1,-1,-1,13,-1,-1,-1,-1],"loss_changes":[1.090663E2,3.5156937E0,2.178547E0,1.5252405E0,1.651062E0,1.2562752E-2,0E0,0E0,0E0,0E0,2.9553914E-1,0E0,0E0,0E0,0E0],"parents":[2147483647,0,0,1,1,2,2,3,3,4,4,5,5,10,10],"right_children":[2,4,6,8,10,12,-1,-1,-1,-1,14,-1,-1,-1,-1],"split_conditions":[1.1510166E-1,-1.4683211E-2,3.825644E-1,1E0,2.5724817E-2,9.0820783E-1,7.389596E-2,-2.7645834E-2,4.505839E-2,-6.9204636E-2,1E0,4.055573E-2,1.5204262E-2,-2.8278897E-2,8.7909E-3],"split_indices":[1,1,1,5,1,3,0,0,0,0,6,0,0,0,0],"split_type":[0,0,0,0,0,0,0,0,0,0,0,0,0,0,0],"sum_hessian":[1.6830687E2,8.701449E1,8.129237E1,6.212718E0,8.080177E1,1.8811874E1,6.24805E1,4.403294E0,1.8094242E0,7.535828E1,5.4434953E0,1.7060692E1,1.7511826E0,4.094833E0,1.3486624E0],"tree_param":{"num_deleted":"0","num_feature":"7","num_nodes":"15","size_leaf_vector":"1"}},{"base_weights":[1.4431407E-3,-6.137293E-1,5.167419E-1,6.176656E-2,-6.706848E-1,3.2081646E-1,7.0778096E-1,-5.270586E-1,6.147766E-1,-8.50923E-1,-3.7986773E-1,3.501901E-1,-3.70183E-1,7.339838E-1,5.0348955E-1,-4.9544767E-2,1.2067453E-3,5.6432404E-2,7.314429E-3,-2.1460323E-2,-6.968026E-2,-3.585427E-2,-5.459958E-4,3.2254893E-2,1.3085915E-2,-4.584555E-2,8.0152386E-4,1.4484157E-2,5.92759E-2,-5.4402975E-3,5.5185013E-2],"categories":[],"categories_nodes":[],"categories_segments":[],"categories_sizes":[],"default_left":[0,0,0,0,0,0,0,0,0,0,0,0,0,0,0,0,0,0,0,0,0,0,0,0,0,0,0,0,0,0,0],"id":1,"left_children":[1,3,5,7,9,11,13,15,17,19,21,23,25,27,29,-1,-1,-1,-1,-1,-1,-1,-1,-1,-1,-1,-1,-1,-1,-1,-1],"loss_changes":[1.15359856E2,6.4234657E0,7.185108E0,4.82246E0,7.70002E0,2.1511145E0,1.6273117E-1,3.7089348E-1,2.9529047E-1,8.6257935E-1,1.5354462E0,8.839474E-1,3.564977E-1,1.9684982E-1,1.5896754E0,0E0,0E0,0E0,0E0,0E0,0E0,0E0,0E0,0E0,0E0,0E0,0E0,0E0,0E0,0E0,0E0],"parents":[2147483647,0,0,1,1,2,2,3,3,4,4,5,5,6,6,7,7,8,8,9,9,10,10,11,11,12,12,13,13,14,14],"right_children":[2,4,6,8,10,12,14,16,18,20,22,24,26,28,30,-1,-1,-1,-1,-1,-1,-1,-1,-1,-1,-1,-1,-1,-1,-1,-1],"split_conditions":[3.9540318E-1,-1.8277414E-2,5.421197E-1,1E0,1.906017E-2,3.9572332E0,4.003325E0,3.8636727E0,-2.5663598E-2,-1.4683211E-2,3.964046E0,3.7869132E0,4.51812E-1,2.2226808E0,4.774653E0,-4.9544767E-2,1.2067453E-3,5.6432404E-2,7.314429E-3,-2.1460323E-2,-6.968026E-2,-3.585427E-2,-5.459958E-4,3.2254893E-2,1.3085915E-2,-4.584555E-2,8.0152386E-4,1.4484157E-2,5.92759E-2,-5.4402975E-3,5.5185013E-2],"split_indices":[1,1,1,5,1,0,2,2,1,1,2,2,1,0,0,0,0,0,0,0,0,0,0,0,0,0,0,0,0,0,0],"split_type":[0,0,0,0,0,0,0,0,0,0,0,0,0,0,0,0,0,0,0,0,0,0,0,0,0,0,0,0,0,0,0],"sum_hessian":[3.6191354E2,1.6488272E2,1.9703082E2,1.2814724E1,1.52068E2,9.859417E1,9.843665E1,6.229115E0,6.5856094E0,9.269371E1,5.937428E1,9.5047035E1,3.5471344E0,8.49482E1,1.3488457E1,5.2016635E0,1.0274512E0,5.316986E0,1.2686234E0,3.5664043E0,8.9127304E1,5.0014366E1,9.359913E0,7.312123E1,2.19258E1,1.9821357E0,1.5649987E0,1.3925325E0,8.3555664E1,3.4725173E0,1.001594E1],"tree_param":{"num_deleted":"0","num_feature":"7","num_nodes":"31","size_leaf_vector":"1"}},{"base_weights":[1.8673157E-2,-6.234335E-1,4.192422E-1,1.3912444E-2,-7.0340294E-1,2.0099972E-1,5.636186E-1,-5.061104E-1,5.392327E-1,-6.6093065E-2,-3.0270794E-1,2.2676374E-1,-4.1650906E-2,2.3083225E-1,5.933376E-1,-4.9695797E-2,-2.8201782E-3,5.1469225E-2,1.3920057E-2,-3.6070123E-2,1.2389325E-2,-9.284197E-5,2.3630008E-2,3.1717833E-2,1.759607E-3,3.342514E-2,5.0708126E-2],"categories":[],"categories_nodes":[],"categories_segments":[],"categories_sizes":[],"default_left":[0,0,0,0,0,0,0,0,0,0,0,0,0,0,0,0,0,0,0,0,0,0,0,0,0,0,0],"id":2,"left_children":[1,3,5,7,9,11,13,15,17,-1,19,21,-1,23,25,-1,-1,-1,-1,-1,-1,-1,-1,-1,-1,-1,-1],"loss_changes":[8.746115E1,6.668606E0,6.4840164E0,4.5196466E0,5.46085E0,1.6968768E0,1.1038437E0,4.293959E-1,2.005899E-1,0E0,2.0228314E0,1.2934222E0,0E0,4.0369326E-1,5.4966736E-1,0E0,0E0,0E0,0E0,0E0,0E0,0E0,0E0,0E0,0E0,0E0,0E0],"parents":[2147483647,0,0,1,1,2,2,3,3,4,4,5,5,6,6,7,7,8,8,10,10,11,11,13,13,14,14],"right_children":[2,4,6,8,10,12,14,16,18,-1,20,22,-1,24,26,-1,-1,-1,-1,-1,-1,-1,-1,-1,-1,-1,-1],"split_conditions":[2.5961456E-1,-1.4683211E-2,4.9724382E-1,1E0,2.9714819E-2,2.3747013E0,2.182737E0,3.8636727E0,-2.5663598E-2,-6.6093065E-2,3.9594789E0,3.9540318E-1,-4.1650906E-2,2.103298E0,3.1784704E0,-4.9695797E-2,-2.8201782E-3,5.1469225E-2,1.3920057E-2,-3.6070123E-2,1.2389325E-2,-9.284197E-5,2.3630008E-2,3.1717833E-2,1.759607E-3,3.342514E-2,5.0708126E-2],"split_indices":[1,1,1,5,1,0,0,2,1,0,2,1,0,0,2,0,0,0,0,0,0,0,0,0,0,0,0],"split_type":[0,0,0,0,0,0,0,0,0,0,0,0,0,0,0,0,0,0,0,0,0,0,0,0,0,0,0],"sum_hessian":[3.3802432E2,1.2964647E2,2.0837787E2,1.4545639E1,1.1510082E2,8.391792E1,1.2445994E2,7.3280516E0,7.217588E0,8.7294655E1,2.780617E1,8.168726E1,2.2306533E0,1.092225E1,1.1353769E2,5.6321545E0,1.695897E0,5.0237284E0,2.1938596E0,2.1015661E1,6.7905083E0,1.9127974E1,6.255929E1,5.590013E0,5.3322372E0,2.3413523E1,9.012417E1],"tree_param":{"num_deleted":"0","num_feature":"7","num_nodes":"27","size_leaf_vector":"1"}},{"base_weights":[8.462893E-3,-6.284769E-1,3.7293866E-1,1.22060984E-1,-6.959552E-1,1.0077336E-1,5.2300584E-1,-4.4624418E-2,5.073568E-1,-7.7353173E-1,-3.3179158E-1,2.810507E-1,-1.2588015E-1,5.4568547E-1,8.29473E-2,4.5993313E-2,8.5141165E-3,-2.6443783E-2,-6.356585E-2,-3.3890754E-2,-1.3412541E-2,3.433649E-2,5.037253E-3,1.4608643E-3,-2.2613375E-2,4.4613518E-2,-2.342518E-3,-1.0669793E-2,2.4087057E-2],"categories":[],"categories_nodes":[],"categories_segments":[],"categories_sizes":[],"default_left":[0,0,0,0,0,0,0,0,0,0,0,0,0,0,0,0,0,0,0,0,0,0,0,0,0,0,0,0,0],"id":3,"left_children":[1,3,5,7,9,11,13,-1,15,17,19,21,23,25,27,-1,-1,-1,-1,-1,-1,-1,-1,-1,-1,-1,-1,-1,-1],"loss_changes":[7.424211E1,5.980072E0,8.254492E0,3.021089E0,2.7646866E0,3.039742E0,1.2608261E0,0E0,1.3371289E-1,5.5215454E-1,2.3849964E-1,1.306196E0,7.5692135E-1,8.725815E-1,3.9846733E-1,0E0,0E0,0E0,0E0,0E0,0E0,0E0,0E0,0E0,0E0,0E0,0E0,0E0,0E0],"parents":[2147483647,0,0,1,1,2,2,3,3,4,4,5,5,6,6,8,8,9,9,10,10,11,11,12,12,13,13,14,14],"right_children":[2,4,6,8,10,12,14,-1,16,18,20,22,24,26,28,-1,-1,-1,-1,-1,-1,-1,-1,-1,-1,-1,-1,-1,-1],"split_conditions":[1.7858925E-1,-2.5663598E-2,4.9724382E-1,1E0,2.5724817E-2,6.495303E-1,4E0,-4.4624418E-2,6.8864965E-1,-1.4683211E-2,1E0,3.5222344E0,7.761647E-1,4.397531E0,7.187794E-1,4.5993313E-2,8.5141165E-3,-2.6443783E-2,-6.356585E-2,-3.3890754E-2,-1.3412541E-2,3.433649E-2,5.037253E-3,1.4608643E-3,-2.2613375E-2,4.4613518E-2,-2.342518E-3,-1.0669793E-2,2.4087057E-2],"split_indices":[1,1,1,6,1,3,4,0,3,1,6,2,3,2,3,0,0,0,0,0,0,0,0,0,0,0,0,0,0],"split_type":[0,0,0,0,0,0,0,0,0,0,0,0,0,0,0,0,0,0,0,0,0,0,0,0,0,0,0,0,0],"sum_hessian":[3.177939E2,1.1540082E2,2.023931E2,9.452707E0,1.0594811E2,7.252734E1,1.2986575E2,3.2573254E0,6.1953816E0,8.6415245E1,1.9532866E1,4.0262806E1,3.2264534E1,1.2327253E2,6.593226E0,4.9305873E0,1.2647941E0,4.676217E0,8.173903E1,1.1510863E1,8.022003E0,2.3398823E1,1.6863985E1,1.7270535E1,1.49939995E1,1.207852E2,2.487326E0,3.505544E0,3.0876822E0],"tree_param":{"num_deleted":"0","num_feature":"7","num_nodes":"29","size_leaf_vector":"1"}},{"base_weights":[1.2851408E-2,-6.110191E-1,3.6165258E-1,-5.0814964E-2,-6.869832E-1,-6.0889635E-2,4.3758863E-1,-4.189691E-2,3.0830646E-1,-6.0977295E-2,-3.0798247E-1,-2.0895955E-1,4.4385988E-1,2.7258906E-1,4.7957823E-1,3.7265677E-2,3.4585937E-3,-3.5277706E-2,-8.658872E-3,-2.0089345E-3,-3.5732593E-2,4.7111277E-2,-7.109449E-6,3.3640265E-2,-1.3845033E-2,4.0649943E-2,1.5407835E-2],"categories":[],"categories_nodes":[],"categories_segments":[],"categories_sizes":[],"default_left":[0,0,0,0,0,0,0,0,0,0,0,0,0,0,0,0,0,0,0,0,0,0,0,0,0,0,0],"id":4,"left_children":[1,3,5,7,9,11,13,-1,15,-1,17,19,21,23,25,-1,-1,-1,-1,-1,-1,-1,-1,-1,-1,-1,-1],"loss_changes":[6.8920654E1,4.7987175E0,6.544039E0,2.6482165E0,2.614914E0,2.4709566E0,1.0630188E0,0E0,3.536361E-1,0E0,4.3655908E-1,1.0936579E0,4.8536384E-1,2.5295267E0,1.0165253E0,0E0,0E0,0E0,0E0,0E0,0E0,0E0,0E0,0E0,0E0,0E0,0E0],"parents":[2147483647,0,0,1,1,2,2,3,3,4,4,5,5,6,6,8,8,10,10,11,11,12,12,13,13,14,14],"right_children":[2,4,6,8,10,12,14,-1,16,-1,18,20,22,24,26,-1,-1,-1,-1,-1,-1,-1,-1,-1,-1,-1,-1],"split_conditions":[1.7858925E-1,-1.4683211E-2,4.1564465E-1,1E0,2.9714819E-2,3.9744344E0,4.9724382E-1,-4.189691E-2,5.722441E-1,-6.0977295E-2,1E0,6.2250704E-1,6.8841267E-1,6.688014E-1,7.0621724E0,3.7265677E-2,3.4585937E-3,-3.5277706E-2,-8.658872E-3,-2.0089345E-3,-3.5732593E-2,4.7111277E-2,-7.109449E-6,3.3640265E-2,-1.3845033E-2,4.0649943E-2,1.5407835E-2],"split_indices":[1,1,1,6,1,2,1,0,3,0,6,3,3,3,0,0,0,0,0,0,0,0,0,0,0,0,0],"split_type":[0,0,0,0,0,0,0,0,0,0,0,0,0,0,0,0,0,0,0,0,0,0,0,0,0,0,0],"sum_hessian":[3.147056E2,1.12584206E2,2.021214E2,1.3642839E1,9.894137E1,3.0820505E1,1.713009E2,5.6907988E0,7.952041E0,8.171044E1,1.7230927E1,2.4283016E1,6.5374885E0,3.626968E1,1.3503122E2,4.512977E0,3.4390635E0,9.619035E0,7.611891E0,1.4315959E1,9.967058E0,4.681599E0,1.8558893E0,2.7273796E1,8.995886E0,1.2211389E2,1.2917324E1],"tree_param":{"num_deleted":"0","num_feature":"7","num_nodes":"27","size_leaf_vector":"1"}},{"base_weights":[7.187515E-3,-5.516459E-1,3.2113814E-1,-3.1157756E-1,-6.6115063E-1,4.0618624E-3,3.8983104E-1,-4.8195073E-1,1.0737736E-1,-5.7669476E-2,-4.930697E-1,1.8486832E-1,-2.6441255E-1,3.0044758E-1,5.074935E-1,-4.4233564E-2,-1.3469609E-3,-1.3665708E-2,2.1909833E-2,-4.9018066E-2,2.4323413E-2,4.8681675E-3,2.544871E-2,3.9334698E-3,-2.7450548E-2,2.6752178E-2,-1.30734835E-2,4.374435E-2,1.0368771E-2],"categories":[],"categories_nodes":[],"categories_segments":[],"categories_sizes":[],"default_left":[0,0,0,0,0,0,0,0,0,0,0,0,0,0,0,0,0,0,0,0,0,0,0,0,0,0,0,0,0],"id":5,"left_children":[1,3,5,7,9,11,13,15,17,-1,19,21,23,25,27,-1,-1,-1,-1,-1,-1,-1,-1,-1,-1,-1,-1,-1,-1],"loss_changes":[5.1740593E1,2.5828743E0,4.1109123E0,2.5588062E0,3.6689377E-1,1.7299751E0,1.4795666E0,8.2090425E-1,5.5498683E-1,0E0,2.2874904E0,3.3232695E-1,3.710631E-1,1.4822464E0,9.027481E-1,0E0,0E0,0E0,0E0,0E0,0E0,0E0,0E0,0E0,0E0,0E0,0E0,0E0,0E0],"parents":[2147483647,0,0,1,1,2,2,3,3,4,4,5,5,6,6,7,7,8,8,10,10,11,11,12,12,13,13,14,14],"right_children":[2,4,6,8,10,12,14,16,18,-1,20,22,24,26,28,-1,-1,-1,-1,-1,-1,-1,-1,-1,-1,-1,-1,-1,-1],"split_conditions":[1.8787159E0,6.0830665E-1,2.073163E0,3.708437E0,1E0,6.688014E-1,3.7155213E0,1.6232752E0,1E0,-5.7669476E-2,1E0,5.449623E-1,2.7504709E0,3.665099E0,4.29497E0,-4.4233564E-2,-1.3469609E-3,-1.3665708E-2,2.1909833E-2,-4.9018066E-2,2.4323413E-2,4.8681675E-3,2.544871E-2,3.9334698E-3,-2.7450548E-2,2.6752178E-2,-1.30734835E-2,4.374435E-2,1.0368771E-2],"split_indices":[0,3,0,2,5,3,2,0,5,0,4,3,2,2,2,0,0,0,0,0,0,0,0,0,0,0,0,0,0],"split_type":[0,0,0,0,0,0,0,0,0,0,0,0,0,0,0,0,0,0,0,0,0,0,0,0,0,0,0,0,0],"sum_hessian":[2.9289902E2,1.0508686E2,1.8781215E2,3.4123306E1,7.0963554E1,3.36318E1,1.5418034E2,2.4151457E1,9.97185E0,4.9933674E1,2.1029879E1,2.0283268E1,1.3348534E1,8.963882E1,6.4541534E1,2.0790396E1,3.361061E0,3.7237787E0,6.248072E0,1.8486198E1,2.5436814E0,1.1259748E1,9.023519E0,2.7538564E0,1.0594677E1,8.378492E1,5.8538938E0,5.8055088E1,6.486446E0],"tree_param":{"num_deleted":"0","num_feature":"7","num_nodes":"29","size_leaf_vector":"1"}},{"base_weights":[-1.6646431E-3,-4.916182E-1,3.8723361E-1,-6.150227E-1,-1.9470488E-1,2.3712876E-1,4.7941148E-1,-3.574605E-2,-5.6343954E-2,2.7162723E-2,-4.172866E-1,3.2685065E-1,2.421468E-2,5.2329904E-1,1.8627848E-1,-3.318251E-2,3.6032982E-2,-9.260501E-3,2.1962065E-2,-4.0283237E-2,-5.9607695E-3,3.480433E-2,3.1284285E-3,-2.9594604E-2,9.156722E-3,1.2503419E-2,4.338093E-2,-6.006705E-3,2.7653808E-2],"categories":[],"categories_nodes":[],"categories_segments":[],"categories_sizes":[],"default_left":[0,0,0,0,0,0,0,0,0,0,0,0,0,0,0,0,0,0,0,0,0,0,0,0,0,0,0,0,0],"id":6,"left_children":[1,3,5,7,9,11,13,15,-1,17,19,21,23,25,27,-1,-1,-1,-1,-1,-1,-1,-1,-1,-1,-1,-1,-1,-1],"loss_changes":[5.471054E1,4.5356426E0,2.101181E0,4.59251E0,1.9257745E0,1.1932952E0,1.1657963E0,2.578095E0,0E0,7.5132805E-1,5.364518E-1,1.357862E0,7.4384755E-1,5.057907E-1,6.2335086E-1,0E0,0E0,0E0,0E0,0E0,0E0,0E0,0E0,0E0,0E0,0E0,0E0,0E0,0E0],"parents":[2147483647,0,0,1,1,2,2,3,3,4,4,5,5,6,6,7,7,9,9,10,10,11,11,12,12,13,13,14,14],"right_children":[2,4,6,8,10,12,14,16,-1,18,20,22,24,26,28,-1,-1,-1,-1,-1,-1,-1,-1,-1,-1,-1,-1,-1,-1],"split_conditions":[3.9540318E-1,2.9714819E-2,5.184239E-1,-1.4683211E-2,6.2815666E-1,6.688014E-1,3E0,1E0,-5.6343954E-2,5.722441E-1,3.864512E0,3.5222344E0,7.1667033E-1,2.9063544E0,6.099548E-1,-3.318251E-2,3.6032982E-2,-9.260501E-3,2.1962065E-2,-4.0283237E-2,-5.9607695E-3,3.480433E-2,3.1284285E-3,-2.9594604E-2,9.156722E-3,1.2503419E-2,4.338093E-2,-6.006705E-3,2.7653808E-2],"split_indices":[1,1,1,1,3,3,4,5,0,3,2,2,3,2,3,0,0,0,0,0,0,0,0,0,0,0,0,0,0],"split_type":[0,0,0,0,0,0,0,0,0,0,0,0,0,0,0,0,0,0,0,0,0,0,0,0,0,0,0,0,0],"sum_hessian":[2.8513193E2,1.2605605E2,1.5907587E2,8.82894E1,3.7766655E1,6.1880516E1,9.719535E1,1.1976918E1,7.631248E1,1.9353357E1,1.84133E1,4.3158443E1,1.8722075E1,8.385541E1,1.3339941E1,6.8124123E0,5.164506E0,1.2603482E1,6.7498746E0,1.4336712E1,4.0765867E0,3.0992216E1,1.2166227E1,2.9106061E0,1.5811468E1,4.57387E0,7.928154E1,5.2539153E0,8.086025E0],"tree_param":{"num_deleted":"0","num_feature":"7","num_nodes":"29","size_leaf_vector":"1"}},{"base_weights":[1.0565823E-3,-5.506112E-1,3.2908508E-1,-3.3980038E-2,-6.1950266E-1,1.2853536E-1,4.622179E-1,-4.1413254E-1,4.2331856E-1,-5.510888E-2,-3.316366E-1,-2.9376896E-2,2.203571E-1,4.785872E-1,3.5212647E-2,-3.9798494E-2,-1.5500697E-3,4.2081635E-2,5.6816903E-3,-3.675316E-2,-9.721175E-3,-1.1873235E-2,2.9815573E-2,-2.698547E-3,2.194689E-2,2.8847601E-2,4.466429E-2,8.036447E-3,-7.9712905E-3],"categories":[],"categories_nodes":[],"categories_segments":[],"categories_sizes":[],"default_left":[0,0,0,0,0,0,0,0,0,0,0,0,0,0,0,0,0,0,0,0,0,0,0,0,0,0,0,0,0],"id":7,"left_children":[1,3,5,7,9,11,13,15,17,-1,19,21,23,25,27,-1,-1,-1,-1,-1,-1,-1,-1,-1,-1,-1,-1,-1,-1],"loss_changes":[5.1155403E1,3.7306652E0,4.673731E0,2.5153155E0,1.6273842E0,1.0521046E0,7.2517395E-1,2.4883223E-1,2.0161164E-1,0E0,4.8049474E-1,1.3665876E0,6.362791E-1,7.5959206E-1,5.3990208E-2,0E0,0E0,0E0,0E0,0E0,0E0,0E0,0E0,0E0,0E0,0E0,0E0,0E0,0E0],"parents":[2147483647,0,0,1,1,2,2,3,3,4,4,5,5,6,6,7,7,8,8,10,10,11,11,12,12,13,13,14,14],"right_children":[2,4,6,8,10,12,14,16,18,-1,20,22,24,26,28,-1,-1,-1,-1,-1,-1,-1,-1,-1,-1,-1,-1,-1,-1],"split_conditions":[1.7858925E-1,-1.4683211E-2,5.1015663E-1,1E0,1.906017E-2,4.3354517E-1,4.293059E0,3.864512E0,-2.5663598E-2,-5.510888E-2,1E0,3.9744344E0,2.9428587E0,3.6436205E0,6.7775965E0,-3.9798494E-2,-1.5500697E-3,4.2081635E-2,5.6816903E-3,-3.675316E-2,-9.721175E-3,-1.1873235E-2,2.9815573E-2,-2.698547E-3,2.194689E-2,2.8847601E-2,4.466429E-2,8.036447E-3,-7.9712905E-3],"split_indices":[1,1,1,5,1,1,2,2,1,0,6,2,2,2,0,0,0,0,0,0,0,0,0,0,0,0,0,0,0],"split_type":[0,0,0,0,0,0,0,0,0,0,0,0,0,0,0,0,0,0,0,0,0,0,0,0,0,0,0,0,0],"sum_hessian":[2.8068338E2,1.0441054E2,1.7627283E2,1.2460436E1,9.19501E1,7.1113594E1,1.0515923E2,6.8556914E0,5.604745E0,7.297463E1,1.8975471E1,2.6396963E1,4.471663E1,1.0116044E2,3.9987967E0,5.445673E0,1.4100184E0,3.9578395E0,1.6469054E0,1.1062065E1,7.913406E0,2.0853796E1,5.5431666E0,7.900877E0,3.6815754E1,4.3015144E1,5.8145294E1,2.8668687E0,1.1319281E0],"tree_param":{"num_deleted":"0","num_feature":"7","num_nodes":"29","size_leaf_vector":"1"}},{"base_weights":[3.3361493E-3,-4.4614473E-1,3.7939534E-1,-5.852781E-1,-1.6454981E-1,1.7508842E-1,4.6882322E-1,-6.3988656E-2,-5.3603705E-2,1.2595799E-2,-3.6335135E-1,2.7554247E-1,-5.78238E-2,5.937485E-2,4.39749E-1,-3.7226997E-2,2.2518191E-2,-6.247455E-3,2.4995798E-2,-3.6970403E-2,-2.968175E-3,2.9561331E-2,-1.7240835E-2,-1.2733851E-2,1.571253E-2,5.215541E-3,3.768815E-2],"categories":[],"categories_nodes":[],"categories_segments":[],"categories_sizes":[],"default_left":[0,0,0,0,0,0,0,0,0,0,0,0,0,0,0,0,0,0,0,0,0,0,0,0,0,0,0],"id":8,"left_children":[1,3,5,7,9,11,13,15,-1,17,19,21,23,-1,25,-1,-1,-1,-1,-1,-1,-1,-1,-1,-1,-1,-1],"loss_changes":[4.6887096E1,4.854454E0,2.677227E0,3.6770782E0,1.5251864E0,1.129054E0,5.037613E-1,1.9168445E0,0E0,6.7158204E-1,6.396017E-1,1.621515E0,4.219425E-1,0E0,1.1067657E0,0E0,0E0,0E0,0E0,0E0,0E0,0E0,0E0,0E0,0E0,0E0,0E0],"parents":[2147483647,0,0,1,1,2,2,3,3,4,4,5,5,6,6,7,7,9,9,10,10,11,11,12,12,14,14],"right_children":[2,4,6,8,10,12,14,16,-1,18,20,22,24,-1,26,-1,-1,-1,-1,-1,-1,-1,-1,-1,-1,-1,-1],"split_conditions":[4.3354517E-1,2.1025224E-2,5.13801E-1,-1.4683211E-2,6.320913E-1,3.5222344E0,2.5961053E-1,1E0,-5.3603705E-2,3.9744344E0,3.864512E0,6.688014E-1,7.379959E-1,5.937485E-2,3.1599748E0,-3.7226997E-2,2.2518191E-2,-6.247455E-3,2.4995798E-2,-3.6970403E-2,-2.968175E-3,2.9561331E-2,-1.7240835E-2,-1.2733851E-2,1.571253E-2,5.215541E-3,3.768815E-2],"split_indices":[1,1,1,1,3,2,3,6,0,2,2,3,3,0,2,0,0,0,0,0,0,0,0,0,0,0,0],"split_type":[0,0,0,0,0,0,0,0,0,0,0,0,0,0,0,0,0,0,0,0,0,0,0,0,0,0,0],"sum_hessian":[2.753855E2,1.2536176E2,1.5002373E2,8.318326E1,4.21785E1,4.657543E1,1.034483E2,1.1880144E1,7.1303116E1,2.2799368E1,1.9379135E1,3.241287E1,1.416256E1,7.5869412E0,9.586136E1,5.3350773E0,6.5450664E0,1.807286E1,4.7265067E0,1.4555623E1,4.823512E0,2.7414064E1,4.998806E0,1.0393199E1,3.769362E0,7.642332E0,8.821903E1],"tree_param":{"num_deleted":"0","num_feature":"7","num_nodes":"27","size_leaf_vector":"1"}},{"base_weights":[-1.5883818E-2,-4.9040037E-1,2.9012978E-1,-2.7904287E-1,-5.832208E-1,-4.7409337E-2,3.4127617E-1,-3.881397E-1,5.136602E-2,-5.1275413E-2,-4.292252E-1,3.1510495E-2,-2.9926116E-2,-5.4690293E-3,3.6999267E-1,-3.6772765E-2,-6.066612E-3,-1.3652331E-2,1.8217985E-2,-4.1310463E-2,1.913043E-2,7.056382E-3,-1.5337391E-2,-8.090003E-3,1.1335856E-2,2.522886E-2,3.9440297E-2],"categories":[],"categories_nodes":[],"categories_segments":[],"categories_sizes":[],"default_left":[0,0,0,0,0,0,0,0,0,0,0,0,0,0,0,0,0,0,0,0,0,0,0,0,0,0,0],"id":9,"left_children":[1,3,5,7,9,11,13,15,17,-1,19,21,-1,23,25,-1,-1,-1,-1,-1,-1,-1,-1,-1,-1,-1,-1],"loss_changes":[3.8666946E1,1.8851547E0,2.81153E0,1.2372761E0,3.614788E-1,5.837178E-1,1.4033546E0,5.3483224E-1,4.0167615E-1,0E0,1.4371834E0,2.5471428E-1,0E0,1.7972809E-1,7.1806717E-1,0E0,0E0,0E0,0E0,0E0,0E0,0E0,0E0,0E0,0E0,0E0,0E0],"parents":[2147483647,0,0,1,1,2,2,3,3,4,4,5,5,6,6,7,7,8,8,10,10,11,11,13,13,14,14],"right_children":[2,4,6,8,10,12,14,16,18,-1,20,22,-1,24,26,-1,-1,-1,-1,-1,-1,-1,-1,-1,-1,-1,-1],"split_conditions":[1.9224446E0,6.0830665E-1,2.073163E0,3.8117607E0,1E0,7.610211E-1,2.9063544E0,1.6232752E0,1E0,-5.1275413E-2,1E0,3E0,-2.9926116E-2,2.1959605E0,5.3020024E0,-3.6772765E-2,-6.066612E-3,-1.3652331E-2,1.8217985E-2,-4.1310463E-2,1.913043E-2,7.056382E-3,-1.5337391E-2,-8.090003E-3,1.1335856E-2,2.522886E-2,3.9440297E-2],"split_indices":[0,3,0,2,5,3,2,0,5,0,4,4,0,0,0,0,0,0,0,0,0,0,0,0,0,0,0],"split_type":[0,0,0,0,0,0,0,0,0,0,0,0,0,0,0,0,0,0,0,0,0,0,0,0,0,0,0],"sum_hessian":[2.6430585E2,1.0338716E2,1.6091869E2,3.2771294E1,7.061587E1,2.1184607E1,1.3973409E2,2.4505247E1,8.266046E0,4.9063427E1,2.1552439E1,1.7790195E1,3.3944113E0,1.0749222E1,1.2898486E2,1.9555191E1,4.950056E0,3.673624E0,4.592422E0,1.926731E1,2.2851295E0,1.4669402E1,3.1207936E0,6.7043643E0,4.0448575E0,9.178487E1,3.7199997E1],"tree_param":{"num_deleted":"0","num_feature":"7","num_nodes":"27","size_leaf_vector":"1"}},{"base_weights":[-6.521592E-4,-4.3754217E-1,3.5791248E-1,-5.449943E-1,-1.6505182E-1,1.995705E-1,4.3496263E-1,-3.8205232E-2,-6.225092E-1,-5.711237E-4,-3.7223482E-1,2.8478596E-1,-7.41997E-2,4.6314386E-1,2.1627983E-1,-3.370097E-2,2.2094183E-2,-5.1571395E-2,-2.8680922E-2,2.7472507E-2,-9.081755E-3,-3.8569693E-2,-5.4982756E-3,2.5021266E-2,-2.615046E-2,-2.3496928E-2,1.1515767E-2,5.20024E-2,3.397372E-2,-1.201421E-2,2.9949524E-2],"categories":[],"categories_nodes":[],"categories_segments":[],"categories_sizes":[],"default_left":[0,0,0,0,0,0,0,0,0,0,0,0,0,0,0,0,0,0,0,0,0,0,0,0,0,0,0,0,0,0,0],"id":10,"left_children":[1,3,5,7,9,11,13,15,17,19,21,23,25,27,29,-1,-1,-1,-1,-1,-1,-1,-1,-1,-1,-1,-1,-1,-1,-1,-1],"loss_changes":[4.1328808E1,3.3920517E0,1.6810341E0,3.3096428E0,1.1947863E0,1.1707594E0,4.9529648E-1,1.6002896E0,1.9855118E-1,8.3738595E-1,4.8439002E-1,7.489395E-1,6.4041287E-1,3.3306503E-1,8.039253E-1,0E0,0E0,0E0,0E0,0E0,0E0,0E0,0E0,0E0,0E0,0E0,0E0,0E0,0E0,0E0,0E0],"parents":[2147483647,0,0,1,1,2,2,3,3,4,4,5,5,6,6,7,7,8,8,9,9,10,10,11,11,12,12,13,13,14,14],"right_children":[2,4,6,8,10,12,14,16,18,20,22,24,26,28,30,-1,-1,-1,-1,-1,-1,-1,-1,-1,-1,-1,-1,-1,-1,-1,-1],"split_conditions":[4.1564465E-1,4.3012522E-2,5.184239E-1,-1.4683211E-2,6.320913E-1,6.688014E-1,3E0,1E0,1.246149E-2,1.4926898E0,3.8636727E0,2.3372884E0,4.9724382E-1,3.6214837E-1,5.8501774E-1,-3.370097E-2,2.2094183E-2,-5.1571395E-2,-2.8680922E-2,2.7472507E-2,-9.081755E-3,-3.8569693E-2,-5.4982756E-3,2.5021266E-2,-2.615046E-2,-2.3496928E-2,1.1515767E-2,5.20024E-2,3.397372E-2,-1.201421E-2,2.9949524E-2],"split_indices":[1,1,1,1,3,3,4,6,1,0,2,0,1,3,3,0,0,0,0,0,0,0,0,0,0,0,0,0,0,0,0],"split_type":[0,0,0,0,0,0,0,0,0,0,0,0,0,0,0,0,0,0,0,0,0,0,0,0,0,0,0,0,0,0,0],"sum_hessian":[2.6182373E2,1.1792219E2,1.4390154E2,8.38552E1,3.4066986E1,4.8277985E1,9.562355E1,1.1322438E1,7.253276E1,1.9549541E1,1.4517446E1,3.6787148E1,1.1490838E1,8.37172E1,1.1906355E1,4.9505334E0,6.371905E0,6.559176E1,6.941002E0,4.3282084E0,1.5221333E1,1.0226408E1,4.2910376E0,3.5645267E1,1.141878E0,5.5548415E0,5.9359965E0,1.1578179E1,7.2139015E1,3.6034503E0,8.302905E0],"tree_param":{"num_deleted":"0","num_feature":"7","num_nodes":"31","size_leaf_vector":"1"}},{"base_weights":[-5.465104E-3,-4.322831E-1,3.4123135E-1,-5.4678625E-1,-1.77996E-1,1.6870767E-1,4.0773058E-1,-7.175324E-2,-4.98663E-2,-3.3140245E-1,-2.3042563E-2,2.32693E-1,-2.3787406E-1,4.1948172E-1,2.4873815E-2,-3.166988E-2,2.613164E-2,-4.1472964E-2,-1.2203051E-2,2.178608E-2,-8.827155E-3,3.5260932E-3,2.7033107E-2,1.1483037E-2,-3.691083E-2,2.669041E-2,3.8371626E-2,7.48164E-3,-6.300524E-3],"categories":[],"categories_nodes":[],"categories_segments":[],"categories_sizes":[],"default_left":[0,0,0,0,0,0,0,0,0,0,0,0,0,0,0,0,0,0,0,0,0,0,0,0,0,0,0,0,0],"id":11,"left_children":[1,3,5,7,9,11,13,15,-1,17,19,21,23,25,27,-1,-1,-1,-1,-1,-1,-1,-1,-1,-1,-1,-1,-1,-1],"loss_changes":[3.8631355E1,3.309496E0,1.5839882E0,2.8711777E0,8.911637E-1,1.1424156E0,4.5420456E-1,1.7122773E0,0E0,5.5397177E-1,5.42788E-1,7.116703E-1,5.927546E-1,3.5720062E-1,3.680634E-2,0E0,0E0,0E0,0E0,0E0,0E0,0E0,0E0,0E0,0E0,0E0,0E0,0E0,0E0],"parents":[2147483647,0,0,1,1,2,2,3,3,4,4,5,5,6,6,7,7,9,9,10,10,11,11,12,12,13,13,14,14],"right_children":[2,4,6,8,10,12,14,16,-1,18,20,22,24,26,28,-1,-1,-1,-1,-1,-1,-1,-1,-1,-1,-1,-1,-1,-1],"split_conditions":[4.1564465E-1,2.9714819E-2,2.182737E0,-1.4683211E-2,1E0,2.1565955E0,4.293059E0,1E0,-4.98663E-2,3.396185E0,1.4926898E0,2.073163E0,1E0,3.6436205E0,5.611693E0,-3.166988E-2,2.613164E-2,-4.1472964E-2,-1.2203051E-2,2.178608E-2,-8.827155E-3,3.5260932E-3,2.7033107E-2,1.1483037E-2,-3.691083E-2,2.669041E-2,3.8371626E-2,7.48164E-3,-6.300524E-3],"split_indices":[1,1,0,1,6,0,2,5,0,2,0,0,6,2,0,0,0,0,0,0,0,0,0,0,0,0,0,0,0],"split_type":[0,0,0,0,0,0,0,0,0,0,0,0,0,0,0,0,0,0,0,0,0,0,0,0,0,0,0,0,0],"sum_hessian":[2.5906766E2,1.16005905E2,1.4306174E2,7.919491E1,3.6811E1,4.0785625E1,1.0227611E2,1.1258792E1,6.793612E1,1.792562E1,1.8885382E1,3.5609333E1,5.1762924E0,9.913758E1,3.138526E0,6.2116203E0,5.047172E0,7.8352294E0,1.0090389E1,3.8247654E0,1.5060616E1,1.3259501E1,2.2349833E1,2.044777E0,3.1315157E0,4.3545265E1,5.559232E1,1.9466112E0,1.1919148E0],"tree_param":{"num_deleted":"0","num_feature":"7","num_nodes":"29","size_leaf_vector":"1"}},{"base_weights":[-7.308552E-3,-4.913897E-1,2.75499E-1,4.418676E-2,-5.36507E-1,9.551249E-2,4.0326384E-1,-3.3120815E-2,3.9615195E-2,-5.948647E-1,-2.6442423E-1,2.0368545E-1,-1.2746617E-1,4.0966723E-2,3.297145E-1,-1.9208187E-2,-4.842929E-2,-2.961567E-2,-8.912163E-3,8.200589E-3,2.4049334E-2,-1.984401E-2,6.675101E-3,2.8625008E-2,5.125017E-3],"categories":[],"categories_nodes":[],"categories_segments":[],"categories_sizes":[],"default_left":[0,0,0,0,0,0,0,0,0,0,0,0,0,0,0,0,0,0,0,0,0,0,0,0,0],"id":12,"left_children":[1,3,5,7,9,11,13,-1,-1,15,17,19,21,-1,23,-1,-1,-1,-1,-1,-1,-1,-1,-1,-1],"loss_changes":[3.46964E1,2.2819633E0,3.6407194E0,1.8964397E0,1.2125301E0,1.6597059E0,5.7759094E-1,0E0,0E0,1.1631203E-1,2.3449779E-1,4.2024863E-1,5.990305E-1,0E0,4.1342115E-1,0E0,0E0,0E0,0E0,0E0,0E0,0E0,0E0,0E0,0E0],"parents":[2147483647,0,0,1,1,2,2,3,3,4,4,5,5,6,6,9,9,10,10,11,11,12,12,14,14],"right_children":[2,4,6,8,10,12,14,-1,-1,16,18,20,22,-1,24,-1,-1,-1,-1,-1,-1,-1,-1,-1,-1],"split_conditions":[1.7858925E-1,-2.5663598E-2,5.13801E-1,1E0,2.9714819E-2,6.4617485E-1,1E0,-3.3120815E-2,3.9615195E-2,-1.639773E-2,1E0,5.5119306E-1,4.702634E-1,4.0966723E-2,8.269636E-1,-1.9208187E-2,-4.842929E-2,-2.961567E-2,-8.912163E-3,8.200589E-3,2.4049334E-2,-1.984401E-2,6.675101E-3,2.8625008E-2,5.125017E-3],"split_indices":[1,1,1,5,1,3,4,0,0,1,6,3,1,0,3,0,0,0,0,0,0,0,0,0,0],"split_type":[0,0,0,0,0,0,0,0,0,0,0,0,0,0,0,0,0,0,0,0,0,0,0,0,0],"sum_hessian":[2.5145122E2,9.245633E1,1.5899489E2,7.185047E0,8.5271286E1,6.6733215E1,9.2261665E1,3.6047864E0,3.5802608E0,6.923506E1,1.6036226E1,4.499261E1,2.1740604E1,3.4804317E1,5.745735E1,2.6766195E0,6.655844E1,8.642881E0,7.393344E0,2.3020761E1,2.1971848E1,1.3720084E1,8.02052E0,5.1647636E1,5.8097153E0],"tree_param":{"num_deleted":"0","num_feature":"7","num_nodes":"25","size_leaf_vector":"1"}},{"base_weights":[7.0572146E-3,-4.0850806E-1,3.4791818E-1,-5.115483E-1,-1.0961159E-1,1.9571547E-1,4.2296162E-1,3.8936056E-2,-5.608948E-1,4.074384E-1,-2.0186804E-1,2.8710273E-1,-2.5601255E-2,4.865744E-1,2.5609326E-1,-3.32321E-2,2.5812957E-2,-4.7259647E-2,-2.3829022E-2,3.9185192E-2,6.133288E-3,-6.6554123E-3,-2.724113E-2,3.0861584E-2,-1.1294588E-2,-1.3299483E-2,1.143359E-2,2.6986688E-2,4.3386552E-2,2.3548843E-2,-5.0981645E-3],"categories":[],"categories_nodes":[],"categories_segments":[],"categories_sizes":[],"default_left":[0,0,0,0,0,0,0,0,0,0,0,0,0,0,0,0,0,0,0,0,0,0,0,0,0,0,0,0,0,0,0],"id":13,"left_children":[1,3,5,7,9,11,13,15,17,19,21,23,25,27,29,-1,-1,-1,-1,-1,-1,-1,-1,-1,-1,-1,-1,-1,-1,-1,-1],"loss_changes":[3.5016777E1,3.3749886E0,1.4682903E0,2.2648602E0,1.5052786E0,9.52006E-1,8.3172417E-1,1.1302371E0,4.195423E-1,9.455258E-2,3.992076E-1,1.4548061E0,3.6903659E-1,3.5058308E-1,3.4891772E-1,0E0,0E0,0E0,0E0,0E0,0E0,0E0,0E0,0E0,0E0,0E0,0E0,0E0,0E0,0E0,0E0],"parents":[2147483647,0,0,1,1,2,2,3,3,4,4,5,5,6,6,7,7,8,8,9,9,10,10,11,11,12,12,13,13,14,14],"right_children":[2,4,6,8,10,12,14,16,18,20,22,24,26,28,30,-1,-1,-1,-1,-1,-1,-1,-1,-1,-1,-1,-1,-1,-1,-1,-1],"split_conditions":[4.0285453E-1,1.0046746E-1,5.184239E-1,-2.5663598E-2,1.4926898E0,3.5222344E0,2E0,1E0,1.906017E-2,6.2250704E-1,6.6420674E-1,6.588443E-1,6.2779695E-1,3.6436205E0,3.9744344E0,-3.32321E-2,2.5812957E-2,-4.7259647E-2,-2.3829022E-2,3.9185192E-2,6.133288E-3,-6.6554123E-3,-2.724113E-2,3.0861584E-2,-1.1294588E-2,-1.3299483E-2,1.143359E-2,2.6986688E-2,4.3386552E-2,2.3548843E-2,-5.0981645E-3],"split_indices":[1,1,1,1,0,2,4,6,1,3,3,3,3,2,2,0,0,0,0,0,0,0,0,0,0,0,0,0,0,0,0],"split_type":[0,0,0,0,0,0,0,0,0,0,0,0,0,0,0,0,0,0,0,0,0,0,0,0,0,0,0,0,0,0,0],"sum_hessian":[2.4520299E2,1.10404E2,1.34799E2,8.157184E1,2.8832159E1,4.5706112E1,8.909288E1,6.72806E0,7.484378E1,3.8482616E0,2.4983898E1,3.2138195E1,1.3567917E1,6.3116123E1,2.5976757E1,2.4079907E0,4.320069E0,6.6096725E1,8.74705E0,2.6960158E0,1.1522459E0,1.4323556E1,1.0660342E1,2.6201286E1,5.9369087E0,7.40307E0,6.1648474E0,1.90845E1,4.4031624E1,2.3271832E1,2.704926E0],"tree_param":{"num_deleted":"0","num_feature":"7","num_nodes":"31","size_leaf_vector":"1"}},{"base_weights":[5.6479196E-3,-4.642147E-1,2.777697E-1,-5.6254648E-2,-5.185647E-1,1.202698E-1,3.9195755E-1,-3.7174785E-1,3.3597717E-1,-4.7560923E-2,-2.486986E-1,2.2468722E-1,-1.5603021E-1,2.3269087E-1,4.7561076E-1,-3.4567617E-2,-2.183894E-3,3.555679E-2,3.5793127E-3,-2.8785666E-2,-6.154115E-3,2.453506E-2,2.7702522E-4,-2.4206394E-2,5.220828E-3,4.775505E-2,1.2870103E-2,3.9854903E-2,4.667676E-3],"categories":[],"categories_nodes":[],"categories_segments":[],"categories_sizes":[],"default_left":[0,0,0,0,0,0,0,0,0,0,0,0,0,0,0,0,0,0,0,0,0,0,0,0,0,0,0,0,0],"id":14,"left_children":[1,3,5,7,9,11,13,15,17,-1,19,21,23,25,27,-1,-1,-1,-1,-1,-1,-1,-1,-1,-1,-1,-1,-1,-1],"loss_changes":[3.1360226E1,1.965414E0,2.7459488E0,1.5723859E0,1.476614E0,1.9598448E0,1.0829382E0,1.3282692E-1,1.614548E-1,0E0,3.3739328E-1,8.8470554E-1,6.322848E-1,7.6219916E-1,5.152168E-1,0E0,0E0,0E0,0E0,0E0,0E0,0E0,0E0,0E0,0E0,0E0,0E0,0E0,0E0],"parents":[2147483647,0,0,1,1,2,2,3,3,4,4,5,5,6,6,7,7,8,8,10,10,11,11,12,12,13,13,14,14],"right_children":[2,4,6,8,10,12,14,16,18,-1,20,22,24,26,28,-1,-1,-1,-1,-1,-1,-1,-1,-1,-1,-1,-1,-1,-1],"split_conditions":[1.7858925E-1,-1.4683211E-2,5.13801E-1,1E0,1.906017E-2,6.688014E-1,3.6436205E0,3.864512E0,-2.5663598E-2,-4.7560923E-2,1E0,3.5222344E0,4.702634E-1,2.4953362E-1,4.29497E0,-3.4567617E-2,-2.183894E-3,3.555679E-2,3.5793127E-3,-2.8785666E-2,-6.154115E-3,2.453506E-2,2.7702522E-4,-2.4206394E-2,5.220828E-3,4.775505E-2,1.2870103E-2,3.9854903E-2,4.667676E-3],"split_indices":[1,1,1,5,1,3,2,2,1,0,6,2,1,3,2,0,0,0,0,0,0,0,0,0,0,0,0,0,0],"split_type":[0,0,0,0,0,0,0,0,0,0,0,0,0,0,0,0,0,0,0,0,0,0,0,0,0,0,0,0,0],"sum_hessian":[2.432618E2,8.8957054E1,1.5430475E2,1.0697199E1,7.825985E1,6.571581E1,8.8588936E1,5.9574914E0,4.739708E0,6.0133766E1,1.8126085E1,4.782784E1,1.7887972E1,3.1809223E1,5.6779713E1,4.8528256E0,1.1046656E0,3.0700316E0,1.6696761E0,1.0341344E1,7.7847414E0,3.4611942E1,1.3215897E1,1.0540308E1,7.3476634E0,4.0343885E0,2.7774836E1,5.368142E1,3.0982912E0],"tree_param":{"num_deleted":"0","num_feature":"7","num_nodes":"29","size_leaf_vector":"1"}},{"base_weights":[-7.421217E-3,-3.8343188E-1,3.2219213E-1,-5.0507116E-1,-1.5562879E-1,1.5831535E-1,3.9970624E-1,-6.975269E-2,-4.639222E-2,-3.2267338E-1,5.763422E-3,2.7037552E-1,-4.6820913E-2,2.6550257E-1,4.6677825E-1,-2.904108E-2,2.3191161E-2,-3.2867346E-2,-4.2034892E-4,2.7781721E-2,-1.1203864E-2,-6.723555E-3,2.9758252E-2,-6.8876485E-5,-2.6396938E-2,4.762847E-2,1.4819774E-2,4.3207668E-2,1.7533787E-2],"categories":[],"categories_nodes":[],"categories_segments":[],"categories_sizes":[],"default_left":[0,0,0,0,0,0,0,0,0,0,0,0,0,0,0,0,0,0,0,0,0,0,0,0,0,0,0,0,0],"id":15,"left_children":[1,3,5,7,9,11,13,15,-1,17,19,21,23,25,27,-1,-1,-1,-1,-1,-1,-1,-1,-1,-1,-1,-1,-1,-1],"loss_changes":[2.848066E1,2.8956184E0,1.4923754E0,2.2244205E0,1.0481138E0,9.5472383E-1,6.185379E-1,1.300753E0,0E0,5.320345E-1,1.0804269E0,9.90965E-1,1.9921306E-1,6.7874575E-1,8.5610294E-1,0E0,0E0,0E0,0E0,0E0,0E0,0E0,0E0,0E0,0E0,0E0,0E0,0E0,0E0],"parents":[2147483647,0,0,1,1,2,2,3,3,4,4,5,5,6,6,7,7,9,9,10,10,11,11,12,12,13,13,14,14],"right_children":[2,4,6,8,10,12,14,16,-1,18,20,22,24,26,28,-1,-1,-1,-1,-1,-1,-1,-1,-1,-1,-1,-1,-1,-1],"split_conditions":[4.0285453E-1,1.906017E-2,5.13801E-1,-1.4683211E-2,1E0,3.4265401E0,3.6436205E0,1E0,-4.639222E-2,3.8392372E0,1.4926898E0,2.9428587E0,8.102901E-1,2.4953362E-1,4.003325E0,-2.904108E-2,2.3191161E-2,-3.2867346E-2,-4.2034892E-4,2.7781721E-2,-1.1203864E-2,-6.723555E-3,2.9758252E-2,-6.8876485E-5,-2.6396938E-2,4.762847E-2,1.4819774E-2,4.3207668E-2,1.7533787E-2],"split_indices":[1,1,1,1,6,2,2,5,0,2,0,2,3,3,2,0,0,0,0,0,0,0,0,0,0,0,0,0,0],"split_type":[0,0,0,0,0,0,0,0,0,0,0,0,0,0,0,0,0,0,0,0,0,0,0,0,0,0,0,0,0],"sum_hessian":[2.2780061E2,1.0633468E2,1.2146593E2,6.85266E1,3.7808075E1,3.9981426E1,8.1484505E1,1.0335269E1,5.8191334E1,1.808764E1,1.9720434E1,2.5650986E1,1.433044E1,2.880578E1,5.2678722E1,5.6878705E0,4.647399E0,1.3925328E1,4.162313E0,5.487178E0,1.4233256E1,5.753589E0,1.9897396E1,1.3192111E1,1.1383281E0,4.3810787E0,2.44247E1,3.9732437E1,1.2946286E1],"tree_param":{"num_deleted":"0","num_feature":"7","num_nodes":"29","size_leaf_vector":"1"}},{"base_weights":[-8.822534E-3,-3.7871385E-1,3.1287083E-1,-4.9873972E-1,-1.3505362E-1,1.7180137E-1,3.7800074E-1,-9.039377E-2,-5.696892E-1,1.8032361E-3,-3.132474E-1,2.552087E-1,-1.3257529E-1,3.9487484E-1,-7.7761575E-3,-3.2023016E-2,2.0155426E-2,-4.6440076E-2,-2.3910714E-2,1.9426817E-2,-7.114922E-3,-3.3772428E-2,-4.507691E-3,2.5111346E-2,-6.4135706E-3,-2.5339818E-2,1.3005126E-2,3.3944394E-2,1.5650399E-2,4.700452E-3,-5.886804E-3],"categories":[],"categories_nodes":[],"categories_segments":[],"categories_sizes":[],"default_left":[0,0,0,0,0,0,0,0,0,0,0,0,0,0,0,0,0,0,0,0,0,0,0,0,0,0,0,0,0,0,0],"id":16,"left_children":[1,3,5,7,9,11,13,15,17,19,21,23,25,27,29,-1,-1,-1,-1,-1,-1,-1,-1,-1,-1,-1,-1,-1,-1,-1,-1],"loss_changes":[2.7368744E1,3.0612507E0,1.065465E0,2.014223E0,8.949996E-1,1.0669469E0,5.4557323E-1,1.3466566E0,3.8013458E-3,4.9704838E-1,4.2213368E-1,6.605327E-1,5.630362E-1,3.853073E-1,2.3908895E-2,0E0,0E0,0E0,0E0,0E0,0E0,0E0,0E0,0E0,0E0,0E0,0E0,0E0,0E0,0E0,0E0],"parents":[2147483647,0,0,1,1,2,2,3,3,4,4,5,5,6,6,7,7,8,8,9,9,10,10,11,11,12,12,13,13,14,14],"right_children":[2,4,6,8,10,12,14,16,18,20,22,24,26,28,30,-1,-1,-1,-1,-1,-1,-1,-1,-1,-1,-1,-1,-1,-1,-1,-1],"split_conditions":[4.1564465E-1,3.419328E-2,5.13801E-1,-1.4683211E-2,6.320913E-1,6.688014E-1,4.29497E0,1E0,1.906017E-2,1.4926898E0,3.8636727E0,4.9831858E-1,2.1663647E0,3E0,7.2967297E-1,-3.2023016E-2,2.0155426E-2,-4.6440076E-2,-2.3910714E-2,1.9426817E-2,-7.114922E-3,-3.3772428E-2,-4.507691E-3,2.5111346E-2,-6.4135706E-3,-2.5339818E-2,1.3005126E-2,3.3944394E-2,1.5650399E-2,4.700452E-3,-5.886804E-3],"split_indices":[1,1,1,1,3,3,2,5,1,0,2,1,0,4,3,0,0,0,0,0,0,0,0,0,0,0,0,0,0,0,0],"split_type":[0,0,0,0,0,0,0,0,0,0,0,0,0,0,0,0,0,0,0,0,0,0,0,0,0,0,0,0,0,0,0],"sum_hessian":[2.2800996E2,1.05977295E2,1.2203268E2,7.030066E1,3.567664E1,3.9694157E1,8.233852E1,1.0743143E1,5.9557514E1,2.0738718E1,1.49379225E1,3.1283249E1,8.410909E0,7.8865326E1,3.473193E0,5.5499086E0,5.1932344E0,5.61713E1,3.386215E0,5.2136173E0,1.55251E1,1.0038886E1,4.899036E0,2.6679113E1,4.6041346E0,5.13399E0,3.2769186E0,6.7731285E1,1.1134043E1,1.7804062E0,1.6927866E0],"tree_param":{"num_deleted":"0","num_feature":"7","num_nodes":"31","size_leaf_vector":"1"}},{"base_weights":[2.908749E-3,-3.5160857E-1,3.178728E-1,-4.7995004E-1,-1.1530206E-1,-3.165795E-2,3.398317E-1,-5.9264626E-2,-5.544772E-1,-2.8448038E-2,-3.8049734E-1,-1.5830332E-1,1.12493835E-1,3.745737E-1,1.3494276E-1,-2.7433502E-2,2.327037E-2,-4.4894032E-2,-1.5526484E-2,-7.226545E-3,1.6785566E-2,-3.8406566E-2,-7.300884E-3,3.662106E-3,-2.1715412E-2,1.7409338E-2,6.067945E-4,8.2602855E-3,3.216249E-2,-7.4803303E-3,1.7169109E-2],"categories":[],"categories_nodes":[],"categories_segments":[],"categories_sizes":[],"default_left":[0,0,0,0,0,0,0,0,0,0,0,0,0,0,0,0,0,0,0,0,0,0,0,0,0,0,0,0,0,0,0],"id":17,"left_children":[1,3,5,7,9,11,13,15,17,19,21,23,25,27,29,-1,-1,-1,-1,-1,-1,-1,-1,-1,-1,-1,-1,-1,-1,-1,-1],"loss_changes":[2.569918E1,3.2286482E0,9.4616127E-1,2.1572762E0,8.973168E-1,1.6602373E-1,7.662935E-1,1.2550933E0,3.4051895E-2,4.728169E-1,2.340349E-1,1.2180437E-1,4.6669878E-2,6.852331E-1,3.5132128E-1,0E0,0E0,0E0,0E0,0E0,0E0,0E0,0E0,0E0,0E0,0E0,0E0,0E0,0E0,0E0,0E0],"parents":[2147483647,0,0,1,1,2,2,3,3,4,4,5,5,6,6,7,7,8,8,9,9,10,10,11,11,12,12,13,13,14,14],"right_children":[2,4,6,8,10,12,14,16,18,20,22,24,26,28,30,-1,-1,-1,-1,-1,-1,-1,-1,-1,-1,-1,-1,-1,-1,-1,-1],"split_conditions":[4.3649918E-1,3.419328E-2,2.9063544E0,-1.4683211E-2,7.248229E-1,2.1959605E0,3E0,1E0,2.5724817E-2,3.9744344E0,3.8392372E0,6.2815666E-1,2.5260382E0,2.073163E0,5.917308E-1,-2.7433502E-2,2.327037E-2,-4.4894032E-2,-1.5526484E-2,-7.226545E-3,1.6785566E-2,-3.8406566E-2,-7.300884E-3,3.662106E-3,-2.1715412E-2,1.7409338E-2,6.067945E-4,8.2602855E-3,3.216249E-2,-7.4803303E-3,1.7169109E-2],"split_indices":[1,1,2,1,3,0,4,5,1,2,2,3,0,0,3,0,0,0,0,0,0,0,0,0,0,0,0,0,0,0,0],"split_type":[0,0,0,0,0,0,0,0,0,0,0,0,0,0,0,0,0,0,0,0,0,0,0,0,0,0,0,0,0,0,0],"sum_hessian":[2.2815427E2,1.0728266E2,1.208716E2,6.885531E1,3.8427357E1,7.118664E0,1.1375294E2,1.0632567E1,5.822274E1,2.9781048E1,8.646311E0,3.7371757E0,3.3814878E0,9.655278E1,1.7200153E1,5.885401E0,4.747166E0,5.661343E1,1.6093091E0,2.4133804E1,5.6472435E0,5.940988E0,2.7053223E0,1.5452563E0,2.1919196E0,1.1523986E0,2.2290893E0,9.3106165E0,8.7242165E1,4.4026065E0,1.2797547E1],"tree_param":{"num_deleted":"0","num_feature":"7","num_nodes":"31","size_leaf_vector":"1"}},{"base_weights":[2.228233E-3,-3.537874E-1,3.135293E-1,-4.555557E-1,-9.5527194E-2,6.41274E-2,3.4155506E-1,-4.6035692E-2,-5.211509E-1,3.8062093E-1,-1.748025E-1,2.0613997E-1,-6.7845516E-2,3.857861E-1,2.3767187E-1,-2.315731E-2,1.8150233E-2,-4.494896E-2,-2.3263313E-2,3.7042283E-2,3.3631613E-3,-9.045403E-3,-3.1218832E-2,2.8079215E-2,-1.5019745E-2,-1.1953717E-2,1.7134562E-2,2.6281148E-2,4.2550296E-2,2.0850841E-2,-4.947958E-3],"categories":[],"categories_nodes":[],"categories_segments":[],"categories_sizes":[],"default_left":[0,0,0,0,0,0,0,0,0,0,0,0,0,0,0,0,0,0,0,0,0,0,0,0,0,0,0,0,0,0,0],"id":18,"left_children":[1,3,5,7,9,11,13,15,17,19,21,23,25,27,29,-1,-1,-1,-1,-1,-1,-1,-1,-1,-1,-1,-1,-1,-1,-1,-1],"loss_changes":[2.4523314E1,2.66955E0,8.032026E-1,1.9579868E0,1.2156984E0,2.605565E-1,3.9486122E-1,8.152923E-1,4.3211937E-1,1.1055589E-1,3.1209826E-1,4.4158354E-1,2.0619865E-1,4.3324566E-1,2.5153315E-1,0E0,0E0,0E0,0E0,0E0,0E0,0E0,0E0,0E0,0E0,0E0,0E0,0E0,0E0,0E0,0E0],"parents":[2147483647,0,0,1,1,2,2,3,3,4,4,5,5,6,6,7,7,8,8,9,9,10,10,11,11,12,12,13,13,14,14],"right_children":[2,4,6,8,10,12,14,16,18,20,22,24,26,28,30,-1,-1,-1,-1,-1,-1,-1,-1,-1,-1,-1,-1,-1,-1,-1,-1],"split_conditions":[4.1564465E-1,1.0046746E-1,2.073163E0,-1.4683211E-2,1.4926898E0,1E0,2E0,1E0,1.1600662E-2,6.2250704E-1,7.5106585E-1,6.0876703E-1,4.9724382E-1,5.401185E0,1E0,-2.315731E-2,1.8150233E-2,-4.494896E-2,-2.3263313E-2,3.7042283E-2,3.3631613E-3,-9.045403E-3,-3.1218832E-2,2.8079215E-2,-1.5019745E-2,-1.1953717E-2,1.7134562E-2,2.6281148E-2,4.2550296E-2,2.0850841E-2,-4.947958E-3],"split_indices":[1,1,0,1,0,5,4,5,1,3,3,3,1,0,5,0,0,0,0,0,0,0,0,0,0,0,0,0,0,0,0],"split_type":[0,0,0,0,0,0,0,0,0,0,0,0,0,0,0,0,0,0,0,0,0,0,0,0,0,0,0,0,0,0,0],"sum_hessian":[2.1927267E2,1.02226326E2,1.1704636E2,7.278228E1,2.9444046E1,1.2156191E1,1.0489016E2,1.02834E1,6.2498882E1,3.6599824E0,2.5784063E1,5.584679E0,6.571512E0,7.166375E1,3.3226414E1,5.4032297E0,4.88017E0,5.188946E1,1.060942E1,2.647943E0,1.0120394E0,2.1226257E1,4.557806E0,4.1627502E0,1.4219288E0,5.461866E0,1.1096463E0,5.3815487E1,1.784826E1,3.0980995E1,2.245418E0],"tree_param":{"num_deleted":"0","num_feature":"7","num_nodes":"31","size_leaf_vector":"1"}},{"base_weights":[-5.121219E-3,-3.5501197E-1,2.8757316E-1,-4.830678E-1,-1.3829108E-1,1.3173406E-1,3.6176994E-1,-9.4327524E-2,-4.415443E-2,-5.136856E-3,-3.0067208E-1,1.6964807E-1,-2.8589534E-2,4.5069735E-2,3.218388E-1,-2.535855E-2,1.721589E-2,-8.77498E-3,1.0240185E-2,-3.0467987E-2,-3.9658756E-3,1.9822402E-2,2.9832785E-4,5.1613967E-3,3.242247E-2],"categories":[],"categories_nodes":[],"categories_segments":[],"categories_sizes":[],"default_left":[0,0,0,0,0,0,0,0,0,0,0,0,0,0,0,0,0,0,0,0,0,0,0,0,0],"id":19,"left_children":[1,3,5,7,9,11,13,15,-1,17,19,21,-1,-1,23,-1,-1,-1,-1,-1,-1,-1,-1,-1,-1],"loss_changes":[2.2225153E1,2.6763678E0,1.3188028E0,1.6004553E0,8.2253766E-1,7.9663646E-1,4.5857334E-1,7.9155314E-1,0E0,3.1970137E-1,3.264897E-1,4.853779E-1,0E0,0E0,1.448482E0,0E0,0E0,0E0,0E0,0E0,0E0,0E0,0E0,0E0,0E0],"parents":[2147483647,0,0,1,1,2,2,3,3,4,4,5,5,6,6,7,7,9,9,10,10,11,11,14,14],"right_children":[2,4,6,8,10,12,14,16,-1,18,20,22,-1,-1,24,-1,-1,-1,-1,-1,-1,-1,-1,-1,-1],"split_conditions":[4.1564465E-1,1.906017E-2,5.13801E-1,-1.4683211E-2,6.320913E-1,8.102901E-1,3.6214837E-1,1E0,-4.415443E-2,5.4833055E-1,3.8636727E0,3.4229589E0,-2.8589534E-2,4.5069735E-2,5.8501774E-1,-2.535855E-2,1.721589E-2,-8.77498E-3,1.0240185E-2,-3.0467987E-2,-3.9658756E-3,1.9822402E-2,2.9832785E-4,5.1613967E-3,3.242247E-2],"split_indices":[1,1,1,1,3,3,3,5,0,3,2,2,0,0,3,0,0,0,0,0,0,0,0,0,0],"split_type":[0,0,0,0,0,0,0,0,0,0,0,0,0,0,0,0,0,0,0,0,0,0,0,0,0],"sum_hessian":[2.1502219E2,9.7844574E1,1.1717762E2,6.0730946E1,3.711363E1,3.8690193E1,7.848742E1,9.495745E0,5.12352E1,2.0958807E1,1.615482E1,3.651295E1,2.1772437E0,1.0808678E1,6.767874E1,5.5088935E0,3.9868515E0,1.183851E1,9.120297E0,1.18532505E1,4.301568E0,2.4488043E1,1.2024907E1,1.7006561E1,5.0672184E1],"tree_param":{"num_deleted":"0","num_feature":"7","num_nodes":"25","size_leaf_vector":"1"}},{"base_weights":[6.775696E-3,-3.5709304E-1,2.9205534E-1,-4.8694962E-1,-1.428955E-1,3.28802E-2,3.2116997E-1,-1.4620468E-1,-4.3090068E-2,-3.1702688E-1,2.631801E-2,1.6502017E-1,-3.8919102E-2,3.8544676E-1,1.9167422E-1,-2.4132494E-2,3.8831371E-3,-3.6908843E-2,-1.290923E-2,2.308678E-2,-7.238055E-3,1.7252019E-2,5.886203E-3,-2.0571861E-2,7.1280045E-3,2.4791924E-2,5.740983E-2,-1.3930539E-3,2.386777E-2],"categories":[],"categories_nodes":[],"categories_segments":[],"categories_sizes":[],"default_left":[0,0,0,0,0,0,0,0,0,0,0,0,0,0,0,0,0,0,0,0,0,0,0,0,0,0,0,0,0],"id":20,"left_children":[1,3,5,7,9,11,13,15,-1,17,19,21,23,25,27,-1,-1,-1,-1,-1,-1,-1,-1,-1,-1,-1,-1,-1,-1],"loss_changes":[2.2382908E1,2.566412E0,9.013653E-1,9.52837E-1,1.1039857E0,1.3278745E-1,8.29504E-1,2.8974593E-1,0E0,3.39002E-1,6.320443E-1,6.725982E-3,2.8661588E-1,1.5729713E0,8.5254514E-1,0E0,0E0,0E0,0E0,0E0,0E0,0E0,0E0,0E0,0E0,0E0,0E0,0E0,0E0],"parents":[2147483647,0,0,1,1,2,2,3,3,4,4,5,5,6,6,7,7,9,9,10,10,11,11,12,12,13,13,14,14],"right_children":[2,4,6,8,10,12,14,16,-1,18,20,22,24,26,28,-1,-1,-1,-1,-1,-1,-1,-1,-1,-1,-1,-1,-1,-1],"split_conditions":[4.1564465E-1,1.906017E-2,2.073163E0,-1.639773E-2,1E0,4.7690126E-1,6.7852116E-1,1E0,-4.3090068E-2,3.396185E0,1.4926898E0,1.9877375E0,3.2943542E0,6.602477E-1,3.4800086E0,-2.4132494E-2,3.8831371E-3,-3.6908843E-2,-1.290923E-2,2.308678E-2,-7.238055E-3,1.7252019E-2,5.886203E-3,-2.0571861E-2,7.1280045E-3,2.4791924E-2,5.740983E-2,-1.3930539E-3,2.386777E-2],"split_indices":[1,1,0,1,6,3,3,6,0,2,0,0,2,3,2,0,0,0,0,0,0,0,0,0,0,0,0,0,0],"split_type":[0,0,0,0,0,0,0,0,0,0,0,0,0,0,0,0,0,0,0,0,0,0,0,0,0,0,0,0,0],"sum_hessian":[2.1362123E2,9.376897E1,1.1985226E2,5.7584923E1,3.6184044E1,1.2319024E1,1.0753323E2,8.087358E0,4.9497566E1,1.7402374E1,1.8781672E1,3.8799613E0,8.439063E0,7.054222E1,3.6991013E1,4.192092E0,3.8952665E0,8.010731E0,9.3916445E0,5.333687E0,1.3447984E1,1.6230158E0,2.2569454E0,2.7472553E0,5.6918073E0,5.904614E1,1.1496085E1,1.2779309E1,2.4211702E1],"tree_param":{"num_deleted":"0","num_feature":"7","num_nodes":"29","size_leaf_vector":"1"}},{"base_weights":[5.336864E-3,-4.0372774E-1,2.3216055E-1,-8.1168875E-2,-4.4679174E-1,8.1936754E-2,3.3928365E-1,-3.328898E-1,2.3494309E-1,-4.295867E-2,-2.129861E-1,1.695632E-1,-1.5273467E-1,3.5780215E-1,-7.51735E-2,-5.392228E-3,-3.025858E-2,-7.742588E-3,3.5851568E-2,-2.6384246E-2,-3.306888E-3,8.9783256E-4,2.273253E-2,-2.326791E-2,4.2033223E-3,1.6781228E-2,3.4999486E-2,1.4917917E-3,-1.20701445E-2],"categories":[],"categories_nodes":[],"categories_segments":[],"categories_sizes":[],"default_left":[0,0,0,0,0,0,0,0,0,0,0,0,0,0,0,0,0,0,0,0,0,0,0,0,0,0,0,0,0],"id":21,"left_children":[1,3,5,7,9,11,13,15,17,-1,19,21,23,25,27,-1,-1,-1,-1,-1,-1,-1,-1,-1,-1,-1,-1,-1,-1],"loss_changes":[1.9874144E1,1.0251026E0,2.189344E0,8.9156437E-1,1.3024254E0,1.2323285E0,6.417284E-1,4.798639E-2,4.0530434E-1,0E0,3.9462525E-1,7.8051496E-1,4.8242995E-1,8.1489754E-1,3.301758E-2,0E0,0E0,0E0,0E0,0E0,0E0,0E0,0E0,0E0,0E0,0E0,0E0,0E0,0E0],"parents":[2147483647,0,0,1,1,2,2,3,3,4,4,5,5,6,6,7,7,8,8,10,10,11,11,12,12,13,13,14,14],"right_children":[2,4,6,8,10,12,14,16,18,-1,20,22,24,26,28,-1,-1,-1,-1,-1,-1,-1,-1,-1,-1,-1,-1,-1,-1],"split_conditions":[1.7858925E-1,-1.4683211E-2,5.13801E-1,1E0,1.246149E-2,6.6370946E-1,4.29497E0,5.4833055E-1,1E0,-4.295867E-2,1E0,5.5119306E-1,4.702634E-1,3.6436205E0,7.2967297E-1,-5.392228E-3,-3.025858E-2,-7.742588E-3,3.5851568E-2,-2.6384246E-2,-3.306888E-3,8.9783256E-4,2.273253E-2,-2.326791E-2,4.2033223E-3,1.6781228E-2,3.4999486E-2,1.4917917E-3,-1.20701445E-2],"split_indices":[1,1,1,5,1,3,2,3,4,0,6,3,1,2,3,0,0,0,0,0,0,0,0,0,0,0,0,0,0],"split_type":[0,0,0,0,0,0,0,0,0,0,0,0,0,0,0,0,0,0,0,0,0,0,0,0,0,0,0,0,0],"sum_hessian":[2.121842E2,7.540868E1,1.3677553E2,9.221615E0,6.618707E1,5.766876E1,7.9106766E1,5.1041164E0,4.117499E0,4.6826733E1,1.936034E1,4.2191772E1,1.5476988E1,7.585419E1,3.2525725E0,1.1072909E0,3.9968257E0,1.8246045E0,2.2928944E0,1.0971964E1,8.388376E0,1.8175533E1,2.401624E1,9.002827E0,6.4741607E0,2.7815542E1,4.8038647E1,1.789045E0,1.4635276E0],"tree_param":{"num_deleted":"0","num_feature":"7","num_nodes":"29","size_leaf_vector":"1"}},{"base_weights":[-6.810914E-3,-3.169459E-1,2.6252866E-1,-1.3147259E-1,-4.294317E-1,3.0376846E-1,-2.2240842E-2,-3.365933E-1,-6.22971E-2,-4.804498E-1,-1.4616846E-1,2.3658648E-1,4.755043E-2,-1.3616176E-1,2.6488888E-1,-3.610682E-2,-6.3028624E-3,-1.5008318E-2,-1.4003263E-4,-4.185256E-2,-2.7765559E-2,2.6279169E-3,-2.603037E-2,-1.6074311E-3,2.1354437E-2,1.6570062E-3,-3.124914E-2,2.7059361E-2,2.2250947E-3],"categories":[],"categories_nodes":[],"categories_segments":[],"categories_sizes":[],"default_left":[0,0,0,0,0,0,0,0,0,0,0,0,0,0,0,0,0,0,0,0,0,0,0,0,0,0,0,0,0],"id":22,"left_children":[1,3,5,7,9,11,13,15,17,19,21,23,-1,25,27,-1,-1,-1,-1,-1,-1,-1,-1,-1,-1,-1,-1,-1,-1],"loss_changes":[1.7072174E1,1.9252386E0,1.2915068E0,5.082976E-1,7.778673E-1,1.7263966E0,5.192116E-1,2.3599052E-1,2.206069E-1,9.920788E-2,3.4414256E-1,6.2326145E-1,0E0,4.5657188E-1,6.945965E-2,0E0,0E0,0E0,0E0,0E0,0E0,0E0,0E0,0E0,0E0,0E0,0E0,0E0,0E0],"parents":[2147483647,0,0,1,1,2,2,3,3,4,4,5,5,6,6,7,7,8,8,9,9,10,10,11,11,13,13,14,14],"right_children":[2,4,6,8,10,12,14,16,18,20,22,24,-1,26,28,-1,-1,-1,-1,-1,-1,-1,-1,-1,-1,-1,-1,-1,-1],"split_conditions":[2.073163E0,6.0830665E-1,3.9744344E0,3.1112907E0,1.8803397E0,3.8622024E0,5.401185E0,1.4926898E0,1E0,1E0,2E0,2.9063544E0,4.755043E-2,2.7470238E0,4.293059E0,-3.610682E-2,-6.3028624E-3,-1.5008318E-2,-1.4003263E-4,-4.185256E-2,-2.7765559E-2,2.6279169E-3,-2.603037E-2,-1.6074311E-3,2.1354437E-2,1.6570062E-3,-3.124914E-2,2.7059361E-2,2.2250947E-3],"split_indices":[0,3,2,2,0,2,0,0,4,5,4,2,0,0,2,0,0,0,0,0,0,0,0,0,0,0,0,0,0],"split_type":[0,0,0,0,0,0,0,0,0,0,0,0,0,0,0,0,0,0,0,0,0,0,0,0,0,0,0,0,0],"sum_hessian":[2.023836E2,9.398567E1,1.08397934E2,3.6300316E1,5.7685356E1,9.462745E1,1.3770485E1,8.1797495E0,2.8120567E1,4.8291523E1,9.393834E0,7.8332985E1,1.6294462E1,1.0235325E1,3.5351603E0,5.14099E0,3.0387597E0,8.477373E0,1.9643194E1,3.436565E1,1.3925873E1,5.1080294E0,4.2858043E0,8.317041E0,7.0015945E1,6.8999724E0,3.3353524E0,2.37392E0,1.1612403E0],"tree_param":{"num_deleted":"0","num_feature":"7","num_nodes":"29","size_leaf_vector":"1"}},{"base_weights":[-2.5108878E-2,-3.3559886E-1,2.4414913E-1,-4.5408008E-1,-1.546405E-1,1.5225647E-1,3.8230786E-1,-1.0324172E-1,-4.1623287E-2,-2.8134048E-1,-3.8661566E-2,1.8298596E-1,-2.4406388E-1,1.5146348E-1,4.751578E-1,-2.5768897E-2,1.45611E-2,-2.7511593E-2,-1.8210087E-3,1.8854244E-2,-1.0155462E-2,9.2162425E-3,2.987121E-2,-2.4894396E-2,-7.685879E-3,2.4193278E-2,-2.234424E-2,2.0865228E-2,4.61594E-2],"categories":[],"categories_nodes":[],"categories_segments":[],"categories_sizes":[],"default_left":[0,0,0,0,0,0,0,0,0,0,0,0,0,0,0,0,0,0,0,0,0,0,0,0,0,0,0,0,0],"id":23,"left_children":[1,3,5,7,9,11,13,15,-1,17,19,21,23,25,27,-1,-1,-1,-1,-1,-1,-1,-1,-1,-1,-1,-1,-1,-1],"loss_changes":[1.6516384E1,1.896286E0,1.2857561E0,1.2218666E0,5.446954E-1,8.3915424E-1,8.2017326E-1,6.8081146E-1,0E0,2.818637E-1,5.360625E-1,7.4572396E-1,2.0985544E-2,9.562758E-1,4.8721838E-1,0E0,0E0,0E0,0E0,0E0,0E0,0E0,0E0,0E0,0E0,0E0,0E0,0E0,0E0],"parents":[2147483647,0,0,1,1,2,2,3,3,4,4,5,5,6,6,7,7,9,9,10,10,11,11,12,12,13,13,14,14],"right_children":[2,4,6,8,10,12,14,16,-1,18,20,22,24,26,28,-1,-1,-1,-1,-1,-1,-1,-1,-1,-1,-1,-1,-1,-1],"split_conditions":[4.3354517E-1,2.1025224E-2,4.884428E0,-1.4683211E-2,1E0,6.15411E-1,3.4604092E0,1E0,-4.1623287E-2,3.8392372E0,1.4926898E0,5.421197E-1,1E0,7.300276E-1,6.584601E-1,-2.5768897E-2,1.45611E-2,-2.7511593E-2,-1.8210087E-3,1.8854244E-2,-1.0155462E-2,9.2162425E-3,2.987121E-2,-2.4894396E-2,-7.685879E-3,2.4193278E-2,-2.234424E-2,2.0865228E-2,4.61594E-2],"split_indices":[1,1,0,1,6,1,2,5,0,2,0,1,5,3,3,0,0,0,0,0,0,0,0,0,0,0,0,0,0],"split_type":[0,0,0,0,0,0,0,0,0,0,0,0,0,0,0,0,0,0,0,0,0,0,0,0,0,0,0,0,0],"sum_hessian":[1.9557982E2,9.072061E1,1.04859215E2,5.3912483E1,3.680813E1,6.423621E1,4.0622997E1,8.965492E0,4.4946995E1,1.6909613E1,1.9898518E1,6.0113483E1,4.122731E0,1.2407251E1,2.8215746E1,4.9999504E0,3.9655416E0,1.3350055E1,3.559557E0,4.437904E0,1.5460613E1,4.551531E1,1.4598175E1,2.0777385E0,2.0449927E0,9.408286E0,2.998965E0,1.0234746E1,1.7980999E1],"tree_param":{"num_deleted":"0","num_feature":"7","num_nodes":"29","size_leaf_vector":"1"}},{"base_weights":[6.3086273E-3,-3.176416E-1,2.7028632E-1,-4.2907432E-1,-1.2391852E-1,3.334175E-1,1.47711E-1,2.3189891E-2,-5.015026E-1,-1.9145247E-1,9.9968486E-2,1.6986553E-1,4.0851286E-1,3.6822103E-2,9.816542E-2,-2.6593622E-2,3.126226E-2,-1.8885233E-2,-4.1541256E-2,-7.4659702E-3,-2.5158213E-2,-8.102349E-3,1.9359086E-2,4.1757587E-2,6.780855E-3,3.460694E-2,-7.371209E-3,-8.441645E-3,1.4735343E-2],"categories":[],"categories_nodes":[],"categories_segments":[],"categories_sizes":[],"default_left":[0,0,0,0,0,0,0,0,0,0,0,0,0,0,0,0,0,0,0,0,0,0,0,0,0,0,0,0,0],"id":24,"left_children":[1,3,5,7,9,11,13,15,17,19,21,23,25,-1,27,-1,-1,-1,-1,-1,-1,-1,-1,-1,-1,-1,-1,-1,-1],"loss_changes":[1.7197992E1,1.8962831E0,8.0814934E-1,1.8762522E0,5.3900886E-1,8.1905556E-1,5.6592923E-1,1.2819842E0,1.089735E-1,2.9368043E-1,2.7101818E-1,6.891472E-1,6.287899E-1,0E0,6.385617E-1,0E0,0E0,0E0,0E0,0E0,0E0,0E0,0E0,0E0,0E0,0E0,0E0,0E0,0E0],"parents":[2147483647,0,0,1,1,2,2,3,3,4,4,5,5,6,6,7,7,8,8,9,9,10,10,11,11,12,12,14,14],"right_children":[2,4,6,8,10,12,14,16,18,20,22,24,26,-1,28,-1,-1,-1,-1,-1,-1,-1,-1,-1,-1,-1,-1,-1,-1],"split_conditions":[4.1564465E-1,3.419328E-2,2E0,-1.8277414E-2,3.964046E0,3.4098268E0,4.4791403E-1,1E0,4.633973E-1,6.320913E-1,1.7858925E-1,2.4254836E-1,4.29497E0,3.6822103E-2,2.1186886E0,-2.6593622E-2,3.126226E-2,-1.8885233E-2,-4.1541256E-2,-7.4659702E-3,-2.5158213E-2,-8.102349E-3,1.9359086E-2,4.1757587E-2,6.780855E-3,3.460694E-2,-7.371209E-3,-8.441645E-3,1.4735343E-2],"split_indices":[1,1,4,1,2,2,1,5,3,3,1,3,2,0,0,0,0,0,0,0,0,0,0,0,0,0,0,0,0],"split_type":[0,0,0,0,0,0,0,0,0,0,0,0,0,0,0,0,0,0,0,0,0,0,0,0,0,0,0,0,0],"sum_hessian":[1.9910541E2,8.93064E1,1.0979901E2,5.592342E1,3.3382973E1,7.133733E1,3.846168E1,7.8134766E0,4.8109943E1,2.5758095E1,7.62488E0,2.347424E1,4.786309E1,4.1282244E0,3.4333454E1,4.0200734E0,3.7934034E0,3.9138875E0,4.4196056E1,1.5307249E1,1.0450846E1,3.2733228E0,4.351557E0,3.5701594E0,1.990408E1,4.57969E1,2.0661898E0,1.0127591E1,2.4205864E1],"tree_param":{"num_deleted":"0","num_feature":"7","num_nodes":"29","size_leaf_vector":"1"}},{"base_weights":[1.3588895E-2,-3.1447092E-1,2.702569E-1,-4.1219023E-1,-8.908731E-2,3.3123893E-1,1.5041524E-1,-7.0345774E-2,-4.7213185E-1,3.3365905E-1,-1.5836214E-1,1.8615891E-1,3.9233232E-1,1.8965825E-1,-1.872865E-1,-2.5350822E-2,1.9554527E-2,-4.1493095E-2,-2.0447176E-2,8.819989E-3,3.175553E-2,-1.6139358E-2,4.3695453E-3,-9.205287E-3,1.8148936E-2,-2.7633205E-4,3.27116E-2,3.241362E-2,1.1397359E-2,-2.097813E-2,-3.7248489E-3],"categories":[],"categories_nodes":[],"categories_segments":[],"categories_sizes":[],"default_left":[0,0,0,0,0,0,0,0,0,0,0,0,0,0,0,0,0,0,0,0,0,0,0,0,0,0,0,0,0,0,0],"id":25,"left_children":[1,3,5,7,9,11,13,15,17,19,21,23,25,27,29,-1,-1,-1,-1,-1,-1,-1,-1,-1,-1,-1,-1,-1,-1,-1,-1],"loss_changes":[1.7015882E1,1.9173679E0,7.7855587E-1,1.2293148E0,8.760433E-1,5.854378E-1,5.6639314E-1,8.82007E-1,3.9388466E-1,1.6743481E-2,2.4042475E-1,3.1934178E-1,3.3818388E-1,3.1232178E-1,3.7078053E-2,0E0,0E0,0E0,0E0,0E0,0E0,0E0,0E0,0E0,0E0,0E0,0E0,0E0,0E0,0E0,0E0],"parents":[2147483647,0,0,1,1,2,2,3,3,4,4,5,5,6,6,7,7,8,8,9,9,10,10,11,11,12,12,13,13,14,14],"right_children":[2,4,6,8,10,12,14,16,18,20,22,24,26,28,30,-1,-1,-1,-1,-1,-1,-1,-1,-1,-1,-1,-1,-1,-1,-1,-1],"split_conditions":[4.1564465E-1,1.0046746E-1,2E0,-1.4683211E-2,1.4926898E0,5.184239E-1,3.9744344E0,1E0,1.1600662E-2,1E0,3.9744344E0,2.9428587E0,2.9063544E0,4.51812E-1,5.3297216E-1,-2.5350822E-2,1.9554527E-2,-4.1493095E-2,-2.0447176E-2,8.819989E-3,3.175553E-2,-1.6139358E-2,4.3695453E-3,-9.205287E-3,1.8148936E-2,-2.7633205E-4,3.27116E-2,3.241362E-2,1.1397359E-2,-2.097813E-2,-3.7248489E-3],"split_indices":[1,1,4,1,0,1,2,5,1,5,2,2,2,1,1,0,0,0,0,0,0,0,0,0,0,0,0,0,0,0,0],"split_type":[0,0,0,0,0,0,0,0,0,0,0,0,0,0,0,0,0,0,0,0,0,0,0,0,0,0,0,0,0,0,0],"sum_hessian":[2.0007364E2,8.772407E1,1.1234958E2,6.0614616E1,2.7109447E1,7.329108E1,3.9058506E1,9.367239E0,5.124738E1,3.27957E0,2.3829876E1,2.291689E1,5.0374187E1,3.538494E1,3.6735618E0,5.24924E0,4.1179996E0,4.1034447E1,1.0212934E1,1.3292303E0,1.9503398E0,1.9841377E1,3.9884992E0,2.5105243E0,2.0406364E1,2.0551505E0,4.831904E1,4.993775E0,3.0391167E1,1.8336892E0,1.8398726E0],"tree_param":{"num_deleted":"0","num_feature":"7","num_nodes":"31","size_leaf_vector":"1"}},{"base_weights":[1.2668137E-2,-3.7309316E-1,2.1865252E-1,-8.280947E-2,-4.1855577E-1,7.450128E-2,3.4639588E-1,-2.858209E-1,1.7351209E-1,-4.068034E-2,-2.043251E-1,1.601151E-1,-1.5067206E-1,2.707287E-1,4.58569E-1,-2.7220024E-2,-3.2827622E-4,2.4838634E-2,-8.684856E-3,-2.4652347E-2,-4.4649215E-3,1.4904097E-2,-2.6979826E-2,-1.7891748E-2,5.448365E-3,9.193645E-3,2.6439723E-2,4.0929165E-2,-1.4065638E-3],"categories":[],"categories_nodes":[],"categories_segments":[],"categories_sizes":[],"default_left":[0,0,0,0,0,0,0,0,0,0,0,0,0,0,0,0,0,0,0,0,0,0,0,0,0,0,0,0,0],"id":26,"left_children":[1,3,5,7,9,11,13,15,17,-1,19,21,23,25,27,-1,-1,-1,-1,-1,-1,-1,-1,-1,-1,-1,-1,-1,-1],"loss_changes":[1.5189251E1,8.436327E-1,2.268167E0,5.8339673E-1,1.0001354E0,1.1770002E0,4.3411732E-1,9.217307E-2,2.3291668E-1,0E0,2.6983047E-1,6.334568E-1,2.8646886E-1,3.5051775E-1,6.4179325E-1,0E0,0E0,0E0,0E0,0E0,0E0,0E0,0E0,0E0,0E0,0E0,0E0,0E0,0E0],"parents":[2147483647,0,0,1,1,2,2,3,3,4,4,5,5,6,6,7,7,8,8,10,10,11,11,12,12,13,13,14,14],"right_children":[2,4,6,8,10,12,14,16,18,-1,20,22,24,26,28,-1,-1,-1,-1,-1,-1,-1,-1,-1,-1,-1,-1,-1,-1],"split_conditions":[1.71116E-1,-1.4683211E-2,5.184239E-1,1E0,1.246149E-2,6.6420674E-1,3.848444E0,3.8392372E0,-2.5663598E-2,-4.068034E-2,1E0,2.3372884E0,3.864512E0,1E0,4.29497E0,-2.7220024E-2,-3.2827622E-4,2.4838634E-2,-8.684856E-3,-2.4652347E-2,-4.4649215E-3,1.4904097E-2,-2.6979826E-2,-1.7891748E-2,5.448365E-3,9.193645E-3,2.6439723E-2,4.0929165E-2,-1.4065638E-3],"split_indices":[1,1,1,5,1,3,2,2,1,0,6,0,2,6,2,0,0,0,0,0,0,0,0,0,0,0,0,0,0],"split_type":[0,0,0,0,0,0,0,0,0,0,0,0,0,0,0,0,0,0,0,0,0,0,0,0,0,0,0,0,0],"sum_hessian":[1.8912738E2,6.555211E1,1.23575264E2,9.258307E0,5.62938E1,5.88028E1,6.477247E1,5.1021905E0,4.156117E0,3.8679783E1,1.761402E1,4.2813484E1,1.5989316E1,4.07188E1,2.4053667E1,4.1019073E0,1.0002832E0,2.7298286E0,1.4262881E0,9.733902E0,7.8801174E0,4.1266243E1,1.5472428E0,1.1973269E1,4.0160465E0,1.2099505E1,2.8619293E1,2.1575563E1,2.4781032E0],"tree_param":{"num_deleted":"0","num_feature":"7","num_nodes":"29","size_leaf_vector":"1"}},{"base_weights":[-1.5005383E-3,-3.0406252E-1,2.4784794E-1,-4.102067E-1,-8.2940035E-2,3.2786185E-1,8.266641E-2,-9.678261E-2,-4.683299E-1,2.6655082E-2,-1.4906229E-1,8.553849E-2,3.5508138E-1,3.3006616E-2,3.697587E-2,-2.3164079E-2,1.2104985E-2,-4.019276E-2,-2.5715472E-2,-3.9005592E-3,-2.1901323E-2,-4.36896E-3,1.8815648E-2,1.8205462E-2,3.1949136E-2,-1.3520818E-2,1.03683565E-2],"categories":[],"categories_nodes":[],"categories_segments":[],"categories_sizes":[],"default_left":[0,0,0,0,0,0,0,0,0,0,0,0,0,0,0,0,0,0,0,0,0,0,0,0,0,0,0],"id":27,"left_children":[1,3,5,7,9,11,13,15,17,-1,19,21,23,-1,25,-1,-1,-1,-1,-1,-1,-1,-1,-1,-1,-1,-1],"loss_changes":[1.408127E1,1.9451165E0,1.325304E0,9.8796844E-1,8.3667266E-1,4.220829E-1,5.082431E-1,5.2845234E-1,7.671738E-2,0E0,3.0401295E-1,1.8576847E-1,2.5554848E-1,0E0,6.2488437E-1,0E0,0E0,0E0,0E0,0E0,0E0,0E0,0E0,0E0,0E0,0E0,0E0],"parents":[2147483647,0,0,1,1,2,2,3,3,4,4,5,5,6,6,7,7,8,8,10,10,11,11,12,12,14,14],"right_children":[2,4,6,8,10,12,14,16,18,-1,20,22,24,-1,26,-1,-1,-1,-1,-1,-1,-1,-1,-1,-1,-1,-1],"split_conditions":[4.1564465E-1,1.0046746E-1,2E0,-1.4683211E-2,1.4926898E0,2.073163E0,4.4234595E-1,1E0,7.2210585E-3,2.6655082E-2,6.2815666E-1,1E0,1E0,3.3006616E-2,2.1186886E0,-2.3164079E-2,1.2104985E-2,-4.019276E-2,-2.5715472E-2,-3.9005592E-3,-2.1901323E-2,-4.36896E-3,1.8815648E-2,1.8205462E-2,3.1949136E-2,-1.3520818E-2,1.03683565E-2],"split_indices":[1,1,4,1,0,0,1,5,1,0,3,4,5,0,0,0,0,0,0,0,0,0,0,0,0,0,0],"split_type":[0,0,0,0,0,0,0,0,0,0,0,0,0,0,0,0,0,0,0,0,0,0,0,0,0,0,0],"sum_hessian":[1.8464796E2,8.332326E1,1.01324715E2,5.57208E1,2.7602455E1,6.7596245E1,3.3728466E1,9.133635E0,4.6587166E1,3.2308297E0,2.4371626E1,7.244478E0,6.035177E1,3.1260872E0,3.0602379E1,5.0459003E0,4.087734E0,3.584927E1,1.0737897E1,1.42780905E1,1.0093535E1,4.06902E0,3.1754587E0,1.7138922E1,4.321285E1,9.236898E0,2.136548E1],"tree_param":{"num_deleted":"0","num_feature":"7","num_nodes":"27","size_leaf_vector":"1"}},{"base_weights":[-8.26948E-3,-3.67385E-1,1.7879586E-1,-4.3277603E-1,-1.8478696E-1,5.1227767E-2,3.257103E-1,-1.173723E-1,-3.9903305E-2,-2.8398684E-1,-4.349831E-2,1.2175178E-1,-1.2061563E-1,3.8522014E-1,1.4699012E-1,-2.2096805E-2,8.610267E-3,-2.6902633E-2,-2.2455128E-3,1.286918E-2,-1.0590429E-2,1.7996073E-2,-7.256059E-3,-2.5161225E-2,1.1735214E-2,1.8337723E-2,3.5934933E-2,1.5051284E-2,-1.0197266E-2],"categories":[],"categories_nodes":[],"categories_segments":[],"categories_sizes":[],"default_left":[0,0,0,0,0,0,0,0,0,0,0,0,0,0,0,0,0,0,0,0,0,0,0,0,0,0,0,0,0],"id":28,"left_children":[1,3,5,7,9,11,13,15,-1,17,19,21,23,25,27,-1,-1,-1,-1,-1,-1,-1,-1,-1,-1,-1,-1,-1,-1],"loss_changes":[1.2387213E1,6.740179E-1,2.2560914E0,8.9405346E-1,2.4548191E-1,8.156949E-1,5.4082346E-1,3.5945892E-1,0E0,1.3278615E-1,1.8057908E-1,1.0587734E0,1.0689919E0,3.114009E-1,2.0072696E-1,0E0,0E0,0E0,0E0,0E0,0E0,0E0,0E0,0E0,0E0,0E0,0E0,0E0,0E0],"parents":[2147483647,0,0,1,1,2,2,3,3,4,4,5,5,6,6,7,7,9,9,10,10,11,11,12,12,13,13,14,14],"right_children":[2,4,6,8,10,12,14,16,-1,18,20,22,24,26,28,-1,-1,-1,-1,-1,-1,-1,-1,-1,-1,-1,-1,-1,-1],"split_conditions":[1.71116E-1,1.1600662E-2,5.421197E-1,-1.4683211E-2,1E0,6.6420674E-1,2E0,1E0,-3.9903305E-2,3.8636727E0,4.3012522E-2,3.5222344E0,4.9724382E-1,5.7233685E-1,8.102901E-1,-2.2096805E-2,8.610267E-3,-2.6902633E-2,-2.2455128E-3,1.286918E-2,-1.0590429E-2,1.7996073E-2,-7.256059E-3,-2.5161225E-2,1.1735214E-2,1.8337723E-2,3.5934933E-2,1.5051284E-2,-1.0197266E-2],"split_indices":[1,1,1,1,6,3,4,5,0,2,1,2,1,3,3,0,0,0,0,0,0,0,0,0,0,0,0,0,0],"split_type":[0,0,0,0,0,0,0,0,0,0,0,0,0,0,0,0,0,0,0,0,0,0,0,0,0,0,0,0,0],"sum_hessian":[1.824159E2,6.214676E1,1.2026913E2,4.475076E1,1.7395998E1,6.50949E1,5.517423E1,8.226183E0,3.652458E1,9.626901E0,7.769098E0,4.636028E1,1.8734621E1,4.0524902E1,1.4649328E1,4.6886578E0,3.5375247E0,7.732716E0,1.894185E0,2.10933E0,5.659768E0,3.1163654E1,1.5196623E1,1.0755864E1,7.978758E0,1.3117651E1,2.7407251E1,1.3012739E1,1.6365886E0],"tree_param":{"num_deleted":"0","num_feature":"7","num_nodes":"29","size_leaf_vector":"1"}},{"base_weights":[5.8467165E-3,-3.3122337E-1,1.8903196E-1,-1.4838438E-1,-4.1480333E-1,1.10885814E-1,3.6307436E-1,-2.7144644E-1,-4.2653825E-2,-3.7732705E-2,-2.747862E-1,2.2123666E-2,2.069266E-1,1.5443403E-1,4.460018E-1,-2.818527E-2,6.294686E-3,-1.8009285E-2,1.6652174E-2,-2.8626787E-2,1.5820855E-2,1.5530668E-2,-1.0045366E-2,2.6018927E-3,2.3095764E-2,2.2384971E-2,-1.8599631E-2,1.8954786E-2,4.247719E-2],"categories":[],"categories_nodes":[],"categories_segments":[],"categories_sizes":[],"default_left":[0,0,0,0,0,0,0,0,0,0,0,0,0,0,0,0,0,0,0,0,0,0,0,0,0,0,0,0,0],"id":29,"left_children":[1,3,5,7,9,11,13,15,17,-1,19,21,23,25,27,-1,-1,-1,-1,-1,-1,-1,-1,-1,-1,-1,-1,-1,-1],"loss_changes":[1.1350211E1,9.2764187E-1,1.5792575E0,2.7290335E-1,2.1960497E-1,7.0824003E-1,5.6192684E-1,3.0853248E-1,6.393265E-1,0E0,6.619483E-1,1.1567694E0,5.616523E-1,6.423127E-1,3.2820606E-1,0E0,0E0,0E0,0E0,0E0,0E0,0E0,0E0,0E0,0E0,0E0,0E0,0E0,0E0],"parents":[2147483647,0,0,1,1,2,2,3,3,4,4,5,5,6,6,7,7,8,8,10,10,11,11,12,12,13,13,14,14],"right_children":[2,4,6,8,10,12,14,16,18,-1,20,22,24,26,28,-1,-1,-1,-1,-1,-1,-1,-1,-1,-1,-1,-1,-1,-1],"split_conditions":[1.906701E0,5.8896667E-1,4.884428E0,1E0,1E0,1E0,3.4604092E0,1.8205444E0,1E0,-3.7732705E-2,1E0,6.0876703E-1,5.7739174E-1,7.300276E-1,6.584601E-1,-2.818527E-2,6.294686E-3,-1.8009285E-2,1.6652174E-2,-2.8626787E-2,1.5820855E-2,1.5530668E-2,-1.0045366E-2,2.6018927E-3,2.3095764E-2,2.2384971E-2,-1.8599631E-2,1.8954786E-2,4.247719E-2],"split_indices":[0,3,0,6,5,5,2,0,4,0,4,3,3,3,3,0,0,0,0,0,0,0,0,0,0,0,0,0,0],"split_type":[0,0,0,0,0,0,0,0,0,0,0,0,0,0,0,0,0,0,0,0,0,0,0,0,0,0,0,0,0],"sum_hessian":[1.818062E2,6.3730583E1,1.18075615E2,2.0863997E1,4.2866585E1,8.261712E1,3.5458492E1,8.917448E0,1.1946549E1,2.880245E1,1.4064135E1,4.3574947E1,3.9042175E1,1.0899158E1,2.4559336E1,7.239174E0,1.6782744E0,6.974793E0,4.971756E0,1.216834E1,1.8957951E0,1.9984877E1,2.359007E1,1.2908407E1,2.6133768E1,8.440871E0,2.4582863E0,8.191461E0,1.6367874E1],"tree_param":{"num_deleted":"0","num_feature":"7","num_nodes":"29","size_leaf_vector":"1"}},{"base_weights":[8.983168E-3,-2.8968102E-1,2.3528062E-1,-4.1956136E-1,-1.1476877E-1,-6.9181584E-2,2.5570384E-1,-1.0325987E-1,-4.7308442E-1,-2.6785976E-1,1.5636204E-2,1.8058933E-2,-1.66655E-1,2.7216697E-1,-1.3540852E-1,-2.0665962E-2,1.015975E-2,-3.900213E-2,-1.9964656E-2,-3.3676412E-2,-9.8102195E-3,2.0577917E-2,-7.483134E-3,-2.130788E-2,-1.8430355E-3,1.9991123E-3,2.4015801E-2,-1.5847618E-2,3.538369E-3],"categories":[],"categories_nodes":[],"categories_segments":[],"categories_sizes":[],"default_left":[0,0,0,0,0,0,0,0,0,0,0,0,0,0,0,0,0,0,0,0,0,0,0,0,0,0,0,0,0],"id":30,"left_children":[1,3,5,7,9,11,13,15,17,19,21,-1,23,25,27,-1,-1,-1,-1,-1,-1,-1,-1,-1,-1,-1,-1,-1,-1],"loss_changes":[1.2240165E1,1.7256899E0,6.582284E-1,7.033696E-1,6.959238E-1,2.4639818E-1,6.5981627E-1,3.080809E-1,1.1062622E-4,3.0398452E-1,5.4249424E-1,0E0,8.025473E-2,6.380539E-1,6.0288876E-2,0E0,0E0,0E0,0E0,0E0,0E0,0E0,0E0,0E0,0E0,0E0,0E0,0E0,0E0],"parents":[2147483647,0,0,1,1,2,2,3,3,4,4,5,5,6,6,7,7,8,8,9,9,10,10,12,12,13,13,14,14],"right_children":[2,4,6,8,10,12,14,16,18,20,22,-1,24,26,28,-1,-1,-1,-1,-1,-1,-1,-1,-1,-1,-1,-1,-1,-1],"split_conditions":[4.1564465E-1,2.1025224E-2,2.9063544E0,-1.8277414E-2,1E0,4.7723868E-1,4.29497E0,1E0,7.2210585E-3,3.396185E0,1.4926898E0,1.8058933E-2,2.1959605E0,2.044161E0,5.228599E0,-2.0665962E-2,1.015975E-2,-3.900213E-2,-1.9964656E-2,-3.3676412E-2,-9.8102195E-3,2.0577917E-2,-7.483134E-3,-2.130788E-2,-1.8430355E-3,1.9991123E-3,2.4015801E-2,-1.5847618E-2,3.538369E-3],"split_indices":[1,1,2,1,6,1,2,5,1,2,0,0,0,0,0,0,0,0,0,0,0,0,0,0,0,0,0,0,0],"split_type":[0,0,0,0,0,0,0,0,0,0,0,0,0,0,0,0,0,0,0,0,0,0,0,0,0,0,0,0,0],"sum_hessian":[1.7909409E2,7.7082115E1,1.0201197E2,4.343267E1,3.364944E1,6.2626805E0,9.574929E1,6.7097583E0,3.672291E1,1.4993511E1,1.8655931E1,1.2288275E0,5.033853E0,9.217354E1,3.5757513E0,3.9367113E0,2.7730467E0,3.338482E1,3.3380919E0,6.374924E0,8.6185875E0,5.384602E0,1.3271329E1,2.4668705E0,2.5669823E0,9.580708E0,8.2592834E1,2.5745778E0,1.0011734E0],"tree_param":{"num_deleted":"0","num_feature":"7","num_nodes":"29","size_leaf_vector":"1"}},{"base_weights":[-2.4667807E-2,-3.6008283E-1,1.3467294E-1,-2.4605012E-3,-4.056356E-1,2.2785226E-2,2.4518436E-1,-2.3508327E-1,2.4206749E-1,-4.7243363E-1,-2.0273492E-1,9.70412E-2,-1.6278033E-1,4.3113846E-2,2.0631492E-1,-2.3598261E-2,-2.5569291E-3,2.867431E-3,2.3913154E-2,-1.2052391E-2,-3.8511794E-2,-2.457179E-2,-8.256226E-4,1.4489703E-2,-6.5483307E-3,-2.2571657E-2,1.3995108E-3,-2.5074834E-3,2.3977315E-2],"categories":[],"categories_nodes":[],"categories_segments":[],"categories_sizes":[],"default_left":[0,0,0,0,0,0,0,0,0,0,0,0,0,0,0,0,0,0,0,0,0,0,0,0,0,0,0,0,0],"id":31,"left_children":[1,3,5,7,9,11,13,15,17,19,21,23,25,-1,27,-1,-1,-1,-1,-1,-1,-1,-1,-1,-1,-1,-1,-1,-1],"loss_changes":[9.236109E0,9.053564E-1,1.444448E0,4.7170582E-1,5.730028E-1,8.3394307E-1,5.612507E-1,4.220906E-2,3.673938E-2,3.2382965E-2,2.7755702E-1,6.6209674E-1,3.7812227E-1,0E0,1.1999271E0,0E0,0E0,0E0,0E0,0E0,0E0,0E0,0E0,0E0,0E0,0E0,0E0,0E0,0E0],"parents":[2147483647,0,0,1,1,2,2,3,3,4,4,5,5,6,6,7,7,8,8,9,9,10,10,11,11,12,12,14,14],"right_children":[2,4,6,8,10,12,14,16,18,20,22,24,26,-1,28,-1,-1,-1,-1,-1,-1,-1,-1,-1,-1,-1,-1,-1,-1],"split_conditions":[1.509E-1,-2.126463E-2,5.184239E-1,1E0,1.1600662E-2,6.6420674E-1,2.5961053E-1,-2.8908122E-2,3.1161785E0,-1.639773E-2,1E0,3.5222344E0,4.702634E-1,4.3113846E-2,5.8501774E-1,-2.3598261E-2,-2.5569291E-3,2.867431E-3,2.3913154E-2,-1.2052391E-2,-3.8511794E-2,-2.457179E-2,-8.256226E-4,1.4489703E-2,-6.5483307E-3,-2.2571657E-2,1.3995108E-3,-2.5074834E-3,2.3977315E-2],"split_indices":[1,1,1,5,1,3,3,1,2,1,6,2,1,0,3,0,0,0,0,0,0,0,0,0,0,0,0,0,0],"split_type":[0,0,0,0,0,0,0,0,0,0,0,0,0,0,0,0,0,0,0,0,0,0,0,0,0,0,0,0,0],"sum_hessian":[1.7090694E2,5.4636448E1,1.1627049E2,6.2921863E0,4.834426E1,5.837484E1,5.7895653E1,3.2443843E0,3.047802E0,3.5371136E1,1.2973124E1,4.2032253E1,1.6342587E1,5.2624044E0,5.263325E1,2.15632E0,1.0880643E0,1.0109344E0,2.0368676E0,1.4412422E0,3.3929893E1,8.023143E0,4.949981E0,2.8584982E1,1.3447271E1,9.492322E0,6.8502655E0,1.5036801E1,3.7596447E1],"tree_param":{"num_deleted":"0","num_feature":"7","num_nodes":"29","size_leaf_vector":"1"}},{"base_weights":[9.424051E-3,-2.7258462E-1,2.2718653E-1,-3.876552E-1,-9.6721984E-2,-1.06231034E-1,2.4867101E-1,-6.1586685E-2,-4.5882484E-1,9.636878E-3,-2.4293597E-1,-2.1665472E-1,2.94949E-2,2.6682556E-1,-1.8190803E-1,-2.0858953E-2,1.6572125E-2,-3.896801E-2,-2.0612642E-2,5.2687544E-3,-3.2979876E-2,-2.6605636E-2,-2.546809E-3,-2.3985803E-3,-2.219998E-2,1.0469049E-2,-6.2339827E-3,1.4182428E-2,2.6826544E-2,-1.7863685E-2,-1.9205825E-3],"categories":[],"categories_nodes":[],"categories_segments":[],"categories_sizes":[],"default_left":[0,0,0,0,0,0,0,0,0,0,0,0,0,0,0,0,0,0,0,0,0,0,0,0,0,0,0,0,0,0,0],"id":32,"left_children":[1,3,5,7,9,11,13,15,17,19,21,23,25,27,29,-1,-1,-1,-1,-1,-1,-1,-1,-1,-1,-1,-1,-1,-1,-1,-1],"loss_changes":[1.0631372E1,1.4893012E0,7.26007E-1,1.0223722E0,4.8712507E-1,1.0549923E-1,7.6809025E-1,5.499392E-1,8.499479E-2,4.7801328E-1,2.3852676E-1,3.445588E-2,5.2084204E-2,4.848671E-1,2.286297E-2,0E0,0E0,0E0,0E0,0E0,0E0,0E0,0E0,0E0,0E0,0E0,0E0,0E0,0E0,0E0,0E0],"parents":[2147483647,0,0,1,1,2,2,3,3,4,4,5,5,6,6,7,7,8,8,9,9,10,10,11,11,12,12,13,13,14,14],"right_children":[2,4,6,8,10,12,14,16,18,20,22,24,26,28,30,-1,-1,-1,-1,-1,-1,-1,-1,-1,-1,-1,-1,-1,-1,-1,-1],"split_conditions":[4.1564465E-1,3.419328E-2,2.9063544E0,-1.4683211E-2,6.320913E-1,2.1959605E0,4.29497E0,1E0,7.2210585E-3,3.6174417E-1,3.8392372E0,6.2815666E-1,2.7466297E0,6.2779695E-1,7.4129295E-1,-2.0858953E-2,1.6572125E-2,-3.896801E-2,-2.0612642E-2,5.2687544E-3,-3.2979876E-2,-2.6605636E-2,-2.546809E-3,-2.3985803E-3,-2.219998E-2,1.0469049E-2,-6.2339827E-3,1.4182428E-2,2.6826544E-2,-1.7863685E-2,-1.9205825E-3],"split_indices":[1,1,2,1,3,0,2,5,1,1,2,3,2,3,1,0,0,0,0,0,0,0,0,0,0,0,0,0,0,0,0],"split_type":[0,0,0,0,0,0,0,0,0,0,0,0,0,0,0,0,0,0,0,0,0,0,0,0,0,0,0,0,0,0,0],"sum_hessian":[1.7111023E2,7.4447205E1,9.6663025E1,4.4273697E1,3.0173506E1,5.61284E0,9.105018E1,8.266325E0,3.600737E1,1.8008133E1,1.2165372E1,2.766119E0,2.846721E0,8.773146E1,3.318719E0,4.76498E0,3.5013454E0,3.032379E1,5.683581E0,1.6635143E1,1.3729899E0,8.135561E0,4.0298104E0,1.0469238E0,1.7191952E0,1.3523314E0,1.4943895E0,3.9581673E1,4.8149788E1,2.301348E0,1.0173709E0],"tree_param":{"num_deleted":"0","num_feature":"7","num_nodes":"31","size_leaf_vector":"1"}},{"base_weights":[-3.6748176E-4,-2.69744E-1,2.0742406E-1,-3.9961523E-1,-1.1336653E-1,2.2358829E-1,-1.8454888E-1,-8.544616E-2,-3.8220797E-2,-2.1331349E-1,5.638289E-2,1.6306822E-1,3.827994E-1,-1.7988684E-2,-2.1863452E-3,-1.809418E-2,1.0291469E-2,-5.0788075E-3,-2.5981778E-2,3.085852E-2,-6.8089194E-3,1.4643415E-2,-1.3965072E-2,4.2285275E-2,1.2038215E-2],"categories":[],"categories_nodes":[],"categories_segments":[],"categories_sizes":[],"default_left":[0,0,0,0,0,0,0,0,0,0,0,0,0,0,0,0,0,0,0,0,0,0,0,0,0],"id":33,"left_children":[1,3,5,7,9,11,13,15,-1,17,19,21,23,-1,-1,-1,-1,-1,-1,-1,-1,-1,-1,-1,-1],"loss_changes":[9.4133415E0,1.441989E0,6.4279747E-1,9.316611E-1,5.9942347E-1,8.204951E-1,2.1156058E-2,3.0351013E-1,0E0,3.4678364E-1,6.676083E-1,4.914639E-1,7.500093E-1,0E0,0E0,0E0,0E0,0E0,0E0,0E0,0E0,0E0,0E0,0E0,0E0],"parents":[2147483647,0,0,1,1,2,2,3,3,4,4,5,5,6,6,7,7,9,9,10,10,11,11,12,12],"right_children":[2,4,6,8,10,12,14,16,-1,18,20,22,24,-1,-1,-1,-1,-1,-1,-1,-1,-1,-1,-1,-1],"split_conditions":[4.1564465E-1,1.246149E-2,4.29497E0,-1.4683211E-2,1E0,3.8622024E0,7.625245E-1,1E0,-3.8220797E-2,6.0876703E-1,1.4926898E0,3.8017616E0,3.9744344E0,-1.7988684E-2,-2.1863452E-3,-1.809418E-2,1.0291469E-2,-5.0788075E-3,-2.5981778E-2,3.085852E-2,-6.8089194E-3,1.4643415E-2,-1.3965072E-2,4.2285275E-2,1.2038215E-2],"split_indices":[1,1,2,1,5,2,1,5,0,3,0,2,2,0,0,0,0,0,0,0,0,0,0,0,0],"split_type":[0,0,0,0,0,0,0,0,0,0,0,0,0,0,0,0,0,0,0,0,0,0,0,0,0],"sum_hessian":[1.661734E2,7.2233406E1,9.3939995E1,3.8611317E1,3.362209E1,9.063208E1,3.3079135E0,8.107952E0,3.0503365E1,2.1000526E1,1.2621563E1,6.7136185E1,2.3495895E1,2.2904446E0,1.017469E0,4.8580604E0,3.2498918E0,9.62786E0,1.1372666E1,3.274219E0,9.347344E0,6.381851E1,3.3176749E0,1.3653854E1,9.842041E0],"tree_param":{"num_deleted":"0","num_feature":"7","num_nodes":"25","size_leaf_vector":"1"}},{"base_weights":[-8.594187E-3,-3.4330565E-1,1.4994165E-1,-3.9789587E-1,-1.8705888E-1,1.0121749E-2,2.8121397E-1,-1.2502718E-1,-3.7306722E-2,-2.5769076E-1,3.4648858E-2,4.242703E-2,-2.4818331E-1,3.1691867E-1,2.5476173E-2,-1.8747019E-2,4.7967895E-3,-2.8412303E-2,-1.147074E-2,1.6643485E-2,-1.1959008E-2,-1.8011063E-2,7.3483596E-3,5.744737E-3,-2.6026974E-2,3.7859075E-3,2.805741E-2,-1.3053121E-2,9.968689E-3],"categories":[],"categories_nodes":[],"categories_segments":[],"categories_sizes":[],"default_left":[0,0,0,0,0,0,0,0,0,0,0,0,0,0,0,0,0,0,0,0,0,0,0,0,0,0,0,0,0],"id":34,"left_children":[1,3,5,7,9,11,13,15,-1,17,19,21,23,25,27,-1,-1,-1,-1,-1,-1,-1,-1,-1,-1,-1,-1,-1,-1],"loss_changes":[8.732561E0,3.7666512E-1,2.0475523E0,6.5703917E-1,2.5291502E-1,4.7058293E-1,5.176859E-1,1.9699633E-1,0E0,8.203709E-2,1.794352E-1,6.8004394E-1,1.7827442E-1,4.4299316E-1,1.7258018E-1,0E0,0E0,0E0,0E0,0E0,0E0,0E0,0E0,0E0,0E0,0E0,0E0,0E0,0E0],"parents":[2147483647,0,0,1,1,2,2,3,3,4,4,5,5,6,6,7,7,9,9,10,10,11,11,12,12,13,13,14,14],"right_children":[2,4,6,8,10,12,14,16,-1,18,20,22,24,26,28,-1,-1,-1,-1,-1,-1,-1,-1,-1,-1,-1,-1,-1,-1],"split_conditions":[1.5660581E-1,1.1600662E-2,5.184239E-1,-1.4683211E-2,1E0,2.2226808E0,3E0,1E0,-3.7306722E-2,3.484619E0,1.4926898E0,2.9543893E0,2.9902172E0,3.1784704E0,4.9701753E0,-1.8747019E-2,4.7967895E-3,-2.8412303E-2,-1.147074E-2,1.6643485E-2,-1.1959008E-2,-1.8011063E-2,7.3483596E-3,5.744737E-3,-2.6026974E-2,3.7859075E-3,2.805741E-2,-1.3053121E-2,9.968689E-3],"split_indices":[1,1,1,1,5,0,4,5,0,2,0,2,2,2,0,0,0,0,0,0,0,0,0,0,0,0,0,0,0],"split_type":[0,0,0,0,0,0,0,0,0,0,0,0,0,0,0,0,0,0,0,0,0,0,0,0,0,0,0,0,0],"sum_hessian":[1.6259726E2,5.1886192E1,1.1071107E2,3.73056E1,1.4580593E1,5.4131733E1,5.657933E1,8.047281E0,2.9258316E1,1.0934705E1,3.645888E0,4.88571E1,5.274633E0,4.9437855E1,7.141475E0,4.8906007E0,3.1566808E0,4.7648993E0,6.1698055E0,1.8108459E0,1.8350422E0,7.0637937E0,4.179331E1,1.0381635E0,4.2364693E0,5.7749066E0,4.366295E1,2.2376008E0,4.903875E0],"tree_param":{"num_deleted":"0","num_feature":"7","num_nodes":"29","size_leaf_vector":"1"}},{"base_weights":[1.3770529E-3,-2.553837E-1,1.9705346E-1,-3.6663914E-1,-1.04897924E-1,2.1408749E-1,-2.1700746E-1,-6.8618335E-2,-4.366916E-1,-3.6657713E-2,-3.2355547E-1,1.4992689E-1,3.2878184E-1,-2.2352286E-2,-7.961366E-3,-1.7391166E-2,1.299355E-2,-3.713744E-2,-1.8417144E-2,-8.3608735E-5,-2.4161002E-2,-3.018908E-2,-9.5488075E-3,1.3668959E-2,-2.1030113E-2,2.8592033E-2,-6.743907E-3],"categories":[],"categories_nodes":[],"categories_segments":[],"categories_sizes":[],"default_left":[0,0,0,0,0,0,0,0,0,0,0,0,0,0,0,0,0,0,0,0,0,0,0,0,0,0,0],"id":35,"left_children":[1,3,5,7,9,11,13,15,17,19,21,23,25,-1,-1,-1,-1,-1,-1,-1,-1,-1,-1,-1,-1,-1,-1],"loss_changes":[8.227964E0,1.147409E0,7.0193696E-1,8.1185293E-1,4.5827562E-1,6.1127996E-1,2.7555972E-3,3.3986604E-1,7.7629566E-2,2.372693E-1,3.5896838E-2,5.582756E-1,4.008994E-1,0E0,0E0,0E0,0E0,0E0,0E0,0E0,0E0,0E0,0E0,0E0,0E0,0E0,0E0],"parents":[2147483647,0,0,1,1,2,2,3,3,4,4,5,5,6,6,7,7,8,8,9,9,10,10,11,11,12,12],"right_children":[2,4,6,8,10,12,14,16,18,20,22,24,26,-1,-1,-1,-1,-1,-1,-1,-1,-1,-1,-1,-1,-1,-1],"split_conditions":[4.1564465E-1,2.9714819E-2,4.29497E0,-1.4683211E-2,7.5106585E-1,4.884428E0,5.3297216E-1,1E0,7.2210585E-3,2.2226808E0,1E0,6.2938094E-1,7.957499E0,-2.2352286E-2,-7.961366E-3,-1.7391166E-2,1.299355E-2,-3.713744E-2,-1.8417144E-2,-8.3608735E-5,-2.4161002E-2,-3.018908E-2,-9.5488075E-3,1.3668959E-2,-2.1030113E-2,2.8592033E-2,-6.743907E-3],"split_indices":[1,1,2,1,3,0,1,5,1,0,5,1,0,0,0,0,0,0,0,0,0,0,0,0,0,0,0],"split_type":[0,0,0,0,0,0,0,0,0,0,0,0,0,0,0,0,0,0,0,0,0,0,0,0,0,0,0],"sum_hessian":[1.6176495E2,6.983042E1,9.1934525E1,3.9322548E1,3.0507875E1,8.8765755E1,3.1687703E0,7.860697E0,3.146185E1,2.4141327E1,6.366549E0,5.8402363E1,3.0363392E1,1.1695534E0,1.9992169E0,4.8175945E0,3.043102E0,2.665948E1,4.8023705E0,2.2169899E1,1.9714279E0,4.367584E0,1.9989645E0,5.614128E1,2.2610824E0,2.8522148E1,1.8412453E0],"tree_param":{"num_deleted":"0","num_feature":"7","num_nodes":"27","size_leaf_vector":"1"}},{"base_weights":[-5.6981784E-3,-2.4860735E-1,1.8357046E-1,-3.69136E-1,-1.3253513E-1,2.557344E-1,4.2160515E-2,-4.088478E-1,-1.0374001E-1,-2.640264E-1,2.9820574E-2,1.9617261E-1,4.295644E-1,-4.1772626E-2,2.129708E-1,-3.5240576E-2,-1.6171053E-2,1.5338879E-3,-2.2816624E-2,-2.526494E-2,-1.2954082E-3,-1.3077368E-2,2.1084549E-2,1.9310238E-2,-6.9982246E-3,4.0610075E-2,1.3765184E-2,1.2654221E-2,-1.6039236E-2,1.7454577E-4,2.4042048E-2],"categories":[],"categories_nodes":[],"categories_segments":[],"categories_sizes":[],"default_left":[0,0,0,0,0,0,0,0,0,0,0,0,0,0,0,0,0,0,0,0,0,0,0,0,0,0,0,0,0,0,0],"id":36,"left_children":[1,3,5,7,9,11,13,15,17,19,21,23,25,27,29,-1,-1,-1,-1,-1,-1,-1,-1,-1,-1,-1,-1,-1,-1,-1,-1],"loss_changes":[7.404129E0,9.376397E-1,9.131E-1,3.1629515E-1,8.0809075E-1,5.34328E-1,4.6462986E-1,1.0247803E-1,1.3416576E-1,2.619902E-1,8.414675E-1,6.1531043E-1,2.0224643E-1,7.346742E-1,1.9566622E-1,0E0,0E0,0E0,0E0,0E0,0E0,0E0,0E0,0E0,0E0,0E0,0E0,0E0,0E0,0E0,0E0],"parents":[2147483647,0,0,1,1,2,2,3,3,4,4,5,5,6,6,7,7,8,8,9,9,10,10,11,11,12,12,13,13,14,14],"right_children":[2,4,6,8,10,12,14,16,18,20,22,24,26,28,30,-1,-1,-1,-1,-1,-1,-1,-1,-1,-1,-1,-1,-1,-1,-1,-1],"split_conditions":[2.073163E0,1E0,2E0,1.9797136E0,1E0,5.401185E0,4.9701753E0,3.8392372E0,2.0154288E0,1.9200147E0,1E0,3.9744344E0,7.0621724E0,5.977955E-1,6.099548E-1,-3.5240576E-2,-1.6171053E-2,1.5338879E-3,-2.2816624E-2,-2.526494E-2,-1.2954082E-3,-1.3077368E-2,2.1084549E-2,1.9310238E-2,-6.9982246E-3,4.0610075E-2,1.3765184E-2,1.2654221E-2,-1.6039236E-2,1.7454577E-4,2.4042048E-2],"split_indices":[0,6,4,0,4,0,0,2,0,0,5,2,0,3,3,0,0,0,0,0,0,0,0,0,0,0,0,0,0,0,0],"split_type":[0,0,0,0,0,0,0,0,0,0,0,0,0,0,0,0,0,0,0,0,0,0,0,0,0,0,0,0,0,0,0],"sum_hessian":[1.5905391E2,6.951902E1,8.953489E1,3.303523E1,3.648379E1,5.8746872E1,3.0788021E1,2.8265306E1,4.7699213E0,1.9811949E1,1.6671843E1,4.533994E1,1.3406933E1,2.115049E1,9.637531E0,2.3530376E1,4.7349286E0,3.376952E0,1.3929695E0,1.6160824E1,3.651124E0,9.290073E0,7.38177E0,3.9235935E1,6.1040015E0,9.542682E0,3.8642519E0,9.361018E0,1.1789472E1,3.1291041E0,6.508427E0],"tree_param":{"num_deleted":"0","num_feature":"7","num_nodes":"31","size_leaf_vector":"1"}},{"base_weights":[-1.2821244E-3,-2.6209643E-1,1.9077143E-1,-3.6408836E-1,-1.167068E-1,2.5114042E-1,6.0262747E-2,-8.57125E-2,-4.2688635E-1,-2.3844358E-1,-1.5642941E-2,1.2344191E-1,3.455802E-1,3.4009147E-1,-2.580021E-3,3.5768328E-4,-2.5881836E-2,-3.637606E-2,-1.6341941E-2,-1.1786608E-2,-3.1619914E-2,2.0737052E-2,-9.102273E-3,1.5405208E-2,-2.4859548E-2,4.1524105E-2,1.445222E-2,3.422976E-2,3.132395E-3,2.9640755E-2,-5.787009E-3],"categories":[],"categories_nodes":[],"categories_segments":[],"categories_sizes":[],"default_left":[0,0,0,0,0,0,0,0,0,0,0,0,0,0,0,0,0,0,0,0,0,0,0,0,0,0,0,0,0,0,0],"id":37,"left_children":[1,3,5,7,9,11,13,15,17,19,21,23,25,27,29,-1,-1,-1,-1,-1,-1,-1,-1,-1,-1,-1,-1,-1,-1,-1,-1],"loss_changes":[7.9287324E0,9.5288324E-1,7.0312595E-1,6.448169E-1,3.548668E-1,7.0524883E-1,5.3104585E-1,1.8215217E-1,1.0248661E-1,1.2964988E-1,4.879214E-1,8.978242E-1,9.1030836E-1,1.2950057E-1,6.9337624E-1,0E0,0E0,0E0,0E0,0E0,0E0,0E0,0E0,0E0,0E0,0E0,0E0,0E0,0E0,0E0,0E0],"parents":[2147483647,0,0,1,1,2,2,3,3,4,4,5,5,6,6,7,7,8,8,9,9,10,10,11,11,12,12,13,13,14,14],"right_children":[2,4,6,8,10,12,14,16,18,20,22,24,26,28,30,-1,-1,-1,-1,-1,-1,-1,-1,-1,-1,-1,-1,-1,-1,-1,-1],"split_conditions":[4.1564465E-1,3.419328E-2,2E0,-1.4683211E-2,1E0,6.320913E-1,4.51812E-1,7.9822654E-1,1.1600662E-2,7.5106585E-1,1.4926898E0,5.977955E-1,6.7852116E-1,5.977955E-1,3.6214837E-1,3.5768328E-4,-2.5881836E-2,-3.637606E-2,-1.6341941E-2,-1.1786608E-2,-3.1619914E-2,2.0737052E-2,-9.102273E-3,1.5405208E-2,-2.4859548E-2,4.1524105E-2,1.445222E-2,3.422976E-2,3.132395E-3,2.9640755E-2,-5.787009E-3],"split_indices":[1,1,4,1,6,3,1,3,1,3,0,3,3,3,3,0,0,0,0,0,0,0,0,0,0,0,0,0,0,0,0],"split_type":[0,0,0,0,0,0,0,0,0,0,0,0,0,0,0,0,0,0,0,0,0,0,0,0,0,0,0,0,0,0,0],"sum_hessian":[1.5629053E2,6.612549E1,9.016505E1,3.7978832E1,2.8146654E1,6.101651E1,2.9148535E1,7.4258466E0,3.0552984E1,1.21509075E1,1.5995748E1,2.6921373E1,3.4095135E1,4.53649E0,2.4612043E1,6.095488E0,1.3303587E0,2.6232748E1,4.320237E0,8.912142E0,3.238766E0,3.7766874E0,1.221906E1,2.3704128E1,3.2172453E0,1.5570693E1,1.8524443E1,3.1855052E0,1.3509849E0,3.1977744E0,2.141427E1],"tree_param":{"num_deleted":"0","num_feature":"7","num_nodes":"31","size_leaf_vector":"1"}},{"base_weights":[-1.7815202E-2,-2.573154E-1,1.6255365E-1,-3.8208246E-1,-1.22817986E-1,1.789792E-1,-2.1494044E-1,-6.092324E-2,-3.5602514E-2,-2.5610635E-1,-1.3209494E-3,3.9171226E-2,2.3116583E-1,-2.0056972E-2,-4.27897E-3,-1.5163045E-2,1.022004E-2,-3.1700954E-2,-9.716383E-3,1.736482E-2,-8.183168E-3,1.0996521E-2,-1.6794367E-2,4.4311743E-2,1.6140534E-2],"categories":[],"categories_nodes":[],"categories_segments":[],"categories_sizes":[],"default_left":[0,0,0,0,0,0,0,0,0,0,0,0,0,0,0,0,0,0,0,0,0,0,0,0,0],"id":38,"left_children":[1,3,5,7,9,11,13,15,-1,17,19,21,23,-1,-1,-1,-1,-1,-1,-1,-1,-1,-1,-1,-1],"loss_changes":[6.7191772E0,1.0738606E0,5.8898234E-1,6.637788E-1,5.440312E-1,6.1569595E-1,1.05956495E-2,1.8823473E-1,0E0,2.5429058E-1,4.3212026E-1,6.2816983E-1,4.7812057E-1,0E0,0E0,0E0,0E0,0E0,0E0,0E0,0E0,0E0,0E0,0E0,0E0],"parents":[2147483647,0,0,1,1,2,2,3,3,4,4,5,5,6,6,7,7,9,9,10,10,11,11,12,12],"right_children":[2,4,6,8,10,12,14,16,-1,18,20,22,24,-1,-1,-1,-1,-1,-1,-1,-1,-1,-1,-1,-1],"split_conditions":[4.1564465E-1,1.246149E-2,4.29497E0,-2.126463E-2,1E0,3.2943542E0,7.4129295E-1,1E0,-3.5602514E-2,3.396185E0,1.4926898E0,3.068518E0,3.3421547E0,-2.0056972E-2,-4.27897E-3,-1.5163045E-2,1.022004E-2,-3.1700954E-2,-9.716383E-3,1.736482E-2,-8.183168E-3,1.0996521E-2,-1.6794367E-2,4.4311743E-2,1.6140534E-2],"split_indices":[1,1,2,1,6,2,1,5,0,2,0,2,2,0,0,0,0,0,0,0,0,0,0,0,0],"split_type":[0,0,0,0,0,0,0,0,0,0,0,0,0,0,0,0,0,0,0,0,0,0,0,0,0],"sum_hessian":[1.535741E2,6.578965E1,8.778445E1,3.317443E1,3.261522E1,8.462798E1,3.156466E0,5.759231E0,2.7415201E1,1.5024577E1,1.7590641E1,2.3478817E1,6.1149166E1,2.1313882E0,1.0250779E0,3.4219682E0,2.337263E0,6.4098496E0,8.614728E0,5.198097E0,1.2392543E1,1.7157385E1,6.3214335E0,3.6174731E0,5.7531693E1],"tree_param":{"num_deleted":"0","num_feature":"7","num_nodes":"25","size_leaf_vector":"1"}},{"base_weights":[5.097294E-3,-2.6106292E-1,2.0315954E-1,-3.8927075E-1,-1.2433707E-1,9.082456E-2,2.755512E-1,-1.22470744E-1,-3.5874672E-2,-2.6197267E-1,1.7826783E-3,1.3170436E-1,-2.8680947E-2,3.1890598E-1,7.820415E-3,-1.8219061E-2,4.7680875E-3,2.9827154E-3,-2.3161594E-2,1.7521847E-2,-8.692129E-3,1.587138E-2,-1.5134549E-2,2.7606966E-2,4.565144E-3,-1.6814351E-2,1.170625E-2],"categories":[],"categories_nodes":[],"categories_segments":[],"categories_sizes":[],"default_left":[0,0,0,0,0,0,0,0,0,0,0,0,0,0,0,0,0,0,0,0,0,0,0,0,0,0,0],"id":39,"left_children":[1,3,5,7,9,11,13,15,-1,17,19,21,-1,23,25,-1,-1,-1,-1,-1,-1,-1,-1,-1,-1,-1,-1],"loss_changes":[8.037765E0,1.0920773E0,6.8575954E-1,4.6766376E-1,5.7250124E-1,7.037977E-1,6.0875773E-1,1.5511079E-1,0E0,1.40751E-1,4.6018115E-1,7.5429744E-1,0E0,2.9082775E-1,2.8331003E-1,0E0,0E0,0E0,0E0,0E0,0E0,0E0,0E0,0E0,0E0,0E0,0E0],"parents":[2147483647,0,0,1,1,2,2,3,3,4,4,5,5,6,6,7,7,9,9,10,10,11,11,13,13,14,14],"right_children":[2,4,6,8,10,12,14,16,-1,18,20,22,-1,24,26,-1,-1,-1,-1,-1,-1,-1,-1,-1,-1,-1,-1],"split_conditions":[4.1564465E-1,1.1600662E-2,5.184239E-1,-1.8277414E-2,1E0,8.075928E-1,3E0,1E0,-3.5874672E-2,4.3278214E-1,1.4926898E0,5.0181574E-1,-2.8680947E-2,7.0621724E0,6.2815666E-1,-1.8219061E-2,4.7680875E-3,2.9827154E-3,-2.3161594E-2,1.7521847E-2,-8.692129E-3,1.587138E-2,-1.5134549E-2,2.7606966E-2,4.565144E-3,-1.6814351E-2,1.170625E-2],"split_indices":[1,1,1,1,6,3,4,5,0,3,0,1,0,0,3,0,0,0,0,0,0,0,0,0,0,0,0],"split_type":[0,0,0,0,0,0,0,0,0,0,0,0,0,0,0,0,0,0,0,0,0,0,0,0,0,0,0],"sum_hessian":[1.5046603E2,6.406118E1,8.640485E1,3.2107185E1,3.1954E1,3.474435E1,5.1660496E1,6.3847184E0,2.5722466E1,1.4764355E1,1.7189646E1,3.2494915E1,2.249436E0,4.4296272E1,7.3642244E0,3.8867319E0,2.4979866E0,1.2147374E0,1.3549617E1,5.4619336E0,1.1727712E1,2.7219734E1,5.27518E0,3.9980743E1,4.3155284E0,2.6600564E0,4.704168E0],"tree_param":{"num_deleted":"0","num_feature":"7","num_nodes":"27","size_leaf_vector":"1"}},{"base_weights":[-1.4238014E-2,-3.221736E-1,1.14213824E-1,-1.2616046E-1,-3.582363E-1,5.525917E-2,3.1668437E-1,-2.0212406E-1,6.115706E-2,-3.5617437E-2,-1.8586121E-1,7.8266636E-2,-1.8076046E-1,1.7337346E-1,4.317585E-1,-6.138991E-3,-2.2612777E-2,-5.2892896E-3,1.3115083E-2,-2.3516625E-2,-7.1741134E-4,7.309244E-4,1.8801764E-2,-2.426335E-2,-3.3456006E-3,2.1549208E-2,-2.2060394E-2,3.8695488E-2,-6.181085E-3],"categories":[],"categories_nodes":[],"categories_segments":[],"categories_sizes":[],"default_left":[0,0,0,0,0,0,0,0,0,0,0,0,0,0,0,0,0,0,0,0,0,0,0,0,0,0,0,0,0],"id":40,"left_children":[1,3,5,7,9,11,13,15,17,-1,19,21,23,25,27,-1,-1,-1,-1,-1,-1,-1,-1,-1,-1,-1,-1,-1,-1],"loss_changes":[5.858347E0,2.62887E-1,1.230983E0,1.3069439E-1,4.6102524E-1,4.6060514E-1,3.1064105E-1,4.040268E-2,5.22694E-2,0E0,2.6276743E-1,8.172275E-1,1.167867E-1,5.9514534E-1,3.6238003E-1,0E0,0E0,0E0,0E0,0E0,0E0,0E0,0E0,0E0,0E0,0E0,0E0,0E0,0E0],"parents":[2147483647,0,0,1,1,2,2,3,3,4,4,5,5,6,6,7,7,8,8,10,10,11,11,12,12,13,13,14,14],"right_children":[2,4,6,8,10,12,14,16,18,-1,20,22,24,26,28,-1,-1,-1,-1,-1,-1,-1,-1,-1,-1,-1,-1,-1,-1],"split_conditions":[1.509E-1,-1.4683211E-2,5.3020024E0,3.7160082E0,7.2210585E-3,6.2938094E-1,3.6893792E0,3.2236643E0,-2.8908122E-2,-3.5617437E-2,1E0,5.1632154E-1,7.00318E-1,3.5010426E0,4.293059E0,-6.138991E-3,-2.2612777E-2,-5.2892896E-3,1.3115083E-2,-2.3516625E-2,-7.1741134E-4,7.309244E-4,1.8801764E-2,-2.426335E-2,-3.3456006E-3,2.1549208E-2,-2.2060394E-2,3.8695488E-2,-6.181085E-3],"split_indices":[1,1,0,2,1,1,2,2,1,0,6,1,1,2,2,0,0,0,0,0,0,0,0,0,0,0,0,0,0],"split_type":[0,0,0,0,0,0,0,0,0,0,0,0,0,0,0,0,0,0,0,0,0,0,0,0,0,0,0,0,0],"sum_hessian":[1.461765E2,4.2583534E1,1.03592964E2,7.316148E0,3.5267384E1,8.1217316E1,2.2375647E1,5.149006E0,2.167142E0,2.2387602E1,1.2879784E1,7.46124E1,6.604914E0,1.1081548E1,1.12941E1,2.7775111E0,2.3714948E0,1.1275903E0,1.0395516E0,7.583724E0,5.29606E0,5.2512398E1,2.2099998E1,2.8811452E0,3.7237692E0,9.459936E0,1.621611E0,1.0293611E1,1.0004898E0],"tree_param":{"num_deleted":"0","num_feature":"7","num_nodes":"29","size_leaf_vector":"1"}},{"base_weights":[4.2106168E-4,-2.4403156E-1,1.7868975E-1,-3.6697698E-1,-1.1691009E-1,9.570437E-2,2.8180906E-1,-1.1094707E-1,-3.550087E-2,-2.638728E-1,8.971726E-3,1.18286595E-1,-2.4938537E-2,-2.3154147E-2,3.06233E-1,-1.8211482E-2,5.7263724E-3,4.873811E-4,-2.3275383E-2,1.7021451E-2,-7.639709E-3,1.1001986E-2,-2.3180954E-2,3.0356476E-2,9.617857E-3],"categories":[],"categories_nodes":[],"categories_segments":[],"categories_sizes":[],"default_left":[0,0,0,0,0,0,0,0,0,0,0,0,0,0,0,0,0,0,0,0,0,0,0,0,0],"id":41,"left_children":[1,3,5,7,9,11,13,15,-1,17,19,21,-1,-1,23,-1,-1,-1,-1,-1,-1,-1,-1,-1,-1],"loss_changes":[6.566636E0,9.5028186E-1,7.187028E-1,5.766468E-1,6.075131E-1,4.9504432E-1,6.235609E-1,2.0114845E-1,0E0,1.1230004E-1,4.1602156E-1,4.1592276E-1,0E0,0E0,4.6179962E-1,0E0,0E0,0E0,0E0,0E0,0E0,0E0,0E0,0E0,0E0],"parents":[2147483647,0,0,1,1,2,2,3,3,4,4,5,5,6,6,7,7,9,9,10,10,11,11,14,14],"right_children":[2,4,6,8,10,12,14,16,-1,18,20,22,-1,-1,24,-1,-1,-1,-1,-1,-1,-1,-1,-1,-1],"split_conditions":[4.1564465E-1,1.246149E-2,5.889256E-1,-1.4683211E-2,1E0,3.9848385E0,4.0432897E0,1E0,-3.550087E-2,4.3278214E-1,1.4926898E0,8.724508E-1,-2.4938537E-2,-2.3154147E-2,2E0,-1.8211482E-2,5.7263724E-3,4.873811E-4,-2.3275383E-2,1.7021451E-2,-7.639709E-3,1.1001986E-2,-2.3180954E-2,3.0356476E-2,9.617857E-3],"split_indices":[1,1,1,1,6,0,0,5,0,3,0,3,0,0,4,0,0,0,0,0,0,0,0,0,0],"split_type":[0,0,0,0,0,0,0,0,0,0,0,0,0,0,0,0,0,0,0,0,0,0,0,0,0],"sum_hessian":[1.4868547E2,6.2547592E1,8.613788E1,3.0836897E1,3.1710693E1,4.879674E1,3.7341137E1,7.6784916E0,2.3158405E1,1.4124559E1,1.7586134E1,4.6906612E1,1.8901279E0,1.0862148E0,3.625492E1,4.5331154E0,3.1453764E0,1.357827E0,1.2766732E1,5.608462E0,1.1977673E1,4.5427803E1,1.478812E0,2.5268118E1,1.0986804E1],"tree_param":{"num_deleted":"0","num_feature":"7","num_nodes":"25","size_leaf_vector":"1"}},{"base_weights":[7.0221326E-3,-2.3587148E-1,1.8868546E-1,-3.752236E-1,-1.0610023E-1,2.605228E-1,4.582643E-2,-1.1896655E-1,-4.3598464E-1,-1.4621909E-2,-2.1662478E-1,-6.709894E-2,2.951545E-1,2.4801906E-2,3.1534412E-3,-1.8643197E-2,5.251131E-3,-1.3282619E-2,-3.6203343E-2,-1.1542041E-2,1.4223822E-2,-2.8177448E-2,1.3921165E-3,4.6663857E-3,-2.029664E-2,1.6061943E-2,2.8489787E-2,-5.4879785E-3,1.2055475E-2],"categories":[],"categories_nodes":[],"categories_segments":[],"categories_sizes":[],"default_left":[0,0,0,0,0,0,0,0,0,0,0,0,0,0,0,0,0,0,0,0,0,0,0,0,0,0,0,0,0],"id":42,"left_children":[1,3,5,7,9,11,13,15,17,19,21,23,25,-1,27,-1,-1,-1,-1,-1,-1,-1,-1,-1,-1,-1,-1,-1,-1],"loss_changes":[6.547166E0,1.1085572E0,8.590212E-1,4.187727E-1,3.4338078E-1,6.5810513E-1,3.3284843E-1,1.6625747E-1,3.2393456E-2,5.2027214E-1,4.9638182E-1,1.5975322E-1,2.2233152E-1,0E0,2.90908E-1,0E0,0E0,0E0,0E0,0E0,0E0,0E0,0E0,0E0,0E0,0E0,0E0,0E0,0E0],"parents":[2147483647,0,0,1,1,2,2,3,3,4,4,5,5,6,6,7,7,8,8,9,9,10,10,11,11,12,12,14,14],"right_children":[2,4,6,8,10,12,14,16,18,20,22,24,26,-1,28,-1,-1,-1,-1,-1,-1,-1,-1,-1,-1,-1,-1,-1,-1],"split_conditions":[2.073163E0,1.1600662E-2,2E0,-1.8277414E-2,6.0876703E-1,4.4791403E-1,3.6214837E-1,1E0,4.6001554E-1,5.4833055E-1,1E0,2.2226808E0,6.320913E-1,2.4801906E-2,4.9701753E0,-1.8643197E-2,5.251131E-3,-1.3282619E-2,-3.6203343E-2,-1.1542041E-2,1.4223822E-2,-2.8177448E-2,1.3921165E-3,4.6663857E-3,-2.029664E-2,1.6061943E-2,2.8489787E-2,-5.4879785E-3,1.2055475E-2],"split_indices":[0,1,4,1,3,1,3,5,3,3,5,0,3,0,0,0,0,0,0,0,0,0,0,0,0,0,0,0,0],"split_type":[0,0,0,0,0,0,0,0,0,0,0,0,0,0,0,0,0,0,0,0,0,0,0,0,0,0,0,0,0],"sum_hessian":[1.4636954E2,6.250226E1,8.386727E1,2.9226534E1,3.3275726E1,5.525726E1,2.8610012E1,6.168612E0,2.305792E1,1.8826124E1,1.4449602E1,5.1930103E0,5.0064247E1,3.1072528E0,2.550276E1,3.650495E0,2.518117E0,1.9697944E0,2.1088127E1,1.1396975E1,7.42915E0,8.829063E0,5.620539E0,3.5166955E0,1.6763148E0,2.133307E1,2.8731176E1,1.751818E1,7.9845786E0],"tree_param":{"num_deleted":"0","num_feature":"7","num_nodes":"29","size_leaf_vector":"1"}},{"base_weights":[9.532647E-3,-3.203216E-1,1.4202246E-1,-6.917703E-2,-3.4618628E-1,6.861004E-2,2.6431516E-1,-2.335726E-2,1.1013234E-1,-3.9737368E-1,-1.2609732E-1,9.325315E-2,-2.0097204E-1,9.07057E-2,3.75311E-1,-2.187427E-3,1.5631918E-2,-1.2370366E-2,-3.552366E-2,8.824256E-3,-2.4059026E-2,8.997148E-3,-2.4005983E-2,-2.4545517E-2,8.007598E-3,-3.8615032E-3,2.3229996E-2,3.8089547E-2,4.7218855E-3],"categories":[],"categories_nodes":[],"categories_segments":[],"categories_sizes":[],"default_left":[0,0,0,0,0,0,0,0,0,0,0,0,0,0,0,0,0,0,0,0,0,0,0,0,0,0,0,0,0],"id":43,"left_children":[1,3,5,7,9,11,13,-1,15,17,19,21,23,25,27,-1,-1,-1,-1,-1,-1,-1,-1,-1,-1,-1,-1,-1,-1],"loss_changes":[6.2814994E0,2.4366093E-1,9.020488E-1,2.3574546E-1,3.6786413E-1,4.532034E-1,7.00088E-1,0E0,4.695407E-2,2.6708937E-1,3.8266945E-1,4.9168772E-1,2.1536216E-1,4.6289954E-1,7.027092E-1,0E0,0E0,0E0,0E0,0E0,0E0,0E0,0E0,0E0,0E0,0E0,0E0,0E0,0E0],"parents":[2147483647,0,0,1,1,2,2,3,3,4,4,5,5,6,6,8,8,9,9,10,10,11,11,12,12,13,13,14,14],"right_children":[2,4,6,8,10,12,14,-1,16,18,20,22,24,26,28,-1,-1,-1,-1,-1,-1,-1,-1,-1,-1,-1,-1,-1,-1],"split_conditions":[1.509E-1,4.633973E-1,4.0432897E0,1E0,3.8392372E0,8.0713767E-1,3.6436205E0,-2.335726E-2,4.3523747E-1,2.8118095E0,4.003325E0,3.8448892E0,2.1839716E0,5.739924E0,3.955274E0,-2.187427E-3,1.5631918E-2,-1.2370366E-2,-3.552366E-2,8.824256E-3,-2.4059026E-2,8.997148E-3,-2.4005983E-2,-2.4545517E-2,8.007598E-3,-3.8615032E-3,2.3229996E-2,3.8089547E-2,4.7218855E-3],"split_indices":[1,3,0,6,2,3,2,0,3,2,2,0,0,0,2,0,0,0,0,0,0,0,0,0,0,0,0,0,0],"split_type":[0,0,0,0,0,0,0,0,0,0,0,0,0,0,0,0,0,0,0,0,0,0,0,0,0,0,0,0,0],"sum_hessian":[1.4169278E2,4.0197376E1,1.014954E2,4.096377E0,3.6100998E1,6.4398155E1,3.7097244E1,1.546544E0,2.5498328E0,2.8635548E1,7.4654517E0,5.9603725E1,4.794428E0,1.5176603E1,2.192064E1,1.2361375E0,1.3136954E0,5.313395E0,2.3322151E1,3.3283968E0,4.1370554E0,5.7508907E1,2.0948203E0,3.5331602E0,1.2612678E0,9.395424E0,5.781179E0,1.6239412E1,5.681227E0],"tree_param":{"num_deleted":"0","num_feature":"7","num_nodes":"29","size_leaf_vector":"1"}},{"base_weights":[7.196277E-4,-3.2226568E-1,1.289234E-1,-3.8467798E-1,-1.5907587E-1,2.8169965E-2,2.3171958E-1,-2.2576827E-1,-3.42975E-2,-2.2053647E-1,2.3605619E-2,7.881968E-2,-2.8328922E-1,1.12811394E-1,3.0750692E-1,-5.09191E-3,-2.919709E-2,-4.0120664E-3,-2.2061137E-2,-9.91683E-3,1.1605191E-2,-9.194257E-3,1.4634317E-2,-3.0506808E-2,6.255048E-3,3.413437E-2,-7.1521085E-3,3.848798E-2,1.652414E-2],"categories":[],"categories_nodes":[],"categories_segments":[],"categories_sizes":[],"default_left":[0,0,0,0,0,0,0,0,0,0,0,0,0,0,0,0,0,0,0,0,0,0,0,0,0,0,0,0,0],"id":44,"left_children":[1,3,5,7,9,11,13,15,-1,17,19,21,23,25,27,-1,-1,-1,-1,-1,-1,-1,-1,-1,-1,-1,-1,-1,-1],"loss_changes":[5.9282045E0,3.5314274E-1,1.0548836E0,1.0421562E-1,1.5070963E-1,8.5674113E-1,4.2119813E-1,1.6508704E-1,0E0,7.832843E-2,9.26454E-2,9.5448345E-1,2.997414E-1,1.3882065E0,4.3193316E-1,0E0,0E0,0E0,0E0,0E0,0E0,0E0,0E0,0E0,0E0,0E0,0E0,0E0,0E0],"parents":[2147483647,0,0,1,1,2,2,3,3,4,4,5,5,6,6,7,7,9,9,10,10,11,11,12,12,13,13,14,14],"right_children":[2,4,6,8,10,12,14,16,-1,18,20,22,24,26,28,-1,-1,-1,-1,-1,-1,-1,-1,-1,-1,-1,-1,-1,-1],"split_conditions":[1.536334E-1,1.1600662E-2,5.184239E-1,-1.4683211E-2,1E0,7.669779E-1,6.2250704E-1,6.8864965E-1,-3.42975E-2,5.449623E-1,6.2178904E-1,5.4833055E-1,5.002323E-1,4.1688E-1,6.7852116E-1,-5.09191E-3,-2.919709E-2,-4.0120664E-3,-2.2061137E-2,-9.91683E-3,1.1605191E-2,-9.194257E-3,1.4634317E-2,-3.0506808E-2,6.255048E-3,3.413437E-2,-7.1521085E-3,3.848798E-2,1.652414E-2],"split_indices":[1,1,1,1,5,3,3,3,0,3,3,3,1,3,3,0,0,0,0,0,0,0,0,0,0,0,0,0,0],"split_type":[0,0,0,0,0,0,0,0,0,0,0,0,0,0,0,0,0,0,0,0,0,0,0,0,0,0,0,0,0],"sum_hessian":[1.4116254E2,3.9680717E1,1.0148182E2,2.7721376E1,1.195934E1,5.1893536E1,4.958828E1,7.345045E0,2.0376331E1,8.79363E0,3.1657104E0,4.5277424E1,6.6161127E0,2.0271461E1,2.9316818E1,4.066314E0,3.278731E0,2.619663E0,6.173967E0,1.419955E0,1.7457553E0,1.5789384E1,2.948804E1,5.161256E0,1.4548569E0,7.507893E0,1.2763568E1,9.395589E0,1.9921228E1],"tree_param":{"num_deleted":"0","num_feature":"7","num_nodes":"29","size_leaf_vector":"1"}}]},"name":"gbtree"},"learner_model_param":{"base_score":"[-1.6793691E-9]","boost_from_average":"1","num_class":"0","num_feature":"7","num_target":"1"},"objective":{"lambdarank_param":{"lambdarank_bias_norm":"1","lambdarank_normalization":"1","lambdarank_num_pair_per_sample":"4294967295","lambdarank_pair_method":"topk","lambdarank_score_normalization":"1","lambdarank_unbiased":"0","ndcg_exp_gain":"1"},"name":"rank:ndcg"}},"version":[3,2,0]}