{"learner":{"attributes":{"scikit_learn":"{\"_estimator_type\": \"ranker\"}"},"feature_names":["bm25_score","dense_score","price_log","quality","first_observed_age","zero_history","sparse_history"],"feature_types":["float","float","float","float","int","int","int"],"gradient_booster":{"model":{"cats":{"enc":[],"feature_segments":[],"sorted_idx":[]},"gbtree_model_param":{"num_parallel_tree":"1","num_trees":"45"},"iteration_indptr":[0,1,2,3,4,5,6,7,8,9,10,11,12,13,14,15,16,17,18,19,20,21,22,23,24,25,26,27,28,29,30,31,32,33,34,35,36,37,38,39,40,41,42,43,44,45],"tree_info":[0,0,0,0,0,0,0,0,0,0,0,0,0,0,0,0,0,0,0,0,0,0,0,0,0,0,0,0,0,0,0,0,0,0,0,0,0,0,0,0,0,0,0,0,0],"trees":[{"base_weights":[-7.1229236E-3,-5.818202E-1,7.507828E-1,-3.3459157E-1,-6.690786E-1,7.621447E-1,1.2883924E-2,-5.4681456E-1,-1.2123104E-1,-5.983728E-2,-5.2823436E-1,6.8271226E-1,7.15767E-2,-5.2096207E-2,-1.0782238E-2,-1.7219028E-2,1.4129694E-2,-4.48617E-2,1.3420529E-2,5.5867266E-2,2.1691527E-2],"categories":[],"categories_nodes":[],"categories_segments":[],"categories_sizes":[],"default_left":[0,0,0,0,0,0,0,0,0,0,0,0,0,0,0,0,0,0,0,0,0],"id":0,"left_children":[1,3,5,7,9,11,-1,13,15,-1,17,19,-1,-1,-1,-1,-1,-1,-1,-1,-1],"loss_changes":[7.492577E1,1.8865395E0,3.7436295E-1,1.1798491E0,3.9717484E-1,1.5278244E-1,0E0,4.934187E-1,4.5825425E-1,0E0,7.508869E-1,1.2947655E-1,0E0,0E0,0E0,0E0,0E0,0E0,0E0,0E0,0E0],"parents":[2147483647,0,0,1,1,2,2,3,3,4,4,5,5,7,7,8,8,10,10,11,11],"right_children":[2,4,6,8,10,12,-1,14,16,-1,18,20,-1,-1,-1,-1,-1,-1,-1,-1,-1],"split_conditions":[1.7168324E0,5.294614E-1,9.3693525E-1,4.245898E-1,1E0,4.016848E0,1.2883924E-2,2E0,4.0921755E0,-5.983728E-2,2E0,4.338989E0,7.15767E-2,-5.2096207E-2,-1.0782238E-2,-1.7219028E-2,1.4129694E-2,-4.48617E-2,1.3420529E-2,5.5867266E-2,2.1691527E-2],"split_indices":[0,3,3,3,6,0,0,4,2,0,4,2,0,0,0,0,0,0,0,0,0],"split_type":[0,0,0,0,0,0,0,0,0,0,0,0,0,0,0,0,0,0,0,0,0],"sum_hessian":[1.7001631E2,9.682735E1,7.318896E1,2.652075E1,7.03066E1,7.1518715E1,1.6702411E0,1.2512296E1,1.4008454E1,4.2302296E1,2.8004303E1,4.8567265E1,2.2951452E1,9.519991E0,2.9923055E0,1.085866E1,3.1497953E0,2.6939205E1,1.0650979E0,4.611919E1,2.4480746E0],"tree_param":{"num_deleted":"0","num_feature":"7","num_nodes":"21","size_leaf_vector":"1"}},{"base_weights":[9.636418E-3,-6.1242145E-1,6.1778766E-1,-7.269751E-1,-3.999383E-1,4.0265512E-1,7.5444686E-1,-3.574071E-1,-7.8022337E-1,-5.4905516E-1,-2.301647E-1,2.2135256E-1,4.8196414E-1,6.349988E-1,6.6275746E-2,-5.164547E-2,1.3066206E-2,-6.443559E-2,-4.2765666E-2,-4.950154E-2,-2.3436377E-2,1.6939294E-2,-2.5885873E-2,-2.5917696E-2,3.1778693E-2,5.0678942E-2,3.1103833E-2,5.3719684E-2,2.5057891E-2],"categories":[],"categories_nodes":[],"categories_segments":[],"categories_sizes":[],"default_left":[0,0,0,0,0,0,0,0,0,0,0,0,0,0,0,0,0,0,0,0,0,0,0,0,0,0,0,0,0],"id":1,"left_children":[1,3,5,7,9,11,13,15,17,19,21,23,25,27,-1,-1,-1,-1,-1,-1,-1,-1,-1,-1,-1,-1,-1,-1,-1],"loss_changes":[1.3899228E2,4.1303787E0,5.1579056E0,2.0194283E0,1.5405817E0,9.618292E-1,4.6800232E-1,2.5893738E0,1.966629E-1,4.31715E-1,1.4105362E0,2.475048E0,4.7150326E-1,3.4519196E-1,0E0,0E0,0E0,0E0,0E0,0E0,0E0,0E0,0E0,0E0,0E0,0E0,0E0,0E0,0E0],"parents":[2147483647,0,0,1,1,2,2,3,3,4,4,5,5,6,6,7,7,8,8,9,9,10,10,11,11,12,12,13,13],"right_children":[2,4,6,8,10,12,14,16,18,20,22,24,26,28,-1,-1,-1,-1,-1,-1,-1,-1,-1,-1,-1,-1,-1,-1,-1],"split_conditions":[4.0091196E-1,1.6055945E-2,5.212096E-1,-1.174104E-2,1E0,4.463281E-1,7.226531E-1,1E0,6.390339E-3,4.009331E0,7.744488E-2,3.08603E0,3.1086144E0,4E0,6.6275746E-2,-5.164547E-2,1.3066206E-2,-6.443559E-2,-4.2765666E-2,-4.950154E-2,-2.3436377E-2,1.6939294E-2,-2.5885873E-2,-2.5917696E-2,3.1778693E-2,5.0678942E-2,3.1103833E-2,5.3719684E-2,2.5057891E-2],"split_indices":[1,1,1,1,6,1,1,6,1,2,1,2,2,4,0,0,0,0,0,0,0,0,0,0,0,0,0,0,0],"split_type":[0,0,0,0,0,0,0,0,0,0,0,0,0,0,0,0,0,0,0,0,0,0,0,0,0,0,0,0,0],"sum_hessian":[3.6540765E2,1.8063501E2,1.8477263E2,1.1578944E2,6.484558E1,7.331098E1,1.1146165E2,1.55534315E1,1.00236E2,3.3333652E1,3.1511925E1,2.346359E1,4.9847393E1,4.6302658E1,6.515899E1,9.858348E0,5.695084E0,8.883627E1,1.139973E1,2.5088184E1,8.24547E0,5.2775617E0,2.6234364E1,5.516758E0,1.7946833E1,1.6771393E1,3.3076E1,4.060966E1,5.692997E0],"tree_param":{"num_deleted":"0","num_feature":"7","num_nodes":"29","size_leaf_vector":"1"}},{"base_weights":[-3.0626198E-3,-5.8735114E-1,4.3799478E-1,-6.960607E-1,-2.006374E-1,1.8892029E-1,5.8948445E-1,-3.350099E-1,-7.5900114E-1,-4.581043E-1,5.7938468E-2,2.5485426E-1,-1.8214405E-1,6.1463423E-2,5.20669E-1,-4.8885554E-2,9.103292E-3,-6.294538E-2,-4.0895723E-2,-4.044961E-2,-1.4049988E-2,1.9188797E-2,-1.0558154E-2,1.3435877E-2,4.6629753E-2,-4.573015E-2,2.3313781E-2,3.4514394E-2,5.2780718E-2],"categories":[],"categories_nodes":[],"categories_segments":[],"categories_sizes":[],"default_left":[0,0,0,0,0,0,0,0,0,0,0,0,0,0,0,0,0,0,0,0,0,0,0,0,0,0,0,0,0],"id":2,"left_children":[1,3,5,7,9,11,13,15,17,19,21,23,25,-1,27,-1,-1,-1,-1,-1,-1,-1,-1,-1,-1,-1,-1,-1,-1],"loss_changes":[8.653137E1,5.932274E0,7.1085052E0,2.2985306E0,2.230017E0,1.8528862E0,1.0581932E0,2.3574133E0,2.517166E-1,1.3530803E-1,6.328569E-1,1.7012453E0,2.3289545E0,0E0,8.1604576E-1,0E0,0E0,0E0,0E0,0E0,0E0,0E0,0E0,0E0,0E0,0E0,0E0,0E0,0E0],"parents":[2147483647,0,0,1,1,2,2,3,3,4,4,5,5,6,6,7,7,8,8,9,9,10,10,11,11,12,12,14,14],"right_children":[2,4,6,8,10,12,14,16,18,20,22,24,26,-1,28,-1,-1,-1,-1,-1,-1,-1,-1,-1,-1,-1,-1,-1,-1],"split_conditions":[2.5215358E-1,1.6055945E-2,5.122027E-1,-1.174104E-2,1E0,2.211834E0,2.981126E0,1E0,6.390339E-3,2.0673647E0,1.7216327E0,4.0681715E0,4.6550593E-1,6.1463423E-2,6.0782304E0,-4.8885554E-2,9.103292E-3,-6.294538E-2,-4.0895723E-2,-4.044961E-2,-1.4049988E-2,1.9188797E-2,-1.0558154E-2,1.3435877E-2,4.6629753E-2,-4.573015E-2,2.3313781E-2,3.4514394E-2,5.2780718E-2],"split_indices":[1,1,1,1,6,0,2,6,1,0,0,2,1,0,0,0,0,0,0,0,0,0,0,0,0,0,0,0,0],"split_type":[0,0,0,0,0,0,0,0,0,0,0,0,0,0,0,0,0,0,0,0,0,0,0,0,0,0,0,0,0],"sum_hessian":[3.337789E2,1.434339E2,1.90345E2,1.1133612E2,3.209777E1,7.283655E1,1.17508446E2,1.7466152E1,9.386997E1,1.5696722E1,1.6401049E1,6.2112957E1,1.0723595E1,2.9831228E1,8.767722E1,1.0590394E1,6.875758E0,8.24408E1,1.1429166E1,1.2760366E1,2.9363558E0,8.242503E0,8.158545E0,5.0298706E1,1.181425E1,5.7705555E0,4.9530396E0,5.590854E1,3.1768682E1],"tree_param":{"num_deleted":"0","num_feature":"7","num_nodes":"29","size_leaf_vector":"1"}},{"base_weights":[-5.9247534E-3,-5.0320876E-1,4.7632E-1,-6.747613E-1,-1.2631337E-1,2.2515862E-1,5.7946265E-1,-3.0498645E-1,-7.167329E-1,-7.6551594E-2,-5.2411354E-1,8.443092E-2,4.8829833E-1,5.924508E-1,1.2985586E-1,-4.186299E-2,5.9536344E-4,-6.0163874E-2,-3.742303E-2,-2.1988548E-2,7.546146E-3,-5.5628035E-2,4.819977E-3,2.1785472E-2,-5.0663147E-3,5.4650687E-2,2.5611905E-2,3.98343E-2,5.2262798E-2,3.6717355E-2,-8.081023E-3],"categories":[],"categories_nodes":[],"categories_segments":[],"categories_sizes":[],"default_left":[0,0,0,0,0,0,0,0,0,0,0,0,0,0,0,0,0,0,0,0,0,0,0,0,0,0,0,0,0,0,0],"id":3,"left_children":[1,3,5,7,9,11,13,15,17,19,21,23,25,27,29,-1,-1,-1,-1,-1,-1,-1,-1,-1,-1,-1,-1,-1,-1,-1,-1],"loss_changes":[7.724072E1,1.0167198E1,4.1056595E0,1.4690094E0,9.660515E-1,1.7821515E0,5.962715E-1,8.7859154E-1,5.002098E-1,1.5965028E0,5.9028256E-1,9.414733E-1,3.3654833E-1,3.173828E-1,3.8960686E-1,0E0,0E0,0E0,0E0,0E0,0E0,0E0,0E0,0E0,0E0,0E0,0E0,0E0,0E0,0E0,0E0],"parents":[2147483647,0,0,1,1,2,2,3,3,4,4,5,5,6,6,7,7,8,8,9,9,10,10,11,11,12,12,13,13,14,14],"right_children":[2,4,6,8,10,12,14,16,18,20,22,24,26,28,30,-1,-1,-1,-1,-1,-1,-1,-1,-1,-1,-1,-1,-1,-1,-1,-1],"split_conditions":[4.0091196E-1,1.8771911E-2,5.122027E-1,-1.6629767E-2,3.4841532E-1,4.0681715E0,4.475517E0,1E0,6.390339E-3,1E0,3E0,3.1086144E0,4.1615357E0,6.599585E-1,6.1468583E-1,-4.186299E-2,5.9536344E-4,-6.0163874E-2,-3.742303E-2,-2.1988548E-2,7.546146E-3,-5.5628035E-2,4.819977E-3,2.1785472E-2,-5.0663147E-3,5.4650687E-2,2.5611905E-2,3.98343E-2,5.2262798E-2,3.6717355E-2,-8.081023E-3],"split_indices":[1,1,1,1,1,2,2,6,1,6,4,2,2,1,1,0,0,0,0,0,0,0,0,0,0,0,0,0,0,0,0],"split_type":[0,0,0,0,0,0,0,0,0,0,0,0,0,0,0,0,0,0,0,0,0,0,0,0,0,0,0,0,0,0,0],"sum_hessian":[3.2008835E2,1.5756554E2,1.6252283E2,1.0773649E2,4.982904E1,4.8239193E1,1.1428364E2,1.1824827E1,9.591166E1,4.53487E1,4.480341E0,3.2290836E1,1.5948353E1,1.1076615E2,3.517489E0,6.5637097E0,5.261118E0,8.222606E1,1.3685599E1,2.0708216E1,2.4640484E1,3.318103E0,1.162238E0,1.3844088E1,1.844675E1,5.9691854E0,9.979168E0,4.697032E1,6.379583E1,1.0428582E0,2.4746306E0],"tree_param":{"num_deleted":"0","num_feature":"7","num_nodes":"31","size_leaf_vector":"1"}},{"base_weights":[-1.9464606E-2,-5.410925E-1,3.9124838E-1,-6.452717E-1,-1.7358139E-1,1.6442949E-1,5.295621E-1,-1.3307816E-1,-5.800988E-2,-4.0026426E-1,2.8838532E-2,-3.5369617E-4,4.504084E-1,5.4577655E-1,1.468514E-1,-3.283074E-2,4.426763E-2,2.648718E-3,-3.552532E-2,1.3110406E-2,-1.1379336E-2,-1.1743612E-2,8.184314E-3,4.1590404E-2,-3.2726526E-2,3.864313E-2,5.7910603E-2,-2.8474888E-2,2.8579945E-2],"categories":[],"categories_nodes":[],"categories_segments":[],"categories_sizes":[],"default_left":[0,0,0,0,0,0,0,0,0,0,0,0,0,0,0,0,0,0,0,0,0,0,0,0,0,0,0,0,0],"id":4,"left_children":[1,3,5,7,9,11,13,15,-1,17,19,21,23,25,27,-1,-1,-1,-1,-1,-1,-1,-1,-1,-1,-1,-1,-1,-1],"loss_changes":[6.527673E1,5.0263443E0,5.261772E0,4.1651077E0,1.4344058E0,3.1120303E0,5.742855E-1,3.1352959E0,0E0,2.936561E-1,4.2331702E-1,6.598594E-1,1.6541338E0,7.76741E-1,7.253351E-1,0E0,0E0,0E0,0E0,0E0,0E0,0E0,0E0,0E0,0E0,0E0,0E0,0E0,0E0],"parents":[2147483647,0,0,1,1,2,2,3,3,4,4,5,5,6,6,7,7,9,9,10,10,11,11,12,12,13,13,14,14],"right_children":[2,4,6,8,10,12,14,16,-1,18,20,22,24,26,28,-1,-1,-1,-1,-1,-1,-1,-1,-1,-1,-1,-1,-1,-1],"split_conditions":[2.5215358E-1,1.8771911E-2,5.096292E-1,-1.6629767E-2,1E0,4.0681715E0,8.312189E0,-1.7811488E-2,-5.800988E-2,2.065455E-2,1.7216327E0,4.172063E-1,2.2026212E0,6.3177505E0,8.59947E0,-3.283074E-2,4.426763E-2,2.648718E-3,-3.552532E-2,1.3110406E-2,-1.1379336E-2,-1.1743612E-2,8.184314E-3,4.1590404E-2,-3.2726526E-2,3.864313E-2,5.7910603E-2,-2.8474888E-2,2.8579945E-2],"split_indices":[1,1,1,1,6,2,0,1,0,1,0,1,0,0,0,0,0,0,0,0,0,0,0,0,0,0,0,0,0],"split_type":[0,0,0,0,0,0,0,0,0,0,0,0,0,0,0,0,0,0,0,0,0,0,0,0,0,0,0,0,0],"sum_hessian":[3.027025E2,1.3320609E2,1.6949644E2,1.0319685E2,3.0009235E1,6.503508E1,1.0446136E2,1.42782755E1,8.891858E1,1.369514E1,1.6314095E1,4.1894135E1,2.3140947E1,9.980673E1,4.6546264E0,1.0456235E1,3.8220408E0,1.2795517E0,1.2415588E1,9.140869E0,7.173225E0,1.7088037E1,2.4806095E1,2.177595E1,1.3649966E0,7.6553154E1,2.3253582E1,1.1691005E0,3.485526E0],"tree_param":{"num_deleted":"0","num_feature":"7","num_nodes":"29","size_leaf_vector":"1"}},{"base_weights":[1.0048008E-2,-5.228735E-1,3.5669613E-1,-6.393353E-1,-3.6910856E-1,2.0524031E-1,5.4479873E-1,-5.3967465E-2,-4.945677E-1,-4.765327E-1,2.8686988E-1,1.703959E-1,5.1042847E-2,5.847574E-1,3.4472367E-1,7.5682957E-4,-4.702979E-2,-4.2183213E-2,-2.0303106E-2,-1.4362478E-2,3.1372406E-2,1.5671903E-2,-2.2299707E-2,6.2361658E-2,4.2417083E-2,1.5480089E-2,3.8577963E-2],"categories":[],"categories_nodes":[],"categories_segments":[],"categories_sizes":[],"default_left":[0,0,0,0,0,0,0,0,0,0,0,0,0,0,0,0,0,0,0,0,0,0,0,0,0,0,0],"id":5,"left_children":[1,3,5,7,9,11,13,-1,15,17,19,21,-1,23,25,-1,-1,-1,-1,-1,-1,-1,-1,-1,-1,-1,-1],"loss_changes":[5.566543E1,1.890789E0,5.0889416E0,4.333496E-3,3.9102607E0,1.4405184E0,4.445572E-1,0E0,7.9163647E-1,3.9066505E-1,4.7108436E-1,1.1592808E0,0E0,2.8707314E-1,2.3710203E-1,0E0,0E0,0E0,0E0,0E0,0E0,0E0,0E0,0E0,0E0,0E0,0E0],"parents":[2147483647,0,0,1,1,2,2,3,3,4,4,5,5,6,6,8,8,9,9,10,10,11,11,13,13,14,14],"right_children":[2,4,6,8,10,12,14,-1,16,18,20,22,-1,24,26,-1,-1,-1,-1,-1,-1,-1,-1,-1,-1,-1,-1],"split_conditions":[1.7168324E0,1E0,4.016848E0,4.009331E0,2E0,4.5708895E0,3E0,-5.3967465E-2,4.036539E0,4.078215E0,3.3527071E0,8.4936154E-1,5.1042847E-2,2.7140322E0,5.2505026E0,7.5682957E-4,-4.702979E-2,-4.2183213E-2,-2.0303106E-2,-1.4362478E-2,3.1372406E-2,1.5671903E-2,-2.2299707E-2,6.2361658E-2,4.2417083E-2,1.5480089E-2,3.8577963E-2],"split_indices":[0,6,0,2,4,2,4,0,2,2,2,3,0,2,0,0,0,0,0,0,0,0,0,0,0,0,0],"split_type":[0,0,0,0,0,0,0,0,0,0,0,0,0,0,0,0,0,0,0,0,0,0,0,0,0,0,0],"sum_hessian":[2.993142E2,1.1776269E2,1.8155153E2,6.521268E1,5.255001E1,1.0173112E2,7.982041E1,4.9497696E1,1.5714981E1,4.539036E1,7.1596475E0,9.544087E1,6.290249E0,6.493001E1,1.4890405E1,2.5950785E0,1.3119903E1,3.5853127E1,9.537237E0,1.1886929E0,5.970955E0,9.084633E1,4.5945377E0,1.1297542E1,5.363247E1,8.237801E0,6.652604E0],"tree_param":{"num_deleted":"0","num_feature":"7","num_nodes":"27","size_leaf_vector":"1"}},{"base_weights":[-9.39416E-4,-4.948871E-1,3.789841E-1,-5.909979E-1,-1.6630907E-1,1.7185752E-1,4.960521E-1,-1.6098385E-1,-6.5197676E-1,-3.710093E-1,1.1336992E-2,8.589055E-2,5.729655E-2,6.206942E-1,4.1439503E-1,-3.8825683E-2,1.6118716E-2,-5.501882E-2,-3.2215483E-2,4.696803E-5,-3.2383636E-2,1.47748E-2,-1.2836033E-2,1.0771953E-5,2.178512E-2,5.2202366E-2,1.51297925E-2,-8.636968E-3,3.566218E-2],"categories":[],"categories_nodes":[],"categories_segments":[],"categories_sizes":[],"default_left":[0,0,0,0,0,0,0,0,0,0,0,0,0,0,0,0,0,0,0,0,0,0,0,0,0,0,0,0,0],"id":6,"left_children":[1,3,5,7,9,11,13,15,17,19,21,23,-1,25,27,-1,-1,-1,-1,-1,-1,-1,-1,-1,-1,-1,-1,-1,-1],"loss_changes":[5.58564E1,3.9882183E0,3.9942474E0,2.5100327E0,1.1197299E0,2.8530746E0,8.3140373E-1,1.7099483E0,4.986801E-1,1.7955256E-1,5.476051E-1,8.780361E-1,0E0,4.306631E-1,1.1567869E0,0E0,0E0,0E0,0E0,0E0,0E0,0E0,0E0,0E0,0E0,0E0,0E0,0E0,0E0],"parents":[2147483647,0,0,1,1,2,2,3,3,4,4,5,5,6,6,7,7,8,8,9,9,10,10,11,11,13,13,14,14],"right_children":[2,4,6,8,10,12,14,16,18,20,22,24,-1,26,28,-1,-1,-1,-1,-1,-1,-1,-1,-1,-1,-1,-1,-1,-1],"split_conditions":[2.631658E-1,1.8771911E-2,5.096292E-1,-1.6629767E-2,1E0,4.5708895E0,2.981126E0,1E0,6.390339E-3,2.065455E-2,1.7168324E0,4.0681715E0,5.729655E-2,3E0,3.08603E0,-3.8825683E-2,1.6118716E-2,-5.501882E-2,-3.2215483E-2,4.696803E-5,-3.2383636E-2,1.47748E-2,-1.2836033E-2,1.0771953E-5,2.178512E-2,5.2202366E-2,1.51297925E-2,-8.636968E-3,3.566218E-2],"split_indices":[1,1,1,1,6,2,2,6,1,1,0,2,0,4,2,0,0,0,0,0,0,0,0,0,0,0,0,0,0],"split_type":[0,0,0,0,0,0,0,0,0,0,0,0,0,0,0,0,0,0,0,0,0,0,0,0,0,0,0,0,0],"sum_hessian":[2.9564365E2,1.2840222E2,1.6724142E2,9.872579E1,2.967644E1,6.1282784E1,1.0595865E2,1.2713332E1,8.601246E1,1.3282565E1,1.6393875E1,5.3924484E1,7.358298E0,3.9327515E1,6.6631134E1,6.5307045E0,6.182628E0,7.3684E1,1.2328454E1,1.188916E0,1.2093649E1,8.122503E0,8.271372E0,3.761985E1,1.6304634E1,3.614896E1,3.1785526E0,3.637913E0,6.299322E1],"tree_param":{"num_deleted":"0","num_feature":"7","num_nodes":"29","size_leaf_vector":"1"}},{"base_weights":[1.3855786E-2,-4.7618097E-1,3.7243888E-1,-5.6979E-1,-1.658258E-1,1.4383408E-1,4.9917063E-1,-1.579274E-1,-6.266309E-1,-3.7129414E-1,4.433499E-3,4.880907E-2,5.308646E-2,5.9533966E-1,4.430831E-1,-3.825807E-2,1.2569425E-2,-5.309211E-2,-3.0079685E-2,-1.7842246E-2,-3.699498E-2,9.167703E-3,-1.5156032E-2,1.5231075E-2,-3.8119066E-3,1.1647877E-2,4.9120072E-2,5.4196166E-3,3.712475E-2],"categories":[],"categories_nodes":[],"categories_segments":[],"categories_sizes":[],"default_left":[0,0,0,0,0,0,0,0,0,0,0,0,0,0,0,0,0,0,0,0,0,0,0,0,0,0,0,0,0],"id":7,"left_children":[1,3,5,7,9,11,13,15,17,19,21,23,-1,25,27,-1,-1,-1,-1,-1,-1,-1,-1,-1,-1,-1,-1,-1,-1],"loss_changes":[5.1552227E1,3.5073662E0,4.8356953E0,2.1212902E0,1.056021E0,3.0207524E0,3.2183838E-1,1.3706388E0,5.20607E-1,8.158505E-2,3.948536E-1,7.375408E-1,0E0,2.2184849E-1,5.3926754E-1,0E0,0E0,0E0,0E0,0E0,0E0,0E0,0E0,0E0,0E0,0E0,0E0,0E0,0E0],"parents":[2147483647,0,0,1,1,2,2,3,3,4,4,5,5,6,6,7,7,8,8,9,9,10,10,11,11,13,13,14,14],"right_children":[2,4,6,8,10,12,14,16,18,20,22,24,-1,26,28,-1,-1,-1,-1,-1,-1,-1,-1,-1,-1,-1,-1,-1,-1],"split_conditions":[2.631658E-1,1.8771911E-2,5.053129E-1,-1.6629767E-2,1E0,4.5708895E0,2.981126E0,1E0,6.390339E-3,6.598202E-1,6.7630136E-1,5.7827985E-1,5.308646E-2,4.9345726E-1,3.1419947E0,-3.825807E-2,1.2569425E-2,-5.309211E-2,-3.0079685E-2,-1.7842246E-2,-3.699498E-2,9.167703E-3,-1.5156032E-2,1.5231075E-2,-3.8119066E-3,1.1647877E-2,4.9120072E-2,5.4196166E-3,3.712475E-2],"split_indices":[1,1,1,1,6,2,2,6,1,3,3,3,0,3,2,0,0,0,0,0,0,0,0,0,0,0,0,0,0],"split_type":[0,0,0,0,0,0,0,0,0,0,0,0,0,0,0,0,0,0,0,0,0,0,0,0,0,0,0,0,0],"sum_hessian":[2.9136966E2,1.2297926E2,1.6839041E2,9.383954E1,2.9139725E1,6.0818325E1,1.0757208E2,1.1838373E1,8.200116E1,1.2669482E1,1.6470243E1,5.2342487E1,8.475841E0,3.608514E1,7.1486946E1,5.6134057E0,6.2249675E0,7.001201E1,1.1989151E1,6.135552E0,6.5339303E0,1.0763487E1,5.706756E0,2.0815714E1,3.1526772E1,1.7883195E0,3.429682E1,4.007558E0,6.7479385E1],"tree_param":{"num_deleted":"0","num_feature":"7","num_nodes":"29","size_leaf_vector":"1"}},{"base_weights":[-6.1388854E-3,-4.6942756E-1,3.4430987E-1,-5.631097E-1,-1.5987426E-1,1.089825E-1,4.693838E-1,-1.5703541E-1,-6.217391E-1,-9.417261E-3,-3.5829154E-1,-8.171076E-2,3.9551225E-1,4.177421E-1,5.734217E-1,-2.6688391E-2,2.8255574E-2,-5.2868996E-2,-2.9397402E-2,1.2085814E-2,-1.373092E-2,-5.457548E-3,-3.1853028E-2,9.148504E-3,-1.5557647E-2,3.726741E-2,-3.1691745E-2,1.5814729E-2,3.819857E-2,5.7331245E-2,2.8864693E-2],"categories":[],"categories_nodes":[],"categories_segments":[],"categories_sizes":[],"default_left":[0,0,0,0,0,0,0,0,0,0,0,0,0,0,0,0,0,0,0,0,0,0,0,0,0,0,0,0,0,0,0],"id":8,"left_children":[1,3,5,7,9,11,13,15,17,19,21,23,25,27,29,-1,-1,-1,-1,-1,-1,-1,-1,-1,-1,-1,-1,-1,-1,-1,-1],"loss_changes":[4.606277E1,3.4530983E0,4.703373E0,2.1259422E0,8.8570714E-1,3.1665285E0,3.2552528E-1,1.2999411E0,5.6567955E-1,4.9363813E-1,1.2107086E-1,8.0199283E-1,1.4702733E0,8.780298E-1,7.2206783E-1,0E0,0E0,0E0,0E0,0E0,0E0,0E0,0E0,0E0,0E0,0E0,0E0,0E0,0E0,0E0,0E0],"parents":[2147483647,0,0,1,1,2,2,3,3,4,4,5,5,6,6,7,7,8,8,9,9,10,10,11,11,12,12,13,13,14,14],"right_children":[2,4,6,8,10,12,14,16,18,20,22,24,26,28,30,-1,-1,-1,-1,-1,-1,-1,-1,-1,-1,-1,-1,-1,-1,-1,-1],"split_conditions":[2.631658E-1,1.8771911E-2,5.053129E-1,-1.6629767E-2,6.7630136E-1,4.0681715E0,6.3177505E0,-1.7811488E-2,6.390339E-3,1.8273299E0,2.642948E-2,5.264676E-1,2.211834E0,5.312455E-1,5.968865E-1,-2.6688391E-2,2.8255574E-2,-5.2868996E-2,-2.9397402E-2,1.2085814E-2,-1.373092E-2,-5.457548E-3,-3.1853028E-2,9.148504E-3,-1.5557647E-2,3.726741E-2,-3.1691745E-2,1.5814729E-2,3.819857E-2,5.7331245E-2,2.8864693E-2],"split_indices":[1,1,1,1,3,2,0,1,1,0,1,3,0,3,3,0,0,0,0,0,0,0,0,0,0,0,0,0,0,0,0],"split_type":[0,0,0,0,0,0,0,0,0,0,0,0,0,0,0,0,0,0,0,0,0,0,0,0,0,0,0,0,0,0,0],"sum_hessian":[2.81714E2,1.2117833E2,1.6053566E2,9.239662E1,2.8781704E1,5.6361847E1,1.0417382E2,1.2121321E1,8.02753E1,1.6964914E1,1.1816791E1,3.426944E1,2.2092407E1,7.296915E1,3.1204676E1,9.262218E0,2.8591022E0,6.8185005E1,1.2090293E1,8.562452E0,8.402461E0,1.7555776E0,1.00612135E1,1.2507393E1,2.1762045E1,2.0667854E1,1.4245535E0,1.6499775E1,5.6469368E1,1.722862E1,1.3976055E1],"tree_param":{"num_deleted":"0","num_feature":"7","num_nodes":"31","size_leaf_vector":"1"}},{"base_weights":[3.8699796E-3,-5.254471E-1,3.005579E-1,-1.6669317E-1,-5.7225305E-1,8.223641E-2,4.5822665E-1,-4.4152498E-1,1.5716636E-1,-6.35046E-1,-3.4568483E-1,2.1191657E-2,5.123461E-1,3.982774E-1,5.7073027E-1,-9.183049E-3,-4.569955E-2,-1.7532224E-2,3.6264766E-2,-2.4804106E-2,-5.169155E-2,-4.447833E-2,6.245086E-3,1.8244343E-2,-5.5085258E-3,2.0542907E-4,4.6500716E-2,4.4326723E-2,2.5475195E-2,4.1070767E-3,5.0684985E-2],"categories":[],"categories_nodes":[],"categories_segments":[],"categories_sizes":[],"default_left":[0,0,0,0,0,0,0,0,0,0,0,0,0,0,0,0,0,0,0,0,0,0,0,0,0,0,0,0,0,0,0],"id":9,"left_children":[1,3,5,7,9,11,13,15,17,19,21,23,25,27,29,-1,-1,-1,-1,-1,-1,-1,-1,-1,-1,-1,-1,-1,-1,-1,-1],"loss_changes":[4.3918617E1,1.5913944E0,6.1309376E0,1.2268693E0,1.0388203E0,1.9942117E0,4.7302246E-1,2.4371183E-1,8.4682196E-1,4.5146942E-2,1.9493642E0,1.2808536E0,3.304286E-1,7.073631E-1,1.0700941E0,0E0,0E0,0E0,0E0,0E0,0E0,0E0,0E0,0E0,0E0,0E0,0E0,0E0,0E0,0E0,0E0],"parents":[2147483647,0,0,1,1,2,2,3,3,4,4,5,5,6,6,7,7,8,8,9,9,10,10,11,11,12,12,13,13,14,14],"right_children":[2,4,6,8,10,12,14,16,18,20,22,24,26,28,30,-1,-1,-1,-1,-1,-1,-1,-1,-1,-1,-1,-1,-1,-1,-1,-1],"split_conditions":[3.9448105E-2,-1.6629767E-2,5.053129E-1,1E0,6.390339E-3,4.5708895E0,6.3177505E0,3.08603E0,2E0,-1.174104E-2,4.009331E0,1.8883448E0,2.992495E-1,2.889816E0,2.7542975E0,-9.183049E-3,-4.569955E-2,-1.7532224E-2,3.6264766E-2,-2.4804106E-2,-5.169155E-2,-4.447833E-2,6.245086E-3,1.8244343E-2,-5.5085258E-3,2.0542907E-4,4.6500716E-2,4.4326723E-2,2.5475195E-2,4.1070767E-3,5.0684985E-2],"split_indices":[1,1,1,6,1,2,0,2,4,1,2,0,1,2,2,0,0,0,0,0,0,0,0,0,0,0,0,0,0,0,0],"split_type":[0,0,0,0,0,0,0,0,0,0,0,0,0,0,0,0,0,0,0,0,0,0,0,0,0,0,0,0,0,0,0],"sum_hessian":[2.77656E2,9.9452705E1,1.7820331E2,1.2004346E1,8.744836E1,7.53663E1,1.02837006E2,6.297162E0,5.7071843E0,6.705994E1,2.038842E1,6.6918015E1,8.448293E0,7.004997E1,3.278703E1,2.3252432E0,3.9719186E0,2.6278563E0,3.079328E0,3.1699717E0,6.3889965E1,1.3417597E1,6.970823E0,1.9830336E1,4.7087677E1,1.1295785E0,7.318714E0,2.1720745E1,4.8329227E1,3.7343829E0,2.9052647E1],"tree_param":{"num_deleted":"0","num_feature":"7","num_nodes":"31","size_leaf_vector":"1"}},{"base_weights":[7.924262E-3,-4.3622687E-1,2.911671E-1,-2.0120098E-1,-4.8994282E-1,1.786624E-1,4.604774E-1,-4.574193E-1,-8.9583844E-2,-5.522819E-1,-3.753515E-1,1.3772418E-1,5.126205E-1,4.9892148E-1,1.9661643E-1,-4.3675024E-2,-1.7807779E-3,-1.1790814E-2,2.1406062E-2,-4.769855E-2,-3.258436E-2,-3.816962E-2,2.0606637E-2,1.3269535E-2,-2.892565E-2,7.4532777E-3,4.6910714E-2,5.3435706E-2,3.5621684E-2,1.2357496E-3,2.8137885E-2],"categories":[],"categories_nodes":[],"categories_segments":[],"categories_sizes":[],"default_left":[0,0,0,0,0,0,0,0,0,0,0,0,0,0,0,0,0,0,0,0,0,0,0,0,0,0,0,0,0,0,0],"id":10,"left_children":[1,3,5,7,9,11,13,15,17,19,21,23,25,27,29,-1,-1,-1,-1,-1,-1,-1,-1,-1,-1,-1,-1,-1,-1,-1,-1],"loss_changes":[3.425698E1,1.2401619E0,3.0846033E0,5.7172203E-1,4.0431404E-1,1.3173184E0,5.687399E-1,2.2888482E-1,3.731886E-1,9.695816E-2,2.2670593E0,1.3500032E0,2.7699685E-1,2.1700287E-1,2.7586195E-1,0E0,0E0,0E0,0E0,0E0,0E0,0E0,0E0,0E0,0E0,0E0,0E0,0E0,0E0,0E0,0E0],"parents":[2147483647,0,0,1,1,2,2,3,3,4,4,5,5,6,6,7,7,8,8,9,9,10,10,11,11,12,12,13,13,14,14],"right_children":[2,4,6,8,10,12,14,16,18,20,22,24,26,28,30,-1,-1,-1,-1,-1,-1,-1,-1,-1,-1,-1,-1,-1,-1,-1,-1],"split_conditions":[1.7168324E0,5.130745E-1,4.1745043E0,3.6551732E-1,1E0,4.5708895E0,3E0,3.94294E0,4.0921755E0,4.009331E0,2E0,8.4936154E-1,1.9700328E0,2.711378E0,6.5422755E-1,-4.3675024E-2,-1.7807779E-3,-1.1790814E-2,2.1406062E-2,-4.769855E-2,-3.258436E-2,-3.816962E-2,2.0606637E-2,1.3269535E-2,-2.892565E-2,7.4532777E-3,4.6910714E-2,5.3435706E-2,3.5621684E-2,1.2357496E-3,2.8137885E-2],"split_indices":[0,3,0,3,6,2,4,2,2,2,4,3,0,2,3,0,0,0,0,0,0,0,0,0,0,0,0,0,0,0,0],"split_type":[0,0,0,0,0,0,0,0,0,0,0,0,0,0,0,0,0,0,0,0,0,0,0,0,0,0,0,0,0,0,0],"sum_hessian":[2.702977E2,1.05041985E2,1.6525572E2,2.0424286E1,8.46177E1,1.0051796E2,6.473776E1,5.2575083E0,1.5166778E1,5.2329964E1,3.228773E1,9.079968E1,9.718274E0,5.5727512E1,9.010251E0,4.1572804E0,1.1002281E0,1.3559673E1,1.6071044E0,3.776799E1,1.4561974E1,2.8027414E1,4.2603164E0,8.658663E1,4.213055E0,1.7918708E0,7.926403E0,1.0668039E1,4.505947E1,4.663149E0,4.3471017E0],"tree_param":{"num_deleted":"0","num_feature":"7","num_nodes":"31","size_leaf_vector":"1"}},{"base_weights":[1.8963004E-3,-4.380232E-1,3.3226413E-1,-5.2387106E-1,-1.6333838E-1,1.464828E-1,4.304328E-1,-1.5475611E-1,-5.7973903E-1,-1.7397404E-2,-3.6095154E-1,1.11222325E-4,3.747363E-1,5.56328E-1,3.738452E-1,-2.3910781E-2,2.4211798E-2,-4.8841476E-2,-3.0119866E-2,1.07496055E-2,-1.3531034E-2,-5.062979E-3,-3.2291837E-2,1.6520455E-2,-1.1121354E-2,3.562018E-2,-3.600654E-2,4.715804E-2,1.1215176E-2,2.314966E-2,4.119051E-2],"categories":[],"categories_nodes":[],"categories_segments":[],"categories_sizes":[],"default_left":[0,0,0,0,0,0,0,0,0,0,0,0,0,0,0,0,0,0,0,0,0,0,0,0,0,0,0,0,0,0,0],"id":11,"left_children":[1,3,5,7,9,11,13,15,17,19,21,23,25,27,29,-1,-1,-1,-1,-1,-1,-1,-1,-1,-1,-1,-1,-1,-1,-1,-1],"loss_changes":[3.8803402E1,2.61475E0,2.717844E0,1.7000828E0,8.2199925E-1,1.8118298E0,4.990673E-1,9.325675E-1,2.3942757E-1,4.27361E-1,1.2886488E-1,1.006258E0,1.4328022E0,3.136301E-1,7.0308876E-1,0E0,0E0,0E0,0E0,0E0,0E0,0E0,0E0,0E0,0E0,0E0,0E0,0E0,0E0,0E0,0E0],"parents":[2147483647,0,0,1,1,2,2,3,3,4,4,5,5,6,6,7,7,8,8,9,9,10,10,11,11,12,12,13,13,14,14],"right_children":[2,4,6,8,10,12,14,16,18,20,22,24,26,28,30,-1,-1,-1,-1,-1,-1,-1,-1,-1,-1,-1,-1,-1,-1,-1,-1],"split_conditions":[2.631658E-1,1.8771911E-2,5.053129E-1,-1.6629767E-2,6.7630136E-1,4.0681715E0,2.889816E0,-1.7811488E-2,6.390339E-3,1.8273299E0,2.642948E-2,5.264676E-1,2.211834E0,7.652597E-1,6.255177E0,-2.3910781E-2,2.4211798E-2,-4.8841476E-2,-3.0119866E-2,1.07496055E-2,-1.3531034E-2,-5.062979E-3,-3.2291837E-2,1.6520455E-2,-1.1121354E-2,3.562018E-2,-3.600654E-2,4.715804E-2,1.1215176E-2,2.314966E-2,4.119051E-2],"split_indices":[1,1,1,1,3,2,2,1,1,0,1,3,0,3,0,0,0,0,0,0,0,0,0,0,0,0,0,0,0,0,0],"split_type":[0,0,0,0,0,0,0,0,0,0,0,0,0,0,0,0,0,0,0,0,0,0,0,0,0,0,0,0,0,0,0],"sum_hessian":[2.6499094E2,1.1351196E2,1.5147899E2,8.579203E1,2.7719936E1,5.3231693E1,9.824729E1,1.1773774E1,7.401826E1,1.6570415E1,1.1149521E1,3.3042866E1,2.018883E1,2.7727753E1,7.051954E1,9.216272E0,2.5575016E0,6.254268E1,1.14755745E1,8.341704E0,8.228712E0,1.710034E0,9.439487E0,1.3110039E1,1.9932825E1,1.9022707E1,1.166122E0,2.5296244E1,2.4315093E0,4.6012085E1,2.4507454E1],"tree_param":{"num_deleted":"0","num_feature":"7","num_nodes":"31","size_leaf_vector":"1"}},{"base_weights":[3.6896267E-3,-4.1320288E-1,2.599352E-1,-2.042983E-1,-4.6798736E-1,1.524884E-1,4.2686552E-1,-3.758887E-2,-1.0570242E-1,-4.2652506E-2,-3.4919837E-1,1.0003125E-1,5.618631E-1,5.403388E-1,3.263584E-1,-1.3305679E-2,1.4968599E-2,-3.6090408E-2,2.1088023E-2,1.144145E-2,-1.3699447E-2,1.1788097E-2,4.7204938E-2,1.5111745E-2,4.7848087E-2,-1.404053E-2,2.7882194E-2],"categories":[],"categories_nodes":[],"categories_segments":[],"categories_sizes":[],"default_left":[0,0,0,0,0,0,0,0,0,0,0,0,0,0,0,0,0,0,0,0,0,0,0,0,0,0,0],"id":12,"left_children":[1,3,5,7,9,11,13,-1,15,-1,17,19,21,23,25,-1,-1,-1,-1,-1,-1,-1,-1,-1,-1,-1,-1],"loss_changes":[2.8215221E1,1.0551262E0,2.8686934E0,5.437708E-1,4.2448044E-1,2.1142445E0,5.47843E-1,0E0,3.473922E-1,0E0,2.0454965E0,1.0834112E0,4.4708967E-2,4.6151352E-1,4.6390343E-1,0E0,0E0,0E0,0E0,0E0,0E0,0E0,0E0,0E0,0E0,0E0,0E0],"parents":[2147483647,0,0,1,1,2,2,3,3,4,4,5,5,6,6,8,8,10,10,11,11,12,12,13,13,14,14],"right_children":[2,4,6,8,10,12,14,-1,16,-1,18,20,22,24,26,-1,-1,-1,-1,-1,-1,-1,-1,-1,-1,-1,-1],"split_conditions":[1.7168324E0,5.294614E-1,4.1745043E0,3.6551732E-1,1E0,4.5708895E0,3.221273E0,-3.758887E-2,4.0681715E0,-4.2652506E-2,2E0,7.652597E-1,1.9700328E0,5.130745E-1,4.2196245E0,-1.3305679E-2,1.4968599E-2,-3.6090408E-2,2.1088023E-2,1.144145E-2,-1.3699447E-2,1.1788097E-2,4.7204938E-2,1.5111745E-2,4.7848087E-2,-1.404053E-2,2.7882194E-2],"split_indices":[0,3,0,3,6,2,2,0,2,0,4,3,0,3,0,0,0,0,0,0,0,0,0,0,0,0,0],"split_type":[0,0,0,0,0,0,0,0,0,0,0,0,0,0,0,0,0,0,0,0,0,0,0,0,0,0,0],"sum_hessian":[2.6211563E2,9.9547195E1,1.6256842E2,2.166462E1,7.7882576E1,1.0007036E2,6.2498062E1,4.8461795E0,1.6818441E1,4.8039375E1,2.98432E1,8.9806885E1,1.02634735E1,2.7300014E1,3.5198048E1,1.4291703E1,2.5267372E0,2.5813288E1,4.0299125E0,7.793059E1,1.1876302E1,1.0502697E0,9.213203E0,4.45638E0,2.2843636E1,1.196429E0,3.4001617E1],"tree_param":{"num_deleted":"0","num_feature":"7","num_nodes":"27","size_leaf_vector":"1"}},{"base_weights":[1.0156341E-2,-3.928104E-1,3.3046255E-1,-4.967076E-1,-1.21846095E-1,1.5093526E-1,4.1291556E-1,-1.2670869E-1,-5.5142266E-1,-5.5968617E-3,-3.0710286E-1,-3.7593767E-2,4.4081324E-1,5.206326E-1,3.613088E-1,-2.191593E-2,1.8721381E-2,-4.7018457E-2,-2.5572816E-2,1.9412177E-2,-1.5620221E-2,-2.86517E-2,-7.4050194E-3,1.6772179E-2,-1.726434E-2,3.9573703E-2,-1.439258E-2,4.4085767E-2,3.2928123E-3,2.2272259E-2,4.0881865E-2],"categories":[],"categories_nodes":[],"categories_segments":[],"categories_sizes":[],"default_left":[0,0,0,0,0,0,0,0,0,0,0,0,0,0,0,0,0,0,0,0,0,0,0,0,0,0,0,0,0,0,0],"id":13,"left_children":[1,3,5,7,9,11,13,15,17,19,21,23,25,27,29,-1,-1,-1,-1,-1,-1,-1,-1,-1,-1,-1,-1,-1,-1,-1,-1],"loss_changes":[3.36141E1,3.1866817E0,2.085208E0,1.611433E0,7.15296E-1,2.598071E0,3.613453E-1,7.01336E-1,4.1843033E-1,1.0584893E0,1.0722017E-1,1.3469703E0,7.139313E-1,4.1149044E-1,7.2774124E-1,0E0,0E0,0E0,0E0,0E0,0E0,0E0,0E0,0E0,0E0,0E0,0E0,0E0,0E0,0E0,0E0],"parents":[2147483647,0,0,1,1,2,2,3,3,4,4,5,5,6,6,7,7,8,8,9,9,10,10,11,11,12,12,13,13,14,14],"right_children":[2,4,6,8,10,12,14,16,18,20,22,24,26,28,30,-1,-1,-1,-1,-1,-1,-1,-1,-1,-1,-1,-1,-1,-1,-1,-1],"split_conditions":[2.8956154E-1,1.8771911E-2,5.053129E-1,-1.6629767E-2,6.7746025E-1,4.0681715E0,2.889816E0,8.3859074E-1,6.390339E-3,1.7168324E0,1E0,5.264676E-1,2.2026212E0,7.652597E-1,6.255177E0,-2.191593E-2,1.8721381E-2,-4.7018457E-2,-2.5572816E-2,1.9412177E-2,-1.5620221E-2,-2.86517E-2,-7.4050194E-3,1.6772179E-2,-1.726434E-2,3.9573703E-2,-1.439258E-2,4.4085767E-2,3.2928123E-3,2.2272259E-2,4.0881865E-2],"split_indices":[1,1,1,1,3,2,2,3,1,0,5,3,0,3,0,0,0,0,0,0,0,0,0,0,0,0,0,0,0,0,0],"split_type":[0,0,0,0,0,0,0,0,0,0,0,0,0,0,0,0,0,0,0,0,0,0,0,0,0,0,0,0,0,0,0],"sum_hessian":[2.5842188E2,1.1434359E2,1.440783E2,8.204974E1,3.2293846E1,4.6236595E1,9.784169E1,1.0997475E1,7.105227E1,2.047557E1,1.1818277E1,2.8543175E1,1.769342E1,2.8748154E1,6.909354E1,7.980551E0,3.0169241E0,6.0100906E1,1.09513645E1,8.746912E0,1.1728658E1,9.006162E0,2.8121152E0,1.1881947E1,1.6661228E1,1.6467642E1,1.2257783E0,2.68916E1,1.856555E0,4.6309093E1,2.2784445E1],"tree_param":{"num_deleted":"0","num_feature":"7","num_nodes":"31","size_leaf_vector":"1"}},{"base_weights":[-6.4324867E-3,-3.5520133E-1,3.437311E-1,-4.9752933E-1,-9.922655E-2,1.7752002E-1,4.0436387E-1,-1.3758345E-1,-5.561767E-1,-2.67282E-1,3.9735157E-2,4.1014858E-2,3.9351308E-1,3.343631E-1,5.092908E-1,-2.3849947E-2,1.8728336E-2,-4.6671405E-2,-3.0166278E-2,-2.5755504E-2,-3.056498E-3,7.198224E-3,-3.620528E-2,1.4576405E-2,-6.2195174E-3,3.486848E-2,6.444751E-4,3.331874E-2,9.266962E-3,2.410327E-2,4.6463817E-2],"categories":[],"categories_nodes":[],"categories_segments":[],"categories_sizes":[],"default_left":[0,0,0,0,0,0,0,0,0,0,0,0,0,0,0,0,0,0,0,0,0,0,0,0,0,0,0,0,0,0,0],"id":14,"left_children":[1,3,5,7,9,11,13,15,17,19,21,23,25,27,29,-1,-1,-1,-1,-1,-1,-1,-1,-1,-1,-1,-1,-1,-1,-1,-1],"loss_changes":[3.0685225E1,4.5364075E0,1.1918573E0,1.6258545E0,1.09018E0,1.0245717E0,4.9876785E-1,8.2327753E-1,1.1642265E-1,2.5131607E-1,6.8813586E-1,3.955399E-1,2.1768498E-1,9.845309E-1,3.387432E-1,0E0,0E0,0E0,0E0,0E0,0E0,0E0,0E0,0E0,0E0,0E0,0E0,0E0,0E0,0E0,0E0],"parents":[2147483647,0,0,1,1,2,2,3,3,4,4,5,5,6,6,7,7,8,8,9,9,10,10,11,11,12,12,13,13,14,14],"right_children":[2,4,6,8,10,12,14,16,18,20,22,24,26,28,30,-1,-1,-1,-1,-1,-1,-1,-1,-1,-1,-1,-1,-1,-1,-1,-1],"split_conditions":[4.0091196E-1,1.8771911E-2,5.053129E-1,-1.6629767E-2,1E0,4.106273E0,6.7630136E-1,8.3859074E-1,6.390339E-3,4E0,3.4841532E-1,5.212675E-1,2.1947412E0,6.1989176E-1,5.946395E-1,-2.3849947E-2,1.8728336E-2,-4.6671405E-2,-3.0166278E-2,-2.5755504E-2,-3.056498E-3,7.198224E-3,-3.620528E-2,1.4576405E-2,-6.2195174E-3,3.486848E-2,6.444751E-4,3.331874E-2,9.266962E-3,2.410327E-2,4.6463817E-2],"split_indices":[1,1,1,1,6,2,3,3,1,4,1,3,0,3,1,0,0,0,0,0,0,0,0,0,0,0,0,0,0,0,0],"split_type":[0,0,0,0,0,0,0,0,0,0,0,0,0,0,0,0,0,0,0,0,0,0,0,0,0,0,0,0,0,0,0],"sum_hessian":[2.492587E2,1.2487084E2,1.2438785E2,7.964351E1,4.5227333E1,3.4297302E1,9.0090546E1,1.1627316E1,6.80162E1,2.0052778E1,2.5174557E1,2.1744755E1,1.2552548E1,5.6550293E1,3.3540257E1,8.258282E0,3.3690345E0,5.708427E1,1.0931926E1,1.5862326E1,4.190452E0,2.3584799E1,1.589757E0,9.690112E0,1.2054643E1,1.119231E1,1.3602382E0,4.044526E1,1.6105032E1,9.914458E0,2.3625797E1],"tree_param":{"num_deleted":"0","num_feature":"7","num_nodes":"31","size_leaf_vector":"1"}},{"base_weights":[3.8057237E-3,-3.3539504E-1,3.4034836E-1,-4.801036E-1,-8.8341564E-2,3.4942594E-1,-2.8360173E-2,-1.4820546E-1,-5.3505075E-1,6.0264524E-3,-2.4825272E-1,5.5953634E-1,3.066657E-1,-2.442327E-2,1.52383465E-2,-4.6110358E-2,-3.054529E-2,-5.5877427E-3,1.7800856E-2,-2.7297456E-2,-7.471555E-3,-3.6913675E-4,4.7184605E-2,2.1367341E-2,4.470042E-2],"categories":[],"categories_nodes":[],"categories_segments":[],"categories_sizes":[],"default_left":[0,0,0,0,0,0,0,0,0,0,0,0,0,0,0,0,0,0,0,0,0,0,0,0,0],"id":15,"left_children":[1,3,5,7,9,11,-1,13,15,17,19,21,23,-1,-1,-1,-1,-1,-1,-1,-1,-1,-1,-1,-1],"loss_changes":[2.860265E1,4.4190016E0,9.1715336E-1,1.3517704E0,7.1559477E-1,9.4829655E-1,0E0,7.2472906E-1,2.0387077E-1,5.2038485E-1,2.213012E-1,3.419695E-1,9.060707E-1,0E0,0E0,0E0,0E0,0E0,0E0,0E0,0E0,0E0,0E0,0E0,0E0],"parents":[2147483647,0,0,1,1,2,2,3,3,4,4,5,5,7,7,8,8,9,9,10,10,11,11,12,12],"right_children":[2,4,6,8,10,12,-1,14,16,18,20,22,24,-1,-1,-1,-1,-1,-1,-1,-1,-1,-1,-1,-1],"split_conditions":[4.1285074E-1,1.8771911E-2,9.3693525E-1,-1.6629767E-2,6.7746025E-1,2.778198E0,-2.8360173E-2,8.3859074E-1,4.009331E0,4.0681715E0,4.009331E0,4.5981196E-1,4.4107356E0,-2.442327E-2,1.52383465E-2,-4.6110358E-2,-3.054529E-2,-5.5877427E-3,1.7800856E-2,-2.7297456E-2,-7.471555E-3,-3.6913675E-4,4.7184605E-2,2.1367341E-2,4.470042E-2],"split_indices":[1,1,3,1,3,2,0,3,2,2,2,1,2,0,0,0,0,0,0,0,0,0,0,0,0],"split_type":[0,0,0,0,0,0,0,0,0,0,0,0,0,0,0,0,0,0,0,0,0,0,0,0,0],"sum_hessian":[2.4855869E2,1.2379217E2,1.2476651E2,7.747109E1,4.6321075E1,1.2364828E2,1.1182312E0,1.15290785E1,6.594202E1,2.9735592E1,1.6585485E1,1.8865196E1,1.0478308E2,7.9434333E0,3.5856454E0,4.975992E1,1.6182098E1,2.2520117E1,7.2154746E0,9.61183E0,6.973655E0,1.0038828E0,1.7861315E1,9.2345825E1,1.2437261E1],"tree_param":{"num_deleted":"0","num_feature":"7","num_nodes":"25","size_leaf_vector":"1"}},{"base_weights":[4.859701E-3,-3.4419003E-1,3.2498392E-1,-4.6527275E-1,-6.354355E-2,2.3119305E-1,4.222919E-1,-1.7655496E-1,-5.061829E-1,3.0342388E-1,-1.7902677E-1,1.6014609E-1,4.3316236E-1,4.536435E-1,1.7178623E-1,-2.3630433E-2,1.2186577E-2,-4.4413276E-2,-2.6201854E-2,3.200669E-2,-4.0146047E-3,-1.0066232E-2,-4.2847972E-2,1.9352257E-2,-1.3636988E-2,-2.039366E-2,4.009177E-2,2.9585809E-2,4.3204613E-2,4.092036E-3,2.7293863E-2],"categories":[],"categories_nodes":[],"categories_segments":[],"categories_sizes":[],"default_left":[0,0,0,0,0,0,0,0,0,0,0,0,0,0,0,0,0,0,0,0,0,0,0,0,0,0,0,0,0,0,0],"id":16,"left_children":[1,3,5,7,9,11,13,15,17,19,21,23,25,27,29,-1,-1,-1,-1,-1,-1,-1,-1,-1,-1,-1,-1,-1,-1,-1,-1],"loss_changes":[2.7626854E1,3.989932E0,1.0793142E0,8.847885E-1,1.6142658E0,9.045956E-1,4.096489E-1,5.0503325E-1,4.4566917E-1,3.339185E-1,4.7565138E-1,1.4413357E0,9.2658305E-1,1.9552422E-1,1.565463E-1,0E0,0E0,0E0,0E0,0E0,0E0,0E0,0E0,0E0,0E0,0E0,0E0,0E0,0E0,0E0,0E0],"parents":[2147483647,0,0,1,1,2,2,3,3,4,4,5,5,6,6,7,7,8,8,9,9,10,10,11,11,12,12,13,13,14,14],"right_children":[2,4,6,8,10,12,14,16,18,20,22,24,26,28,30,-1,-1,-1,-1,-1,-1,-1,-1,-1,-1,-1,-1,-1,-1,-1,-1],"split_conditions":[4.0091196E-1,3.9448105E-2,4.1745043E0,-1.6629767E-2,1.7168324E0,7.376315E-1,3E0,8.3859074E-1,6.390339E-3,6.896137E-1,3.4841532E-1,6.3425577E-1,4.3953645E-1,6.5422755E-1,7.3660433E-1,-2.3630433E-2,1.2186577E-2,-4.4413276E-2,-2.6201854E-2,3.200669E-2,-4.0146047E-3,-1.0066232E-2,-4.2847972E-2,1.9352257E-2,-1.3636988E-2,-2.039366E-2,4.009177E-2,2.9585809E-2,4.3204613E-2,4.092036E-3,2.7293863E-2],"split_indices":[1,1,0,1,0,3,4,3,1,3,1,3,1,3,3,0,0,0,0,0,0,0,0,0,0,0,0,0,0,0,0],"split_type":[0,0,0,0,0,0,0,0,0,0,0,0,0,0,0,0,0,0,0,0,0,0,0,0,0,0,0,0,0,0,0],"sum_hessian":[2.4524284E2,1.1728506E2,1.2795778E2,8.147531E1,3.5809746E1,6.6875404E1,6.1082375E1,1.077163E1,7.070368E1,8.182151E0,2.7627594E1,5.0798786E1,1.607662E1,5.356734E1,7.5150356E0,7.9876194E0,2.7840114E0,5.383608E1,1.6867605E1,6.3224473E0,1.8597039E0,2.5218065E1,2.4095273E0,4.0942345E1,9.856442E0,1.1983443E0,1.4878276E1,2.9871725E1,2.3695614E1,5.149551E0,2.365485E0],"tree_param":{"num_deleted":"0","num_feature":"7","num_nodes":"31","size_leaf_vector":"1"}},{"base_weights":[2.2243494E-3,-3.2238778E-1,3.0850023E-1,-4.6170148E-1,-9.1306806E-2,1.7161664E-1,3.7892923E-1,-1.4761877E-1,-5.148052E-1,-1.638756E-1,8.452694E-2,1.17010884E-1,4.4464406E-2,5.4196364E-1,3.407318E-1,-2.8942803E-2,9.029681E-3,-4.4332862E-2,-2.9107755E-2,1.1207894E-3,-1.9609895E-2,-1.041005E-2,2.3460938E-2,3.0787554E-2,5.382502E-3,1.8315071E-2,5.7589956E-2,-2.7730858E-3,3.1706315E-2],"categories":[],"categories_nodes":[],"categories_segments":[],"categories_sizes":[],"default_left":[0,0,0,0,0,0,0,0,0,0,0,0,0,0,0,0,0,0,0,0,0,0,0,0,0,0,0,0,0],"id":17,"left_children":[1,3,5,7,9,11,13,15,17,19,21,23,-1,25,27,-1,-1,-1,-1,-1,-1,-1,-1,-1,-1,-1,-1,-1,-1],"loss_changes":[2.4388737E1,3.7917604E0,1.1517563E0,1.1591244E0,6.0132265E-1,8.728492E-1,3.2915974E-1,7.165276E-1,1.7230606E-1,4.7936642E-1,6.7036116E-1,5.123289E-1,0E0,6.131053E-1,1.4651127E0,0E0,0E0,0E0,0E0,0E0,0E0,0E0,0E0,0E0,0E0,0E0,0E0,0E0,0E0],"parents":[2147483647,0,0,1,1,2,2,3,3,4,4,5,5,6,6,7,7,8,8,9,9,10,10,11,11,13,13,14,14],"right_children":[2,4,6,8,10,12,14,16,18,20,22,24,-1,26,28,-1,-1,-1,-1,-1,-1,-1,-1,-1,-1,-1,-1,-1,-1],"split_conditions":[4.1285074E-1,1.8771911E-2,5.212096E-1,-1.6629767E-2,4.0681715E0,4.496805E0,4.6153933E-1,-2.2487845E-2,4.009331E0,1.7216327E0,2.631658E-1,2.766319E0,4.4464406E-2,5.9411182E0,5.312455E-1,-2.8942803E-2,9.029681E-3,-4.4332862E-2,-2.9107755E-2,1.1207894E-3,-1.9609895E-2,-1.041005E-2,2.3460938E-2,3.0787554E-2,5.382502E-3,1.8315071E-2,5.7589956E-2,-2.7730858E-3,3.1706315E-2],"split_indices":[1,1,1,1,2,2,3,1,2,0,1,2,0,0,3,0,0,0,0,0,0,0,0,0,0,0,0,0,0],"split_type":[0,0,0,0,0,0,0,0,0,0,0,0,0,0,0,0,0,0,0,0,0,0,0,0,0,0,0,0,0],"sum_hessian":[2.4330766E2,1.1809253E2,1.2521513E2,7.305265E1,4.503987E1,4.3706078E1,8.1509056E1,1.1111763E1,6.194089E1,3.192998E1,1.3109894E1,3.9409294E1,4.296785E0,1.296847E1,6.854059E1,5.8846936E0,5.2270694E0,4.7013317E1,1.4927576E1,1.027072E1,2.1659258E1,6.6489944E0,6.4608994E0,5.1161284E0,3.4293163E1,5.5283785E0,7.4400907E0,8.890161E0,5.965043E1],"tree_param":{"num_deleted":"0","num_feature":"7","num_nodes":"29","size_leaf_vector":"1"}},{"base_weights":[6.378331E-3,-3.1368235E-1,3.1335723E-1,-4.5397133E-1,-9.706308E-2,1.5932918E-1,3.9301696E-1,-1.7226797E-1,-5.0065297E-1,-4.149641E-3,-2.5337526E-1,1.1976087E-1,3.8368583E-2,3.348257E-1,4.9545252E-1,-2.761669E-2,1.7556427E-2,-4.2240776E-2,-2.5266178E-2,1.4179978E-2,-7.259585E-3,5.7246967E-4,-2.160879E-2,1.1842382E-2,-7.6017147E-3,-9.43499E-5,3.2452635E-2,4.55831E-2,-1.1110246E-2],"categories":[],"categories_nodes":[],"categories_segments":[],"categories_sizes":[],"default_left":[0,0,0,0,0,0,0,0,0,0,0,0,0,0,0,0,0,0,0,0,0,0,0,0,0,0,0,0,0],"id":18,"left_children":[1,3,5,7,9,11,13,15,17,19,21,23,-1,25,27,-1,-1,-1,-1,-1,-1,-1,-1,-1,-1,-1,-1,-1,-1],"loss_changes":[2.3733118E1,3.5499926E0,1.4500818E0,8.541126E-1,6.925751E-1,4.9646413E-1,3.1442738E-1,8.676858E-1,1.4075184E-1,5.0258076E-1,7.948804E-2,2.583564E-1,0E0,1.296896E0,1.357337E0,0E0,0E0,0E0,0E0,0E0,0E0,0E0,0E0,0E0,0E0,0E0,0E0,0E0,0E0],"parents":[2147483647,0,0,1,1,2,2,3,3,4,4,5,5,6,6,7,7,8,8,9,9,10,10,11,11,13,13,14,14],"right_children":[2,4,6,8,10,12,14,16,18,20,22,24,-1,26,28,-1,-1,-1,-1,-1,-1,-1,-1,-1,-1,-1,-1,-1,-1],"split_conditions":[4.1285074E-1,1.8771911E-2,5.212096E-1,-1.6629767E-2,6.7746025E-1,9.116085E-1,6.3177505E0,8.3859074E-1,6.390339E-3,1.7168324E0,2.3631828E-2,7.652597E-1,3.8368583E-2,5.312455E-1,7.3544407E-1,-2.761669E-2,1.7556427E-2,-4.2240776E-2,-2.5266178E-2,1.4179978E-2,-7.259585E-3,5.7246967E-4,-2.160879E-2,1.1842382E-2,-7.6017147E-3,-9.43499E-5,3.2452635E-2,4.55831E-2,-1.1110246E-2],"split_indices":[1,1,1,1,3,3,0,3,1,0,1,3,0,3,3,0,0,0,0,0,0,0,0,0,0,0,0,0,0],"split_type":[0,0,0,0,0,0,0,0,0,0,0,0,0,0,0,0,0,0,0,0,0,0,0,0,0,0,0,0,0],"sum_hessian":[2.395534E2,1.1726714E2,1.2228627E2,7.050823E1,4.6758907E1,4.270775E1,7.957852E1,1.0689856E1,5.981838E1,2.9970629E1,1.6788279E1,3.9234505E1,3.4732437E0,5.347134E1,2.6107182E1,7.49823E0,3.1916256E0,5.048858E1,9.3298025E0,9.345926E0,2.0624702E1,1.04782E0,1.57404585E1,3.4945843E1,4.28866E0,9.480809E0,4.399053E1,2.3459719E1,2.6474617E0],"tree_param":{"num_deleted":"0","num_feature":"7","num_nodes":"29","size_leaf_vector":"1"}},{"base_weights":[1.1670723E-2,-4.3098196E-1,2.35878E-1,-1.6544811E-1,-4.6870863E-1,4.2570017E-2,3.8368812E-1,-3.845463E-1,9.7109966E-2,-4.2684887E-2,-2.8464222E-1,-9.84992E-3,4.414105E-1,3.37284E-1,4.790288E-1,-8.868226E-3,-3.378565E-2,-1.448511E-2,2.7225805E-2,-3.326565E-2,-6.068108E-4,6.521984E-3,-1.8990522E-2,-9.088706E-3,4.3432202E-2,5.8671916E-3,3.1020677E-2,4.252106E-2,-1.5281813E-2],"categories":[],"categories_nodes":[],"categories_segments":[],"categories_sizes":[],"default_left":[0,0,0,0,0,0,0,0,0,0,0,0,0,0,0,0,0,0,0,0,0,0,0,0,0,0,0,0,0],"id":19,"left_children":[1,3,5,7,9,11,13,15,17,-1,19,21,23,25,27,-1,-1,-1,-1,-1,-1,-1,-1,-1,-1,-1,-1,-1,-1],"loss_changes":[2.3577013E1,7.226763E-1,4.488364E0,6.9791436E-1,6.765356E-1,1.4561229E0,2.3314667E-1,1.9983947E-2,4.690292E-1,0E0,7.318703E-1,1.3156677E0,5.1728153E-1,8.160596E-1,1.0450106E0,0E0,0E0,0E0,0E0,0E0,0E0,0E0,0E0,0E0,0E0,0E0,0E0,0E0,0E0],"parents":[2147483647,0,0,1,1,2,2,3,3,4,4,5,5,6,6,7,7,8,8,10,10,11,11,12,12,13,13,14,14],"right_children":[2,4,6,8,10,12,14,16,18,-1,20,22,24,26,28,-1,-1,-1,-1,-1,-1,-1,-1,-1,-1,-1,-1,-1,-1],"split_conditions":[5.2660476E-2,-1.6629767E-2,5.072536E-1,-2.2487845E-2,6.390339E-3,4.5708895E0,6.3177505E0,5.911586E-1,8.3859074E-1,-4.2684887E-2,4.009331E0,6.7746025E-1,2.8956154E-1,5.312455E-1,7.3544407E-1,-8.868226E-3,-3.378565E-2,-1.448511E-2,2.7225805E-2,-3.326565E-2,-6.068108E-4,6.521984E-3,-1.8990522E-2,-9.088706E-3,4.3432202E-2,5.8671916E-3,3.1020677E-2,4.252106E-2,-1.5281813E-2],"split_indices":[1,1,1,1,1,2,0,3,3,0,2,3,1,3,3,0,0,0,0,0,0,0,0,0,0,0,0,0,0],"split_type":[0,0,0,0,0,0,0,0,0,0,0,0,0,0,0,0,0,0,0,0,0,0,0,0,0,0,0,0,0],"sum_hessian":[2.3553712E2,7.888068E1,1.5665645E2,1.0483002E1,6.8397675E1,6.843902E1,8.821744E1,5.4611735E0,5.0218277E0,4.917353E1,1.9224146E1,6.1350918E1,7.0880985E0,6.238913E1,2.5828306E1,1.1395056E0,4.321668E0,2.4617453E0,2.5600827E0,1.2706936E1,6.517211E0,4.4230167E1,1.7120752E1,1.0773137E0,6.0107846E0,1.0409285E1,5.1979847E1,2.4143896E1,1.6844101E0],"tree_param":{"num_deleted":"0","num_feature":"7","num_nodes":"29","size_leaf_vector":"1"}},{"base_weights":[-2.1338354E-4,-2.941439E-1,2.890444E-1,-4.3643954E-1,-8.1125036E-2,1.5913449E-1,3.5798347E-1,-1.5310718E-1,-4.8588985E-1,6.0558815E-2,-1.5250123E-1,8.072761E-2,3.462246E-1,3.042476E-1,4.5189595E-1,-2.6964612E-2,5.9499186E-3,-4.213979E-2,-2.6440931E-2,-1.2504727E-2,2.9372592E-2,-1.60036E-2,1.1133773E-2,1.8003179E-2,-3.2758308E-3,-4.121642E-3,3.262797E-2,-1.3564166E-3,2.8622275E-2,4.7957964E-2,1.8676315E-2],"categories":[],"categories_nodes":[],"categories_segments":[],"categories_sizes":[],"default_left":[0,0,0,0,0,0,0,0,0,0,0,0,0,0,0,0,0,0,0,0,0,0,0,0,0,0,0,0,0,0,0],"id":20,"left_children":[1,3,5,7,9,11,13,15,17,19,21,23,25,27,29,-1,-1,-1,-1,-1,-1,-1,-1,-1,-1,-1,-1,-1,-1,-1,-1],"loss_changes":[1.9473122E1,3.4080162E0,9.768667E-1,8.7663364E-1,4.8173693E-1,5.8552897E-1,2.3905563E-1,5.082334E-1,1.8986416E-1,1.1457323E0,4.6264452E-1,5.4959124E-1,3.1628692E-1,8.747239E-1,6.690569E-1,0E0,0E0,0E0,0E0,0E0,0E0,0E0,0E0,0E0,0E0,0E0,0E0,0E0,0E0,0E0,0E0],"parents":[2147483647,0,0,1,1,2,2,3,3,4,4,5,5,6,6,7,7,8,8,9,9,10,10,11,11,12,12,13,13,14,14],"right_children":[2,4,6,8,10,12,14,16,18,20,22,24,26,28,30,-1,-1,-1,-1,-1,-1,-1,-1,-1,-1,-1,-1,-1,-1,-1,-1],"split_conditions":[4.1285074E-1,1.8771911E-2,5.212096E-1,-1.6629767E-2,1.7216327E0,4.106273E0,6.3177505E0,-2.2487845E-2,4.009331E0,5.2660476E-2,4.475517E0,3.1086144E0,4.9645627E-1,5.312455E-1,5.968865E-1,-2.6964612E-2,5.9499186E-3,-4.213979E-2,-2.6440931E-2,-1.2504727E-2,2.9372592E-2,-1.60036E-2,1.1133773E-2,1.8003179E-2,-3.2758308E-3,-4.121642E-3,3.262797E-2,-1.3564166E-3,2.8622275E-2,4.7957964E-2,1.8676315E-2],"split_indices":[1,1,1,1,0,2,0,1,2,1,2,2,3,3,3,0,0,0,0,0,0,0,0,0,0,0,0,0,0,0,0],"split_type":[0,0,0,0,0,0,0,0,0,0,0,0,0,0,0,0,0,0,0,0,0,0,0,0,0,0,0,0,0,0,0],"sum_hessian":[2.2703711E2,1.12600624E2,1.14436485E2,6.6877754E1,4.5722874E1,4.0821022E1,7.361546E1,1.0546473E1,5.633128E1,1.5368166E1,3.035471E1,2.977445E1,1.1046571E1,4.952016E1,2.4095304E1,5.5648313E0,4.981642E0,4.271028E1,1.3620997E1,9.288364E0,6.0798016E0,2.637039E1,3.9843183E0,1.3231654E1,1.6542795E1,1.5039064E0,9.542664E0,7.171583E0,4.2348576E1,1.3339125E1,1.0756181E1],"tree_param":{"num_deleted":"0","num_feature":"7","num_nodes":"31","size_leaf_vector":"1"}},{"base_weights":[-3.8485813E-3,-4.225385E-1,1.977846E-1,-1.4197691E-1,-4.6879867E-1,2.1876555E-2,3.445777E-1,-3.3919874E-1,1.2527251E-1,-3.996089E-2,-2.311869E-1,1.4884615E-1,-8.609727E-2,2.844496E-1,4.0331176E-1,1.3373683E-3,-3.4176327E-2,-6.5129604E-3,2.7002083E-2,-2.8033035E-2,2.3098001E-3,4.4421023E-3,3.0482687E-2,-1.0553036E-2,2.3541713E-2,2.6635973E-2,-1.9999182E-2,2.0315416E-2,3.6253117E-2],"categories":[],"categories_nodes":[],"categories_segments":[],"categories_sizes":[],"default_left":[0,0,0,0,0,0,0,0,0,0,0,0,0,0,0,0,0,0,0,0,0,0,0,0,0,0,0,0,0],"id":21,"left_children":[1,3,5,7,9,11,13,15,17,-1,19,21,23,25,27,-1,-1,-1,-1,-1,-1,-1,-1,-1,-1,-1,-1,-1,-1],"loss_changes":[1.8880491E1,8.7689495E-1,3.8906436E0,6.60414E-1,3.3674145E-1,9.688969E-1,1.7565632E-1,2.2687823E-1,2.7790016E-1,0E0,2.8775898E-1,6.812392E-1,7.066573E-1,1.2243218E0,1.7682743E-1,0E0,0E0,0E0,0E0,0E0,0E0,0E0,0E0,0E0,0E0,0E0,0E0,0E0,0E0],"parents":[2147483647,0,0,1,1,2,2,3,3,4,4,5,5,6,6,7,7,8,8,10,10,11,11,12,12,13,13,14,14],"right_children":[2,4,6,8,10,12,14,16,18,-1,20,22,24,26,28,-1,-1,-1,-1,-1,-1,-1,-1,-1,-1,-1,-1,-1,-1],"split_conditions":[3.9448105E-2,-1.6629767E-2,5.053129E-1,1E0,1.6055945E-2,5.7827985E-1,6.5422755E-1,5.911586E-1,-1.9432586E-2,-3.996089E-2,4.009331E0,4.106273E0,4.5708895E0,6.3425577E-1,1E0,1.3373683E-3,-3.4176327E-2,-6.5129604E-3,2.7002083E-2,-2.8033035E-2,2.3098001E-3,4.4421023E-3,3.0482687E-2,-1.0553036E-2,2.3541713E-2,2.6635973E-2,-1.9999182E-2,2.0315416E-2,3.6253117E-2],"split_indices":[1,1,1,6,1,3,3,3,1,0,2,2,2,3,6,0,0,0,0,0,0,0,0,0,0,0,0,0,0],"split_type":[0,0,0,0,0,0,0,0,0,0,0,0,0,0,0,0,0,0,0,0,0,0,0,0,0,0,0,0,0],"sum_hessian":[2.2165485E2,7.169178E1,1.4996306E2,1.0723619E1,6.0968163E1,6.8739174E1,8.1223885E1,6.0152955E0,4.708324E0,5.3013668E1,7.9544945E0,3.1416754E1,3.7322422E1,4.3022884E1,3.8201004E1,1.3530926E0,4.662203E0,2.6977735E0,2.0105505E0,5.215828E0,2.7386668E0,2.3293762E1,8.1229925E0,3.3893166E1,3.4292583E0,3.9789062E1,3.2338223E0,1.1084159E1,2.7116846E1],"tree_param":{"num_deleted":"0","num_feature":"7","num_nodes":"29","size_leaf_vector":"1"}},{"base_weights":[-5.1527023E-3,-4.1080764E-1,1.8964978E-1,-1.8298316E-1,-4.4437808E-1,1.6561883E-2,3.282416E-1,-3.3023158E-1,1.4314605E-1,-4.0815476E-2,-2.3228185E-1,8.651764E-2,-1.4340526E-1,2.6999557E-1,4.5046672E-1,-5.7102335E-3,-3.567243E-2,3.400209E-2,-1.4926993E-2,-3.4277104E-2,7.4258423E-3,2.7453624E-2,1.4651796E-3,-1.7305313E-2,1.8374592E-2,3.614212E-2,1.4892551E-2,3.943128E-2,-8.204986E-3],"categories":[],"categories_nodes":[],"categories_segments":[],"categories_sizes":[],"default_left":[0,0,0,0,0,0,0,0,0,0,0,0,0,0,0,0,0,0,0,0,0,0,0,0,0,0,0,0,0],"id":22,"left_children":[1,3,5,7,9,11,13,15,17,-1,19,21,23,25,27,-1,-1,-1,-1,-1,-1,-1,-1,-1,-1,-1,-1,-1,-1],"loss_changes":[1.7362017E1,4.63809E-1,3.5556355E0,5.6848884E-1,7.388811E-1,7.628781E-1,4.648943E-1,2.0112455E-1,4.5794103E-1,0E0,1.0845889E0,8.2135963E-1,6.14962E-1,8.0429363E-1,6.392956E-1,0E0,0E0,0E0,0E0,0E0,0E0,0E0,0E0,0E0,0E0,0E0,0E0,0E0,0E0],"parents":[2147483647,0,0,1,1,2,2,3,3,4,4,5,5,6,6,7,7,8,8,10,10,11,11,12,12,13,13,14,14],"right_children":[2,4,6,8,10,12,14,16,18,-1,20,22,24,26,28,-1,-1,-1,-1,-1,-1,-1,-1,-1,-1,-1,-1,-1,-1],"split_conditions":[3.9448105E-2,-1.6629767E-2,5.053129E-1,8.3859074E-1,4.009331E0,6.7746025E-1,6.3177505E0,5.911586E-1,8.400899E-1,-4.0815476E-2,6.390339E-3,1.8273299E0,4.5708895E0,2.889816E0,7.3544407E-1,-5.7102335E-3,-3.567243E-2,3.400209E-2,-1.4926993E-2,-3.4277104E-2,7.4258423E-3,2.7453624E-2,1.4651796E-3,-1.7305313E-2,1.8374592E-2,3.614212E-2,1.4892551E-2,3.943128E-2,-8.204986E-3],"split_indices":[1,1,1,3,2,3,0,3,3,0,1,0,2,2,3,0,0,0,0,0,0,0,0,0,0,0,0,0,0],"split_type":[0,0,0,0,0,0,0,0,0,0,0,0,0,0,0,0,0,0,0,0,0,0,0,0,0,0,0,0,0],"sum_hessian":[2.1772362E2,7.027492E1,1.474487E2,9.853721E0,6.0421196E1,6.606249E1,8.1386215E1,6.779965E0,3.0737555E0,4.5039536E1,1.5381662E1,4.628194E1,1.9780552E1,5.72926E1,2.4093616E1,2.593444E0,4.1865206E0,1.5013194E0,1.572436E0,9.394626E0,5.987036E0,8.870387E0,3.7411552E1,1.6898365E1,2.8821862E0,1.6698305E1,4.059429E1,2.2478012E1,1.6156049E0],"tree_param":{"num_deleted":"0","num_feature":"7","num_nodes":"29","size_leaf_vector":"1"}},{"base_weights":[4.14094E-3,-3.898033E-1,1.9449724E-1,-1.4950182E-1,-4.2887196E-1,3.020849E-2,3.2975894E-1,-3.6896604E-1,1.361026E-1,-4.729746E-1,-1.4550512E-1,-1.5396839E-2,4.2983773E-1,3.4505728E-1,-3.158632E-2,-9.9611925E-3,-3.8198054E-2,-1.6035773E-2,2.383665E-2,-4.086574E-2,-2.610468E-2,-2.3549302E-2,4.560396E-3,2.82325E-2,-5.736117E-3,-3.4422334E-3,4.240876E-2,3.877908E-2,2.3361951E-2],"categories":[],"categories_nodes":[],"categories_segments":[],"categories_sizes":[],"default_left":[0,0,0,0,0,0,0,0,0,0,0,0,0,0,0,0,0,0,0,0,0,0,0,0,0,0,0,0,0],"id":23,"left_children":[1,3,5,7,9,11,13,15,17,19,21,23,25,27,-1,-1,-1,-1,-1,-1,-1,-1,-1,-1,-1,-1,-1,-1,-1],"loss_changes":[1.6539848E1,6.1051464E-1,3.2942529E0,7.763213E-1,6.969452E-1,1.2503486E0,1.0391016E0,1.2145299E-1,3.7371397E-1,1.2517071E-1,3.090942E-1,1.3155211E0,3.5588276E-1,4.5327282E-1,0E0,0E0,0E0,0E0,0E0,0E0,0E0,0E0,0E0,0E0,0E0,0E0,0E0,0E0,0E0],"parents":[2147483647,0,0,1,1,2,2,3,3,4,4,5,5,6,6,7,7,8,8,9,9,10,10,11,11,12,12,13,13],"right_children":[2,4,6,8,10,12,14,16,18,20,22,24,26,28,-1,-1,-1,-1,-1,-1,-1,-1,-1,-1,-1,-1,-1,-1,-1],"split_conditions":[5.2660476E-2,-1.6629767E-2,5.072536E-1,1E0,1.8771911E-2,4.5708895E0,9.3481857E-1,3.08603E0,6.724439E-1,4.009331E0,3.9039907E0,1.7216327E0,2.992495E-1,2.889816E0,-3.158632E-2,-9.9611925E-3,-3.8198054E-2,-1.6035773E-2,2.383665E-2,-4.086574E-2,-2.610468E-2,-2.3549302E-2,4.560396E-3,2.82325E-2,-5.736117E-3,-3.4422334E-3,4.240876E-2,3.877908E-2,2.3361951E-2],"split_indices":[1,1,1,6,1,2,3,2,3,2,2,0,1,2,0,0,0,0,0,0,0,0,0,0,0,0,0,0,0],"split_type":[0,0,0,0,0,0,0,0,0,0,0,0,0,0,0,0,0,0,0,0,0,0,0,0,0,0,0,0,0],"sum_hessian":[2.185504E2,7.0859085E1,1.4769131E2,1.058431E1,6.0274776E1,6.7242256E1,8.0449066E1,5.8201275E0,4.7641826E0,5.1578133E1,8.696643E0,6.121763E1,6.024628E0,7.929861E1,1.1504563E0,2.4494631E0,3.3706646E0,1.4697229E0,3.2944596E0,3.902488E1,1.255325E1,4.75082E0,3.945823E0,7.4191623E0,5.3798466E1,1.1539012E0,4.870727E0,1.9582005E1,5.9716606E1],"tree_param":{"num_deleted":"0","num_feature":"7","num_nodes":"29","size_leaf_vector":"1"}},{"base_weights":[9.068108E-3,-4.0084872E-1,1.9140358E-1,-1.4175366E-1,-4.44562E-1,4.0181845E-2,3.5233787E-1,-3.4563676E-1,1.09234974E-1,-5.009718E-1,-2.6809028E-1,7.8241555E-3,3.9801964E-1,4.957429E-1,3.223694E-1,-7.308605E-3,-3.759028E-2,-8.602297E-3,2.6751025E-2,-4.0627606E-2,-1.2464797E-2,1.51061695E-2,-2.89092E-2,6.469387E-3,-1.3934087E-2,-6.945193E-3,4.0479764E-2,1.9243741E-2,4.8979133E-2,-2.011845E-2,2.7246587E-2],"categories":[],"categories_nodes":[],"categories_segments":[],"categories_sizes":[],"default_left":[0,0,0,0,0,0,0,0,0,0,0,0,0,0,0,0,0,0,0,0,0,0,0,0,0,0,0,0,0,0,0],"id":24,"left_children":[1,3,5,7,9,11,13,15,17,19,21,23,25,27,29,-1,-1,-1,-1,-1,-1,-1,-1,-1,-1,-1,-1,-1,-1,-1,-1],"loss_changes":[1.631647E1,6.9825745E-1,3.66217E0,6.0941917E-1,4.3355465E-1,9.117174E-1,1.5413666E-1,1.5939677E-1,3.1741863E-1,2.0691872E-2,7.488055E-1,9.908826E-1,3.8588238E-1,1.7285228E-1,7.4705887E-1,0E0,0E0,0E0,0E0,0E0,0E0,0E0,0E0,0E0,0E0,0E0,0E0,0E0,0E0,0E0,0E0],"parents":[2147483647,0,0,1,1,2,2,3,3,4,4,5,5,6,6,7,7,8,8,9,9,10,10,11,11,12,12,13,13,14,14],"right_children":[2,4,6,8,10,12,14,16,18,20,22,24,26,28,30,-1,-1,-1,-1,-1,-1,-1,-1,-1,-1,-1,-1,-1,-1,-1,-1],"split_conditions":[3.9448105E-2,-1.6629767E-2,5.212096E-1,1E0,4.009331E0,4.5708895E0,4.715231E-1,3.08603E0,-1.9432586E-2,3.0839141E-2,4.036539E0,6.7746025E-1,2.8956154E-1,7.9025507E-1,4.9631858E-1,-7.308605E-3,-3.759028E-2,-8.602297E-3,2.6751025E-2,-4.0627606E-2,-1.2464797E-2,1.51061695E-2,-2.89092E-2,6.469387E-3,-1.3934087E-2,-6.945193E-3,4.0479764E-2,1.9243741E-2,4.8979133E-2,-2.011845E-2,2.7246587E-2],"split_indices":[1,1,1,6,2,2,3,2,1,1,2,3,1,1,3,0,0,0,0,0,0,0,0,0,0,0,0,0,0,0,0],"split_type":[0,0,0,0,0,0,0,0,0,0,0,0,0,0,0,0,0,0,0,0,0,0,0,0,0,0,0,0,0,0,0],"sum_hessian":[2.1627626E2,6.621557E1,1.500607E2,1.0171337E1,5.604423E1,7.8009155E1,7.2051544E1,5.4042525E0,4.7670846E0,4.107548E1,1.4968749E1,7.247723E1,5.5319304E0,9.767933E0,6.2283607E1,2.3434188E0,3.060834E0,2.6949584E0,2.072126E0,3.9811382E1,1.2641006E0,2.3639996E0,1.2604749E1,5.211664E1,2.036059E1,1.0433089E0,4.488621E0,4.0220647E0,5.7458677E0,1.5219684E0,6.076164E1],"tree_param":{"num_deleted":"0","num_feature":"7","num_nodes":"31","size_leaf_vector":"1"}},{"base_weights":[9.867828E-3,-3.7490296E-1,1.840467E-1,-1.1822759E-1,-4.185941E-1,2.693508E-2,3.1796375E-1,-3.0456227E-1,1.159176E-1,-3.8455654E-2,-2.3377231E-1,-1.366474E-2,3.7163603E-1,3.3273324E-1,-1.0400131E-2,2.2449335E-3,-3.2017525E-2,-8.219331E-3,2.7944287E-2,-3.229907E-2,5.2651125E-3,5.279296E-3,-1.724207E-2,-1.250716E-2,3.8531657E-2,3.5078134E-2,2.2034483E-2,-2.176619E-2,1.228296E-2],"categories":[],"categories_nodes":[],"categories_segments":[],"categories_sizes":[],"default_left":[0,0,0,0,0,0,0,0,0,0,0,0,0,0,0,0,0,0,0,0,0,0,0,0,0,0,0,0,0],"id":25,"left_children":[1,3,5,7,9,11,13,15,17,-1,19,21,23,25,27,-1,-1,-1,-1,-1,-1,-1,-1,-1,-1,-1,-1,-1,-1],"loss_changes":[1.4212442E1,6.9169617E-1,3.0620952E0,5.155467E-1,5.3135204E-1,9.602089E-1,3.8511515E-1,2.1502775E-1,3.2177904E-1,0E0,8.439384E-1,1.0115017E0,4.9506086E-1,3.357296E-1,2.2868234E-1,0E0,0E0,0E0,0E0,0E0,0E0,0E0,0E0,0E0,0E0,0E0,0E0,0E0,0E0],"parents":[2147483647,0,0,1,1,2,2,3,3,4,4,5,5,6,6,7,7,8,8,10,10,11,11,12,12,13,13,14,14],"right_children":[2,4,6,8,10,12,14,16,18,-1,20,22,24,26,28,-1,-1,-1,-1,-1,-1,-1,-1,-1,-1,-1,-1,-1,-1],"split_conditions":[3.9448105E-2,-1.6629767E-2,5.072536E-1,1E0,6.390339E-3,4.5708895E0,4E0,5.911586E-1,-1.9432586E-2,-3.8455654E-2,4.009331E0,6.7746025E-1,2.7835366E-1,2.981126E0,3.257712E0,2.2449335E-3,-3.2017525E-2,-8.219331E-3,2.7944287E-2,-3.229907E-2,5.2651125E-3,5.279296E-3,-1.724207E-2,-1.250716E-2,3.8531657E-2,3.5078134E-2,2.2034483E-2,-2.176619E-2,1.228296E-2],"split_indices":[1,1,1,6,1,2,4,3,1,0,2,3,1,2,2,0,0,0,0,0,0,0,0,0,0,0,0,0,0],"split_type":[0,0,0,0,0,0,0,0,0,0,0,0,0,0,0,0,0,0,0,0,0,0,0,0,0,0,0,0,0],"sum_hessian":[2.1003648E2,6.509208E1,1.4494441E2,1.0007324E1,5.5084755E1,6.724898E1,7.7695435E1,5.4051337E0,4.602191E0,4.003262E1,1.5052135E1,6.1021996E1,6.2269793E0,7.4338455E1,3.3569791E0,1.3650695E0,4.0400643E0,2.665068E0,1.9371228E0,9.38183E0,5.6703053E0,4.4238308E1,1.6783688E1,1.0011176E0,5.2258615E0,2.3788326E1,5.0550133E1,1.038953E0,2.3180263E0],"tree_param":{"num_deleted":"0","num_feature":"7","num_nodes":"29","size_leaf_vector":"1"}},{"base_weights":[-1.3806492E-3,-2.6110122E-1,2.4930903E-1,-4.0583986E-1,-6.9924146E-2,1.00943394E-1,3.2805377E-1,-2.1341626E-1,-4.4898063E-1,2.431765E-2,-2.4533819E-1,6.40681E-2,3.277881E-2,2.683563E-1,4.0178916E-1,-3.0101785E-2,5.0695655E-3,-3.8650494E-2,-2.0419443E-2,2.0615816E-2,-6.9760005E-3,-4.819319E-4,-2.283324E-2,2.6936727E-2,6.262604E-4,2.4010241E-2,-2.4993403E-2,1.3643016E-2,3.695877E-2],"categories":[],"categories_nodes":[],"categories_segments":[],"categories_sizes":[],"default_left":[0,0,0,0,0,0,0,0,0,0,0,0,0,0,0,0,0,0,0,0,0,0,0,0,0,0,0,0,0],"id":26,"left_children":[1,3,5,7,9,11,13,15,17,19,21,23,-1,25,27,-1,-1,-1,-1,-1,-1,-1,-1,-1,-1,-1,-1,-1,-1],"loss_changes":[1.3418568E1,2.7724695E0,1.1921124E0,3.8066578E-1,7.46932E-1,4.0424204E-1,1.9179296E-1,5.835953E-1,1.8090534E-1,8.0499375E-1,1.493873E-1,5.3339416E-1,0E0,8.4337974E-1,3.1712723E-1,0E0,0E0,0E0,0E0,0E0,0E0,0E0,0E0,0E0,0E0,0E0,0E0,0E0,0E0],"parents":[2147483647,0,0,1,1,2,2,3,3,4,4,5,5,6,6,7,7,8,8,9,9,10,10,11,11,13,13,14,14],"right_children":[2,4,6,8,10,12,14,16,18,20,22,24,-1,26,28,-1,-1,-1,-1,-1,-1,-1,-1,-1,-1,-1,-1,-1,-1],"split_conditions":[4.1285074E-1,1.8771911E-2,5.212096E-1,-1.0979984E-2,6.7746025E-1,9.116085E-1,6.699515E-1,1E0,6.390339E-3,1.7216327E0,3.0839141E-2,4.2638144E-1,3.277881E-2,8.312189E0,1E0,-3.0101785E-2,5.0695655E-3,-3.8650494E-2,-2.0419443E-2,2.0615816E-2,-6.9760005E-3,-4.819319E-4,-2.283324E-2,2.6936727E-2,6.262604E-4,2.4010241E-2,-2.4993403E-2,1.3643016E-2,3.695877E-2],"split_indices":[1,1,1,1,3,3,3,6,1,0,1,1,0,0,6,0,0,0,0,0,0,0,0,0,0,0,0,0,0],"split_type":[0,0,0,0,0,0,0,0,0,0,0,0,0,0,0,0,0,0,0,0,0,0,0,0,0,0,0,0,0],"sum_hessian":[2.0409326E2,1.0022068E2,1.0387258E2,5.6398773E1,4.3821907E1,3.680637E1,6.7066216E1,1.14178705E1,4.49809E1,2.9066956E1,1.4754952E1,3.3958584E1,2.8477857E0,3.9624752E1,2.7441458E1,6.9620714E0,4.455799E0,3.6970325E1,8.010575E0,8.974541E0,2.0092415E1,2.2815316E0,1.2473421E1,4.954246E0,2.900434E1,3.802765E1,1.597106E0,6.4594398E0,2.098202E1],"tree_param":{"num_deleted":"0","num_feature":"7","num_nodes":"29","size_leaf_vector":"1"}},{"base_weights":[5.9760273E-3,-2.6458108E-1,2.5641215E-1,-3.903137E-1,-9.375439E-2,1.1637857E-1,3.3334994E-1,-1.5946391E-1,-4.449779E-1,-2.1423066E-1,1.2692971E-2,6.885195E-2,3.6282595E-2,4.910563E-1,2.9774597E-1,-2.696877E-2,7.4456567E-3,-3.8560703E-2,-2.4002612E-2,-2.091294E-2,-1.6544554E-3,5.3396863E-3,-4.124906E-2,1.4661517E-2,-3.5013743E-3,2.1676928E-2,4.9874764E-2,-3.4292664E-3,2.6539084E-2],"categories":[],"categories_nodes":[],"categories_segments":[],"categories_sizes":[],"default_left":[0,0,0,0,0,0,0,0,0,0,0,0,0,0,0,0,0,0,0,0,0,0,0,0,0,0,0,0,0],"id":27,"left_children":[1,3,5,7,9,11,13,15,17,19,21,23,-1,25,27,-1,-1,-1,-1,-1,-1,-1,-1,-1,-1,-1,-1,-1,-1],"loss_changes":[1.3991031E1,2.095518E0,1.1163683E0,6.466284E-1,5.593309E-1,6.026119E-1,2.3933029E-1,5.8971316E-1,9.916687E-2,1.810273E-1,7.19402E-1,4.6994215E-1,0E0,1.5465808E-1,6.922064E-1,0E0,0E0,0E0,0E0,0E0,0E0,0E0,0E0,0E0,0E0,0E0,0E0,0E0,0E0],"parents":[2147483647,0,0,1,1,2,2,3,3,4,4,5,5,6,6,7,7,8,8,9,9,10,10,11,11,13,13,14,14],"right_children":[2,4,6,8,10,12,14,16,18,20,22,24,-1,26,28,-1,-1,-1,-1,-1,-1,-1,-1,-1,-1,-1,-1,-1,-1],"split_conditions":[4.0091196E-1,1.8771911E-2,5.212096E-1,-1.174104E-2,1E0,4.496805E0,4.6153933E-1,1E0,4.009331E0,4E0,3.4841532E-1,5.8245367E-1,3.6282595E-2,7.9025507E-1,5.312455E-1,-2.696877E-2,7.4456567E-3,-3.8560703E-2,-2.4002612E-2,-2.091294E-2,-1.6544554E-3,5.3396863E-3,-4.124906E-2,1.4661517E-2,-3.5013743E-3,2.1676928E-2,4.9874764E-2,-3.4292664E-3,2.6539084E-2],"split_indices":[1,1,1,1,6,2,3,6,2,4,1,3,0,1,3,0,0,0,0,0,0,0,0,0,0,0,0,0,0],"split_type":[0,0,0,0,0,0,0,0,0,0,0,0,0,0,0,0,0,0,0,0,0,0,0,0,0,0,0,0,0],"sum_hessian":[2.0448625E2,9.82673E1,1.06218956E2,5.586468E1,4.240262E1,3.8556103E1,6.766286E1,1.14457655E1,4.441892E1,1.9415623E1,2.2986996E1,3.4847996E1,3.7081044E0,1.010611E1,5.7556747E1,6.5225596E0,4.923206E0,3.352773E1,1.0891189E1,1.5328438E1,4.087184E0,2.1645971E1,1.3410249E0,1.6974834E1,1.7873161E1,4.939865E0,5.166244E0,5.199164E0,5.2357582E1],"tree_param":{"num_deleted":"0","num_feature":"7","num_nodes":"29","size_leaf_vector":"1"}},{"base_weights":[1.7246954E-2,-2.55605E-1,2.5945473E-1,-3.8243857E-1,-8.256328E-2,1.1339362E-1,3.4000862E-1,-1.3935725E-1,-4.2998484E-1,-2.0261645E-1,2.3156092E-2,-2.294287E-2,1.345185E-1,4.635339E-1,2.9280376E-1,-2.3831496E-2,6.8623517E-3,-3.7903022E-2,-2.2131009E-2,-2.0481918E-2,-3.788999E-4,5.7217404E-3,-3.4855295E-2,3.105576E-2,7.640346E-3,4.2178802E-2,-1.6659949E-2,1.937921E-2,3.931264E-2],"categories":[],"categories_nodes":[],"categories_segments":[],"categories_sizes":[],"default_left":[0,0,0,0,0,0,0,0,0,0,0,0,0,0,0,0,0,0,0,0,0,0,0,0,0,0,0,0,0],"id":28,"left_children":[1,3,5,7,9,11,13,15,17,19,21,-1,23,25,27,-1,-1,-1,-1,-1,-1,-1,-1,-1,-1,-1,-1,-1,-1],"loss_changes":[1.3425837E1,2.0658488E0,1.2272706E0,5.742483E-1,5.3388494E-1,3.745578E-1,2.6569366E-1,3.987602E-1,1.7398262E-1,2.0620692E-1,5.4311013E-1,0E0,3.4328133E-1,8.50934E-1,4.0840626E-1,0E0,0E0,0E0,0E0,0E0,0E0,0E0,0E0,0E0,0E0,0E0,0E0,0E0,0E0],"parents":[2147483647,0,0,1,1,2,2,3,3,4,4,5,5,6,6,7,7,8,8,9,9,10,10,12,12,13,13,14,14],"right_children":[2,4,6,8,10,12,14,16,18,20,22,-1,24,26,28,-1,-1,-1,-1,-1,-1,-1,-1,-1,-1,-1,-1,-1,-1],"split_conditions":[4.0091196E-1,1.7570404E-2,5.212096E-1,-1.6629767E-2,1E0,2.698E0,2.889816E0,1E0,4.009331E0,4E0,3.4841532E-1,-2.294287E-2,2.778198E0,7.652597E-1,7.821961E-1,-2.3831496E-2,6.8623517E-3,-3.7903022E-2,-2.2131009E-2,-2.0481918E-2,-3.788999E-4,5.7217404E-3,-3.4855295E-2,3.105576E-2,7.640346E-3,4.2178802E-2,-1.6659949E-2,1.937921E-2,3.931264E-2],"split_indices":[1,1,1,1,6,2,2,6,2,4,1,0,2,3,3,0,0,0,0,0,0,0,0,0,0,0,0,0,0],"split_type":[0,0,0,0,0,0,0,0,0,0,0,0,0,0,0,0,0,0,0,0,0,0,0,0,0,0,0,0,0],"sum_hessian":[2.0115086E2,9.4565544E1,1.0658532E2,5.387036E1,4.0695187E1,3.8743286E1,6.784204E1,9.456217E0,4.4414143E1,1.8626589E1,2.2068596E1,1.3120841E0,3.7431202E1,1.6318989E1,5.152305E1,5.359208E0,4.0970087E0,3.2920815E1,1.1493327E1,1.4436397E1,4.190192E0,2.0727863E1,1.3407325E0,3.7963536E0,3.3634846E1,1.5102118E1,1.2168715E0,4.283674E1,8.686311E0],"tree_param":{"num_deleted":"0","num_feature":"7","num_nodes":"29","size_leaf_vector":"1"}},{"base_weights":[6.754473E-3,-3.7345493E-1,1.6725253E-1,-1.9473548E-1,-4.0976033E-1,1.4737646E-2,3.0669674E-1,-3.2495946E-1,1.7796885E-2,-3.702416E-2,-2.4519932E-1,2.7967447E-1,-3.029263E-2,-1.5224944E-2,3.191099E-1,-1.0165162E-3,-3.172496E-2,-1.3618512E-2,1.8362576E-2,1.7686967E-2,-2.8045697E-2,-2.9042067E-3,2.8527651E-2,-1.2835771E-2,6.9277636E-3,2.1004545E-2,3.4902375E-2],"categories":[],"categories_nodes":[],"categories_segments":[],"categories_sizes":[],"default_left":[0,0,0,0,0,0,0,0,0,0,0,0,0,0,0,0,0,0,0,0,0,0,0,0,0,0,0],"id":29,"left_children":[1,3,5,7,9,11,13,15,17,-1,19,21,23,-1,25,-1,-1,-1,-1,-1,-1,-1,-1,-1,-1,-1,-1],"loss_changes":[1.2239454E1,3.0653667E-1,2.9943187E0,3.367626E-1,3.1057644E-1,8.244673E-1,5.148587E-1,1.619125E-1,2.5770545E-1,0E0,7.6385236E-1,2.568285E-1,9.170327E-1,0E0,3.63801E-1,0E0,0E0,0E0,0E0,0E0,0E0,0E0,0E0,0E0,0E0,0E0,0E0],"parents":[2147483647,0,0,1,1,2,2,3,3,4,4,5,5,6,6,7,7,8,8,10,10,11,11,12,12,14,14],"right_children":[2,4,6,8,10,12,14,16,18,-1,20,22,24,-1,26,-1,-1,-1,-1,-1,-1,-1,-1,-1,-1,-1,-1],"split_conditions":[3.9448105E-2,-1.174104E-2,5.122027E-1,1E0,4.009331E0,1.7216327E0,2.004957E0,5.911586E-1,-1.9432586E-2,-3.702416E-2,4.036539E0,5.2660476E-2,3.5550623E0,-1.5224944E-2,6.3177505E0,-1.0165162E-3,-3.172496E-2,-1.3618512E-2,1.8362576E-2,1.7686967E-2,-2.8045697E-2,-2.9042067E-3,2.8527651E-2,-1.2835771E-2,6.9277636E-3,2.1004545E-2,3.4902375E-2],"split_indices":[1,1,1,6,2,0,0,3,1,0,2,1,2,0,0,0,0,0,0,0,0,0,0,0,0,0,0],"split_type":[0,0,0,0,0,0,0,0,0,0,0,0,0,0,0,0,0,0,0,0,0,0,0,0,0,0,0],"sum_hessian":[1.9854802E2,5.8541107E1,1.4000691E2,1.0958727E1,4.7582382E1,6.7397575E1,7.260934E1,6.4671516E0,4.4915757E0,3.461338E1,1.2969002E1,9.034143E0,5.836343E1,1.4200646E0,7.118927E1,1.4259886E0,5.041163E0,2.4827902E0,2.0087855E0,2.1881132E0,1.0780889E1,1.8720762E0,7.162067E0,2.7438513E1,3.0924915E1,5.0200413E1,2.098886E1],"tree_param":{"num_deleted":"0","num_feature":"7","num_nodes":"27","size_leaf_vector":"1"}},{"base_weights":[1.4304514E-2,-2.3874909E-1,2.4470729E-1,-3.7766325E-1,-7.034093E-2,9.356061E-2,3.2266682E-1,-1.7326674E-1,-4.291144E-1,-2.067282E-1,3.508394E-2,5.5537026E-2,3.7898116E-2,4.1715065E-1,2.7441096E-1,-2.5137274E-2,2.587622E-3,-3.6552E-2,-2.0659033E-2,9.372884E-3,-1.8516583E-2,-7.949862E-3,1.5021141E-2,1.6229948E-2,-7.06978E-3,3.671639E-2,-1.7054226E-2,-1.2292925E-2,2.402198E-2],"categories":[],"categories_nodes":[],"categories_segments":[],"categories_sizes":[],"default_left":[0,0,0,0,0,0,0,0,0,0,0,0,0,0,0,0,0,0,0,0,0,0,0,0,0,0,0,0,0],"id":30,"left_children":[1,3,5,7,9,11,13,15,17,19,21,23,-1,25,27,-1,-1,-1,-1,-1,-1,-1,-1,-1,-1,-1,-1,-1,-1],"loss_changes":[1.1635989E1,2.199171E0,1.2003589E0,4.7152042E-1,6.4327127E-1,5.077251E-1,1.9779062E-1,3.612858E-1,7.568216E-2,1.8274212E-1,5.48381E-1,7.540537E-1,0E0,6.572845E-1,5.804157E-1,0E0,0E0,0E0,0E0,0E0,0E0,0E0,0E0,0E0,0E0,0E0,0E0,0E0,0E0],"parents":[2147483647,0,0,1,1,2,2,3,3,4,4,5,5,6,6,7,7,8,8,9,9,10,10,11,11,13,13,14,14],"right_children":[2,4,6,8,10,12,14,16,18,20,22,24,-1,26,28,-1,-1,-1,-1,-1,-1,-1,-1,-1,-1,-1,-1,-1,-1],"split_conditions":[4.1285074E-1,1.8771911E-2,5.212096E-1,-1.174104E-2,1E0,5.1817274E0,2.981126E0,1E0,6.390339E-3,2.065455E-2,1E0,5.793342E-1,3.7898116E-2,8.5158247E-1,3.1419947E0,-2.5137274E-2,2.587622E-3,-3.6552E-2,-2.0659033E-2,9.372884E-3,-1.8516583E-2,-7.949862E-3,1.5021141E-2,1.6229948E-2,-7.06978E-3,3.671639E-2,-1.7054226E-2,-1.2292925E-2,2.402198E-2],"split_indices":[1,1,1,1,6,2,2,6,1,1,4,3,0,3,2,0,0,0,0,0,0,0,0,0,0,0,0,0,0],"split_type":[0,0,0,0,0,0,0,0,0,0,0,0,0,0,0,0,0,0,0,0,0,0,0,0,0,0,0,0,0],"sum_hessian":[1.9757153E2,9.4140205E1,1.0343133E2,5.0906563E1,4.3233643E1,3.594393E1,6.74874E1,1.111567E1,3.9790894E1,1.843E1,2.4803642E1,3.3717636E1,2.2262979E0,2.0231005E1,4.7256393E1,6.2814627E0,4.834207E0,3.2785847E1,7.005047E0,1.0421859E0,1.7387814E1,1.337455E1,1.1429092E1,1.6457928E1,1.7259706E1,1.9227678E1,1.0033253E0,2.410983E0,4.484541E1],"tree_param":{"num_deleted":"0","num_feature":"7","num_nodes":"29","size_leaf_vector":"1"}},{"base_weights":[-2.2328904E-2,-3.7301907E-1,1.2824607E-1,-3.604792E-2,-2.5470948E-1,-2.1943523E-2,2.6352313E-1,-3.0624142E-1,8.015883E-2,1.54861E-1,-9.397344E-2,2.1537134E-1,3.829374E-1,-5.493722E-4,-3.1883806E-2,-1.0931768E-2,2.3588132E-2,2.271448E-2,-1.7889682E-2,-1.1860073E-2,2.1303011E-2,9.579778E-3,3.2198317E-2,4.5886483E-2,7.2004627E-3],"categories":[],"categories_nodes":[],"categories_segments":[],"categories_sizes":[],"default_left":[0,0,0,0,0,0,0,0,0,0,0,0,0,0,0,0,0,0,0,0,0,0,0,0,0],"id":31,"left_children":[1,3,5,-1,7,9,11,13,15,17,19,21,23,-1,-1,-1,-1,-1,-1,-1,-1,-1,-1,-1,-1],"loss_changes":[9.869379E0,4.0038776E-1,2.6646695E0,0E0,4.4782758E-1,8.160979E-1,3.138709E-1,5.9042907E-1,2.2944771E-1,9.719515E-1,9.2610985E-1,8.7158155E-1,9.827616E-1,0E0,0E0,0E0,0E0,0E0,0E0,0E0,0E0,0E0,0E0,0E0,0E0],"parents":[2147483647,0,0,1,1,2,2,4,4,5,5,6,6,7,7,8,8,9,9,10,10,11,11,12,12],"right_children":[2,4,6,-1,8,10,12,14,16,18,20,22,24,-1,-1,-1,-1,-1,-1,-1,-1,-1,-1,-1,-1],"split_conditions":[3.9448105E-2,1E0,5.072536E-1,-3.604792E-2,1.8771911E-2,1.8883448E0,6.3177505E0,-6.663078E-3,4.105449E0,6.7630136E-1,4.475517E0,7.376315E-1,5.968865E-1,-5.493722E-4,-3.1883806E-2,-1.0931768E-2,2.3588132E-2,2.271448E-2,-1.7889682E-2,-1.1860073E-2,2.1303011E-2,9.579778E-3,3.2198317E-2,4.5886483E-2,7.2004627E-3],"split_indices":[1,6,1,0,1,0,0,1,2,3,2,3,3,0,0,0,0,0,0,0,0,0,0,0,0],"split_type":[0,0,0,0,0,0,0,0,0,0,0,0,0,0,0,0,0,0,0,0,0,0,0,0,0],"sum_hessian":[1.8499583E2,5.5127113E1,1.2986873E2,3.1598297E1,2.3528818E1,6.193926E1,6.792947E1,2.0465002E1,3.0638149E0,1.7596636E1,4.4342625E1,5.0407185E1,1.7522284E1,5.0761256E0,1.5388877E1,1.7052766E0,1.3585382E0,1.3308115E1,4.28852E0,3.9048073E1,5.2945504E0,3.4444042E1,1.5963142E1,1.0033974E1,7.4883094E0],"tree_param":{"num_deleted":"0","num_feature":"7","num_nodes":"25","size_leaf_vector":"1"}},{"base_weights":[5.1798334E-4,-2.160477E-1,2.47497E-1,-3.6681998E-1,-6.972819E-2,-1.0935776E-1,2.732868E-1,-1.927383E-1,-4.1095826E-1,1.8694801E-2,-2.4365966E-1,-2.9392365E-1,1.7055094E-2,1.9320676E-1,3.4396267E-1,-2.6086308E-2,7.16405E-4,-3.581175E-2,-1.6044859E-2,1.4972961E-2,-9.691385E-3,6.5418785E-3,-2.1478733E-2,-2.689062E-2,-7.715202E-3,1.8047731E-2,-2.3962492E-2,1.8555162E-2,3.5948336E-2],"categories":[],"categories_nodes":[],"categories_segments":[],"categories_sizes":[],"default_left":[0,0,0,0,0,0,0,0,0,0,0,0,0,0,0,0,0,0,0,0,0,0,0,0,0,0,0,0,0],"id":32,"left_children":[1,3,5,7,9,11,13,15,17,19,21,23,-1,25,27,-1,-1,-1,-1,-1,-1,-1,-1,-1,-1,-1,-1,-1,-1],"loss_changes":[9.972473E0,2.1659703E0,8.3153725E-1,2.9491997E-1,7.9890066E-1,4.5467433E-1,3.9492846E-1,3.184329E-1,2.0323467E-1,8.5121834E-1,1.6316295E-1,6.000221E-3,0E0,7.139306E-1,3.918929E-1,0E0,0E0,0E0,0E0,0E0,0E0,0E0,0E0,0E0,0E0,0E0,0E0,0E0,0E0],"parents":[2147483647,0,0,1,1,2,2,3,3,4,4,5,5,6,6,7,7,8,8,9,9,10,10,11,11,13,13,14,14],"right_children":[2,4,6,8,10,12,14,16,18,20,22,24,-1,26,28,-1,-1,-1,-1,-1,-1,-1,-1,-1,-1,-1,-1,-1,-1],"split_conditions":[4.3953645E-1,1.6055945E-2,1.9397064E0,-1.0979984E-2,6.7746025E-1,4.9702814E-1,4.1745043E0,1E0,6.067161E-3,1.8883448E0,2.065455E-2,2E0,1.7055094E-2,4.1347294E0,6.5422755E-1,-2.6086308E-2,7.16405E-4,-3.581175E-2,-1.6044859E-2,1.4972961E-2,-9.691385E-3,6.5418785E-3,-2.1478733E-2,-2.689062E-2,-7.715202E-3,1.8047731E-2,-2.3962492E-2,1.8555162E-2,3.5948336E-2],"split_indices":[1,1,0,1,3,1,0,6,1,0,1,4,0,0,3,0,0,0,0,0,0,0,0,0,0,0,0,0,0],"split_type":[0,0,0,0,0,0,0,0,0,0,0,0,0,0,0,0,0,0,0,0,0,0,0,0,0,0,0,0,0],"sum_hessian":[1.8444633E2,9.834069E1,8.6105644E1,4.7691193E1,5.0649498E1,5.585017E0,8.052062E1,1.0731762E1,3.695943E1,3.417048E1,1.6479015E1,3.608767E0,1.9762502E0,3.949928E1,4.1021347E1,6.089352E0,4.64241E0,3.0511324E1,6.448109E0,1.5345151E1,1.882533E1,1.005359E0,1.5473657E1,2.3948295E0,1.2139374E0,3.757168E1,1.9275994E0,2.1436613E1,1.9584734E1],"tree_param":{"num_deleted":"0","num_feature":"7","num_nodes":"29","size_leaf_vector":"1"}},{"base_weights":[3.1370148E-3,-2.2341973E-1,2.2597244E-1,-3.5786292E-1,-7.1026474E-2,7.559908E-2,2.8338462E-1,-1.8270671E-1,-4.0231127E-1,-1.9998936E-1,2.916565E-2,-1.3114126E-1,2.2742377E-1,4.342478E-1,2.1856505E-1,-2.6038555E-2,1.684768E-3,-3.4569547E-2,-1.8718291E-2,-2.0859422E-2,6.0330867E-4,-9.521877E-3,1.3662006E-2,1.348239E-2,-1.7230254E-2,-8.238886E-3,2.274236E-2,4.3627467E-2,9.371389E-3,1.038015E-2,3.2789998E-2],"categories":[],"categories_nodes":[],"categories_segments":[],"categories_sizes":[],"default_left":[0,0,0,0,0,0,0,0,0,0,0,0,0,0,0,0,0,0,0,0,0,0,0,0,0,0,0,0,0,0,0],"id":33,"left_children":[1,3,5,7,9,11,13,15,17,19,21,23,25,27,29,-1,-1,-1,-1,-1,-1,-1,-1,-1,-1,-1,-1,-1,-1,-1,-1],"loss_changes":[9.336615E0,1.8535719E0,7.834401E-1,3.0391026E-1,5.7737494E-1,8.811764E-1,5.612998E-1,3.4560725E-1,8.872938E-2,2.4741244E-1,5.61029E-1,3.422186E-1,3.2993025E-1,6.108868E-1,7.785387E-1,0E0,0E0,0E0,0E0,0E0,0E0,0E0,0E0,0E0,0E0,0E0,0E0,0E0,0E0,0E0,0E0],"parents":[2147483647,0,0,1,1,2,2,3,3,4,4,5,5,6,6,7,7,8,8,9,9,10,10,11,11,12,12,13,13,14,14],"right_children":[2,4,6,8,10,12,14,16,18,20,22,24,26,28,30,-1,-1,-1,-1,-1,-1,-1,-1,-1,-1,-1,-1,-1,-1,-1,-1],"split_conditions":[4.1285074E-1,1.8771911E-2,5.072536E-1,-1.174104E-2,1E0,3.5647326E0,2.889816E0,1E0,6.390339E-3,4E0,1E0,3.721615E-1,4.7791758E-1,2E0,7.376315E-1,-2.6038555E-2,1.684768E-3,-3.4569547E-2,-1.8718291E-2,-2.0859422E-2,6.0330867E-4,-9.521877E-3,1.3662006E-2,1.348239E-2,-1.7230254E-2,-8.238886E-3,2.274236E-2,4.3627467E-2,9.371389E-3,1.038015E-2,3.2789998E-2],"split_indices":[1,1,1,1,6,2,2,6,1,4,4,3,3,4,3,0,0,0,0,0,0,0,0,0,0,0,0,0,0,0,0],"split_type":[0,0,0,0,0,0,0,0,0,0,0,0,0,0,0,0,0,0,0,0,0,0,0,0,0,0,0,0,0,0,0],"sum_hessian":[1.8293883E2,9.071067E1,9.222815E1,4.7477318E1,4.3233356E1,2.6123232E1,6.610491E1,1.0643874E1,3.6833443E1,1.8467169E1,2.4766186E1,1.1118862E1,1.5004371E1,1.815381E1,4.7951103E1,5.907365E0,4.736509E0,2.9960949E1,6.8724933E0,1.4086904E1,4.380265E0,1.2179879E1,1.2586307E1,2.2201297E0,8.898732E0,2.083724E0,1.2920647E1,1.291084E1,5.2429714E0,3.3894325E1,1.4056777E1],"tree_param":{"num_deleted":"0","num_feature":"7","num_nodes":"31","size_leaf_vector":"1"}},{"base_weights":[7.72909E-4,-1.9945851E-1,2.3552881E-1,-3.4767413E-1,-5.8910195E-2,1.8142019E-1,3.984732E-1,-1.6332261E-1,-3.9752862E-1,3.207338E-2,-2.5012818E-1,4.759842E-1,1.3354999E-1,-9.610112E-3,4.5194662E-1,-2.1334315E-2,5.8604917E-3,-3.451937E-2,-1.7992875E-2,1.5406915E-2,-8.115193E-3,-2.4188325E-2,1.2124905E-2,4.709535E-2,-3.240306E-3,3.6492976E-4,3.0219713E-2,3.9764427E-2,-8.399592E-3],"categories":[],"categories_nodes":[],"categories_segments":[],"categories_sizes":[],"default_left":[0,0,0,0,0,0,0,0,0,0,0,0,0,0,0,0,0,0,0,0,0,0,0,0,0,0,0,0,0],"id":34,"left_children":[1,3,5,7,9,11,13,15,17,19,21,23,25,-1,27,-1,-1,-1,-1,-1,-1,-1,-1,-1,-1,-1,-1,-1,-1],"loss_changes":[8.654344E0,2.0494404E0,6.7491245E-1,3.776965E-1,9.1628325E-1,8.59442E-1,6.1698556E-1,3.1170803E-1,1.211071E-1,7.966248E-1,4.013102E-1,5.3381777E-1,1.8156514E0,0E0,5.195823E-1,0E0,0E0,0E0,0E0,0E0,0E0,0E0,0E0,0E0,0E0,0E0,0E0,0E0,0E0],"parents":[2147483647,0,0,1,1,2,2,3,3,4,4,5,5,6,6,7,7,8,8,9,9,10,10,11,11,12,12,14,14],"right_children":[2,4,6,8,10,12,14,16,18,20,22,24,26,-1,28,-1,-1,-1,-1,-1,-1,-1,-1,-1,-1,-1,-1,-1,-1],"split_conditions":[4.491369E-1,1.8771911E-2,6.3177505E0,-1.174104E-2,6.7746025E-1,2.7414849E0,2.7542975E0,8.1651276E-1,6.067161E-3,1.8883448E0,4.5708895E0,6.5807337E-1,7.232945E-1,-9.610112E-3,7.3544407E-1,-2.1334315E-2,5.8604917E-3,-3.451937E-2,-1.7992875E-2,1.5406915E-2,-8.115193E-3,-2.4188325E-2,1.2124905E-2,4.709535E-2,-3.240306E-3,3.6492976E-4,3.0219713E-2,3.9764427E-2,-8.399592E-3],"split_indices":[1,1,0,1,3,2,2,3,1,0,2,3,3,0,3,0,0,0,0,0,0,0,0,0,0,0,0,0,0],"split_type":[0,0,0,0,0,0,0,0,0,0,0,0,0,0,0,0,0,0,0,0,0,0,0,0,0,0,0,0,0],"sum_hessian":[1.8211397E2,9.836523E1,8.374874E1,4.7159424E1,5.1205807E1,6.445777E1,1.9290976E1,1.0948847E1,3.6210575E1,3.526067E1,1.5945137E1,7.760594E0,5.6697174E1,1.6866753E0,1.76043E1,7.5313334E0,3.4175136E0,2.9004148E1,7.2064276E0,1.5810471E1,1.94502E1,1.4329388E1,1.6157494E0,6.255684E0,1.5049099E0,3.776683E1,1.8930346E1,1.6384766E1,1.2195345E0],"tree_param":{"num_deleted":"0","num_feature":"7","num_nodes":"29","size_leaf_vector":"1"}},{"base_weights":[-1.6194476E-2,-2.127509E-1,2.0914875E-1,-3.390646E-1,-5.646821E-2,1.2511908E-1,3.3538777E-1,-1.7453791E-1,-3.747964E-1,1.365311E-1,-1.6766703E-1,2.9193714E-1,6.677503E-2,3.5793456E-1,-1.0459019E-2,-2.290994E-2,8.146926E-3,-3.5246845E-2,-1.478848E-2,1.9837402E-2,-1.5241187E-2,-5.7855123E-3,-3.533491E-2,3.10876E-2,-2.015751E-2,-7.859005E-3,1.6111514E-2,3.0728197E-2,9.919007E-3],"categories":[],"categories_nodes":[],"categories_segments":[],"categories_sizes":[],"default_left":[0,0,0,0,0,0,0,0,0,0,0,0,0,0,0,0,0,0,0,0,0,0,0,0,0,0,0,0,0],"id":35,"left_children":[1,3,5,7,9,11,13,15,17,19,21,23,25,27,-1,-1,-1,-1,-1,-1,-1,-1,-1,-1,-1,-1,-1,-1,-1],"loss_changes":[7.893143E0,1.8589959E0,8.391094E-1,2.4272537E-1,9.6129715E-1,4.8136836E-1,3.893857E-1,3.7608138E-1,4.4578028E-1,6.498534E-1,7.045994E-1,7.8335977E-1,8.9552027E-1,1.4436722E-1,0E0,0E0,0E0,0E0,0E0,0E0,0E0,0E0,0E0,0E0,0E0,0E0,0E0,0E0,0E0],"parents":[2147483647,0,0,1,1,2,2,3,3,4,4,5,5,6,6,7,7,8,8,9,9,10,10,11,11,12,12,13,13],"right_children":[2,4,6,8,10,12,14,16,18,20,22,24,26,28,-1,-1,-1,-1,-1,-1,-1,-1,-1,-1,-1,-1,-1,-1,-1],"split_conditions":[4.3953645E-1,3.9448105E-2,6.830311E-1,-1.174104E-2,1.8883448E0,2.889816E0,4.475517E0,8.3859074E-1,4.009331E0,6.7630136E-1,3.4841532E-1,5.565532E-1,6.340351E-1,3E0,-1.0459019E-2,-2.290994E-2,8.146926E-3,-3.5246845E-2,-1.478848E-2,1.9837402E-2,-1.5241187E-2,-5.7855123E-3,-3.533491E-2,3.10876E-2,-2.015751E-2,-7.859005E-3,1.6111514E-2,3.0728197E-2,9.919007E-3],"split_indices":[1,1,1,1,0,2,2,3,2,3,1,1,3,4,0,0,0,0,0,0,0,0,0,0,0,0,0,0,0],"split_type":[0,0,0,0,0,0,0,0,0,0,0,0,0,0,0,0,0,0,0,0,0,0,0,0,0,0,0,0,0],"sum_hessian":[1.761997E2,9.414088E1,8.205883E1,5.1415405E1,4.272547E1,5.046107E1,3.159776E1,1.0223959E1,4.1191444E1,1.5534908E1,2.7190563E1,1.2038034E1,3.8423035E1,3.0361273E1,1.2364875E0,7.2528677E0,2.971091E0,2.9614384E1,1.1577061E1,1.1767194E1,3.767714E0,2.1109274E1,6.0812907E0,1.0464016E1,1.5740188E0,1.738418E1,2.1038857E1,2.672962E1,3.6316528E0],"tree_param":{"num_deleted":"0","num_feature":"7","num_nodes":"29","size_leaf_vector":"1"}},{"base_weights":[1.7929401E-3,-2.0383178E-1,1.6275491E-1,-3.0985785E-1,-8.70128E-2,8.3956696E-2,3.1312588E-1,-1.4044288E-1,-3.3347282E-1,1.9132502E-2,-1.7703816E-1,3.597176E-2,3.5513487E-2,3.3107188E-1,-5.7610655E-3,-1.8572852E-2,1.3981596E-2,-3.0628804E-2,-1.829874E-2,-4.7371327E-3,3.6593907E-2,-2.19551E-2,-1.6138987E-3,5.1964354E-3,-2.1068482E-2,2.748237E-2,2.3866063E-3],"categories":[],"categories_nodes":[],"categories_segments":[],"categories_sizes":[],"default_left":[0,0,0,0,0,0,0,0,0,0,0,0,0,0,0,0,0,0,0,0,0,0,0,0,0,0,0],"id":36,"left_children":[1,3,5,7,9,11,13,15,17,19,21,23,-1,25,-1,-1,-1,-1,-1,-1,-1,-1,-1,-1,-1,-1,-1],"loss_changes":[5.8763494E0,9.3865204E-1,1.1536539E0,1.1510754E-1,3.7112215E-1,1.1362576E0,2.5797033E-1,2.336853E-1,9.242988E-2,6.645094E-1,3.1409645E-1,5.3720456E-1,0E0,1.1188412E-1,0E0,0E0,0E0,0E0,0E0,0E0,0E0,0E0,0E0,0E0,0E0,0E0,0E0],"parents":[2147483647,0,0,1,1,2,2,3,3,4,4,5,5,6,6,7,7,8,8,9,9,10,10,11,11,13,13],"right_children":[2,4,6,8,10,12,14,16,18,20,22,24,-1,26,-1,-1,-1,-1,-1,-1,-1,-1,-1,-1,-1,-1,-1],"split_conditions":[1.9700328E0,1E0,4.235651E0,5.276183E-1,5.793342E-1,4.5708895E0,4.475517E0,5.065429E-1,3.8938591E0,5.659869E-1,1E0,4.1615357E0,3.5513487E-2,4E0,-5.7610655E-3,-1.8572852E-2,1.3981596E-2,-3.0628804E-2,-1.829874E-2,-4.7371327E-3,3.6593907E-2,-2.19551E-2,-1.6138987E-3,5.1964354E-3,-2.1068482E-2,2.748237E-2,2.3866063E-3],"split_indices":[0,6,0,3,3,2,2,3,2,3,4,2,0,4,0,0,0,0,0,0,0,0,0,0,0,0,0],"split_type":[0,0,0,0,0,0,0,0,0,0,0,0,0,0,0,0,0,0,0,0,0,0,0,0,0,0,0],"sum_hessian":[1.7554291E2,7.696096E1,9.858195E1,3.947793E1,3.7483032E1,6.570774E1,3.2874203E1,5.6795735E0,3.3798355E1,1.756285E1,1.992018E1,5.8949394E1,6.758351E0,3.1544724E1,1.3294809E0,4.6035533E0,1.0760206E0,2.1163683E1,1.2634672E1,1.5633234E1,1.9296172E0,1.1827003E1,8.093177E0,5.4459152E1,4.490242E0,3.0157187E1,1.387536E0],"tree_param":{"num_deleted":"0","num_feature":"7","num_nodes":"27","size_leaf_vector":"1"}},{"base_weights":[2.0159505E-2,-1.8314697E-1,1.7491414E-1,-3.093362E-1,-5.025765E-2,5.5243254E-2,2.878596E-1,-1.1688369E-1,-3.405057E-1,7.519069E-2,-1.5897772E-1,-2.3187739E-1,1.10904984E-1,1.8521446E-1,3.7598568E-1,-1.5732594E-2,1.3596642E-2,-3.1647228E-2,-1.8019669E-2,1.4436596E-4,3.8865242E-2,-2.0694876E-2,-2.5824658E-4,-2.7516743E-2,-2.1588919E-3,3.6954585E-2,6.643651E-3,2.8026778E-2,-3.2815676E-2,6.158007E-3,3.595419E-2],"categories":[],"categories_nodes":[],"categories_segments":[],"categories_sizes":[],"default_left":[0,0,0,0,0,0,0,0,0,0,0,0,0,0,0,0,0,0,0,0,0,0,0,0,0,0,0,0,0,0,0],"id":37,"left_children":[1,3,5,7,9,11,13,15,17,19,21,23,25,27,29,-1,-1,-1,-1,-1,-1,-1,-1,-1,-1,-1,-1,-1,-1,-1,-1],"loss_changes":[5.611356E0,1.2778883E0,1.3519475E0,1.9636202E-1,5.406246E-1,8.3078456E-1,3.9916086E-1,1.9383276E-1,1.2269306E-1,5.618962E-1,3.266334E-1,1.8599692E-1,3.8089198E-1,2.6911776E0,5.564339E-1,0E0,0E0,0E0,0E0,0E0,0E0,0E0,0E0,0E0,0E0,0E0,0E0,0E0,0E0,0E0,0E0],"parents":[2147483647,0,0,1,1,2,2,3,3,4,4,5,5,6,6,7,7,8,8,9,9,10,10,11,11,12,12,13,13,14,14],"right_children":[2,4,6,8,10,12,14,16,18,20,22,24,26,28,30,-1,-1,-1,-1,-1,-1,-1,-1,-1,-1,-1,-1,-1,-1,-1,-1],"split_conditions":[1.9700328E0,1E0,3.495626E0,5.312455E-1,5.793342E-1,4.252434E-1,6.5422755E-1,5.065429E-1,3.8938591E0,5.659869E-1,1E0,2E0,4.408224E-1,5.968865E-1,1E0,-1.5732594E-2,1.3596642E-2,-3.1647228E-2,-1.8019669E-2,1.4436596E-4,3.8865242E-2,-2.0694876E-2,-2.5824658E-4,-2.7516743E-2,-2.1588919E-3,3.6954585E-2,6.643651E-3,2.8026778E-2,-3.2815676E-2,6.158007E-3,3.595419E-2],"split_indices":[0,6,0,3,3,3,3,3,2,3,4,4,3,3,6,0,0,0,0,0,0,0,0,0,0,0,0,0,0,0,0],"split_type":[0,0,0,0,0,0,0,0,0,0,0,0,0,0,0,0,0,0,0,0,0,0,0,0,0,0,0,0,0,0,0],"sum_hessian":[1.7633173E2,7.6131584E1,1.0020014E2,3.8369167E1,3.776242E1,4.93746E1,5.0825542E1,6.010148E0,3.235902E1,1.767558E1,2.0086842E1,7.503478E0,4.187112E1,2.4911499E1,2.5914043E1,4.9483604E0,1.0617872E0,2.0249344E1,1.2109674E1,1.5847701E1,1.8278774E0,1.1843761E1,8.24308E0,4.411505E0,3.0919726E0,1.933108E0,3.9938015E1,1.982516E1,5.086341E0,5.513694E0,2.0400349E1],"tree_param":{"num_deleted":"0","num_feature":"7","num_nodes":"31","size_leaf_vector":"1"}},{"base_weights":[8.023268E-3,-2.0045249E-1,2.0991197E-1,-3.4116945E-1,-8.843017E-2,8.790866E-2,2.8100216E-1,-1.33087E-1,-3.308711E-2,-2.5417004E-2,-3.0687776E-1,5.1146388E-2,3.5348795E-2,3.0922037E-1,1.1628124E-1,-2.2119964E-2,4.759806E-3,-7.6102614E-3,1.4846386E-2,-3.0958945E-2,-1.0530252E-2,6.7724E-3,-1.5647875E-2,3.6210034E-2,2.048146E-2,1.7524697E-2,-7.718287E-3],"categories":[],"categories_nodes":[],"categories_segments":[],"categories_sizes":[],"default_left":[0,0,0,0,0,0,0,0,0,0,0,0,0,0,0,0,0,0,0,0,0,0,0,0,0,0,0],"id":38,"left_children":[1,3,5,7,9,11,13,15,-1,17,19,21,-1,23,25,-1,-1,-1,-1,-1,-1,-1,-1,-1,-1,-1,-1],"loss_changes":[7.348405E0,1.3241408E0,7.444236E-1,5.1352215E-1,6.692265E-1,4.2115566E-1,2.2236204E-1,3.2621494E-1,0E0,5.9517235E-1,1.0238302E-1,2.8134775E-1,0E0,2.4151325E-1,2.3391543E-1,0E0,0E0,0E0,0E0,0E0,0E0,0E0,0E0,0E0,0E0,0E0,0E0],"parents":[2147483647,0,0,1,1,2,2,3,3,4,4,5,5,6,6,7,7,9,9,10,10,11,11,13,13,14,14],"right_children":[2,4,6,8,10,12,14,16,-1,18,20,22,-1,24,26,-1,-1,-1,-1,-1,-1,-1,-1,-1,-1,-1,-1],"split_conditions":[4.1285074E-1,6.390339E-3,5.212096E-1,-1.174104E-2,7.5814176E-1,5.1817274E0,3E0,1E0,-3.308711E-2,4.001681E0,1E0,7.652597E-1,3.5348795E-2,2.87976E0,3.7259343E0,-2.2119964E-2,4.759806E-3,-7.6102614E-3,1.4846386E-2,-3.0958945E-2,-1.0530252E-2,6.7724E-3,-1.5647875E-2,3.6210034E-2,2.048146E-2,1.7524697E-2,-7.718287E-3],"split_indices":[1,1,1,1,3,2,4,6,0,2,6,3,0,2,2,0,0,0,0,0,0,0,0,0,0,0,0],"split_type":[0,0,0,0,0,0,0,0,0,0,0,0,0,0,0,0,0,0,0,0,0,0,0,0,0,0,0],"sum_hessian":[1.7259274E2,8.4914665E1,8.767808E1,3.6730305E1,4.818436E1,3.3103394E1,5.4574684E1,1.0215592E1,2.6514713E1,3.8263317E1,9.921044E0,3.1025507E1,2.0778863E0,4.5843956E1,8.730724E0,5.6055555E0,4.610037E0,2.9173746E1,9.089568E0,5.9795184E0,3.9415264E0,2.7894299E1,3.131208E0,1.0373842E1,3.5470116E1,5.866972E0,2.8637526E0],"tree_param":{"num_deleted":"0","num_feature":"7","num_nodes":"27","size_leaf_vector":"1"}},{"base_weights":[-4.5456737E-3,-2.2032274E-1,2.0169546E-1,-3.2831728E-1,-9.612517E-2,4.2367317E-2,2.6704088E-1,-1.4119333E-1,-3.8019606E-1,-2.1232367E-1,2.3678401E-3,-1.23100124E-1,1.6858459E-1,3.1238782E-1,1.4456767E-1,-1.890412E-2,8.148334E-3,-3.3116814E-2,-1.710425E-2,-2.0121641E-2,-3.8150938E-3,-1.0039191E-2,1.1382648E-2,2.9897585E-3,-2.6193518E-2,-1.2826388E-2,1.8201236E-2,2.6453223E-2,5.387968E-3,-2.5806662E-2,1.8066414E-2],"categories":[],"categories_nodes":[],"categories_segments":[],"categories_sizes":[],"default_left":[0,0,0,0,0,0,0,0,0,0,0,0,0,0,0,0,0,0,0,0,0,0,0,0,0,0,0,0,0,0,0],"id":39,"left_children":[1,3,5,7,9,11,13,15,17,19,21,23,25,27,29,-1,-1,-1,-1,-1,-1,-1,-1,-1,-1,-1,-1,-1,-1,-1,-1],"loss_changes":[7.511314E0,1.0746603E0,8.8730407E-1,3.705635E-1,4.55708E-1,5.698543E-1,2.937274E-1,2.8011698E-1,1.00402355E-1,1.0582757E-1,4.2065188E-1,4.0420848E-1,3.3375645E-1,1.7331314E-1,7.694335E-1,0E0,0E0,0E0,0E0,0E0,0E0,0E0,0E0,0E0,0E0,0E0,0E0,0E0,0E0,0E0,0E0],"parents":[2147483647,0,0,1,1,2,2,3,3,4,4,5,5,6,6,7,7,8,8,9,9,10,10,11,11,12,12,13,13,14,14],"right_children":[2,4,6,8,10,12,14,16,18,20,22,24,26,28,30,-1,-1,-1,-1,-1,-1,-1,-1,-1,-1,-1,-1,-1,-1,-1,-1],"split_conditions":[4.1285074E-1,1.8771911E-2,5.072536E-1,-1.174104E-2,1E0,3.5647326E0,3.7402852E0,8.3859074E-1,6.067161E-3,4E0,1E0,3.1086144E0,4.7791758E-1,7.652597E-1,3.9058037E0,-1.890412E-2,8.148334E-3,-3.3116814E-2,-1.710425E-2,-2.0121641E-2,-3.8150938E-3,-1.0039191E-2,1.1382648E-2,2.9897585E-3,-2.6193518E-2,-1.2826388E-2,1.8201236E-2,2.6453223E-2,5.387968E-3,-2.5806662E-2,1.8066414E-2],"split_indices":[1,1,1,1,6,2,2,3,1,4,4,2,3,3,2,0,0,0,0,0,0,0,0,0,0,0,0,0,0,0,0],"split_type":[0,0,0,0,0,0,0,0,0,0,0,0,0,0,0,0,0,0,0,0,0,0,0,0,0,0,0,0,0,0,0],"sum_hessian":[1.6678703E2,8.1475784E1,8.531125E1,4.27016E1,3.877419E1,2.5291859E1,6.0019386E1,1.0076781E1,3.2624817E1,1.7258045E1,2.1516142E1,1.0954934E1,1.43369255E1,4.2669804E1,1.7349585E1,7.2625794E0,2.8142014E0,2.588453E1,6.7402887E0,1.3513065E1,3.7449803E0,1.1296368E1,1.0219775E1,6.5934925E0,4.361441E0,1.9169719E0,1.2419953E1,3.9382786E1,3.2870176E0,2.1307828E0,1.52188015E1],"tree_param":{"num_deleted":"0","num_feature":"7","num_nodes":"31","size_leaf_vector":"1"}},{"base_weights":[-7.968182E-3,-1.8373623E-1,2.0447055E-1,-3.1650624E-1,-6.537799E-2,1.5760349E-1,3.7679362E-1,-1.5356039E-1,-3.6500508E-1,7.371651E-2,-1.7752299E-1,-8.287179E-2,2.302797E-1,-1.2781784E-2,4.3179038E-1,-3.7576507E-3,-2.3463538E-2,-3.208761E-2,-1.5746113E-2,1.4881988E-2,-1.44827645E-2,-5.107264E-3,-3.056077E-2,1.305694E-2,-1.8006492E-2,1.9730154E-2,-1.1429601E-2,4.008828E-2,-5.131914E-3],"categories":[],"categories_nodes":[],"categories_segments":[],"categories_sizes":[],"default_left":[0,0,0,0,0,0,0,0,0,0,0,0,0,0,0,0,0,0,0,0,0,0,0,0,0,0,0,0,0],"id":40,"left_children":[1,3,5,7,9,11,13,15,17,19,21,23,25,-1,27,-1,-1,-1,-1,-1,-1,-1,-1,-1,-1,-1,-1,-1,-1],"loss_changes":[6.2212214E0,1.4116843E0,5.500014E-1,2.813902E-1,7.844609E-1,1.0858581E0,5.2385855E-1,1.5780741E-1,1.1636782E-1,6.854251E-1,6.188691E-1,5.5821526E-1,3.227756E-1,0E0,5.220413E-1,0E0,0E0,0E0,0E0,0E0,0E0,0E0,0E0,0E0,0E0,0E0,0E0,0E0,0E0],"parents":[2147483647,0,0,1,1,2,2,3,3,4,4,5,5,6,6,7,7,8,8,9,9,10,10,11,11,12,12,14,14],"right_children":[2,4,6,8,10,12,14,16,18,20,22,24,26,-1,28,-1,-1,-1,-1,-1,-1,-1,-1,-1,-1,-1,-1,-1,-1],"split_conditions":[4.491369E-1,1.8771911E-2,6.3177505E0,-1.001135E-2,1.8883448E0,5.659869E-1,2.7542975E0,3.6130776E0,6.067161E-3,6.7630136E-1,3.1896022E-1,3.0864866E0,5.7530723E0,-1.2781784E-2,7.138157E-1,-3.7576507E-3,-2.3463538E-2,-3.208761E-2,-1.5746113E-2,1.4881988E-2,-1.44827645E-2,-5.107264E-3,-3.056077E-2,1.305694E-2,-1.8006492E-2,1.9730154E-2,-1.1429601E-2,4.008828E-2,-5.131914E-3],"split_indices":[1,1,0,1,0,3,2,2,1,3,1,2,0,0,3,0,0,0,0,0,0,0,0,0,0,0,0,0,0],"split_type":[0,0,0,0,0,0,0,0,0,0,0,0,0,0,0,0,0,0,0,0,0,0,0,0,0,0,0,0,0],"sum_hessian":[1.6460425E2,9.015046E1,7.445379E1,4.169942E1,4.845104E1,6.003935E1,1.441444E1,1.05201645E1,3.1179256E1,2.1779898E1,2.667114E1,1.3901375E1,4.6137974E1,1.1629735E0,1.3251467E1,6.725817E0,3.794347E0,2.4530285E1,6.6489725E0,1.5303185E1,6.4767118E0,1.7984852E1,8.686289E0,5.0371857E0,8.86419E0,4.4526394E1,1.6115795E0,1.1617391E1,1.6340756E0],"tree_param":{"num_deleted":"0","num_feature":"7","num_nodes":"29","size_leaf_vector":"1"}},{"base_weights":[7.995565E-3,-2.1029508E-1,2.1088855E-1,-3.0837655E-1,-7.697529E-2,7.417054E-2,2.7213347E-1,-3.7728855E-1,-2.053945E-1,-3.5598747E-2,-3.3549285E-1,3.2163415E-2,3.4393884E-2,4.0871754E-1,2.2290187E-1,-1.5149681E-2,-3.1701732E-2,4.7247885E-3,-2.3252526E-2,-1.3578479E-2,5.1780813E-3,-4.1445088E-2,9.654612E-3,6.597215E-3,-1.7822089E-2,3.6659136E-2,1.1837383E-3,1.2344374E-2,2.8671106E-2],"categories":[],"categories_nodes":[],"categories_segments":[],"categories_sizes":[],"default_left":[0,0,0,0,0,0,0,0,0,0,0,0,0,0,0,0,0,0,0,0,0,0,0,0,0,0,0,0,0],"id":41,"left_children":[1,3,5,7,9,11,13,15,17,19,21,23,-1,25,27,-1,-1,-1,-1,-1,-1,-1,-1,-1,-1,-1,-1,-1,-1],"loss_changes":[7.4672766E0,1.0385334E0,7.113285E-1,2.522998E-1,3.7062645E-1,4.1062468E-1,3.1208324E-1,2.0011187E-2,4.867304E-1,4.4092694E-1,4.6361023E-1,3.5799778E-1,0E0,2.797234E-1,3.7476444E-1,0E0,0E0,0E0,0E0,0E0,0E0,0E0,0E0,0E0,0E0,0E0,0E0,0E0,0E0],"parents":[2147483647,0,0,1,1,2,2,3,3,4,4,5,5,6,6,7,7,8,8,9,9,10,10,11,11,13,13,14,14],"right_children":[2,4,6,8,10,12,14,16,18,20,22,24,-1,26,28,-1,-1,-1,-1,-1,-1,-1,-1,-1,-1,-1,-1,-1,-1],"split_conditions":[4.1285074E-1,3.4545477E-2,5.122027E-1,1E0,3.4841532E-1,5.1817274E0,2.889816E0,5.312455E-1,-6.663078E-3,1E0,4.0397124E0,4.1615357E0,3.4393884E-2,3E0,7.376315E-1,-1.5149681E-2,-3.1701732E-2,4.7247885E-3,-2.3252526E-2,-1.3578479E-2,5.1780813E-3,-4.1445088E-2,9.654612E-3,6.597215E-3,-1.7822089E-2,3.6659136E-2,1.1837383E-3,1.2344374E-2,2.8671106E-2],"split_indices":[1,1,1,6,1,2,2,3,1,6,2,2,0,4,3,0,0,0,0,0,0,0,0,0,0,0,0,0,0],"split_type":[0,0,0,0,0,0,0,0,0,0,0,0,0,0,0,0,0,0,0,0,0,0,0,0,0,0,0,0,0],"sum_hessian":[1.6659966E2,8.023697E1,8.6362686E1,4.5471317E1,3.476565E1,2.7402565E1,5.8960117E1,2.5646158E1,1.9825157E1,3.094975E1,3.815901E0,2.5483854E1,1.91871E0,1.3686767E1,4.527335E1,3.3600557E0,2.2286102E1,4.9083667E0,1.4916791E1,1.2947449E1,1.8002302E1,2.6283247E0,1.1875765E0,2.1849325E1,3.6345298E0,1.2013246E1,1.6735206E0,3.147594E1,1.379741E1],"tree_param":{"num_deleted":"0","num_feature":"7","num_nodes":"29","size_leaf_vector":"1"}},{"base_weights":[-7.143077E-3,-1.0278516E-1,2.3956777E-1,-2.1109712E-1,-6.3630277E-3,5.97496E-3,3.0739295E-1,-3.0079564E-1,-1.00561544E-1,-3.378738E-2,2.5135117E-2,-2.6532749E-2,2.0447183E-1,1.9574443E-1,3.391694E-2,-1.2063458E-2,-2.7023802E-2,-1.2664776E-2,1.3420175E-2,4.2273264E-4,-2.5769884E-2,2.045997E-2,-5.6322585E-3,4.1462462E-2,5.028521E-3],"categories":[],"categories_nodes":[],"categories_segments":[],"categories_sizes":[],"default_left":[0,0,0,0,0,0,0,0,0,0,0,0,0,0,0,0,0,0,0,0,0,0,0,0,0],"id":42,"left_children":[1,3,5,7,9,11,13,15,17,19,-1,-1,21,23,-1,-1,-1,-1,-1,-1,-1,-1,-1,-1,-1],"loss_changes":[3.906611E0,1.2441456E0,7.3110557E-1,5.263221E-1,5.7431555E-1,8.3381915E-1,3.833542E-1,1.1827111E-1,4.394711E-1,6.7733335E-1,0E0,0E0,1.2817943E-1,8.315004E-1,0E0,0E0,0E0,0E0,0E0,0E0,0E0,0E0,0E0,0E0,0E0],"parents":[2147483647,0,0,1,1,2,2,3,3,4,4,5,5,6,6,7,7,8,8,9,9,12,12,13,13],"right_children":[2,4,6,8,10,12,14,16,18,20,-1,-1,22,24,-1,-1,-1,-1,-1,-1,-1,-1,-1,-1,-1],"split_conditions":[3.495626E0,1.7168324E0,1E0,1E0,4.5708895E0,4.3667026E0,6.6936755E-1,5.911586E-1,2E0,4.1615357E0,2.5135117E-2,-2.6532749E-2,7.917621E-1,2.7140322E0,3.391694E-2,-1.2063458E-2,-2.7023802E-2,-1.2664776E-2,1.3420175E-2,4.2273264E-4,-2.5769884E-2,2.045997E-2,-5.6322585E-3,4.1462462E-2,5.028521E-3],"split_indices":[0,0,6,6,2,0,3,3,4,2,0,0,3,2,0,0,0,0,0,0,0,0,0,0,0],"split_type":[0,0,0,0,0,0,0,0,0,0,0,0,0,0,0,0,0,0,0,0,0,0,0,0,0],"sum_hessian":[1.6351926E2,1.1825779E2,4.526147E1,5.5134903E1,6.312289E1,1.0429595E1,3.483188E1,2.9486029E1,2.5648872E1,5.8972206E1,4.1506844E0,3.61307E0,6.8165255E0,1.915991E1,1.56719675E1,6.8385253E0,2.2647503E1,2.1443624E1,4.2052484E0,5.279922E1,6.172985E0,5.8034697E0,1.0130558E0,4.744427E0,1.44154825E1],"tree_param":{"num_deleted":"0","num_feature":"7","num_nodes":"25","size_leaf_vector":"1"}},{"base_weights":[2.4675445E-3,-1.8971796E-1,2.2380488E-1,-3.10548E-1,-5.2408323E-2,3.6643863E-1,1.6330235E-1,-3.0345744E-2,-2.1073955E-1,1.18817136E-1,-1.4702202E-1,-1.0055351E-2,4.1409054E-1,-2.8888417E-2,1.8758072E-1,-2.0729419E-2,6.6931085E-3,1.3476402E-2,-2.1400752E-2,-3.1666094E-3,-2.6584132E-2,3.8541935E-2,1.6112037E-2,1.0820699E-2,2.8170137E-2],"categories":[],"categories_nodes":[],"categories_segments":[],"categories_sizes":[],"default_left":[0,0,0,0,0,0,0,0,0,0,0,0,0,0,0,0,0,0,0,0,0,0,0,0,0],"id":43,"left_children":[1,3,5,7,9,11,13,-1,15,17,19,-1,21,-1,23,-1,-1,-1,-1,-1,-1,-1,-1,-1,-1],"loss_changes":[6.972805E0,1.4395113E0,5.9754443E-1,2.3904276E-1,7.0232964E-1,5.6526875E-1,7.7170396E-1,0E0,3.2373482E-1,3.441934E-1,5.377705E-1,0E0,1.9355631E-1,0E0,4.130057E-1,0E0,0E0,0E0,0E0,0E0,0E0,0E0,0E0,0E0,0E0],"parents":[2147483647,0,0,1,1,2,2,3,3,4,4,5,5,6,6,8,8,9,9,10,10,12,12,14,14],"right_children":[2,4,6,8,10,12,14,-1,16,18,20,-1,22,-1,24,-1,-1,-1,-1,-1,-1,-1,-1,-1,-1],"split_conditions":[4.491369E-1,3.9448105E-2,3.0037005E0,1E0,1.8883448E0,1.9952612E0,3.08603E0,-3.0345744E-2,2E0,4.2827153E-1,3.1896022E-1,-1.0055351E-2,2E0,-2.8888417E-2,6.255177E0,-2.0729419E-2,6.6931085E-3,1.3476402E-2,-2.1400752E-2,-3.1666094E-3,-2.6584132E-2,3.8541935E-2,1.6112037E-2,1.0820699E-2,2.8170137E-2],"split_indices":[1,1,2,6,0,0,2,0,4,1,1,0,4,0,0,0,0,0,0,0,0,0,0,0,0],"split_type":[0,0,0,0,0,0,0,0,0,0,0,0,0,0,0,0,0,0,0,0,0,0,0,0,0],"sum_hessian":[1.6192192E2,8.6744865E1,7.517705E1,4.547022E1,4.1274647E1,2.0884827E1,5.4292225E1,2.5262442E1,2.0207777E1,1.4598842E1,2.6675806E1,1.6991334E0,1.9185692E1,1.7884555E0,5.250377E1,1.745871E1,2.749068E0,1.34363985E1,1.1624438E0,1.765292E1,9.022886E0,1.3594434E1,5.5912585E0,4.121904E1,1.128473E1],"tree_param":{"num_deleted":"0","num_feature":"7","num_nodes":"25","size_leaf_vector":"1"}},{"base_weights":[3.7796798E-4,-1.8955204E-1,1.8478778E-1,-3.1061086E-1,-6.669738E-2,1.9660184E-1,-2.8982311E-2,-1.6939706E-1,-3.4962103E-1,-1.8680368E-1,2.2789106E-2,1.1975167E-1,2.8456149E-1,-2.175455E-2,-1.59872E-3,-3.0775955E-2,-1.4678889E-2,-1.8616106E-2,-6.771899E-4,-1.01390965E-2,1.3023782E-2,-8.949689E-3,1.2336537E-2,3.2075968E-2,1.5754474E-2],"categories":[],"categories_nodes":[],"categories_segments":[],"categories_sizes":[],"default_left":[0,0,0,0,0,0,0,0,0,0,0,0,0,0,0,0,0,0,0,0,0,0,0,0,0],"id":44,"left_children":[1,3,5,7,9,11,-1,13,15,17,19,21,23,-1,-1,-1,-1,-1,-1,-1,-1,-1,-1,-1,-1],"loss_changes":[5.647071E0,1.1605747E0,5.999222E-1,1.5965271E-1,4.416385E-1,5.115788E-1,0E0,1.5604174E-1,1.0536623E-1,1.4113826E-1,5.274962E-1,3.7484568E-1,2.9752827E-1,0E0,0E0,0E0,0E0,0E0,0E0,0E0,0E0,0E0,0E0,0E0,0E0],"parents":[2147483647,0,0,1,1,2,2,3,3,4,4,5,5,7,7,8,8,9,9,10,10,11,11,12,12],"right_children":[2,4,6,8,10,12,-1,14,16,18,20,22,24,-1,-1,-1,-1,-1,-1,-1,-1,-1,-1,-1,-1],"split_conditions":[4.1285074E-1,1.8771911E-2,9.3693525E-1,-1.174104E-2,1E0,5.946395E-1,-2.8982311E-2,1E0,6.067161E-3,4E0,1E0,4.252434E-1,1E0,-2.175455E-2,-1.59872E-3,-3.0775955E-2,-1.4678889E-2,-1.8616106E-2,-6.771899E-4,-1.01390965E-2,1.3023782E-2,-8.949689E-3,1.2336537E-2,3.2075968E-2,1.5754474E-2],"split_indices":[1,1,3,1,6,1,0,6,1,4,4,3,4,0,0,0,0,0,0,0,0,0,0,0,0],"split_type":[0,0,0,0,0,0,0,0,0,0,0,0,0,0,0,0,0,0,0,0,0,0,0,0,0],"sum_hessian":[1.5922987E2,7.8427155E1,8.080271E1,3.8732525E1,3.969463E1,7.9721725E1,1.0809885E0,9.540181E0,2.9192345E1,1.6483469E1,2.3211163E1,4.38081E1,3.5913624E1,5.1713424E0,4.368839E0,2.3016882E1,6.1754613E0,1.2867129E1,3.616339E0,1.1269832E1,1.1941332E1,5.3818636E0,3.842624E1,1.3889959E1,2.2023663E1],"tree_param":{"num_deleted":"0","num_feature":"7","num_nodes":"25","size_leaf_vector":"1"}}]},"name":"gbtree"},"learner_model_param":{"base_score":"[2.968316E-9]","boost_from_average":"1","num_class":"0","num_feature":"7","num_target":"1"},"objective":{"lambdarank_param":{"lambdarank_bias_norm":"1","lambdarank_normalization":"1","lambdarank_num_pair_per_sample":"4294967295","lambdarank_pair_method":"topk","lambdarank_score_normalization":"1","lambdarank_unbiased":"0","ndcg_exp_gain":"1"},"name":"rank:ndcg"}},"version":[3,2,0]}