{"learner":{"attributes":{"scikit_learn":"{\"_estimator_type\": \"ranker\"}"},"feature_names":["bm25_score","dense_score","price_log","quality","first_observed_age","zero_history","sparse_history"],"feature_types":["float","float","float","float","int","int","int"],"gradient_booster":{"model":{"cats":{"enc":[],"feature_segments":[],"sorted_idx":[]},"gbtree_model_param":{"num_parallel_tree":"1","num_trees":"45"},"iteration_indptr":[0,1,2,3,4,5,6,7,8,9,10,11,12,13,14,15,16,17,18,19,20,21,22,23,24,25,26,27,28,29,30,31,32,33,34,35,36,37,38,39,40,41,42,43,44,45],"tree_info":[0,0,0,0,0,0,0,0,0,0,0,0,0,0,0,0,0,0,0,0,0,0,0,0,0,0,0,0,0,0,0,0,0,0,0,0,0,0,0,0,0,0,0,0,0],"trees":[{"base_weights":[-1.0285397E-2,-8.0610967E-1,7.991233E-1,-4.079044E-1,-8.4737164E-1,1.6770668E-1,8.499808E-1,-4.8396647E-2,2.1715693E-1,-8.69706E-1,-3.4248033E-1,2.0413032E-1,2.2085898E-3,5.8761275E-1,7.229667E-2,3.6251016E-2,-9.423288E-3,-3.0840913E-2,-7.06564E-2,-3.8969267E-2,7.0483773E-3,1.9895406E-2,3.5204876E-3,5.1165137E-2,4.9603195E-3],"categories":[],"categories_nodes":[],"categories_segments":[],"categories_sizes":[],"default_left":[0,0,0,0,0,0,0,0,0,0,0,0,0,0,0,0,0,0,0,0,0,0,0,0,0],"id":0,"left_children":[1,3,5,7,9,11,13,-1,15,17,19,21,-1,23,-1,-1,-1,-1,-1,-1,-1,-1,-1,-1,-1],"loss_changes":[1.0929559E2,1.0599823E0,2.5589256E0,1.3582046E0,5.657921E-1,3.272137E-2,5.6297684E-1,0E0,3.0024415E-1,1.34655E-1,3.4770775E-1,3.0508041E-2,0E0,3.9861965E-1,0E0,0E0,0E0,0E0,0E0,0E0,0E0,0E0,0E0,0E0,0E0],"parents":[2147483647,0,0,1,1,2,2,3,3,4,4,5,5,6,6,8,8,9,9,10,10,11,11,13,13],"right_children":[2,4,6,8,10,12,14,-1,16,18,20,22,-1,24,-1,-1,-1,-1,-1,-1,-1,-1,-1,-1,-1],"split_conditions":[4.4942964E-2,-1.0563027E-2,1.692245E-1,1E0,2.0648994E-2,7.103997E-1,3.9845857E-1,-4.8396647E-2,2.4706388E0,4.158704E-1,1E0,3.7794056E0,2.2085898E-3,8.934049E-1,7.229667E-2,3.6251016E-2,-9.423288E-3,-3.0840913E-2,-7.06564E-2,-3.8969267E-2,7.0483773E-3,1.9895406E-2,3.5204876E-3,5.1165137E-2,4.9603195E-3],"split_indices":[1,1,1,5,1,3,1,0,2,3,6,2,0,3,0,0,0,0,0,0,0,0,0,0,0],"split_type":[0,0,0,0,0,0,0,0,0,0,0,0,0,0,0,0,0,0,0,0,0,0,0,0,0],"sum_hessian":[1.6767485E2,8.454896E1,8.3125885E1,8.960437E0,7.5588524E1,6.516642E0,7.6609245E1,6.837152E0,2.123285E0,7.169448E1,3.8940406E0,4.809267E0,1.7073748E0,1.505042E1,6.1558826E1,1.0386591E0,1.084626E0,2.7462926E0,6.894819E1,2.8166325E0,1.0774082E0,3.32954E0,1.4797271E0,1.3499331E1,1.5510876E0],"tree_param":{"num_deleted":"0","num_feature":"7","num_nodes":"25","size_leaf_vector":"1"}},{"base_weights":[8.410425E-4,-6.1769617E-1,4.8504603E-1,-8.0879253E-1,-1.9972695E-1,3.328388E-1,6.586168E-1,-4.2467117E-2,-8.254828E-1,7.587658E-2,-3.17058E-1,4.0742978E-1,-1.7476942E-1,7.926982E-1,5.433767E-1,-1.8315269E-2,1.5366942E-2,-1.3957645E-2,-6.746524E-2,-1.3331597E-2,3.6452338E-2,-3.323427E-2,6.8693827E-3,1.4615618E-2,4.0385924E-2,9.321978E-3,-5.534254E-2,9.315556E-3,6.506287E-2,3.0381894E-2,6.755343E-2],"categories":[],"categories_nodes":[],"categories_segments":[],"categories_sizes":[],"default_left":[0,0,0,0,0,0,0,0,0,0,0,0,0,0,0,0,0,0,0,0,0,0,0,0,0,0,0,0,0,0,0],"id":1,"left_children":[1,3,5,7,9,11,13,15,17,19,21,23,25,27,29,-1,-1,-1,-1,-1,-1,-1,-1,-1,-1,-1,-1,-1,-1,-1,-1],"loss_changes":[1.0634558E2,1.2291576E1,5.0424843E0,1.3292313E0,1.6488552E0,4.165512E0,9.9128723E-1,1.8953153E-1,1.0641632E0,1.5321432E0,1.4401932E0,1.9779415E0,2.2724757E0,4.6718788E-1,2.2734852E0,0E0,0E0,0E0,0E0,0E0,0E0,0E0,0E0,0E0,0E0,0E0,0E0,0E0,0E0,0E0,0E0],"parents":[2147483647,0,0,1,1,2,2,3,3,4,4,5,5,6,6,7,7,8,8,9,9,10,10,11,11,12,12,13,13,14,14],"right_children":[2,4,6,8,10,12,14,16,18,20,22,24,26,28,30,-1,-1,-1,-1,-1,-1,-1,-1,-1,-1,-1,-1,-1,-1,-1,-1],"split_conditions":[3.4794307E-1,2.0648994E-2,5.5786693E-1,3.536271E-1,1.6792985E0,2.5134766E0,6.900194E-1,3.4028625E0,-3.166532E-2,7.853591E-2,2.185976E0,3.3152764E0,3.9045954E0,2.2356977E0,5.959085E0,-1.8315269E-2,1.5366942E-2,-1.3957645E-2,-6.746524E-2,-1.3331597E-2,3.6452338E-2,-3.323427E-2,6.8693827E-3,1.4615618E-2,4.0385924E-2,9.321978E-3,-5.534254E-2,9.315556E-3,6.506287E-2,3.0381894E-2,6.755343E-2],"split_indices":[1,1,1,3,0,0,1,2,1,1,0,2,2,0,0,0,0,0,0,0,0,0,0,0,0,0,0,0,0,0,0],"split_type":[0,0,0,0,0,0,0,0,0,0,0,0,0,0,0,0,0,0,0,0,0,0,0,0,0,0,0,0,0,0,0],"sum_hessian":[3.5307812E2,1.5491263E2,1.9816548E2,1.05666595E2,4.924603E1,1.0713474E2,9.103074E1,2.3278742E0,1.0333872E2,1.4810461E1,3.443557E1,9.358078E1,1.3553966E1,3.935854E1,5.16722E1,1.3101871E0,1.0176871E0,3.0427222E0,1.00296E2,9.3810425E0,5.429419E0,2.7653257E1,6.782312E0,2.9163244E1,6.4417534E1,9.164908E0,4.3890567E0,1.3594713E0,3.799907E1,3.494346E1,1.672874E1],"tree_param":{"num_deleted":"0","num_feature":"7","num_nodes":"31","size_leaf_vector":"1"}},{"base_weights":[3.5611757E-3,-7.5599545E-1,3.7617567E-1,-2.0567909E-1,-7.770301E-1,-3.530307E-2,5.417025E-1,-3.6590645E-1,1.7727064E-2,-2.0275919E-1,-7.958341E-1,3.3823082E-1,-1.3199365E-1,5.6616545E-1,7.665962E-2,-3.6725926E-3,-4.070863E-2,-3.2118857E-2,1.5646586E-2,-6.434049E-2,-2.847429E-2,-5.3248303E-3,3.4910824E-2,-4.2467816E-3,-5.282162E-2,4.163834E-2,6.376199E-2,4.4338692E-2,-1.6302252E-2],"categories":[],"categories_nodes":[],"categories_segments":[],"categories_sizes":[],"default_left":[0,0,0,0,0,0,0,0,0,0,0,0,0,0,0,0,0,0,0,0,0,0,0,0,0,0,0,0,0],"id":2,"left_children":[1,3,5,7,9,11,13,15,-1,17,19,21,23,25,27,-1,-1,-1,-1,-1,-1,-1,-1,-1,-1,-1,-1,-1,-1],"loss_changes":[9.4063774E1,1.1063881E0,1.5205496E1,4.498778E-1,9.724579E-1,2.388705E0,1.7661629E0,1.7311233E-1,0E0,4.4827926E-1,8.9149475E-2,5.7044184E-1,2.144084E0,1.1773338E0,1.3324783E0,0E0,0E0,0E0,0E0,0E0,0E0,0E0,0E0,0E0,0E0,0E0,0E0,0E0,0E0],"parents":[2147483647,0,0,1,1,2,2,3,3,4,4,5,5,6,6,7,7,9,9,10,10,11,11,12,12,13,13,14,14],"right_children":[2,4,6,8,10,12,14,16,-1,18,20,22,24,26,28,-1,-1,-1,-1,-1,-1,-1,-1,-1,-1,-1,-1,-1,-1],"split_conditions":[4.4942964E-2,4.158704E-1,4.555608E-1,1.19859185E-2,-3.166532E-2,1.7179172E0,4.5593357E0,-1.6728322E-3,1.7727064E-2,1E0,3.0902203E-2,7.853591E-2,8.63815E-1,5.9054394E0,4.916568E-1,-3.6725926E-3,-4.070863E-2,-3.2118857E-2,1.5646586E-2,-6.434049E-2,-2.847429E-2,-5.3248303E-3,3.4910824E-2,-4.2467816E-3,-5.282162E-2,4.163834E-2,6.376199E-2,4.4338692E-2,-1.6302252E-2],"split_indices":[1,3,1,1,1,0,2,1,0,5,1,1,3,0,3,0,0,0,0,0,0,0,0,0,0,0,0,0,0],"split_type":[0,0,0,0,0,0,0,0,0,0,0,0,0,0,0,0,0,0,0,0,0,0,0,0,0,0,0,0,0],"sum_hessian":[3.303504E2,1.0838464E2,2.2196576E2,4.387053E0,1.0399759E2,6.3901485E1,1.5806427E2,3.295018E0,1.0920353E0,3.6709306E0,1.0032666E2,1.2626165E1,5.1275322E1,1.4995847E2,8.105797E0,1.4253931E0,1.8696247E0,2.4438417E0,1.2270889E0,9.7629295E1,2.6973646E0,2.5269308E0,1.0099235E1,4.556913E1,5.7061925E0,1.2790175E2,2.2056725E1,2.6376579E0,5.468139E0],"tree_param":{"num_deleted":"0","num_feature":"7","num_nodes":"29","size_leaf_vector":"1"}},{"base_weights":[2.111956E-3,-7.0955E-1,3.4827366E-1,-2.9942775E-1,-7.350569E-1,-2.6088715E-2,4.7948816E-1,-3.8981205E-1,1.1188175E-2,-2.925103E-1,-7.4778855E-1,3.503915E-1,-1.0924247E-1,4.4799063E-1,6.456226E-2,8.226617E-3,-4.0370233E-2,2.4679613E-3,-3.3741925E-2,-6.1589133E-2,-3.4381967E-2,3.3406023E-2,-5.2681016E-3,-2.7101034E-2,1.3706234E-4,4.124226E-2,2.8858058E-2],"categories":[],"categories_nodes":[],"categories_segments":[],"categories_sizes":[],"default_left":[0,0,0,0,0,0,0,0,0,0,0,0,0,0,0,0,0,0,0,0,0,0,0,0,0,0,0],"id":3,"left_children":[1,3,5,7,9,11,13,15,-1,17,19,21,23,25,-1,-1,-1,-1,-1,-1,-1,-1,-1,-1,-1,-1,-1],"loss_changes":[7.8513374E1,8.709221E-1,1.0544664E1,3.6396724E-1,3.30616E-1,1.8100226E0,1.2768974E0,4.32451E-1,0E0,1.9563219E-1,3.299675E-1,3.2046854E-1,1.2005283E0,6.811676E-1,0E0,0E0,0E0,0E0,0E0,0E0,0E0,0E0,0E0,0E0,0E0,0E0,0E0],"parents":[2147483647,0,0,1,1,2,2,3,3,4,4,5,5,6,6,7,7,9,9,10,10,11,11,12,12,13,13],"right_children":[2,4,6,8,10,12,14,16,-1,18,20,22,24,26,-1,-1,-1,-1,-1,-1,-1,-1,-1,-1,-1,-1,-1],"split_conditions":[7.853591E-2,4.39744E-1,4.6068996E-1,4.2520604E0,-3.166532E-2,1.7179172E0,6.2512703E0,-4.7846977E-3,1.1188175E-2,3.016025E0,2.0648994E-2,7.047839E-1,2.7798346E-1,6.3346356E-1,6.456226E-2,8.226617E-3,-4.0370233E-2,2.4679613E-3,-3.3741925E-2,-6.1589133E-2,-3.4381967E-2,3.3406023E-2,-5.2681016E-3,-2.7101034E-2,1.3706234E-4,4.124226E-2,2.8858058E-2],"split_indices":[1,3,1,2,1,0,0,1,0,2,1,3,1,3,0,0,0,0,0,0,0,0,0,0,0,0,0],"split_type":[0,0,0,0,0,0,0,0,0,0,0,0,0,0,0,0,0,0,0,0,0,0,0,0,0,0,0],"sum_hessian":[3.1670334E2,1.0329432E2,2.1340903E2,6.7939534E0,9.650037E1,5.5594887E1,1.5781415E2,5.7279973E0,1.065956E0,3.3690512E0,9.313132E1,9.476422E0,4.6118465E1,1.4612949E2,1.1684648E1,1.1023731E0,4.625624E0,1.1795903E0,2.1894608E0,8.575742E1,7.3738937E0,8.156689E0,1.3197343E0,1.4360185E1,3.1758278E1,7.9609245E1,6.652025E1],"tree_param":{"num_deleted":"0","num_feature":"7","num_nodes":"27","size_leaf_vector":"1"}},{"base_weights":[-3.3426727E-3,-6.3093585E-1,3.7045544E-1,-6.9984627E-1,-1.9142884E-1,-2.1786692E-2,4.6660492E-1,-1.7066662E-1,-7.2124547E-1,6.687736E-2,-3.6651585E-2,-2.5831458E-1,4.919112E-2,3.3805248E-1,5.6157917E-1,1.9240048E-2,-2.8968101E-2,1.2986348E-3,-5.844503E-2,-1.2926249E-2,1.6507331E-2,2.5790571E-3,-3.9296176E-2,3.1597953E-2,-8.508647E-4,3.6247607E-2,2.7808733E-3,5.152814E-2,3.593001E-2],"categories":[],"categories_nodes":[],"categories_segments":[],"categories_sizes":[],"default_left":[0,0,0,0,0,0,0,0,0,0,0,0,0,0,0,0,0,0,0,0,0,0,0,0,0,0,0,0,0],"id":4,"left_children":[1,3,5,7,9,11,13,15,17,19,-1,21,23,25,27,-1,-1,-1,-1,-1,-1,-1,-1,-1,-1,-1,-1,-1,-1],"loss_changes":[7.0896645E1,3.2825775E0,7.153469E0,9.769287E-1,1.1788533E0,6.547561E-1,1.6679459E0,4.8737472E-1,6.5127945E-1,3.309015E-1,0E0,6.239763E-1,6.301247E-1,2.3277411E0,5.0878334E-1,0E0,0E0,0E0,0E0,0E0,0E0,0E0,0E0,0E0,0E0,0E0,0E0,0E0,0E0],"parents":[2147483647,0,0,1,1,2,2,3,3,4,4,5,5,6,6,7,7,8,8,9,9,11,11,12,12,13,13,14,14],"right_children":[2,4,6,8,10,12,14,16,18,20,-1,22,24,26,28,-1,-1,-1,-1,-1,-1,-1,-1,-1,-1,-1,-1,-1,-1],"split_conditions":[1.6206339E-1,2.7891822E-2,4.6068996E-1,-3.166532E-2,6.4027345E-1,3.0740812E0,5.5786693E-1,1E0,3.2542968E-1,1E0,-3.6651585E-2,6.625196E-1,3.177637E0,5.152139E-1,6.900194E-1,1.9240048E-2,-2.8968101E-2,1.2986348E-3,-5.844503E-2,-1.2926249E-2,1.6507331E-2,2.5790571E-3,-3.9296176E-2,3.1597953E-2,-8.508647E-4,3.6247607E-2,2.7808733E-3,5.152814E-2,3.593001E-2],"split_indices":[1,1,1,1,3,2,1,4,3,6,0,3,2,1,1,0,0,0,0,0,0,0,0,0,0,0,0,0,0],"split_type":[0,0,0,0,0,0,0,0,0,0,0,0,0,0,0,0,0,0,0,0,0,0,0,0,0,0,0,0,0],"sum_hessian":[3.0021475E2,1.11807014E2,1.8840773E2,9.614073E1,1.5666286E1,3.7244015E1,1.5116371E2,4.085512E0,9.2055214E1,8.339243E0,7.327043E0,7.98737E0,2.9256643E1,6.61652E1,8.499851E1,1.2164629E0,2.8690495E0,1.1392716E0,9.091595E1,3.100983E0,5.2382607E0,3.937046E0,4.050324E0,3.4890335E0,2.576761E1,4.7611565E1,1.8553637E1,4.6296703E1,3.870181E1],"tree_param":{"num_deleted":"0","num_feature":"7","num_nodes":"29","size_leaf_vector":"1"}},{"base_weights":[7.8031695E-3,-5.591892E-1,3.8417536E-1,-6.708086E-1,-1.5306161E-1,1.4794127E-2,4.456121E-1,-1.6293089E-1,-6.939234E-1,4.8316438E-2,-3.468248E-1,-6.857162E-2,3.826229E-1,3.9916968E-1,5.627546E-2,2.4167452E-2,-3.2537084E-2,-1.1399784E-3,-5.6270167E-2,-1.2903293E-2,3.0721564E-2,-3.265606E-2,-1.3705349E-3,-7.967265E-4,-3.8489506E-2,3.7251417E-2,5.537219E-3,2.5857206E-2,3.7367787E-2],"categories":[],"categories_nodes":[],"categories_segments":[],"categories_sizes":[],"default_left":[0,0,0,0,0,0,0,0,0,0,0,0,0,0,0,0,0,0,0,0,0,0,0,0,0,0,0,0,0],"id":5,"left_children":[1,3,5,7,9,11,13,15,17,19,21,23,25,27,-1,-1,-1,-1,-1,-1,-1,-1,-1,-1,-1,-1,-1,-1,-1],"loss_changes":[6.363964E1,5.291111E0,4.0606823E0,9.791527E-1,1.0682267E0,8.4168833E-1,1.558857E0,7.3014927E-1,5.5979156E-1,1.0535115E0,2.7337635E-1,5.399307E-1,9.9568665E-2,5.326252E-1,0E0,0E0,0E0,0E0,0E0,0E0,0E0,0E0,0E0,0E0,0E0,0E0,0E0,0E0,0E0],"parents":[2147483647,0,0,1,1,2,2,3,3,4,4,5,5,6,6,7,7,8,8,9,9,10,10,11,11,12,12,13,13],"right_children":[2,4,6,8,10,12,14,16,18,20,22,24,26,28,-1,-1,-1,-1,-1,-1,-1,-1,-1,-1,-1,-1,-1,-1,-1],"split_conditions":[2.7798346E-1,2.7891822E-2,4.6068996E-1,-3.166532E-2,1.7179172E0,2.2442389E0,5.882648E0,1E0,3.2542968E-1,1.4049147E-1,2.0984883E0,8.412858E-1,2E0,5.5786693E-1,5.627546E-2,2.4167452E-2,-3.2537084E-2,-1.1399784E-3,-5.6270167E-2,-1.2903293E-2,3.0721564E-2,-3.265606E-2,-1.3705349E-3,-7.967265E-4,-3.8489506E-2,3.7251417E-2,5.537219E-3,2.5857206E-2,3.7367787E-2],"split_indices":[1,1,1,1,0,0,0,4,3,1,0,3,4,1,0,0,0,0,0,0,0,0,0,0,0,0,0,0,0],"split_type":[0,0,0,0,0,0,0,0,0,0,0,0,0,0,0,0,0,0,0,0,0,0,0,0,0,0,0,0,0],"sum_hessian":[2.9621072E2,1.1798478E2,1.7822594E2,9.2037605E1,2.5947172E1,2.5592838E1,1.526331E2,4.3568993E0,8.768071E1,1.3091657E1,1.2855515E1,2.152739E1,4.0654507E0,1.3149538E2,2.113772E1,1.4162197E0,2.9406796E0,1.2372344E0,8.6443474E1,8.3793E0,4.712357E0,1.0637167E1,2.2183475E0,1.9746107E1,1.7812824E0,2.8300467E0,1.2354039E0,6.479825E1,6.6697136E1],"tree_param":{"num_deleted":"0","num_feature":"7","num_nodes":"29","size_leaf_vector":"1"}},{"base_weights":[4.2948513E-3,-6.3311493E-1,3.1228104E-1,-1.9462112E-1,-6.60402E-1,-8.8597005E-3,4.0820092E-1,-3.0087936E-1,1.2456562E-2,-4.0537223E-1,-6.895855E-1,2.8731582E-1,-1.12066396E-1,3.645562E-1,5.447975E-2,4.119673E-3,-4.1944716E-2,-3.809155E-2,-2.933202E-3,-5.6642883E-2,-3.249332E-2,1.7757881E-4,3.4400787E-2,-1.49115035E-2,2.4231348E-2,-2.6953416E-3,3.018967E-2],"categories":[],"categories_nodes":[],"categories_segments":[],"categories_sizes":[],"default_left":[0,0,0,0,0,0,0,0,0,0,0,0,0,0,0,0,0,0,0,0,0,0,0,0,0,0,0],"id":6,"left_children":[1,3,5,7,9,11,13,15,-1,17,19,21,23,25,-1,-1,-1,-1,-1,-1,-1,-1,-1,-1,-1,-1,-1],"loss_changes":[5.6237286E1,9.881363E-1,5.9528694E0,3.0315214E-1,3.7125015E-1,1.4198822E0,1.5226059E0,4.6977347E-1,0E0,2.8014326E-1,1.1526108E-1,4.87715E-1,1.1170039E0,6.7807007E-1,0E0,0E0,0E0,0E0,0E0,0E0,0E0,0E0,0E0,0E0,0E0,0E0,0E0],"parents":[2147483647,0,0,1,1,2,2,3,3,4,4,5,5,6,6,7,7,9,9,10,10,11,11,12,12,13,13],"right_children":[2,4,6,8,10,12,14,16,-1,18,20,22,24,26,-1,-1,-1,-1,-1,-1,-1,-1,-1,-1,-1,-1,-1],"split_conditions":[4.4942964E-2,4.39744E-1,4.6068996E-1,1.19859185E-2,-1.170011E-2,1.7179172E0,5.9054394E0,-1.6728322E-3,1.2456562E-2,1E0,1.9262861E-2,1.4049147E-1,2.2442389E0,1.8548869E0,5.447975E-2,4.119673E-3,-4.1944716E-2,-3.809155E-2,-2.933202E-3,-5.6642883E-2,-3.249332E-2,1.7757881E-4,3.4400787E-2,-1.49115035E-2,2.4231348E-2,-2.6953416E-3,3.018967E-2],"split_indices":[1,3,1,1,1,0,0,1,0,5,1,1,0,0,0,0,0,0,0,0,0,0,0,0,0,0,0],"split_type":[0,0,0,0,0,0,0,0,0,0,0,0,0,0,0,0,0,0,0,0,0,0,0,0,0,0,0],"sum_hessian":[2.8445975E2,9.232591E1,1.9213383E2,5.885195E0,8.644072E1,4.4397663E1,1.4773618E2,4.6238747E0,1.26132E0,1.040487E1,7.603585E1,1.1012075E1,3.3385586E1,1.2937395E2,1.8362228E1,2.0927997E0,2.531075E0,8.484842E0,1.9200273E0,6.9981834E1,6.054013E0,4.0119476E0,7.000128E0,2.878112E1,4.604467E0,3.9823902E0,1.25391556E2],"tree_param":{"num_deleted":"0","num_feature":"7","num_nodes":"27","size_leaf_vector":"1"}},{"base_weights":[2.54282E-3,-6.2560445E-1,2.9392263E-1,-6.4624816E-1,-2.3902659E-1,-2.785681E-2,3.8760495E-1,-4.4474328E-1,-5.3316467E-2,-3.254684E-2,6.1510736E-3,2.88747E-1,-1.3618799E-1,3.5237423E-1,5.0556783E-2,-3.84855E-2,-4.413518E-3,3.1699436E-3,3.0456059E-2,-1.6339818E-2,2.0202458E-2,3.1336017E-2,1.5976464E-2],"categories":[],"categories_nodes":[],"categories_segments":[],"categories_sizes":[],"default_left":[0,0,0,0,0,0,0,0,0,0,0,0,0,0,0,0,0,0,0,0,0,0,0],"id":7,"left_children":[1,3,5,7,9,11,13,15,-1,-1,-1,17,19,21,-1,-1,-1,-1,-1,-1,-1,-1,-1],"loss_changes":[5.1938778E1,5.631523E-1,5.8542633E0,4.8812866E-2,3.570767E-1,1.5704917E0,1.0703716E0,1.2534642E-1,0E0,0E0,0E0,2.5297236E-1,9.495354E-1,7.234993E-1,0E0,0E0,0E0,0E0,0E0,0E0,0E0,0E0,0E0],"parents":[2147483647,0,0,1,1,2,2,3,3,4,4,5,5,6,6,7,7,11,11,12,12,13,13],"right_children":[2,4,6,8,10,12,14,16,-1,-1,-1,18,20,22,-1,-1,-1,-1,-1,-1,-1,-1,-1],"split_conditions":[5.591571E-2,2.7891822E-2,4.6068996E-1,-1.170011E-2,3.7539647E0,1.7179172E0,5.9054394E0,-1.2323388E-2,-5.3316467E-2,-3.254684E-2,6.1510736E-3,1.4049147E-1,2.2442389E0,6.900194E-1,5.0556783E-2,-3.84855E-2,-4.413518E-3,3.1699436E-3,3.0456059E-2,-1.6339818E-2,2.0202458E-2,3.1336017E-2,1.5976464E-2],"split_indices":[1,1,1,1,2,0,0,1,0,0,0,1,0,1,0,0,0,0,0,0,0,0,0],"split_type":[0,0,0,0,0,0,0,0,0,0,0,0,0,0,0,0,0,0,0,0,0,0,0],"sum_hessian":[2.817682E2,8.892325E1,1.9284494E2,8.37777E1,5.1455426E0,4.3642982E1,1.4920195E2,9.732902E0,7.40448E1,3.1725404E0,1.9730021E0,1.070159E1,3.294139E1,1.3253526E2,1.666669E1,8.687944E0,1.0449568E0,3.270907E0,7.4306827E0,2.8436995E1,4.5043974E0,1.0414322E2,2.8392044E1],"tree_param":{"num_deleted":"0","num_feature":"7","num_nodes":"23","size_leaf_vector":"1"}},{"base_weights":[-1.216627E-2,-6.0475034E-1,2.6034936E-1,-1.1527886E-1,-6.214028E-1,-1.4999153E-2,3.5552013E-1,2.1320892E-2,-2.9140262E-2,-5.13726E-2,-2.394615E-1,2.7110982E-1,-8.26901E-2,3.1739417E-1,4.859417E-2,-2.9777918E-2,4.3832124E-3,1.6104255E-3,2.9679367E-2,-1.2052983E-2,2.302345E-2,3.089086E-2,1.2046688E-2],"categories":[],"categories_nodes":[],"categories_segments":[],"categories_sizes":[],"default_left":[0,0,0,0,0,0,0,0,0,0,0,0,0,0,0,0,0,0,0,0,0,0,0],"id":8,"left_children":[1,3,5,7,9,11,13,-1,-1,-1,15,17,19,21,-1,-1,-1,-1,-1,-1,-1,-1,-1],"loss_changes":[4.4044857E1,6.2861824E-1,4.9019527E0,4.8247266E-1,5.030384E-1,9.705345E-1,1.1412506E0,0E0,0E0,0E0,2.4951413E-1,2.3319137E-1,1.0596058E0,1.3492603E0,0E0,0E0,0E0,0E0,0E0,0E0,0E0,0E0,0E0],"parents":[2147483647,0,0,1,1,2,2,3,3,4,4,5,5,6,6,10,10,11,11,12,12,13,13],"right_children":[2,4,6,8,10,12,14,-1,-1,-1,16,18,20,22,-1,-1,-1,-1,-1,-1,-1,-1,-1],"split_conditions":[5.591571E-2,-3.5033144E-2,4.7057873E-1,1E0,2.7891822E-2,1.6792985E0,5.9054394E0,2.1320892E-2,-2.9140262E-2,-5.13726E-2,1E0,1.2815872E-1,2.2442389E0,6.356527E-1,4.859417E-2,-2.9777918E-2,4.3832124E-3,1.6104255E-3,2.9679367E-2,-1.2052983E-2,2.302345E-2,3.089086E-2,1.2046688E-2],"split_indices":[1,1,1,4,1,0,0,0,0,0,6,1,0,1,0,0,0,0,0,0,0,0,0],"split_type":[0,0,0,0,0,0,0,0,0,0,0,0,0,0,0,0,0,0,0,0,0,0,0],"sum_hessian":[2.7076816E2,8.491082E1,1.8585735E2,3.054403E0,8.1856415E1,4.7955284E1,1.3790205E2,1.1778271E0,1.876576E0,7.699141E1,4.8650074E0,8.600114E0,3.935517E1,1.21737175E2,1.6164885E1,3.1698346E0,1.6951727E0,2.7903051E0,5.8098087E0,3.3755432E1,5.5997386E0,8.52793E1,3.645788E1],"tree_param":{"num_deleted":"0","num_feature":"7","num_nodes":"23","size_leaf_vector":"1"}},{"base_weights":[-9.496714E-4,-5.801306E-1,2.589458E-1,-1.27805E-1,-6.1090964E-1,-4.604105E-2,3.4619927E-1,-2.6647046E-1,1.6703127E-2,-5.798558E-3,-6.237674E-1,-1.5376954E-1,3.8631137E-2,3.9125916E-1,1.9447176E-1,7.0564896E-3,-3.6108006E-2,-5.1242474E-2,-2.938301E-2,1.8068895E-2,-1.5141706E-2,-3.8379203E-3,2.3895526E-2,-2.0095779E-2,3.237657E-2,-9.9107195E-3,2.3620496E-2],"categories":[],"categories_nodes":[],"categories_segments":[],"categories_sizes":[],"default_left":[0,0,0,0,0,0,0,0,0,0,0,0,0,0,0,0,0,0,0,0,0,0,0,0,0,0,0],"id":9,"left_children":[1,3,5,7,9,11,13,15,-1,-1,17,19,21,23,25,-1,-1,-1,-1,-1,-1,-1,-1,-1,-1,-1,-1],"loss_changes":[4.093931E1,1.0947399E0,5.011797E0,3.6515942E-1,4.9899483E-1,3.949237E-1,9.227104E-1,3.7659407E-1,0E0,0E0,9.427261E-2,2.983881E-1,5.701115E-1,1.0662975E0,1.1736759E0,0E0,0E0,0E0,0E0,0E0,0E0,0E0,0E0,0E0,0E0,0E0,0E0],"parents":[2147483647,0,0,1,1,2,2,3,3,4,4,5,5,6,6,7,7,10,10,11,11,12,12,13,13,14,14],"right_children":[2,4,6,8,10,12,14,16,-1,-1,18,20,22,24,26,-1,-1,-1,-1,-1,-1,-1,-1,-1,-1,-1,-1],"split_conditions":[5.591571E-2,4.39744E-1,4.6068996E-1,1.19859185E-2,-4.147159E-2,1E0,6.7058897E-1,-3.0504405E-3,1.6703127E-2,-5.798558E-3,1.9262861E-2,2.4740143E0,2E0,2.4300983E0,3.075929E0,7.0564896E-3,-3.6108006E-2,-5.1242474E-2,-2.938301E-2,1.8068895E-2,-1.5141706E-2,-3.8379203E-3,2.3895526E-2,-2.0095779E-2,3.237657E-2,-9.9107195E-3,2.3620496E-2],"split_indices":[1,3,1,1,1,6,3,1,0,0,1,2,4,2,2,0,0,0,0,0,0,0,0,0,0,0,0],"split_type":[0,0,0,0,0,0,0,0,0,0,0,0,0,0,0,0,0,0,0,0,0,0,0,0,0,0,0],"sum_hessian":[2.699761E2,8.324074E1,1.8673538E2,5.631604E0,7.760913E1,4.1644173E1,1.4509122E2,4.136031E0,1.4955732E0,1.964897E0,7.564423E1,1.7967741E1,2.367643E1,1.10651375E2,3.443984E1,1.5963886E0,2.5396426E0,6.9597916E1,6.04632E0,1.0780356E0,1.6889706E1,1.837334E1,5.303089E0,1.9061959E0,1.0874518E2,8.226126E0,2.621371E1],"tree_param":{"num_deleted":"0","num_feature":"7","num_nodes":"27","size_leaf_vector":"1"}},{"base_weights":[1.3759382E-2,-5.677193E-1,2.6398906E-1,-1.16353735E-1,-5.993782E-1,-7.0831574E-2,3.5115194E-1,-2.3400036E-1,1.4896382E-2,-9.36679E-3,-6.110743E-1,2.0723043E-1,-1.721932E-1,3.163871E-1,5.812523E-1,1.0707572E-2,-2.8785214E-2,-5.0211743E-2,-2.5568768E-2,-2.0178934E-3,2.7087543E-2,-1.9570133E-2,1.646268E-2,-5.1762303E-3,2.686363E-2,4.9125575E-2,2.25119E-2],"categories":[],"categories_nodes":[],"categories_segments":[],"categories_sizes":[],"default_left":[0,0,0,0,0,0,0,0,0,0,0,0,0,0,0,0,0,0,0,0,0,0,0,0,0,0,0],"id":10,"left_children":[1,3,5,7,9,11,13,15,-1,-1,17,19,21,23,25,-1,-1,-1,-1,-1,-1,-1,-1,-1,-1,-1,-1],"loss_changes":[3.9130863E1,1.0865841E0,5.51101E0,2.7652788E-1,3.536415E-1,1.1535329E0,1.0105972E0,2.867544E-1,0E0,0E0,1.5371323E-1,3.459404E-1,8.610669E-1,9.974394E-1,8.313656E-3,0E0,0E0,0E0,0E0,0E0,0E0,0E0,0E0,0E0,0E0,0E0,0E0],"parents":[2147483647,0,0,1,1,2,2,3,3,4,4,5,5,6,6,7,7,10,10,11,11,12,12,13,13,14,14],"right_children":[2,4,6,8,10,12,14,16,-1,-1,18,20,22,24,26,-1,-1,-1,-1,-1,-1,-1,-1,-1,-1,-1,-1],"split_conditions":[4.4942964E-2,4.39744E-1,4.534301E-1,1.19859185E-2,-4.147159E-2,1.7179172E0,5.882648E0,-6.0905647E-3,1.4896382E-2,-9.36679E-3,2.0648994E-2,1.4049147E-1,2.2442389E0,3.2542968E-1,6.411147E-1,1.0707572E-2,-2.8785214E-2,-5.0211743E-2,-2.5568768E-2,-2.0178934E-3,2.7087543E-2,-1.9570133E-2,1.646268E-2,-5.1762303E-3,2.686363E-2,4.9125575E-2,2.25119E-2],"split_indices":[1,3,1,1,1,0,0,1,0,0,1,1,0,3,3,0,0,0,0,0,0,0,0,0,0,0,0],"split_type":[0,0,0,0,0,0,0,0,0,0,0,0,0,0,0,0,0,0,0,0,0,0,0,0,0,0,0],"sum_hessian":[2.6690466E2,7.9919815E1,1.8698485E2,5.544627E0,7.437519E1,3.8661396E1,1.4832346E2,4.1554284E0,1.3891989E0,2.021666E0,7.235352E1,1.0049224E1,2.8612171E1,1.3091853E2,1.7404928E1,1.0427922E0,3.112636E0,6.736953E1,4.9839993E0,3.9202163E0,6.129008E0,2.4306921E1,4.30525E0,6.231277E0,1.2468725E2,1.4743436E1,2.6614923E0],"tree_param":{"num_deleted":"0","num_feature":"7","num_nodes":"27","size_leaf_vector":"1"}},{"base_weights":[-1.7374892E-2,-5.8365333E-1,2.078672E-1,-1.256405E-1,-5.9492844E-1,-6.2401846E-2,2.9656562E-1,5.3297584E-3,-2.055791E-2,-2.11099E-1,-4.8543446E-2,1.21567376E-1,-1.4473924E-1,2.5181597E-1,4.582556E-2,-3.8877483E-3,-2.1219188E-2,-8.252934E-3,2.639791E-2,-1.6636299E-2,1.5294095E-2,2.3804963E-2,7.095067E-3],"categories":[],"categories_nodes":[],"categories_segments":[],"categories_sizes":[],"default_left":[0,0,0,0,0,0,0,0,0,0,0,0,0,0,0,0,0,0,0,0,0,0,0],"id":11,"left_children":[1,3,5,7,9,11,13,-1,-1,15,-1,17,19,21,-1,-1,-1,-1,-1,-1,-1,-1,-1],"loss_changes":[3.3033287E1,3.058014E-1,4.4616013E0,9.3836576E-2,1.9821167E-1,7.238176E-1,1.5829983E0,0E0,0E0,1.9503936E-2,0E0,7.346214E-1,7.333749E-1,8.842211E-1,0E0,0E0,0E0,0E0,0E0,0E0,0E0,0E0,0E0],"parents":[2147483647,0,0,1,1,2,2,3,3,4,4,5,5,6,6,9,9,11,11,12,12,13,13],"right_children":[2,4,6,8,10,12,14,-1,-1,16,-1,18,20,22,-1,-1,-1,-1,-1,-1,-1,-1,-1],"split_conditions":[2.7891822E-2,-4.147159E-2,4.534301E-1,3.075929E0,4.158704E-1,1.6792985E0,5.882648E0,5.3297584E-3,-2.055791E-2,-1.6728322E-3,-4.8543446E-2,7.853591E-2,2.2442389E0,6.900194E-1,4.582556E-2,-3.8877483E-3,-2.1219188E-2,-8.252934E-3,2.639791E-2,-1.6636299E-2,1.5294095E-2,2.3804963E-2,7.095067E-3],"split_indices":[1,1,1,2,3,0,0,0,0,1,0,1,0,1,0,0,0,0,0,0,0,0,0],"split_type":[0,0,0,0,0,0,0,0,0,0,0,0,0,0,0,0,0,0,0,0,0,0,0],"sum_hessian":[2.5703238E2,7.269059E1,1.8434178E2,2.038218E0,7.0652374E1,4.562286E1,1.3871892E2,1.0271994E0,1.0110185E0,2.6819413E0,6.7970436E1,1.39584875E1,3.1664373E1,1.21025795E2,1.7693117E1,1.1444652E0,1.5374761E0,6.959217E0,6.9992704E0,2.6969948E1,4.6944265E0,9.387595E1,2.7149845E1],"tree_param":{"num_deleted":"0","num_feature":"7","num_nodes":"23","size_leaf_vector":"1"}},{"base_weights":[1.6867927E-3,-5.48948E-1,2.3527212E-1,-1.081098E-1,-5.6648374E-1,-3.21656E-2,3.1582043E-1,1.999765E-2,-2.6052076E-2,-4.686437E-2,-1.8419144E-1,1.9465132E-1,-9.508431E-2,2.7862146E-1,4.4964354E-2,-2.2399357E-2,7.555369E-3,-2.914846E-3,2.5718106E-2,-2.2331165E-2,2.0695755E-3,3.228911E-2,1.6502729E-2],"categories":[],"categories_nodes":[],"categories_segments":[],"categories_sizes":[],"default_left":[0,0,0,0,0,0,0,0,0,0,0,0,0,0,0,0,0,0,0,0,0,0,0],"id":12,"left_children":[1,3,5,7,9,11,13,-1,-1,-1,15,17,19,21,-1,-1,-1,-1,-1,-1,-1,-1,-1],"loss_changes":[3.2898903E1,5.277214E-1,3.8788557E0,4.0471777E-1,4.3157005E-1,6.247071E-1,1.1084728E0,0E0,0E0,0E0,1.5917027E-1,2.9167598E-1,7.6246744E-1,1.0195503E0,0E0,0E0,0E0,0E0,0E0,0E0,0E0,0E0,0E0],"parents":[2147483647,0,0,1,1,2,2,3,3,4,4,5,5,6,6,10,10,11,11,12,12,13,13],"right_children":[2,4,6,8,10,12,14,-1,-1,-1,16,18,20,22,-1,-1,-1,-1,-1,-1,-1,-1,-1],"split_conditions":[4.4942964E-2,-3.5033144E-2,4.6068996E-1,1E0,2.7891822E-2,1.6792985E0,5.959085E0,1.999765E-2,-2.6052076E-2,-4.686437E-2,3.9996674E0,1.2815872E-1,1E0,1E0,4.4964354E-2,-2.2399357E-2,7.555369E-3,-2.914846E-3,2.5718106E-2,-2.2331165E-2,2.0695755E-3,3.228911E-2,1.6502729E-2],"split_indices":[1,1,1,4,1,0,0,0,0,0,2,1,6,4,0,0,0,0,0,0,0,0,0],"split_type":[0,0,0,0,0,0,0,0,0,0,0,0,0,0,0,0,0,0,0,0,0,0,0],"sum_hessian":[2.5377916E2,7.518772E1,1.7859143E2,3.150527E0,7.203719E1,4.1477585E1,1.3711385E2,1.1343213E0,2.0162055E0,6.806488E1,3.9723175E0,8.5525675E0,3.292502E1,1.20970215E2,1.6143635E1,2.9523554E0,1.019962E0,3.2831235E0,5.269444E0,1.2538069E1,2.038695E1,4.266659E1,7.830362E1],"tree_param":{"num_deleted":"0","num_feature":"7","num_nodes":"23","size_leaf_vector":"1"}},{"base_weights":[1.3596422E-2,-5.338918E-1,2.3680407E-1,-1.324506E-1,-5.634484E-1,-7.362416E-2,3.2876655E-1,-2.5279292E-1,1.4354598E-2,-7.151176E-3,-5.757609E-1,1.7501906E-1,-1.610308E-1,2.914863E-1,5.536862E-1,6.898215E-3,-2.9938402E-2,-4.7231473E-2,-2.4999151E-2,-8.40172E-4,2.2026513E-2,-1.7254667E-2,1.2736561E-2,3.0485291E-2,1.7560277E-2,2.8641345E-2,5.070906E-2],"categories":[],"categories_nodes":[],"categories_segments":[],"categories_sizes":[],"default_left":[0,0,0,0,0,0,0,0,0,0,0,0,0,0,0,0,0,0,0,0,0,0,0,0,0,0,0],"id":13,"left_children":[1,3,5,7,9,11,13,15,-1,-1,17,19,21,23,25,-1,-1,-1,-1,-1,-1,-1,-1,-1,-1,-1,-1],"loss_changes":[3.1313028E1,8.059921E-1,5.219428E0,2.8545636E-1,3.50235E-1,9.498312E-1,1.0173464E0,2.3939592E-1,0E0,0E0,7.320976E-2,2.1708262E-1,5.926147E-1,7.0755196E-1,6.919289E-2,0E0,0E0,0E0,0E0,0E0,0E0,0E0,0E0,0E0,0E0,0E0,0E0],"parents":[2147483647,0,0,1,1,2,2,3,3,4,4,5,5,6,6,7,7,10,10,11,11,12,12,13,13,14,14],"right_children":[2,4,6,8,10,12,14,16,-1,-1,18,20,22,24,26,-1,-1,-1,-1,-1,-1,-1,-1,-1,-1,-1,-1],"split_conditions":[4.4942964E-2,4.39744E-1,4.6068996E-1,1.19859185E-2,-4.147159E-2,1.7179172E0,5.882648E0,-4.7846977E-3,1.4354598E-2,-7.151176E-3,2.0648994E-2,1.4049147E-1,2.2442389E0,1E0,4.501474E-1,6.898215E-3,-2.9938402E-2,-4.7231473E-2,-2.4999151E-2,-8.40172E-4,2.2026513E-2,-1.7254667E-2,1.2736561E-2,3.0485291E-2,1.7560277E-2,2.8641345E-2,5.070906E-2],"split_indices":[1,3,1,1,1,0,0,1,0,0,1,1,0,4,3,0,0,0,0,0,0,0,0,0,0,0,0],"split_type":[0,0,0,0,0,0,0,0,0,0,0,0,0,0,0,0,0,0,0,0,0,0,0,0,0,0,0],"sum_hessian":[2.5420207E2,7.321846E1,1.8098361E2,5.3970046E0,6.782146E1,4.1407623E1,1.39576E2,4.0310555E0,1.3659493E0,1.9260027E0,6.589545E1,1.05094185E1,3.0898203E1,1.2170023E2,1.7875767E1,1.1395816E0,2.891474E0,6.1248745E1,4.646704E0,4.0024505E0,6.506968E0,2.667267E1,4.2255325E0,5.230938E1,6.939085E1,6.7842836E0,1.1091483E1],"tree_param":{"num_deleted":"0","num_feature":"7","num_nodes":"27","size_leaf_vector":"1"}},{"base_weights":[6.0947635E-3,-4.4192764E-1,2.7317995E-1,-5.488161E-1,-1.3354984E-1,1.3574417E-1,4.1225082E-1,-1.0245889E-1,-4.558208E-2,3.1962585E-2,-3.4551945E-1,2.4663396E-1,-1.0004899E-1,5.1521516E-1,2.3786448E-1,-2.2217702E-2,1.5426216E-2,1.7985532E-2,-1.4556072E-2,-2.9285904E-2,-6.58615E-3,2.5990853E-2,-1.7441876E-2,-2.4677005E-2,7.6036775E-3,3.1962026E-2,5.0995253E-2,3.603976E-2,4.829382E-3],"categories":[],"categories_nodes":[],"categories_segments":[],"categories_sizes":[],"default_left":[0,0,0,0,0,0,0,0,0,0,0,0,0,0,0,0,0,0,0,0,0,0,0,0,0,0,0,0,0],"id":14,"left_children":[1,3,5,7,9,11,13,15,-1,17,19,21,23,25,27,-1,-1,-1,-1,-1,-1,-1,-1,-1,-1,-1,-1,-1,-1],"loss_changes":[2.9923834E1,3.0055256E0,2.938323E0,5.875416E-1,9.0089774E-1,2.1238627E0,1.2667751E0,2.7690896E-1,0E0,6.6624415E-1,3.0483127E-2,2.066753E0,1.1023862E0,4.2112827E-1,1.1270496E0,0E0,0E0,0E0,0E0,0E0,0E0,0E0,0E0,0E0,0E0,0E0,0E0,0E0,0E0],"parents":[2147483647,0,0,1,1,2,2,3,3,4,4,5,5,6,6,7,7,9,9,10,10,11,11,12,12,13,13,14,14],"right_children":[2,4,6,8,10,12,14,16,-1,18,20,22,24,26,28,-1,-1,-1,-1,-1,-1,-1,-1,-1,-1,-1,-1,-1,-1],"split_conditions":[2.7798346E-1,2.7891822E-2,5.5786693E-1,-3.166532E-2,6.6616976E-1,6.7058897E-1,3.565864E0,1E0,-4.558208E-2,1.6792985E0,4.1978035E0,5.108397E-1,3.5447204E0,3.3456848E0,6.307129E-1,-2.2217702E-2,1.5426216E-2,1.7985532E-2,-1.4556072E-2,-2.9285904E-2,-6.58615E-3,2.5990853E-2,-1.7441876E-2,-2.4677005E-2,7.6036775E-3,3.1962026E-2,5.0995253E-2,3.603976E-2,4.829382E-3],"split_indices":[1,1,1,1,3,3,2,5,0,0,2,1,2,2,1,0,0,0,0,0,0,0,0,0,0,0,0,0,0],"split_type":[0,0,0,0,0,0,0,0,0,0,0,0,0,0,0,0,0,0,0,0,0,0,0,0,0,0,0,0,0],"sum_hessian":[2.480646E2,9.240504E1,1.5565958E2,6.8041214E1,2.4363817E1,7.92839E1,7.637567E1,3.3158505E0,6.4725365E1,1.4158013E1,1.0205804E1,5.3892933E1,2.5390968E1,4.6792908E1,2.9582762E1,2.1181462E0,1.1977043E0,7.418649E0,6.7393646E0,9.103924E0,1.1018797E0,4.6382572E1,7.5103583E0,1.199549E1,1.3395479E1,2.623218E1,2.056073E1,1.2759494E1,1.6823269E1],"tree_param":{"num_deleted":"0","num_feature":"7","num_nodes":"29","size_leaf_vector":"1"}},{"base_weights":[-6.196955E-3,-5.10841E-1,2.089194E-1,-1.0521883E-1,-5.404522E-1,-7.717945E-2,2.8714287E-1,-2.8618753E-1,1.563367E-2,-8.84108E-3,-4.4137783E-2,2.102134E-1,-1.5246084E-1,3.2088602E-1,7.934164E-2,-2.0648775E-4,-2.9986165E-2,2.1262636E-2,-2.4448526E-3,-1.7389482E-2,1.6018352E-2,4.3981627E-2,2.2233302E-2,-2.255104E-2,1.8631361E-2],"categories":[],"categories_nodes":[],"categories_segments":[],"categories_sizes":[],"default_left":[0,0,0,0,0,0,0,0,0,0,0,0,0,0,0,0,0,0,0,0,0,0,0,0,0],"id":15,"left_children":[1,3,5,7,9,11,13,15,-1,-1,-1,17,19,21,23,-1,-1,-1,-1,-1,-1,-1,-1,-1,-1],"loss_changes":[2.6077662E1,8.054199E-1,3.7919178E0,3.8922688E-1,2.6205063E-1,8.3158433E-1,9.035454E-1,1.0536793E-1,0E0,0E0,0E0,1.1638117E-1,7.2717494E-1,9.650059E-1,1.1659518E0,0E0,0E0,0E0,0E0,0E0,0E0,0E0,0E0,0E0,0E0],"parents":[2147483647,0,0,1,1,2,2,3,3,4,4,5,5,6,6,7,7,11,11,12,12,13,13,14,14],"right_children":[2,4,6,8,10,12,14,16,-1,-1,-1,18,20,22,24,-1,-1,-1,-1,-1,-1,-1,-1,-1,-1],"split_conditions":[5.591571E-2,4.39744E-1,4.3837854E-1,3.5333946E0,-4.147159E-2,1.6792985E0,7.563352E-1,-2.898618E-3,1.563367E-2,-8.84108E-3,-4.4137783E-2,7.028667E-1,2.2442389E0,2.9433858E0,2.126865E0,-2.0648775E-4,-2.9986165E-2,2.1262636E-2,-2.4448526E-3,-1.7389482E-2,1.6018352E-2,4.3981627E-2,2.2233302E-2,-2.255104E-2,1.8631361E-2],"split_indices":[1,3,1,2,1,0,3,1,0,0,0,3,0,2,0,0,0,0,0,0,0,0,0,0,0],"split_type":[0,0,0,0,0,0,0,0,0,0,0,0,0,0,0,0,0,0,0,0,0,0,0,0,0],"sum_hessian":[2.3823737E2,7.079166E1,1.6744571E2,5.1261168E0,6.566554E1,3.5955055E1,1.3149065E2,3.2299404E0,1.8961765E0,1.9533583E0,6.371218E1,7.091253E0,2.88638E1,1.1265357E2,1.8837082E1,1.0141711E0,2.2157693E0,5.6771283E0,1.4141246E0,2.4701517E1,4.1622834E0,1.5941986E1,9.6711586E1,5.369485E0,1.3467597E1],"tree_param":{"num_deleted":"0","num_feature":"7","num_nodes":"25","size_leaf_vector":"1"}},{"base_weights":[3.6090787E-3,-5.3018117E-1,1.9789924E-1,-1.474158E-1,-5.403504E-1,-8.995874E-2,2.8415647E-1,1.6454897E-3,-1.9482275E-2,-2.1731229E-1,-4.4051602E-2,2.3572455E-1,-1.46562E-1,1.6343616E-1,3.775051E-1,-5.4951785E-3,-2.0893166E-2,3.3565655E-2,-2.537996E-2,-1.4671709E-2,1.0593884E-2,4.665879E-2,5.724447E-3,1.225384E-2,3.518571E-2],"categories":[],"categories_nodes":[],"categories_segments":[],"categories_sizes":[],"default_left":[0,0,0,0,0,0,0,0,0,0,0,0,0,0,0,0,0,0,0,0,0,0,0,0,0],"id":16,"left_children":[1,3,5,7,9,11,13,-1,-1,15,-1,17,19,21,23,-1,-1,-1,-1,-1,-1,-1,-1,-1,-1],"loss_changes":[2.4927383E1,1.7001152E-1,4.4006534E0,5.401299E-2,8.687782E-2,7.974787E-1,1.4688406E0,0E0,0E0,5.3281635E-3,0E0,7.9504347E-1,3.9294022E-1,2.3107E0,9.926758E-1,0E0,0E0,0E0,0E0,0E0,0E0,0E0,0E0,0E0,0E0],"parents":[2147483647,0,0,1,1,2,2,3,3,4,4,5,5,6,6,9,9,11,11,12,12,13,13,14,14],"right_children":[2,4,6,8,10,12,14,-1,-1,16,-1,18,20,22,24,-1,-1,-1,-1,-1,-1,-1,-1,-1,-1],"split_conditions":[2.7891822E-2,-4.147159E-2,4.3837854E-1,3.075929E0,4.158704E-1,4.158704E-1,5.5786693E-1,1.6454897E-3,-1.9482275E-2,-1.6728322E-3,-4.4051602E-2,3.1244105E-1,2.2442389E0,3.5781085E-1,4.9800602E-1,-5.4951785E-3,-2.0893166E-2,3.3565655E-2,-2.537996E-2,-1.4671709E-2,1.0593884E-2,4.665879E-2,5.724447E-3,1.225384E-2,3.518571E-2],"split_indices":[1,1,1,2,3,3,1,0,0,1,0,1,0,3,3,0,0,0,0,0,0,0,0,0,0],"split_type":[0,0,0,0,0,0,0,0,0,0,0,0,0,0,0,0,0,0,0,0,0,0,0,0,0],"sum_hessian":[2.383445E2,6.3141514E1,1.7520297E2,2.0351596E0,6.1106354E1,4.0385483E1,1.3481749E2,1.0267005E0,1.008459E0,2.570038E0,5.8536316E1,5.5111246E0,3.487436E1,5.9989136E1,7.4828354E1,1.170252E0,1.399786E0,4.3170805E0,1.1940438E0,3.11096E1,3.7647595E0,9.811775E0,5.017736E1,1.7019161E1,5.7809193E1],"tree_param":{"num_deleted":"0","num_feature":"7","num_nodes":"25","size_leaf_vector":"1"}},{"base_weights":[5.4638595E-3,-5.1597744E-1,1.9783735E-1,-1.0350234E-1,-5.377636E-1,-7.428853E-2,2.8304365E-1,1.7071377E-2,-2.1291796E-2,-1.870065E-1,-4.403054E-2,3.222109E-2,-2.2473113E-1,1.7848611E-1,3.573036E-1,-1.954037E-2,-4.3173945E-3,1.8303504E-2,-2.5264986E-3,-2.3506839E-2,8.301108E-3,2.1636397E-2,-1.9306753E-2,3.6303952E-2,1.9001812E-2],"categories":[],"categories_nodes":[],"categories_segments":[],"categories_sizes":[],"default_left":[0,0,0,0,0,0,0,0,0,0,0,0,0,0,0,0,0,0,0,0,0,0,0,0,0],"id":17,"left_children":[1,3,5,7,9,11,13,-1,-1,15,-1,17,19,21,23,-1,-1,-1,-1,-1,-1,-1,-1,-1,-1],"loss_changes":[2.371528E1,5.169182E-1,4.0249667E0,2.85376E-1,1.638794E-1,6.7972255E-1,9.589052E-1,0E0,0E0,1.4297128E-2,0E0,3.2637066E-1,4.2823964E-1,2.254345E0,7.7084255E-1,0E0,0E0,0E0,0E0,0E0,0E0,0E0,0E0,0E0,0E0],"parents":[2147483647,0,0,1,1,2,2,3,3,4,4,5,5,6,6,9,9,11,11,12,12,13,13,14,14],"right_children":[2,4,6,8,10,12,14,-1,-1,16,-1,18,20,22,24,-1,-1,-1,-1,-1,-1,-1,-1,-1,-1],"split_conditions":[2.7891822E-2,-2.5665734E-2,4.3837854E-1,1E0,4.158704E-1,6.625196E-1,5.5786693E-1,1.7071377E-2,-2.1291796E-2,3.4028625E0,-4.403054E-2,4.158704E-1,3.4794307E-1,5.152139E-1,6.900194E-1,-1.954037E-2,-4.3173945E-3,1.8303504E-2,-2.5264986E-3,-2.3506839E-2,8.301108E-3,2.1636397E-2,-1.9306753E-2,3.6303952E-2,1.9001812E-2],"split_indices":[1,1,1,4,3,3,1,0,0,2,0,3,1,1,1,0,0,0,0,0,0,0,0,0,0],"split_type":[0,0,0,0,0,0,0,0,0,0,0,0,0,0,0,0,0,0,0,0,0,0,0,0,0],"sum_hessian":[2.3439877E2,6.2717255E1,1.7168152E2,3.434928E0,5.928233E1,4.0968224E1,1.3071329E2,1.0591973E0,2.3757305E0,2.6079376E0,5.667439E1,2.444652E1,1.6521704E1,5.569649E1,7.50168E1,1.2388748E0,1.3690628E0,5.3567085E0,1.9089811E1,1.3737338E1,2.7843666E0,4.597965E1,9.716844E0,4.000228E1,3.501452E1],"tree_param":{"num_deleted":"0","num_feature":"7","num_nodes":"25","size_leaf_vector":"1"}},{"base_weights":[-3.6985427E-3,-4.9825126E-1,2.0058154E-1,-1.4708988E-1,-5.237956E-1,-5.5967376E-2,2.83447E-1,-2.5090648E-2,2.0702736E-2,-4.3167457E-2,-2.845227E-1,6.771465E-2,-2.2970223E-1,3.118559E-1,-2.1405388E-2,-1.4097429E-2,2.1281697E-2,-2.9200302E-2,1.430009E-3,1.0348803E-2,-1.5443828E-2,-3.163571E-2,-9.063437E-3,3.4592357E-2,1.8496586E-2,2.5725067E-2,-1.2467845E-2],"categories":[],"categories_nodes":[],"categories_segments":[],"categories_sizes":[],"default_left":[0,0,0,0,0,0,0,0,0,0,0,0,0,0,0,0,0,0,0,0,0,0,0,0,0,0,0],"id":18,"left_children":[1,3,5,7,9,11,13,-1,15,-1,17,19,21,23,25,-1,-1,-1,-1,-1,-1,-1,-1,-1,-1,-1,-1],"loss_changes":[2.2655802E1,5.109596E-1,3.3899727E0,1.6956337E-1,7.597542E-2,8.661293E-1,1.0470657E0,0E0,2.3261832E-1,0E0,1.4952669E-1,4.0908226E-1,2.771955E-1,9.6900463E-1,5.6544924E-1,0E0,0E0,0E0,0E0,0E0,0E0,0E0,0E0,0E0,0E0,0E0,0E0],"parents":[2147483647,0,0,1,1,2,2,3,3,4,4,5,5,6,6,8,8,10,10,11,11,12,12,13,13,14,14],"right_children":[2,4,6,8,10,12,14,-1,16,-1,18,20,22,24,26,-1,-1,-1,-1,-1,-1,-1,-1,-1,-1,-1,-1],"split_conditions":[4.4942964E-2,4.39744E-1,4.6068996E-1,1E0,1.9262861E-2,6.6616976E-1,4E0,-2.5090648E-2,1E0,-4.3167457E-2,1E0,4.003325E0,3.2657595E0,5.283155E-1,4.8742405E-1,-1.4097429E-2,2.1281697E-2,-2.9200302E-2,1.430009E-3,1.0348803E-2,-1.5443828E-2,-3.163571E-2,-9.063437E-3,3.4592357E-2,1.8496586E-2,2.5725067E-2,-1.2467845E-2],"split_indices":[1,3,1,5,1,3,4,0,4,0,6,2,2,3,1,0,0,0,0,0,0,0,0,0,0,0,0],"split_type":[0,0,0,0,0,0,0,0,0,0,0,0,0,0,0,0,0,0,0,0,0,0,0,0,0,0,0],"sum_hessian":[2.2226508E2,6.4551E1,1.5771408E2,4.8354588E0,5.971554E1,3.858395E1,1.1913013E2,1.9905547E0,2.844904E0,5.48397E1,4.8758426E0,2.2895126E1,1.5688823E1,1.0895385E2,1.0176281E1,1.7343744E0,1.1105295E0,3.6874275E0,1.1884153E0,1.8925074E1,3.9700541E0,5.4838514E0,1.0204971E1,4.192512E1,6.7028725E1,2.47377E0,7.702511E0],"tree_param":{"num_deleted":"0","num_feature":"7","num_nodes":"27","size_leaf_vector":"1"}},{"base_weights":[5.803007E-3,-4.9423814E-1,1.8594182E-1,-1.3878526E-1,-5.146218E-1,-6.6143245E-2,2.7681977E-1,1.4629369E-2,-2.3656227E-2,-1.9743362E-1,-4.2095378E-2,5.0994523E-2,-2.3979391E-1,2.3822317E-1,4.4566702E-2,-4.0057087E-3,-2.0106727E-2,1.7741058E-2,-3.0443817E-3,-2.2848185E-2,1.0024986E-2,2.2437727E-2,6.142029E-3],"categories":[],"categories_nodes":[],"categories_segments":[],"categories_sizes":[],"default_left":[0,0,0,0,0,0,0,0,0,0,0,0,0,0,0,0,0,0,0,0,0,0,0],"id":19,"left_children":[1,3,5,7,9,11,13,-1,-1,15,-1,17,19,21,-1,-1,-1,-1,-1,-1,-1,-1,-1],"loss_changes":[2.0246212E1,3.5989952E-1,3.8032303E0,2.861446E-1,1.0138321E-1,9.1915E-1,1.1829882E0,0E0,0E0,1.5763909E-2,0E0,4.2586684E-1,3.3910918E-1,7.1958876E-1,0E0,0E0,0E0,0E0,0E0,0E0,0E0,0E0,0E0],"parents":[2147483647,0,0,1,1,2,2,3,3,4,4,5,5,6,6,9,9,11,11,12,12,13,13],"right_children":[2,4,6,8,10,12,14,-1,-1,16,-1,18,20,22,-1,-1,-1,-1,-1,-1,-1,-1,-1],"split_conditions":[2.7891822E-2,-2.5665734E-2,4.6068996E-1,1E0,4.158704E-1,6.6616976E-1,5.959085E0,1.4629369E-2,-2.3656227E-2,-1.6728322E-3,-4.2095378E-2,1.6792985E0,2.2442389E0,6.900194E-1,4.4566702E-2,-4.0057087E-3,-2.0106727E-2,1.7741058E-2,-3.0443817E-3,-2.2848185E-2,1.0024986E-2,2.2437727E-2,6.142029E-3],"split_indices":[1,1,1,4,3,3,0,0,0,1,0,0,0,1,0,0,0,0,0,0,0,0,0],"split_type":[0,0,0,0,0,0,0,0,0,0,0,0,0,0,0,0,0,0,0,0,0,0,0],"sum_hessian":[2.2274582E2,5.8530197E1,1.6421562E2,3.5979178E0,5.493228E1,4.3585785E1,1.2062983E2,1.1254927E0,2.4724252E0,2.5690424E0,5.236324E1,2.6450008E1,1.7135775E1,1.0765421E2,1.2975619E1,1.2046165E0,1.3644258E0,8.554606E0,1.7895403E1,1.5418974E1,1.7168015E0,8.474143E1,2.2912779E1],"tree_param":{"num_deleted":"0","num_feature":"7","num_nodes":"23","size_leaf_vector":"1"}},{"base_weights":[-2.4864E-3,-3.855889E-1,1.9932662E-1,3.8404696E-2,-4.1605702E-1,6.960531E-2,3.2412973E-1,-1.9945651E-2,2.8298873E-1,-3.780348E-2,-3.145076E-1,4.3228617E-1,-5.0750105E-3,4.035998E-1,1.6066809E-1,-2.8785332E-3,3.747651E-2,-2.8636534E-2,8.995865E-3,4.6415765E-2,-1.0662717E-2,-1.4995019E-2,1.130627E-2,4.579372E-3,3.5357915E-2,2.4488697E-2,-9.197091E-3],"categories":[],"categories_nodes":[],"categories_segments":[],"categories_sizes":[],"default_left":[0,0,0,0,0,0,0,0,0,0,0,0,0,0,0,0,0,0,0,0,0,0,0,0,0,0,0],"id":20,"left_children":[1,3,5,7,9,11,13,-1,15,-1,17,19,21,23,25,-1,-1,-1,-1,-1,-1,-1,-1,-1,-1,-1,-1],"loss_changes":[1.7317608E1,1.0143023E0,2.3526726E0,4.995853E-1,2.6543903E-1,1.985168E0,9.029403E-1,0E0,2.3951033E-1,0E0,5.743394E-1,1.1240783E0,1.6737849E0,6.321888E-1,1.0787923E0,0E0,0E0,0E0,0E0,0E0,0E0,0E0,0E0,0E0,0E0,0E0,0E0],"parents":[2147483647,0,0,1,1,2,2,3,3,4,4,5,5,6,6,8,8,10,10,11,11,12,12,13,13,14,14],"right_children":[2,4,6,8,10,12,14,-1,16,-1,18,20,22,24,26,-1,-1,-1,-1,-1,-1,-1,-1,-1,-1,-1,-1],"split_conditions":[1.8129799E0,4.158704E-1,2.4250598E0,2E0,1E0,3.7794665E-1,3.565864E0,-1.9945651E-2,3.4028625E0,-3.780348E-2,2E0,2.086313E0,3.5447204E0,4.2889977E-1,5.943457E-1,-2.8785332E-3,3.747651E-2,-2.8636534E-2,8.995865E-3,4.6415765E-2,-1.0662717E-2,-1.4995019E-2,1.130627E-2,4.579372E-3,3.5357915E-2,2.4488697E-2,-9.197091E-3],"split_indices":[0,3,0,4,6,3,2,0,2,0,4,0,2,3,3,0,0,0,0,0,0,0,0,0,0,0,0],"split_type":[0,0,0,0,0,0,0,0,0,0,0,0,0,0,0,0,0,0,0,0,0,0,0,0,0,0,0],"sum_hessian":[2.2199336E2,7.628003E1,1.4571333E2,5.096517E0,7.118352E1,7.221266E1,7.350067E1,2.3328354E0,2.763682E0,4.3393E1,2.7790514E1,1.1512816E1,6.069985E1,4.8467953E1,2.5032717E1,1.3124695E0,1.4512124E0,2.5370317E1,2.4201963E0,9.105607E0,2.4072092E0,2.6905537E1,3.379431E1,5.0828476E0,4.3385105E1,1.6313904E1,8.718813E0],"tree_param":{"num_deleted":"0","num_feature":"7","num_nodes":"27","size_leaf_vector":"1"}},{"base_weights":[3.2508215E-3,-3.139158E-1,2.389217E-1,-3.336575E-2,-4.053557E-1,1.8097323E-1,4.8802948E-1,-1.2938876E-1,3.775145E-2,-4.5380676E-1,-3.1613374E-1,2.4737833E-1,6.688273E-2,1.7727287E-1,5.9437174E-1,1.519615E-2,-2.6530653E-2,-1.5414087E-2,-3.6938734E-2,-2.9213661E-2,7.7988575E-3,-2.0046165E-2,2.0979954E-2,1.2432481E-2,-1.255893E-2,-2.6901146E-2,4.045964E-2,5.292091E-2,2.1261437E-2],"categories":[],"categories_nodes":[],"categories_segments":[],"categories_sizes":[],"default_left":[0,0,0,0,0,0,0,0,0,0,0,0,0,0,0,0,0,0,0,0,0,0,0,0,0,0,0,0,0],"id":21,"left_children":[1,3,5,7,9,11,13,15,-1,17,19,21,23,25,27,-1,-1,-1,-1,-1,-1,-1,-1,-1,-1,-1,-1,-1,-1],"loss_changes":[1.6285042E1,2.3691826E0,1.7158918E0,1.2216166E0,1.5896511E-1,7.6370406E-1,6.54644E-1,1.4118899E0,0E0,1.3637543E-4,6.018312E-1,5.450263E-1,8.0243576E-1,1.3995183E0,1.9284344E-1,0E0,0E0,0E0,0E0,0E0,0E0,0E0,0E0,0E0,0E0,0E0,0E0,0E0,0E0],"parents":[2147483647,0,0,1,1,2,2,3,3,4,4,5,5,6,6,7,7,9,9,10,10,11,11,12,12,13,13,14,14],"right_children":[2,4,6,8,10,12,14,16,-1,18,20,22,24,26,28,-1,-1,-1,-1,-1,-1,-1,-1,-1,-1,-1,-1,-1,-1],"split_conditions":[1.962757E0,5.1690507E-1,5.4703393E0,5.1010114E-1,1E0,2E0,4.962733E-1,4.158704E-1,3.775145E-2,2.4740143E0,2E0,3.2488823E-1,6.7058897E-1,6.2512703E0,3.3772461E0,1.519615E-2,-2.6530653E-2,-1.5414087E-2,-3.6938734E-2,-2.9213661E-2,7.7988575E-3,-2.0046165E-2,2.0979954E-2,1.2432481E-2,-1.255893E-2,-2.6901146E-2,4.045964E-2,5.292091E-2,2.1261437E-2],"split_indices":[0,3,0,3,6,4,3,3,0,2,4,3,3,0,2,0,0,0,0,0,0,0,0,0,0,0,0,0,0],"split_type":[0,0,0,0,0,0,0,0,0,0,0,0,0,0,0,0,0,0,0,0,0,0,0,0,0,0,0,0,0],"sum_hessian":[2.1586566E2,9.188053E1,1.2398512E2,2.2920921E1,6.895961E1,1.0198698E2,2.1998142E1,1.988563E1,3.0352917E0,4.2042557E1,2.6917055E1,6.3727077E1,3.8259903E1,6.2885513E0,1.5709591E1,7.734213E0,1.2151417E1,1.9843075E0,4.005825E1,2.416883E1,2.7482238E0,1.3883554E0,6.2338722E1,2.7637281E1,1.0622622E1,2.4439447E0,3.8446069E0,1.2203167E1,3.506424E0],"tree_param":{"num_deleted":"0","num_feature":"7","num_nodes":"29","size_leaf_vector":"1"}},{"base_weights":[-2.7014408E-3,-3.7020275E-1,1.8881486E-1,2.9594598E-2,-4.032052E-1,6.843934E-2,3.0708775E-1,-1.6491728E-2,2.5115734E-1,-3.5554647E-2,-3.1974992E-1,-9.918697E-2,1.9434325E-1,3.865662E-1,1.2905118E-1,-7.0519797E-3,3.7308116E-2,-2.952023E-2,9.655486E-3,8.252666E-3,-3.0816285E-2,2.9316997E-2,6.694748E-3,2.0415172E-2,4.2459596E-2,2.2103794E-2,-2.287846E-2],"categories":[],"categories_nodes":[],"categories_segments":[],"categories_sizes":[],"default_left":[0,0,0,0,0,0,0,0,0,0,0,0,0,0,0,0,0,0,0,0,0,0,0,0,0,0,0],"id":22,"left_children":[1,3,5,7,9,11,13,-1,15,-1,17,19,21,23,25,-1,-1,-1,-1,-1,-1,-1,-1,-1,-1,-1,-1],"loss_changes":[1.5158115E1,9.8542404E-1,1.9948692E0,3.9429313E-1,9.2627525E-2,1.5274185E0,9.5665836E-1,0E0,3.2085776E-1,0E0,6.112349E-1,1.8519651E0,7.530284E-1,7.8660583E-1,1.5124283E0,0E0,0E0,0E0,0E0,0E0,0E0,0E0,0E0,0E0,0E0,0E0,0E0],"parents":[2147483647,0,0,1,1,2,2,3,3,4,4,5,5,6,6,8,8,10,10,11,11,12,12,13,13,14,14],"right_children":[2,4,6,8,10,12,14,-1,16,-1,18,20,22,24,26,-1,-1,-1,-1,-1,-1,-1,-1,-1,-1,-1,-1],"split_conditions":[1.7931914E0,4.158704E-1,2.4250598E0,2E0,1E0,3.5447204E0,3.565864E0,-1.6491728E-2,3.4028625E0,-3.5554647E-2,2E0,6.5473956E-1,5.1690507E-1,3.3456848E0,5.943457E-1,-7.0519797E-3,3.7308116E-2,-2.952023E-2,9.655486E-3,8.252666E-3,-3.0816285E-2,2.9316997E-2,6.694748E-3,2.0415172E-2,4.2459596E-2,2.2103794E-2,-2.287846E-2],"split_indices":[0,3,0,4,6,2,2,0,2,0,4,3,3,2,3,0,0,0,0,0,0,0,0,0,0,0,0],"split_type":[0,0,0,0,0,0,0,0,0,0,0,0,0,0,0,0,0,0,0,0,0,0,0,0,0,0,0],"sum_hessian":[2.1337454E2,7.278128E1,1.4059326E2,5.5576925E0,6.722359E1,7.045965E1,7.013361E1,2.7264006E0,2.831292E0,4.210018E1,2.5123405E1,3.0313274E1,4.0146378E1,4.7678074E1,2.245554E1,1.3278992E0,1.5033927E0,2.2742418E1,2.3809872E0,1.8127863E1,1.21854105E1,1.4805778E1,2.53406E1,2.639592E1,2.1282152E1,1.6821745E1,5.633794E0],"tree_param":{"num_deleted":"0","num_feature":"7","num_nodes":"27","size_leaf_vector":"1"}},{"base_weights":[1.1190051E-2,-3.2351175E-1,2.7438822E-1,-4.7960374E-1,-8.366417E-2,2.3385993E-1,4.495151E-1,-1.9006653E-1,-3.9631244E-2,1.1636757E-1,-1.9502841E-1,2.723403E-1,-4.5380384E-2,5.3173065E-1,1.9336222E-1,3.7452174E-4,-2.3455495E-2,-3.6299723E-4,2.4924442E-2,-1.9786263E-2,5.953589E-3,1.49161955E-2,3.305062E-2,-3.2274727E-2,1.2934656E-2,4.7513984E-2,1.0025588E-2,-1.53638655E-2,3.8093932E-2],"categories":[],"categories_nodes":[],"categories_segments":[],"categories_sizes":[],"default_left":[0,0,0,0,0,0,0,0,0,0,0,0,0,0,0,0,0,0,0,0,0,0,0,0,0,0,0,0,0],"id":23,"left_children":[1,3,5,7,9,11,13,15,-1,17,19,21,23,25,27,-1,-1,-1,-1,-1,-1,-1,-1,-1,-1,-1,-1,-1,-1],"loss_changes":[1.857818E1,3.4360695E0,7.3263454E-1,1.61973E-1,8.651048E-1,1.0647092E0,3.4149885E-1,9.214759E-2,0E0,3.3535436E-1,3.6599898E-1,9.6554375E-1,1.0081832E0,3.148284E-1,8.214924E-1,0E0,0E0,0E0,0E0,0E0,0E0,0E0,0E0,0E0,0E0,0E0,0E0,0E0,0E0],"parents":[2147483647,0,0,1,1,2,2,3,3,4,4,5,5,6,6,7,7,9,9,10,10,11,11,12,12,13,13,14,14],"right_children":[2,4,6,8,10,12,14,16,-1,18,20,22,24,26,28,-1,-1,-1,-1,-1,-1,-1,-1,-1,-1,-1,-1,-1,-1],"split_conditions":[4.273143E-1,2.7891822E-2,5.4703393E0,-2.2785623E-2,1.7179172E0,6.900194E-1,3.4744477E0,2E0,-3.9631244E-2,1.4757662E-1,2.2442389E0,5.5786693E-1,7.445216E-1,3E0,3.9045954E0,3.7452174E-4,-2.3455495E-2,-3.6299723E-4,2.4924442E-2,-1.9786263E-2,5.953589E-3,1.49161955E-2,3.305062E-2,-3.2274727E-2,1.2934656E-2,4.7513984E-2,1.0025588E-2,-1.53638655E-2,3.8093932E-2],"split_indices":[1,1,0,1,0,1,2,4,0,1,0,1,1,4,2,0,0,0,0,0,0,0,0,0,0,0,0,0,0],"split_type":[0,0,0,0,0,0,0,0,0,0,0,0,0,0,0,0,0,0,0,0,0,0,0,0,0,0,0,0,0],"sum_hessian":[2.0888538E2,9.185137E1,1.17034E2,5.50351E1,3.6816273E1,9.6936165E1,2.0097834E1,3.5198088E0,5.151529E1,1.31505E1,2.3665773E1,8.5217575E1,1.171859E1,1.4400103E1,5.6977305E0,1.5490834E0,1.9707255E0,8.723603E0,4.426897E0,1.9887672E1,3.7781012E0,5.4372772E1,3.08448E1,3.9463005E0,7.772289E0,1.2088739E1,2.3113627E0,2.54728E0,3.1504505E0],"tree_param":{"num_deleted":"0","num_feature":"7","num_nodes":"29","size_leaf_vector":"1"}},{"base_weights":[5.1343907E-3,-3.2964814E-1,2.4199592E-1,-4.6424192E-1,-1.2580796E-1,1.416202E-1,3.2840016E-1,-6.8535455E-2,-4.8610657E-1,2.5703505E-1,-1.8442285E-1,2.1810806E-1,-2.5400078E-1,3.87255E-2,3.5773745E-1,1.588838E-2,-1.887704E-2,-1.5443828E-2,-3.980355E-2,3.2560356E-2,7.964069E-3,1.083031E-2,-1.7048346E-2,2.2982055E-2,-1.4822491E-2,-2.444832E-2,7.625217E-3,-1.1291016E-2,3.129225E-2,3.0007932E-2,-1.2831954E-2],"categories":[],"categories_nodes":[],"categories_segments":[],"categories_sizes":[],"default_left":[0,0,0,0,0,0,0,0,0,0,0,0,0,0,0,0,0,0,0,0,0,0,0,0,0,0,0,0,0,0,0],"id":24,"left_children":[1,3,5,7,9,11,13,15,17,19,21,23,25,27,29,-1,-1,-1,-1,-1,-1,-1,-1,-1,-1,-1,-1,-1,-1,-1,-1],"loss_changes":[1.6645926E1,2.328124E0,1.0196157E0,4.1676426E-1,8.54489E-1,1.8293632E0,5.411024E-1,2.2076066E-1,6.86388E-2,8.213341E-2,3.2028186E-1,1.4389224E0,2.0866227E-1,5.069643E-1,5.9249353E-1,0E0,0E0,0E0,0E0,0E0,0E0,0E0,0E0,0E0,0E0,0E0,0E0,0E0,0E0,0E0,0E0],"parents":[2147483647,0,0,1,1,2,2,3,3,4,4,5,5,6,6,7,7,8,8,9,9,10,10,11,11,12,12,13,13,14,14],"right_children":[2,4,6,8,10,12,14,16,18,20,22,24,26,28,30,-1,-1,-1,-1,-1,-1,-1,-1,-1,-1,-1,-1,-1,-1,-1,-1],"split_conditions":[3.4794307E-1,1.19859185E-2,5.5786693E-1,-3.166532E-2,4.158704E-1,5.152139E-1,4.3083104E-1,1E0,4.158704E-1,3.807131E-2,2.6574583E0,7.5958705E-1,4.072056E0,5.8576584E0,4.4355674E0,1.588838E-2,-1.887704E-2,-1.5443828E-2,-3.980355E-2,3.2560356E-2,7.964069E-3,1.083031E-2,-1.7048346E-2,2.2982055E-2,-1.4822491E-2,-2.444832E-2,7.625217E-3,-1.1291016E-2,3.129225E-2,3.0007932E-2,-1.2831954E-2],"split_indices":[1,1,1,1,3,1,3,4,3,1,2,3,0,0,2,0,0,0,0,0,0,0,0,0,0,0,0,0,0,0,0],"split_type":[0,0,0,0,0,0,0,0,0,0,0,0,0,0,0,0,0,0,0,0,0,0,0,0,0,0,0,0,0,0,0],"sum_hessian":[2.0791246E2,8.59865E1,1.2192595E2,5.102059E1,3.496591E1,5.7623665E1,6.4302284E1,2.888003E0,4.813259E1,4.1931586E0,3.0772755E1,4.866387E1,8.959792E0,6.1267815E0,5.8175503E1,1.0409288E0,1.8470743E0,2.47956E0,4.565303E1,1.3362532E0,2.8569052E0,2.2265377E0,2.8546217E1,4.1786705E1,6.8771677E0,7.915586E0,1.0442057E0,4.453462E0,1.6733196E0,5.6556473E1,1.6190313E0],"tree_param":{"num_deleted":"0","num_feature":"7","num_nodes":"31","size_leaf_vector":"1"}},{"base_weights":[1.101529E-2,-3.0568093E-1,2.647275E-1,-4.6864602E-1,-1.00327305E-1,2.7659094E-1,-1.9800717E-1,-6.660545E-2,-4.9067557E-1,2.407798E-1,-1.5293361E-1,1.9648558E-1,3.3639103E-1,-1.9676292E-2,-3.5609624E-3,-1.7994408E-2,1.4748599E-2,-1.3528251E-2,-4.025768E-2,3.626838E-2,6.2687267E-3,-1.940791E-2,-3.5236948E-3,2.2021022E-2,-1.6538233E-2,8.711868E-3,3.1855498E-2],"categories":[],"categories_nodes":[],"categories_segments":[],"categories_sizes":[],"default_left":[0,0,0,0,0,0,0,0,0,0,0,0,0,0,0,0,0,0,0,0,0,0,0,0,0,0,0],"id":25,"left_children":[1,3,5,7,9,11,13,15,17,19,21,23,25,-1,-1,-1,-1,-1,-1,-1,-1,-1,-1,-1,-1,-1,-1],"loss_changes":[1.6314737E1,2.975896E0,6.735048E-1,4.1095543E-1,7.7683574E-1,4.623232E-1,1.40759945E-2,1.9083172E-1,1.0585117E-1,1.6813564E-1,3.441227E-1,1.6309536E0,8.248987E-1,0E0,0E0,0E0,0E0,0E0,0E0,0E0,0E0,0E0,0E0,0E0,0E0,0E0,0E0],"parents":[2147483647,0,0,1,1,2,2,3,3,4,4,5,5,6,6,7,7,8,8,9,9,10,10,11,11,12,12],"right_children":[2,4,6,8,10,12,14,16,18,20,22,24,26,-1,-1,-1,-1,-1,-1,-1,-1,-1,-1,-1,-1,-1,-1],"split_conditions":[4.273143E-1,1.19859185E-2,9.1959655E-1,-3.166532E-2,4.158704E-1,5.5786693E-1,3.7492688E0,1E0,4.158704E-1,3.807131E-2,1E0,5.152139E-1,4.9800602E-1,-1.9676292E-2,-3.5609624E-3,-1.7994408E-2,1.4748599E-2,-1.3528251E-2,-4.025768E-2,3.626838E-2,6.2687267E-3,-1.940791E-2,-3.5236948E-3,2.2021022E-2,-1.6538233E-2,8.711868E-3,3.1855498E-2],"split_indices":[1,1,3,1,3,1,2,5,3,1,6,1,3,0,0,0,0,0,0,0,0,0,0,0,0,0,0],"split_type":[0,0,0,0,0,0,0,0,0,0,0,0,0,0,0,0,0,0,0,0,0,0,0,0,0,0,0],"sum_hessian":[2.0103954E2,8.9329346E1,1.1171018E2,4.909013E1,4.023922E1,1.0930999E2,2.4001906E0,2.7591376E0,4.633099E1,4.898647E0,3.5340572E1,4.8554447E1,6.0755543E1,1.3699208E0,1.0302699E0,1.7554262E0,1.0037116E0,2.2833056E0,4.4047684E1,1.3459028E0,3.5527444E0,1.870754E1,1.6633034E1,4.0884106E1,7.6703405E0,1.3569373E1,4.7186172E1],"tree_param":{"num_deleted":"0","num_feature":"7","num_nodes":"27","size_leaf_vector":"1"}},{"base_weights":[-8.190251E-4,-4.6594778E-1,1.62443E-1,-1.6026405E-1,-4.870939E-1,-6.463185E-2,2.5558463E-1,3.625823E-3,-2.2716887E-2,-4.0432796E-2,-2.7187794E-1,5.1969714E-2,-2.4933182E-1,1.435881E-1,3.328852E-1,-2.9596569E-2,4.0723803E-3,1.9906014E-2,-1.1589979E-3,-2.8109584E-2,-1.3857953E-2,1.709198E-2,-1.4695674E-2,-1.5368786E-3,2.915519E-2],"categories":[],"categories_nodes":[],"categories_segments":[],"categories_sizes":[],"default_left":[0,0,0,0,0,0,0,0,0,0,0,0,0,0,0,0,0,0,0,0,0,0,0,0,0],"id":26,"left_children":[1,3,5,7,9,11,13,-1,-1,-1,15,17,19,21,23,-1,-1,-1,-1,-1,-1,-1,-1,-1,-1],"loss_changes":[1.4974802E1,2.5311184E-1,3.1037571E0,1.3506858E-1,4.9549103E-2,9.445312E-1,8.5007715E-1,0E0,0E0,0E0,2.0511091E-1,3.61328E-1,7.047188E-2,1.050689E0,6.803069E-1,0E0,0E0,0E0,0E0,0E0,0E0,0E0,0E0,0E0,0E0],"parents":[2147483647,0,0,1,1,2,2,3,3,4,4,5,5,6,6,10,10,11,11,12,12,13,13,14,14],"right_children":[2,4,6,8,10,12,14,-1,-1,-1,16,18,20,22,24,-1,-1,-1,-1,-1,-1,-1,-1,-1,-1],"split_conditions":[2.7891822E-2,4.39744E-1,4.6068996E-1,-1.6728322E-3,7.7283075E-3,6.6616976E-1,5.5786693E-1,3.625823E-3,-2.2716887E-2,-4.0432796E-2,1E0,4.158704E-1,3.2657595E0,5.152139E-1,4.3083104E-1,-2.9596569E-2,4.0723803E-3,1.9906014E-2,-1.1589979E-3,-2.8109584E-2,-1.3857953E-2,1.709198E-2,-1.4695674E-2,-1.5368786E-3,2.915519E-2],"split_indices":[1,3,1,1,1,3,1,0,0,0,6,3,2,1,3,0,0,0,0,0,0,0,0,0,0],"split_type":[0,0,0,0,0,0,0,0,0,0,0,0,0,0,0,0,0,0,0,0,0,0,0,0,0],"sum_hessian":[1.9520139E2,5.023353E1,1.4496785E2,3.805204E0,4.6428326E1,4.2255955E1,1.0271189E2,1.6674572E0,2.1377468E0,4.154429E1,4.8840346E0,2.6343721E1,1.5912234E1,4.3109882E1,5.960201E1,3.6337516E0,1.2502831E0,5.9562716E0,2.038745E1,5.2528796E0,1.0659354E1,3.579455E1,7.315333E0,4.934346E0,5.4667664E1],"tree_param":{"num_deleted":"0","num_feature":"7","num_nodes":"25","size_leaf_vector":"1"}},{"base_weights":[1.4686322E-2,-3.1897295E-1,1.8328165E-1,-2.694621E-2,-3.6534223E-1,5.9484515E-2,2.9702792E-1,-1.6980414E-1,1.668118E-1,-3.3063762E-2,-2.7163595E-1,3.7902233E-1,-3.2211756E-3,3.2449076E-1,-2.2066242E-1,3.4199818E-3,-1.808933E-2,-1.0707983E-2,3.5433292E-2,-2.64739E-2,1.3708366E-2,-1.3723575E-2,4.003448E-2,-1.4890941E-2,1.0759276E-2,3.0829659E-2,1.4864803E-2,1.5471086E-2,-3.6537748E-2],"categories":[],"categories_nodes":[],"categories_segments":[],"categories_sizes":[],"default_left":[0,0,0,0,0,0,0,0,0,0,0,0,0,0,0,0,0,0,0,0,0,0,0,0,0,0,0,0,0],"id":27,"left_children":[1,3,5,7,9,11,13,15,17,-1,19,21,23,25,27,-1,-1,-1,-1,-1,-1,-1,-1,-1,-1,-1,-1,-1,-1],"loss_changes":[1.1197878E1,8.951912E-1,1.8436999E0,3.1171176E-1,1.4656162E-1,1.2945342E0,1.0474591E0,8.613446E-2,4.6185184E-1,0E0,6.45427E-1,7.941946E-1,1.4091995E0,4.8212862E-1,4.8446858E-1,0E0,0E0,0E0,0E0,0E0,0E0,0E0,0E0,0E0,0E0,0E0,0E0,0E0,0E0],"parents":[2147483647,0,0,1,1,2,2,3,3,4,4,5,5,6,6,7,7,8,8,10,10,11,11,12,12,13,13,14,14],"right_children":[2,4,6,8,10,12,14,16,18,-1,20,22,24,26,28,-1,-1,-1,-1,-1,-1,-1,-1,-1,-1,-1,-1,-1,-1],"split_conditions":[1.8129799E0,4.775607E-1,2.4250598E0,3.7215886E0,1E0,3.8233906E-1,4.4355674E0,3.1027913E0,2E0,-3.3063762E-2,2E0,3.2488823E-1,3.5447204E0,2E0,2.5134766E0,3.4199818E-3,-1.808933E-2,-1.0707983E-2,3.5433292E-2,-2.64739E-2,1.3708366E-2,-1.3723575E-2,4.003448E-2,-1.4890941E-2,1.0759276E-2,3.0829659E-2,1.4864803E-2,1.5471086E-2,-3.6537748E-2],"split_indices":[0,3,0,2,6,3,2,2,4,0,4,3,2,4,0,0,0,0,0,0,0,0,0,0,0,0,0,0,0],"split_type":[0,0,0,0,0,0,0,0,0,0,0,0,0,0,0,0,0,0,0,0,0,0,0,0,0,0,0,0,0],"sum_hessian":[1.9702213E2,6.5836395E1,1.3118573E2,9.237999E0,5.65984E1,6.354678E1,6.7638954E1,5.388604E0,3.8493948E0,3.5182808E1,2.1415592E1,9.597097E0,5.394968E1,6.4585945E1,3.0530095E0,1.1790555E0,4.2095485E0,2.0893908E0,1.760004E0,1.911086E1,2.3047307E0,1.659338E0,7.9377594E0,2.3020782E1,3.09289E1,4.3646545E1,2.0939398E1,1.1742045E0,1.8788049E0],"tree_param":{"num_deleted":"0","num_feature":"7","num_nodes":"29","size_leaf_vector":"1"}},{"base_weights":[-5.9645493E-3,-3.1254333E-1,1.667881E-1,-3.5492655E-2,-3.580936E-1,2.0794731E-1,-9.117628E-2,-1.5178323E-1,1.3213956E-1,-3.3216532E-2,-2.5563523E-1,1.5895784E-1,4.12366E-1,-2.938883E-1,8.102578E-2,-1.8047512E-2,-7.4507616E-4,-6.388335E-3,3.0097172E-2,-2.3507485E-2,8.349384E-3,1.4796141E-2,-2.574698E-2,1.487945E-2,3.7945256E-2,-2.9091164E-2,6.385397E-4,-2.3661258E-2,1.6705712E-2],"categories":[],"categories_nodes":[],"categories_segments":[],"categories_sizes":[],"default_left":[0,0,0,0,0,0,0,0,0,0,0,0,0,0,0,0,0,0,0,0,0,0,0,0,0,0,0,0,0],"id":28,"left_children":[1,3,5,7,9,11,13,15,17,-1,19,21,23,25,27,-1,-1,-1,-1,-1,-1,-1,-1,-1,-1,-1,-1,-1,-1],"loss_changes":[1.0158526E1,8.595791E-1,1.3217566E0,2.3195088E-1,2.4058056E-1,9.9720097E-1,6.3744426E-1,7.027948E-2,2.88064E-1,0E0,3.5816252E-1,1.149754E0,1.9069338E-1,1.7746073E-1,5.5718046E-1,0E0,0E0,0E0,0E0,0E0,0E0,0E0,0E0,0E0,0E0,0E0,0E0,0E0,0E0],"parents":[2147483647,0,0,1,1,2,2,3,3,4,4,5,5,6,6,7,7,8,8,10,10,11,11,12,12,13,13,14,14],"right_children":[2,4,6,8,10,12,14,16,18,-1,20,22,24,26,28,-1,-1,-1,-1,-1,-1,-1,-1,-1,-1,-1,-1,-1,-1],"split_conditions":[1.8278087E0,4.775607E-1,7.702277E-1,3.7215886E0,1E0,5.4703393E0,2.2015116E0,1E0,2E0,-3.3216532E-2,2E0,5.162726E0,4.962733E-1,3.8807387E0,8.007414E-1,-1.8047512E-2,-7.4507616E-4,-6.388335E-3,3.0097172E-2,-2.3507485E-2,8.349384E-3,1.4796141E-2,-2.574698E-2,1.487945E-2,3.7945256E-2,-2.9091164E-2,6.385397E-4,-2.3661258E-2,1.6705712E-2],"split_indices":[0,3,3,2,6,0,0,5,4,0,4,0,3,2,3,0,0,0,0,0,0,0,0,0,0,0,0,0,0],"split_type":[0,0,0,0,0,0,0,0,0,0,0,0,0,0,0,0,0,0,0,0,0,0,0,0,0,0,0,0,0],"sum_hessian":[1.8982248E2,6.812102E1,1.2170147E2,9.869693E0,5.8251324E1,1.05122635E2,1.657883E1,5.883034E0,3.9866588E0,3.544235E1,2.2808975E1,8.623404E1,1.8888601E1,7.2902637E0,9.288567E0,3.490979E0,2.3920553E0,2.4936256E0,1.493033E0,2.0786594E1,2.0223808E0,8.239473E1,3.8393042E0,4.9184017E0,1.3970199E1,5.7557054E0,1.5345585E0,2.0196075E0,7.268959E0],"tree_param":{"num_deleted":"0","num_feature":"7","num_nodes":"29","size_leaf_vector":"1"}},{"base_weights":[8.089423E-3,-2.8031686E-1,2.3026334E-1,-4.4081253E-1,-9.472327E-2,1.16213985E-1,2.7689224E-1,-5.7468656E-2,-4.635103E-1,2.387283E-1,-1.4542918E-1,3.8942686E-1,-9.051447E-2,3.430279E-1,1.4922243E-1,9.723946E-3,-1.7274972E-2,-1.5102515E-2,-3.789174E-2,6.1772787E-4,2.5085628E-2,-1.8398141E-2,-3.6640046E-3,1.5437409E-2,3.4637798E-2,-2.290938E-2,-1.777061E-3,1.6947353E-2,4.0332865E-2,2.8401779E-2,-4.504398E-3],"categories":[],"categories_nodes":[],"categories_segments":[],"categories_sizes":[],"default_left":[0,0,0,0,0,0,0,0,0,0,0,0,0,0,0,0,0,0,0,0,0,0,0,0,0,0,0,0,0,0,0],"id":29,"left_children":[1,3,5,7,9,11,13,15,17,19,21,23,25,27,29,-1,-1,-1,-1,-1,-1,-1,-1,-1,-1,-1,-1,-1,-1,-1,-1],"loss_changes":[1.2357647E1,2.4583545E0,5.4704666E-1,3.6261463E-1,7.143645E-1,1.9178289E0,5.9547234E-1,1.2957408E-1,2.7806282E-2,9.5853746E-2,2.8860396E-1,4.0887117E-2,2.583115E-1,9.4338703E-1,1.2002985E0,0E0,0E0,0E0,0E0,0E0,0E0,0E0,0E0,0E0,0E0,0E0,0E0,0E0,0E0,0E0,0E0],"parents":[2147483647,0,0,1,1,2,2,3,3,4,4,5,5,6,6,7,7,8,8,9,9,10,10,11,11,12,12,13,13,14,14],"right_children":[2,4,6,8,10,12,14,16,18,20,22,24,26,28,30,-1,-1,-1,-1,-1,-1,-1,-1,-1,-1,-1,-1,-1,-1,-1,-1],"split_conditions":[4.273143E-1,1.0082282E-2,1E0,-3.166532E-2,4.158704E-1,5.252974E-1,3.565864E0,2E0,4.158704E-1,2E0,1E0,4.39744E-1,6.074899E-1,3.3683298E0,5.292298E-1,9.723946E-3,-1.7274972E-2,-1.5102515E-2,-3.789174E-2,6.1772787E-4,2.5085628E-2,-1.8398141E-2,-3.6640046E-3,1.5437409E-2,3.4637798E-2,-2.290938E-2,-1.777061E-3,1.6947353E-2,4.0332865E-2,2.8401779E-2,-4.504398E-3],"split_indices":[1,1,6,1,3,3,2,4,3,4,6,3,3,2,3,0,0,0,0,0,0,0,0,0,0,0,0,0,0,0,0],"split_type":[0,0,0,0,0,0,0,0,0,0,0,0,0,0,0,0,0,0,0,0,0,0,0,0,0,0,0,0,0,0,0],"sum_hessian":[1.9085083E2,8.2932976E1,1.07917854E2,4.373614E1,3.919683E1,3.2331284E1,7.558656E1,2.6422899E0,4.109385E1,4.684247E0,3.4512585E1,1.354561E1,1.8785675E1,4.8681633E1,2.6904934E1,1.3500952E0,1.2921946E0,2.160549E0,3.89333E1,1.4161978E0,3.268049E0,1.796161E1,1.6550974E1,3.4431186E0,1.0102492E1,4.031808E0,1.4753867E1,2.8110357E1,2.0571276E1,1.3080112E1,1.3824821E1],"tree_param":{"num_deleted":"0","num_feature":"7","num_nodes":"31","size_leaf_vector":"1"}},{"base_weights":[-2.6476954E-3,-2.9120383E-1,2.2163756E-1,-4.3813765E-1,-9.560866E-2,2.6013136E-1,-3.1659618E-2,-9.864989E-2,-4.6098953E-1,6.642066E-2,-1.7988916E-1,2.2835791E-1,3.974455E-2,-2.7712824E-2,1.3173014E-1,-1.804209E-2,1.1615344E-2,-9.300767E-3,-3.849957E-2,-6.861379E-3,2.6421411E-2,-1.9109024E-2,9.455018E-3,1.574238E-2,4.155696E-2,-2.2705304E-2,2.5041837E-2],"categories":[],"categories_nodes":[],"categories_segments":[],"categories_sizes":[],"default_left":[0,0,0,0,0,0,0,0,0,0,0,0,0,0,0,0,0,0,0,0,0,0,0,0,0,0,0],"id":30,"left_children":[1,3,5,7,9,11,13,15,17,19,21,23,-1,-1,25,-1,-1,-1,-1,-1,-1,-1,-1,-1,-1,-1,-1],"loss_changes":[1.21627865E1,2.3201036E0,1.039329E0,3.164444E-1,5.108579E-1,5.776906E-1,8.089226E-1,1.6313085E-1,2.473545E-1,5.5962336E-1,4.5544422E-1,6.596532E-1,0E0,0E0,8.7947494E-1,0E0,0E0,0E0,0E0,0E0,0E0,0E0,0E0,0E0,0E0,0E0,0E0],"parents":[2147483647,0,0,1,1,2,2,3,3,4,4,5,5,6,6,7,7,8,8,9,9,10,10,11,11,14,14],"right_children":[2,4,6,8,10,12,14,16,18,20,22,24,-1,-1,26,-1,-1,-1,-1,-1,-1,-1,-1,-1,-1,-1,-1],"split_conditions":[4.273143E-1,2.7891822E-2,7.702277E-1,-2.2785623E-2,1.7179172E0,5.882648E0,2.2015116E0,1E0,4.158704E-1,1.4757662E-1,2.2442389E0,7.5087744E-1,3.974455E-2,-2.7712824E-2,8.1192267E-1,-1.804209E-2,1.1615344E-2,-9.300767E-3,-3.849957E-2,-6.861379E-3,2.6421411E-2,-1.9109024E-2,9.455018E-3,1.574238E-2,4.155696E-2,-2.2705304E-2,2.5041837E-2],"split_indices":[1,1,3,1,0,0,0,5,3,1,0,3,0,0,3,0,0,0,0,0,0,0,0,0,0,0,0],"split_type":[0,0,0,0,0,0,0,0,0,0,0,0,0,0,0,0,0,0,0,0,0,0,0,0,0,0,0],"sum_hessian":[1.859353E2,8.118617E1,1.0474913E2,4.5651844E1,3.5534325E1,9.090694E1,1.3842191E1,3.2144768E0,4.243737E1,1.2231385E1,2.3302938E1,8.187955E1,9.027393E0,4.3473663E0,9.494824E0,2.163745E0,1.050732E0,2.7291217E0,3.970825E1,8.185116E0,4.0462694E0,1.961986E1,3.6830785E0,7.537866E1,6.500885E0,2.7123218E0,6.782502E0],"tree_param":{"num_deleted":"0","num_feature":"7","num_nodes":"27","size_leaf_vector":"1"}},{"base_weights":[-2.4244098E-2,-4.179673E-1,1.1023628E-1,-6.765877E-2,-4.3684876E-1,7.3225307E-3,2.6822016E-1,-1.642741E-2,1.1082773E-2,-4.5625395E-1,-1.8171164E-1,1.761203E-1,-1.0263589E-1,1.1529499E-1,3.543848E-1,-1.871802E-2,-3.7810866E-2,-2.1954745E-2,3.7720674E-3,2.210675E-2,-8.981321E-3,1.4698945E-2,-1.351801E-2,1.753531E-2,-3.0949611E-2,4.2072132E-2,1.083047E-2],"categories":[],"categories_nodes":[],"categories_segments":[],"categories_sizes":[],"default_left":[0,0,0,0,0,0,0,0,0,0,0,0,0,0,0,0,0,0,0,0,0,0,0,0,0,0,0],"id":31,"left_children":[1,3,5,7,9,11,13,-1,-1,15,17,19,21,23,25,-1,-1,-1,-1,-1,-1,-1,-1,-1,-1,-1,-1],"loss_changes":[9.471384E0,2.7159548E-1,2.1682558E0,1.281456E-1,1.3007545E-1,1.5373796E0,6.525631E-1,0E0,0E0,3.257656E-2,1.12730026E-1,9.748267E-1,9.8470867E-1,1.1516047E0,1.1750345E0,0E0,0E0,0E0,0E0,0E0,0E0,0E0,0E0,0E0,0E0,0E0,0E0],"parents":[2147483647,0,0,1,1,2,2,3,3,4,4,5,5,6,6,9,9,10,10,11,11,12,12,13,13,14,14],"right_children":[2,4,6,8,10,12,14,-1,-1,16,18,20,22,24,26,-1,-1,-1,-1,-1,-1,-1,-1,-1,-1,-1,-1],"split_conditions":[2.7891822E-2,-3.166532E-2,5.5786693E-1,1E0,1.0082282E-2,5.292298E-1,3.3456848E0,-1.642741E-2,1.1082773E-2,-1.170011E-2,3.7794056E0,2.0951717E0,2.9433858E0,3.1445832E0,3.565864E0,-1.871802E-2,-3.7810866E-2,-2.1954745E-2,3.7720674E-3,2.210675E-2,-8.981321E-3,1.4698945E-2,-1.351801E-2,1.753531E-2,-3.0949611E-2,4.2072132E-2,1.083047E-2],"split_indices":[1,1,1,5,1,3,2,0,0,1,2,0,2,2,2,0,0,0,0,0,0,0,0,0,0,0,0],"split_type":[0,0,0,0,0,0,0,0,0,0,0,0,0,0,0,0,0,0,0,0,0,0,0,0,0,0,0],"sum_hessian":[1.7701051E2,4.4530094E1,1.3248042E2,2.511808E0,4.2018284E1,8.085577E1,5.1624657E1,1.5085878E0,1.0032202E0,3.83158E1,3.702485E0,3.1657095E1,4.9198673E1,1.944742E1,3.2177235E1,3.6790411E0,3.463676E1,2.4932373E0,1.209248E0,2.352424E1,8.132854E0,8.9206085E0,4.0278065E1,1.6580479E1,2.8669412E0,1.7259117E1,1.49181185E1],"tree_param":{"num_deleted":"0","num_feature":"7","num_nodes":"27","size_leaf_vector":"1"}},{"base_weights":[1.5076409E-2,-2.612712E-1,2.4054578E-1,-4.333975E-1,-9.547093E-2,2.5124678E-1,-1.6044267E-2,-1.371567E-1,-4.5500293E-1,2.1075806E-1,-1.4860949E-1,2.2424343E-1,4.5771185E-1,5.502658E-3,-2.3401499E-2,-2.0406809E-2,-3.837714E-2,6.2292226E-4,2.5156125E-2,-1.5596759E-3,-1.7669788E-2,-1.8209461E-2,1.8921113E-2,4.008591E-2,1.3027192E-2],"categories":[],"categories_nodes":[],"categories_segments":[],"categories_sizes":[],"default_left":[0,0,0,0,0,0,0,0,0,0,0,0,0,0,0,0,0,0,0,0,0,0,0,0,0],"id":32,"left_children":[1,3,5,7,9,11,-1,13,15,17,19,21,23,-1,-1,-1,-1,-1,-1,-1,-1,-1,-1,-1,-1],"loss_changes":[1.153302E1,2.332789E0,5.3136396E-1,1.9703007E-1,7.4173063E-1,4.5448208E-1,0E0,1.5407905E-1,6.2137604E-2,1.4212093E-1,3.4825975E-1,5.5467653E-1,5.390477E-2,0E0,0E0,0E0,0E0,0E0,0E0,0E0,0E0,0E0,0E0,0E0,0E0],"parents":[2147483647,0,0,1,1,2,2,3,3,4,4,5,5,7,7,8,8,9,9,10,10,11,11,12,12],"right_children":[2,4,6,8,10,12,-1,14,16,18,20,22,24,-1,-1,-1,-1,-1,-1,-1,-1,-1,-1,-1,-1],"split_conditions":[4.534301E-1,1.0082282E-2,9.1959655E-1,4.39744E-1,4.158704E-1,5.882648E0,-1.6044267E-2,-1.6728322E-3,-1.170011E-2,3.4028625E0,1.7179172E0,3.2488823E-1,6.411147E-1,5.502658E-3,-2.3401499E-2,-2.0406809E-2,-3.837714E-2,6.2292226E-4,2.5156125E-2,-1.5596759E-3,-1.7669788E-2,-1.8209461E-2,1.8921113E-2,4.008591E-2,1.3027192E-2],"split_indices":[1,1,3,3,3,0,0,1,1,2,0,3,3,0,0,0,0,0,0,0,0,0,0,0,0],"split_type":[0,0,0,0,0,0,0,0,0,0,0,0,0,0,0,0,0,0,0,0,0,0,0,0,0],"sum_hessian":[1.8308852E2,8.2191414E1,1.00897095E2,3.953451E1,4.2656906E1,9.892753E1,1.969561E0,3.1868305E0,3.6347683E1,5.8689423E0,3.6787964E1,8.933023E1,9.5973015E0,1.6099865E0,1.576844E0,5.244179E0,3.1103502E1,2.3480058E0,3.5209365E0,1.3656822E1,2.313114E1,1.897688E0,8.743254E1,7.757272E0,1.8400298E0],"tree_param":{"num_deleted":"0","num_feature":"7","num_nodes":"25","size_leaf_vector":"1"}},{"base_weights":[5.0918837E-3,-2.9609102E-1,1.6558877E-1,-8.791416E-3,-3.289987E-1,5.9474163E-2,2.6079792E-1,-1.3079773E-1,1.7759256E-1,-3.1384714E-2,-2.2864929E-1,3.87462E-1,-8.207492E-3,3.2918447E-1,9.951007E-2,4.6280376E-3,-1.6394392E-2,1.8028064E-2,3.876165E-3,-2.1771813E-2,1.0346704E-2,-1.4644453E-2,4.012095E-2,-1.0825221E-2,7.821759E-3,1.6519587E-2,3.7385233E-2,1.5736537E-2,-8.0804825E-3],"categories":[],"categories_nodes":[],"categories_segments":[],"categories_sizes":[],"default_left":[0,0,0,0,0,0,0,0,0,0,0,0,0,0,0,0,0,0,0,0,0,0,0,0,0,0,0,0,0],"id":33,"left_children":[1,3,5,7,9,11,13,15,17,-1,19,21,23,25,27,-1,-1,-1,-1,-1,-1,-1,-1,-1,-1,-1,-1,-1,-1],"loss_changes":[8.597317E0,5.817189E-1,1.1565042E0,1.9110093E-1,2.625985E-1,1.2497808E0,6.384063E-1,8.230455E-2,9.70988E-3,0E0,4.0655875E-1,7.181848E-1,6.5349394E-1,6.2033415E-1,4.0091598E-1,0E0,0E0,0E0,0E0,0E0,0E0,0E0,0E0,0E0,0E0,0E0,0E0,0E0,0E0],"parents":[2147483647,0,0,1,1,2,2,3,3,4,4,5,5,6,6,7,7,8,8,10,10,11,11,12,12,13,13,14,14],"right_children":[2,4,6,8,10,12,14,16,18,-1,20,22,24,26,28,-1,-1,-1,-1,-1,-1,-1,-1,-1,-1,-1,-1,-1,-1],"split_conditions":[1.8278087E0,4.39744E-1,2.3181572E0,3E0,1E0,3.7794665E-1,3.565864E0,3.2355363E0,3.2542968E-1,-3.1384714E-2,2E0,3.2488823E-1,3.5447204E0,3.3456848E0,5.943457E-1,4.6280376E-3,-1.6394392E-2,1.8028064E-2,3.876165E-3,-2.1771813E-2,1.0346704E-2,-1.4644453E-2,4.012095E-2,-1.0825221E-2,7.821759E-3,1.6519587E-2,3.7385233E-2,1.5736537E-2,-8.0804825E-3],"split_indices":[0,3,0,4,6,3,2,2,3,0,4,3,2,2,3,0,0,0,0,0,0,0,0,0,0,0,0,0,0],"split_type":[0,0,0,0,0,0,0,0,0,0,0,0,0,0,0,0,0,0,0,0,0,0,0,0,0,0,0,0,0],"sum_hessian":[1.7584068E2,6.0834995E1,1.1500569E2,6.382237E0,5.4452755E1,5.5156326E1,5.9849365E1,4.0375233E0,2.3447137E0,3.1604269E1,2.2848488E1,8.626622E0,4.6529705E1,4.129794E1,1.8551426E1,1.2009729E0,2.8365505E0,1.1678274E0,1.1768863E0,2.0586775E1,2.2617142E0,1.3364058E0,7.290216E0,2.1030144E1,2.5499561E1,2.3192762E1,1.8105177E1,1.2507589E1,6.043836E0],"tree_param":{"num_deleted":"0","num_feature":"7","num_nodes":"29","size_leaf_vector":"1"}},{"base_weights":[-1.6608465E-2,-2.537631E-1,1.9110213E-1,-4.1156155E-1,-9.3931235E-2,1.5952048E-1,4.326477E-1,-1.7846926E-1,-4.4684425E-1,1.8307203E-1,-1.430087E-1,2.1916683E-1,-6.373179E-2,3.8158927E-2,9.130921E-3,-2.1415513E-2,7.896879E-3,-7.1311435E-3,-3.7318036E-2,-2.5633313E-3,2.3812482E-2,-9.425476E-5,-1.7542552E-2,9.907701E-3,2.8434884E-2,-3.6242153E-2,3.795125E-3],"categories":[],"categories_nodes":[],"categories_segments":[],"categories_sizes":[],"default_left":[0,0,0,0,0,0,0,0,0,0,0,0,0,0,0,0,0,0,0,0,0,0,0,0,0,0,0],"id":34,"left_children":[1,3,5,7,9,11,13,15,17,19,21,23,25,-1,-1,-1,-1,-1,-1,-1,-1,-1,-1,-1,-1,-1,-1],"loss_changes":[8.406707E0,1.9702854E0,6.2535286E-1,2.4745464E-1,5.8175516E-1,1.1070006E0,8.5950255E-2,1.969601E-1,1.9640064E-1,1.7195615E-1,3.813727E-1,8.00308E-1,8.0401033E-1,0E0,0E0,0E0,0E0,0E0,0E0,0E0,0E0,0E0,0E0,0E0,0E0,0E0,0E0],"parents":[2147483647,0,0,1,1,2,2,3,3,4,4,5,5,6,6,7,7,8,8,9,9,10,10,11,11,12,12],"right_children":[2,4,6,8,10,12,14,16,18,20,22,24,26,-1,-1,-1,-1,-1,-1,-1,-1,-1,-1,-1,-1,-1,-1],"split_conditions":[4.534301E-1,1.2930677E-2,5.882648E0,-1.170011E-2,4.158704E-1,6.900194E-1,6.411147E-1,1E0,4.158704E-1,3.4028625E0,1.7179172E0,2.3861055E0,4.9800602E-1,3.8158927E-2,9.130921E-3,-2.1415513E-2,7.896879E-3,-7.1311435E-3,-3.7318036E-2,-2.5633313E-3,2.3812482E-2,-9.425476E-5,-1.7542552E-2,9.907701E-3,2.8434884E-2,-3.6242153E-2,3.795125E-3],"split_indices":[1,1,0,1,3,1,3,5,3,2,0,0,3,0,0,0,0,0,0,0,0,0,0,0,0,0,0],"split_type":[0,0,0,0,0,0,0,0,0,0,0,0,0,0,0,0,0,0,0,0,0,0,0,0,0,0,0],"sum_hessian":[1.6867702E2,7.8652916E1,9.002409E1,3.87857E1,3.9867218E1,8.1083046E1,8.94105E0,5.89554E0,3.289016E1,5.589375E0,3.4277843E1,6.400194E1,1.7081108E1,7.411735E0,1.5293142E0,4.4857855E0,1.4097551E0,1.9993949E0,3.0890766E1,2.1929038E0,3.3964713E0,1.23424425E1,2.19354E1,3.878241E1,2.5219524E1,3.1112309E0,1.3969876E1],"tree_param":{"num_deleted":"0","num_feature":"7","num_nodes":"27","size_leaf_vector":"1"}},{"base_weights":[-8.350128E-3,-2.6079527E-1,1.9067158E-1,-4.1501376E-1,-1.0603861E-1,1.4562681E-1,3.9161023E-1,-6.6554226E-2,-3.519968E-2,1.6168179E-1,-1.5079513E-1,7.5241053E-3,2.0155971E-1,1.1459218E-1,4.5257008E-1,5.4730442E-3,-1.411213E-2,2.7089877E-2,3.999571E-3,-3.153117E-3,-1.7702756E-2,1.9536193E-2,-9.738848E-3,2.0423688E-2,-3.267962E-3,-1.9734582E-2,3.0745417E-2,4.7174305E-2,2.2449864E-2],"categories":[],"categories_nodes":[],"categories_segments":[],"categories_sizes":[],"default_left":[0,0,0,0,0,0,0,0,0,0,0,0,0,0,0,0,0,0,0,0,0,0,0,0,0,0,0,0,0],"id":35,"left_children":[1,3,5,7,9,11,13,15,-1,17,19,21,23,25,27,-1,-1,-1,-1,-1,-1,-1,-1,-1,-1,-1,-1,-1,-1],"loss_changes":[8.62973E0,1.7627921E0,8.1250834E-1,2.978201E-1,4.9324247E-1,6.169692E-1,2.352202E-1,6.6803545E-2,0E0,1.03366375E-1,2.585525E-1,7.676101E-1,7.522569E-1,5.240791E-1,1.5502548E-1,0E0,0E0,0E0,0E0,0E0,0E0,0E0,0E0,0E0,0E0,0E0,0E0,0E0,0E0],"parents":[2147483647,0,0,1,1,2,2,3,3,4,4,5,5,6,6,7,7,9,9,10,10,11,11,12,12,13,13,14,14],"right_children":[2,4,6,8,10,12,14,16,-1,18,20,22,24,26,28,-1,-1,-1,-1,-1,-1,-1,-1,-1,-1,-1,-1,-1,-1],"split_conditions":[4.273143E-1,1.0082282E-2,5.4703393E0,-2.5665734E-2,4.158704E-1,1E0,4.501474E-1,2E0,-3.519968E-2,3.807131E-2,1.7179172E0,5.252974E-1,6.900194E-1,6.2512703E0,6.2598854E-1,5.4730442E-3,-1.411213E-2,2.7089877E-2,3.999571E-3,-3.153117E-3,-1.7702756E-2,1.9536193E-2,-9.738848E-3,2.0423688E-2,-3.267962E-3,-1.9734582E-2,3.0745417E-2,4.7174305E-2,2.2449864E-2],"split_indices":[1,1,0,1,3,6,3,4,0,1,0,3,1,0,3,0,0,0,0,0,0,0,0,0,0,0,0,0,0],"split_type":[0,0,0,0,0,0,0,0,0,0,0,0,0,0,0,0,0,0,0,0,0,0,0,0,0,0,0,0,0],"sum_hessian":[1.6977333E2,7.470494E1,9.506839E1,3.6575207E1,3.8129734E1,7.906825E1,1.6000134E1,2.6918983E0,3.388331E1,5.0871897E0,3.3042545E1,2.3119331E1,5.5948925E1,3.405305E0,1.2594829E1,1.377092E0,1.3148062E0,1.1822706E0,3.904919E0,1.3410914E1,1.963163E1,7.8523E0,1.5267032E1,4.575333E1,1.0195595E1,1.492141E0,1.913164E0,5.655644E0,6.939185E0],"tree_param":{"num_deleted":"0","num_feature":"7","num_nodes":"29","size_leaf_vector":"1"}},{"base_weights":[7.77095E-4,-2.6223555E-1,1.9785388E-1,-4.006968E-1,-9.376643E-2,1.5219235E-1,3.896123E-1,-9.866638E-2,-4.283966E-1,7.645142E-2,-1.729788E-1,1.65726E-1,-2.1709317E-2,4.850177E-1,1.5959226E-1,4.0109735E-3,-1.6466735E-2,-6.9644395E-3,-3.5150457E-2,-7.523043E-3,2.394099E-2,-2.369502E-2,-5.7141404E-3,1.4385855E-2,-1.6980551E-2,5.377716E-3,4.266039E-2,2.794405E-2,-2.1175481E-2],"categories":[],"categories_nodes":[],"categories_segments":[],"categories_sizes":[],"default_left":[0,0,0,0,0,0,0,0,0,0,0,0,0,0,0,0,0,0,0,0,0,0,0,0,0,0,0,0,0],"id":36,"left_children":[1,3,5,7,9,11,13,15,17,19,21,23,-1,25,27,-1,-1,-1,-1,-1,-1,-1,-1,-1,-1,-1,-1,-1,-1],"loss_changes":[8.899021E0,1.6778831E0,8.000326E-1,2.9288197E-1,4.78146E-1,5.087606E-1,3.227427E-1,8.470577E-2,9.820843E-2,4.7045344E-1,2.7710003E-1,4.5924544E-1,0E0,2.1401262E-1,6.42699E-1,0E0,0E0,0E0,0E0,0E0,0E0,0E0,0E0,0E0,0E0,0E0,0E0,0E0,0E0],"parents":[2147483647,0,0,1,1,2,2,3,3,4,4,5,5,6,6,7,7,8,8,9,9,10,10,11,11,13,13,14,14],"right_children":[2,4,6,8,10,12,14,16,18,20,22,24,-1,26,28,-1,-1,-1,-1,-1,-1,-1,-1,-1,-1,-1,-1,-1,-1],"split_conditions":[4.273143E-1,2.7891822E-2,5.4703393E0,4.39744E-1,1.6792985E0,9.1959655E-1,3.3772461E0,-1.6728322E-3,-4.147159E-2,7.853591E-2,1.9830768E0,4.5593357E0,-2.1709317E-2,4.962733E-1,5.8210194E-1,4.0109735E-3,-1.6466735E-2,-6.9644395E-3,-3.5150457E-2,-7.523043E-3,2.394099E-2,-2.369502E-2,-5.7141404E-3,1.4385855E-2,-1.6980551E-2,5.377716E-3,4.266039E-2,2.794405E-2,-2.1175481E-2],"split_indices":[1,1,0,3,0,3,2,1,1,1,0,2,0,3,3,0,0,0,0,0,0,0,0,0,0,0,0,0,0],"split_type":[0,0,0,0,0,0,0,0,0,0,0,0,0,0,0,0,0,0,0,0,0,0,0,0,0,0,0,0,0],"sum_hessian":[1.6968314E2,7.2541214E1,9.7141914E1,3.9060085E1,3.348113E1,7.990791E1,1.7234003E1,3.6645796E0,3.5395508E1,1.0643781E1,2.2837349E1,7.802361E1,1.884298E0,1.1397906E1,5.8360972E0,1.7570546E0,1.9075251E0,1.3817542E0,3.4013752E1,6.3572874E0,4.2864933E0,9.452457E0,1.3384892E1,7.5723694E1,2.2999218E0,1.4274973E0,9.970409E0,4.15502E0,1.6810771E0],"tree_param":{"num_deleted":"0","num_feature":"7","num_nodes":"29","size_leaf_vector":"1"}},{"base_weights":[-8.713213E-3,-2.5031406E-1,1.9063614E-1,-4.205339E-1,-9.69329E-2,3.4671584E-1,1.504979E-1,-1.866357E-1,-3.579636E-2,-2.09673E-1,8.946803E-3,4.747167E-1,1.8032067E-2,-3.146391E-2,1.9384709E-1,1.0668659E-3,-2.6579084E-2,1.6497126E-2,-1.9881682E-2,-7.0571904E-3,1.752278E-2,1.4976178E-3,4.5255024E-2,-3.0851182E-2,3.8647227E-2,1.8208923E-2,-7.0080585E-3],"categories":[],"categories_nodes":[],"categories_segments":[],"categories_sizes":[],"default_left":[0,0,0,0,0,0,0,0,0,0,0,0,0,0,0,0,0,0,0,0,0,0,0,0,0,0,0],"id":37,"left_children":[1,3,5,7,9,11,13,15,-1,17,19,21,23,-1,25,-1,-1,-1,-1,-1,-1,-1,-1,-1,-1,-1,-1],"loss_changes":[7.977327E0,1.9138508E0,5.165112E-1,1.3803864E-1,4.874669E-1,7.4040747E-1,1.8200399E0,1.6012311E-1,0E0,3.7021732E-1,4.6711692E-1,5.1926684E-1,1.3181504E0,0E0,6.7737436E-1,0E0,0E0,0E0,0E0,0E0,0E0,0E0,0E0,0E0,0E0,0E0,0E0],"parents":[2147483647,0,0,1,1,2,2,3,3,4,4,5,5,6,6,7,7,9,9,10,10,11,11,12,12,14,14],"right_children":[2,4,6,8,10,12,14,16,-1,18,20,22,24,-1,26,-1,-1,-1,-1,-1,-1,-1,-1,-1,-1,-1,-1],"split_conditions":[4.534301E-1,1.0082282E-2,2.9433858E0,4.5425278E-1,1E0,6.484912E-1,3.1276374E0,-1.6728322E-3,-3.579636E-2,3.3942878E-1,2E0,2.4898942E0,7.926409E-1,-3.146391E-2,7.702277E-1,1.0668659E-3,-2.6579084E-2,1.6497126E-2,-1.9881682E-2,-7.0571904E-3,1.752278E-2,1.4976178E-3,4.5255024E-2,-3.0851182E-2,3.8647227E-2,1.8208923E-2,-7.0080585E-3],"split_indices":[1,1,2,3,6,3,2,1,0,3,4,2,3,0,3,0,0,0,0,0,0,0,0,0,0,0,0],"split_type":[0,0,0,0,0,0,0,0,0,0,0,0,0,0,0,0,0,0,0,0,0,0,0,0,0,0,0],"sum_hessian":[1.6364116E2,7.386501E1,8.977614E1,3.4185154E1,3.9679863E1,1.6802128E1,7.2974014E1,4.3472366E0,2.9837917E1,1.8742579E1,2.0937284E1,1.1773013E1,5.0291157E0,4.7916775E0,6.8182335E1,2.214392E0,2.132845E0,1.233127E0,1.750945E1,1.4712935E1,6.224348E0,2.1586208E0,9.614392E0,2.7836614E0,2.2454545E0,6.1049667E1,7.132664E0],"tree_param":{"num_deleted":"0","num_feature":"7","num_nodes":"27","size_leaf_vector":"1"}},{"base_weights":[-1.314134E-3,-2.3206437E-1,1.9863927E-1,-4.0433803E-1,-8.515878E-2,9.141052E-2,2.745698E-1,-8.753483E-2,-3.4524973E-2,-1.9051781E-1,8.101957E-3,1.9380371E-1,-3.0647537E-1,3.3749184E-1,1.3369747E-1,-1.6532471E-2,1.02085145E-2,-5.9778295E-3,-2.1673247E-2,-5.324672E-3,1.50030665E-2,8.78197E-3,3.5199206E-2,-2.8401652E-2,-1.511515E-3,-1.89043E-2,3.0331241E-2,-4.2067445E-3,3.5265114E-2],"categories":[],"categories_nodes":[],"categories_segments":[],"categories_sizes":[],"default_left":[0,0,0,0,0,0,0,0,0,0,0,0,0,0,0,0,0,0,0,0,0,0,0,0,0,0,0,0,0],"id":38,"left_children":[1,3,5,7,9,11,13,15,-1,17,19,21,23,25,27,-1,-1,-1,-1,-1,-1,-1,-1,-1,-1,-1,-1,-1,-1],"loss_changes":[7.5892606E0,1.8980737E0,6.9242716E-1,2.6304102E-1,4.189571E-1,1.6088939E0,4.0777397E-1,1.2925386E-1,0E0,1.6583359E-1,3.272206E-1,5.901234E-1,1.07375205E-1,9.179535E-1,1.0204372E0,0E0,0E0,0E0,0E0,0E0,0E0,0E0,0E0,0E0,0E0,0E0,0E0,0E0,0E0],"parents":[2147483647,0,0,1,1,2,2,3,3,4,4,5,5,6,6,7,7,9,9,10,10,11,11,12,12,13,13,14,14],"right_children":[2,4,6,8,10,12,14,16,-1,18,20,22,24,26,28,-1,-1,-1,-1,-1,-1,-1,-1,-1,-1,-1,-1,-1,-1],"split_conditions":[4.6068996E-1,1.19859185E-2,5.5786693E-1,-2.2785623E-2,1E0,5.152139E-1,2E0,1E0,-3.4524973E-2,1.6792985E0,2E0,4.131801E0,4.059115E0,1E0,5.7165813E0,-1.6532471E-2,1.02085145E-2,-5.9778295E-3,-2.1673247E-2,-5.324672E-3,1.50030665E-2,8.78197E-3,3.5199206E-2,-2.8401652E-2,-1.511515E-3,-1.89043E-2,3.0331241E-2,-4.2067445E-3,3.5265114E-2],"split_indices":[1,1,1,1,6,1,4,5,0,0,4,2,0,6,0,0,0,0,0,0,0,0,0,0,0,0,0,0,0],"split_type":[0,0,0,0,0,0,0,0,0,0,0,0,0,0,0,0,0,0,0,0,0,0,0,0,0,0,0,0,0],"sum_hessian":[1.6248676E2,7.5359634E1,8.712711E1,3.3878517E1,4.1481117E1,3.7033062E1,5.009405E1,3.0145087E0,3.0864006E1,1.8987549E1,2.2493568E1,2.9861362E1,7.1717E0,3.3662594E1,1.643146E1,1.9656137E0,1.0488951E0,8.571559E0,1.041599E1,1.6328594E1,6.164974E0,2.3340584E1,6.5207796E0,5.9352865E0,1.2364134E0,1.9617504E0,3.1700844E1,1.0743662E1,5.687797E0],"tree_param":{"num_deleted":"0","num_feature":"7","num_nodes":"29","size_leaf_vector":"1"}},{"base_weights":[1.0125209E-2,-3.6576927E-1,1.320034E-1,4.4598013E-2,-4.057813E-1,-5.767205E-2,1.9440341E-1,-1.4144437E-2,1.73346E-2,-1.8342674E-1,-3.393122E-2,1.9639927E-1,-1.4160405E-1,3.6796007E-1,1.4919822E-1,-5.3381757E-3,-2.0551983E-2,-5.3750176E-4,2.8980546E-2,-1.4792146E-2,6.946655E-3,4.0986817E-2,-2.7411068E-3,-2.5107725E-2,1.4802503E-2],"categories":[],"categories_nodes":[],"categories_segments":[],"categories_sizes":[],"default_left":[0,0,0,0,0,0,0,0,0,0,0,0,0,0,0,0,0,0,0,0,0,0,0,0,0],"id":39,"left_children":[1,3,5,7,9,11,13,-1,-1,15,-1,17,19,21,23,-1,-1,-1,-1,-1,-1,-1,-1,-1,-1],"loss_changes":[7.4871573E0,6.752415E-1,1.4711714E0,2.0810567E-1,7.146788E-2,6.954087E-1,6.7510295E-1,0E0,0E0,2.1877691E-2,0E0,2.7843937E-1,2.5455773E-1,1.0944836E0,1.3107979E0,0E0,0E0,0E0,0E0,0E0,0E0,0E0,0E0,0E0,0E0],"parents":[2147483647,0,0,1,1,2,2,3,3,4,4,5,5,6,6,9,9,11,11,12,12,13,13,14,14],"right_children":[2,4,6,8,10,12,14,-1,-1,16,-1,18,20,22,24,-1,-1,-1,-1,-1,-1,-1,-1,-1,-1],"split_conditions":[4.4942964E-2,4.158704E-1,4.3837854E-1,3.4028625E0,-1.6225856E-2,1.6792985E0,2.9433858E0,-1.4144437E-2,1.73346E-2,3.5333946E0,-3.393122E-2,1.4757662E-1,2.2442389E0,6.484912E-1,3.1276374E0,-5.3381757E-3,-2.0551983E-2,-5.3750176E-4,2.8980546E-2,-1.4792146E-2,6.946655E-3,4.0986817E-2,-2.7411068E-3,-2.5107725E-2,1.4802503E-2],"split_indices":[1,3,1,2,1,0,2,0,0,2,0,1,0,3,2,0,0,0,0,0,0,0,0,0,0],"split_type":[0,0,0,0,0,0,0,0,0,0,0,0,0,0,0,0,0,0,0,0,0,0,0,0,0],"sum_hessian":[1.6137354E2,3.9021877E1,1.2235166E2,3.4565494E0,3.5565327E1,3.0306293E1,9.2045364E1,1.4996586E0,1.956891E0,3.550811E0,3.201452E1,7.1928306E0,2.3113462E1,1.7544989E1,7.450038E1,2.1090798E0,1.4417311E0,3.6645353E0,3.5282953E0,1.9590816E1,3.5226462E0,1.2709319E1,4.8356695E0,4.7938876E0,6.970649E1],"tree_param":{"num_deleted":"0","num_feature":"7","num_nodes":"25","size_leaf_vector":"1"}},{"base_weights":[7.3062576E-4,-2.3501936E-1,1.764123E-1,-3.7528878E-1,-7.9963244E-2,1.2664178E-1,3.907145E-1,-1.2161007E-1,-4.0672424E-1,7.254037E-2,-1.6822778E-1,-3.461168E-2,1.9040215E-1,4.8048398E-1,1.8906559E-1,8.207557E-3,-1.8733045E-2,-1.3772025E-2,-3.436843E-2,-5.0663315E-3,2.503827E-2,-2.4435319E-2,-5.7113557E-3,2.124934E-2,-1.7501429E-2,1.8602163E-2,-1.1789915E-3,4.1285947E-2,1.5053327E-2,3.0947909E-2,-1.994306E-2],"categories":[],"categories_nodes":[],"categories_segments":[],"categories_sizes":[],"default_left":[0,0,0,0,0,0,0,0,0,0,0,0,0,0,0,0,0,0,0,0,0,0,0,0,0,0,0,0,0,0,0],"id":40,"left_children":[1,3,5,7,9,11,13,15,17,19,21,23,25,27,29,-1,-1,-1,-1,-1,-1,-1,-1,-1,-1,-1,-1,-1,-1,-1,-1],"loss_changes":[6.561822E0,1.4414072E0,9.1876936E-1,2.3163176E-1,4.618343E-1,7.7924883E-1,2.1019077E-1,1.5809548E-1,9.208727E-2,4.4268534E-1,2.633257E-1,1.2822483E0,4.7014475E-1,1.5859842E-2,6.8352115E-1,0E0,0E0,0E0,0E0,0E0,0E0,0E0,0E0,0E0,0E0,0E0,0E0,0E0,0E0,0E0,0E0],"parents":[2147483647,0,0,1,1,2,2,3,3,4,4,5,5,6,6,7,7,8,8,9,9,10,10,11,11,12,12,13,13,14,14],"right_children":[2,4,6,8,10,12,14,16,18,20,22,24,26,28,30,-1,-1,-1,-1,-1,-1,-1,-1,-1,-1,-1,-1,-1,-1,-1,-1],"split_conditions":[4.273143E-1,2.7891822E-2,5.4703393E0,4.5425278E-1,1.7179172E0,1E0,3.3772461E0,-4.568381E-3,-1.6225856E-2,1.4757662E-1,1.9830768E0,5.252974E-1,6.900194E-1,3E0,5.8210194E-1,8.207557E-3,-1.8733045E-2,-1.3772025E-2,-3.436843E-2,-5.0663315E-3,2.503827E-2,-2.4435319E-2,-5.7113557E-3,2.124934E-2,-1.7501429E-2,1.8602163E-2,-1.1789915E-3,4.1285947E-2,1.5053327E-2,3.0947909E-2,-1.994306E-2],"split_indices":[1,1,0,3,0,6,2,1,1,1,0,3,1,4,3,0,0,0,0,0,0,0,0,0,0,0,0,0,0,0,0],"split_type":[0,0,0,0,0,0,0,0,0,0,0,0,0,0,0,0,0,0,0,0,0,0,0,0,0,0,0,0,0,0,0],"sum_hessian":[1.5643219E2,6.665246E1,8.977973E1,3.4249115E1,3.2403343E1,7.4149796E1,1.5629937E1,4.3129473E0,2.9936169E1,1.1944229E1,2.0459112E1,2.1140778E1,5.3009018E1,9.858419E0,5.771518E0,1.4710693E0,2.841878E0,3.418091E0,2.6518078E1,8.102298E0,3.8419316E0,7.573479E0,1.28856325E1,7.8692513E0,1.3271526E1,4.3867443E1,9.141573E0,8.10603E0,1.7523887E0,4.0580435E0,1.7134746E0],"tree_param":{"num_deleted":"0","num_feature":"7","num_nodes":"31","size_leaf_vector":"1"}},{"base_weights":[2.404418E-3,-3.7441745E-1,1.2251712E-1,-3.344655E-2,-4.1622764E-1,4.0565357E-2,2.6354507E-1,-1.5119913E-1,1.1352034E-2,-1.764488E-2,-3.445376E-2,-9.833375E-2,1.1619398E-1,-7.589253E-2,2.9417863E-1,1.6489887E-3,-2.0939836E-2,-1.7632726E-3,-2.5377296E-2,1.1483145E-2,-2.3701454E-2,-2.4917917E-2,2.4926204E-2,2.8047703E-2,1.3149842E-2],"categories":[],"categories_nodes":[],"categories_segments":[],"categories_sizes":[],"default_left":[0,0,0,0,0,0,0,0,0,0,0,0,0,0,0,0,0,0,0,0,0,0,0,0,0],"id":41,"left_children":[1,3,5,7,9,11,13,15,-1,-1,-1,17,19,21,23,-1,-1,-1,-1,-1,-1,-1,-1,-1,-1],"loss_changes":[7.167456E0,5.3176975E-1,1.3769783E0,1.302342E-1,1.1315346E-3,8.2155675E-1,4.7928667E-1,7.445475E-2,0E0,0E0,0E0,4.5606476E-1,6.108835E-1,5.0166667E-1,2.3906493E-1,0E0,0E0,0E0,0E0,0E0,0E0,0E0,0E0,0E0,0E0],"parents":[2147483647,0,0,1,1,2,2,3,3,4,4,5,5,6,6,7,7,11,11,12,12,13,13,14,14],"right_children":[2,4,6,8,10,12,14,16,-1,-1,-1,18,20,22,24,-1,-1,-1,-1,-1,-1,-1,-1,-1,-1],"split_conditions":[4.4942964E-2,4.39744E-1,4.0374303E0,9.697672E-3,-1.6225856E-2,1E0,4.3083104E-1,-1.6728322E-3,1.1352034E-2,-1.764488E-2,-3.445376E-2,7.5103164E-1,2.5134766E0,5.843846E0,2E0,1.6489887E-3,-2.0939836E-2,-1.7632726E-3,-2.5377296E-2,1.1483145E-2,-2.3701454E-2,-2.4917917E-2,2.4926204E-2,2.8047703E-2,1.3149842E-2],"split_indices":[1,3,0,1,1,6,3,1,0,0,0,3,0,0,4,0,0,0,0,0,0,0,0,0,0],"split_type":[0,0,0,0,0,0,0,0,0,0,0,0,0,0,0,0,0,0,0,0,0,0,0,0,0],"sum_hessian":[1.563445E2,3.7277855E1,1.1906664E2,4.268369E0,3.3009487E1,7.612046E1,4.2946182E1,2.6359425E0,1.632427E0,3.3877656E0,2.9621721E1,2.6729319E1,4.939114E1,3.43268E0,3.95135E1,1.3505327E0,1.2854097E0,2.0636898E1,6.0924215E0,4.6931667E1,2.459472E0,2.2567265E0,1.1759535E0,2.6356983E1,1.3156519E1],"tree_param":{"num_deleted":"0","num_feature":"7","num_nodes":"25","size_leaf_vector":"1"}},{"base_weights":[7.1540507E-3,-2.314366E-1,1.7944902E-1,-3.8411573E-1,-9.995279E-2,3.0609237E-2,2.3377325E-1,-8.4327534E-2,-4.116165E-1,2.149601E-2,-1.8196858E-1,-1.1734995E-1,2.5651968E-1,2.5136077E-1,-2.4814056E-2,5.927454E-3,-1.6406994E-2,-3.6454443E-2,-2.2778183E-2,-6.241403E-3,2.3209156E-2,-1.8754572E-2,5.148862E-3,6.5557105E-3,-2.5267672E-2,9.799084E-3,3.4803014E-2,2.0941865E-2,-1.6305106E-2],"categories":[],"categories_nodes":[],"categories_segments":[],"categories_sizes":[],"default_left":[0,0,0,0,0,0,0,0,0,0,0,0,0,0,0,0,0,0,0,0,0,0,0,0,0,0,0,0,0],"id":42,"left_children":[1,3,5,7,9,11,13,15,17,19,21,23,25,27,-1,-1,-1,-1,-1,-1,-1,-1,-1,-1,-1,-1,-1,-1,-1],"loss_changes":[6.4426837E0,1.281172E0,7.2849894E-1,2.1314049E-1,3.691647E-1,8.817437E-1,7.141967E-1,8.758155E-2,2.2780418E-2,4.416618E-1,2.9932004E-1,6.6206443E-1,1.9548452E-1,3.6129856E-1,0E0,0E0,0E0,0E0,0E0,0E0,0E0,0E0,0E0,0E0,0E0,0E0,0E0,0E0,0E0],"parents":[2147483647,0,0,1,1,2,2,3,3,4,4,5,5,6,6,7,7,8,8,9,9,10,10,11,11,12,12,13,13],"right_children":[2,4,6,8,10,12,14,16,18,20,22,24,26,28,-1,-1,-1,-1,-1,-1,-1,-1,-1,-1,-1,-1,-1,-1,-1],"split_conditions":[4.273143E-1,1.0082282E-2,1E0,-2.2785623E-2,1.7179172E0,4.372077E0,4.5593357E0,2E0,1E0,1.4757662E-1,2.2442389E0,4.9992356E-1,5.882648E0,4E0,-2.4814056E-2,5.927454E-3,-1.6406994E-2,-3.6454443E-2,-2.2778183E-2,-6.241403E-3,2.3209156E-2,-1.8754572E-2,5.148862E-3,6.5557105E-3,-2.5267672E-2,9.799084E-3,3.4803014E-2,2.0941865E-2,-1.6305106E-2],"split_indices":[1,1,6,1,0,0,2,4,5,1,0,1,0,4,0,0,0,0,0,0,0,0,0,0,0,0,0,0,0],"split_type":[0,0,0,0,0,0,0,0,0,0,0,0,0,0,0,0,0,0,0,0,0,0,0,0,0,0,0,0,0],"sum_hessian":[1.5471559E2,6.4732315E1,8.9983284E1,2.9062975E1,3.5669342E1,2.4478767E1,6.550452E1,2.783727E0,2.6279247E1,1.4675621E1,2.0993721E1,1.5081647E1,9.397121E0,6.3973934E1,1.5305777E0,1.3712602E0,1.4124668E0,1.758236E1,8.696888E0,1.1226254E1,3.4493666E0,1.7347357E1,3.6463656E0,7.8186417E0,7.263005E0,6.3304033E0,3.066718E0,6.2958595E1,1.0153403E0],"tree_param":{"num_deleted":"0","num_feature":"7","num_nodes":"29","size_leaf_vector":"1"}},{"base_weights":[-1.0303571E-2,-2.281105E-1,1.5321083E-1,-3.8263586E-1,-9.409703E-2,1.2270319E-1,4.2283526E-1,-2.4774806E-3,-4.0690166E-1,1.9680685E-1,-1.4686194E-1,-2.6264407E-2,1.7874707E-1,3.711748E-2,9.83618E-3,-1.5486344E-2,-3.451927E-2,2.498739E-2,1.6796927E-3,-1.8389495E-2,-3.9146915E-3,1.4861314E-2,-1.2637145E-2,-1.3323681E-2,1.8858623E-2],"categories":[],"categories_nodes":[],"categories_segments":[],"categories_sizes":[],"default_left":[0,0,0,0,0,0,0,0,0,0,0,0,0,0,0,0,0,0,0,0,0,0,0,0,0],"id":43,"left_children":[1,3,5,7,9,11,13,-1,15,17,19,21,23,-1,-1,-1,-1,-1,-1,-1,-1,-1,-1,-1,-1],"loss_changes":[5.30724E0,1.2868886E0,6.4857435E-1,2.378068E-1,5.743886E-1,6.551328E-1,4.4682503E-2,0E0,6.0027122E-2,1.1295144E-1,2.3792946E-1,6.4842236E-1,1.1557E0,0E0,0E0,0E0,0E0,0E0,0E0,0E0,0E0,0E0,0E0,0E0,0E0],"parents":[2147483647,0,0,1,1,2,2,3,3,4,4,5,5,6,6,8,8,9,9,10,10,11,11,12,12],"right_children":[2,4,6,8,10,12,14,-1,16,18,20,22,24,-1,-1,-1,-1,-1,-1,-1,-1,-1,-1,-1,-1],"split_conditions":[4.273143E-1,1.0082282E-2,5.882648E0,-3.5033144E-2,4.158704E-1,1E0,6.411147E-1,-2.4774806E-3,4.5425278E-1,1.6792985E0,1E0,5.252974E-1,4.4563672E-1,3.711748E-2,9.83618E-3,-1.5486344E-2,-3.451927E-2,2.498739E-2,1.6796927E-3,-1.8389495E-2,-3.9146915E-3,1.4861314E-2,-1.2637145E-2,-1.3323681E-2,1.8858623E-2],"split_indices":[1,1,0,1,3,6,3,0,3,0,6,3,3,0,0,0,0,0,0,0,0,0,0,0,0],"split_type":[0,0,0,0,0,0,0,0,0,0,0,0,0,0,0,0,0,0,0,0,0,0,0,0,0],"sum_hessian":[1.4703746E2,6.2881733E1,8.415573E1,2.8344114E1,3.453762E1,7.69087E1,7.247029E0,1.9764868E0,2.6367628E1,4.8835745E0,2.9654045E1,2.116975E1,5.573895E1,5.891729E0,1.3553003E0,3.642227E0,2.27254E1,2.4783325E0,2.405242E0,1.5320578E1,1.4333468E1,7.953864E0,1.3215885E1,7.623479E0,4.811547E1],"tree_param":{"num_deleted":"0","num_feature":"7","num_nodes":"25","size_leaf_vector":"1"}},{"base_weights":[1.4298303E-2,-3.666467E-1,1.1314621E-1,-1.235232E-1,-3.951303E-1,2.8575592E-2,2.595546E-1,-2.886541E-3,-2.0207237E-2,-4.1912466E-1,-1.527678E-1,3.3471507E-1,-2.021545E-2,2.019672E-2,3.1548333E-1,-6.505009E-3,6.534786E-3,-1.2134379E-2,-3.4651376E-2,6.3045195E-4,-1.8535674E-2,1.6126856E-3,3.775382E-2,-5.5972843E-5,-3.9396275E-2,2.3129873E-2,-1.2497086E-2,1.0233286E-3,2.7706794E-2],"categories":[],"categories_nodes":[],"categories_segments":[],"categories_sizes":[],"default_left":[0,0,0,0,0,0,0,0,0,0,0,0,0,0,0,0,0,0,0,0,0,0,0,0,0,0,0,0,0],"id":44,"left_children":[1,3,5,7,9,11,13,15,-1,17,19,21,23,25,27,-1,-1,-1,-1,-1,-1,-1,-1,-1,-1,-1,-1,-1,-1],"loss_changes":[5.811015E0,1.7142344E-1,1.5083212E0,7.385077E-2,9.8872185E-2,1.1825731E0,5.9199595E-1,2.9772328E-2,0E0,2.7706623E-2,5.3774416E-2,4.5998085E-1,6.340947E-1,4.9748915E-1,3.3328176E-1,0E0,0E0,0E0,0E0,0E0,0E0,0E0,0E0,0E0,0E0,0E0,0E0,0E0,0E0],"parents":[2147483647,0,0,1,1,2,2,3,3,4,4,5,5,6,6,7,7,9,9,10,10,11,11,12,12,13,13,14,14],"right_children":[2,4,6,8,10,12,14,16,-1,18,20,22,24,26,28,-1,-1,-1,-1,-1,-1,-1,-1,-1,-1,-1,-1,-1,-1],"split_conditions":[2.7891822E-2,-1.6225856E-2,4.0374303E0,7.6862055E-1,1.0082282E-2,3.8163048E-1,4.9800602E-1,1E0,-2.0207237E-2,4.158704E-1,1.3998101E-2,3.3460587E-1,5.922962E-1,4.483906E0,2.6741486E0,-6.505009E-3,6.534786E-3,-1.2134379E-2,-3.4651376E-2,6.3045195E-4,-1.8535674E-2,1.6126856E-3,3.775382E-2,-5.5972843E-5,-3.9396275E-2,2.3129873E-2,-1.2497086E-2,1.0233286E-3,2.7706794E-2],"split_indices":[1,1,0,3,1,3,3,6,0,3,1,3,1,0,2,0,0,0,0,0,0,0,0,0,0,0,0,0,0],"split_type":[0,0,0,0,0,0,0,0,0,0,0,0,0,0,0,0,0,0,0,0,0,0,0,0,0,0,0,0,0],"sum_hessian":[1.5221834E2,3.0802172E1,1.2141616E2,3.7898982E0,2.7012274E1,7.7718445E1,4.369772E1,2.4873683E0,1.3025297E0,2.3915285E1,3.0969884E0,9.878101E0,6.784034E1,8.534367E0,3.5163353E1,1.310566E0,1.1768024E0,1.7797444E0,2.213554E1,1.3168523E0,1.780136E0,3.348468E0,6.5296335E0,6.610976E1,1.7305818E0,3.1276026E0,5.4067645E0,3.383335E0,3.1780016E1],"tree_param":{"num_deleted":"0","num_feature":"7","num_nodes":"29","size_leaf_vector":"1"}}]},"name":"gbtree"},"learner_model_param":{"base_score":"[8.1221385E-10]","boost_from_average":"1","num_class":"0","num_feature":"7","num_target":"1"},"objective":{"lambdarank_param":{"lambdarank_bias_norm":"1","lambdarank_normalization":"1","lambdarank_num_pair_per_sample":"4294967295","lambdarank_pair_method":"topk","lambdarank_score_normalization":"1","lambdarank_unbiased":"0","ndcg_exp_gain":"1"},"name":"rank:ndcg"}},"version":[3,2,0]}