{"learner":{"attributes":{"scikit_learn":"{\"_estimator_type\": \"ranker\"}"},"feature_names":["bm25_score","dense_score","price_log","quality","first_observed_age","zero_history","sparse_history"],"feature_types":["float","float","float","float","int","int","int"],"gradient_booster":{"model":{"cats":{"enc":[],"feature_segments":[],"sorted_idx":[]},"gbtree_model_param":{"num_parallel_tree":"1","num_trees":"45"},"iteration_indptr":[0,1,2,3,4,5,6,7,8,9,10,11,12,13,14,15,16,17,18,19,20,21,22,23,24,25,26,27,28,29,30,31,32,33,34,35,36,37,38,39,40,41,42,43,44,45],"tree_info":[0,0,0,0,0,0,0,0,0,0,0,0,0,0,0,0,0,0,0,0,0,0,0,0,0,0,0,0,0,0,0,0,0,0,0,0,0,0,0,0,0,0,0,0,0],"trees":[{"base_weights":[-5.731796E-3,-7.7990156E-1,7.6405966E-1,-7.9906356E-1,-2.5124097E-1,3.2375014E-1,7.3889405E-2,-1.205837E-2,-8.061927E-1,-6.1964723E-3,-2.8647546E-2,4.5337185E-2,2.3933078E-1,-1.7291702E-2,-6.494273E-2,-1.6324375E-2,2.692794E-2],"categories":[],"categories_nodes":[],"categories_segments":[],"categories_sizes":[],"default_left":[0,0,0,0,0,0,0,0,0,0,0,0,0,0,0,0,0],"id":0,"left_children":[1,3,5,7,9,11,-1,-1,13,-1,-1,-1,15,-1,-1,-1,-1],"loss_changes":[1.0314022E2,6.733246E-1,5.7979507E0,2.6123428E-1,5.539456E-2,3.69411E-1,0E0,0E0,9.4013214E-2,0E0,0E0,0E0,9.3144226E-1,0E0,0E0,0E0,0E0],"parents":[2147483647,0,0,1,1,2,2,3,3,4,4,5,5,8,8,12,12],"right_children":[2,4,6,8,10,12,-1,-1,14,-1,-1,-1,16,-1,-1,-1,-1],"split_conditions":[5.9426114E-2,2.8723337E-2,4.0510648E-1,-5.5969637E-2,3.633631E0,1.3718685E0,7.3889405E-2,-1.205837E-2,3.9429992E-1,-6.1964723E-3,-2.8647546E-2,4.5337185E-2,1.8093942E0,-1.7291702E-2,-6.494273E-2,-1.6324375E-2,2.692794E-2],"split_indices":[1,1,1,1,2,0,0,0,3,0,0,0,0,0,0,0,0],"split_type":[0,0,0,0,0,0,0,0,0,0,0,0,0,0,0,0,0],"sum_hessian":[1.710689E2,8.528535E1,8.5783554E1,8.18086E1,3.476748E0,2.362314E1,6.216041E1,1.1306255E0,8.067797E1,1.9805253E0,1.4962227E0,4.6182914E0,1.9004848E1,1.1296222E0,7.954835E1,3.2216291E0,1.5783219E1],"tree_param":{"num_deleted":"0","num_feature":"7","num_nodes":"17","size_leaf_vector":"1"}},{"base_weights":[1.2643773E-2,-5.869961E-1,5.6126E-1,-7.815602E-1,-2.1131182E-1,4.4495133E-1,6.2943034E-2,-1.5644802E-1,-7.936149E-1,-1.22746594E-1,-3.72337E-2,3.0849016E-1,5.300884E-1,-3.648224E-2,1.6522748E-2,-2.7868476E-2,-6.3989274E-2,-2.027843E-2,3.6755144E-3,3.8493484E-2,8.464956E-4,6.1023667E-2,3.7596848E-2],"categories":[],"categories_nodes":[],"categories_segments":[],"categories_sizes":[],"default_left":[0,0,0,0,0,0,0,0,0,0,0,0,0,0,0,0,0,0,0,0,0,0,0],"id":1,"left_children":[1,3,5,7,9,11,-1,13,15,17,-1,19,21,-1,-1,-1,-1,-1,-1,-1,-1,-1,-1],"loss_changes":[1.18396866E2,1.2404488E1,4.579586E0,7.2675323E-1,1.2941589E0,1.3037224E0,0E0,4.6194124E-1,2.9037476E-2,1.0235304E0,0E0,2.6139922E0,7.1022224E-1,0E0,0E0,0E0,0E0,0E0,0E0,0E0,0E0,0E0,0E0],"parents":[2147483647,0,0,1,1,2,2,3,3,4,4,5,5,7,7,8,8,9,9,11,11,12,12],"right_children":[2,4,6,8,10,12,-1,14,16,18,-1,20,22,-1,-1,-1,-1,-1,-1,-1,-1,-1,-1],"split_conditions":[4.2588583E-1,2.8723337E-2,5.550881E0,-5.5969637E-2,2.0782208E0,4.9528494E-1,6.2943034E-2,1E0,2.2638443E0,1E0,-3.72337E-2,2.0782208E0,2.93492E0,-3.648224E-2,1.6522748E-2,-2.7868476E-2,-6.3989274E-2,-2.027843E-2,3.6755144E-3,3.8493484E-2,8.464956E-4,6.1023667E-2,3.7596848E-2],"split_indices":[1,1,0,1,0,1,0,6,2,6,0,0,2,0,0,0,0,0,0,0,0,0,0],"split_type":[0,0,0,0,0,0,0,0,0,0,0,0,0,0,0,0,0,0,0,0,0,0,0],"sum_hessian":[3.5789786E2,1.7096378E2,1.8693408E2,1.1192056E2,5.9043205E1,1.2529185E2,6.1642242E1,2.3819034E0,1.09538666E2,4.488307E1,1.4160132E1,4.991289E1,7.537895E1,1.164484E0,1.2174194E0,2.3019192E0,1.0723674E2,2.500318E1,1.9879894E1,3.1208313E1,1.8704578E1,1.3078012E1,6.230094E1],"tree_param":{"num_deleted":"0","num_feature":"7","num_nodes":"23","size_leaf_vector":"1"}},{"base_weights":[3.5666735E-4,-5.6526756E-1,5.0842744E-1,-7.306602E-1,-1.285775E-1,3.6121336E-1,6.187586E-1,-1.2113701E-1,-7.4611706E-1,1.6368625E-1,-2.692236E-1,4.3231535E-1,2.3495252E-1,6.264053E-1,1.8302854E-2,-4.040666E-2,2.0840501E-2,-6.0649995E-2,-3.21582E-2,-1.077042E-2,3.0363372E-2,-3.4219943E-2,-8.295558E-3,2.4816113E-2,3.925165E-2,2.4992756E-3,2.6289804E-2,4.5757685E-2,6.0456403E-2],"categories":[],"categories_nodes":[],"categories_segments":[],"categories_sizes":[],"default_left":[0,0,0,0,0,0,0,0,0,0,0,0,0,0,0,0,0,0,0,0,0,0,0,0,0,0,0,0,0],"id":2,"left_children":[1,3,5,7,9,11,13,15,17,19,21,23,25,27,-1,-1,-1,-1,-1,-1,-1,-1,-1,-1,-1,-1,-1,-1,-1],"loss_changes":[9.542203E1,1.12543335E1,2.6176186E0,9.8127365E-1,1.8681555E0,5.9272003E-1,1.5066147E-1,7.1872497E-1,1.5287781E-1,1.0194991E0,7.5169635E-1,1.9173813E-1,5.6318104E-1,2.4422836E-1,0E0,0E0,0E0,0E0,0E0,0E0,0E0,0E0,0E0,0E0,0E0,0E0,0E0,0E0,0E0],"parents":[2147483647,0,0,1,1,2,2,3,3,4,4,5,5,6,6,7,7,8,8,9,9,10,10,11,11,12,12,13,13],"right_children":[2,4,6,8,10,12,14,16,18,20,22,24,26,28,-1,-1,-1,-1,-1,-1,-1,-1,-1,-1,-1,-1,-1,-1,-1],"split_conditions":[4.2588583E-1,4.3452755E-2,5.490176E-1,-5.5969637E-2,1.3718685E0,5.074218E-1,4.137404E0,1E0,2.8723337E-2,9.675721E-2,1E0,1E0,5.164425E-1,3.8124237E0,1.8302854E-2,-4.040666E-2,2.0840501E-2,-6.0649995E-2,-3.21582E-2,-1.077042E-2,3.0363372E-2,-3.4219943E-2,-8.295558E-3,2.4816113E-2,3.925165E-2,2.4992756E-3,2.6289804E-2,4.5757685E-2,6.0456403E-2],"split_indices":[1,1,1,1,0,1,2,6,1,1,6,4,1,2,0,0,0,0,0,0,0,0,0,0,0,0,0,0,0],"split_type":[0,0,0,0,0,0,0,0,0,0,0,0,0,0,0,0,0,0,0,0,0,0,0,0,0,0,0,0,0],"sum_hessian":[3.3004456E2,1.5612329E2,1.7392126E2,1.12747826E2,4.337546E1,7.6338E1,9.7583275E1,3.0069993E0,1.0974082E2,1.4038834E1,2.9336626E1,4.7285732E1,2.9052267E1,9.5112015E1,2.4712594E0,1.3377419E0,1.6692574E0,1.0487839E2,4.862436E0,6.0516486E0,7.9871855E0,1.4176141E1,1.5160485E1,1.7327923E1,2.9957808E1,9.570993E0,1.9481274E1,7.075026E1,2.4361755E1],"tree_param":{"num_deleted":"0","num_feature":"7","num_nodes":"29","size_leaf_vector":"1"}},{"base_weights":[1.0968567E-2,-5.249626E-1,5.070328E-1,-6.732337E-1,-1.1523216E-1,3.5239893E-1,5.81057E-1,-2.2456568E-2,-6.9275796E-1,-3.4264958E-1,8.3599344E-2,6.102153E-2,3.9339456E-1,1.08232856E-1,6.2548214E-1,-3.6661875E-2,2.3109343E-2,-1.5714435E-2,-5.608819E-2,-1.6363947E-2,-3.5930526E-2,-8.876519E-3,1.939481E-2,1.7078748E-2,-1.3020565E-2,3.470174E-2,1.0357864E-3,2.8379424E-2,-9.388383E-3,5.56398E-2,4.3772105E-2],"categories":[],"categories_nodes":[],"categories_segments":[],"categories_sizes":[],"default_left":[0,0,0,0,0,0,0,0,0,0,0,0,0,0,0,0,0,0,0,0,0,0,0,0,0,0,0,0,0,0,0],"id":3,"left_children":[1,3,5,7,9,11,13,15,17,19,21,23,25,27,29,-1,-1,-1,-1,-1,-1,-1,-1,-1,-1,-1,-1,-1,-1,-1,-1],"loss_changes":[8.5647095E1,9.330662E0,1.7101364E0,1.4266815E0,1.9439335E0,6.53265E-1,2.2763023E0,7.211942E-1,3.1855392E-1,2.0156264E-1,7.5009954E-1,3.1372392E-1,7.551007E-1,6.4185226E-1,1.7774963E-1,0E0,0E0,0E0,0E0,0E0,0E0,0E0,0E0,0E0,0E0,0E0,0E0,0E0,0E0,0E0,0E0],"parents":[2147483647,0,0,1,1,2,2,3,3,4,4,5,5,6,6,7,7,8,8,9,9,10,10,11,11,12,12,13,13,14,14],"right_children":[2,4,6,8,10,12,14,16,18,20,22,24,26,28,30,-1,-1,-1,-1,-1,-1,-1,-1,-1,-1,-1,-1,-1,-1,-1,-1],"split_conditions":[4.2588583E-1,5.0639983E-2,5.224356E-1,-5.5969637E-2,1E0,4.8092243E-1,4.2473647E-1,1E0,2.2638443E0,2.2608739E-1,1E0,4.7583994E-1,7.9491776E-1,3.6954638E-1,6.003031E-1,-3.6661875E-2,2.3109343E-2,-1.5714435E-2,-5.608819E-2,-1.6363947E-2,-3.5930526E-2,-8.876519E-3,1.939481E-2,1.7078748E-2,-1.3020565E-2,3.470174E-2,1.0357864E-3,2.8379424E-2,-9.388383E-3,5.56398E-2,4.3772105E-2],"split_indices":[1,1,1,1,6,3,3,6,2,1,4,3,3,3,3,0,0,0,0,0,0,0,0,0,0,0,0,0,0,0,0],"split_type":[0,0,0,0,0,0,0,0,0,0,0,0,0,0,0,0,0,0,0,0,0,0,0,0,0,0,0,0,0,0,0],"sum_hessian":[3.201544E2,1.5386526E2,1.6628912E2,1.1250827E2,4.1357002E1,5.569819E1,1.10590935E2,3.3397286E0,1.0916854E2,1.8954317E1,2.2402687E1,7.1768723E0,4.8521317E1,9.793489E0,1.0079745E2,1.1949369E0,2.1447918E0,2.210789E0,1.0695775E2,9.523687E0,9.430629E0,1.020462E1,1.2198066E1,4.2959776E0,2.880895E0,4.3739082E1,4.7822328E0,4.4061546E0,5.3873343E0,4.906349E1,5.1733955E1],"tree_param":{"num_deleted":"0","num_feature":"7","num_nodes":"31","size_leaf_vector":"1"}},{"base_weights":[6.962221E-3,-5.0509584E-1,4.8378664E-1,-6.553583E-1,-1.1192044E-1,3.5539263E-1,5.854612E-1,-8.386358E-2,-6.707004E-1,1.8959366E-1,-2.545927E-1,2.5442344E-1,4.750807E-1,5.6094065E-2,5.02576E-1,-3.39406E-2,1.5330615E-2,-5.764776E-2,-4.6720915E-2,-4.918757E-3,2.997133E-2,-3.8961325E-2,-4.647631E-3,3.2876786E-2,9.366039E-3,5.9938792E-2,2.3575868E-2,-5.6123137E-3,4.205454E-2],"categories":[],"categories_nodes":[],"categories_segments":[],"categories_sizes":[],"default_left":[0,0,0,0,0,0,0,0,0,0,0,0,0,0,0,0,0,0,0,0,0,0,0,0,0,0,0,0,0],"id":4,"left_children":[1,3,5,7,9,11,13,15,17,19,21,23,25,-1,27,-1,-1,-1,-1,-1,-1,-1,-1,-1,-1,-1,-1,-1,-1],"loss_changes":[7.532199E1,8.715141E0,1.8771629E0,8.855972E-1,1.8695419E0,7.629671E-1,4.8776245E-1,4.5183787E-1,3.1032562E-2,6.8148774E-1,1.3037252E0,8.5108757E-1,1.377162E0,0E0,7.5901985E-1,0E0,0E0,0E0,0E0,0E0,0E0,0E0,0E0,0E0,0E0,0E0,0E0,0E0,0E0],"parents":[2147483647,0,0,1,1,2,2,3,3,4,4,5,5,6,6,7,7,8,8,9,9,10,10,11,11,12,12,14,14],"right_children":[2,4,6,8,10,12,14,16,18,20,22,24,26,-1,28,-1,-1,-1,-1,-1,-1,-1,-1,-1,-1,-1,-1,-1,-1],"split_conditions":[4.2588583E-1,4.3452755E-2,3.400524E0,-5.5969637E-2,1.3718685E0,3.670461E0,3.339322E0,1E0,1E0,1.06860586E-1,1E0,2.9912221E0,3.744787E0,5.6094065E-2,3.4018638E0,-3.39406E-2,1.5330615E-2,-5.764776E-2,-4.6720915E-2,-4.918757E-3,2.997133E-2,-3.8961325E-2,-4.647631E-3,3.2876786E-2,9.366039E-3,5.9938792E-2,2.3575868E-2,-5.6123137E-3,4.205454E-2],"split_indices":[1,1,0,1,0,2,2,6,6,1,6,2,2,0,2,0,0,0,0,0,0,0,0,0,0,0,0,0,0],"split_type":[0,0,0,0,0,0,0,0,0,0,0,0,0,0,0,0,0,0,0,0,0,0,0,0,0,0,0,0,0],"sum_hessian":[3.064913E2,1.4775696E2,1.5873434E2,1.064192E2,4.133776E1,7.213637E1,8.6597984E1,2.9512377E0,1.0346796E2,1.3172017E1,2.8165745E1,4.082338E1,3.1312992E1,3.302824E1,5.356974E1,1.0785913E0,1.8726465E0,6.102855E1,4.243941E1,5.8721976E0,7.29982E0,1.2225962E1,1.5939783E1,1.814794E1,2.2675438E1,1.1175029E1,2.0137964E1,1.9984072E0,5.1571335E1],"tree_param":{"num_deleted":"0","num_feature":"7","num_nodes":"29","size_leaf_vector":"1"}},{"base_weights":[2.8878057E-3,-5.322705E-1,3.8339883E-1,-6.4706635E-1,-3.7419772E-1,1.9805142E-1,5.5659235E-1,-5.2644644E-2,-2.3597495E-1,-4.7272694E-1,2.1829781E-1,5.3388305E-2,3.4235278E-1,1.0156739E-1,5.848442E-1,-2.627407E-2,-4.729304E-3,-4.456246E-2,-2.0319486E-2,-6.788267E-3,3.0564532E-2,2.1693794E-2,-7.461013E-3,5.2330807E-2,5.088741E-3,-1.0456615E-2,2.213433E-2,4.9680486E-2,3.4116264E-2],"categories":[],"categories_nodes":[],"categories_segments":[],"categories_sizes":[],"default_left":[0,0,0,0,0,0,0,0,0,0,0,0,0,0,0,0,0,0,0,0,0,0,0,0,0,0,0,0,0],"id":5,"left_children":[1,3,5,7,9,11,13,-1,15,17,19,21,23,25,27,-1,-1,-1,-1,-1,-1,-1,-1,-1,-1,-1,-1,-1,-1],"loss_changes":[6.0507633E1,1.9985542E0,5.4643383E0,1.6174316E-1,3.2742634E0,1.7652423E0,1.0875435E0,0E0,3.5951138E-2,7.23176E-1,4.5087487E-1,1.4257873E0,3.6595635E0,2.975297E-1,2.1511269E-1,0E0,0E0,0E0,0E0,0E0,0E0,0E0,0E0,0E0,0E0,0E0,0E0,0E0,0E0],"parents":[2147483647,0,0,1,1,2,2,3,3,4,4,5,5,6,6,8,8,9,9,10,10,11,11,12,12,13,13,14,14],"right_children":[2,4,6,8,10,12,14,-1,16,18,20,22,24,26,28,-1,-1,-1,-1,-1,-1,-1,-1,-1,-1,-1,-1,-1,-1],"split_conditions":[1.7815195E0,1E0,3.400524E0,1.6401224E0,2E0,3.6763008E0,4.2666274E-1,-5.2644644E-2,3.6788292E0,1E0,3.3357697E0,2.9927278E0,3.744787E0,3.833629E0,7.2578156E-1,-2.627407E-2,-4.729304E-3,-4.456246E-2,-2.0319486E-2,-6.788267E-3,3.0564532E-2,2.1693794E-2,-7.461013E-3,5.2330807E-2,5.088741E-3,-1.0456615E-2,2.213433E-2,4.9680486E-2,3.4116264E-2],"split_indices":[0,6,0,0,4,2,3,0,2,4,2,2,2,2,3,0,0,0,0,0,0,0,0,0,0,0,0,0,0],"split_type":[0,0,0,0,0,0,0,0,0,0,0,0,0,0,0,0,0,0,0,0,0,0,0,0,0,0,0,0,0],"sum_hessian":[2.9513754E2,1.2248016E2,1.7265738E2,6.91607E1,5.331946E1,8.443773E1,8.821964E1,6.677453E1,2.3861723E0,4.589027E1,7.4291916E0,4.2850143E1,4.158759E1,5.4258494E0,8.279379E1,1.0042272E0,1.3819453E0,3.2007412E1,1.3882858E1,2.7746277E0,4.654564E0,1.6901482E1,2.5948662E1,1.899473E1,2.259286E1,2.4412525E0,2.9845972E0,6.5026924E1,1.7766872E1],"tree_param":{"num_deleted":"0","num_feature":"7","num_nodes":"29","size_leaf_vector":"1"}},{"base_weights":[6.739199E-3,-5.1215035E-1,3.5824656E-1,-6.211559E-1,-3.592372E-1,2.5395438E-1,5.805881E-1,-1.0757745E-2,-6.339341E-1,-4.6327055E-2,-3.0846804E-2,1.6827542E-1,3.461527E-1,6.822552E-1,3.7972873E-1,-5.1456913E-2,-2.2910655E-2,-1.5823489E-2,1.8880391E-2,3.0620852E-2,-3.1290664E-3,4.656854E-2,1.1132675E-2,5.603836E-2,5.286324E-3,3.502049E-2,-6.9154506E-3],"categories":[],"categories_nodes":[],"categories_segments":[],"categories_sizes":[],"default_left":[0,0,0,0,0,0,0,0,0,0,0,0,0,0,0,0,0,0,0,0,0,0,0,0,0,0,0],"id":6,"left_children":[1,3,5,7,9,11,13,-1,15,-1,17,19,21,23,25,-1,-1,-1,-1,-1,-1,-1,-1,-1,-1,-1,-1],"loss_changes":[5.455194E1,1.7902584E0,3.9868698E0,3.447857E-1,3.782784E0,9.1450214E-1,8.875561E-1,0E0,3.218651E-2,0E0,1.0342034E0,2.9406953E0,2.7697635E0,3.5824776E-1,6.0928655E-1,0E0,0E0,0E0,0E0,0E0,0E0,0E0,0E0,0E0,0E0,0E0,0E0],"parents":[2147483647,0,0,1,1,2,2,3,3,4,4,5,5,6,6,8,8,10,10,11,11,12,12,13,13,14,14],"right_children":[2,4,6,8,10,12,14,-1,16,-1,18,20,22,24,26,-1,-1,-1,-1,-1,-1,-1,-1,-1,-1,-1,-1],"split_conditions":[1.7815195E0,1E0,5.550881E0,2.2638443E0,1E0,3.670461E0,2E0,-1.0757745E-2,4.1478853E0,-4.6327055E-2,2E0,5.5461705E-1,3.77368E0,9.416802E0,1E0,-5.1456913E-2,-2.2910655E-2,-1.5823489E-2,1.8880391E-2,3.0620852E-2,-3.1290664E-3,4.656854E-2,1.1132675E-2,5.603836E-2,5.286324E-3,3.502049E-2,-6.9154506E-3],"split_indices":[0,6,0,2,4,2,4,0,2,0,4,3,2,0,5,0,0,0,0,0,0,0,0,0,0,0,0],"split_type":[0,0,0,0,0,0,0,0,0,0,0,0,0,0,0,0,0,0,0,0,0,0,0,0,0,0,0],"sum_hessian":[2.970833E2,1.1979171E2,1.7729161E2,6.814896E1,5.164275E1,1.22141655E2,5.514996E1,2.0383356E0,6.611063E1,3.0476145E1,2.1166603E1,6.477348E1,5.736818E1,3.5025E1,2.0124956E1,6.356321E1,2.5474129E0,1.3179856E1,7.9867463E0,3.1426252E1,3.334723E1,2.5961878E1,3.14063E1,3.3885963E1,1.1390407E0,1.7951387E1,2.173568E0],"tree_param":{"num_deleted":"0","num_feature":"7","num_nodes":"27","size_leaf_vector":"1"}},{"base_weights":[-8.318901E-3,-4.5953023E-1,4.2506057E-1,-6.0977954E-1,-9.518721E-2,3.1034008E-1,4.7951886E-1,-4.526356E-2,-6.2623674E-1,-2.4054566E-1,3.4806814E-2,1.1565355E-1,4.5051438E-1,4.9629527E-1,-5.6621917E-2,-3.0369248E-2,1.9891405E-2,-1.4302154E-2,-5.0866246E-2,-1.1189679E-2,-2.6439006E-2,-1.7746251E-2,1.7340166E-2,2.6050178E-2,-1.4121018E-2,5.7711355E-2,1.2956378E-2,1.9383175E-2,4.136775E-2,-1.0048797E-2,3.5411967E-3],"categories":[],"categories_nodes":[],"categories_segments":[],"categories_sizes":[],"default_left":[0,0,0,0,0,0,0,0,0,0,0,0,0,0,0,0,0,0,0,0,0,0,0,0,0,0,0,0,0,0,0],"id":7,"left_children":[1,3,5,7,9,11,13,15,17,19,21,23,25,27,29,-1,-1,-1,-1,-1,-1,-1,-1,-1,-1,-1,-1,-1,-1,-1,-1],"loss_changes":[5.5593395E1,7.5661945E0,7.572231E-1,8.860512E-1,7.991613E-1,1.2992334E0,8.9614296E-1,4.7429177E-1,2.9644394E-1,1.338203E-1,1.1204568E0,1.4116352E0,2.1064658E0,3.6969757E-1,3.2187544E-2,0E0,0E0,0E0,0E0,0E0,0E0,0E0,0E0,0E0,0E0,0E0,0E0,0E0,0E0,0E0,0E0],"parents":[2147483647,0,0,1,1,2,2,3,3,4,4,5,5,6,6,7,7,8,8,9,9,10,10,11,11,12,12,13,13,14,14],"right_children":[2,4,6,8,10,12,14,16,18,20,22,24,26,28,30,-1,-1,-1,-1,-1,-1,-1,-1,-1,-1,-1,-1,-1,-1,-1,-1],"split_conditions":[4.2588583E-1,4.3452755E-2,5.224356E-1,-5.5969637E-2,1E0,3.7003138E0,4.137404E0,1E0,2.2638443E0,2.2608739E-1,1E0,5.874378E-1,3.744787E0,4.5373833E-1,7.585072E-1,-3.0369248E-2,1.9891405E-2,-1.4302154E-2,-5.0866246E-2,-1.1189679E-2,-2.6439006E-2,-1.7746251E-2,1.7340166E-2,2.6050178E-2,-1.4121018E-2,5.7711355E-2,1.2956378E-2,1.9383175E-2,4.136775E-2,-1.0048797E-2,3.5411967E-3],"split_indices":[1,1,1,1,6,2,2,6,2,1,4,3,2,3,1,0,0,0,0,0,0,0,0,0,0,0,0,0,0,0,0],"split_type":[0,0,0,0,0,0,0,0,0,0,0,0,0,0,0,0,0,0,0,0,0,0,0,0,0,0,0,0,0,0,0],"sum_hessian":[2.822998E2,1.3827501E2,1.4402481E2,9.742488E1,4.0850124E1,4.8517563E1,9.5507256E1,2.865986E0,9.45589E1,1.888387E1,2.1966253E1,2.107366E1,2.7443901E1,9.2681465E1,2.8257864E0,1.2043161E0,1.6616701E0,2.3964877E0,9.216241E1,1.0115931E1,8.767938E0,9.021777E0,1.2944477E1,1.2194911E1,8.87875E0,1.3381968E1,1.4061934E1,7.972917E0,8.470855E1,1.5326669E0,1.2931194E0],"tree_param":{"num_deleted":"0","num_feature":"7","num_nodes":"31","size_leaf_vector":"1"}},{"base_weights":[-2.68902E-3,-4.625381E-1,4.1893333E-1,-6.0708636E-1,-9.2235826E-2,2.2024317E-1,4.584706E-1,-5.3168897E-2,-5.074334E-1,3.187565E-1,-2.7401617E-1,3.6740768E-1,-1.3441548E-1,4.0343687E-1,5.59827E-1,-4.4337407E-2,-5.1569133E-3,9.143457E-3,3.2780245E-2,-3.481405E-2,-9.8219635E-3,4.7699115E-3,3.590253E-2,-2.6234005E-2,1.6036859E-2,3.9281618E-2,2.3733048E-2,6.887437E-3,4.5793418E-2],"categories":[],"categories_nodes":[],"categories_segments":[],"categories_sizes":[],"default_left":[0,0,0,0,0,0,0,0,0,0,0,0,0,0,0,0,0,0,0,0,0,0,0,0,0,0,0,0,0],"id":8,"left_children":[1,3,5,7,9,11,13,-1,15,17,19,21,23,25,27,-1,-1,-1,-1,-1,-1,-1,-1,-1,-1,-1,-1,-1,-1],"loss_changes":[5.4830128E1,7.1842995E0,1.0580158E0,2.1943665E-1,3.0126994E0,1.427817E0,4.5536423E-1,0E0,7.884512E-1,1.8517578E-1,6.213927E-1,4.4742966E-1,6.15073E-1,6.279831E-1,1.9166946E-1,0E0,0E0,0E0,0E0,0E0,0E0,0E0,0E0,0E0,0E0,0E0,0E0,0E0,0E0],"parents":[2147483647,0,0,1,1,2,2,3,3,4,4,5,5,6,6,8,8,9,9,10,10,11,11,12,12,13,13,14,14],"right_children":[2,4,6,8,10,12,14,-1,16,18,20,22,24,26,28,-1,-1,-1,-1,-1,-1,-1,-1,-1,-1,-1,-1,-1,-1],"split_conditions":[4.2588583E-1,5.0639983E-2,4.9528494E-1,1E0,1.3718685E0,2.0441954E0,5.7814007E0,-5.3168897E-2,2E0,1.06860586E-1,1E0,5.093145E-1,7.310302E-1,5.760449E-1,4.5373833E-1,-4.4337407E-2,-5.1569133E-3,9.143457E-3,3.2780245E-2,-3.481405E-2,-9.8219635E-3,4.7699115E-3,3.590253E-2,-2.6234005E-2,1.6036859E-2,3.9281618E-2,2.3733048E-2,6.887437E-3,4.5793418E-2],"split_indices":[1,1,1,6,0,0,0,0,4,1,6,3,3,3,3,0,0,0,0,0,0,0,0,0,0,0,0,0,0],"split_type":[0,0,0,0,0,0,0,0,0,0,0,0,0,0,0,0,0,0,0,0,0,0,0,0,0,0,0,0,0],"sum_hessian":[2.8080115E2,1.3426541E2,1.4653574E2,9.610945E1,3.8155964E1,2.5410192E1,1.2112554E2,5.7340363E1,3.876909E1,1.1469875E1,2.6686089E1,1.7933E1,7.4771914E0,8.17292E1,3.9396343E1,3.483851E1,3.93058E0,4.2273397E0,7.2425356E0,1.2010565E1,1.4675523E1,4.112155E0,1.3820847E1,4.7519913E0,2.7252E0,4.2922466E1,3.8806732E1,1.222872E0,3.817347E1],"tree_param":{"num_deleted":"0","num_feature":"7","num_nodes":"29","size_leaf_vector":"1"}},{"base_weights":[2.2142848E-3,-4.2715663E-1,4.0177518E-1,-5.812302E-1,-1.09690346E-1,3.4134063E-1,5.4539996E-1,-1.1090548E-1,-5.924482E-1,1.3948792E-1,-2.5626794E-1,3.70378E-1,1.1057283E-1,1.1314371E-2,5.5603904E-1,-2.8872997E-2,1.4512804E-2,-1.0098849E-2,-4.826084E-2,-1.7498987E-2,2.5442826E-2,-3.408834E-2,-8.943129E-3,4.0918197E-2,2.4674095E-2,-1.4879065E-2,2.3858141E-2,3.849169E-2,5.339475E-2],"categories":[],"categories_nodes":[],"categories_segments":[],"categories_sizes":[],"default_left":[0,0,0,0,0,0,0,0,0,0,0,0,0,0,0,0,0,0,0,0,0,0,0,0,0,0,0,0,0],"id":9,"left_children":[1,3,5,7,9,11,13,15,17,19,21,23,25,-1,27,-1,-1,-1,-1,-1,-1,-1,-1,-1,-1,-1,-1,-1,-1],"loss_changes":[4.7149834E1,6.4160614E0,1.0494518E0,4.0363884E-1,1.6617393E0,6.48345E-1,9.5368385E-2,3.0683404E-1,3.6066246E-1,1.1655906E0,6.4880884E-1,6.372261E-1,7.746215E-1,0E0,5.1259995E-3,0E0,0E0,0E0,0E0,0E0,0E0,0E0,0E0,0E0,0E0,0E0,0E0,0E0,0E0],"parents":[2147483647,0,0,1,1,2,2,3,3,4,4,5,5,6,6,7,7,8,8,9,9,10,10,11,11,12,12,14,14],"right_children":[2,4,6,8,10,12,14,16,18,20,22,24,26,-1,28,-1,-1,-1,-1,-1,-1,-1,-1,-1,-1,-1,-1,-1,-1],"split_conditions":[4.2588583E-1,2.8723337E-2,5.7814007E0,-5.5969637E-2,1.3718685E0,7.891059E-1,4.6106672E-1,1E0,2.2638443E0,5.9426114E-2,1E0,3.0699117E0,3.670461E0,1.1314371E-2,3.8066626E0,-2.8872997E-2,1.4512804E-2,-1.0098849E-2,-4.826084E-2,-1.7498987E-2,2.5442826E-2,-3.408834E-2,-8.943129E-3,4.0918197E-2,2.4674095E-2,-1.4879065E-2,2.3858141E-2,3.849169E-2,5.339475E-2],"split_indices":[1,1,0,1,0,3,3,6,2,1,6,2,2,0,2,0,0,0,0,0,0,0,0,0,0,0,0,0,0],"split_type":[0,0,0,0,0,0,0,0,0,0,0,0,0,0,0,0,0,0,0,0,0,0,0,0,0,0,0,0,0],"sum_hessian":[2.728299E2,1.314759E2,1.4135399E2,8.795737E1,4.3518547E1,1.01866936E2,3.9487053E1,2.3026521E0,8.565472E1,1.6136042E1,2.7382504E1,8.994432E1,1.1922616E1,1.3800327E0,3.8107018E1,1.1146579E0,1.1879942E0,2.2287695E0,8.342594E1,5.29248E0,1.0843563E1,1.1690707E1,1.5691796E1,2.5228527E1,6.471579E1,4.623961E0,7.2986555E0,2.5967735E1,1.2139283E1],"tree_param":{"num_deleted":"0","num_feature":"7","num_nodes":"29","size_leaf_vector":"1"}},{"base_weights":[1.2498212E-3,-4.3260536E-1,3.9502373E-1,-5.64484E-1,-1.3634832E-1,3.0300024E-1,4.590459E-1,-5.1299542E-2,-4.441817E-1,1.23412475E-1,-2.6517108E-1,1.3133287E-1,3.6180434E-1,1.6139619E-1,4.8879817E-1,-4.6356168E-2,-1.3498432E-2,-1.4019039E-2,2.9042516E-2,-3.3184674E-2,-1.0740748E-2,1.819321E-2,-7.67004E-3,3.197911E-2,1.6698568E-3,-1.4675054E-2,3.1114077E-2,5.0000217E-2,2.8462114E-2],"categories":[],"categories_nodes":[],"categories_segments":[],"categories_sizes":[],"default_left":[0,0,0,0,0,0,0,0,0,0,0,0,0,0,0,0,0,0,0,0,0,0,0,0,0,0,0,0,0],"id":10,"left_children":[1,3,5,7,9,11,13,-1,15,17,19,21,23,25,27,-1,-1,-1,-1,-1,-1,-1,-1,-1,-1,-1,-1,-1,-1],"loss_changes":[4.5871193E1,4.914259E0,6.901531E-1,5.28553E-1,1.3936564E0,5.651221E-1,6.3897705E-1,0E0,1.301868E0,1.0773072E0,4.831009E-1,3.9411372E-1,5.689173E-1,7.6645386E-1,1.103941E0,0E0,0E0,0E0,0E0,0E0,0E0,0E0,0E0,0E0,0E0,0E0,0E0,0E0,0E0],"parents":[2147483647,0,0,1,1,2,2,3,3,4,4,5,5,6,6,8,8,9,9,10,10,11,11,12,12,13,13,14,14],"right_children":[2,4,6,8,10,12,14,-1,16,18,20,22,24,26,28,-1,-1,-1,-1,-1,-1,-1,-1,-1,-1,-1,-1,-1,-1],"split_conditions":[4.2588583E-1,3.5266664E-2,3.400524E0,1E0,1.3718685E0,1E0,4.6867624E-1,-5.1299542E-2,1E0,9.675721E-2,1E0,2.2898228E0,7.9491776E-1,5.568735E0,5.760449E-1,-4.6356168E-2,-1.3498432E-2,-1.4019039E-2,2.9042516E-2,-3.3184674E-2,-1.0740748E-2,1.819321E-2,-7.67004E-3,3.197911E-2,1.6698568E-3,-1.4675054E-2,3.1114077E-2,5.0000217E-2,2.8462114E-2],"split_indices":[1,1,0,6,0,4,3,0,4,1,6,0,3,0,3,0,0,0,0,0,0,0,0,0,0,0,0,0,0],"split_type":[0,0,0,0,0,0,0,0,0,0,0,0,0,0,0,0,0,0,0,0,0,0,0,0,0,0,0,0,0],"sum_hessian":[2.665022E2,1.2675096E2,1.3975125E2,8.708137E1,3.9669594E1,5.968893E1,8.006231E1,5.051767E1,3.65637E1,1.316514E1,2.6504454E1,1.605444E1,4.363449E1,7.8594084E0,7.22029E1,2.3781357E1,1.2782343E1,5.9802732E0,7.1848674E0,1.1355758E1,1.5148696E1,1.1282408E1,4.7720323E0,3.9110294E1,4.524198E0,3.2013552E0,4.658053E0,3.3847267E1,3.8355637E1],"tree_param":{"num_deleted":"0","num_feature":"7","num_nodes":"29","size_leaf_vector":"1"}},{"base_weights":[3.0493718E-3,-4.1311577E-1,3.833167E-1,-5.479612E-1,-1.1825891E-1,2.8762415E-1,4.5109022E-1,-6.163555E-1,-4.428565E-1,1.3038959E-1,-2.5388533E-1,1.4261524E-1,3.958701E-1,4.705851E-2,3.8551247E-1,-1.228453E-2,-5.045474E-2,-4.1121554E-2,4.2819637E-3,-1.7180659E-2,2.0856094E-2,-3.3551484E-2,-8.849474E-3,2.7140068E-2,-3.2520758E-3,4.776091E-2,1.7930234E-2,-8.972854E-3,3.3126067E-2],"categories":[],"categories_nodes":[],"categories_segments":[],"categories_sizes":[],"default_left":[0,0,0,0,0,0,0,0,0,0,0,0,0,0,0,0,0,0,0,0,0,0,0,0,0,0,0,0,0],"id":11,"left_children":[1,3,5,7,9,11,13,15,17,19,21,23,25,-1,27,-1,-1,-1,-1,-1,-1,-1,-1,-1,-1,-1,-1,-1,-1],"loss_changes":[4.259777E1,5.0453224E0,7.82423E-1,3.590374E-1,1.4362456E0,9.021821E-1,4.9788094E-1,2.394085E-1,1.3772302E0,7.461867E-1,6.000353E-1,1.0108128E0,1.0547318E0,0E0,8.6256695E-1,0E0,0E0,0E0,0E0,0E0,0E0,0E0,0E0,0E0,0E0,0E0,0E0,0E0,0E0],"parents":[2147483647,0,0,1,1,2,2,3,3,4,4,5,5,6,6,7,7,8,8,9,9,10,10,11,11,12,12,14,14],"right_children":[2,4,6,8,10,12,14,16,18,20,22,24,26,-1,28,-1,-1,-1,-1,-1,-1,-1,-1,-1,-1,-1,-1,-1,-1],"split_conditions":[4.2588583E-1,3.5266664E-2,3.400524E0,1E0,1.3718685E0,3.670461E0,3.0521126E0,2.2638443E0,2E0,5.9426114E-2,1E0,5.059046E-1,3.744787E0,4.705851E-2,3.2216718E0,-1.228453E-2,-5.045474E-2,-4.1121554E-2,4.2819637E-3,-1.7180659E-2,2.0856094E-2,-3.3551484E-2,-8.849474E-3,2.7140068E-2,-3.2520758E-3,4.776091E-2,1.7930234E-2,-8.972854E-3,3.3126067E-2],"split_indices":[1,1,0,6,0,2,2,2,4,1,6,3,2,0,2,0,0,0,0,0,0,0,0,0,0,0,0,0,0],"split_type":[0,0,0,0,0,0,0,0,0,0,0,0,0,0,0,0,0,0,0,0,0,0,0,0,0,0,0,0,0],"sum_hessian":[2.671728E2,1.2752398E2,1.3964882E2,8.6916504E1,4.060748E1,6.007295E1,7.957587E1,4.970679E1,3.7209713E1,1.4345676E1,2.6261803E1,2.666687E1,3.340608E1,2.316386E1,5.6412006E1,1.8446258E0,4.7862167E1,3.2513E1,4.696713E0,3.7541826E0,1.0591494E1,1.1290805E1,1.4970998E1,1.2453614E1,1.4213255E1,1.424564E1,1.916044E1,2.9031055E0,5.3508904E1],"tree_param":{"num_deleted":"0","num_feature":"7","num_nodes":"29","size_leaf_vector":"1"}},{"base_weights":[5.529724E-4,-3.9693326E-1,3.7104034E-1,-5.403623E-1,-1.0573512E-1,2.994159E-1,5.315765E-1,-4.878795E-2,-4.3378338E-1,8.1955776E-2,-2.2140583E-1,3.1888774E-1,7.518481E-2,2.6815473E-3,4.3637414E-2,-4.5367733E-2,-1.4005851E-2,-1.53338425E-2,1.7922785E-2,-2.9254738E-2,-7.881852E-3,3.0474987E-2,1.9018646E-2,-1.3494284E-2,2.2745116E-2],"categories":[],"categories_nodes":[],"categories_segments":[],"categories_sizes":[],"default_left":[0,0,0,0,0,0,0,0,0,0,0,0,0,0,0,0,0,0,0,0,0,0,0,0,0],"id":12,"left_children":[1,3,5,7,9,11,13,-1,15,17,19,21,23,-1,-1,-1,-1,-1,-1,-1,-1,-1,-1,-1,-1],"loss_changes":[3.8644855E1,5.2303753E0,1.4025612E0,3.6182022E-1,9.521482E-1,3.9609146E-1,2.6270103E-1,0E0,1.1714187E0,7.090444E-1,4.40668E-1,3.5364628E-1,5.067233E-1,0E0,0E0,0E0,0E0,0E0,0E0,0E0,0E0,0E0,0E0,0E0,0E0],"parents":[2147483647,0,0,1,1,2,2,3,3,4,4,5,5,6,6,8,8,9,9,10,10,11,11,12,12],"right_children":[2,4,6,8,10,12,14,-1,16,18,20,22,24,-1,-1,-1,-1,-1,-1,-1,-1,-1,-1,-1,-1],"split_conditions":[4.2588583E-1,2.8723337E-2,5.7814007E0,1E0,1.3718685E0,7.891059E-1,4.6106672E-1,-4.878795E-2,1E0,5.9426114E-2,1E0,1E0,9.362E-1,2.6815473E-3,4.3637414E-2,-4.5367733E-2,-1.4005851E-2,-1.53338425E-2,1.7922785E-2,-2.9254738E-2,-7.881852E-3,3.0474987E-2,1.9018646E-2,-1.3494284E-2,2.2745116E-2],"split_indices":[1,1,0,6,0,3,3,0,4,1,6,5,3,0,0,0,0,0,0,0,0,0,0,0,0],"split_type":[0,0,0,0,0,0,0,0,0,0,0,0,0,0,0,0,0,0,0,0,0,0,0,0,0],"sum_hessian":[2.6041946E2,1.2559764E2,1.3482182E2,8.357654E1,4.2021103E1,9.520878E1,3.961304E1,4.7733383E1,3.5843155E1,1.6133636E1,2.5887466E1,8.721319E1,7.9955926E0,1.1674664E0,3.8445576E1,2.286752E1,1.29756365E1,5.3947926E0,1.0738844E1,1.0998307E1,1.488916E1,4.7330814E1,3.988237E1,3.7805526E0,4.21504E0],"tree_param":{"num_deleted":"0","num_feature":"7","num_nodes":"25","size_leaf_vector":"1"}},{"base_weights":[-9.66436E-3,-3.9715615E-1,3.4132394E-1,-5.3801376E-1,-1.2066218E-1,2.6868102E-1,4.989774E-1,-5.9953505E-1,-4.3993586E-1,4.8337847E-2,-2.2666754E-1,3.2396668E-1,1.4727177E-1,4.638384E-2,4.0304285E-1,-1.4320686E-2,-4.8921857E-2,-4.371247E-2,-1.6990418E-2,-1.3185024E-2,2.1936228E-2,-2.9524485E-2,-8.0028875E-3,2.7334422E-2,-9.31218E-3,2.1005677E-2,-2.4333576E-2,3.9843235E-2,2.1877157E-2],"categories":[],"categories_nodes":[],"categories_segments":[],"categories_sizes":[],"default_left":[0,0,0,0,0,0,0,0,0,0,0,0,0,0,0,0,0,0,0,0,0,0,0,0,0,0,0,0,0],"id":13,"left_children":[1,3,5,7,9,11,13,15,17,19,21,23,25,-1,27,-1,-1,-1,-1,-1,-1,-1,-1,-1,-1,-1,-1,-1,-1],"loss_changes":[3.4896244E1,4.684084E0,1.4079599E0,2.2193336E-1,7.7132523E-1,5.855255E-1,8.657646E-2,1.2600899E-1,7.267151E-1,8.725208E-1,4.3654716E-1,5.389247E-1,1.7117493E0,0E0,1.3666964E-1,0E0,0E0,0E0,0E0,0E0,0E0,0E0,0E0,0E0,0E0,0E0,0E0,0E0,0E0],"parents":[2147483647,0,0,1,1,2,2,3,3,4,4,5,5,6,6,7,7,8,8,9,9,10,10,11,11,12,12,14,14],"right_children":[2,4,6,8,10,12,14,16,18,20,22,24,26,-1,28,-1,-1,-1,-1,-1,-1,-1,-1,-1,-1,-1,-1,-1,-1],"split_conditions":[4.2588583E-1,2.8723337E-2,5.7814007E0,1E0,1.3718685E0,6.6586226E-1,8.2311827E-1,2.2638443E0,1E0,9.675721E-2,1E0,4.137404E0,6.557513E-1,4.638384E-2,1E0,-1.4320686E-2,-4.8921857E-2,-4.371247E-2,-1.6990418E-2,-1.3185024E-2,2.1936228E-2,-2.9524485E-2,-8.0028875E-3,2.7334422E-2,-9.31218E-3,2.1005677E-2,-2.4333576E-2,3.9843235E-2,2.1877157E-2],"split_indices":[1,1,0,6,0,3,1,2,4,1,6,2,1,0,4,0,0,0,0,0,0,0,0,0,0,0,0,0,0],"split_type":[0,0,0,0,0,0,0,0,0,0,0,0,0,0,0,0,0,0,0,0,0,0,0,0,0,0,0,0,0],"sum_hessian":[2.545837E2,1.20937225E2,1.3364647E2,7.949387E1,4.144335E1,9.334129E1,4.0305183E1,4.5709103E1,3.378477E1,1.6184717E1,2.5258635E1,6.2989586E1,3.0351707E1,1.9138311E1,2.116687E1,1.7085325E0,4.400057E1,2.206137E1,1.1723399E1,8.465789E0,7.71893E0,1.0988451E1,1.4270183E1,6.0769276E1,2.2203085E0,2.4510134E1,5.8415737E0,1.0572398E1,1.0594471E1],"tree_param":{"num_deleted":"0","num_feature":"7","num_nodes":"29","size_leaf_vector":"1"}},{"base_weights":[1.0866227E-2,-3.7557155E-1,3.629848E-1,-5.200584E-1,-9.85431E-2,2.4006549E-1,4.4417435E-1,-1.37995E-4,-5.348053E-1,9.609763E-2,-2.1174817E-1,7.045477E-2,3.6393887E-1,4.463692E-2,3.8343188E-1,-4.6945356E-2,-3.58716E-2,-8.305204E-3,2.2322055E-2,-2.7630588E-2,-8.239649E-3,1.6186077E-2,-2.3753585E-2,4.5272537E-2,1.5325314E-2,-1.233941E-2,3.267296E-2],"categories":[],"categories_nodes":[],"categories_segments":[],"categories_sizes":[],"default_left":[0,0,0,0,0,0,0,0,0,0,0,0,0,0,0,0,0,0,0,0,0,0,0,0,0,0,0],"id":14,"left_children":[1,3,5,7,9,11,13,-1,15,17,19,21,23,-1,25,-1,-1,-1,-1,-1,-1,-1,-1,-1,-1,-1,-1],"loss_changes":[3.470392E1,4.8163795E0,1.2249718E0,6.082134E-1,9.660342E-1,1.1352069E0,3.3331966E-1,0E0,8.5105896E-2,6.312868E-1,3.6333454E-1,1.2499385E0,9.9487114E-1,0E0,7.9927635E-1,0E0,0E0,0E0,0E0,0E0,0E0,0E0,0E0,0E0,0E0,0E0,0E0],"parents":[2147483647,0,0,1,1,2,2,3,3,4,4,5,5,6,6,8,8,9,9,10,10,11,11,12,12,14,14],"right_children":[2,4,6,8,10,12,14,-1,16,18,20,22,24,-1,26,-1,-1,-1,-1,-1,-1,-1,-1,-1,-1,-1,-1],"split_conditions":[4.3514895E-1,3.5266664E-2,2.368443E0,-5.5969637E-2,1.3718685E0,3.670461E0,3.0521126E0,-1.37995E-4,1E0,1.06860586E-1,1E0,5.9396976E-1,3.744787E0,4.463692E-2,3.2216718E0,-4.6945356E-2,-3.58716E-2,-8.305204E-3,2.2322055E-2,-2.7630588E-2,-8.239649E-3,1.6186077E-2,-2.3753585E-2,4.5272537E-2,1.5325314E-2,-1.233941E-2,3.267296E-2],"split_indices":[1,1,0,1,0,2,2,0,6,1,6,3,2,0,2,0,0,0,0,0,0,0,0,0,0,0,0],"split_type":[0,0,0,0,0,0,0,0,0,0,0,0,0,0,0,0,0,0,0,0,0,0,0,0,0,0,0],"sum_hessian":[2.5303911E2,1.20608696E2,1.324304E2,7.868993E1,4.191876E1,5.425153E1,7.817888E1,2.2077482E0,7.6482185E1,1.5470484E1,2.6448275E1,2.3560555E1,3.0690975E1,2.43601E1,5.3818783E1,4.4129143E1,3.2353043E1,7.5987177E0,7.871766E0,1.0890395E1,1.5557879E1,1.7667847E1,5.892709E0,1.3080996E1,1.7609978E1,2.1596525E0,5.165913E1],"tree_param":{"num_deleted":"0","num_feature":"7","num_nodes":"27","size_leaf_vector":"1"}},{"base_weights":[4.2791613E-3,-3.7457186E-1,3.4501565E-1,-5.005483E-1,-1.0953216E-1,2.1454823E-1,4.2495307E-1,-5.754947E-1,-3.9182425E-1,1.13695726E-1,-2.187035E-1,3.549549E-1,2.4840843E-2,4.3985434E-2,3.5585332E-1,-1.1981139E-2,-4.6971306E-2,-3.6463574E-2,4.5963675E-3,-6.8182405E-3,1.9779623E-2,-2.7903046E-2,-8.830108E-3,-5.0191353E-3,3.5230633E-2,1.8817881E-2,-7.8065703E-3,-1.1995759E-2,2.9997876E-2],"categories":[],"categories_nodes":[],"categories_segments":[],"categories_sizes":[],"default_left":[0,0,0,0,0,0,0,0,0,0,0,0,0,0,0,0,0,0,0,0,0,0,0,0,0,0,0,0,0],"id":15,"left_children":[1,3,5,7,9,11,13,15,17,19,21,23,25,-1,27,-1,-1,-1,-1,-1,-1,-1,-1,-1,-1,-1,-1,-1,-1],"loss_changes":[3.2153774E1,3.8833942E0,1.276432E0,4.236927E-1,9.8214877E-1,1.3719897E0,4.9711704E-1,1.3532734E-1,1.0505662E0,3.8128865E-1,3.3805835E-1,1.0879607E0,6.1852884E-1,0E0,5.8351517E-1,0E0,0E0,0E0,0E0,0E0,0E0,0E0,0E0,0E0,0E0,0E0,0E0,0E0,0E0],"parents":[2147483647,0,0,1,1,2,2,3,3,4,4,5,5,6,6,7,7,8,8,9,9,10,10,11,11,12,12,14,14],"right_children":[2,4,6,8,10,12,14,16,18,20,22,24,26,-1,28,-1,-1,-1,-1,-1,-1,-1,-1,-1,-1,-1,-1,-1,-1],"split_conditions":[4.2588583E-1,4.3452755E-2,2.368443E0,1E0,1.3718685E0,2.081584E0,3.0521126E0,2.2638443E0,2E0,9.675721E-2,1E0,5.116009E-1,4.8377046E-1,4.3985434E-2,3.2216718E0,-1.1981139E-2,-4.6971306E-2,-3.6463574E-2,4.5963675E-3,-6.8182405E-3,1.9779623E-2,-2.7903046E-2,-8.830108E-3,-5.0191353E-3,3.5230633E-2,1.8817881E-2,-7.8065703E-3,-1.1995759E-2,2.9997876E-2],"split_indices":[1,1,0,6,0,0,2,2,4,1,6,3,3,0,2,0,0,0,0,0,0,0,0,0,0,0,0,0,0],"split_type":[0,0,0,0,0,0,0,0,0,0,0,0,0,0,0,0,0,0,0,0,0,0,0,0,0,0,0,0,0],"sum_hessian":[2.470823E2,1.1695051E2,1.301318E2,7.866943E1,3.8281075E1,5.083954E1,7.929226E1,4.402716E1,3.464227E1,1.255921E1,2.5721865E1,2.8715498E1,2.2124043E1,2.576943E1,5.352283E1,1.5414108E0,4.248575E1,3.0311827E1,4.3304434E0,5.190187E0,7.369023E0,1.0678649E1,1.5043216E1,4.920866E0,2.3794632E1,7.7994184E0,1.4324624E1,1.7003285E0,5.1822502E1],"tree_param":{"num_deleted":"0","num_feature":"7","num_nodes":"29","size_leaf_vector":"1"}},{"base_weights":[4.3762466E-3,-3.6367214E-1,3.3999956E-1,-4.9388862E-1,-1.0810118E-1,2.8143066E-1,4.7969648E-1,-6.255456E-2,-5.068607E-1,-2.4877667E-1,1.25362035E-2,3.5821322E-1,1.471247E-1,4.453097E-2,3.4804553E-1,-1.5068812E-2,6.12746E-3,-4.5295108E-2,-3.3337653E-2,-9.790536E-3,-2.5493333E-2,1.8844506E-2,-8.42911E-3,3.1843614E-2,8.156786E-4,9.153332E-3,4.298943E-2,1.2840401E-2,3.3727523E-2],"categories":[],"categories_nodes":[],"categories_segments":[],"categories_sizes":[],"default_left":[0,0,0,0,0,0,0,0,0,0,0,0,0,0,0,0,0,0,0,0,0,0,0,0,0,0,0,0,0],"id":16,"left_children":[1,3,5,7,9,11,13,15,17,19,21,23,25,-1,27,-1,-1,-1,-1,-1,-1,-1,-1,-1,-1,-1,-1,-1,-1],"loss_changes":[2.995566E1,3.7960978E0,9.027357E-1,3.9548492E-1,6.87433E-1,8.9382267E-1,1.7140484E-1,7.34186E-2,1.5967941E-1,1.2586999E-1,6.2063473E-1,7.9581785E-1,3.863263E-1,0E0,1.5254366E-1,0E0,0E0,0E0,0E0,0E0,0E0,0E0,0E0,0E0,0E0,0E0,0E0,0E0,0E0],"parents":[2147483647,0,0,1,1,2,2,3,3,4,4,5,5,6,6,7,7,8,8,9,9,10,10,11,11,12,12,14,14],"right_children":[2,4,6,8,10,12,14,16,18,20,22,24,26,-1,28,-1,-1,-1,-1,-1,-1,-1,-1,-1,-1,-1,-1,-1,-1],"split_conditions":[4.2588583E-1,3.5266664E-2,5.8770304E0,-5.5969637E-2,1E0,1E0,8.2311827E-1,3.503453E0,1E0,1.3718685E0,1.3718685E0,7.5106907E-1,4.458177E0,4.453097E-2,5.6789523E-1,-1.5068812E-2,6.12746E-3,-4.5295108E-2,-3.3337653E-2,-9.790536E-3,-2.5493333E-2,1.8844506E-2,-8.42911E-3,3.1843614E-2,8.156786E-4,9.153332E-3,4.298943E-2,1.2840401E-2,3.3727523E-2],"split_indices":[1,1,0,1,6,5,1,2,6,0,0,3,2,0,3,0,0,0,0,0,0,0,0,0,0,0,0,0,0],"split_type":[0,0,0,0,0,0,0,0,0,0,0,0,0,0,0,0,0,0,0,0,0,0,0,0,0,0,0,0,0],"sum_hessian":[2.4050465E2,1.1467126E2,1.2583339E2,7.534804E1,3.932322E1,9.0785515E1,3.504788E1,2.3698692E0,7.2978165E1,1.7663542E1,2.1659678E1,5.670194E1,3.4083576E1,2.0082787E1,1.4965093E1,1.0588645E0,1.3110046E0,4.0826096E1,3.2152073E1,7.268903E0,1.0394639E1,7.14543E0,1.4514248E1,5.0749683E1,5.9522552E0,3.264098E1,1.4425954E0,5.112103E0,9.852989E0],"tree_param":{"num_deleted":"0","num_feature":"7","num_nodes":"29","size_leaf_vector":"1"}},{"base_weights":[4.7346554E-3,-3.4765258E-1,3.1893152E-1,-4.7504124E-1,-9.6949E-2,2.4361664E-1,4.6838447E-1,-5.0895143E-2,-4.8847485E-1,7.871704E-2,-1.8389203E-1,3.012886E-1,1.4183837E-1,3.980138E-1,5.6906116E-1,-1.4015812E-2,6.0483813E-3,-1.2327633E-2,-3.9690714E-2,-9.014257E-3,2.0215258E-2,-2.6466718E-2,-7.0379716E-3,2.7114863E-2,-3.202885E-3,2.5540736E-2,5.1895473E-3,3.7452605E-2,-3.1281374E-2,4.9430232E-2,8.659249E-3],"categories":[],"categories_nodes":[],"categories_segments":[],"categories_sizes":[],"default_left":[0,0,0,0,0,0,0,0,0,0,0,0,0,0,0,0,0,0,0,0,0,0,0,0,0,0,0,0,0,0,0],"id":17,"left_children":[1,3,5,7,9,11,13,15,17,19,21,23,25,27,29,-1,-1,-1,-1,-1,-1,-1,-1,-1,-1,-1,-1,-1,-1,-1,-1],"loss_changes":[2.6609327E1,3.5719976E0,1.3158922E0,4.0168762E-1,6.1662483E-1,4.6533585E-1,6.74181E-2,6.693715E-2,1.09090805E-1,4.8642126E-1,3.4682858E-1,7.120991E-1,4.3262106E-1,1.7186131E0,2.6472235E-1,0E0,0E0,0E0,0E0,0E0,0E0,0E0,0E0,0E0,0E0,0E0,0E0,0E0,0E0,0E0,0E0],"parents":[2147483647,0,0,1,1,2,2,3,3,4,4,5,5,6,6,7,7,8,8,9,9,10,10,11,11,12,12,13,13,14,14],"right_children":[2,4,6,8,10,12,14,16,18,20,22,24,26,28,30,-1,-1,-1,-1,-1,-1,-1,-1,-1,-1,-1,-1,-1,-1,-1,-1],"split_conditions":[4.2588583E-1,3.826205E-2,5.6289434E0,-5.5969637E-2,1.3718685E0,1E0,3.8066626E0,3.444576E0,2.2638443E0,1.06860586E-1,2.4062897E-1,7.5106907E-1,2.0782208E0,3.7157648E0,8.566725E-1,-1.4015812E-2,6.0483813E-3,-1.2327633E-2,-3.9690714E-2,-9.014257E-3,2.0215258E-2,-2.6466718E-2,-7.0379716E-3,2.7114863E-2,-3.202885E-3,2.5540736E-2,5.1895473E-3,3.7452605E-2,-3.1281374E-2,4.9430232E-2,8.659249E-3],"split_indices":[1,1,0,1,0,5,2,2,2,1,1,3,0,2,1,0,0,0,0,0,0,0,0,0,0,0,0,0,0,0,0],"split_type":[0,0,0,0,0,0,0,0,0,0,0,0,0,0,0,0,0,0,0,0,0,0,0,0,0,0,0,0,0,0,0],"sum_hessian":[2.3833072E2,1.1228787E2,1.26042854E2,7.386197E1,3.8425903E1,8.555737E1,4.048548E1,2.4145572E0,7.144741E1,1.275314E1,2.5672764E1,5.3360664E1,3.219671E1,2.6744837E1,1.3740642E1,1.0236884E0,1.3908688E0,2.0727954E0,6.937461E1,6.240285E0,6.5128555E0,9.172173E0,1.6500591E1,4.8066105E1,5.2945604E0,8.789105E0,2.3407602E1,2.4934832E1,1.8100055E0,1.2116288E1,1.6243538E0],"tree_param":{"num_deleted":"0","num_feature":"7","num_nodes":"31","size_leaf_vector":"1"}},{"base_weights":[4.8805955E-3,-3.6600855E-1,2.4014944E-1,-4.6356988E-1,-2.453517E-1,1.4184707E-1,4.4432104E-1,-8.527166E-3,-4.7316915E-1,-4.329799E-1,-1.24990195E-2,2.2302425E-1,-4.489473E-3,8.5566886E-2,4.724074E-1,-3.866272E-2,-1.3045222E-2,-3.5480358E-2,-7.8948075E-3,-1.0164303E-2,1.576567E-2,1.0787469E-2,3.244229E-2,1.5982889E-2,-7.7972123E-3,-1.2532387E-2,3.5932243E-2,4.366843E-2,3.0655779E-2],"categories":[],"categories_nodes":[],"categories_segments":[],"categories_sizes":[],"default_left":[0,0,0,0,0,0,0,0,0,0,0,0,0,0,0,0,0,0,0,0,0,0,0,0,0,0,0,0,0],"id":18,"left_children":[1,3,5,7,9,11,13,-1,15,17,19,21,23,25,27,-1,-1,-1,-1,-1,-1,-1,-1,-1,-1,-1,-1,-1,-1],"loss_changes":[2.0502884E1,9.598532E-1,2.8222418E0,1.1851692E-1,1.86886E0,1.1711636E0,4.2560768E-1,0E0,7.0879936E-2,3.9711952E-2,5.093246E-1,9.652872E-1,7.056213E-1,4.7364783E-1,7.042885E-2,0E0,0E0,0E0,0E0,0E0,0E0,0E0,0E0,0E0,0E0,0E0,0E0,0E0,0E0],"parents":[2147483647,0,0,1,1,2,2,3,3,4,4,5,5,6,6,8,8,9,9,10,10,11,11,12,12,13,13,14,14],"right_children":[2,4,6,8,10,12,14,-1,16,18,20,22,24,26,28,-1,-1,-1,-1,-1,-1,-1,-1,-1,-1,-1,-1,-1,-1],"split_conditions":[1.7815195E0,1E0,5.4428463E0,2.2638443E0,1E0,1E0,4.6106672E-1,-8.527166E-3,4.1478853E0,4.1478853E0,1E0,2.325742E0,2.0510519E0,3.8556643E0,3.4223063E0,-3.866272E-2,-1.3045222E-2,-3.5480358E-2,-7.8948075E-3,-1.0164303E-2,1.576567E-2,1.0787469E-2,3.244229E-2,1.5982889E-2,-7.7972123E-3,-1.2532387E-2,3.5932243E-2,4.366843E-2,3.0655779E-2],"split_indices":[0,6,0,2,4,5,3,0,2,2,5,0,0,2,2,0,0,0,0,0,0,0,0,0,0,0,0,0,0],"split_type":[0,0,0,0,0,0,0,0,0,0,0,0,0,0,0,0,0,0,0,0,0,0,0,0,0,0,0,0,0],"sum_hessian":[2.3295943E2,9.020314E1,1.4275629E2,4.830355E1,4.189959E1,9.750524E1,4.525104E1,1.5818325E0,4.6721718E1,2.2727085E1,1.9172504E1,6.237818E1,3.512706E1,3.5792305E0,4.167181E1,4.4705086E1,2.0166333E0,2.1716692E1,1.0103929E0,1.2650984E1,6.52152E0,4.3229687E1,1.9148495E1,1.0627884E1,2.4499174E1,2.4897168E0,1.0895137E0,2.0047592E1,2.162422E1],"tree_param":{"num_deleted":"0","num_feature":"7","num_nodes":"29","size_leaf_vector":"1"}},{"base_weights":[1.774529E-2,-3.4043047E-1,3.2023373E-1,-4.7762316E-1,-9.1986686E-2,2.4879414E-1,3.705322E-2,-1.2544921E-3,-4.9283904E-1,9.656802E-2,-1.9863813E-1,3.0770233E-1,1.1746058E-1,-4.335026E-2,-3.3166423E-2,-8.685089E-3,2.0805005E-2,-2.5734665E-2,-8.958314E-3,2.6514135E-2,-1.6288169E-2,2.4360744E-2,1.6360972E-3],"categories":[],"categories_nodes":[],"categories_segments":[],"categories_sizes":[],"default_left":[0,0,0,0,0,0,0,0,0,0,0,0,0,0,0,0,0,0,0,0,0,0,0],"id":19,"left_children":[1,3,5,7,9,11,-1,-1,13,15,17,19,21,-1,-1,-1,-1,-1,-1,-1,-1,-1,-1],"loss_changes":[2.5751064E1,3.6660595E0,1.2002068E0,4.834814E-1,8.2279015E-1,6.451063E-1,0E0,0E0,3.4872055E-2,5.3499216E-1,2.3963094E-1,7.9738283E-1,5.178795E-1,0E0,0E0,0E0,0E0,0E0,0E0,0E0,0E0,0E0,0E0],"parents":[2147483647,0,0,1,1,2,2,3,3,4,4,5,5,8,8,9,9,10,10,11,11,12,12],"right_children":[2,4,6,8,10,12,-1,-1,14,16,18,20,22,-1,-1,-1,-1,-1,-1,-1,-1,-1,-1],"split_conditions":[4.2588583E-1,3.5266664E-2,5.630147E0,-5.5969637E-2,1.3718685E0,1E0,3.705322E-2,-1.2544921E-3,1E0,9.675721E-2,2.5497264E-1,4.137404E0,2.0782208E0,-4.335026E-2,-3.3166423E-2,-8.685089E-3,2.0805005E-2,-2.5734665E-2,-8.958314E-3,2.6514135E-2,-1.6288169E-2,2.4360744E-2,1.6360972E-3],"split_indices":[1,1,0,1,0,5,0,0,6,1,1,2,0,0,0,0,0,0,0,0,0,0,0],"split_type":[0,0,0,0,0,0,0,0,0,0,0,0,0,0,0,0,0,0,0,0,0,0,0],"sum_hessian":[2.3567247E2,1.07846405E2,1.2782607E2,6.888505E1,3.8961353E1,8.7055115E1,4.0770954E1,2.2613971E0,6.662366E1,1.4110031E1,2.4851322E1,5.91715E1,2.7883617E1,3.7316093E1,2.9307562E1,6.4071527E0,7.7028785E0,9.148934E0,1.5702388E1,5.6883904E1,2.287596E0,8.792117E0,1.90915E1],"tree_param":{"num_deleted":"0","num_feature":"7","num_nodes":"23","size_leaf_vector":"1"}},{"base_weights":[8.349316E-3,-3.2953072E-1,2.9676306E-1,-4.5818397E-1,-1.0444709E-1,2.3925093E-1,4.00636E-1,-5.3541046E-1,-3.4981263E-1,-2.5251925E-1,1.9786019E-2,9.5367044E-2,3.5232067E-1,5.110983E-1,2.3953785E-1,-1.22871E-2,-4.3731183E-2,-3.37599E-2,6.418218E-3,-2.6973665E-2,-1.3354253E-2,-1.098884E-2,1.0919635E-2,1.2522125E-2,-2.5057435E-2,3.9702363E-2,1.713722E-2,1.0123978E-2,4.571651E-2,1.0258727E-3,3.293672E-2],"categories":[],"categories_nodes":[],"categories_segments":[],"categories_sizes":[],"default_left":[0,0,0,0,0,0,0,0,0,0,0,0,0,0,0,0,0,0,0,0,0,0,0,0,0,0,0,0,0,0,0],"id":20,"left_children":[1,3,5,7,9,11,13,15,17,19,21,23,25,27,29,-1,-1,-1,-1,-1,-1,-1,-1,-1,-1,-1,-1,-1,-1,-1,-1],"loss_changes":[2.2674376E1,3.0553236E0,6.5395546E-1,3.809061E-1,7.4578094E-1,1.3210626E0,6.471472E-1,7.7934265E-2,1.0003631E0,7.735765E-2,4.3737125E-1,9.989004E-1,8.133087E-1,5.0267506E-1,7.548319E-1,0E0,0E0,0E0,0E0,0E0,0E0,0E0,0E0,0E0,0E0,0E0,0E0,0E0,0E0,0E0,0E0],"parents":[2147483647,0,0,1,1,2,2,3,3,4,4,5,5,6,6,7,7,8,8,9,9,10,10,11,11,12,12,13,13,14,14],"right_children":[2,4,6,8,10,12,14,16,18,20,22,24,26,28,30,-1,-1,-1,-1,-1,-1,-1,-1,-1,-1,-1,-1,-1,-1,-1,-1],"split_conditions":[4.2588583E-1,3.5266664E-2,7.585072E-1,1E0,1E0,3.6415257E0,5.760449E-1,2.2638443E0,2E0,3.4242628E0,1E0,7.1562314E-1,3.77368E0,4.6106672E-1,7.008478E-1,-1.22871E-2,-4.3731183E-2,-3.37599E-2,6.418218E-3,-2.6973665E-2,-1.3354253E-2,-1.098884E-2,1.0919635E-2,1.2522125E-2,-2.5057435E-2,3.9702363E-2,1.713722E-2,1.0123978E-2,4.571651E-2,1.0258727E-3,3.293672E-2],"split_indices":[1,1,1,6,6,2,3,2,4,2,4,3,2,3,3,0,0,0,0,0,0,0,0,0,0,0,0,0,0,0,0],"split_type":[0,0,0,0,0,0,0,0,0,0,0,0,0,0,0,0,0,0,0,0,0,0,0,0,0,0,0,0,0,0,0],"sum_hessian":[2.306753E2,1.0616233E2,1.24512955E2,6.689237E1,3.9269955E1,8.226691E1,4.224605E1,3.6757862E1,3.0134516E1,1.7444916E1,2.182504E1,3.701187E1,4.5255035E1,2.3772831E1,1.8473223E1,1.469489E0,3.5288372E1,2.5819225E1,4.3152895E0,7.2928233E0,1.0152093E1,9.225788E0,1.2599252E1,3.2729607E1,4.2822638E0,2.0888117E1,2.4366917E1,3.6452363E0,2.0127594E1,8.437382E0,1.003584E1],"tree_param":{"num_deleted":"0","num_feature":"7","num_nodes":"31","size_leaf_vector":"1"}},{"base_weights":[1.54253235E-2,-3.1897008E-1,3.0018592E-1,-4.4955304E-1,-9.735733E-2,1.9552106E-1,3.8195872E-1,3.2563778E-3,-4.6554983E-1,6.2322464E-2,-1.8220241E-1,3.2211702E-2,3.1749308E-1,4.1606736E-1,1.638538E-1,-4.237916E-2,-2.9961733E-2,-1.3016447E-2,1.72743E-2,-1.7252736E-2,8.948406E-3,1.2857086E-2,-2.0774709E-2,4.2952694E-2,1.160697E-2,1.0024477E-2,3.5450105E-2,-1.8368924E-2,2.4838205E-2],"categories":[],"categories_nodes":[],"categories_segments":[],"categories_sizes":[],"default_left":[0,0,0,0,0,0,0,0,0,0,0,0,0,0,0,0,0,0,0,0,0,0,0,0,0,0,0,0,0],"id":21,"left_children":[1,3,5,7,9,11,13,-1,15,17,19,21,23,25,27,-1,-1,-1,-1,-1,-1,-1,-1,-1,-1,-1,-1,-1,-1],"loss_changes":[2.1761255E1,2.998499E0,9.8144436E-1,5.3556347E-1,5.5672264E-1,1.1086648E0,4.3937492E-1,0E0,1.7481041E-1,5.4368275E-1,2.852463E-1,9.843046E-1,1.1342237E0,4.0355015E-1,6.9875884E-1,0E0,0E0,0E0,0E0,0E0,0E0,0E0,0E0,0E0,0E0,0E0,0E0,0E0,0E0],"parents":[2147483647,0,0,1,1,2,2,3,3,4,4,5,5,6,6,8,8,9,9,10,10,11,11,12,12,13,13,14,14],"right_children":[2,4,6,8,10,12,14,-1,16,18,20,22,24,26,28,-1,-1,-1,-1,-1,-1,-1,-1,-1,-1,-1,-1,-1,-1],"split_conditions":[4.2588583E-1,3.5266664E-2,3.400524E0,-5.5969637E-2,1.3718685E0,3.670461E0,7.2578156E-1,3.2563778E-3,1E0,8.1594706E-2,8.675004E-1,5.874378E-1,3.744787E0,4.6867624E-1,7.826922E-1,-4.237916E-2,-2.9961733E-2,-1.3016447E-2,1.72743E-2,-1.7252736E-2,8.948406E-3,1.2857086E-2,-2.0774709E-2,4.2952694E-2,1.160697E-2,1.0024477E-2,3.5450105E-2,-1.8368924E-2,2.4838205E-2],"split_indices":[1,1,0,1,0,2,3,0,6,1,3,3,2,3,3,0,0,0,0,0,0,0,0,0,0,0,0,0,0],"split_type":[0,0,0,0,0,0,0,0,0,0,0,0,0,0,0,0,0,0,0,0,0,0,0,0,0,0,0,0,0],"sum_hessian":[2.2652473E2,1.0412741E2,1.2239732E2,6.4873085E1,3.9254326E1,5.5171604E1,6.722572E1,2.0010755E0,6.287201E1,1.3712547E1,2.5541779E1,2.4129076E1,3.1042528E1,5.7349407E1,9.876313E0,3.4045135E1,2.8826872E1,5.538943E0,8.173604E0,2.3171965E1,2.3698127E0,1.7065641E1,7.0634336E0,1.272879E1,1.831374E1,5.3620863E0,5.198732E1,2.527573E0,7.3487406E0],"tree_param":{"num_deleted":"0","num_feature":"7","num_nodes":"29","size_leaf_vector":"1"}},{"base_weights":[-1.1836649E-3,-3.3105838E-1,2.8132546E-1,-4.6236786E-1,-1.03784464E-1,2.0958634E-1,4.2944795E-1,-8.772268E-3,-3.7499778E-2,6.1129864E-2,-1.96122E-1,2.723662E-1,7.22984E-2,5.331908E-1,3.008755E-1,-8.841897E-3,1.8789368E-2,-1.7443756E-2,2.886894E-3,2.4718737E-2,-6.8788338E-3,2.3112625E-2,-3.1381377E-3,1.4579067E-2,4.5531716E-2,3.775873E-2,1.5160599E-2],"categories":[],"categories_nodes":[],"categories_segments":[],"categories_sizes":[],"default_left":[0,0,0,0,0,0,0,0,0,0,0,0,0,0,0,0,0,0,0,0,0,0,0,0,0,0,0],"id":22,"left_children":[1,3,5,7,9,11,13,-1,-1,15,17,19,21,23,25,-1,-1,-1,-1,-1,-1,-1,-1,-1,-1,-1,-1],"loss_changes":[2.0262503E1,2.9453716E0,1.1545725E0,9.099579E-2,5.90938E-1,6.7723846E-1,3.366108E-1,0E0,0E0,4.5567083E-1,1.3316345E-1,7.499342E-1,6.5717643E-1,1.4017344E-1,2.7138996E-1,0E0,0E0,0E0,0E0,0E0,0E0,0E0,0E0,0E0,0E0,0E0,0E0],"parents":[2147483647,0,0,1,1,2,2,3,3,4,4,5,5,6,6,9,9,10,10,11,11,12,12,13,13,14,14],"right_children":[2,4,6,8,10,12,14,-1,-1,16,18,20,22,24,26,-1,-1,-1,-1,-1,-1,-1,-1,-1,-1,-1,-1],"split_conditions":[4.2588583E-1,3.5266664E-2,5.630147E0,3.9429992E-1,1.3718685E0,1E0,8.2311827E-1,-8.772268E-3,-3.7499778E-2,1.06860586E-1,8.675004E-1,7.5106907E-1,2.0782208E0,2.6246686E0,5.093145E-1,-8.841897E-3,1.8789368E-2,-1.7443756E-2,2.886894E-3,2.4718737E-2,-6.8788338E-3,2.3112625E-2,-3.1381377E-3,1.4579067E-2,4.5531716E-2,3.775873E-2,1.5160599E-2],"split_indices":[1,1,0,3,0,5,1,0,0,1,3,3,0,2,3,0,0,0,0,0,0,0,0,0,0,0,0],"split_type":[0,0,0,0,0,0,0,0,0,0,0,0,0,0,0,0,0,0,0,0,0,0,0,0,0,0,0],"sum_hessian":[2.1542667E2,9.9302826E1,1.1612383E2,6.228356E1,3.7019268E1,7.9860504E1,3.626333E1,1.4296142E0,6.0853947E1,1.3408943E1,2.3610325E1,5.4125683E1,2.5734818E1,1.8327879E1,1.793545E1,6.9279385E0,6.4810047E0,2.1629103E1,1.9812217E0,4.9232628E1,4.8930564E0,8.206073E0,1.7528746E1,2.2671647E0,1.6060713E1,5.7945304E0,1.214092E1],"tree_param":{"num_deleted":"0","num_feature":"7","num_nodes":"27","size_leaf_vector":"1"}},{"base_weights":[-9.610861E-3,-3.240221E-1,2.6858363E-1,-4.4919994E-1,-9.615029E-2,1.886615E-1,3.783612E-1,-4.1830186E-2,-3.4701213E-1,-2.1236888E-1,3.2124214E-3,9.173232E-2,2.8102872E-1,4.0649492E-1,-2.0028798E-2,-3.2464053E-2,2.3101494E-3,-1.029787E-2,-2.33932E-2,-1.37558235E-2,1.0319675E-2,2.8203432E-2,-4.3459344E-3,9.63022E-3,3.7911493E-2,3.424888E-2,-1.045216E-2],"categories":[],"categories_nodes":[],"categories_segments":[],"categories_sizes":[],"default_left":[0,0,0,0,0,0,0,0,0,0,0,0,0,0,0,0,0,0,0,0,0,0,0,0,0,0,0],"id":23,"left_children":[1,3,5,7,9,11,13,-1,15,17,19,21,23,25,-1,-1,-1,-1,-1,-1,-1,-1,-1,-1,-1,-1,-1],"loss_changes":[1.8604574E1,2.804636E0,9.1889954E-1,3.016634E-1,4.241518E-1,5.7686424E-1,9.253092E-1,0E0,6.7146206E-1,7.562566E-2,4.7944343E-1,1.326856E0,9.958551E-1,5.7779694E-1,0E0,0E0,0E0,0E0,0E0,0E0,0E0,0E0,0E0,0E0,0E0,0E0,0E0],"parents":[2147483647,0,0,1,1,2,2,3,3,4,4,5,5,6,6,8,8,9,9,10,10,11,11,12,12,13,13],"right_children":[2,4,6,8,10,12,14,-1,16,18,20,22,24,26,-1,-1,-1,-1,-1,-1,-1,-1,-1,-1,-1,-1,-1],"split_conditions":[4.2588583E-1,4.3452755E-2,7.200871E-1,1E0,1E0,3.7003138E0,4.137404E0,-4.1830186E-2,2E0,2.2608739E-1,1E0,2.775709E0,7.2565025E-1,9.014134E-1,-2.0028798E-2,-3.2464053E-2,2.3101494E-3,-1.029787E-2,-2.33932E-2,-1.37558235E-2,1.0319675E-2,2.8203432E-2,-4.3459344E-3,9.63022E-3,3.7911493E-2,3.424888E-2,-1.045216E-2],"split_indices":[1,1,1,6,6,2,2,0,4,1,4,2,3,3,0,0,0,0,0,0,0,0,0,0,0,0,0],"split_type":[0,0,0,0,0,0,0,0,0,0,0,0,0,0,0,0,0,0,0,0,0,0,0,0,0,0,0],"sum_hessian":[2.1070781E2,9.883793E1,1.1186987E2,6.3166893E1,3.5671036E1,6.631134E1,4.5558537E1,3.431149E1,2.8855404E1,1.59168005E1,1.9754234E1,3.332918E1,3.298216E1,4.394554E1,1.6129967E0,2.4884003E1,3.9714007E0,9.058789E0,6.858011E0,8.103152E0,1.1651082E1,1.1456953E1,2.1872229E1,1.8879898E1,1.410226E1,4.2440617E1,1.5049245E0],"tree_param":{"num_deleted":"0","num_feature":"7","num_nodes":"27","size_leaf_vector":"1"}},{"base_weights":[3.945436E-3,-4.2302337E-1,1.9321676E-1,-5.000899E-1,-3.202318E-1,-6.070558E-2,2.6754385E-1,-1.1204946E-2,-4.089655E-2,-2.0807859E-2,-3.832633E-1,1.7173669E-1,-1.6185814E-1,2.072216E-1,4.1350135E-1,1.32849235E-2,-7.6278895E-3,-3.6700863E-2,-9.750237E-4,-3.985355E-3,1.6905256E-2,-2.3415959E-2,-4.186445E-3,2.1113675E-2,6.1026844E-3,4.1866254E-2,1.968699E-2],"categories":[],"categories_nodes":[],"categories_segments":[],"categories_sizes":[],"default_left":[0,0,0,0,0,0,0,0,0,0,0,0,0,0,0,0,0,0,0,0,0,0,0,0,0,0,0],"id":24,"left_children":[1,3,5,7,9,11,13,-1,-1,15,17,19,21,23,25,-1,-1,-1,-1,-1,-1,-1,-1,-1,-1,-1,-1],"loss_changes":[1.725596E1,3.59416E-1,2.8082104E0,7.12986E-2,5.748875E-1,8.3454615E-1,9.2348385E-1,0E0,0E0,1.0537232E-1,7.075412E-1,1.06013834E-1,3.3467895E-1,5.968571E-1,4.690299E-1,0E0,0E0,0E0,0E0,0E0,0E0,0E0,0E0,0E0,0E0,0E0,0E0],"parents":[2147483647,0,0,1,1,2,2,3,3,4,4,5,5,6,6,9,9,10,10,11,11,12,12,13,13,14,14],"right_children":[2,4,6,8,10,12,14,-1,-1,16,18,20,22,24,26,-1,-1,-1,-1,-1,-1,-1,-1,-1,-1,-1,-1],"split_conditions":[5.9426114E-2,1E0,4.2588583E-1,2.2638443E0,-4.6929196E-3,1.3718685E0,5.7814007E0,-1.1204946E-2,-4.089655E-2,-5.5969637E-2,5.1438543E-3,3.154444E0,1E0,1E0,8.2311827E-1,1.32849235E-2,-7.6278895E-3,-3.6700863E-2,-9.750237E-4,-3.985355E-3,1.6905256E-2,-2.3415959E-2,-4.186445E-3,2.1113675E-2,6.1026844E-3,4.1866254E-2,1.968699E-2],"split_indices":[1,6,1,2,1,0,0,0,0,1,1,2,6,5,1,0,0,0,0,0,0,0,0,0,0,0,0],"split_type":[0,0,0,0,0,0,0,0,0,0,0,0,0,0,0,0,0,0,0,0,0,0,0,0,0,0,0],"sum_hessian":[2.1151823E2,6.458617E1,1.4693208E2,3.4702995E1,2.9883167E1,3.331204E1,1.1362004E2,1.4467956E0,3.32562E1,5.4280334E0,2.4455133E1,9.889284E0,2.3422754E1,8.210633E1,3.1513706E1,1.1976925E0,4.230341E0,2.0124405E1,4.3307295E0,1.4596797E0,8.429604E0,9.9108715E0,1.3511883E1,5.6587124E1,2.5519209E1,1.774602E1,1.3767687E1],"tree_param":{"num_deleted":"0","num_feature":"7","num_nodes":"27","size_leaf_vector":"1"}},{"base_weights":[-1.3158302E-3,-2.9362288E-1,2.5301936E-1,-4.242872E-1,-8.8183366E-2,1.9471866E-1,3.9311916E-1,-5.016012E-1,-3.2041857E-1,6.832279E-2,-1.8246199E-1,2.5088584E-1,6.969887E-2,-1.1638529E-2,4.1660592E-1,-6.557068E-3,-4.1251402E-2,-7.234885E-4,-3.157484E-2,-1.3992737E-2,1.5138896E-2,-2.4441482E-2,-6.3857427E-3,3.2699704E-2,1.4965926E-2,1.9328024E-2,-1.4147104E-3,3.9469615E-2,2.282737E-2],"categories":[],"categories_nodes":[],"categories_segments":[],"categories_sizes":[],"default_left":[0,0,0,0,0,0,0,0,0,0,0,0,0,0,0,0,0,0,0,0,0,0,0,0,0,0,0,0,0],"id":25,"left_children":[1,3,5,7,9,11,13,15,17,19,21,23,25,-1,27,-1,-1,-1,-1,-1,-1,-1,-1,-1,-1,-1,-1,-1,-1],"loss_changes":[1.5467888E1,2.5610685E0,8.3220005E-1,3.1232262E-1,5.8636683E-1,5.481088E-1,4.617672E-1,1.4629555E-1,6.4172506E-1,4.845273E-1,2.856344E-1,4.7950768E-1,4.0013593E-1,0E0,1.6802025E-1,0E0,0E0,0E0,0E0,0E0,0E0,0E0,0E0,0E0,0E0,0E0,0E0,0E0,0E0],"parents":[2147483647,0,0,1,1,2,2,3,3,4,4,5,5,6,6,7,7,8,8,9,9,10,10,11,11,12,12,14,14],"right_children":[2,4,6,8,10,12,14,16,18,20,22,24,26,-1,28,-1,-1,-1,-1,-1,-1,-1,-1,-1,-1,-1,-1,-1,-1],"split_conditions":[4.2588583E-1,2.8723337E-2,5.7814007E0,1E0,1.3718685E0,1E0,4.6106672E-1,2.2638443E0,-4.6929196E-3,5.9426114E-2,1E0,3.0521126E0,2.0782208E0,-1.1638529E-2,8.2311827E-1,-6.557068E-3,-4.1251402E-2,-7.234885E-4,-3.157484E-2,-1.3992737E-2,1.5138896E-2,-2.4441482E-2,-6.3857427E-3,3.2699704E-2,1.4965926E-2,1.9328024E-2,-1.4147104E-3,3.9469615E-2,2.282737E-2],"split_indices":[1,1,0,6,0,5,3,2,1,1,6,2,0,0,1,0,0,0,0,0,0,0,0,0,0,0,0,0,0],"split_type":[0,0,0,0,0,0,0,0,0,0,0,0,0,0,0,0,0,0,0,0,0,0,0,0,0,0,0,0,0],"sum_hessian":[2.0605911E2,9.580085E1,1.10258255E2,5.7906013E1,3.7894836E1,7.954607E1,3.0712193E1,3.1001234E1,2.690478E1,1.4349471E1,2.3545366E1,5.4192448E1,2.5353617E1,1.0662662E0,2.9645926E1,1.225102E0,2.9776133E1,5.397355E0,2.1507423E1,4.6164193E0,9.733052E0,9.808838E0,1.3736529E1,1.4044075E1,4.0148373E1,7.949775E0,1.7403841E1,1.6965643E1,1.2680283E1],"tree_param":{"num_deleted":"0","num_feature":"7","num_nodes":"29","size_leaf_vector":"1"}},{"base_weights":[7.4427812E-3,-2.9358023E-1,2.576526E-1,-4.2990592E-1,-8.6594395E-2,1.5471308E-1,3.4925777E-1,-4.216129E-3,-4.4312006E-1,-2.0644513E-1,1.4984876E-2,1.9167687E-1,-2.26415E-1,6.946102E-2,3.7513044E-1,-8.138066E-3,-3.6130935E-2,-7.7170157E-3,-2.2127619E-2,1.549422E-2,-6.7918417E-3,9.126008E-3,4.708781E-2,-2.6260158E-2,7.3769893E-3,-8.744763E-3,2.9442277E-2,4.574575E-2,2.5390377E-2],"categories":[],"categories_nodes":[],"categories_segments":[],"categories_sizes":[],"default_left":[0,0,0,0,0,0,0,0,0,0,0,0,0,0,0,0,0,0,0,0,0,0,0,0,0,0,0,0,0],"id":26,"left_children":[1,3,5,7,9,11,13,-1,15,17,19,21,23,25,27,-1,-1,-1,-1,-1,-1,-1,-1,-1,-1,-1,-1,-1,-1],"loss_changes":[1.5604804E1,2.6167393E0,1.0127087E0,2.5803566E-1,4.730251E-1,8.191129E-1,4.015026E-1,0E0,1.1225033E-1,1.1045933E-1,4.0598255E-1,1.4956062E0,2.0310518E-1,3.7256643E-1,4.300437E-1,0E0,0E0,0E0,0E0,0E0,0E0,0E0,0E0,0E0,0E0,0E0,0E0,0E0,0E0],"parents":[2147483647,0,0,1,1,2,2,3,3,4,4,5,5,6,6,8,8,9,9,10,10,11,11,12,12,13,13,14,14],"right_children":[2,4,6,8,10,12,14,-1,16,18,20,22,24,26,28,-1,-1,-1,-1,-1,-1,-1,-1,-1,-1,-1,-1,-1,-1],"split_conditions":[4.2588583E-1,2.8723337E-2,3.9835894E0,-5.5969637E-2,1E0,7.5106907E-1,4.6867624E-1,-4.216129E-3,2.2638443E0,1.3718685E0,1.3718685E0,7.4602747E-1,5.1883143E-1,3.891616E0,5.093145E-1,-8.138066E-3,-3.6130935E-2,-7.7170157E-3,-2.2127619E-2,1.549422E-2,-6.7918417E-3,9.126008E-3,4.708781E-2,-2.6260158E-2,7.3769893E-3,-8.744763E-3,2.9442277E-2,4.574575E-2,2.5390377E-2],"split_indices":[1,1,0,1,6,3,3,0,2,0,0,3,1,2,3,0,0,0,0,0,0,0,0,0,0,0,0,0,0],"split_type":[0,0,0,0,0,0,0,0,0,0,0,0,0,0,0,0,0,0,0,0,0,0,0,0,0,0,0,0,0],"sum_hessian":[2.0517877E2,9.305392E1,1.12124855E2,5.545378E1,3.7600136E1,5.4062298E1,5.8062557E1,2.0457277E0,5.3408054E1,1.6775183E1,2.0824955E1,4.9735744E1,4.326552E0,5.226454E0,5.28361E1,1.6149799E0,5.1793076E1,7.457807E0,9.317376E0,7.13006E0,1.3694894E1,4.2678997E1,7.056749E0,3.255765E0,1.070787E0,3.665551E0,1.5609027E0,9.971823E0,4.286428E1],"tree_param":{"num_deleted":"0","num_feature":"7","num_nodes":"29","size_leaf_vector":"1"}},{"base_weights":[-4.6936814E-3,-4.002042E-1,1.6249692E-1,-4.8361912E-1,-2.894026E-1,-8.341606E-3,2.612351E-1,-1.1491627E-2,-4.931892E-1,-3.5573927E-1,6.1065175E-2,-1.6282769E-1,5.730311E-2,2.4140981E-1,5.2002713E-2,-4.022289E-2,-1.3095751E-2,-3.151108E-2,2.1598653E-3,1.400012E-2,-4.859586E-3,8.467746E-3,-1.5922103E-2,1.374671E-2,-5.641648E-3,2.0800361E-2,-1.7975742E-2],"categories":[],"categories_nodes":[],"categories_segments":[],"categories_sizes":[],"default_left":[0,0,0,0,0,0,0,0,0,0,0,0,0,0,0,0,0,0,0,0,0,0,0,0,0,0,0],"id":27,"left_children":[1,3,5,7,9,11,13,-1,15,17,19,21,23,25,-1,-1,-1,-1,-1,-1,-1,-1,-1,-1,-1,-1,-1],"loss_changes":[1.3346243E1,4.1426754E-1,2.395503E0,3.561306E-2,6.7838216E-1,5.4617214E-1,5.3638554E-1,0E0,1.7029285E-2,3.5954332E-1,8.486419E-2,1.771284E-1,5.668218E-1,8.1396246E-1,0E0,0E0,0E0,0E0,0E0,0E0,0E0,0E0,0E0,0E0,0E0,0E0,0E0],"parents":[2147483647,0,0,1,1,2,2,3,3,4,4,5,5,6,6,8,8,9,9,10,10,11,11,12,12,13,13],"right_children":[2,4,6,8,10,12,14,-1,16,18,20,22,24,26,-1,-1,-1,-1,-1,-1,-1,-1,-1,-1,-1,-1,-1],"split_conditions":[5.9426114E-2,1E0,4.8802644E-1,2.2638443E0,2E0,3.3843904E0,4.458177E0,-1.1491627E-2,4.3452755E-2,8.505945E-3,-4.31594E-3,1.1802787E-1,3.744787E0,4.137404E0,5.2002713E-2,-4.022289E-2,-1.3095751E-2,-3.151108E-2,2.1598653E-3,1.400012E-2,-4.859586E-3,8.467746E-3,-1.5922103E-2,1.374671E-2,-5.641648E-3,2.0800361E-2,-1.7975742E-2],"split_indices":[1,6,1,2,4,2,2,0,1,1,1,1,2,2,0,0,0,0,0,0,0,0,0,0,0,0,0],"split_type":[0,0,0,0,0,0,0,0,0,0,0,0,0,0,0,0,0,0,0,0,0,0,0,0,0,0,0],"sum_hessian":[1.9984814E2,5.896508E1,1.4088306E2,3.1720303E1,2.7244778E1,5.1936726E1,8.894633E1,1.3067898E0,3.0413513E1,2.2895979E1,4.348799E0,1.5046457E1,3.6890266E1,8.617318E1,2.7731524E0,2.9041685E1,1.3718281E0,2.079419E1,2.1017892E0,2.021392E0,2.3274071E0,1.5580667E0,1.3488391E1,1.927524E1,1.7615028E1,8.329251E1,2.8806672E0],"tree_param":{"num_deleted":"0","num_feature":"7","num_nodes":"27","size_leaf_vector":"1"}},{"base_weights":[4.6260194E-3,-2.8896704E-1,2.4409916E-1,-4.023752E-1,-7.8262486E-2,1.6448626E-1,3.51188E-1,-3.9297145E-2,-2.8581646E-1,1.3360533E-1,-1.6538125E-1,2.4465987E-1,-2.52635E-2,3.8389206E-1,1.3967194E-1,-2.8568724E-2,6.400851E-3,-6.408676E-4,1.8725118E-2,-2.2667995E-2,-5.977622E-3,2.2298438E-2,-6.916221E-3,1.6155146E-2,-1.4123901E-2,2.509806E-2,5.6210335E-2,-1.3329218E-2,2.4006624E-2],"categories":[],"categories_nodes":[],"categories_segments":[],"categories_sizes":[],"default_left":[0,0,0,0,0,0,0,0,0,0,0,0,0,0,0,0,0,0,0,0,0,0,0,0,0,0,0,0,0],"id":28,"left_children":[1,3,5,7,9,11,13,-1,15,17,19,21,23,25,27,-1,-1,-1,-1,-1,-1,-1,-1,-1,-1,-1,-1,-1,-1],"loss_changes":[1.4067336E1,2.1165261E0,8.8165474E-1,4.6223068E-1,6.255672E-1,9.9627876E-1,2.6530886E-1,0E0,7.4743557E-1,1.4527579E-1,2.3139524E-1,5.4128575E-1,7.3126423E-1,6.5981483E-1,4.305694E-1,0E0,0E0,0E0,0E0,0E0,0E0,0E0,0E0,0E0,0E0,0E0,0E0,0E0,0E0],"parents":[2147483647,0,0,1,1,2,2,3,3,4,4,5,5,6,6,8,8,9,9,10,10,11,11,12,12,13,13,14,14],"right_children":[2,4,6,8,10,12,14,-1,16,18,20,22,24,26,28,-1,-1,-1,-1,-1,-1,-1,-1,-1,-1,-1,-1,-1,-1],"split_conditions":[4.2588583E-1,5.9426114E-2,5.145658E0,1E0,1.3718685E0,1E0,7.059168E-1,-3.9297145E-2,2E0,1.3372712E-1,1E0,7.5106907E-1,2.0782208E0,7.008478E-1,7.826922E-1,-2.8568724E-2,6.400851E-3,-6.408676E-4,1.8725118E-2,-2.2667995E-2,-5.977622E-3,2.2298438E-2,-6.916221E-3,1.6155146E-2,-1.4123901E-2,2.509806E-2,5.6210335E-2,-1.3329218E-2,2.4006624E-2],"split_indices":[1,1,0,6,0,5,3,0,4,1,6,3,0,3,3,0,0,0,0,0,0,0,0,0,0,0,0,0,0],"split_type":[0,0,0,0,0,0,0,0,0,0,0,0,0,0,0,0,0,0,0,0,0,0,0,0,0,0,0,0,0],"sum_hessian":[1.9807932E2,8.889174E1,1.0918758E2,5.7196846E1,3.1694897E1,6.408267E1,4.5104908E1,3.0633892E1,2.6562952E1,9.079784E0,2.2615112E1,4.4845177E1,1.9237494E1,3.8358986E1,6.745922E0,2.2250576E1,4.3123755E0,4.149918E0,4.929867E0,8.903909E0,1.3711204E1,4.0804684E1,4.0404925E0,7.555575E0,1.1681919E1,3.3064495E1,5.2944903E0,2.305377E0,4.440545E0],"tree_param":{"num_deleted":"0","num_feature":"7","num_nodes":"29","size_leaf_vector":"1"}},{"base_weights":[-1.3845136E-2,-2.848655E-1,2.3280855E-1,-4.222279E-1,-1.0379838E-1,1.6155502E-1,4.0089104E-1,-5.20451E-3,-4.352157E-1,-2.1177448E-1,-1.3781789E-2,2.2243676E-1,1.5814042E-2,2.0394997E-1,4.6044436E-1,-5.440646E-3,-3.5500076E-2,-8.095756E-3,-2.1478763E-2,3.7268107E-3,-2.3429755E-2,2.3172906E-2,3.57322E-3,-1.3964075E-2,1.475017E-2,3.100004E-2,-5.3691254E-3,4.8005596E-2,2.9611945E-2],"categories":[],"categories_nodes":[],"categories_segments":[],"categories_sizes":[],"default_left":[0,0,0,0,0,0,0,0,0,0,0,0,0,0,0,0,0,0,0,0,0,0,0,0,0,0,0,0,0],"id":29,"left_children":[1,3,5,7,9,11,13,-1,15,17,19,21,23,25,27,-1,-1,-1,-1,-1,-1,-1,-1,-1,-1,-1,-1,-1,-1],"loss_changes":[1.2868508E1,2.2368755E0,1.1426196E0,2.1205425E-1,3.9444226E-1,6.395484E-1,2.501874E-1,0E0,1.2597466E-1,8.894986E-2,4.0729117E-1,5.9706235E-1,7.5197166E-1,4.5423853E-1,5.186367E-2,0E0,0E0,0E0,0E0,0E0,0E0,0E0,0E0,0E0,0E0,0E0,0E0,0E0,0E0],"parents":[2147483647,0,0,1,1,2,2,3,3,4,4,5,5,6,6,8,8,9,9,10,10,11,11,12,12,13,13,14,14],"right_children":[2,4,6,8,10,12,14,-1,16,18,20,22,24,26,28,-1,-1,-1,-1,-1,-1,-1,-1,-1,-1,-1,-1,-1,-1],"split_conditions":[4.4580033E-1,2.8723337E-2,5.7814007E0,-5.5969637E-2,1E0,1E0,5.6789523E-1,-5.20451E-3,3.9429992E-1,1.3718685E0,2.1792133E0,3.77368E0,3.670461E0,5.059046E-1,6.003031E-1,-5.440646E-3,-3.5500076E-2,-8.095756E-3,-2.1478763E-2,3.7268107E-3,-2.3429755E-2,2.3172906E-2,3.57322E-3,-1.3964075E-2,1.475017E-2,3.100004E-2,-5.3691254E-3,4.8005596E-2,2.9611945E-2],"split_indices":[1,1,0,1,6,5,3,0,3,0,0,2,2,3,3,0,0,0,0,0,0,0,0,0,0,0,0,0,0],"split_type":[0,0,0,0,0,0,0,0,0,0,0,0,0,0,0,0,0,0,0,0,0,0,0,0,0,0,0,0,0],"sum_hessian":[1.9051144E2,9.0698265E1,9.981318E1,5.0815998E1,3.9882263E1,7.147477E1,2.8338415E1,1.9938257E0,4.8822174E1,1.7517351E1,2.2364912E1,5.004342E1,2.1431347E1,7.60699E0,2.0731426E1,1.312742E0,4.750943E1,6.8822618E0,1.063509E1,1.9072607E1,3.2923038E0,3.5855286E1,1.4188135E1,1.0048103E1,1.13832445E1,4.279548E0,3.3274417E0,5.924524E0,1.4806902E1],"tree_param":{"num_deleted":"0","num_feature":"7","num_nodes":"29","size_leaf_vector":"1"}},{"base_weights":[-3.7504698E-3,-3.7986588E-1,1.5123682E-1,-4.7492746E-1,-2.5900978E-1,-5.4471318E-2,2.2072664E-1,-1.0380185E-2,-4.855294E-1,-3.3318827E-1,9.491863E-2,-1.6017087E-1,2.6303869E-2,2.0251177E-1,4.978998E-2,-3.9645422E-2,-1.2049169E-2,-2.9302802E-2,-9.574731E-4,-2.7706104E-3,1.4869312E-2,-3.2998426E-3,-1.9606644E-2,9.650111E-3,-1.15316305E-2,1.8134316E-2,-2.666046E-2],"categories":[],"categories_nodes":[],"categories_segments":[],"categories_sizes":[],"default_left":[0,0,0,0,0,0,0,0,0,0,0,0,0,0,0,0,0,0,0,0,0,0,0,0,0,0,0],"id":30,"left_children":[1,3,5,7,9,11,13,-1,15,17,19,21,23,25,-1,-1,-1,-1,-1,-1,-1,-1,-1,-1,-1,-1,-1],"loss_changes":[1.1045297E1,5.122156E-1,1.9303894E0,4.5866966E-2,7.2846866E-1,3.003861E-1,6.093106E-1,0E0,2.1169186E-2,2.3126149E-1,6.979481E-2,1.4305082E-1,3.473215E-1,1.3397136E0,0E0,0E0,0E0,0E0,0E0,0E0,0E0,0E0,0E0,0E0,0E0,0E0,0E0],"parents":[2147483647,0,0,1,1,2,2,3,3,4,4,5,5,6,6,8,8,9,9,10,10,11,11,12,12,13,13],"right_children":[2,4,6,8,10,12,14,-1,16,18,20,22,24,26,-1,-1,-1,-1,-1,-1,-1,-1,-1,-1,-1,-1,-1],"split_conditions":[5.9426114E-2,1E0,4.4093424E-1,2.2638443E0,2E0,1E0,4.458177E0,-1.0380185E-2,4.3452755E-2,8.505945E-3,3.3357697E0,2.151585E-1,3.6873784E0,4.137404E0,4.978998E-2,-3.9645422E-2,-1.2049169E-2,-2.9302802E-2,-9.574731E-4,-2.7706104E-3,1.4869312E-2,-3.2998426E-3,-1.9606644E-2,9.650111E-3,-1.15316305E-2,1.8134316E-2,-2.666046E-2],"split_indices":[1,6,1,2,4,6,2,0,1,1,2,1,2,2,0,0,0,0,0,0,0,0,0,0,0,0,0],"split_type":[0,0,0,0,0,0,0,0,0,0,0,0,0,0,0,0,0,0,0,0,0,0,0,0,0,0,0],"sum_hessian":[1.8749307E2,5.4291126E1,1.3320195E2,2.874865E1,2.5542479E1,3.36892E1,9.951275E1,1.2511916E0,2.749746E1,2.1165155E1,4.377323E0,1.4167366E1,1.9521835E1,9.663454E1,2.878207E0,2.6231539E1,1.2659193E0,1.9060926E1,2.1042287E0,2.060884E0,2.3164392E0,6.520677E0,7.646689E0,1.2755533E1,6.7663026E0,9.301573E1,3.618809E0],"tree_param":{"num_deleted":"0","num_feature":"7","num_nodes":"27","size_leaf_vector":"1"}},{"base_weights":[2.1287885E-3,-2.728971E-1,2.3400682E-1,-3.9174357E-1,-1.0611525E-1,1.4373106E-1,3.2046327E-1,-4.7706166E-1,-2.8414848E-1,-2.0366277E-1,-2.3797125E-2,7.279723E-2,3.383655E-1,3.457296E-1,-1.3292138E-2,-8.276424E-3,-3.922455E-2,-2.778973E-2,3.0204977E-3,-2.428193E-2,-9.138043E-3,-1.2523066E-2,5.6135007E-3,1.1622073E-2,-2.5324022E-2,-2.4711344E-2,3.750015E-2,2.6695242E-3,2.9966166E-2],"categories":[],"categories_nodes":[],"categories_segments":[],"categories_sizes":[],"default_left":[0,0,0,0,0,0,0,0,0,0,0,0,0,0,0,0,0,0,0,0,0,0,0,0,0,0,0,0,0],"id":31,"left_children":[1,3,5,7,9,11,13,15,17,19,21,23,25,27,-1,-1,-1,-1,-1,-1,-1,-1,-1,-1,-1,-1,-1,-1,-1],"loss_changes":[1.2150099E1,1.6859913E0,7.6069546E-1,3.2820797E-1,2.9736906E-1,6.985197E-1,6.9661236E-1,8.1419945E-2,5.181668E-1,1.1798787E-1,2.7970213E-1,1.1652392E0,1.302369E0,4.3574095E-1,0E0,0E0,0E0,0E0,0E0,0E0,0E0,0E0,0E0,0E0,0E0,0E0,0E0,0E0,0E0],"parents":[2147483647,0,0,1,1,2,2,3,3,4,4,5,5,6,6,7,7,8,8,9,9,10,10,11,11,12,12,13,13],"right_children":[2,4,6,8,10,12,14,16,18,20,22,24,26,28,-1,-1,-1,-1,-1,-1,-1,-1,-1,-1,-1,-1,-1,-1,-1],"split_conditions":[4.4093424E-1,3.5266664E-2,6.050268E-1,1E0,1E0,7.4602747E-1,9.014134E-1,2.2638443E0,2E0,3.4242628E0,1E0,6.6586226E-1,3.7003138E0,4.6106672E-1,-1.3292138E-2,-8.276424E-3,-3.922455E-2,-2.778973E-2,3.0204977E-3,-2.428193E-2,-9.138043E-3,-1.2523066E-2,5.6135007E-3,1.1622073E-2,-2.5324022E-2,-2.4711344E-2,3.750015E-2,2.6695242E-3,2.9966166E-2],"split_indices":[1,1,1,6,6,3,3,2,4,2,4,3,2,3,0,0,0,0,0,0,0,0,0,0,0,0,0,0,0],"split_type":[0,0,0,0,0,0,0,0,0,0,0,0,0,0,0,0,0,0,0,0,0,0,0,0,0,0,0,0,0],"sum_hessian":[1.8852129E2,8.615622E1,1.0236506E2,4.9520058E1,3.6636158E1,5.1378906E1,5.0986156E1,2.5704044E1,2.3816015E1,1.6092432E1,2.0543728E1,3.866251E1,1.2716394E1,4.8744724E1,2.2414317E0,1.1817355E0,2.4522308E1,1.9840218E1,3.9757967E0,6.4721847E0,9.620247E0,8.238989E0,1.230474E1,3.3123337E1,5.539176E0,1.9025933E0,1.0813801E1,4.3034716E0,4.4441254E1],"tree_param":{"num_deleted":"0","num_feature":"7","num_nodes":"29","size_leaf_vector":"1"}},{"base_weights":[-3.034825E-3,-2.6728007E-1,2.2668664E-1,-3.7942728E-1,-9.973742E-2,2.882213E-1,1.0059339E-1,-2.3433315E-3,-3.9049023E-1,7.529084E-2,-1.8548131E-1,3.0666763E-1,-1.5524082E-2,-5.877316E-2,2.617641E-1,-4.6344507E-3,-3.189713E-2,-8.194902E-3,2.046135E-2,-1.7732905E-2,9.769321E-3,2.1194274E-2,4.519669E-2,-2.03353E-2,9.1592595E-3,-1.7286003E-2,2.5593437E-2],"categories":[],"categories_nodes":[],"categories_segments":[],"categories_sizes":[],"default_left":[0,0,0,0,0,0,0,0,0,0,0,0,0,0,0,0,0,0,0,0,0,0,0,0,0,0,0],"id":32,"left_children":[1,3,5,7,9,11,13,-1,15,17,19,21,-1,23,25,-1,-1,-1,-1,-1,-1,-1,-1,-1,-1,-1,-1],"loss_changes":[1.1222031E1,1.5774598E0,7.383957E-1,1.8665934E-1,5.5164886E-1,6.460295E-1,8.87964E-1,0E0,1.1226511E-1,4.2687425E-1,2.978993E-1,5.390973E-1,0E0,6.351182E-1,5.435755E-1,0E0,0E0,0E0,0E0,0E0,0E0,0E0,0E0,0E0,0E0,0E0,0E0],"parents":[2147483647,0,0,1,1,2,2,3,3,4,4,5,5,6,6,8,8,9,9,10,10,11,11,13,13,14,14],"right_children":[2,4,6,8,10,12,14,-1,16,18,20,22,-1,24,26,-1,-1,-1,-1,-1,-1,-1,-1,-1,-1,-1,-1],"split_conditions":[4.4093424E-1,3.826205E-2,1E0,-5.5969637E-2,1.3718685E0,4.137404E0,5.145658E0,-2.3433315E-3,3.9429992E-1,1.3372712E-1,8.675004E-1,4.0280266E0,-1.5524082E-2,3.6788292E0,4.5373833E-1,-4.6344507E-3,-3.189713E-2,-8.194902E-3,2.046135E-2,-1.7732905E-2,9.769321E-3,2.1194274E-2,4.519669E-2,-2.03353E-2,9.1592595E-3,-1.7286003E-2,2.5593437E-2],"split_indices":[1,1,5,1,0,2,0,0,3,1,3,2,0,2,3,0,0,0,0,0,0,0,0,0,0,0,0],"split_type":[0,0,0,0,0,0,0,0,0,0,0,0,0,0,0,0,0,0,0,0,0,0,0,0,0,0,0],"sum_hessian":[1.828703E2,8.496863E1,9.790167E1,5.0141197E1,3.4827427E1,6.4929634E1,3.2972034E1,1.64747E0,4.849373E1,1.1491611E1,2.3335815E1,6.288835E1,2.0412848E0,1.6898266E1,1.6073767E1,1.3643951E0,4.7129333E1,6.0077643E0,5.483846E0,2.1129873E1,2.2059414E0,5.5883423E1,7.0049305E0,7.7219186E0,9.176348E0,1.4493295E0,1.4624437E1],"tree_param":{"num_deleted":"0","num_feature":"7","num_nodes":"27","size_leaf_vector":"1"}},{"base_weights":[-1.5257092E-2,-3.770176E-1,1.3226189E-1,-2.8204218E-1,-3.6472477E-2,-4.7077496E-2,1.9660822E-1,-3.3220053E-1,2.1472413E-2,1.876332E-1,-1.4733593E-1,3.682134E-1,1.4911358E-1,-2.9534409E-2,-8.275823E-3,-3.8668074E-4,2.1520924E-2,-2.1617483E-2,-5.842193E-3,-1.0664872E-2,3.5867028E-2,-2.8792187E-3,2.0949308E-2],"categories":[],"categories_nodes":[],"categories_segments":[],"categories_sizes":[],"default_left":[0,0,0,0,0,0,0,0,0,0,0,0,0,0,0,0,0,0,0,0,0,0,0],"id":33,"left_children":[1,3,5,7,-1,9,11,13,-1,15,17,19,21,-1,-1,-1,-1,-1,-1,-1,-1,-1,-1],"loss_changes":[9.435742E0,2.5506115E-1,1.4594834E0,8.030212E-1,0E0,8.2751054E-1,7.004707E-1,1.6603994E-1,0E0,1.6753641E-1,2.0286196E-1,8.397443E-1,1.559524E0,0E0,0E0,0E0,0E0,0E0,0E0,0E0,0E0,0E0,0E0],"parents":[2147483647,0,0,1,1,2,2,3,3,5,5,6,6,7,7,9,9,10,10,11,11,12,12],"right_children":[2,4,6,8,-1,10,12,14,-1,16,18,20,22,-1,-1,-1,-1,-1,-1,-1,-1,-1,-1],"split_conditions":[5.9426114E-2,3.5275364E0,4.4093424E-1,3.4352767E0,-3.6472477E-2,1.3718685E0,2.9709272E0,7.897564E-3,2.1472413E-2,1.06860586E-1,2.4062897E-1,2.1792133E0,3.670461E0,-2.9534409E-2,-8.275823E-3,-3.8668074E-4,2.1520924E-2,-2.1617483E-2,-5.842193E-3,-1.0664872E-2,3.5867028E-2,-2.8792187E-3,2.0949308E-2],"split_indices":[1,2,1,2,0,0,2,1,0,1,1,0,2,0,0,0,0,0,0,0,0,0,0],"split_type":[0,0,0,0,0,0,0,0,0,0,0,0,0,0,0,0,0,0,0,0,0,0,0],"sum_hessian":[1.748757E2,5.020424E1,1.2467147E2,2.485545E1,2.5348787E1,3.2990936E1,9.1680534E1,2.3143076E1,1.7123735E0,9.613557E0,2.3377378E1,1.840994E1,7.327059E1,1.9394007E1,3.7490697E0,3.1363733E0,6.4771833E0,7.8159113E0,1.5561466E1,2.444603E0,1.5965339E1,2.7994097E1,4.5276497E1],"tree_param":{"num_deleted":"0","num_feature":"7","num_nodes":"23","size_leaf_vector":"1"}},{"base_weights":[8.644198E-3,-2.4302366E-1,2.28302E-1,-3.50844E-1,-7.21267E-2,1.4683478E-1,3.8800412E-1,-3.604543E-2,-2.3179555E-1,1.3458534E-1,-1.557119E-1,1.7593277E-1,-1.6502844E-1,4.1712257E-1,1.7819512E-1,-2.4054894E-2,6.826016E-3,-5.018712E-3,2.0889994E-2,-1.4728887E-2,9.458921E-3,8.65215E-3,3.316367E-2,-2.5413694E-2,8.575289E-5,2.7449798E-2,5.056915E-2,-1.3950332E-2,2.874687E-2],"categories":[],"categories_nodes":[],"categories_segments":[],"categories_sizes":[],"default_left":[0,0,0,0,0,0,0,0,0,0,0,0,0,0,0,0,0,0,0,0,0,0,0,0,0,0,0,0,0],"id":34,"left_children":[1,3,5,7,9,11,13,-1,15,17,19,21,23,25,27,-1,-1,-1,-1,-1,-1,-1,-1,-1,-1,-1,-1,-1,-1],"loss_changes":[1.0035186E1,1.5338774E0,1.2038684E0,5.0845146E-1,6.0828567E-1,6.2598133E-1,1.2194681E-1,0E0,5.847553E-1,2.7415603E-1,2.1368998E-1,9.361217E-1,1.5575862E-1,2.2007656E-1,4.242174E-1,0E0,0E0,0E0,0E0,0E0,0E0,0E0,0E0,0E0,0E0,0E0,0E0,0E0,0E0],"parents":[2147483647,0,0,1,1,2,2,3,3,4,4,5,5,6,6,8,8,9,9,10,10,11,11,12,12,13,13,14,14],"right_children":[2,4,6,8,10,12,14,-1,16,18,20,22,24,26,28,-1,-1,-1,-1,-1,-1,-1,-1,-1,-1,-1,-1,-1,-1],"split_conditions":[4.4580033E-1,5.9426114E-2,5.630147E0,1E0,1.3718685E0,7.760869E-1,7.059168E-1,-3.604543E-2,2E0,1.3372712E-1,8.675004E-1,7.2571886E-1,5.1883143E-1,7.008478E-1,7.826922E-1,-2.4054894E-2,6.826016E-3,-5.018712E-3,2.0889994E-2,-1.4728887E-2,9.458921E-3,8.65215E-3,3.316367E-2,-2.5413694E-2,8.575289E-5,2.7449798E-2,5.056915E-2,-1.3950332E-2,2.874687E-2],"split_indices":[1,1,0,6,0,3,3,0,4,1,3,3,1,3,3,0,0,0,0,0,0,0,0,0,0,0,0,0,0],"split_type":[0,0,0,0,0,0,0,0,0,0,0,0,0,0,0,0,0,0,0,0,0,0,0,0,0,0,0,0,0],"sum_hessian":[1.7952744E2,8.361784E1,9.590959E1,5.062509E1,3.2992752E1,6.478229E1,3.1127302E1,2.6033092E1,2.4591997E1,9.323912E0,2.366884E1,5.965237E1,5.1299205E0,2.6466087E1,4.661215E0,2.0245693E1,4.3463054E0,3.8400984E0,5.4838133E0,2.1742786E1,1.9260553E0,4.7587753E1,1.2064614E1,2.1977286E0,2.9321918E0,2.1620352E1,4.845735E0,1.5946667E0,3.066548E0],"tree_param":{"num_deleted":"0","num_feature":"7","num_nodes":"29","size_leaf_vector":"1"}},{"base_weights":[2.603087E-3,-2.3792495E-1,2.1219629E-1,-3.6609307E-1,-7.0644625E-2,1.3223305E-1,3.7543106E-1,-4.5732936E-1,-2.582213E-1,6.436363E-2,-1.4403899E-1,1.948879E-1,-1.9095588E-2,2.9630008E-1,4.8292455E-1,-8.224443E-3,-3.769418E-2,2.3496214E-3,-2.666091E-2,-6.3541583E-3,1.7709585E-2,-1.399558E-2,8.90285E-3,1.7139642E-2,-2.01071E-2,-1.5701033E-2,9.037971E-3,3.048394E-2,-3.646412E-2,4.2038225E-2,3.2209912E-3],"categories":[],"categories_nodes":[],"categories_segments":[],"categories_sizes":[],"default_left":[0,0,0,0,0,0,0,0,0,0,0,0,0,0,0,0,0,0,0,0,0,0,0,0,0,0,0,0,0,0,0],"id":35,"left_children":[1,3,5,7,9,11,13,15,17,19,21,23,25,27,29,-1,-1,-1,-1,-1,-1,-1,-1,-1,-1,-1,-1,-1,-1,-1,-1],"loss_changes":[9.034772E0,1.7633977E0,1.2002802E0,3.4459114E-1,3.8028085E-1,6.277678E-1,1.20102406E-1,7.023525E-2,5.242537E-1,3.3087987E-1,2.1331036E-1,4.5667744E-1,4.9440786E-1,1.4746037E0,1.9606853E-1,0E0,0E0,0E0,0E0,0E0,0E0,0E0,0E0,0E0,0E0,0E0,0E0,0E0,0E0,0E0,0E0],"parents":[2147483647,0,0,1,1,2,2,3,3,4,4,5,5,6,6,7,7,8,8,9,9,10,10,11,11,12,12,13,13,14,14],"right_children":[2,4,6,8,10,12,14,16,18,20,22,24,26,28,30,-1,-1,-1,-1,-1,-1,-1,-1,-1,-1,-1,-1,-1,-1,-1,-1],"split_conditions":[4.4580033E-1,3.5266664E-2,5.630147E0,1E0,1.3718685E0,1E0,3.8124237E0,2.2638443E0,-4.31594E-3,1.3372712E-1,8.675004E-1,4.137404E0,3.670461E0,3.7157648E0,8.566725E-1,-8.224443E-3,-3.769418E-2,2.3496214E-3,-2.666091E-2,-6.3541583E-3,1.7709585E-2,-1.399558E-2,8.90285E-3,1.7139642E-2,-2.01071E-2,-1.5701033E-2,9.037971E-3,3.048394E-2,-3.646412E-2,4.2038225E-2,3.2209912E-3],"split_indices":[1,1,0,6,0,5,2,2,1,1,3,2,2,2,1,0,0,0,0,0,0,0,0,0,0,0,0,0,0,0,0],"split_type":[0,0,0,0,0,0,0,0,0,0,0,0,0,0,0,0,0,0,0,0,0,0,0,0,0,0,0,0,0,0,0],"sum_hessian":[1.7721352E2,8.245427E1,9.475925E1,4.6011963E1,3.6442303E1,6.481744E1,2.9941809E1,2.3173018E1,2.2838945E1,1.2877431E1,2.3564873E1,4.563518E1,1.9182257E1,1.9409798E1,1.0532011E1,1.187796E0,2.1985222E1,4.852048E0,1.7986897E1,6.979514E0,5.897917E0,2.1301273E1,2.2635982E0,4.4236065E1,1.3991165E0,7.9848394E0,1.1197417E1,1.7887527E1,1.5222696E0,9.437677E0,1.0943339E0],"tree_param":{"num_deleted":"0","num_feature":"7","num_nodes":"31","size_leaf_vector":"1"}},{"base_weights":[7.4554537E-3,-2.453555E-1,2.1972203E-1,-3.7019488E-1,-1.0994491E-1,1.50606E-1,3.8155746E-1,-2.268345E-1,-3.4752827E-2,-2.2804151E-1,3.1654835E-3,5.8628086E-2,2.3695043E-1,2.8780022E-1,4.975045E-1,-3.136462E-2,4.055412E-3,-3.0622425E-2,-1.2753399E-2,-1.03332335E-2,7.0793116E-3,1.3792415E-2,-1.6388228E-2,3.6645535E-2,4.463412E-3,2.9286565E-2,-2.9810406E-2,4.2836856E-2,9.97745E-3],"categories":[],"categories_nodes":[],"categories_segments":[],"categories_sizes":[],"default_left":[0,0,0,0,0,0,0,0,0,0,0,0,0,0,0,0,0,0,0,0,0,0,0,0,0,0,0,0,0],"id":36,"left_children":[1,3,5,7,9,11,13,15,-1,17,19,21,23,25,27,-1,-1,-1,-1,-1,-1,-1,-1,-1,-1,-1,-1,-1,-1],"loss_changes":[9.413742E0,1.3129945E0,1.0089431E0,2.8114367E-1,5.328413E-1,5.297978E-1,1.5989447E-1,7.008855E-1,0E0,1.460644E-1,2.5231263E-1,1.0688757E0,1.3757428E0,1.0560107E0,9.01711E-2,0E0,0E0,0E0,0E0,0E0,0E0,0E0,0E0,0E0,0E0,0E0,0E0,0E0,0E0],"parents":[2147483647,0,0,1,1,2,2,3,3,4,4,5,5,6,6,7,7,9,9,10,10,11,11,12,12,13,13,14,14],"right_children":[2,4,6,8,10,12,14,16,-1,18,20,22,24,26,28,-1,-1,-1,-1,-1,-1,-1,-1,-1,-1,-1,-1,-1,-1],"split_conditions":[4.2588583E-1,9.544843E-3,5.630147E0,-4.31594E-3,1E0,3.670461E0,3.8124237E0,1E0,-3.4752827E-2,5.0639983E-2,1E0,3.295096E0,3.77368E0,3.7157648E0,8.3785605E-1,-3.136462E-2,4.055412E-3,-3.0622425E-2,-1.2753399E-2,-1.03332335E-2,7.0793116E-3,1.3792415E-2,-1.6388228E-2,3.6645535E-2,4.463412E-3,2.9286565E-2,-2.9810406E-2,4.2836856E-2,9.97745E-3],"split_indices":[1,1,0,1,6,2,2,6,0,1,4,2,2,2,1,0,0,0,0,0,0,0,0,0,0,0,0,0,0],"split_type":[0,0,0,0,0,0,0,0,0,0,0,0,0,0,0,0,0,0,0,0,0,0,0,0,0,0,0,0,0],"sum_hessian":[1.7341771E2,7.9078636E1,9.433908E1,4.024323E1,3.8835403E1,6.745941E1,2.6879673E1,1.3851744E1,2.6391487E1,1.8501848E1,2.0333555E1,3.3477104E1,3.3982304E1,1.6787283E1,1.0092389E1,8.423943E0,5.4278007E0,4.277859E0,1.4223989E1,7.769752E0,1.2563803E1,2.3622171E1,9.854932E0,1.4614939E1,1.9367367E1,1.5406784E1,1.3804991E0,8.763714E0,1.3286752E0],"tree_param":{"num_deleted":"0","num_feature":"7","num_nodes":"29","size_leaf_vector":"1"}},{"base_weights":[-4.6936586E-3,-2.5866488E-1,1.7153797E-1,-3.4801733E-1,-1.6525401E-1,5.0183438E-2,3.0965117E-1,-3.6172825E-1,-4.0667374E-3,-2.8424114E-1,-2.5344966E-2,-4.347261E-2,1.7194219E-1,3.483161E-1,7.8907855E-2,-7.009317E-3,-2.9694537E-2,-2.430433E-2,-9.037846E-3,-8.2718665E-3,8.121752E-3,1.5934998E-2,-1.1668423E-2,3.6372576E-2,3.1828426E-3,1.4695106E-3,3.0428413E-2,-1.9475792E-2,1.7321823E-2],"categories":[],"categories_nodes":[],"categories_segments":[],"categories_sizes":[],"default_left":[0,0,0,0,0,0,0,0,0,0,0,0,0,0,0,0,0,0,0,0,0,0,0,0,0,0,0,0,0],"id":37,"left_children":[1,3,5,7,9,11,13,15,-1,17,19,21,23,25,27,-1,-1,-1,-1,-1,-1,-1,-1,-1,-1,-1,-1,-1,-1],"loss_changes":[7.5388956E0,5.183358E-1,1.6513693E0,1.2160969E-1,5.860178E-1,6.247659E-1,3.857808E-1,5.2161217E-2,0E0,2.9871583E-2,1.8354458E-1,8.090404E-1,8.687822E-1,4.093151E-1,4.049763E-1,0E0,0E0,0E0,0E0,0E0,0E0,0E0,0E0,0E0,0E0,0E0,0E0,0E0,0E0],"parents":[2147483647,0,0,1,1,2,2,3,3,4,4,5,5,6,6,7,7,9,9,10,10,11,11,12,12,13,13,14,14],"right_children":[2,4,6,8,10,12,14,16,-1,18,20,22,24,26,28,-1,-1,-1,-1,-1,-1,-1,-1,-1,-1,-1,-1,-1,-1],"split_conditions":[1.9755771E0,1E0,3.9835894E0,4.1478853E0,1E0,3.7049987E0,7.2578156E-1,2.5455313E0,-4.0667374E-3,1.8064505E0,2E0,2.775709E0,3.744787E0,4.6106672E-1,7.826922E-1,-7.009317E-3,-2.9694537E-2,-2.430433E-2,-9.037846E-3,-8.2718665E-3,8.121752E-3,1.5934998E-2,-1.1668423E-2,3.6372576E-2,3.1828426E-3,1.4695106E-3,3.0428413E-2,-1.9475792E-2,1.7321823E-2],"split_indices":[0,6,0,2,4,2,3,2,0,0,4,2,2,3,3,0,0,0,0,0,0,0,0,0,0,0,0,0,0],"split_type":[0,0,0,0,0,0,0,0,0,0,0,0,0,0,0,0,0,0,0,0,0,0,0,0,0,0,0,0,0],"sum_hessian":[1.6644635E2,6.799276E1,9.84536E1,3.3358208E1,3.4634552E1,5.3131996E1,4.53216E1,3.1679447E1,1.6787592E0,1.815923E1,1.6475323E1,3.039518E1,2.2736814E1,3.8380726E1,6.940877E0,1.3984479E0,3.0281E1,1.5603122E1,2.5561085E0,1.0314458E1,6.160864E0,8.738439E0,2.165674E1,6.4654226E0,1.6271393E1,3.5362964E0,3.484443E1,1.8465018E0,5.094375E0],"tree_param":{"num_deleted":"0","num_feature":"7","num_nodes":"29","size_leaf_vector":"1"}},{"base_weights":[-4.3018768E-3,-2.3292382E-1,1.9233656E-1,-3.5031828E-1,-7.450507E-2,1.24835156E-1,3.767132E-1,-4.3863773E-1,-2.4533543E-1,5.484937E-2,-1.4756164E-1,1.8553776E-1,-2.06039E-2,4.1377798E-1,-2.8757725E-3,-9.373327E-3,-3.6170587E-2,-2.5221605E-2,5.2129035E-3,-8.100124E-3,1.589793E-2,-2.446284E-2,-7.883875E-3,7.213156E-3,2.2846881E-2,-1.8743621E-2,3.7081167E-3,3.8425937E-2,2.08469E-2],"categories":[],"categories_nodes":[],"categories_segments":[],"categories_sizes":[],"default_left":[0,0,0,0,0,0,0,0,0,0,0,0,0,0,0,0,0,0,0,0,0,0,0,0,0,0,0,0,0],"id":38,"left_children":[1,3,5,7,9,11,13,15,17,19,21,23,25,27,-1,-1,-1,-1,-1,-1,-1,-1,-1,-1,-1,-1,-1,-1,-1],"loss_changes":[7.5587096E0,1.419611E0,1.078098E0,3.0387545E-1,3.327769E-1,6.012597E-1,3.7785316E-1,4.6080112E-2,5.1012087E-1,3.1500018E-1,1.4224207E-1,4.307741E-1,3.0885094E-1,9.763861E-2,0E0,0E0,0E0,0E0,0E0,0E0,0E0,0E0,0E0,0E0,0E0,0E0,0E0,0E0,0E0],"parents":[2147483647,0,0,1,1,2,2,3,3,4,4,5,5,6,6,7,7,8,8,9,9,10,10,11,11,12,12,13,13],"right_children":[2,4,6,8,10,12,14,16,18,20,22,24,26,28,-1,-1,-1,-1,-1,-1,-1,-1,-1,-1,-1,-1,-1,-1,-1],"split_conditions":[4.2588583E-1,3.5266664E-2,5.7814007E0,1E0,1.3718685E0,1E0,8.367809E0,2.2638443E0,2E0,9.675721E-2,1.8064505E0,3.6891294E0,3.2699492E0,8.2311827E-1,-2.8757725E-3,-9.373327E-3,-3.6170587E-2,-2.5221605E-2,5.2129035E-3,-8.100124E-3,1.589793E-2,-2.446284E-2,-7.883875E-3,7.213156E-3,2.2846881E-2,-1.8743621E-2,3.7081167E-3,3.8425937E-2,2.08469E-2],"split_indices":[1,1,0,6,0,5,0,2,4,1,0,2,2,1,0,0,0,0,0,0,0,0,0,0,0,0,0,0,0],"split_type":[0,0,0,0,0,0,0,0,0,0,0,0,0,0,0,0,0,0,0,0,0,0,0,0,0,0,0,0,0],"sum_hessian":[1.6613974E2,7.673692E1,8.940282E1,4.3379604E1,3.335732E1,6.6671165E1,2.273165E1,2.1833467E1,2.1546137E1,1.2129668E1,2.122765E1,4.6843964E1,1.9827198E1,2.0855701E1,1.8759493E0,1.269668E0,2.0563799E1,1.7572767E1,3.97337E0,5.9597373E0,6.1699305E0,3.7814796E0,1.7446169E1,2.495564E1,2.1888325E1,4.134013E0,1.5693185E1,1.3050948E1,7.8047533E0],"tree_param":{"num_deleted":"0","num_feature":"7","num_nodes":"29","size_leaf_vector":"1"}},{"base_weights":[1.0946532E-2,-2.4079573E-1,2.1999706E-1,-3.661922E-1,-1.03230275E-1,1.5990624E-1,3.7271613E-1,-2.6161626E-1,-3.643705E-2,-2.0420995E-1,-1.0553347E-2,2.125229E-1,2.6771605E-2,4.4207826E-1,2.474927E-1,-2.3693033E-2,1.3795831E-2,-1.7603986E-2,2.7117406E-3,6.074162E-3,-1.0690508E-2,1.8495344E-2,-1.9292874E-2,-3.491217E-3,1.8494226E-2,1.0558179E-2,3.690894E-2,3.801367E-2,5.6454814E-3],"categories":[],"categories_nodes":[],"categories_segments":[],"categories_sizes":[],"default_left":[0,0,0,0,0,0,0,0,0,0,0,0,0,0,0,0,0,0,0,0,0,0,0,0,0,0,0,0,0],"id":39,"left_children":[1,3,5,7,9,11,13,15,-1,17,19,21,23,25,27,-1,-1,-1,-1,-1,-1,-1,-1,-1,-1,-1,-1,-1,-1],"loss_changes":[8.924841E0,1.2897472E0,7.9039574E-1,2.5302744E-1,3.5431963E-1,4.721985E-1,1.1122656E-1,3.6162007E-1,0E0,7.600552E-2,2.3277882E-1,4.686706E-1,3.0468252E-1,2.9259205E-2,4.2273104E-1,0E0,0E0,0E0,0E0,0E0,0E0,0E0,0E0,0E0,0E0,0E0,0E0,0E0,0E0],"parents":[2147483647,0,0,1,1,2,2,3,3,4,4,5,5,6,6,7,7,9,9,10,10,11,11,12,12,13,13,14,14],"right_children":[2,4,6,8,10,12,14,16,-1,18,20,22,24,26,28,-1,-1,-1,-1,-1,-1,-1,-1,-1,-1,-1,-1,-1,-1],"split_conditions":[4.4093424E-1,1.3938815E-2,5.7814007E0,3.5275364E0,1E0,1E0,8.2311827E-1,3.4242628E0,-3.643705E-2,2.325742E0,3.633631E0,4.137404E0,5.145658E0,2.6246686E0,3.336481E0,-2.3693033E-2,1.3795831E-2,-1.7603986E-2,2.7117406E-3,6.074162E-3,-1.0690508E-2,1.8495344E-2,-1.9292874E-2,-3.491217E-3,1.8494226E-2,1.0558179E-2,3.690894E-2,3.801367E-2,5.6454814E-3],"split_indices":[1,1,0,2,6,5,1,2,0,0,2,2,0,2,2,0,0,0,0,0,0,0,0,0,0,0,0,0,0],"split_type":[0,0,0,0,0,0,0,0,0,0,0,0,0,0,0,0,0,0,0,0,0,0,0,0,0,0,0,0,0],"sum_hessian":[1.6758063E2,7.5958374E1,9.1622246E1,3.8867306E1,3.709107E1,6.722004E1,2.4402205E1,1.9709414E1,1.9157894E1,1.717449E1,1.991658E1,4.7751633E1,1.9468407E1,1.4075414E1,1.032679E1,1.8550684E1,1.1587291E0,1.617434E1,1.0001503E0,1.1922425E1,7.994155E0,4.633536E1,1.4162703E0,1.5065348E1,4.4030585E0,1.2832528E0,1.2792161E1,3.778555E0,6.5482354E0],"tree_param":{"num_deleted":"0","num_feature":"7","num_nodes":"29","size_leaf_vector":"1"}},{"base_weights":[1.3044188E-2,-2.3316343E-1,2.1388999E-1,-3.3054E-1,-8.039167E-2,1.04240894E-1,3.2203797E-1,-4.1989326E-1,-2.2020338E-1,1.526549E-1,-1.7331319E-1,-4.96821E-2,2.4185024E-1,3.6653382E-1,7.511123E-2,-7.6313987E-3,-3.4603447E-2,1.4047143E-3,-2.28874E-2,-1.1970687E-3,1.8834367E-2,-2.7271375E-2,-9.43471E-3,7.1306825E-3,-2.3148071E-2,4.027342E-2,5.602499E-3,5.899042E-4,3.2260653E-2,-2.0556675E-2,1.6474795E-2],"categories":[],"categories_nodes":[],"categories_segments":[],"categories_sizes":[],"default_left":[0,0,0,0,0,0,0,0,0,0,0,0,0,0,0,0,0,0,0,0,0,0,0,0,0,0,0,0,0,0,0],"id":40,"left_children":[1,3,5,7,9,11,13,15,17,19,21,23,25,27,29,-1,-1,-1,-1,-1,-1,-1,-1,-1,-1,-1,-1,-1,-1,-1,-1],"loss_changes":[8.090815E0,1.0673294E0,1.034575E0,3.471179E-1,6.7493623E-1,9.9071527E-1,4.654603E-1,5.534029E-2,3.5051382E-1,1.2933938E-1,1.6283143E-1,7.790106E-1,1.0688058E0,4.9509048E-1,4.0517747E-1,0E0,0E0,0E0,0E0,0E0,0E0,0E0,0E0,0E0,0E0,0E0,0E0,0E0,0E0,0E0,0E0],"parents":[2147483647,0,0,1,1,2,2,3,3,4,4,5,5,6,6,7,7,8,8,9,9,10,10,11,11,12,12,13,13,14,14],"right_children":[2,4,6,8,10,12,14,16,18,20,22,24,26,28,30,-1,-1,-1,-1,-1,-1,-1,-1,-1,-1,-1,-1,-1,-1,-1,-1],"split_conditions":[4.2588583E-1,5.9426114E-2,3.9835894E0,1E0,1.3718685E0,3.7003138E0,7.2578156E-1,2.2638443E0,-4.31594E-3,1.3372712E-1,1.8093942E0,5.874378E-1,3.744787E0,4.6106672E-1,7.826922E-1,-7.6313987E-3,-3.4603447E-2,1.4047143E-3,-2.28874E-2,-1.1970687E-3,1.8834367E-2,-2.7271375E-2,-9.43471E-3,7.1306825E-3,-2.3148071E-2,4.027342E-2,5.602499E-3,5.899042E-4,3.2260653E-2,-2.0556675E-2,1.6474795E-2],"split_indices":[1,1,0,6,0,2,3,2,1,1,0,3,2,3,3,0,0,0,0,0,0,0,0,0,0,0,0,0,0,0,0],"split_type":[0,0,0,0,0,0,0,0,0,0,0,0,0,0,0,0,0,0,0,0,0,0,0,0,0,0,0,0,0,0,0],"sum_hessian":[1.616083E2,7.253278E1,8.9075516E1,4.3586914E1,2.8945871E1,4.520596E1,4.3869556E1,2.2533318E1,2.1053596E1,8.068155E0,2.0877716E1,2.163976E1,2.3566198E1,3.6760906E1,7.1086507E0,1.1659031E0,2.1367414E1,4.7275686E0,1.6326029E1,2.9379835E0,5.130172E0,3.9051273E0,1.697259E1,1.41007395E1,7.539019E0,8.577844E0,1.4988356E1,3.5215294E0,3.3239376E1,1.7365668E0,5.372084E0],"tree_param":{"num_deleted":"0","num_feature":"7","num_nodes":"31","size_leaf_vector":"1"}},{"base_weights":[-1.4839763E-2,-2.4443276E-1,1.233606E-1,-3.3771354E-1,-1.4600617E-1,5.035043E-2,3.617474E-1,-3.5211185E-1,-3.3375993E-3,-2.2358625E-1,1.3833302E-1,4.2553148E-1,2.944349E-2,-4.130134E-3,3.87812E-1,-8.002008E-3,-2.8850736E-2,-2.3226082E-2,-7.2439867E-3,-3.034852E-3,2.0040363E-2,4.6231218E-2,5.607948E-5,1.523698E-2,-2.1487807E-3,3.5017833E-2,2.0944078E-2],"categories":[],"categories_nodes":[],"categories_segments":[],"categories_sizes":[],"default_left":[0,0,0,0,0,0,0,0,0,0,0,0,0,0,0,0,0,0,0,0,0,0,0,0,0,0,0],"id":41,"left_children":[1,3,5,7,9,11,13,15,-1,17,19,21,23,-1,25,-1,-1,-1,-1,-1,-1,-1,-1,-1,-1,-1,-1],"loss_changes":[5.0266547E0,4.9703145E-1,1.7042286E0,1.1226869E-1,7.0849127E-1,5.908458E-1,2.682805E-1,2.4669409E-2,0E0,1.9136536E-1,1.5190218E-1,2.57591E-1,6.7541987E-1,0E0,2.2463083E-2,0E0,0E0,0E0,0E0,0E0,0E0,0E0,0E0,0E0,0E0,0E0,0E0],"parents":[2147483647,0,0,1,1,2,2,3,3,4,4,5,5,6,6,7,7,9,9,10,10,11,11,12,12,14,14],"right_children":[2,4,6,8,10,12,14,16,-1,18,20,22,24,-1,26,-1,-1,-1,-1,-1,-1,-1,-1,-1,-1,-1,-1],"split_conditions":[1.8144265E0,1E0,5.7814007E0,4.1478853E0,2E0,2.8563392E-1,4.6389392E-1,2.2638443E0,-3.3375993E-3,1E0,3.3813348E0,1E0,2.0393274E0,-4.130134E-3,7.311416E0,-8.002008E-3,-2.8850736E-2,-2.3226082E-2,-7.2439867E-3,-3.034852E-3,2.0040363E-2,4.6231218E-2,5.607948E-5,1.523698E-2,-2.1487807E-3,3.5017833E-2,2.0944078E-2],"split_indices":[0,6,0,2,4,3,3,2,0,4,2,5,0,0,0,0,0,0,0,0,0,0,0,0,0,0,0],"split_type":[0,0,0,0,0,0,0,0,0,0,0,0,0,0,0,0,0,0,0,0,0,0,0,0,0,0,0],"sum_hessian":[1.5647014E2,5.850567E1,9.796447E1,2.8789852E1,2.9715816E1,7.592294E1,2.2041525E1,2.7273563E1,1.5162885E0,2.3513874E1,6.2019415E0,2.9859326E0,7.293701E1,1.2491865E0,2.079234E1,1.3084059E0,2.5965158E1,1.4871201E1,8.6426735E0,2.6692436E0,3.5326982E0,1.9325645E0,1.053368E0,1.8279009E1,5.4658E1,1.3121455E1,7.670883E0],"tree_param":{"num_deleted":"0","num_feature":"7","num_nodes":"27","size_leaf_vector":"1"}},{"base_weights":[1.2552434E-3,-2.3397686E-1,1.9818172E-1,-3.4110186E-1,-9.671211E-2,1.4594641E-1,3.396193E-1,-1.000004E-1,-3.6835206E-1,3.2850616E-2,-1.6424449E-1,1.7476214E-1,-1.1289499E-1,-5.560713E-3,3.6429527E-1,-2.0334575E-2,6.6200388E-3,-1.8859912E-3,-3.0257456E-2,8.939401E-3,-1.6934186E-2,-1.55256195E-2,6.342421E-3,9.767196E-3,2.9694228E-2,-2.6902312E-2,7.859047E-3,2.224615E-2,3.7862144E-2],"categories":[],"categories_nodes":[],"categories_segments":[],"categories_sizes":[],"default_left":[0,0,0,0,0,0,0,0,0,0,0,0,0,0,0,0,0,0,0,0,0,0,0,0,0,0,0,0,0],"id":42,"left_children":[1,3,5,7,9,11,13,15,17,19,21,23,25,-1,27,-1,-1,-1,-1,-1,-1,-1,-1,-1,-1,-1,-1,-1,-1],"loss_changes":[7.4192038E0,1.0402143E0,5.944872E-1,2.2989035E-1,2.975266E-1,5.0765455E-1,2.550819E-1,1.7586972E-1,1.1388826E-1,2.604193E-1,1.7600983E-1,5.677271E-1,3.7075573E-1,0E0,7.1576595E-2,0E0,0E0,0E0,0E0,0E0,0E0,0E0,0E0,0E0,0E0,0E0,0E0,0E0,0E0],"parents":[2147483647,0,0,1,1,2,2,3,3,4,4,5,5,6,6,7,7,8,8,9,9,10,10,11,11,12,12,14,14],"right_children":[2,4,6,8,10,12,14,16,18,20,22,24,26,-1,28,-1,-1,-1,-1,-1,-1,-1,-1,-1,-1,-1,-1,-1,-1],"split_conditions":[4.2588583E-1,3.5266664E-2,5.7814007E0,-2.2909794E-2,1.3718685E0,7.760869E-1,4.6389392E-1,1E0,3.6954638E-1,7.461396E-1,8.675004E-1,7.2571886E-1,3.761665E0,-5.560713E-3,7.008478E-1,-2.0334575E-2,6.6200388E-3,-1.8859912E-3,-3.0257456E-2,8.939401E-3,-1.6934186E-2,-1.55256195E-2,6.342421E-3,9.767196E-3,2.9694228E-2,-2.6902312E-2,7.859047E-3,2.224615E-2,3.7862144E-2],"split_indices":[1,1,0,1,0,3,3,6,3,3,3,3,2,0,3,0,0,0,0,0,0,0,0,0,0,0,0,0,0],"split_type":[0,0,0,0,0,0,0,0,0,0,0,0,0,0,0,0,0,0,0,0,0,0,0,0,0,0,0,0,0],"sum_hessian":[1.5815993E2,7.198475E1,8.617518E1,3.9597122E1,3.2387627E1,6.4416824E1,2.175835E1,4.495148E0,3.5101974E1,1.1273213E1,2.1114414E1,5.8256233E1,6.160593E0,1.1343262E0,2.0624025E1,2.226145E0,2.2690032E0,1.0708266E0,3.403115E1,8.933902E0,2.3393116E0,1.8991503E1,2.1229112E0,4.721604E1,1.104019E1,2.7054386E0,3.4551544E0,1.3497424E1,7.1266007E0],"tree_param":{"num_deleted":"0","num_feature":"7","num_nodes":"29","size_leaf_vector":"1"}},{"base_weights":[-1.5243129E-2,-2.351789E-1,1.13341235E-1,-3.3023617E-1,-1.3682055E-1,2.0640098E-2,2.4177682E-1,-3.4071088E-1,-3.192496E-3,-2.5367334E-1,-1.2819153E-2,1.6683583E-1,-6.8107486E-2,-1.7976703E-1,2.8029794E-1,-5.7673664E-3,-2.8069984E-2,-2.1786554E-2,-5.680364E-3,-8.992973E-3,1.361621E-2,-1.8116737E-2,1.8933384E-2,1.5395336E-2,-1.2762378E-2,-4.4202195E-3,-1.828139E-2,3.495839E-2,1.1707315E-2],"categories":[],"categories_nodes":[],"categories_segments":[],"categories_sizes":[],"default_left":[0,0,0,0,0,0,0,0,0,0,0,0,0,0,0,0,0,0,0,0,0,0,0,0,0,0,0,0,0],"id":43,"left_children":[1,3,5,7,9,11,13,15,-1,17,19,21,23,25,27,-1,-1,-1,-1,-1,-1,-1,-1,-1,-1,-1,-1,-1,-1],"loss_changes":[4.377142E0,4.8851085E-1,1.1588694E0,7.2529554E-2,4.2798287E-1,7.621723E-1,7.142925E-1,4.8971653E-2,0E0,3.270489E-2,3.0151772E-1,6.6190326E-1,9.0534735E-1,1.18518025E-2,7.3052025E-1,0E0,0E0,0E0,0E0,0E0,0E0,0E0,0E0,0E0,0E0,0E0,0E0,0E0,0E0],"parents":[2147483647,0,0,1,1,2,2,3,3,4,4,5,5,6,6,7,7,9,9,10,10,11,11,12,12,13,13,14,14],"right_children":[2,4,6,8,10,12,14,16,-1,18,20,22,24,26,28,-1,-1,-1,-1,-1,-1,-1,-1,-1,-1,-1,-1,-1,-1],"split_conditions":[1.8144265E0,1E0,3.9835894E0,4.1478853E0,1E0,2.0441954E0,4.6867624E-1,2.2638443E0,-3.192496E-3,4.0609603E0,1E0,5.2235454E-1,4.8377046E-1,3.499231E0,5.760449E-1,-5.7673664E-3,-2.8069984E-2,-2.1786554E-2,-5.680364E-3,-8.992973E-3,1.361621E-2,-1.8116737E-2,1.8933384E-2,1.5395336E-2,-1.2762378E-2,-4.4202195E-3,-1.828139E-2,3.495839E-2,1.1707315E-2],"split_indices":[0,6,0,2,4,0,3,2,0,2,5,3,3,2,3,0,0,0,0,0,0,0,0,0,0,0,0,0,0],"split_type":[0,0,0,0,0,0,0,0,0,0,0,0,0,0,0,0,0,0,0,0,0,0,0,0,0,0,0,0,0],"sum_hessian":[1.5283452E2,5.608151E1,9.675301E1,2.7320477E1,2.876103E1,5.6868008E1,3.9885002E1,2.6201628E1,1.1188492E0,1.4268947E1,1.4492083E1,2.1148973E1,3.5719036E1,3.0325463E0,3.6852455E1,1.2503202E0,2.4951307E1,1.2501173E1,1.7677737E0,9.634939E0,4.857143E0,2.8507037E0,1.8298271E1,8.990773E0,2.6728262E1,1.4535037E0,1.5790424E0,1.594284E1,2.0909616E1],"tree_param":{"num_deleted":"0","num_feature":"7","num_nodes":"29","size_leaf_vector":"1"}},{"base_weights":[1.1835129E-2,-2.0700404E-1,1.9505078E-1,-3.2042956E-1,-9.608242E-2,1.3373427E-1,3.5794377E-1,-1.8231723E-1,-3.864354E-1,-1.999552E-1,5.824262E-3,3.3045918E-1,8.23323E-2,4.6698433E-1,1.9856729E-1,-2.7049724E-2,3.8653298E-3,-3.5008438E-2,-2.104224E-2,-2.5963336E-2,-1.0830501E-2,1.1361805E-2,-6.96972E-3,3.3571742E-2,-2.1638623E-2,-5.662721E-3,1.4164497E-2,1.3380398E-2,3.992649E-2,2.3220066E-2,-1.1457195E-2],"categories":[],"categories_nodes":[],"categories_segments":[],"categories_sizes":[],"default_left":[0,0,0,0,0,0,0,0,0,0,0,0,0,0,0,0,0,0,0,0,0,0,0,0,0,0,0,0,0,0,0],"id":44,"left_children":[1,3,5,7,9,11,13,15,17,19,21,23,25,27,29,-1,-1,-1,-1,-1,-1,-1,-1,-1,-1,-1,-1,-1,-1,-1,-1],"loss_changes":[6.289468E0,8.68896E-1,8.0459595E-1,2.4795175E-1,3.9898252E-1,6.159606E-1,3.0253863E-1,4.9021974E-1,2.8492928E-2,1.0602087E-1,2.648231E-1,8.019242E-1,7.6324403E-1,3.9331436E-2,3.8561743E-1,0E0,0E0,0E0,0E0,0E0,0E0,0E0,0E0,0E0,0E0,0E0,0E0,0E0,0E0,0E0,0E0],"parents":[2147483647,0,0,1,1,2,2,3,3,4,4,5,5,6,6,7,7,8,8,9,9,10,10,11,11,12,12,13,13,14,14],"right_children":[2,4,6,8,10,12,14,16,18,20,22,24,26,28,30,-1,-1,-1,-1,-1,-1,-1,-1,-1,-1,-1,-1,-1,-1,-1,-1],"split_conditions":[4.2588583E-1,7.897564E-3,5.7814007E0,-4.31594E-3,1E0,2.93492E0,8.2311827E-1,1E0,2.5182345E-4,5.9426114E-2,1.3718685E0,5.5461705E-1,3.670461E0,5.3215766E-1,6.259537E-1,-2.7049724E-2,3.8653298E-3,-3.5008438E-2,-2.104224E-2,-2.5963336E-2,-1.0830501E-2,1.1361805E-2,-6.96972E-3,3.3571742E-2,-2.1638623E-2,-5.662721E-3,1.4164497E-2,1.3380398E-2,3.992649E-2,2.3220066E-2,-1.1457195E-2],"split_indices":[1,1,0,1,6,2,1,6,1,1,0,3,2,3,3,0,0,0,0,0,0,0,0,0,0,0,0,0,0,0,0],"split_type":[0,0,0,0,0,0,0,0,0,0,0,0,0,0,0,0,0,0,0,0,0,0,0,0,0,0,0,0,0,0,0],"sum_hessian":[1.5485806E2,7.050937E1,8.4348694E1,3.392736E1,3.6582012E1,6.2604126E1,2.174457E1,1.2187681E1,2.1739677E1,1.7639772E1,1.8942238E1,1.184442E1,5.0759705E1,1.1765144E1,9.979426E0,6.9956965E0,5.1919847E0,1.356784E1,8.171839E0,4.6473856E0,1.2992387E1,7.4692044E0,1.1473033E1,1.0576426E1,1.267994E0,1.9496828E1,3.1262877E1,1.7387878E0,1.0026357E1,7.9875326E0,1.9918939E0],"tree_param":{"num_deleted":"0","num_feature":"7","num_nodes":"31","size_leaf_vector":"1"}}]},"name":"gbtree"},"learner_model_param":{"base_score":"[7.048585E-11]","boost_from_average":"1","num_class":"0","num_feature":"7","num_target":"1"},"objective":{"lambdarank_param":{"lambdarank_bias_norm":"1","lambdarank_normalization":"1","lambdarank_num_pair_per_sample":"4294967295","lambdarank_pair_method":"topk","lambdarank_score_normalization":"1","lambdarank_unbiased":"0","ndcg_exp_gain":"1"},"name":"rank:ndcg"}},"version":[3,2,0]}