{"learner":{"attributes":{"scikit_learn":"{\"_estimator_type\": \"ranker\"}"},"feature_names":["bm25_score","dense_score","price_log","quality","first_observed_age","zero_history","sparse_history"],"feature_types":["float","float","float","float","int","int","int"],"gradient_booster":{"model":{"cats":{"enc":[],"feature_segments":[],"sorted_idx":[]},"gbtree_model_param":{"num_parallel_tree":"1","num_trees":"45"},"iteration_indptr":[0,1,2,3,4,5,6,7,8,9,10,11,12,13,14,15,16,17,18,19,20,21,22,23,24,25,26,27,28,29,30,31,32,33,34,35,36,37,38,39,40,41,42,43,44,45],"tree_info":[0,0,0,0,0,0,0,0,0,0,0,0,0,0,0,0,0,0,0,0,0,0,0,0,0,0,0,0,0,0,0,0,0,0,0,0,0,0,0,0,0,0,0,0,0],"trees":[{"base_weights":[8.70759E-3,-7.86078E-1,7.67103E-1,-8.0432E-1,-9.2785284E-2,4.7955373E-1,7.321091E-2,-5.1664436E-1,-6.718039E-2,1.8766193E-2,-2.8578412E-2,6.4769185E-1,1.0485183E-1,-4.9114723E-2,4.6776333E-3,3.7475925E-2,5.9544545E-2,2.5707416E-2,-3.14293E-2],"categories":[],"categories_nodes":[],"categories_segments":[],"categories_sizes":[],"default_left":[0,0,0,0,0,0,0,0,0,0,0,0,0,0,0,0,0,0,0],"id":0,"left_children":[1,3,5,7,9,11,-1,13,-1,-1,-1,15,17,-1,-1,-1,-1,-1,-1],"loss_changes":[1.0232693E2,9.737892E-1,3.2587013E0,3.8819504E-1,3.6564308E-1,1.9243288E0,0E0,6.7615795E-1,0E0,0E0,0E0,2.5982857E-2,1.3101844E0,0E0,0E0,0E0,0E0,0E0,0E0],"parents":[2147483647,0,0,1,1,2,2,3,3,4,4,5,5,7,7,11,11,12,12],"right_children":[2,4,6,8,10,12,-1,14,-1,-1,-1,16,18,-1,-1,-1,-1,-1,-1],"split_conditions":[5.264758E-2,2.368627E-2,4.1862437E-1,-7.822505E-3,5.694905E-1,2.2072399E0,7.321091E-2,1E0,-6.718039E-2,1.8766193E-2,-2.8578412E-2,2.4278088E-1,8.429806E-1,-4.9114723E-2,4.6776333E-3,3.7475925E-2,5.9544545E-2,2.5707416E-2,-3.14293E-2],"split_indices":[1,1,1,1,3,0,0,6,0,0,0,1,3,0,0,0,0,0,0],"split_type":[0,0,0,0,0,0,0,0,0,0,0,0,0,0,0,0,0,0,0],"sum_hessian":[1.6776306E2,8.189841E1,8.586465E1,7.96427E1,2.2557118E0,3.0622019E1,5.524263E1,1.0442891E1,6.919981E1,1.0584165E0,1.1972954E0,2.0634327E1,9.987693E0,8.874186E0,1.5687054E0,9.275247E0,1.1359079E1,7.207177E0,2.7805154E0],"tree_param":{"num_deleted":"0","num_feature":"7","num_nodes":"19","size_leaf_vector":"1"}},{"base_weights":[-1.157076E-2,-5.8608955E-1,5.743902E-1,-7.676479E-1,-2.5784707E-1,3.8044685E-1,7.215327E-1,-5.151968E-1,-8.05456E-1,4.109996E-2,-3.359607E-1,4.1981903E-1,-5.143512E-2,6.9447625E-3,7.300443E-1,-4.608861E-2,-4.063111E-3,-6.623448E-2,-4.6446107E-2,1.6281515E-2,-2.6719788E-2,-3.987719E-2,-1.2227316E-2,3.6341778E-3,3.554928E-2,6.0132276E-2,3.316754E-2],"categories":[],"categories_nodes":[],"categories_segments":[],"categories_sizes":[],"default_left":[0,0,0,0,0,0,0,0,0,0,0,0,0,0,0,0,0,0,0,0,0,0,0,0,0,0,0],"id":1,"left_children":[1,3,5,7,9,11,13,15,17,19,21,23,-1,-1,25,-1,-1,-1,-1,-1,-1,-1,-1,-1,-1,-1,-1],"loss_changes":[1.1915626E2,1.045237E1,4.7264023E0,6.784744E-1,1.5352058E0,3.4012156E0,4.6891785E-1,4.7134495E-1,1.3935089E-2,9.44534E-1,1.4641619E0,6.7311287E-1,0E0,0E0,3.501854E-1,0E0,0E0,0E0,0E0,0E0,0E0,0E0,0E0,0E0,0E0,0E0,0E0],"parents":[2147483647,0,0,1,1,2,2,3,3,4,4,5,5,6,6,7,7,8,8,9,9,10,10,11,11,14,14],"right_children":[2,4,6,8,10,12,14,16,18,20,22,24,-1,-1,26,-1,-1,-1,-1,-1,-1,-1,-1,-1,-1,-1,-1],"split_conditions":[4.309998E-1,2.368627E-2,3.4753797E0,-7.822505E-3,5.0014746E-1,2.372804E0,5.419623E-1,1E0,6.890372E-3,2.1151872E0,2.618888E-1,4.4082406E-1,-5.143512E-2,6.9447625E-3,8.5608613E-1,-4.608861E-2,-4.063111E-3,-6.623448E-2,-4.6446107E-2,1.6281515E-2,-2.6719788E-2,-3.987719E-2,-1.2227316E-2,3.6341778E-3,3.554928E-2,6.0132276E-2,3.316754E-2],"split_indices":[1,1,0,1,3,0,1,5,1,0,1,1,0,0,3,0,0,0,0,0,0,0,0,0,0,0,0],"split_type":[0,0,0,0,0,0,0,0,0,0,0,0,0,0,0,0,0,0,0,0,0,0,0,0,0,0,0],"sum_hessian":[3.519517E2,1.7771083E2,1.7424086E2,1.13559715E2,6.415111E1,7.671332E1,9.7527534E1,1.6697084E1,9.686263E1,1.3388002E1,5.0763107E1,7.443923E1,2.2740867E0,1.4387178E0,9.608882E1,1.4548424E1,2.1486616E0,8.562355E1,1.1239081E1,9.661814E0,3.726189E0,2.5983065E1,2.478004E1,4.755694E0,6.968354E1,8.863433E1,7.4544907E0],"tree_param":{"num_deleted":"0","num_feature":"7","num_nodes":"27","size_leaf_vector":"1"}},{"base_weights":[-1.5417777E-2,-6.306434E-1,4.1825873E-1,-7.420928E-1,-1.6177538E-1,8.117862E-2,5.262143E-1,-5.0266746E-2,-7.546771E-1,1.3107364E-1,-2.9170024E-1,2.0529002E-1,-4.4352908E-2,4.1337076E-1,5.9632355E-1,8.5968925E-3,-1.4618399E-2,-4.2786717E-2,-6.277995E-2,2.7544755E-2,-1.1573664E-2,-3.2416556E-2,-8.280453E-3,-8.902352E-3,3.1236386E-2,3.9796274E-2,1.33085735E-2,4.0919747E-2,5.6604493E-2],"categories":[],"categories_nodes":[],"categories_segments":[],"categories_sizes":[],"default_left":[0,0,0,0,0,0,0,0,0,0,0,0,0,0,0,0,0,0,0,0,0,0,0,0,0,0,0,0,0],"id":2,"left_children":[1,3,5,7,9,11,13,15,17,19,21,23,-1,25,27,-1,-1,-1,-1,-1,-1,-1,-1,-1,-1,-1,-1,-1,-1],"loss_changes":[8.8280174E1,7.028042E0,7.0202675E0,9.218559E-1,1.086452E0,3.921149E0,9.1511154E-1,8.316935E-2,2.956314E-1,5.881939E-1,3.7232447E-1,2.453203E0,0E0,1.1535616E0,4.712677E-1,0E0,0E0,0E0,0E0,0E0,0E0,0E0,0E0,0E0,0E0,0E0,0E0,0E0,0E0],"parents":[2147483647,0,0,1,1,2,2,3,3,4,4,5,5,6,6,7,7,8,8,9,9,10,10,11,11,13,13,14,14],"right_children":[2,4,6,8,10,12,14,16,18,20,22,24,-1,26,28,-1,-1,-1,-1,-1,-1,-1,-1,-1,-1,-1,-1,-1,-1],"split_conditions":[2.4278088E-1,2.368627E-2,4.7716373E-1,-3.893351E-2,5.122138E-1,2.2072399E0,3.4753797E0,2E0,-7.822505E-3,1.4706385E0,1E0,1E0,-4.4352908E-2,7.543099E-1,6.583159E-1,8.5968925E-3,-1.4618399E-2,-4.2786717E-2,-6.277995E-2,2.7544755E-2,-1.1573664E-2,-3.2416556E-2,-8.280453E-3,-8.902352E-3,3.1236386E-2,3.9796274E-2,1.33085735E-2,4.0919747E-2,5.6604493E-2],"split_indices":[1,1,1,1,3,0,0,4,1,0,6,6,0,3,3,0,0,0,0,0,0,0,0,0,0,0,0,0,0],"split_type":[0,0,0,0,0,0,0,0,0,0,0,0,0,0,0,0,0,0,0,0,0,0,0,0,0,0,0,0,0],"sum_hessian":[3.2888553E2,1.3579242E2,1.9309312E2,1.09242805E2,2.6549612E1,4.7264996E1,1.4582812E2,2.0408523E0,1.0720195E2,8.1563835E0,1.839323E1,4.0109783E1,7.1552124E0,5.85254E1,8.730273E1,1.0177429E0,1.0231093E0,1.5159956E1,9.2042E1,4.459306E0,3.6970775E0,1.0753992E1,7.639237E0,1.4949759E1,2.5160025E1,4.2906338E1,1.5619061E1,5.2706696E1,3.4596027E1],"tree_param":{"num_deleted":"0","num_feature":"7","num_nodes":"29","size_leaf_vector":"1"}},{"base_weights":[-2.3693506E-2,-6.8938375E-1,3.535012E-1,-7.3045874E-1,-2.2353958E-1,-1.5452185E-2,4.5812237E-1,-2.0234323E-1,-7.407916E-1,3.44612E-2,-4.5932946E-1,-3.5184094E-1,2.032407E-1,3.167506E-1,5.795696E-1,8.373473E-3,-3.4739804E-2,-4.399467E-2,-6.1344516E-2,-4.4486124E-2,4.624441E-3,-7.6480856E-4,-3.4058765E-2,2.4029324E-2,-1.1398382E-2,-9.053662E-3,2.9810905E-2,2.2761313E-2,4.960662E-2],"categories":[],"categories_nodes":[],"categories_segments":[],"categories_sizes":[],"default_left":[0,0,0,0,0,0,0,0,0,0,0,0,0,0,0,0,0,0,0,0,0,0,0,0,0,0,0,0,0],"id":3,"left_children":[1,3,5,7,9,11,13,15,17,-1,19,21,23,25,27,-1,-1,-1,-1,-1,-1,-1,-1,-1,-1,-1,-1,-1,-1],"loss_changes":[7.827469E1,1.9938812E0,7.689556E0,4.130516E-1,1.8294966E0,3.3772497E0,2.4791985E0,2.8435117E-1,7.882309E-2,0E0,4.4531596E-1,4.5296597E-1,9.784821E-1,1.8170443E0,8.063812E-1,0E0,0E0,0E0,0E0,0E0,0E0,0E0,0E0,0E0,0E0,0E0,0E0,0E0,0E0],"parents":[2147483647,0,0,1,1,2,2,3,3,4,4,5,5,6,6,7,7,8,8,10,10,11,11,12,12,13,13,14,14],"right_children":[2,4,6,8,10,12,14,16,18,-1,20,22,24,26,28,-1,-1,-1,-1,-1,-1,-1,-1,-1,-1,-1,-1,-1,-1],"split_conditions":[5.264758E-2,1.714167E-2,4.309998E-1,-3.893351E-2,2.9750192E0,1E0,3.4753797E0,3.0411835E0,-7.822505E-3,3.44612E-2,1E0,1.4706385E0,3.381404E-1,3.0325463E0,3.1192765E0,8.373473E-3,-3.4739804E-2,-4.399467E-2,-6.1344516E-2,-4.4486124E-2,4.624441E-3,-7.6480856E-4,-3.4058765E-2,2.4029324E-2,-1.1398382E-2,-9.053662E-3,2.9810905E-2,2.2761313E-2,4.960662E-2],"split_indices":[1,1,1,1,2,6,0,2,1,0,5,0,1,2,2,0,0,0,0,0,0,0,0,0,0,0,0,0,0],"split_type":[0,0,0,0,0,0,0,0,0,0,0,0,0,0,0,0,0,0,0,0,0,0,0,0,0,0,0,0,0],"sum_hessian":[3.0976303E2,1.1173695E2,1.9802608E2,1.0216105E2,9.575906E0,4.393583E1,1.5409024E2,2.3554518E0,9.9805595E1,2.3176491E0,7.2582564E0,1.707011E1,2.6865719E1,7.287154E1,8.121871E1,1.2496854E0,1.1057665E0,1.4627822E1,8.517777E1,6.0509286E0,1.207328E0,3.2313993E0,1.3838711E1,2.1075895E1,5.789824E0,8.264997E0,6.460654E1,1.0774209E1,7.04445E1],"tree_param":{"num_deleted":"0","num_feature":"7","num_nodes":"29","size_leaf_vector":"1"}},{"base_weights":[1.2714062E-3,-6.9800127E-1,3.4037155E-1,-4.7335532E-1,-7.359504E-1,-3.7765995E-2,4.6551916E-1,-5.7687676E-1,-1.2742253E-1,-5.957554E-2,-3.4095567E-1,-3.115087E-1,1.6798179E-1,3.5698238E-1,5.6969523E-1,-5.103652E-2,-1.8941807E-2,1.810196E-2,-2.2817513E-2,-3.4797555E-3,-3.5962176E-2,1.8162241E-2,-3.054629E-2,3.349531E-2,2.6174828E-3,-2.143044E-2,3.0225465E-2,1.7546432E-2,4.7515597E-2],"categories":[],"categories_nodes":[],"categories_segments":[],"categories_sizes":[],"default_left":[0,0,0,0,0,0,0,0,0,0,0,0,0,0,0,0,0,0,0,0,0,0,0,0,0,0,0,0,0],"id":4,"left_children":[1,3,5,7,9,11,13,15,17,-1,19,21,23,25,27,-1,-1,-1,-1,-1,-1,-1,-1,-1,-1,-1,-1,-1,-1],"loss_changes":[7.3284966E1,5.1207733E-1,9.8667755E0,5.4920053E-1,3.8074493E-2,3.0192614E0,1.5655861E0,1.21080875E-1,3.5970274E-1,0E0,9.914628E-2,9.559636E-1,1.0281992E0,1.1336517E0,5.337086E-1,0E0,0E0,0E0,0E0,0E0,0E0,0E0,0E0,0E0,0E0,0E0,0E0,0E0,0E0],"parents":[2147483647,0,0,1,1,2,2,3,3,4,4,5,5,6,6,7,7,8,8,10,10,11,11,12,12,13,13,14,14],"right_children":[2,4,6,8,10,12,14,16,18,-1,20,22,24,26,28,-1,-1,-1,-1,-1,-1,-1,-1,-1,-1,-1,-1,-1,-1],"split_conditions":[2.368627E-2,-7.822505E-3,4.309998E-1,1E0,1.714167E-2,1E0,5.6974095E-1,4E0,3.0277152E0,-5.957554E-2,5.6086695E-1,2.5862591E0,4.9014932E-1,3.0325463E0,3.1192765E0,-5.103652E-2,-1.8941807E-2,1.810196E-2,-2.2817513E-2,-3.4797555E-3,-3.5962176E-2,1.8162241E-2,-3.054629E-2,3.349531E-2,2.6174828E-3,-2.143044E-2,3.0225465E-2,1.7546432E-2,4.7515597E-2],"split_indices":[1,1,1,6,1,6,1,4,2,0,3,2,3,2,2,0,0,0,0,0,0,0,0,0,0,0,0,0,0],"split_type":[0,0,0,0,0,0,0,0,0,0,0,0,0,0,0,0,0,0,0,0,0,0,0,0,0,0,0,0,0],"sum_hessian":[3.0705634E2,9.992938E1,2.0712697E2,1.6388506E1,8.354087E1,5.1678104E1,1.5544885E2,1.2099959E1,4.2885466E0,8.086546E1,2.6754072E0,2.1954336E1,2.9723768E1,7.8299034E1,7.714982E1,9.515321E0,2.584639E0,1.1891434E0,3.0994034E0,1.0899224E0,1.5854849E0,2.278237E0,1.96761E1,9.6823015E0,2.0041468E1,2.1440182E0,7.615502E1,5.6443205E0,7.15055E1],"tree_param":{"num_deleted":"0","num_feature":"7","num_nodes":"29","size_leaf_vector":"1"}},{"base_weights":[3.7756264E-3,-6.8951863E-1,3.224644E-1,-1.64391E-2,-5.5859227E-2,1.6702175E-2,4.2609173E-1,-3.0886668E-1,2.2282258E-1,3.6346433E-1,5.806792E-1,1.9990778E-2,-3.1386007E-2,2.75617E-2,-5.7706106E-3,3.2705925E-2,1.2526574E-2,2.0934602E-2,4.8476767E-2],"categories":[],"categories_nodes":[],"categories_segments":[],"categories_sizes":[],"default_left":[0,0,0,0,0,0,0,0,0,0,0,0,0,0,0,0,0,0,0],"id":5,"left_children":[1,3,5,-1,-1,7,9,11,13,15,17,-1,-1,-1,-1,-1,-1,-1,-1],"loss_changes":[6.603513E1,2.5385666E-1,6.4803658E0,0E0,0E0,3.6165848E0,1.2690334E0,1.0733249E0,1.207734E0,9.820757E-1,1.8340015E-1,0E0,0E0,0E0,0E0,0E0,0E0,0E0,0E0],"parents":[2147483647,0,0,1,1,2,2,5,5,6,6,7,7,8,8,9,9,10,10],"right_children":[2,4,6,-1,-1,8,10,12,14,16,18,-1,-1,-1,-1,-1,-1,-1,-1],"split_conditions":[2.368627E-2,-3.893351E-2,4.4082406E-1,-1.64391E-2,-5.5859227E-2,1E0,5.616378E0,2.7557142E-2,2.1151872E0,3E0,3.1192765E0,1.9990778E-2,-3.1386007E-2,2.75617E-2,-5.7706106E-3,3.2705925E-2,1.2526574E-2,2.0934602E-2,4.8476767E-2],"split_indices":[1,1,1,0,0,6,0,1,0,4,2,0,0,0,0,0,0,0,0],"split_type":[0,0,0,0,0,0,0,0,0,0,0,0,0,0,0,0,0,0,0],"sum_hessian":[2.9686945E2,9.3122246E1,2.0374721E2,2.0829875E0,9.103926E1,5.186773E1,1.5187947E2,1.991436E1,3.1953371E1,1.1047455E2,4.1404922E1,2.328825E0,1.7585535E1,2.2501284E1,9.452087E0,8.980772E1,2.0666832E1,3.873904E0,3.7531017E1],"tree_param":{"num_deleted":"0","num_feature":"7","num_nodes":"19","size_leaf_vector":"1"}},{"base_weights":[9.348186E-3,-5.310216E-2,3.145028E-1,-2.3153625E-2,4.2302918E-1,-2.697297E-1,1.4495432E-1,3.0665204E-1,5.179989E-1,2.064165E-2,-2.7473044E-2,2.0607507E-2,-9.345878E-3,2.7459426E-2,-1.5639164E-2,4.611803E-2,3.574566E-2],"categories":[],"categories_nodes":[],"categories_segments":[],"categories_sizes":[],"default_left":[0,0,0,0,0,0,0,0,0,0,0,0,0,0,0,0,0],"id":6,"left_children":[1,-1,3,5,7,9,11,13,15,-1,-1,-1,-1,-1,-1,-1,-1],"loss_changes":[6.0849857E1,0E0,7.478451E0,2.1333141E0,1.5464268E0,8.986367E-1,9.3508E-1,1.3860106E0,9.000015E-2,0E0,0E0,0E0,0E0,0E0,0E0,0E0,0E0],"parents":[2147483647,0,0,2,2,3,3,4,4,5,5,6,6,7,7,8,8],"right_children":[2,-1,4,6,8,10,12,14,16,-1,-1,-1,-1,-1,-1,-1,-1],"split_conditions":[2.368627E-2,-5.310216E-2,4.309998E-1,1E0,3.4753797E0,2.5862591E0,2.1151872E0,2.2718961E0,3.6537702E0,2.064165E-2,-2.7473044E-2,2.0607507E-2,-9.345878E-3,2.7459426E-2,-1.5639164E-2,4.611803E-2,3.574566E-2],"split_indices":[1,0,1,6,0,2,0,0,2,0,0,0,0,0,0,0,0],"split_type":[0,0,0,0,0,0,0,0,0,0,0,0,0,0,0,0,0],"sum_hessian":[2.9422372E2,9.141055E1,2.0281316E2,4.9522194E1,1.5329097E2,1.9830647E1,2.9691545E1,7.078231E1,8.250865E1,2.1230118E0,1.7707634E1,2.077033E1,8.921215E0,6.6269714E1,4.5125957E0,4.1398525E1,4.111013E1],"tree_param":{"num_deleted":"0","num_feature":"7","num_nodes":"17","size_leaf_vector":"1"}},{"base_weights":[8.30014E-3,-6.242119E-1,3.1004494E-1,-4.282066E-1,-6.553309E-1,-9.561801E-3,4.0268E-1,-5.166752E-1,-1.332386E-1,-5.3532977E-2,-3.4356332E-1,-2.780346E-1,1.614533E-1,2.7489248E-1,5.0698733E-1,-4.5593485E-2,-1.7440135E-2,6.268675E-3,-2.01987E-2,-4.1840943E-3,-3.884547E-2,-3.899158E-2,-1.5711045E-2,3.0068355E-2,6.7384244E-4,5.0183713E-2,1.6091371E-2,4.4573974E-2,2.2370812E-2],"categories":[],"categories_nodes":[],"categories_segments":[],"categories_sizes":[],"default_left":[0,0,0,0,0,0,0,0,0,0,0,0,0,0,0,0,0,0,0,0,0,0,0,0,0,0,0,0,0],"id":7,"left_children":[1,3,5,7,9,11,13,15,17,-1,19,21,23,25,27,-1,-1,-1,-1,-1,-1,-1,-1,-1,-1,-1,-1,-1,-1],"loss_changes":[5.468302E1,2.8384018E-1,5.74629E0,3.3732796E-1,1.06349945E-1,2.0908127E0,1.8652878E0,6.063938E-2,1.4439651E-1,0E0,1.9661182E-1,2.0695806E-1,9.107158E-1,1.6872668E0,7.75507E-1,0E0,0E0,0E0,0E0,0E0,0E0,0E0,0E0,0E0,0E0,0E0,0E0,0E0,0E0],"parents":[2147483647,0,0,1,1,2,2,3,3,4,4,5,5,6,6,7,7,8,8,10,10,11,11,12,12,13,13,14,14],"right_children":[2,4,6,8,10,12,14,16,18,-1,20,22,24,26,28,-1,-1,-1,-1,-1,-1,-1,-1,-1,-1,-1,-1,-1,-1],"split_conditions":[3.0368188E-2,-7.822505E-3,4.309998E-1,1E0,1.714167E-2,1E0,3.4753797E0,4E0,5.823818E-1,-5.3532977E-2,5.694905E-1,8.956014E-2,5.431104E-1,4.010415E-1,7.347638E-1,-4.5593485E-2,-1.7440135E-2,6.268675E-3,-2.01987E-2,-4.1840943E-3,-3.884547E-2,-3.899158E-2,-1.5711045E-2,3.0068355E-2,6.7384244E-4,5.0183713E-2,1.6091371E-2,4.4573974E-2,2.2370812E-2],"split_indices":[1,1,1,6,1,6,0,4,3,0,3,1,3,3,3,0,0,0,0,0,0,0,0,0,0,0,0,0,0],"split_type":[0,0,0,0,0,0,0,0,0,0,0,0,0,0,0,0,0,0,0,0,0,0,0,0,0,0,0,0,0],"sum_hessian":[2.844987E2,9.154178E1,1.9295691E2,1.4564773E1,7.6977005E1,4.3560955E1,1.4939595E2,1.0626097E1,3.9386754E0,7.2609406E1,4.3676E0,1.6707085E1,2.685387E1,6.877487E1,8.0621086E1,8.247654E0,2.3784432E0,1.5431969E0,2.3954785E0,1.8799655E0,2.4876342E0,3.2931452E0,1.3413939E1,1.0577841E1,1.627603E1,1.0603256E1,5.817161E1,6.485403E1,1.5767054E1],"tree_param":{"num_deleted":"0","num_feature":"7","num_nodes":"29","size_leaf_vector":"1"}},{"base_weights":[4.1724127E-3,-6.058363E-1,2.8000218E-1,-1.907111E-1,-4.9135957E-2,-4.666548E-2,3.8248387E-1,8.160565E-3,-3.1258434E-2,1.8336624E-1,-1.6549946E-1,5.8653724E-1,3.2498938E-1,2.221843E-2,-2.5049934E-2,-2.5401672E-2,-1.6263986E-3,4.9699493E-2,1.6333263E-2,1.30257225E-2,3.840581E-2],"categories":[],"categories_nodes":[],"categories_segments":[],"categories_sizes":[],"default_left":[0,0,0,0,0,0,0,0,0,0,0,0,0,0,0,0,0,0,0,0,0],"id":8,"left_children":[1,3,5,7,-1,9,11,-1,-1,13,15,17,19,-1,-1,-1,-1,-1,-1,-1,-1],"loss_changes":[4.813119E1,1.9210434E-1,6.6120253E0,2.2776374E-1,0E0,1.3405128E0,1.5696983E0,0E0,0E0,8.740781E-1,7.025852E-1,2.9438782E-1,2.9222689E0,0E0,0E0,0E0,0E0,0E0,0E0,0E0,0E0],"parents":[2147483647,0,0,1,1,2,2,3,3,5,5,6,6,9,9,10,10,11,11,12,12],"right_children":[2,4,6,8,-1,10,12,-1,-1,14,16,18,20,-1,-1,-1,-1,-1,-1,-1,-1],"split_conditions":[2.368627E-2,-3.893351E-2,4.309998E-1,3.0411835E0,-4.9135957E-2,5.4734933E-1,4.010415E-1,8.160565E-3,-3.1258434E-2,3.4898093E-1,1E0,8.999578E-1,4.2021456E0,2.221843E-2,-2.5049934E-2,-2.5401672E-2,-1.6263986E-3,4.9699493E-2,1.6333263E-2,1.30257225E-2,3.840581E-2],"split_indices":[1,1,1,2,0,3,3,0,0,1,6,1,0,0,0,0,0,0,0,0,0],"split_type":[0,0,0,0,0,0,0,0,0,0,0,0,0,0,0,0,0,0,0,0,0],"sum_hessian":[2.8404675E2,8.8073105E1,1.9597365E2,2.2093725E0,8.586373E1,4.6928944E1,1.4904471E2,1.0957751E0,1.1135973E0,1.5800409E1,3.1128532E1,3.0740862E1,1.1830384E2,1.3647203E1,2.153206E0,1.4625485E1,1.6503048E1,2.7610088E1,3.1307745E0,5.8833057E1,5.9470787E1],"tree_param":{"num_deleted":"0","num_feature":"7","num_nodes":"21","size_leaf_vector":"1"}},{"base_weights":[1.6316608E-2,-4.8394567E-1,3.6537433E-1,-5.988549E-1,-1.1019383E-1,3.9164074E-2,4.066847E-1,-3.9940313E-1,-5.0689027E-2,2.3654303E-1,-1.9051516E-1,2.5986093E-1,-2.7464122E-1,1.8208106E-3,4.279685E-1,-3.9185625E-2,-8.512086E-3,3.631798E-2,-1.0484361E-2,-2.0895466E-2,-1.5589345E-3,3.268342E-2,-8.018728E-3,-3.765744E-2,-6.1545917E-3,3.664157E-2,-1.7718824E-2,3.5835877E-2,9.500857E-3],"categories":[],"categories_nodes":[],"categories_segments":[],"categories_sizes":[],"default_left":[0,0,0,0,0,0,0,0,0,0,0,0,0,0,0,0,0,0,0,0,0,0,0,0,0,0,0,0,0],"id":9,"left_children":[1,3,5,7,9,11,13,15,-1,17,19,21,23,25,27,-1,-1,-1,-1,-1,-1,-1,-1,-1,-1,-1,-1,-1,-1],"loss_changes":[4.848263E1,4.8352833E0,2.187523E0,3.5048294E-1,8.26588E-1,1.4208647E0,1.2489109E0,3.6184335E-1,0E0,5.169944E-1,2.7701426E-1,6.8095285E-1,2.9453284E-1,9.416346E-1,7.979889E-1,0E0,0E0,0E0,0E0,0E0,0E0,0E0,0E0,0E0,0E0,0E0,0E0,0E0,0E0],"parents":[2147483647,0,0,1,1,2,2,3,3,4,4,5,5,6,6,7,7,9,9,10,10,11,11,12,12,13,13,14,14],"right_children":[2,4,6,8,10,12,14,16,-1,18,20,22,24,26,28,-1,-1,-1,-1,-1,-1,-1,-1,-1,-1,-1,-1,-1,-1],"split_conditions":[2.618888E-1,2.368627E-2,4.309998E-1,-7.822505E-3,2.9750192E0,2.1151872E0,3.0722303E0,1E0,-5.0689027E-2,1.4706385E0,1E0,3.381404E-1,1E0,2.5680215E0,4.308918E0,-3.9185625E-2,-8.512086E-3,3.631798E-2,-1.0484361E-2,-2.0895466E-2,-1.5589345E-3,3.268342E-2,-8.018728E-3,-3.765744E-2,-6.1545917E-3,3.664157E-2,-1.7718824E-2,3.5835877E-2,9.500857E-3],"split_indices":[1,1,1,1,2,0,2,6,0,0,5,1,6,2,2,0,0,0,0,0,0,0,0,0,0,0,0,0,0],"split_type":[0,0,0,0,0,0,0,0,0,0,0,0,0,0,0,0,0,0,0,0,0,0,0,0,0,0,0,0,0],"sum_hessian":[2.7563324E2,1.1312229E2,1.6251096E2,8.606079E1,2.7061499E1,1.8485666E1,1.440253E2,1.4625602E1,7.1435196E1,4.7239323E0,2.2337566E1,1.0953828E1,7.5318384E0,7.247508E0,1.3677779E2,1.0663295E1,3.9623067E0,2.8205914E0,1.9033407E0,1.5432738E1,6.9048285E0,7.6575246E0,3.2963033E0,3.0882328E0,4.443606E0,2.0363345E0,5.2111735E0,1.2805461E2,8.723171E0],"tree_param":{"num_deleted":"0","num_feature":"7","num_nodes":"29","size_leaf_vector":"1"}},{"base_weights":[2.9929827E-3,-5.802296E-1,2.6989287E-1,-4.04658E-1,-4.8473947E-2,-4.654477E-2,3.7231755E-1,-4.9139354E-1,-9.5714964E-2,-2.275176E-1,8.741921E-2,-1.4483255E-1,3.8962725E-1,-4.3900818E-2,-1.6115308E-2,1.2092797E-2,-1.768174E-2,1.2080385E-2,-2.2576341E-2,2.7268508E-2,-2.594898E-4,-3.14392E-2,9.474686E-3,2.7233355E-2,4.3347567E-2],"categories":[],"categories_nodes":[],"categories_segments":[],"categories_sizes":[],"default_left":[0,0,0,0,0,0,0,0,0,0,0,0,0,0,0,0,0,0,0,0,0,0,0,0,0],"id":10,"left_children":[1,3,5,7,-1,9,11,13,15,17,19,21,23,-1,-1,-1,-1,-1,-1,-1,-1,-1,-1,-1,-1],"loss_changes":[4.188019E1,1.3587189E-1,5.999428E0,3.2260656E-1,0E0,1.1356362E0,1.3056202E0,6.4587116E-2,1.6537067E-1,4.5359063E-1,6.2535536E-1,3.894408E-1,8.290291E-1,0E0,0E0,0E0,0E0,0E0,0E0,0E0,0E0,0E0,0E0,0E0,0E0],"parents":[2147483647,0,0,1,1,2,2,3,3,5,5,6,6,7,7,8,8,9,9,10,10,11,11,12,12],"right_children":[2,4,6,8,-1,10,12,14,16,18,20,22,24,-1,-1,-1,-1,-1,-1,-1,-1,-1,-1,-1,-1],"split_conditions":[2.368627E-2,-7.822505E-3,4.309998E-1,1E0,-4.8473947E-2,1E0,3.0325463E0,4E0,3.0277152E0,2.7557142E-2,1.4706385E0,6.142841E-1,5.8040404E0,-4.3900818E-2,-1.6115308E-2,1.2092797E-2,-1.768174E-2,1.2080385E-2,-2.2576341E-2,2.7268508E-2,-2.594898E-4,-3.14392E-2,9.474686E-3,2.7233355E-2,4.3347567E-2],"split_indices":[1,1,1,6,0,6,2,4,2,1,0,1,0,0,0,0,0,0,0,0,0,0,0,0,0],"split_type":[0,0,0,0,0,0,0,0,0,0,0,0,0,0,0,0,0,0,0,0,0,0,0,0,0],"sum_hessian":[2.6703958E2,8.346974E1,1.8356982E2,1.2794432E1,7.067531E1,4.502187E1,1.3854796E2,9.528694E0,3.2657373E0,1.8853798E1,2.616807E1,4.248583E0,1.3429938E2,7.2096786E0,2.3190153E0,1.0300503E0,2.235687E0,2.1576958E0,1.6696102E1,6.167619E0,2.000045E1,1.9333955E0,2.3151872E0,1.0393474E2,3.036464E1],"tree_param":{"num_deleted":"0","num_feature":"7","num_nodes":"25","size_leaf_vector":"1"}},{"base_weights":[-1.3692267E-2,-5.265694E-1,2.5192353E-1,1.4833947E-2,-5.446187E-1,-2.0071594E-2,3.25467E-1,-4.2777327E-1,-4.858166E-2,3.4911177E-1,-8.365012E-2,2.4888182E-1,4.8770866E-1,-3.8604155E-2,4.1973128E-4,3.0942494E-2,9.285409E-3,-1.6619403E-2,5.778879E-3,3.6913246E-2,1.2731398E-2,4.177395E-2,1.5200068E-2],"categories":[],"categories_nodes":[],"categories_segments":[],"categories_sizes":[],"default_left":[0,0,0,0,0,0,0,0,0,0,0,0,0,0,0,0,0,0,0,0,0,0,0],"id":11,"left_children":[1,3,5,-1,7,9,11,13,-1,15,17,19,21,-1,-1,-1,-1,-1,-1,-1,-1,-1,-1],"loss_changes":[3.564081E1,1.2480183E0,3.4550457E0,0E0,3.7933922E-1,9.12557E-1,1.5654993E0,8.055959E-1,0E0,5.340934E-3,6.5166366E-1,1.7245231E0,3.3679295E-1,0E0,0E0,0E0,0E0,0E0,0E0,0E0,0E0,0E0,0E0],"parents":[2147483647,0,0,1,1,2,2,4,4,5,5,6,6,7,7,9,9,10,10,11,11,12,12],"right_children":[2,4,6,-1,8,10,12,14,-1,16,18,20,22,-1,-1,-1,-1,-1,-1,-1,-1,-1,-1],"split_conditions":[8.956014E-2,2.747728E-1,4.309998E-1,1.4833947E-2,5.9939104E-1,1.4706385E0,5.616378E0,1.714167E-2,-4.858166E-2,6.5987885E-1,1E0,4.010415E-1,7.332553E-1,-3.8604155E-2,4.1973128E-4,3.0942494E-2,9.285409E-3,-1.6619403E-2,5.778879E-3,3.6913246E-2,1.2731398E-2,4.177395E-2,1.5200068E-2],"split_indices":[1,3,1,0,3,0,0,1,0,3,5,3,3,0,0,0,0,0,0,0,0,0,0],"split_type":[0,0,0,0,0,0,0,0,0,0,0,0,0,0,0,0,0,0,0,0,0,0,0],"sum_hessian":[2.5965186E2,8.825601E1,1.7139584E2,1.9527452E0,8.630327E1,3.6634155E1,1.3476169E2,3.2855618E1,5.344765E1,4.7222557E0,3.19119E1,9.326876E1,4.1492928E1,2.9064465E1,3.791152E0,3.4972649E0,1.2249908E0,1.7582653E1,1.43292465E1,2.6460178E1,6.680858E1,3.651195E1,4.9809756E0],"tree_param":{"num_deleted":"0","num_feature":"7","num_nodes":"23","size_leaf_vector":"1"}},{"base_weights":[2.805262E-3,-5.2388126E-1,2.728832E-1,1.509713E-2,-5.4153186E-1,1.3700695E-1,4.6688497E-1,-3.2719418E-1,-5.779839E-1,4.0598682E-1,6.439953E-2,4.9495953E-1,1.0030812E-1,-3.7960403E-2,8.278917E-3,-3.0785877E-2,-4.851526E-2,-1.3182266E-3,4.070752E-2,4.5953426E-4,3.305437E-2,3.4617454E-2,5.1443294E-2,-1.9440982E-2,3.913724E-2],"categories":[],"categories_nodes":[],"categories_segments":[],"categories_sizes":[],"default_left":[0,0,0,0,0,0,0,0,0,0,0,0,0,0,0,0,0,0,0,0,0,0,0,0,0],"id":12,"left_children":[1,3,5,-1,7,9,11,13,15,17,19,21,23,-1,-1,-1,-1,-1,-1,-1,-1,-1,-1,-1,-1],"loss_changes":[3.6250565E1,1.1887321E0,4.3764877E0,0E0,4.71529E-1,1.9362742E0,6.601553E-1,9.750575E-1,1.5668488E-1,9.282942E-1,1.6406496E0,3.0986404E-1,9.414393E-1,0E0,0E0,0E0,0E0,0E0,0E0,0E0,0E0,0E0,0E0,0E0,0E0],"parents":[2147483647,0,0,1,1,2,2,4,4,5,5,6,6,7,7,8,8,9,9,10,10,11,11,12,12],"right_children":[2,4,6,-1,8,10,12,14,16,18,20,22,24,-1,-1,-1,-1,-1,-1,-1,-1,-1,-1,-1,-1],"split_conditions":[5.264758E-2,2.747728E-1,5.6974095E-1,1.509713E-2,5.0014746E-1,4.219974E-1,4.270117E0,7.300207E-3,-7.822505E-3,4.3534473E-1,4.1928315E0,3.9110224E0,4.759435E0,-3.7960403E-2,8.278917E-3,-3.0785877E-2,-4.851526E-2,-1.3182266E-3,4.070752E-2,4.5953426E-4,3.305437E-2,3.4617454E-2,5.1443294E-2,-1.9440982E-2,3.913724E-2],"split_indices":[1,3,1,0,3,3,2,1,1,1,2,2,2,0,0,0,0,0,0,0,0,0,0,0,0],"split_type":[0,0,0,0,0,0,0,0,0,0,0,0,0,0,0,0,0,0,0,0,0,0,0,0,0],"sum_hessian":[2.5283846E2,8.53857E1,1.6745276E2,1.8295838E0,8.355611E1,9.948266E1,6.79701E1,1.3594816E1,6.9961296E1,2.0169956E1,7.9312706E1,6.2809566E1,5.1605372E0,1.0054128E1,3.5406892E0,1.0848244E1,5.911305E1,4.113679E0,1.6056278E1,6.87648E1,1.0547906E1,4.6983658E1,1.5825906E1,2.940159E0,2.2203782E0],"tree_param":{"num_deleted":"0","num_feature":"7","num_nodes":"25","size_leaf_vector":"1"}},{"base_weights":[-1.6803315E-3,-4.3736836E-1,3.185637E-1,-5.403194E-1,-1.2323543E-1,2.085801E-1,4.5396975E-1,-1.0966609E-2,-5.4875225E-1,1.6974194E-1,-1.883917E-1,-1.988666E-1,2.3883057E-1,5.22411E-1,3.6032125E-1,-4.5205515E-2,-3.0092597E-2,2.8408727E-2,-9.510455E-3,-2.851166E-2,-9.433137E-3,7.1751815E-3,-3.2229114E-2,3.604767E-2,1.503454E-2,2.6559865E-2,4.7719944E-2,-2.9701223E-3,3.5601683E-2],"categories":[],"categories_nodes":[],"categories_segments":[],"categories_sizes":[],"default_left":[0,0,0,0,0,0,0,0,0,0,0,0,0,0,0,0,0,0,0,0,0,0,0,0,0,0,0,0,0],"id":13,"left_children":[1,3,5,7,9,11,13,-1,15,17,19,21,23,25,27,-1,-1,-1,-1,-1,-1,-1,-1,-1,-1,-1,-1,-1,-1],"loss_changes":[3.490298E1,3.360632E0,2.052516E0,1.9517708E-1,5.560461E-1,1.0508988E0,2.2050476E-1,0E0,5.8631897E-3,3.3758092E-1,2.2951126E-1,3.9944923E-1,7.370477E-1,2.9038334E-1,1.0314906E0,0E0,0E0,0E0,0E0,0E0,0E0,0E0,0E0,0E0,0E0,0E0,0E0,0E0,0E0],"parents":[2147483647,0,0,1,1,2,2,3,3,4,4,5,5,6,6,8,8,9,9,10,10,11,11,12,12,13,13,14,14],"right_children":[2,4,6,8,10,12,14,-1,16,18,20,22,24,26,28,-1,-1,-1,-1,-1,-1,-1,-1,-1,-1,-1,-1,-1,-1],"split_conditions":[2.618888E-1,2.368627E-2,4.1947594E0,-3.893351E-2,2.9750192E0,3.0722303E0,3.6537702E0,-1.0966609E-2,6.890372E-3,1.4706385E0,5.264758E-2,3.4898093E-1,3.2726061E0,3.2068033E0,3.823629E0,-4.5205515E-2,-3.0092597E-2,2.8408727E-2,-9.510455E-3,-2.851166E-2,-9.433137E-3,7.1751815E-3,-3.2229114E-2,3.604767E-2,1.503454E-2,2.6559865E-2,4.7719944E-2,-2.9701223E-3,3.5601683E-2],"split_indices":[1,1,0,1,2,2,2,0,1,0,1,1,2,2,2,0,0,0,0,0,0,0,0,0,0,0,0,0,0],"split_type":[0,0,0,0,0,0,0,0,0,0,0,0,0,0,0,0,0,0,0,0,0,0,0,0,0,0,0,0,0],"sum_hessian":[2.481545E2,1.0497355E2,1.4318094E2,7.8520065E1,2.6453484E1,8.040907E1,6.2771873E1,1.9619167E0,7.655814E1,4.5207276E0,2.1932756E1,5.172058E0,7.5237015E1,3.3621677E1,2.9150194E1,6.786807E1,8.690072E0,2.6124988E0,1.9082286E0,5.282786E0,1.664997E1,2.3741443E0,2.7979138E0,1.3057652E1,6.217936E1,1.0952926E1,2.2668753E1,5.2195396E0,2.3930655E1],"tree_param":{"num_deleted":"0","num_feature":"7","num_nodes":"29","size_leaf_vector":"1"}},{"base_weights":[-1.0405398E-2,-4.524461E-1,2.6389822E-1,-1.8397455E-1,-5.1402825E-1,1.454127E-1,4.2921546E-1,2.7663909E-2,-3.2090566E-1,-4.148462E-2,-1.5488409E-2,5.0399274E-1,6.410632E-2,2.6923507E-1,5.274058E-1,-3.4755815E-2,-1.1846908E-2,4.1844133E-2,9.262244E-3,-1.0221166E-2,1.2869427E-2,2.8496597E-2,-3.4641717E-2,-1.354802E-2,4.561723E-2],"categories":[],"categories_nodes":[],"categories_segments":[],"categories_sizes":[],"default_left":[0,0,0,0,0,0,0,0,0,0,0,0,0,0,0,0,0,0,0,0,0,0,0,0,0],"id":14,"left_children":[1,3,5,7,9,11,13,-1,15,-1,-1,17,19,21,23,-1,-1,-1,-1,-1,-1,-1,-1,-1,-1],"loss_changes":[2.9787329E1,1.4605408E0,2.9074078E0,1.4970694E0,9.840012E-3,2.5866761E0,8.442869E-1,0E0,2.4376762E-1,0E0,0E0,6.1214447E-2,1.4013257E0,1.7375109E0,1.2259665E0,0E0,0E0,0E0,0E0,0E0,0E0,0E0,0E0,0E0,0E0],"parents":[2147483647,0,0,1,1,2,2,3,3,4,4,5,5,6,6,8,8,11,11,12,12,13,13,14,14],"right_children":[2,4,6,8,10,12,14,-1,16,-1,-1,18,20,22,24,-1,-1,-1,-1,-1,-1,-1,-1,-1,-1],"split_conditions":[1.8146955E0,5.0014746E-1,4.1119647E0,3.0809922E0,9.394698E-1,3.8016897E-1,5.280377E-1,2.7663909E-2,2E0,-4.148462E-2,-1.5488409E-2,4.044804E0,1E0,6.82761E0,4.2021456E0,-3.4755815E-2,-1.1846908E-2,4.1844133E-2,9.262244E-3,-1.0221166E-2,1.2869427E-2,2.8496597E-2,-3.4641717E-2,-1.354802E-2,4.561723E-2],"split_indices":[0,3,0,2,3,3,3,0,4,0,0,2,6,0,0,0,0,0,0,0,0,0,0,0,0],"split_type":[0,0,0,0,0,0,0,0,0,0,0,0,0,0,0,0,0,0,0,0,0,0,0,0,0],"sum_hessian":[2.4367715E2,9.306053E1,1.5061662E2,1.8107435E1,7.49531E1,8.8830185E1,6.1786434E1,3.4057117E0,1.4701723E1,7.32986E1,1.6545044E0,1.5458021E1,7.337216E1,2.4922487E1,3.6863945E1,7.958872E0,6.742851E0,1.440357E1,1.0544513E0,2.4489967E1,4.8882195E1,2.2614515E1,2.3079722E0,1.9627608E0,3.4901184E1],"tree_param":{"num_deleted":"0","num_feature":"7","num_nodes":"25","size_leaf_vector":"1"}},{"base_weights":[-5.456668E-3,-5.282144E-1,2.3079178E-1,-3.4961337E-1,-5.591153E-1,-5.2951068E-2,3.3517352E-1,-4.048737E-1,3.7118753E-3,-4.554718E-2,-1.7335433E-1,-2.4034983E-1,8.0618806E-2,2.2613434E-1,4.3553588E-1,-4.261755E-2,-1.2848808E-2,-3.6721947E-3,-1.7292907E-2,-5.9759747E-3,-2.8112575E-2,1.6404726E-2,-1.2658772E-2,-2.6709303E-2,1.9756716E-2,3.7575126E-2,1.4807401E-2],"categories":[],"categories_nodes":[],"categories_segments":[],"categories_sizes":[],"default_left":[0,0,0,0,0,0,0,0,0,0,0,0,0,0,0,0,0,0,0,0,0,0,0,0,0,0,0],"id":15,"left_children":[1,3,5,7,9,11,13,15,-1,-1,17,19,21,23,25,-1,-1,-1,-1,-1,-1,-1,-1,-1,-1,-1,-1],"loss_changes":[2.9859346E1,2.1983528E-1,4.950139E0,3.200847E-1,1.4775085E-1,1.1620727E0,1.2353439E0,2.9495418E-1,0E0,0E0,6.7241117E-3,3.2786548E-1,8.469362E-1,7.879529E-1,4.466915E-1,0E0,0E0,0E0,0E0,0E0,0E0,0E0,0E0,0E0,0E0,0E0,0E0],"parents":[2147483647,0,0,1,1,2,2,3,3,4,4,5,5,6,6,7,7,10,10,11,11,12,12,13,13,14,14],"right_children":[2,4,6,8,10,12,14,16,-1,-1,18,20,22,24,26,-1,-1,-1,-1,-1,-1,-1,-1,-1,-1,-1,-1],"split_conditions":[2.368627E-2,-7.822505E-3,4.309998E-1,1E0,1.714167E-2,1E0,4.1947594E0,-1.2358767E-2,3.7118753E-3,-4.554718E-2,3.5127387E0,1.4706385E0,2.1151872E0,3.0325463E0,3E0,-4.261755E-2,-1.2848808E-2,-3.6721947E-3,-1.7292907E-2,-5.9759747E-3,-2.8112575E-2,1.6404726E-2,-1.2658772E-2,-2.6709303E-2,1.9756716E-2,3.7575126E-2,1.4807401E-2],"split_indices":[1,1,1,5,1,6,0,1,0,0,2,0,0,2,4,0,0,0,0,0,0,0,0,0,0,0,0],"split_type":[0,0,0,0,0,0,0,0,0,0,0,0,0,0,0,0,0,0,0,0,0,0,0,0,0,0,0],"sum_hessian":[2.3978764E2,7.425169E1,1.6553595E2,1.2768174E1,6.1483517E1,4.4651543E1,1.208844E2,1.1185016E1,1.5831585E0,5.9432392E1,2.0511255E0,1.824889E1,2.6402655E1,5.949689E1,6.1387512E1,6.5669856E0,4.6180296E0,1.0367272E0,1.0143983E0,7.9955573E0,1.0253332E1,1.7451883E1,8.95077E0,1.594209E0,5.7902683E1,5.3250294E1,8.1372175E0],"tree_param":{"num_deleted":"0","num_feature":"7","num_nodes":"27","size_leaf_vector":"1"}},{"base_weights":[-1.4858023E-2,-4.3268892E-1,2.3932926E-1,-1.5015663E-1,-5.008484E-1,1.22397564E-1,3.766949E-1,2.5958346E-2,-2.6733202E-1,-4.3290682E-2,-4.1916814E-1,4.1101816E-1,4.87126E-2,-1.3605114E-2,4.0391484E-1,-3.283604E-2,-6.841885E-3,-3.596838E-2,-3.8955524E-3,4.4549722E-2,1.06887305E-2,-1.9049285E-3,3.3626784E-2,2.8183348E-2,-1.4341113E-2,3.4461673E-2,-1.9921258E-3],"categories":[],"categories_nodes":[],"categories_segments":[],"categories_sizes":[],"default_left":[0,0,0,0,0,0,0,0,0,0,0,0,0,0,0,0,0,0,0,0,0,0,0,0,0,0,0],"id":16,"left_children":[1,3,5,7,9,11,13,-1,15,-1,17,19,21,23,25,-1,-1,-1,-1,-1,-1,-1,-1,-1,-1,-1,-1],"loss_changes":[2.5203836E1,1.6530914E0,2.3244648E0,1.1362835E0,9.683609E-3,1.7069316E0,7.213545E-1,0E0,3.7297523E-1,0E0,2.958355E-1,5.8837056E-1,1.7840416E0,3.880641E-1,7.3650265E-1,0E0,0E0,0E0,0E0,0E0,0E0,0E0,0E0,0E0,0E0,0E0,0E0],"parents":[2147483647,0,0,1,1,2,2,3,3,4,4,5,5,6,6,8,8,10,10,11,11,12,12,13,13,14,14],"right_children":[2,4,6,8,10,12,14,-1,16,-1,18,20,22,24,26,-1,-1,-1,-1,-1,-1,-1,-1,-1,-1,-1,-1],"split_conditions":[1.8146955E0,5.0014746E-1,3.4753797E0,3.0809922E0,1E0,4.0883973E-1,3.1192765E0,2.5958346E-2,2E0,-4.3290682E-2,2E0,3.4610374E0,4.1928315E0,2.5680215E0,4.270117E0,-3.283604E-2,-6.841885E-3,-3.596838E-2,-3.8955524E-3,4.4549722E-2,1.06887305E-2,-1.9049285E-3,3.3626784E-2,2.8183348E-2,-1.4341113E-2,3.4461673E-2,-1.9921258E-3],"split_indices":[0,3,0,2,6,3,2,0,4,0,4,2,2,2,2,0,0,0,0,0,0,0,0,0,0,0,0],"split_type":[0,0,0,0,0,0,0,0,0,0,0,0,0,0,0,0,0,0,0,0,0,0,0,0,0,0,0],"sum_hessian":[2.3533292E2,8.8747795E1,1.4658513E2,1.7871305E1,7.087649E1,8.020344E1,6.638168E1,3.1881325E0,1.4683173E1,4.3698944E1,2.7177547E1,1.5380537E1,6.48229E1,4.360322E0,6.2021362E1,7.5120983E0,7.171075E0,2.4916885E1,2.2606606E0,9.420249E0,5.9602885E0,5.5021133E1,9.801765E0,1.0077827E0,3.3525393E0,5.8361702E1,3.6596606E0],"tree_param":{"num_deleted":"0","num_feature":"7","num_nodes":"27","size_leaf_vector":"1"}},{"base_weights":[-5.108289E-3,-3.3894303E-1,3.2150313E-1,-5.034727E-1,-9.27374E-2,2.6340392E-1,4.5688808E-1,-3.0613244E-1,-5.386447E-1,-2.5024843E-1,3.289678E-2,3.111127E-1,-5.6021634E-2,2.9172853E-1,4.841178E-1,-3.1751856E-2,-1.3517959E-3,-4.4599917E-2,-2.4917265E-2,-1.0106573E-2,-2.7189981E-2,8.564851E-3,-2.7024861E-2,-2.6177704E-2,2.6673602E-2,1.6139032E-2,-2.8669572E-2,2.6595697E-3,2.8250214E-2,4.2723045E-2,2.4085686E-2],"categories":[],"categories_nodes":[],"categories_segments":[],"categories_sizes":[],"default_left":[0,0,0,0,0,0,0,0,0,0,0,0,0,0,0,0,0,0,0,0,0,0,0,0,0,0,0,0,0,0,0],"id":17,"left_children":[1,3,5,7,9,11,13,15,17,19,21,23,25,27,29,-1,-1,-1,-1,-1,-1,-1,-1,-1,-1,-1,-1,-1,-1,-1,-1],"loss_changes":[2.5328682E1,4.606573E0,8.03318E-1,3.1146622E-1,9.430657E-1,1.305593E0,1.1225224E-2,3.2666254E-1,7.021904E-2,1.9115055E-1,7.829702E-1,1.1585097E0,9.9438685E-1,1.0434425E-1,9.1285706E-2,0E0,0E0,0E0,0E0,0E0,0E0,0E0,0E0,0E0,0E0,0E0,0E0,0E0,0E0,0E0,0E0],"parents":[2147483647,0,0,1,1,2,2,3,3,4,4,5,5,6,6,7,7,8,8,9,9,10,10,11,11,12,12,13,13,14,14],"right_children":[2,4,6,8,10,12,14,16,18,20,22,24,26,28,30,-1,-1,-1,-1,-1,-1,-1,-1,-1,-1,-1,-1,-1,-1,-1,-1],"split_conditions":[4.309998E-1,1.714167E-2,5.616378E0,-7.822505E-3,1E0,6.943024E-1,3.2068033E0,1E0,6.890372E-3,1.4706385E0,3.381404E-1,3.0722303E0,3.6412635E0,8.726074E-1,6.786414E0,-3.1751856E-2,-1.3517959E-3,-4.4599917E-2,-2.4917265E-2,-1.0106573E-2,-2.7189981E-2,8.564851E-3,-2.7024861E-2,-2.6177704E-2,2.6673602E-2,1.6139032E-2,-2.8669572E-2,2.6595697E-3,2.8250214E-2,4.2723045E-2,2.4085686E-2],"split_indices":[1,1,0,1,6,1,2,6,1,0,1,2,2,1,0,0,0,0,0,0,0,0,0,0,0,0,0,0,0,0,0],"split_type":[0,0,0,0,0,0,0,0,0,0,0,0,0,0,0,0,0,0,0,0,0,0,0,0,0,0,0,0,0,0,0],"sum_hessian":[2.3030083E2,1.1387234E2,1.1642849E2,6.7631744E1,4.6240597E1,8.352857E1,3.2899914E1,1.1698507E1,5.5933235E1,2.0077276E1,2.6163319E1,7.269676E1,1.0831818E1,6.3143544E0,2.658556E1,8.620915E0,3.0775924E0,5.0304306E1,5.628928E0,9.437981E0,1.0639296E1,2.2394306E1,3.7690122E0,1.993151E0,7.0703606E1,6.026679E0,4.805138E0,1.5078629E0,4.8064914E0,1.9382187E1,7.2033744E0],"tree_param":{"num_deleted":"0","num_feature":"7","num_nodes":"31","size_leaf_vector":"1"}},{"base_weights":[8.960334E-3,-4.9746215E-1,2.2693445E-1,-8.972221E-3,-5.064719E-1,-4.595125E-2,3.2774934E-1,-3.4501293E-1,-4.256704E-2,-2.4181865E-1,9.144458E-2,3.5044342E-1,-2.9102296E-1,-3.23789E-2,3.717018E-4,2.2084846E-3,-2.4957752E-2,1.4959984E-2,-8.525269E-3,2.0676106E-2,3.5699733E-2,-8.102529E-3,-3.6304653E-2],"categories":[],"categories_nodes":[],"categories_segments":[],"categories_sizes":[],"default_left":[0,0,0,0,0,0,0,0,0,0,0,0,0,0,0,0,0,0,0,0,0,0,0],"id":18,"left_children":[1,3,5,-1,7,9,11,13,-1,15,17,19,21,-1,-1,-1,-1,-1,-1,-1,-1,-1,-1],"loss_changes":[2.5328184E1,1.8289948E-1,4.427226E0,0E0,9.429932E-2,1.2100636E0,1.7482615E0,2.5339234E-1,0E0,3.5777915E-1,5.2454215E-1,8.853264E-1,9.901917E-2,0E0,0E0,0E0,0E0,0E0,0E0,0E0,0E0,0E0,0E0],"parents":[2147483647,0,0,1,1,2,2,4,4,5,5,6,6,7,7,9,9,10,10,11,11,12,12],"right_children":[2,4,6,-1,8,10,12,14,-1,16,18,20,22,-1,-1,-1,-1,-1,-1,-1,-1,-1,-1],"split_conditions":[2.368627E-2,-3.893351E-2,4.309998E-1,-8.972221E-3,5.0014746E-1,1E0,8.614757E-1,7.300207E-3,-4.256704E-2,5.308622E-1,2.1151872E0,4.335938E0,4.1788588E0,-3.23789E-2,3.717018E-4,2.2084846E-3,-2.4957752E-2,1.4959984E-2,-8.525269E-3,2.0676106E-2,3.5699733E-2,-8.102529E-3,-3.6304653E-2],"split_indices":[1,1,1,0,3,6,3,1,0,3,0,0,0,0,0,0,0,0,0,0,0,0,0],"split_type":[0,0,0,0,0,0,0,0,0,0,0,0,0,0,0,0,0,0,0,0,0,0,0],"sum_hessian":[2.274263E2,6.804775E1,1.5937856E2,1.8620839E0,6.618567E1,4.3143078E1,1.1623547E2,1.1043961E1,5.514171E1,1.7473444E1,2.5669636E1,1.1254155E2,3.6939228E0,9.29826E0,1.7457008E0,3.735125E0,1.3738319E1,1.7351711E1,8.3179245E0,5.929915E1,5.32424E1,2.4548023E0,1.2391206E0],"tree_param":{"num_deleted":"0","num_feature":"7","num_nodes":"23","size_leaf_vector":"1"}},{"base_weights":[1.1944196E-2,-4.937822E-1,2.2874653E-1,-1.0487404E-2,-5.017576E-1,-3.474527E-2,3.2647017E-1,-5.2013665E-1,-3.0130422E-1,-1.7390768E-1,6.411485E-2,2.549508E-1,3.952971E-1,-2.916522E-2,-4.3493364E-2,-3.364793E-2,1.7403446E-2,1.3686871E-2,-1.7235177E-2,2.6040355E-2,-1.0257052E-3,-2.2387106E-2,2.2090906E-2,4.5747094E-2,2.6879795E-2],"categories":[],"categories_nodes":[],"categories_segments":[],"categories_sizes":[],"default_left":[0,0,0,0,0,0,0,0,0,0,0,0,0,0,0,0,0,0,0,0,0,0,0,0,0],"id":19,"left_children":[1,3,5,-1,7,9,11,13,15,17,19,21,23,-1,-1,-1,-1,-1,-1,-1,-1,-1,-1,-1,-1],"loss_changes":[2.4781868E1,1.304245E-1,4.0840044E0,0E0,8.6488724E-2,6.122761E-1,4.676218E-1,1.8120766E-2,5.8179265E-1,3.0074614E-1,5.326089E-1,7.5077057E-1,4.0486813E-1,0E0,0E0,0E0,0E0,0E0,0E0,0E0,0E0,0E0,0E0,0E0,0E0],"parents":[2147483647,0,0,1,1,2,2,4,4,5,5,6,6,7,7,8,8,9,9,10,10,11,11,12,12],"right_children":[2,4,6,-1,8,10,12,14,16,18,20,22,24,-1,-1,-1,-1,-1,-1,-1,-1,-1,-1,-1,-1],"split_conditions":[2.368627E-2,-3.893351E-2,4.309998E-1,-1.0487404E-2,7.300207E-3,1E0,4.1947594E0,-7.822505E-3,1E0,2.7557142E-2,1.4706385E0,3.0722303E0,6.4619535E-1,-2.916522E-2,-4.3493364E-2,-3.364793E-2,1.7403446E-2,1.3686871E-2,-1.7235177E-2,2.6040355E-2,-1.0257052E-3,-2.2387106E-2,2.2090906E-2,4.5747094E-2,2.6879795E-2],"split_indices":[1,1,1,0,1,6,0,1,5,1,0,2,1,0,0,0,0,0,0,0,0,0,0,0,0],"split_type":[0,0,0,0,0,0,0,0,0,0,0,0,0,0,0,0,0,0,0,0,0,0,0,0,0],"sum_hessian":[2.2399379E2,6.682834E1,1.5716545E2,1.8130982E0,6.501524E1,4.269407E1,1.14471375E2,5.8093964E1,6.921279E0,1.741723E1,2.5276838E1,5.844467E1,5.6026707E1,9.799295E0,4.8294666E1,5.7813683E0,1.1399109E0,1.5363003E0,1.588093E1,5.013318E0,2.0263521E1,1.7618214E0,5.668285E1,1.1914062E1,4.4112644E1],"tree_param":{"num_deleted":"0","num_feature":"7","num_nodes":"25","size_leaf_vector":"1"}},{"base_weights":[1.1811844E-2,-4.764822E-1,2.1335001E-1,-3.238593E-1,-5.0251245E-1,-5.189279E-2,3.2439798E-1,-3.6862895E-1,2.9544737E-3,-1.2702908E-2,-4.0766157E-2,1.552214E-1,-1.6301845E-1,5.259489E-1,2.5147048E-1,-3.355009E-2,-3.234472E-3,2.2208037E-2,-1.5125571E-2,-2.375488E-2,-2.5461232E-3,4.3196455E-2,5.8977674E-3,6.8844464E-3,3.2264207E-2],"categories":[],"categories_nodes":[],"categories_segments":[],"categories_sizes":[],"default_left":[0,0,0,0,0,0,0,0,0,0,0,0,0,0,0,0,0,0,0,0,0,0,0,0,0],"id":20,"left_children":[1,3,5,7,9,11,13,15,-1,-1,-1,17,19,21,23,-1,-1,-1,-1,-1,-1,-1,-1,-1,-1],"loss_changes":[2.1885609E1,9.54113E-2,4.652373E0,2.1197617E-1,4.9485207E-2,1.1140953E0,1.5003471E0,1.6651773E-1,0E0,0E0,0E0,7.700753E-1,5.400231E-1,1.4132261E-1,2.0618458E0,0E0,0E0,0E0,0E0,0E0,0E0,0E0,0E0,0E0,0E0],"parents":[2147483647,0,0,1,1,2,2,3,3,4,4,5,5,6,6,7,7,11,11,12,12,13,13,14,14],"right_children":[2,4,6,8,10,12,14,16,-1,-1,-1,18,20,22,24,-1,-1,-1,-1,-1,-1,-1,-1,-1,-1],"split_conditions":[2.368627E-2,5.0257266E-1,4.4082406E-1,4.978485E-1,-3.893351E-2,5.48092E-1,4.010415E-1,7.300207E-3,2.9544737E-3,-1.2702908E-2,-4.0766157E-2,2.1151872E0,1E0,6.5957665E0,4.2021456E0,-3.355009E-2,-3.234472E-3,2.2208037E-2,-1.5125571E-2,-2.375488E-2,-2.5461232E-3,4.3196455E-2,5.8977674E-3,6.8844464E-3,3.2264207E-2],"split_indices":[1,3,1,3,1,3,3,1,0,0,0,0,6,0,0,0,0,0,0,0,0,0,0,0,0],"split_type":[0,0,0,0,0,0,0,0,0,0,0,0,0,0,0,0,0,0,0,0,0,0,0,0,0],"sum_hessian":[2.2035934E2,6.3980595E1,1.5637875E2,1.1280624E1,5.269997E1,4.630647E1,1.1007229E2,1.001603E1,1.2645938E0,1.5341128E0,5.116586E1,1.603112E1,3.027535E1,2.7595161E1,8.247712E1,8.434103E0,1.5819272E0,1.1970043E1,4.0610766E0,1.435685E1,1.59185E1,2.6577969E1,1.0171928E0,4.02228E1,4.2254322E1],"tree_param":{"num_deleted":"0","num_feature":"7","num_nodes":"25","size_leaf_vector":"1"}},{"base_weights":[6.691291E-3,-4.3676263E-1,2.1745746E-1,1.3893683E-2,-4.5343527E-1,-3.0504948E-2,2.933569E-1,-4.8360252E-1,-2.0893434E-1,3.0455176E-2,-9.913959E-2,4.8242685E-1,2.2717692E-1,-2.3754522E-2,-4.144103E-2,6.590772E-3,-3.3918217E-2,-2.2119913E-2,-3.5802062E-4,4.0963028E-2,6.3368613E-3,4.582438E-3,3.1840757E-2],"categories":[],"categories_nodes":[],"categories_segments":[],"categories_sizes":[],"default_left":[0,0,0,0,0,0,0,0,0,0,0,0,0,0,0,0,0,0,0,0,0,0,0],"id":21,"left_children":[1,3,5,-1,7,9,11,13,15,-1,17,19,21,-1,-1,-1,-1,-1,-1,-1,-1,-1,-1],"loss_changes":[2.0316141E1,7.9150677E-1,2.7814922E0,0E0,4.038229E-1,1.0376747E0,1.3029137E0,2.3267555E-1,6.16185E-1,0E0,5.2186143E-1,2.982726E-1,2.458971E0,0E0,0E0,0E0,0E0,0E0,0E0,0E0,0E0,0E0,0E0],"parents":[2147483647,0,0,1,1,2,2,4,4,5,5,6,6,7,7,8,8,10,10,11,11,12,12],"right_children":[2,4,6,-1,8,10,12,14,16,-1,18,20,22,-1,-1,-1,-1,-1,-1,-1,-1,-1,-1],"split_conditions":[8.956014E-2,2.747728E-1,4.309998E-1,1.3893683E-2,1.714167E-2,1.4706385E0,4.010415E-1,-7.822505E-3,5.694905E-1,3.0455176E-2,1E0,8.999578E-1,4.2021456E0,-2.3754522E-2,-4.144103E-2,6.590772E-3,-3.3918217E-2,-2.2119913E-2,-3.5802062E-4,4.0963028E-2,6.3368613E-3,4.582438E-3,3.1840757E-2],"split_indices":[1,3,1,0,1,0,3,1,3,0,6,1,0,0,0,0,0,0,0,0,0,0,0],"split_type":[0,0,0,0,0,0,0,0,0,0,0,0,0,0,0,0,0,0,0,0,0,0,0],"sum_hessian":[2.1534991E2,6.903255E1,1.4631737E2,1.5849881E0,6.744756E1,3.4430733E1,1.11886635E2,5.9169174E1,8.278385E0,4.2746162E0,3.0156116E1,2.7378685E1,8.450795E1,1.07081585E1,4.8461018E1,3.777671E0,4.500714E0,9.825889E0,2.0330227E1,2.5254208E1,2.1244783E0,4.3039547E1,4.1468403E1],"tree_param":{"num_deleted":"0","num_feature":"7","num_nodes":"23","size_leaf_vector":"1"}},{"base_weights":[-1.8904285E-3,-4.3528232E-1,2.007828E-1,1.46769425E-2,-4.546776E-1,-2.5044026E-2,2.7782536E-1,-3.3603516E-1,-4.1672815E-2,3.2776022E-1,-1.02338016E-1,2.9240197E-1,-1.9522475E-1,-4.426069E-3,-3.432768E-2,-6.942652E-4,3.164706E-2,-2.0919868E-3,-2.3822444E-2,1.6672172E-2,3.0511431E-2,-2.5212599E-2,1.0412324E-3],"categories":[],"categories_nodes":[],"categories_segments":[],"categories_sizes":[],"default_left":[0,0,0,0,0,0,0,0,0,0,0,0,0,0,0,0,0,0,0,0,0,0,0],"id":22,"left_children":[1,3,5,-1,7,9,11,13,-1,15,17,19,21,-1,-1,-1,-1,-1,-1,-1,-1,-1,-1],"loss_changes":[1.853087E1,8.901148E-1,2.5080118E0,0E0,3.3938122E-1,1.0557332E0,7.96751E-1,6.625383E-1,0E0,1.6258824E-1,4.614125E-1,7.0139503E-1,9.916146E-2,0E0,0E0,0E0,0E0,0E0,0E0,0E0,0E0,0E0,0E0],"parents":[2147483647,0,0,1,1,2,2,4,4,5,5,6,6,7,7,9,9,10,10,11,11,12,12],"right_children":[2,4,6,-1,8,10,12,14,-1,16,18,20,22,-1,-1,-1,-1,-1,-1,-1,-1,-1,-1],"split_conditions":[5.264758E-2,2.747728E-1,4.309998E-1,1.46769425E-2,5.9939104E-1,1.4706385E0,8.614757E-1,3.1531632E0,-4.1672815E-2,8.956014E-2,3.2586828E-1,4.335938E0,9.3520504E-1,-4.426069E-3,-3.432768E-2,-6.942652E-4,3.164706E-2,-2.0919868E-3,-2.3822444E-2,1.6672172E-2,3.0511431E-2,-2.5212599E-2,1.0412324E-3],"split_indices":[1,3,1,0,3,0,3,2,0,1,1,0,3,0,0,0,0,0,0,0,0,0,0],"split_type":[0,0,0,0,0,0,0,0,0,0,0,0,0,0,0,0,0,0,0,0,0,0,0],"sum_hessian":[2.0897398E2,6.6220924E1,1.4275305E2,1.7555836E0,6.446534E1,3.6484562E1,1.06268486E2,2.5270992E1,3.919435E1,5.974382E0,3.051018E1,1.0346227E2,2.8062172E0,6.6889396E0,1.8582052E1,1.1486986E0,4.8256836E0,2.2768335E1,7.741845E0,5.4942802E1,4.851947E1,1.4548726E0,1.3513446E0],"tree_param":{"num_deleted":"0","num_feature":"7","num_nodes":"23","size_leaf_vector":"1"}},{"base_weights":[4.1722893E-4,-3.718749E-1,2.2366495E-1,-1.557068E-1,-4.2793602E-1,1.1826129E-1,3.6075902E-1,2.0498542E-2,-2.5389957E-1,-4.384974E-1,-6.355235E-3,3.8595685E-1,5.422863E-2,2.0966832E-1,4.3325362E-1,-2.8756393E-2,-8.739406E-3,-3.5516508E-2,-9.316145E-3,2.1410748E-2,4.907441E-2,-2.0948392E-3,3.1523235E-2,3.1924233E-2,-7.103275E-3,4.9725045E-2,2.4135295E-2],"categories":[],"categories_nodes":[],"categories_segments":[],"categories_sizes":[],"default_left":[0,0,0,0,0,0,0,0,0,0,0,0,0,0,0,0,0,0,0,0,0,0,0,0,0,0,0],"id":23,"left_children":[1,3,5,7,9,11,13,-1,15,17,-1,19,21,23,25,-1,-1,-1,-1,-1,-1,-1,-1,-1,-1,-1,-1],"loss_changes":[1.7446878E1,8.8699436E-1,1.8535619E0,7.841296E-1,1.9304657E-1,1.2762266E0,5.285711E-1,0E0,1.875968E-1,5.355835E-2,0E0,2.2458267E-1,1.7108145E0,1.18136E0,7.3599243E-1,0E0,0E0,0E0,0E0,0E0,0E0,0E0,0E0,0E0,0E0,0E0,0E0],"parents":[2147483647,0,0,1,1,2,2,3,3,4,4,5,5,6,6,8,8,9,9,11,11,12,12,13,13,14,14],"right_children":[2,4,6,8,10,12,14,-1,16,18,-1,20,22,24,26,-1,-1,-1,-1,-1,-1,-1,-1,-1,-1,-1,-1],"split_conditions":[1.9029409E0,5.0014746E-1,4.1947594E0,3.0809922E0,1.8248134E0,4.0883973E-1,5.280377E-1,2.0498542E-2,2E0,9.394698E-1,-6.355235E-3,3.8686064E-1,4.1928315E0,3.9996624E-1,5.7636654E-1,-2.8756393E-2,-8.739406E-3,-3.5516508E-2,-9.316145E-3,2.1410748E-2,4.907441E-2,-2.0948392E-3,3.1523235E-2,3.1924233E-2,-7.103275E-3,4.9725045E-2,2.4135295E-2],"split_indices":[0,3,0,2,0,3,3,0,4,3,0,3,2,3,3,0,0,0,0,0,0,0,0,0,0,0,0],"split_type":[0,0,0,0,0,0,0,0,0,0,0,0,0,0,0,0,0,0,0,0,0,0,0,0,0,0,0],"sum_hessian":[2.0791586E2,7.769105E1,1.3022481E2,1.6777092E1,6.091396E1,7.467453E1,5.5550285E1,2.9195426E0,1.385755E1,5.8871563E1,2.042397E0,1.34437895E1,6.1230736E1,1.9273445E1,3.627684E1,7.1530976E0,6.7044516E0,5.7518024E1,1.3535373E0,1.0275459E1,3.16833E0,5.0259995E1,1.097074E1,1.1585151E1,7.688295E0,1.3388699E1,2.2888142E1],"tree_param":{"num_deleted":"0","num_feature":"7","num_nodes":"27","size_leaf_vector":"1"}},{"base_weights":[-3.4928566E-3,-2.8868183E-1,2.760595E-1,-4.390645E-1,-6.960522E-2,4.7591028E-1,2.0259747E-1,-2.5763997E-1,-4.7185192E-1,1.1139272E-1,-1.6146715E-1,4.5456458E-2,2.4743295E-1,3.354839E-2,3.6473846E-1,-2.5139175E-2,7.5254915E-3,-2.1408899E-2,-4.067283E-2,1.697902E-2,-2.0104768E-2,-1.9355947E-2,-5.660375E-4,-8.811834E-3,4.4033084E-2,-6.3313423E-3,3.433458E-2,-5.977638E-3,3.633276E-2],"categories":[],"categories_nodes":[],"categories_segments":[],"categories_sizes":[],"default_left":[0,0,0,0,0,0,0,0,0,0,0,0,0,0,0,0,0,0,0,0,0,0,0,0,0,0,0,0,0],"id":24,"left_children":[1,3,5,7,9,11,13,15,17,19,21,-1,23,25,27,-1,-1,-1,-1,-1,-1,-1,-1,-1,-1,-1,-1,-1,-1],"loss_changes":[1.6214642E1,3.2860384E0,1.4115438E0,2.3239517E-1,7.1904737E-1,4.259429E-1,2.094097E0,2.5471693E-1,2.3126698E-1,5.941973E-1,3.5090047E-1,0E0,1.0900197E0,1.7603886E0,1.571353E0,0E0,0E0,0E0,0E0,0E0,0E0,0E0,0E0,0E0,0E0,0E0,0E0,0E0,0E0],"parents":[2147483647,0,0,1,1,2,2,3,3,4,4,5,5,6,6,7,7,8,8,9,9,10,10,12,12,13,13,14,14],"right_children":[2,4,6,8,10,12,14,16,18,20,22,-1,24,26,28,-1,-1,-1,-1,-1,-1,-1,-1,-1,-1,-1,-1,-1,-1],"split_conditions":[4.309998E-1,2.368627E-2,4.010415E-1,-7.822505E-3,5.554364E-1,4.938733E0,4.2021456E0,1E0,5.0257266E-1,3.2586828E-1,1E0,4.5456458E-2,3.609088E-1,4.1928315E0,5.280377E-1,-2.5139175E-2,7.5254915E-3,-2.1408899E-2,-4.067283E-2,1.697902E-2,-2.0104768E-2,-1.9355947E-2,-5.660375E-4,-8.811834E-3,4.4033084E-2,-6.3313423E-3,3.433458E-2,-5.977638E-3,3.633276E-2],"split_indices":[1,1,3,1,3,0,0,5,3,1,5,0,3,2,3,0,0,0,0,0,0,0,0,0,0,0,0,0,0],"split_type":[0,0,0,0,0,0,0,0,0,0,0,0,0,0,0,0,0,0,0,0,0,0,0,0,0,0,0,0,0],"sum_hessian":[2.013819E2,9.96698E1,1.017121E2,5.8505325E1,4.1164474E1,2.5866077E1,7.584602E1,1.03106575E1,4.8194668E1,1.3786994E1,2.7377481E1,1.736458E1,8.501497E0,3.7722866E1,3.8123158E1,8.97316E0,1.3374972E0,8.58015E0,3.961452E1,1.1112218E1,2.674776E0,1.7623491E1,9.75399E0,4.191315E0,4.310182E0,2.9982718E1,7.740149E0,6.4735174E0,3.164964E1],"tree_param":{"num_deleted":"0","num_feature":"7","num_nodes":"29","size_leaf_vector":"1"}},{"base_weights":[-1.0807658E-2,-4.158043E-1,1.8667047E-1,1.1089353E-2,-4.3278208E-1,-2.3477513E-2,2.7093536E-1,-3.2312393E-1,-3.9584834E-2,2.8613644E-2,-8.837718E-2,4.746584E-1,1.9880791E-1,6.4244187E-3,-2.930261E-2,-2.5626294E-2,2.1765316E-3,3.9257407E-2,9.882129E-3,1.0048544E-2,3.356023E-2],"categories":[],"categories_nodes":[],"categories_segments":[],"categories_sizes":[],"default_left":[0,0,0,0,0,0,0,0,0,0,0,0,0,0,0,0,0,0,0,0,0],"id":25,"left_children":[1,3,5,-1,7,9,11,13,-1,-1,15,17,19,-1,-1,-1,-1,-1,-1,-1,-1],"loss_changes":[1.5648002E1,6.635704E-1,2.3360486E0,0E0,2.649641E-1,9.85807E-1,1.2866645E0,4.725051E-1,0E0,0E0,9.139206E-1,7.38945E-2,1.0964513E0,0E0,0E0,0E0,0E0,0E0,0E0,0E0,0E0],"parents":[2147483647,0,0,1,1,2,2,4,4,5,5,6,6,7,7,10,10,11,11,12,12],"right_children":[2,4,6,-1,8,10,12,14,-1,-1,16,18,20,-1,-1,-1,-1,-1,-1,-1,-1],"split_conditions":[8.956014E-2,2.747728E-1,4.4082406E-1,1.1089353E-2,5.9939104E-1,1.4706385E0,4.010415E-1,2.729159E0,-3.9584834E-2,2.8613644E-2,1E0,8.999578E-1,5.8040404E0,6.4244187E-3,-2.930261E-2,-2.5626294E-2,2.1765316E-3,3.9257407E-2,9.882129E-3,1.0048544E-2,3.356023E-2],"split_indices":[1,3,1,0,3,0,3,2,0,0,6,1,0,0,0,0,0,0,0,0,0],"split_type":[0,0,0,0,0,0,0,0,0,0,0,0,0,0,0,0,0,0,0,0,0],"sum_hessian":[1.936834E2,6.312282E1,1.3056058E2,1.6626682E0,6.1460155E1,3.7574646E1,9.298592E1,2.444819E1,3.7011963E1,4.810721E0,3.2763924E1,2.2854074E1,7.013185E1,2.2795198E0,2.216867E1,1.0307542E1,2.2456383E1,2.14744E1,1.379674E0,5.3842327E1,1.6289522E1],"tree_param":{"num_deleted":"0","num_feature":"7","num_nodes":"21","size_leaf_vector":"1"}},{"base_weights":[-1.2823005E-2,-4.100017E-1,1.8045911E-1,-1.8151098E-1,-3.7235465E-2,3.408159E-2,3.0475724E-1,-3.3556733E-1,9.332027E-2,3.5642433E-1,-3.8213093E-2,3.5097653E-1,5.240206E-2,-3.0189732E-2,-9.233965E-3,-1.1019375E-2,2.9749757E-2,-3.5506263E-4,3.85547E-2,4.9565505E-4,-2.8384868E-2,2.5105378E-2,4.9757212E-2,-2.1401998E-2,1.182081E-2],"categories":[],"categories_nodes":[],"categories_segments":[],"categories_sizes":[],"default_left":[0,0,0,0,0,0,0,0,0,0,0,0,0,0,0,0,0,0,0,0,0,0,0,0,0],"id":26,"left_children":[1,3,5,7,-1,9,11,13,15,17,19,21,23,-1,-1,-1,-1,-1,-1,-1,-1,-1,-1,-1,-1],"loss_changes":[1.4761589E1,7.127638E-1,2.3438168E0,6.2102264E-1,0E0,1.4245228E0,7.9628134E-1,4.0581703E-2,4.2358547E-1,5.088663E-1,7.1019167E-1,3.9751482E-1,4.0524936E-1,0E0,0E0,0E0,0E0,0E0,0E0,0E0,0E0,0E0,0E0,0E0,0E0],"parents":[2147483647,0,0,1,1,2,2,3,3,5,5,6,6,7,7,8,8,9,9,10,10,11,11,12,12],"right_children":[2,4,6,8,-1,10,12,14,16,18,20,22,24,-1,-1,-1,-1,-1,-1,-1,-1,-1,-1,-1,-1],"split_conditions":[8.956014E-2,5.0014746E-1,5.022849E-1,5.4343063E-3,-3.7235465E-2,4.0883973E-1,7.347638E-1,4.873883E-1,1E0,4.3534473E-1,2.2718961E0,7.16237E-1,2.1824296E0,-3.0189732E-2,-9.233965E-3,-1.1019375E-2,2.9749757E-2,-3.5506263E-4,3.85547E-2,4.9565505E-4,-2.8384868E-2,2.5105378E-2,4.9757212E-2,-2.1401998E-2,1.182081E-2],"split_indices":[1,3,1,1,0,3,3,3,5,1,0,3,0,0,0,0,0,0,0,0,0,0,0,0,0],"split_type":[0,0,0,0,0,0,0,0,0,0,0,0,0,0,0,0,0,0,0,0,0,0,0,0,0],"sum_hessian":[1.9032568E2,6.193439E1,1.2839128E2,1.2928066E1,4.9006325E1,5.9544243E1,6.8847046E1,8.142694E0,4.7853723E0,1.0188092E1,4.935615E1,5.7859226E1,1.0987819E1,6.242964E0,1.8997302E0,2.8919585E0,1.8934137E0,2.8779876E0,7.3101044E0,4.414449E1,5.211663E0,5.2779842E1,5.079384E0,2.1084557E0,8.879363E0],"tree_param":{"num_deleted":"0","num_feature":"7","num_nodes":"25","size_leaf_vector":"1"}},{"base_weights":[9.3274135E-3,-4.024408E-1,1.9922249E-1,-1.7474453E-1,-4.6135122E-1,-3.7522484E-2,2.8463587E-1,2.9532266E-1,-3.1330746E-1,-3.8446616E-3,-3.7860595E-2,4.1047428E-2,-1.9535007E-1,4.532611E-1,2.2409807E-1,5.2064154E-3,2.98991E-2,-2.7916526E-2,-1.05069885E-2,8.601231E-3,-1.3687723E-2,-2.2501647E-2,-7.282685E-3,3.737957E-2,6.6005443E-3,-7.891344E-3,2.3428746E-2],"categories":[],"categories_nodes":[],"categories_segments":[],"categories_sizes":[],"default_left":[0,0,0,0,0,0,0,0,0,0,0,0,0,0,0,0,0,0,0,0,0,0,0,0,0,0,0],"id":27,"left_children":[1,3,5,7,9,11,13,15,17,-1,-1,19,21,23,25,-1,-1,-1,-1,-1,-1,-1,-1,-1,-1,-1,-1],"loss_changes":[1.5284111E1,7.470083E-1,2.7150931E0,1.02341E0,2.1546268E-1,4.5868042E-1,9.029045E-1,4.371634E-2,2.8921604E-2,0E0,0E0,3.7218058E-1,8.421296E-2,9.114504E-2,1.6795986E0,0E0,0E0,0E0,0E0,0E0,0E0,0E0,0E0,0E0,0E0,0E0,0E0],"parents":[2147483647,0,0,1,1,2,2,3,3,4,4,5,5,6,6,7,7,8,8,11,11,12,12,13,13,14,14],"right_children":[2,4,6,8,10,12,14,16,18,-1,-1,20,22,24,26,-1,-1,-1,-1,-1,-1,-1,-1,-1,-1,-1,-1],"split_conditions":[5.264758E-2,5.0257266E-1,4.309998E-1,2.9750192E0,-3.893351E-2,7.16237E-1,4.010415E-1,8.786694E-3,7.300207E-3,-3.8446616E-3,-3.7860595E-2,3.2586828E-1,3.452524E0,8.999578E-1,5.280377E-1,5.2064154E-3,2.98991E-2,-2.7916526E-2,-1.05069885E-2,8.601231E-3,-1.3687723E-2,-2.2501647E-2,-7.282685E-3,3.737957E-2,6.6005443E-3,-7.891344E-3,2.3428746E-2],"split_indices":[1,3,1,2,1,3,3,1,1,0,0,1,2,1,3,0,0,0,0,0,0,0,0,0,0,0,0],"split_type":[0,0,0,0,0,0,0,0,0,0,0,0,0,0,0,0,0,0,0,0,0,0,0,0,0,0,0],"sum_hessian":[1.9344174E2,6.070021E1,1.3274153E2,1.3291839E1,4.7408375E1,3.534223E1,9.73993E1,2.7685065E0,1.0523332E1,1.4685346E0,4.593984E1,2.4089762E1,1.1252471E1,2.4016169E1,7.338313E1,1.1682546E0,1.6002519E0,8.032128E0,2.4912035E0,1.8718245E1,5.3715167E0,5.240117E0,6.0123544E0,2.289249E1,1.1236781E0,1.2812316E1,6.0570816E1],"tree_param":{"num_deleted":"0","num_feature":"7","num_nodes":"27","size_leaf_vector":"1"}},{"base_weights":[7.551139E-4,-2.748359E-1,2.7112123E-1,-4.282526E-1,-7.546649E-2,4.518948E-1,2.0950998E-1,-2.3227036E-1,-4.6927708E-1,4.182353E-3,-2.4539573E-1,3.8103845E-2,3.951134E-4,6.0457338E-2,3.5744244E-1,-2.4397241E-2,1.1976416E-2,-2.4283847E-2,-3.965201E-2,7.5013917E-3,-1.5385206E-2,-2.9911106E-2,-1.2426386E-2,-2.121572E-3,2.9176597E-2,-5.0455574E-3,3.404979E-2],"categories":[],"categories_nodes":[],"categories_segments":[],"categories_sizes":[],"default_left":[0,0,0,0,0,0,0,0,0,0,0,0,0,0,0,0,0,0,0,0,0,0,0,0,0,0,0],"id":28,"left_children":[1,3,5,7,9,11,13,15,17,19,21,-1,-1,23,25,-1,-1,-1,-1,-1,-1,-1,-1,-1,-1,-1,-1],"loss_changes":[1.4051279E1,2.824152E0,9.6553755E-1,3.136139E-1,5.6713295E-1,2.5213575E-1,1.5849204E0,3.532774E-1,3.5237312E-2,5.366492E-1,9.659493E-2,0E0,0E0,1.0019163E0,1.0694041E0,0E0,0E0,0E0,0E0,0E0,0E0,0E0,0E0,0E0,0E0,0E0,0E0],"parents":[2147483647,0,0,1,1,2,2,3,3,4,4,5,5,6,6,7,7,8,8,9,9,10,10,13,13,14,14],"right_children":[2,4,6,8,10,12,14,16,18,20,22,-1,-1,24,26,-1,-1,-1,-1,-1,-1,-1,-1,-1,-1,-1,-1],"split_conditions":[4.309998E-1,1.714167E-2,4.010415E-1,5.0014746E-1,7.16237E-1,8.999578E-1,4.3329678E0,4.978485E-1,-7.822505E-3,2.1151872E0,1.5486299E-1,3.8103845E-2,3.951134E-4,4.1928315E0,5.280377E-1,-2.4397241E-2,1.1976416E-2,-2.4283847E-2,-3.965201E-2,7.5013917E-3,-1.5385206E-2,-2.9911106E-2,-1.2426386E-2,-2.121572E-3,2.9176597E-2,-5.0455574E-3,3.404979E-2],"split_indices":[1,1,3,3,3,1,0,3,1,0,1,0,0,2,3,0,0,0,0,0,0,0,0,0,0,0,0],"split_type":[0,0,0,0,0,0,0,0,0,0,0,0,0,0,0,0,0,0,0,0,0,0,0,0,0,0,0],"sum_hessian":[1.865812E2,9.238961E1,9.41916E1,5.1563194E1,4.0826416E1,2.233217E1,7.185943E1,1.0078398E1,4.1484795E1,2.8461428E1,1.2364988E1,2.1113735E1,1.2184356E0,3.6495876E1,3.5363552E1,8.636386E0,1.4420121E0,7.412727E0,3.4072067E1,1.9907991E1,8.553436E0,3.7968733E0,8.568115E0,2.9092066E1,7.4038086E0,4.94421E0,3.041934E1],"tree_param":{"num_deleted":"0","num_feature":"7","num_nodes":"27","size_leaf_vector":"1"}},{"base_weights":[1.5968189E-2,-3.2857534E-1,2.1983218E-1,-1.0117936E-1,-3.9383286E-1,1.3069652E-1,3.514208E-1,2.2765687E-2,-1.9528799E-1,-3.5795894E-2,-2.915011E-1,3.986858E-1,6.243932E-2,3.7355193E-1,-1.9335806E-2,-2.5997154E-2,-6.7756013E-3,-2.7420064E-2,1.0822679E-2,4.165943E-2,9.893077E-3,1.7250754E-2,-6.401831E-3,3.258018E-2,1.4092663E-3],"categories":[],"categories_nodes":[],"categories_segments":[],"categories_sizes":[],"default_left":[0,0,0,0,0,0,0,0,0,0,0,0,0,0,0,0,0,0,0,0,0,0,0,0,0],"id":29,"left_children":[1,3,5,7,9,11,13,-1,15,-1,17,19,21,23,-1,-1,-1,-1,-1,-1,-1,-1,-1,-1,-1],"loss_changes":[1.3326741E1,1.0070496E0,1.3516574E0,6.755155E-1,1.6843319E-1,1.3036307E0,7.1413326E-1,0E0,1.7785966E-1,0E0,5.187508E-1,4.242785E-1,1.3064367E0,5.471158E-1,0E0,0E0,0E0,0E0,0E0,0E0,0E0,0E0,0E0,0E0,0E0],"parents":[2147483647,0,0,1,1,2,2,3,3,4,4,5,5,6,6,8,8,10,10,11,11,12,12,13,13],"right_children":[2,4,6,8,10,12,14,-1,16,-1,18,20,22,24,-1,-1,-1,-1,-1,-1,-1,-1,-1,-1,-1],"split_conditions":[1.9029409E0,5.0014746E-1,4.1947594E0,3.0809922E0,1E0,1.9431946E0,8.5608613E-1,2.2765687E-2,1E0,-3.5795894E-2,2E0,2E0,5.664482E-1,4.270117E0,-1.9335806E-2,-2.5997154E-2,-6.7756013E-3,-2.7420064E-2,1.0822679E-2,4.165943E-2,9.893077E-3,1.7250754E-2,-6.401831E-3,3.258018E-2,1.4092663E-3],"split_indices":[0,3,0,2,6,0,3,0,6,0,4,4,3,2,0,0,0,0,0,0,0,0,0,0,0],"split_type":[0,0,0,0,0,0,0,0,0,0,0,0,0,0,0,0,0,0,0,0,0,0,0,0,0],"sum_hessian":[1.877031E2,6.9548996E1,1.181541E2,1.6077145E1,5.347185E1,7.1627914E1,4.6526188E1,2.7560918E0,1.33210535E1,3.2874844E1,2.0597008E1,1.35575905E1,5.807032E1,4.520947E1,1.3167193E0,5.239299E0,8.081755E0,1.8564608E1,2.0323994E0,8.771342E0,4.7862487E0,2.7733643E1,3.033668E1,4.1167526E1,4.0419445E0],"tree_param":{"num_deleted":"0","num_feature":"7","num_nodes":"25","size_leaf_vector":"1"}},{"base_weights":[2.443256E-3,-3.8282412E-1,1.7586972E-1,-1.4617933E-1,-4.4686466E-1,6.375834E-2,3.3617204E-1,2.8064743E-1,-2.7545542E-1,-2.498857E-1,-3.8504444E-2,1.3967611E-1,-1.383849E-1,3.7928358E-1,6.804319E-2,6.4891437E-3,2.7597105E-2,-2.503334E-2,-8.794863E-3,-2.3591947E-2,3.0924596E-3,7.704084E-3,2.9799137E-2,-1.8245006E-2,3.6136566E-3,3.2376256E-2,6.4937286E-3,1.6101196E-2,-2.7410721E-2],"categories":[],"categories_nodes":[],"categories_segments":[],"categories_sizes":[],"default_left":[0,0,0,0,0,0,0,0,0,0,0,0,0,0,0,0,0,0,0,0,0,0,0,0,0,0,0,0,0],"id":30,"left_children":[1,3,5,7,9,11,13,15,17,19,-1,21,23,25,27,-1,-1,-1,-1,-1,-1,-1,-1,-1,-1,-1,-1,-1,-1],"loss_changes":[1.2305179E1,8.010788E-1,2.260774E0,8.311708E-1,1.81674E-1,1.1850448E0,5.756078E-1,1.9134253E-2,3.374946E-2,1.24444425E-1,0E0,5.2679825E-1,3.59956E-1,3.051443E-1,5.2991766E-1,0E0,0E0,0E0,0E0,0E0,0E0,0E0,0E0,0E0,0E0,0E0,0E0,0E0,0E0],"parents":[2147483647,0,0,1,1,2,2,3,3,4,4,5,5,6,6,7,7,8,8,9,9,11,11,12,12,13,13,14,14],"right_children":[2,4,6,8,10,12,14,16,18,20,-1,22,24,26,28,-1,-1,-1,-1,-1,-1,-1,-1,-1,-1,-1,-1,-1,-1],"split_conditions":[5.264758E-2,5.0014746E-1,5.6974095E-1,3.0809922E0,-7.822505E-3,2.134979E0,7.347638E-1,8.786694E-3,7.300207E-3,1E0,-3.8504444E-2,4.1928315E0,4.881152E-1,4.270117E0,3.6826098E0,6.4891437E-3,2.7597105E-2,-2.503334E-2,-8.794863E-3,-2.3591947E-2,3.0924596E-3,7.704084E-3,2.9799137E-2,-1.8245006E-2,3.6136566E-3,3.2376256E-2,6.4937286E-3,1.6101196E-2,-2.7410721E-2],"split_indices":[1,3,1,2,1,0,3,1,1,5,0,2,1,2,2,0,0,0,0,0,0,0,0,0,0,0,0,0,0],"split_type":[0,0,0,0,0,0,0,0,0,0,0,0,0,0,0,0,0,0,0,0,0,0,0,0,0,0,0,0,0],"sum_hessian":[1.8215872E2,5.616984E1,1.2598888E2,1.26623E1,4.350754E1,7.496088E1,5.1027996E1,2.6713784E0,9.990922E0,7.7035937E0,3.5803947E1,5.4719296E1,2.0241585E1,4.3602703E1,7.4252925E0,1.2023674E0,1.469011E0,7.4208746E0,2.5700474E0,6.644924E0,1.0586696E0,4.7317318E1,7.4019785E0,1.3435221E1,6.806364E0,3.984741E1,3.7552938E0,5.9915733E0,1.4337192E0],"tree_param":{"num_deleted":"0","num_feature":"7","num_nodes":"29","size_leaf_vector":"1"}},{"base_weights":[-1.3039028E-2,-3.86224E-1,1.6247585E-1,-1.516642E-1,-4.5022914E-1,-4.2217206E-2,2.3799019E-1,2.700545E-1,-2.8084418E-1,-2.4462146E-1,-3.8926654E-2,9.128146E-3,-2.539769E-1,2.5368783E-1,-1.6343842E-1,6.0018483E-3,2.703564E-2,-2.544721E-2,-4.0628426E-3,-4.0074857E-3,-2.5634676E-2,-5.944551E-3,1.1172275E-2,-3.2908287E-2,-2.5304558E-3,-5.9850896E-3,2.1775676E-2,-1.9591872E-2,6.814153E-4],"categories":[],"categories_nodes":[],"categories_segments":[],"categories_sizes":[],"default_left":[0,0,0,0,0,0,0,0,0,0,0,0,0,0,0,0,0,0,0,0,0,0,0,0,0,0,0,0,0],"id":31,"left_children":[1,3,5,7,9,11,13,15,17,19,-1,21,23,25,27,-1,-1,-1,-1,-1,-1,-1,-1,-1,-1,-1,-1,-1,-1],"loss_changes":[1.1531734E1,7.770424E-1,1.8617358E0,8.155763E-1,2.0782089E-1,3.625713E-1,5.9385586E-1,2.3556054E-2,7.711488E-2,1.10495925E-1,0E0,3.1130567E-1,2.1446133E-1,5.356641E-1,5.681493E-2,0E0,0E0,0E0,0E0,0E0,0E0,0E0,0E0,0E0,0E0,0E0,0E0,0E0,0E0],"parents":[2147483647,0,0,1,1,2,2,3,3,4,4,5,5,6,6,7,7,8,8,9,9,11,11,12,12,13,13,14,14],"right_children":[2,4,6,8,10,12,14,16,18,20,-1,22,24,26,28,-1,-1,-1,-1,-1,-1,-1,-1,-1,-1,-1,-1,-1,-1],"split_conditions":[8.956014E-2,5.0014746E-1,4.309998E-1,3.0809922E0,-7.822505E-3,3.381404E-1,8.5608613E-1,8.786694E-3,4.873883E-1,3.0745435E0,-3.8926654E-2,2.618888E-1,6.7017525E-1,3.0325463E0,9.3520504E-1,6.0018483E-3,2.703564E-2,-2.544721E-2,-4.0628426E-3,-4.0074857E-3,-2.5634676E-2,-5.944551E-3,1.1172275E-2,-3.2908287E-2,-2.5304558E-3,-5.9850896E-3,2.1775676E-2,-1.9591872E-2,6.814153E-4],"split_indices":[1,3,1,2,1,1,3,1,3,2,0,1,3,2,3,0,0,0,0,0,0,0,0,0,0,0,0,0,0],"split_type":[0,0,0,0,0,0,0,0,0,0,0,0,0,0,0,0,0,0,0,0,0,0,0,0,0,0,0,0,0],"sum_hessian":[1.7410025E2,5.5306152E1,1.18794106E2,1.2578663E1,4.272749E1,3.213318E1,8.666093E1,2.693848E0,9.884815E0,7.5809216E0,3.5146564E1,2.6632496E1,5.5006847E0,8.375382E1,2.9071069E0,1.2391574E0,1.4546903E0,8.178145E0,1.70667E0,2.591665E0,4.989257E0,1.6509754E1,1.0122741E1,2.723167E0,2.7775176E0,4.3048487E0,7.944897E1,1.6847888E0,1.2223182E0],"tree_param":{"num_deleted":"0","num_feature":"7","num_nodes":"29","size_leaf_vector":"1"}},{"base_weights":[-1.3772352E-3,-2.653552E-1,2.5144547E-1,-3.961393E-1,-7.509561E-2,4.0213042E-1,1.9852133E-1,-2.8093755E-1,-3.7224703E-2,-2.2555177E-1,2.7461072E-2,5.052942E-1,2.0516032E-1,-1.08924195E-1,2.611419E-1,-4.754722E-3,-2.8172273E-2,-5.7372684E-3,-2.307795E-2,9.825141E-3,-1.2104151E-2,1.4418685E-2,4.675281E-2,-1.0821781E-2,3.9974663E-2,-2.3377094E-2,-7.808761E-6,9.580231E-3,3.1800948E-2],"categories":[],"categories_nodes":[],"categories_segments":[],"categories_sizes":[],"default_left":[0,0,0,0,0,0,0,0,0,0,0,0,0,0,0,0,0,0,0,0,0,0,0,0,0,0,0,0,0],"id":32,"left_children":[1,3,5,7,9,11,13,15,-1,17,19,21,23,25,27,-1,-1,-1,-1,-1,-1,-1,-1,-1,-1,-1,-1,-1,-1],"loss_changes":[1.16990385E1,2.1040235E0,6.342516E-1,2.7236462E-1,5.642615E-1,3.4946442E-1,1.3422682E0,3.1824875E-1,0E0,1.2226772E-1,4.003781E-1,2.534554E-1,1.0049217E0,2.4438336E-1,1.0512099E0,0E0,0E0,0E0,0E0,0E0,0E0,0E0,0E0,0E0,0E0,0E0,0E0,0E0,0E0],"parents":[2147483647,0,0,1,1,2,2,3,3,4,4,5,5,6,6,7,7,9,9,10,10,11,11,12,12,13,13,14,14],"right_children":[2,4,6,8,10,12,14,16,-1,18,20,22,24,26,28,-1,-1,-1,-1,-1,-1,-1,-1,-1,-1,-1,-1,-1,-1],"split_conditions":[4.309998E-1,3.0368188E-2,4.010415E-1,5.8728683E-1,1E0,6.3065535E-1,5.280377E-1,3.1531632E0,-3.7224703E-2,1.4706385E0,2.134979E0,1E0,3.609088E-1,4.7120282E-1,4.3329678E0,-4.754722E-3,-2.8172273E-2,-5.7372684E-3,-2.307795E-2,9.825141E-3,-1.2104151E-2,1.4418685E-2,4.675281E-2,-1.0821781E-2,3.9974663E-2,-2.3377094E-2,-7.808761E-6,9.580231E-3,3.1800948E-2],"split_indices":[1,1,3,3,6,1,3,2,0,0,0,6,3,3,0,0,0,0,0,0,0,0,0,0,0,0,0,0,0],"split_type":[0,0,0,0,0,0,0,0,0,0,0,0,0,0,0,0,0,0,0,0,0,0,0,0,0,0,0,0,0],"sum_hessian":[1.73294E2,8.4752464E1,8.854155E1,4.958543E1,3.5167034E1,2.129954E1,6.7242004E1,2.0501608E1,2.9083824E1,1.3768547E1,2.1398487E1,1.2951051E1,8.348489E0,1.1253205E1,5.5988804E1,5.4341803E0,1.5067428E1,4.6180024E0,9.150545E0,1.4158981E1,7.239505E0,3.17679E0,9.7742605E0,4.1232376E0,4.2252517E0,3.5645447E0,7.688661E0,2.841065E1,2.7578154E1],"tree_param":{"num_deleted":"0","num_feature":"7","num_nodes":"29","size_leaf_vector":"1"}},{"base_weights":[1.1964098E-3,-3.0853465E-1,1.855242E-1,-9.485904E-2,-3.743045E-1,8.982736E-2,3.3627158E-1,2.0911299E-1,-1.7662251E-1,-3.8135305E-1,-4.0675257E-3,3.7341484E-1,1.662003E-2,3.529174E-1,-1.345257E-2,2.9048473E-3,2.5021069E-2,-2.2443261E-2,-3.420866E-3,-2.479379E-2,-3.607531E-2,1.191524E-2,3.6316402E-2,2.5696002E-2,-4.3847566E-3,3.0520823E-2,2.896165E-4],"categories":[],"categories_nodes":[],"categories_segments":[],"categories_sizes":[],"default_left":[0,0,0,0,0,0,0,0,0,0,0,0,0,0,0,0,0,0,0,0,0,0,0,0,0,0,0],"id":33,"left_children":[1,3,5,7,9,11,13,15,17,19,-1,21,23,25,-1,-1,-1,-1,-1,-1,-1,-1,-1,-1,-1,-1,-1],"loss_changes":[9.917106E0,8.752737E-1,1.5406868E0,4.493247E-1,9.281874E-2,1.4049618E0,4.1132975E-1,5.9839606E-2,1.7743465E-1,9.8899364E-2,0E0,1.8369186E-1,1.2157712E0,4.0713644E-1,0E0,0E0,0E0,0E0,0E0,0E0,0E0,0E0,0E0,0E0,0E0,0E0,0E0],"parents":[2147483647,0,0,1,1,2,2,3,3,4,4,5,5,6,6,7,7,8,8,9,9,11,11,12,12,13,13],"right_children":[2,4,6,8,10,12,14,16,18,20,-1,22,24,26,-1,-1,-1,-1,-1,-1,-1,-1,-1,-1,-1,-1,-1],"split_conditions":[1.9029409E0,5.0014746E-1,4.2021456E0,3.0809922E0,9.394698E-1,4.0883973E-1,8.5608613E-1,2.5862591E0,2E0,6.997734E-1,-4.0675257E-3,1E0,1.9431946E0,4.270117E0,-1.345257E-2,2.9048473E-3,2.5021069E-2,-2.2443261E-2,-3.420866E-3,-2.479379E-2,-3.607531E-2,1.191524E-2,3.6316402E-2,2.5696002E-2,-4.3847566E-3,3.0520823E-2,2.896165E-4],"split_indices":[0,3,0,2,3,3,3,2,4,3,0,6,0,2,0,0,0,0,0,0,0,0,0,0,0,0,0],"split_type":[0,0,0,0,0,0,0,0,0,0,0,0,0,0,0,0,0,0,0,0,0,0,0,0,0,0,0],"sum_hessian":[1.717012E2,6.3808384E1,1.0789282E2,1.5592655E1,4.821573E1,6.697311E1,4.091972E1,2.974992E0,1.2617662E1,4.7012302E1,1.2034258E0,1.2900172E1,5.4072933E1,3.9903297E1,1.0164208E0,1.6216875E0,1.3533045E0,6.4864283E0,6.1312346E0,2.589026E1,2.1122044E1,4.158696E0,8.741476E0,9.60782E0,4.4465115E1,3.679879E1,3.1045096E0],"tree_param":{"num_deleted":"0","num_feature":"7","num_nodes":"27","size_leaf_vector":"1"}},{"base_weights":[7.3583503E-3,-2.4518378E-1,2.5365764E-1,-3.931135E-1,-7.088013E-2,1.866867E-1,4.081541E-1,-2.8400075E-1,-3.674782E-2,-2.0663637E-1,3.866462E-2,3.9949283E-1,1.0521559E-1,4.5582497E-1,8.203681E-2,-7.042999E-3,-2.739189E-2,-5.0327918E-3,-2.4568336E-2,8.077248E-3,-1.4090425E-2,3.7944715E-2,6.3547622E-3,-1.1474479E-2,1.48388855E-2,1.9629052E-2,4.340422E-2,2.0476561E-2,-1.66583E-2],"categories":[],"categories_nodes":[],"categories_segments":[],"categories_sizes":[],"default_left":[0,0,0,0,0,0,0,0,0,0,0,0,0,0,0,0,0,0,0,0,0,0,0,0,0,0,0,0,0],"id":34,"left_children":[1,3,5,7,9,11,13,15,-1,17,19,21,23,25,27,-1,-1,-1,-1,-1,-1,-1,-1,-1,-1,-1,-1,-1,-1],"loss_changes":[1.0623495E1,2.1468859E0,8.182874E-1,1.9767189E-1,6.019478E-1,1.0355167E0,3.5591745E-1,1.9609904E-1,0E0,2.4050575E-1,3.2484618E-1,3.657844E-1,9.5074666E-1,2.657652E-1,2.777462E-1,0E0,0E0,0E0,0E0,0E0,0E0,0E0,0E0,0E0,0E0,0E0,0E0,0E0,0E0],"parents":[2147483647,0,0,1,1,2,2,3,3,4,4,5,5,6,6,7,7,9,9,10,10,11,11,12,12,13,13,14,14],"right_children":[2,4,6,8,10,12,14,16,-1,18,20,22,24,26,28,-1,-1,-1,-1,-1,-1,-1,-1,-1,-1,-1,-1,-1,-1],"split_conditions":[4.309998E-1,1.714167E-2,5.616378E0,5.9939104E-1,1E0,4.010415E-1,7.332553E-1,-5.573078E-3,-3.674782E-2,1.4706385E0,3.2586828E-1,6.4619535E-1,5.623346E-1,5.280377E-1,6.786414E0,-7.042999E-3,-2.739189E-2,-5.0327918E-3,-2.4568336E-2,8.077248E-3,-1.4090425E-2,3.7944715E-2,6.3547622E-3,-1.1474479E-2,1.48388855E-2,1.9629052E-2,4.340422E-2,2.0476561E-2,-1.66583E-2],"split_indices":[1,1,0,3,6,3,3,1,0,0,1,1,3,3,0,0,0,0,0,0,0,0,0,0,0,0,0,0,0],"split_type":[0,0,0,0,0,0,0,0,0,0,0,0,0,0,0,0,0,0,0,0,0,0,0,0,0,0,0,0,0],"sum_hessian":[1.6879326E2,8.334267E1,8.5450584E1,4.440298E1,3.8939686E1,6.115119E1,2.4299397E1,1.8769833E1,2.5633148E1,1.6993599E1,2.1946087E1,1.5849114E1,4.530208E1,2.0853376E1,3.4460204E0,4.8850007E0,1.3884832E1,7.660653E0,9.332945E0,1.7422623E1,4.523464E0,1.245558E1,3.3935347E0,1.08637085E1,3.443837E1,7.203003E0,1.36503725E1,2.2287836E0,1.2172368E0],"tree_param":{"num_deleted":"0","num_feature":"7","num_nodes":"29","size_leaf_vector":"1"}},{"base_weights":[-7.1461573E-3,-2.966779E-1,1.6320986E-1,-8.9577995E-2,-3.5847592E-1,-2.0201525E-1,1.949342E-1,2.3248786E-1,-1.8654168E-1,-2.864877E-1,-4.2795604E-1,2.1138526E-2,-3.056675E-1,1.365987E-1,3.805783E-1,5.9814313E-3,2.3449073E-2,-2.323269E-2,-3.7285702E-3,-2.5304653E-2,5.421805E-3,-3.5514347E-2,-6.0673296E-3,-5.7527167E-3,9.653005E-3,-1.04352385E-2,-2.9562086E-2,4.5923818E-2,8.275713E-3,3.4907565E-2,4.248948E-3],"categories":[],"categories_nodes":[],"categories_segments":[],"categories_sizes":[],"default_left":[0,0,0,0,0,0,0,0,0,0,0,0,0,0,0,0,0,0,0,0,0,0,0,0,0,0,0,0,0,0,0],"id":35,"left_children":[1,3,5,7,9,11,13,15,17,19,21,23,25,27,29,-1,-1,-1,-1,-1,-1,-1,-1,-1,-1,-1,-1,-1,-1,-1,-1],"loss_changes":[8.272306E0,7.6289654E-1,1.2630994E0,5.308194E-1,1.1502409E-1,2.1306035E-1,1.0058937E0,1.6878173E-2,1.6890207E-1,2.998929E-1,9.09152E-2,4.357232E-2,2.0769E-2,1.0411707E0,3.9312148E-1,0E0,0E0,0E0,0E0,0E0,0E0,0E0,0E0,0E0,0E0,0E0,0E0,0E0,0E0,0E0,0E0],"parents":[2147483647,0,0,1,1,2,2,3,3,4,4,5,5,6,6,7,7,8,8,9,9,10,10,11,11,12,12,13,13,14,14],"right_children":[2,4,6,8,10,12,14,16,18,20,22,24,26,28,30,-1,-1,-1,-1,-1,-1,-1,-1,-1,-1,-1,-1,-1,-1,-1,-1],"split_conditions":[1.9029409E0,5.0014746E-1,3.0722303E0,3.0809922E0,6.997734E-1,5.4734933E-1,5.616378E0,1E0,2E0,6.6917413E-1,9.394698E-1,2.5862591E0,2.6518326E0,3.1214836E0,6.855735E0,5.9814313E-3,2.3449073E-2,-2.323269E-2,-3.7285702E-3,-2.5304653E-2,5.421805E-3,-3.5514347E-2,-6.0673296E-3,-5.7527167E-3,9.653005E-3,-1.04352385E-2,-2.9562086E-2,4.5923818E-2,8.275713E-3,3.4907565E-2,4.248948E-3],"split_indices":[0,3,2,2,3,3,0,6,4,3,3,2,2,2,0,0,0,0,0,0,0,0,0,0,0,0,0,0,0,0,0],"split_type":[0,0,0,0,0,0,0,0,0,0,0,0,0,0,0,0,0,0,0,0,0,0,0,0,0,0,0,0,0,0,0],"sum_hessian":[1.6573372E2,6.1117985E1,1.0461573E2,1.4609068E1,4.650892E1,7.931929E0,9.66838E1,3.0571227E0,1.1551945E1,2.535841E1,2.1150509E1,2.7682354E0,5.163694E0,7.48875E1,2.1796305E1,1.4689251E0,1.5881977E0,6.0132613E0,5.5386834E0,2.3488365E1,1.8700439E0,1.9983236E1,1.167273E0,1.57407E0,1.1941655E0,2.191873E0,2.9718208E0,4.1262035E0,7.076129E1,1.8340504E1,3.4558015E0],"tree_param":{"num_deleted":"0","num_feature":"7","num_nodes":"31","size_leaf_vector":"1"}},{"base_weights":[-2.120202E-3,-2.3379774E-1,2.2832246E-1,-3.6769995E-1,-7.631087E-2,3.3563565E-2,1.5964468E-1,-2.015904E-1,-4.0658578E-1,-1.9237256E-1,1.7747302E-2,1.0863578E-2,3.0452493E-1,-2.2383275E-2,1.0972117E-2,-1.4453019E-2,-3.63799E-2,-4.8510027E-3,-2.254937E-2,6.920078E-3,-1.5453893E-2,-1.707838E-2,7.965805E-3,-3.997812E-3,2.8863544E-2],"categories":[],"categories_nodes":[],"categories_segments":[],"categories_sizes":[],"default_left":[0,0,0,0,0,0,0,0,0,0,0,0,0,0,0,0,0,0,0,0,0,0,0,0,0],"id":36,"left_children":[1,3,5,7,9,-1,11,13,15,17,19,21,23,-1,-1,-1,-1,-1,-1,-1,-1,-1,-1,-1,-1],"loss_changes":[8.820753E0,1.7092409E0,1.0208659E0,2.0395184E-1,4.3046808E-1,0E0,1.3452027E0,3.133356E-1,2.9742336E-1,1.903587E-1,3.4334007E-1,6.56138E-1,6.4953494E-1,0E0,0E0,0E0,0E0,0E0,0E0,0E0,0E0,0E0,0E0,0E0,0E0],"parents":[2147483647,0,0,1,1,2,2,3,3,4,4,6,6,7,7,8,8,9,9,10,10,11,11,12,12],"right_children":[2,4,6,8,10,-1,12,14,16,18,20,22,24,-1,-1,-1,-1,-1,-1,-1,-1,-1,-1,-1,-1],"split_conditions":[4.309998E-1,1.714167E-2,4.010415E-1,5.0014746E-1,1E0,3.3563565E-2,4.3329678E0,4.978485E-1,-7.822505E-3,1.4706385E0,3.2586828E-1,5.623346E-1,5.280377E-1,-2.2383275E-2,1.0972117E-2,-1.4453019E-2,-3.63799E-2,-4.8510027E-3,-2.254937E-2,6.920078E-3,-1.5453893E-2,-1.707838E-2,7.965805E-3,-3.997812E-3,2.8863544E-2],"split_indices":[1,1,3,3,6,0,0,3,1,0,1,3,3,0,0,0,0,0,0,0,0,0,0,0,0],"split_type":[0,0,0,0,0,0,0,0,0,0,0,0,0,0,0,0,0,0,0,0,0,0,0,0,0],"sum_hessian":[1.632187E2,8.138401E1,8.183469E1,4.326415E1,3.811986E1,2.0274569E1,6.1560116E1,9.379913E0,3.3884235E1,1.65961E1,2.1523762E1,3.0901545E1,3.0658571E1,7.7620316E0,1.6178817E0,6.789081E0,2.7095156E1,7.392289E0,9.203812E0,1.6677353E1,4.8464093E0,8.357945E0,2.25436E1,4.215127E0,2.6443443E1],"tree_param":{"num_deleted":"0","num_feature":"7","num_nodes":"25","size_leaf_vector":"1"}},{"base_weights":[2.0008676E-3,-2.8530386E-1,1.7110515E-1,-9.180808E-2,-3.4734637E-1,6.282101E-2,3.0393434E-1,1.9473286E-1,-1.6530056E-1,-3.212652E-2,-2.4762282E-1,1.664284E-1,-1.649416E-1,3.1852344E-1,-5.6185513E-3,3.3392601E-3,2.254528E-2,-2.2476027E-2,-1.9458018E-3,-2.7398951E-2,-3.8677542E-3,2.690833E-2,6.6003404E-3,-7.2054323E-3,-5.12674E-2,2.7405888E-2,2.5737998E-3],"categories":[],"categories_nodes":[],"categories_segments":[],"categories_sizes":[],"default_left":[0,0,0,0,0,0,0,0,0,0,0,0,0,0,0,0,0,0,0,0,0,0,0,0,0,0,0],"id":37,"left_children":[1,3,5,7,9,11,13,15,17,-1,19,21,23,25,-1,-1,-1,-1,-1,-1,-1,-1,-1,-1,-1,-1,-1],"loss_changes":[7.8578334E0,6.8753576E-1,1.4451759E0,3.6721304E-1,1.4404058E-1,1.3806481E0,2.7052164E-1,3.7619963E-2,2.0842132E-1,0E0,3.325436E-1,5.414345E-1,5.9904504E-1,2.9154348E-1,0E0,0E0,0E0,0E0,0E0,0E0,0E0,0E0,0E0,0E0,0E0,0E0,0E0],"parents":[2147483647,0,0,1,1,2,2,3,3,4,4,5,5,6,6,7,7,8,8,10,10,11,11,12,12,13,13],"right_children":[2,4,6,8,10,12,14,16,18,-1,20,22,24,26,-1,-1,-1,-1,-1,-1,-1,-1,-1,-1,-1,-1,-1],"split_conditions":[1.9029409E0,5.0014746E-1,3.4753797E0,3.0809922E0,1E0,2.1151872E0,8.5608613E-1,2.5862591E0,2E0,-3.212652E-2,1E0,1.9431946E0,2.372804E0,4.270117E0,-5.6185513E-3,3.3392601E-3,2.254528E-2,-2.2476027E-2,-1.9458018E-3,-2.7398951E-2,-3.8677542E-3,2.690833E-2,6.6003404E-3,-7.2054323E-3,-5.12674E-2,2.7405888E-2,2.5737998E-3],"split_indices":[0,3,0,2,6,0,3,2,4,0,4,0,0,2,0,0,0,0,0,0,0,0,0,0,0,0,0],"split_type":[0,0,0,0,0,0,0,0,0,0,0,0,0,0,0,0,0,0,0,0,0,0,0,0,0,0,0],"sum_hessian":[1.5973073E2,5.8927303E1,1.0080344E2,1.4909108E1,4.4018192E1,5.6343998E1,4.4459435E1,2.7066011E0,1.2202507E1,2.6551226E1,1.7466969E1,3.8912365E1,1.7431633E1,4.293411E1,1.5253295E0,1.5183709E0,1.1882303E0,6.1579967E0,6.044511E0,1.1346756E1,6.120211E0,1.1870231E1,2.7042133E1,1.608952E1,1.3421129E0,3.9426403E1,3.507704E0],"tree_param":{"num_deleted":"0","num_feature":"7","num_nodes":"27","size_leaf_vector":"1"}},{"base_weights":[5.7450514E-3,-2.4146599E-1,2.4145617E-1,-3.5130316E-1,-6.0425498E-2,4.0984955E-1,1.8462254E-1,-1.7895511E-1,-3.9981887E-1,3.074367E-2,-1.3919151E-1,3.874977E-2,2.4637768E-1,-1.2827447E-1,2.6182273E-1,-1.9274687E-2,9.16134E-3,-7.745058E-4,-3.3009637E-2,-1.923105E-2,1.1326254E-4,-2.526576E-3,3.719451E-2,-1.913571E-2,5.224918E-3,4.380068E-2,1.3053147E-2],"categories":[],"categories_nodes":[],"categories_segments":[],"categories_sizes":[],"default_left":[0,0,0,0,0,0,0,0,0,0,0,0,0,0,0,0,0,0,0,0,0,0,0,0,0,0,0],"id":38,"left_children":[1,3,5,7,9,11,13,15,17,-1,19,-1,21,23,25,-1,-1,-1,-1,-1,-1,-1,-1,-1,-1,-1,-1],"loss_changes":[9.306278E0,1.5290909E0,7.0665264E-1,3.3245516E-1,1.1270406E0,1.2196255E-1,1.553855E0,2.535646E-1,1.8026304E-1,0E0,3.812542E-1,0E0,5.1510304E-1,2.9748118E-1,1.3427608E0,0E0,0E0,0E0,0E0,0E0,0E0,0E0,0E0,0E0,0E0,0E0,0E0],"parents":[2147483647,0,0,1,1,2,2,3,3,4,4,5,5,6,6,7,7,8,8,10,10,12,12,13,13,14,14],"right_children":[2,4,6,8,10,12,14,16,18,-1,20,-1,22,24,26,-1,-1,-1,-1,-1,-1,-1,-1,-1,-1,-1,-1],"split_conditions":[4.309998E-1,8.956014E-2,4.010415E-1,5.0014746E-1,1.4706385E0,6.4619535E-1,5.623346E-1,4.978485E-1,-3.893351E-2,3.074367E-2,1E0,3.874977E-2,3.609088E-1,5.61102E-1,5.7636654E-1,-1.9274687E-2,9.16134E-3,-7.745058E-4,-3.3009637E-2,-1.923105E-2,1.1326254E-4,-2.526576E-3,3.719451E-2,-1.913571E-2,5.224918E-3,4.380068E-2,1.3053147E-2],"split_indices":[1,1,3,3,0,1,3,3,1,0,5,0,3,1,3,0,0,0,0,0,0,0,0,0,0,0,0],"split_type":[0,0,0,0,0,0,0,0,0,0,0,0,0,0,0,0,0,0,0,0,0,0,0,0,0,0,0],"sum_hessian":[1.5770796E2,7.69643E1,8.074367E1,4.7316772E1,2.9647528E1,1.8807423E1,6.193624E1,1.1423684E1,3.589309E1,3.8772423E0,2.5770285E1,1.1569951E1,7.2374716E0,1.2126247E1,4.9809994E1,9.579589E0,1.8440953E0,1.1961375E0,3.4696953E1,1.4572589E1,1.1197696E1,3.562335E0,3.6751366E0,7.559282E0,4.5669656E0,1.1618032E1,3.8191963E1],"tree_param":{"num_deleted":"0","num_feature":"7","num_nodes":"27","size_leaf_vector":"1"}},{"base_weights":[-1.3241183E-2,-2.4089825E-1,2.153032E-1,-3.481863E-1,-7.487794E-2,3.8377047E-1,1.576914E-1,-2.369E-1,-3.4118157E-2,2.6606604E-1,-1.4850433E-1,4.0724283E-1,1.8405911E-4,-1.5270895E-1,2.1582592E-1,-2.089264E-3,-2.471807E-2,3.1048845E-2,-6.5624104E-3,-2.3654558E-2,-4.938587E-3,2.5633099E-2,4.4594306E-2,-2.6435634E-2,-2.663111E-3,6.310133E-3,2.835335E-2],"categories":[],"categories_nodes":[],"categories_segments":[],"categories_sizes":[],"default_left":[0,0,0,0,0,0,0,0,0,0,0,0,0,0,0,0,0,0,0,0,0,0,0,0,0,0,0],"id":39,"left_children":[1,3,5,7,9,11,13,15,-1,17,19,21,-1,23,25,-1,-1,-1,-1,-1,-1,-1,-1,-1,-1,-1,-1],"loss_changes":[8.006972E0,1.3466682E0,6.8514276E-1,3.0446482E-1,8.3092713E-1,1.6811776E-1,1.0966496E0,3.1811142E-1,0E0,2.849253E-1,3.2106966E-1,5.3256035E-2,0E0,1.9879438E-1,9.222274E-1,0E0,0E0,0E0,0E0,0E0,0E0,0E0,0E0,0E0,0E0,0E0,0E0],"parents":[2147483647,0,0,1,1,2,2,3,3,4,4,5,5,6,6,7,7,9,9,10,10,11,11,13,13,14,14],"right_children":[2,4,6,8,10,12,14,16,-1,18,20,22,-1,24,26,-1,-1,-1,-1,-1,-1,-1,-1,-1,-1,-1,-1],"split_conditions":[4.309998E-1,5.264758E-2,4.010415E-1,5.9939104E-1,1.4706385E0,8.999578E-1,5.280377E-1,3.1531632E0,-3.4118157E-2,6.5987885E-1,1E0,3.8379377E-1,1.8405911E-4,4.7120282E-1,4.335938E0,-2.089264E-3,-2.471807E-2,3.1048845E-2,-6.5624104E-3,-2.3654558E-2,-4.938587E-3,2.5633099E-2,4.4594306E-2,-2.6435634E-2,-2.663111E-3,6.310133E-3,2.835335E-2],"split_indices":[1,1,3,3,0,1,3,2,0,3,6,3,0,3,0,0,0,0,0,0,0,0,0,0,0,0,0],"split_type":[0,0,0,0,0,0,0,0,0,0,0,0,0,0,0,0,0,0,0,0,0,0,0,0,0,0,0],"sum_hessian":[1.5189536E2,7.606831E1,7.5827034E1,4.554094E1,3.0527376E1,1.7880352E1,5.7946682E1,2.0469894E1,2.5071043E1,4.957375E0,2.557E1,1.6780275E1,1.1000763E0,8.884172E0,4.906251E1,5.5630946E0,1.4906799E1,3.5853713E0,1.3720039E0,8.59095E0,1.697905E1,1.2618445E1,4.16183E0,2.860186E0,6.0239863E0,2.5466658E1,2.3595854E1],"tree_param":{"num_deleted":"0","num_feature":"7","num_nodes":"27","size_leaf_vector":"1"}},{"base_weights":[-3.586525E-4,-2.325765E-1,2.3092209E-1,-3.5610074E-1,-5.1755503E-2,-1.522423E-1,2.5548407E-1,-3.429865E-2,-2.377292E-1,2.9304677E-1,-1.3245559E-1,-2.200963E-2,1.2723633E-2,4.2708537E-1,2.0265871E-1,-2.563533E-2,9.681935E-3,-5.09777E-3,3.1335197E-2,-4.474966E-3,-2.6261134E-2,1.815338E-3,3.8599443E-2,-3.0268582E-3,1.993218E-2],"categories":[],"categories_nodes":[],"categories_segments":[],"categories_sizes":[],"default_left":[0,0,0,0,0,0,0,0,0,0,0,0,0,0,0,0,0,0,0,0,0,0,0,0,0],"id":40,"left_children":[1,3,5,7,9,11,13,-1,15,17,19,-1,-1,21,23,-1,-1,-1,-1,-1,-1,-1,-1,-1,-1],"loss_changes":[8.210407E0,1.6853652E0,7.597208E-1,2.862668E-1,9.328549E-1,2.4421155E-1,5.6930256E-1,0E0,6.148598E-1,2.5037086E-1,3.8205945E-1,0E0,0E0,3.5039926E-1,6.492748E-1,0E0,0E0,0E0,0E0,0E0,0E0,0E0,0E0,0E0,0E0],"parents":[2147483647,0,0,1,1,2,2,3,3,4,4,5,5,6,6,8,8,9,9,10,10,13,13,14,14],"right_children":[2,4,6,8,10,12,14,-1,16,18,20,-1,-1,22,24,-1,-1,-1,-1,-1,-1,-1,-1,-1,-1],"split_conditions":[4.309998E-1,5.264758E-2,3.0411835E0,1E0,1.4706385E0,5.9533954E0,3.2869081E0,-3.429865E-2,5.4343063E-3,8.956014E-2,3.2586828E-1,-2.200963E-2,1.2723633E-2,1E0,4.7913647E-1,-2.563533E-2,9.681935E-3,-5.09777E-3,3.1335197E-2,-4.474966E-3,-2.6261134E-2,1.815338E-3,3.8599443E-2,-3.0268582E-3,1.993218E-2],"split_indices":[1,1,2,6,0,0,2,0,1,1,1,0,0,6,1,0,0,0,0,0,0,0,0,0,0],"split_type":[0,0,0,0,0,0,0,0,0,0,0,0,0,0,0,0,0,0,0,0,0,0,0,0,0],"sum_hessian":[1.508726E2,7.528099E1,7.559162E1,4.415086E1,3.113013E1,4.2405915E0,7.135103E1,2.573687E1,1.841399E1,5.4050407E0,2.572509E1,3.123718E0,1.1168737E0,1.5126923E1,5.6224106E1,1.5050754E1,3.3632364E0,1.2474235E0,4.157617E0,1.9421274E1,6.303816E0,1.992702E0,1.313422E1,9.138768E0,4.708534E1],"tree_param":{"num_deleted":"0","num_feature":"7","num_nodes":"25","size_leaf_vector":"1"}},{"base_weights":[3.9272774E-3,-2.3159926E-1,2.3709908E-1,-3.8706556E-1,-9.700602E-2,4.139495E-1,1.7514674E-1,-2.4844164E-3,-4.0027916E-1,-2.623021E-1,3.530561E-2,3.4865446E-2,2.1349117E-3,4.9827535E-2,3.0413017E-1,-2.250054E-2,-3.4906864E-2,-3.142302E-2,-1.1434982E-2,1.9142011E-2,-3.89049E-3,-2.4646637E-3,2.7761497E-2,-4.453678E-3,2.8703183E-2],"categories":[],"categories_nodes":[],"categories_segments":[],"categories_sizes":[],"default_left":[0,0,0,0,0,0,0,0,0,0,0,0,0,0,0,0,0,0,0,0,0,0,0,0,0],"id":41,"left_children":[1,3,5,7,9,11,13,-1,15,17,19,-1,-1,21,23,-1,-1,-1,-1,-1,-1,-1,-1,-1,-1],"loss_changes":[8.165949E0,1.5104938E0,7.460623E-1,1.474843E-1,9.056723E-1,1.4630532E-1,9.072145E-1,0E0,1.75848E-2,2.2952187E-1,4.1647258E-1,0E0,0E0,7.329364E-1,5.6915116E-1,0E0,0E0,0E0,0E0,0E0,0E0,0E0,0E0,0E0,0E0],"parents":[2147483647,0,0,1,1,2,2,3,3,4,4,5,5,6,6,8,8,9,9,10,10,13,13,14,14],"right_children":[2,4,6,8,10,12,14,-1,16,18,20,-1,-1,22,24,-1,-1,-1,-1,-1,-1,-1,-1,-1,-1],"split_conditions":[4.309998E-1,5.4343063E-3,4.010415E-1,-3.893351E-2,1E0,8.999578E-1,4.3329678E0,-2.4844164E-3,-4.559351E-3,1.1705556E-1,1.4706385E0,3.4865446E-2,2.1349117E-3,4.1928315E0,5.280377E-1,-2.250054E-2,-3.4906864E-2,-3.142302E-2,-1.1434982E-2,1.9142011E-2,-3.89049E-3,-2.4646637E-3,2.7761497E-2,-4.453678E-3,2.8703183E-2],"split_indices":[1,1,3,1,6,1,0,0,1,1,0,0,0,2,3,0,0,0,0,0,0,0,0,0,0],"split_type":[0,0,0,0,0,0,0,0,0,0,0,0,0,0,0,0,0,0,0,0,0,0,0,0,0],"sum_hessian":[1.466932E2,7.298147E1,7.371175E1,3.2994396E1,3.9987072E1,1.7648949E1,5.6062794E1,1.3006842E0,3.1693714E1,1.7340828E1,2.2646242E1,1.6586914E1,1.0620359E0,2.9138441E1,2.6924353E1,9.41508E0,2.2278633E1,7.1901484E0,1.015068E1,6.0627832E0,1.658346E1,2.3624754E1,5.513686E0,3.5483787E0,2.3375975E1],"tree_param":{"num_deleted":"0","num_feature":"7","num_nodes":"25","size_leaf_vector":"1"}},{"base_weights":[1.0493497E-2,-2.123895E-1,2.2701049E-1,-3.600679E-1,-8.004206E-2,-9.398352E-2,2.5007138E-1,-1.9179732E-1,-4.0343732E-1,-2.192819E-1,3.1569503E-2,-2.9497576E-1,2.677931E-2,2.6558462E-1,-1.628096E-2,-2.2177197E-2,2.1992305E-3,-1.7542072E-2,-3.54518E-2,-2.6904888E-2,-9.2242835E-3,1.9931518E-2,-4.2986316E-3,-8.493129E-3,-2.7233204E-2,4.4089302E-2,1.8975254E-2],"categories":[],"categories_nodes":[],"categories_segments":[],"categories_sizes":[],"default_left":[0,0,0,0,0,0,0,0,0,0,0,0,0,0,0,0,0,0,0,0,0,0,0,0,0,0,0],"id":42,"left_children":[1,3,5,7,9,11,13,15,17,19,21,23,-1,25,-1,-1,-1,-1,-1,-1,-1,-1,-1,-1,-1,-1,-1],"loss_changes":[7.189544E0,1.4064734E0,5.8272886E-1,1.7382526E-1,6.2877166E-1,5.9770817E-1,5.519285E-1,1.7545077E-1,9.6346855E-2,1.7939538E-1,4.4183058E-1,2.2433996E-3,0E0,4.274726E-1,0E0,0E0,0E0,0E0,0E0,0E0,0E0,0E0,0E0,0E0,0E0,0E0,0E0],"parents":[2147483647,0,0,1,1,2,2,3,3,4,4,5,5,6,6,7,7,8,8,9,9,10,10,11,11,13,13],"right_children":[2,4,6,8,10,12,14,16,18,20,22,24,-1,26,-1,-1,-1,-1,-1,-1,-1,-1,-1,-1,-1,-1,-1],"split_conditions":[4.309998E-1,6.890372E-3,3.0722303E0,-7.822505E-3,1E0,6.1670446E0,8.5608613E-1,1E0,5.0014746E-1,1.1705556E-1,1.4706385E0,5.694905E-1,2.677931E-2,3.1214836E0,-1.628096E-2,-2.2177197E-2,2.1992305E-3,-1.7542072E-2,-3.54518E-2,-2.6904888E-2,-9.2242835E-3,1.9931518E-2,-4.2986316E-3,-8.493129E-3,-2.7233204E-2,4.4089302E-2,1.8975254E-2],"split_indices":[1,1,2,1,6,0,3,6,3,1,0,3,0,2,0,0,0,0,0,0,0,0,0,0,0,0,0],"split_type":[0,0,0,0,0,0,0,0,0,0,0,0,0,0,0,0,0,0,0,0,0,0,0,0,0,0,0],"sum_hessian":[1.4698245E2,7.243588E1,7.454657E1,3.3421852E1,3.901403E1,4.790477E0,6.975609E1,7.9599924E0,2.546186E1,1.692933E1,2.2084698E1,3.4738545E0,1.316622E0,6.784999E1,1.9060986E0,5.5384684E0,2.4215238E0,5.6732574E0,1.9788603E1,6.9135695E0,1.0015761E1,5.6789947E0,1.6405703E1,1.3210317E0,2.152823E0,4.4717765E0,6.3378216E1],"tree_param":{"num_deleted":"0","num_feature":"7","num_nodes":"27","size_leaf_vector":"1"}},{"base_weights":[3.950388E-3,-2.0792499E-1,2.1702601E-1,-3.541607E-1,-8.583462E-2,1.2461197E-1,2.9384905E-1,7.335609E-4,-3.6962983E-1,-1.8893935E-1,9.346373E-2,1.6207474E-1,-3.0577356E-1,3.3592328E-1,7.597457E-2,-1.7727634E-2,-3.208745E-2,-2.6191384E-2,-7.919641E-3,1.230855E-2,-1.408274E-2,2.3009576E-2,2.095492E-3,-3.1159066E-2,-5.6601283E-3,2.919895E-2,1.8554609E-3,2.9149774E-2,-7.6665827E-3],"categories":[],"categories_nodes":[],"categories_segments":[],"categories_sizes":[],"default_left":[0,0,0,0,0,0,0,0,0,0,0,0,0,0,0,0,0,0,0,0,0,0,0,0,0,0,0,0,0],"id":43,"left_children":[1,3,5,7,9,11,13,-1,15,17,19,21,23,25,27,-1,-1,-1,-1,-1,-1,-1,-1,-1,-1,-1,-1,-1,-1],"loss_changes":[6.552298E0,1.2690699E0,4.7706676E-1,1.8772125E-1,7.753504E-1,6.0711974E-1,3.2991457E-1,0E0,5.775118E-2,2.9576564E-1,2.8152424E-1,5.462985E-1,3.3739388E-2,2.8425527E-1,4.0990528E-1,0E0,0E0,0E0,0E0,0E0,0E0,0E0,0E0,0E0,0E0,0E0,0E0,0E0,0E0],"parents":[2147483647,0,0,1,1,2,2,3,3,4,4,5,5,6,6,8,8,9,9,10,10,11,11,12,12,13,13,14,14],"right_children":[2,4,6,8,10,12,14,-1,16,18,20,22,24,26,28,-1,-1,-1,-1,-1,-1,-1,-1,-1,-1,-1,-1,-1,-1],"split_conditions":[4.309998E-1,5.4343063E-3,5.6974095E-1,-3.893351E-2,1E0,4E0,7.332553E-1,7.335609E-4,5.0014746E-1,8.956014E-2,3.381404E-1,4.881152E-1,4.881152E-1,4.270117E0,6.4619535E-1,-1.7727634E-2,-3.208745E-2,-2.6191384E-2,-7.919641E-3,1.230855E-2,-1.408274E-2,2.3009576E-2,2.095492E-3,-3.1159066E-2,-5.6601283E-3,2.919895E-2,1.8554609E-3,2.9149774E-2,-7.6665827E-3],"split_indices":[1,1,1,1,5,4,3,0,3,1,1,1,1,2,1,0,0,0,0,0,0,0,0,0,0,0,0,0,0],"split_type":[0,0,0,0,0,0,0,0,0,0,0,0,0,0,0,0,0,0,0,0,0,0,0,0,0,0,0,0,0],"sum_hessian":[1.4313786E2,7.1783195E1,7.135467E1,3.1797007E1,3.998619E1,3.3580807E1,3.7773865E1,1.3151336E0,3.0481873E1,2.5353184E1,1.4633006E1,3.1465336E1,2.1154711E0,3.1205818E1,6.5680447E0,6.752836E0,2.3729036E1,8.944582E0,1.64086E1,1.2304687E1,2.32832E0,1.5774271E1,1.5691064E1,1.0752316E0,1.0402396E0,2.8399416E1,2.8064027E0,2.0335956E0,4.534449E0],"tree_param":{"num_deleted":"0","num_feature":"7","num_nodes":"29","size_leaf_vector":"1"}},{"base_weights":[3.4754416E-3,-2.1645266E-1,2.1698007E-1,-3.5325962E-1,-9.597832E-2,1.0798829E-1,3.0517146E-1,-2.5753432E-3,-3.661263E-1,-2.5800064E-1,3.615465E-2,3.2106137E-1,3.7141796E-2,3.2007393E-1,-9.1891615E-3,-1.683098E-2,-3.209241E-2,-3.1146234E-2,-1.1469518E-2,7.6228194E-3,-1.3988342E-2,2.9759245E-2,7.0899767E-3,-4.115078E-3,2.6674751E-2,2.7639639E-2,1.1499702E-3],"categories":[],"categories_nodes":[],"categories_segments":[],"categories_sizes":[],"default_left":[0,0,0,0,0,0,0,0,0,0,0,0,0,0,0,0,0,0,0,0,0,0,0,0,0,0,0],"id":44,"left_children":[1,3,5,7,9,11,13,-1,15,17,19,21,23,25,-1,-1,-1,-1,-1,-1,-1,-1,-1,-1,-1,-1,-1],"loss_changes":[6.596374E0,1.1067526E0,6.521337E-1,1.2054801E-1,8.2656366E-1,4.9264273E-1,2.7993822E-1,0E0,8.3099365E-2,2.0417285E-1,2.899494E-1,6.4217865E-2,7.051904E-1,2.886448E-1,0E0,0E0,0E0,0E0,0E0,0E0,0E0,0E0,0E0,0E0,0E0,0E0,0E0],"parents":[2147483647,0,0,1,1,2,2,3,3,4,4,5,5,6,6,8,8,9,9,10,10,11,11,12,12,13,13],"right_children":[2,4,6,8,10,12,14,-1,16,18,20,22,24,26,-1,-1,-1,-1,-1,-1,-1,-1,-1,-1,-1,-1,-1],"split_conditions":[4.309998E-1,6.890372E-3,5.6974095E-1,-3.893351E-2,1E0,4.010415E-1,8.5608613E-1,-2.5753432E-3,5.0014746E-1,1.1705556E-1,3.2586828E-1,2E0,4.1928315E0,4.270117E0,-9.1891615E-3,-1.683098E-2,-3.209241E-2,-3.1146234E-2,-1.1469518E-2,7.6228194E-3,-1.3988342E-2,2.9759245E-2,7.0899767E-3,-4.115078E-3,2.6674751E-2,2.7639639E-2,1.1499702E-3],"split_indices":[1,1,1,1,6,3,3,0,3,1,1,4,2,2,0,0,0,0,0,0,0,0,0,0,0,0,0],"split_type":[0,0,0,0,0,0,0,0,0,0,0,0,0,0,0,0,0,0,0,0,0,0,0,0,0,0,0],"sum_hessian":[1.3848067E2,6.82074E1,7.027328E1,3.1033953E1,3.7173443E1,3.242507E1,3.784821E1,1.330688E0,2.9703264E1,1.6270216E1,2.0903227E1,7.209745E0,2.5215326E1,3.678123E1,1.0669767E0,6.740586E0,2.2962679E1,6.4660597E0,9.804155E0,1.6756123E1,4.1471033E0,5.4214554E0,1.7882899E0,2.0048098E1,5.167229E0,3.3837193E1,2.944039E0],"tree_param":{"num_deleted":"0","num_feature":"7","num_nodes":"27","size_leaf_vector":"1"}}]},"name":"gbtree"},"learner_model_param":{"base_score":"[-3.204355E-9]","boost_from_average":"1","num_class":"0","num_feature":"7","num_target":"1"},"objective":{"lambdarank_param":{"lambdarank_bias_norm":"1","lambdarank_normalization":"1","lambdarank_num_pair_per_sample":"4294967295","lambdarank_pair_method":"topk","lambdarank_score_normalization":"1","lambdarank_unbiased":"0","ndcg_exp_gain":"1"},"name":"rank:ndcg"}},"version":[3,2,0]}